,0,1,2,3,4,5,6,7,8,9,10,11,12,13,14,15,16,17,18,19,20,21,22,23,24,25,26,27,28,29,30,31,32,33,34,35,36,37,38,39,40,41,42,43,44,45,46,47,48,49,50,51,52,53,54,55,56,57,58,59,60,61,62,63,64,65,66,67,68,69,70,71,72,73,74,75,76,77,78,79,80,81,82,83,84,85,86,87,88,89,90,91,92,93,94,95,96,97,98,99,LABEL
Backdoor.Graybird-009a62c6f6543ec65460d9a3984fac8dd65aba2feacfa00e8e253bb474a417e7,0.4624247,-0.28933436,-0.33694494,-0.51759815,0.38128337,-0.4022912,-0.31131577,0.30227384,0.5486255,-0.7106848,-0.0045593837,-0.55054873,0.4675907,0.49770656,-0.454625,0.42244366,0.12328259,-0.28253666,-0.102242604,-0.12869573,0.14006563,0.091792114,0.10956873,-0.089927435,-0.22351985,0.54352903,-0.19449821,0.13244599,0.007896861,-0.20165974,0.25272864,-0.027808117,-0.49584258,-0.08296072,0.0107759535,-0.115198195,0.07299522,-0.09177103,-0.21707353,-0.5060935,0.23508546,0.18904004,-0.2688113,-0.06315084,0.06528986,0.36287367,-0.15114926,0.19746016,0.21112542,-0.05735445,-0.03861869,0.3785979,0.19870062,-0.1167649,0.060900304,-0.14261541,0.24332298,-0.26260433,0.29299536,0.10167564,0.25408652,0.3532817,0.027967155,-0.261912,0.069641985,0.49506527,-0.42795214,-0.27360278,-0.4296793,-0.29072216,-0.19632198,0.5031906,0.346009,0.22941822,0.47658974,-1.2798848,0.43137863,-0.05729059,-0.19002609,0.018440027,0.24107902,0.61457056,-0.0436999,0.04820636,-0.38894996,0.1814546,0.11202795,-0.2501448,0.42654735,0.22343622,0.1953196,0.031366073,0.046538208,-0.36994138,-4.8241673e-05,-0.010756631,0.19047864,0.24609223,0.008356974,0.22073366,1.0
Backdoor.Graybird-02842b14fc265c045f10e2c5ab47c0b0a757c41d13a53194deb66aceb2e3993d,0.05757472,-0.8545159,-0.33488595,-0.16079424,-0.10530693,-0.08410731,-0.27037376,-0.011000736,-0.2703701,-0.37474597,0.40896276,-0.08838293,0.40844586,0.48991933,0.093278736,-0.080526896,-0.31211406,-0.1372388,-0.64889175,-0.38973576,0.20734075,-0.18679492,0.45065784,0.06376502,-0.44065917,0.42257017,-0.18230793,0.15703325,-0.06207205,0.120869674,0.16822563,-0.15240556,-0.33219025,-0.3455964,-0.05031056,-0.27623504,0.023584995,-0.011353778,-0.07532713,0.29917425,0.056789152,0.3395206,-0.22092235,-0.3321127,-0.14073913,0.33535448,0.10742602,0.15561871,0.1548894,-0.24721086,-0.37124237,0.40286773,0.059372265,-0.3738044,-0.5136932,-0.033817317,0.42052096,-0.030553348,-0.031276677,0.044646144,0.26589587,0.055576183,0.31075355,-0.06019426,-0.35196877,0.49029595,-0.3395459,-0.09320149,-0.61022204,-0.19296849,-0.04212218,0.4688384,0.15017295,0.12479432,0.39660448,-0.8893657,0.2663468,-0.028081473,-0.13528396,-0.1905462,0.21998462,0.3364475,-0.114547506,0.016499573,0.14194058,-0.039619233,0.08723883,-0.17826493,0.38806164,-0.2244784,-0.1758099,-0.27003852,0.030450396,-0.34607273,-0.19853629,-0.25480282,0.23520422,0.22453068,-0.19760644,0.39757636,1.0
Backdoor.Graybird-03b5962ef8b9c83fe0ed10fc4333a68462865f3a4442346c5f7d004a46555448,-0.2062567,-0.093143426,0.14696851,-0.31738636,0.08024508,0.09808732,-0.33704647,0.16090564,-0.07473001,-0.9085621,0.22880769,-0.40795812,0.33171725,0.06260707,0.03516092,0.57505614,-0.6231838,0.042829238,-0.53576833,-0.09806958,0.17450109,0.104465865,0.0038328448,0.13900381,-0.618099,0.24620223,-0.31453145,0.09472275,0.07582329,-0.0013273271,0.3083386,-0.20935592,-0.35489193,-0.29630923,0.015888955,-0.21734613,-0.015274723,0.04003396,-0.16271792,0.13444993,0.052616082,-0.20416947,-0.4298365,-0.10244901,0.08598294,0.38101554,0.21796678,0.28147805,0.14857228,-0.04797288,-0.0022510472,0.059115164,0.20531482,-0.060104102,-0.17750004,-0.22879435,-0.057440203,0.4501141,-0.08041761,-0.2839194,0.19592454,-0.11549398,0.2533107,-0.0610012,-0.19916944,0.30039707,-0.09355169,-0.16607237,-0.18418851,-0.027769884,0.007138056,-0.008081085,-0.059933968,-0.12745932,0.117076546,-0.4996563,0.55242246,0.034194842,-0.116931975,-0.24344926,-0.26137882,0.19766514,0.009849076,0.39233825,-0.17680657,-0.038069867,0.049275115,-0.17051584,0.14914301,-0.5730795,0.20097943,-0.0098556895,-0.31993648,-0.53568685,-0.44011524,0.21702112,-0.3045026,0.09898283,-0.65095526,0.16881505,1.0
Backdoor.Graybird-049f53a05707c2cccd67540609368ef20f395327adb9a026267369d568f78c0a,-0.18499218,-0.2233217,-0.061752453,-0.28625983,0.018119756,-0.2978318,-0.11033837,-0.0053922045,0.55891955,-0.5756038,0.30594668,-0.1906683,0.09425654,0.3475063,-0.079663165,-0.04564374,-0.20745361,-0.20788859,-0.177196,-0.2482344,0.15534954,-0.040019035,0.22195454,0.14697069,-0.27759212,0.28222385,-0.19044068,0.0710018,-0.1657371,-0.18850334,0.11454405,-0.11875827,-0.33631375,-0.10683505,-0.13289692,-0.23799297,0.21027763,-0.008906226,0.032950073,0.045548204,0.11098249,0.07772677,-0.13616699,-0.08069027,-0.027960451,0.24383745,0.060406864,0.09128176,0.05937823,-0.2402184,-0.18396783,0.2270034,0.0035858334,-0.28150913,-0.28109452,-0.07872793,0.20318049,0.09174582,-0.06351546,-0.0705983,0.23228544,0.2809407,0.15364279,-0.02744574,-0.3927398,0.5453354,-0.52619344,-0.09559479,-0.30500922,-0.11827609,-0.007020893,0.42797548,-0.08222203,-0.07836755,0.21118592,-0.56044,0.2715764,-0.10292166,0.026228443,-0.24259837,0.13773622,0.2209149,-0.16675244,0.12546742,-0.120933644,0.055701904,-0.048803672,0.003068506,0.33687225,-0.08630271,0.028876211,-0.2541068,0.014160868,-0.36527908,-0.05803894,-0.0883167,0.25512654,0.19705684,-0.25022477,0.13450527,1.0
Backdoor.Graybird-05339051a960d18fafb2e5d656e36b2fa007462d9a7b2fbfcb4532b3235ac5ed,-0.074589804,-0.4074538,-0.20604385,-0.31532454,-0.2937221,-0.3090605,0.21061532,0.13179916,0.57117766,-0.68770385,0.4265636,-0.13340554,0.01639459,0.38463372,-0.09967368,0.38927615,-0.18814078,0.024431735,0.14103246,-0.028883329,-0.031023426,0.078059904,0.3131515,0.16942707,-0.3947176,0.67754745,-0.20550075,0.24394019,0.024848664,-0.0044872477,0.2446339,-0.15559584,-0.42057705,-0.038647164,-0.28958437,-0.37744987,0.2595782,-0.10847511,0.18965413,0.04884233,0.10345927,0.116615325,-0.17660029,-0.11716382,-0.22444212,0.31153455,0.14864886,0.35405862,0.26417482,-0.06398819,-0.31356907,0.31926417,0.13230649,-0.47845563,-0.26310462,0.0013689828,0.2921311,-0.22274439,0.45332864,-0.085182115,0.2720695,0.24885777,0.5438027,-0.25046358,0.29778922,0.19427,-0.28546482,0.0022151282,-0.6210235,-0.1225917,-0.37313887,0.5152059,0.21554993,-0.009069851,0.23294443,-0.8705256,0.35338897,0.16607867,-0.0016035005,-0.14694054,0.21595033,0.30595025,0.009456261,-0.090677254,-0.120273344,-0.1579142,0.1113112,-0.028518828,0.26441088,0.09607028,-0.06536666,-0.21851206,0.09352879,-0.39080137,-0.1255046,-0.22925948,0.1926458,0.098642044,-0.22431438,0.14467317,1.0
Backdoor.Graybird-05bb2dcf38927dc99961deedaaff6ff120bdfd383745bac5aeb0c28340ea1010,-0.41790754,-0.9604906,-0.56845814,-0.14483745,-0.43742535,-0.37137058,-0.46203128,-0.3739425,0.2320209,-0.22407107,0.3746552,-0.070509695,-0.12937316,0.35255787,-0.004164268,0.18892048,-0.12496414,0.07696954,-0.2842243,-0.08980902,0.19025825,-0.092017606,0.4441874,0.28281415,-0.35749373,0.6442635,-0.0798971,0.19866684,-0.08359195,-0.17330405,0.1376074,-0.578596,-0.37214333,-0.28055155,-0.13574013,-0.7404771,0.22027832,-0.15810579,-0.00919071,0.23157452,0.37295973,0.24748382,-0.19574322,-0.55431134,-0.3119665,0.39101523,-0.022783618,0.3649494,-0.050668076,-0.34440392,-0.27533588,0.45700958,0.13161096,-0.4035704,-0.2620363,0.25468352,0.35533282,-0.22568251,0.3475268,0.15697694,0.25781605,0.46615267,0.2690559,-0.20785938,0.16330272,0.37810957,-0.13638571,-0.06325036,-0.94634724,-0.14896667,-0.3761986,0.5864359,0.11850973,-0.0021635136,0.20695111,-0.90713286,0.16367207,0.06258768,-0.13273568,0.06761406,0.39841697,0.27226233,0.010850739,-0.13335384,0.37654826,-0.18705986,0.22577389,-0.19847047,0.2539011,-0.03507007,-0.25068757,-0.24638069,-0.020155452,-0.38300997,-0.1659742,-0.2988744,0.42956465,0.1870182,-0.33923787,0.3959152,1.0
Backdoor.Graybird-06ba9a22cbf334f6beeb0bc5302d3f0d6b7ad734c9ed071d6f279936a37f4687,0.13946488,0.13743626,-0.040882748,-0.4918791,-0.68198407,0.08786897,0.0902578,-0.4872091,-0.56406987,0.25224346,0.5143878,0.45510432,0.038396955,0.11937121,0.12585568,0.26948562,0.08486855,0.22680593,0.36299923,0.16841656,-0.105936386,-0.34167406,0.34876323,0.09788256,-0.18919604,0.45067185,-0.20410742,0.0941539,0.04081699,-0.112417445,-0.018816344,-0.59272206,-0.33674893,0.006600027,-0.20549789,-0.429821,0.24403958,0.0665617,0.1049055,0.06635501,0.29532465,-0.33253452,-0.2275428,-0.3028593,-0.21808288,0.70543355,-0.020562544,0.48665404,-0.018756585,-0.20385054,-0.43833628,0.4140773,0.18493675,-0.42357975,-0.0869739,0.21690325,0.17818105,0.1732098,-0.009468892,-0.2302257,0.16586708,0.3896365,0.3570306,-0.25235322,-0.09709783,0.4045932,-0.45500183,-0.2811929,-0.64232564,-0.08171604,-0.15627219,0.2715761,-0.3591761,-0.3234933,-0.03519963,-0.5376578,0.4363731,-0.017763866,-0.07175289,-0.07977933,-0.4617506,0.38563082,-0.04467319,0.073888,0.016023759,0.24940944,-0.12081532,0.06428249,-0.020116331,0.052317377,-0.2719283,-0.35837185,-0.37875545,-0.40993026,-0.18907785,-0.08186449,-0.1272024,0.12755585,-0.5100342,0.32024157,1.0
Backdoor.Graybird-07adf0e72d58706d13117578493d64cc085811d7454fd598a805aa818a445f09,-0.4955277,-0.23579635,-0.63295543,-0.48968664,-0.19717708,-0.17317821,-0.51809484,-0.14659451,-0.2828555,-0.24818788,0.59349585,0.11325085,-0.006947777,0.23254266,-0.053888243,0.07669473,0.21653628,0.25810325,0.06399275,0.030070905,-0.12705532,-0.02578209,0.48818004,0.54108936,-0.47341555,0.29666567,0.018330269,-0.029203491,-0.01012003,-0.24646913,-0.23580948,-0.5542623,-0.51621413,-0.13359588,0.16148661,-0.39444983,-0.010706992,0.19924462,-0.08689082,0.1952922,0.27708805,0.165431,-0.21567917,-0.2425176,-0.005869392,0.2805746,-0.012268719,0.18798396,-0.12443475,-0.17962056,-0.10633125,0.21821302,0.02822259,-0.3561979,-0.28734022,0.24816617,0.17861971,0.11415203,0.2647071,0.06756415,0.029449157,0.17958155,0.29361713,-0.20494196,-0.0948273,0.624451,0.09989225,-0.08398284,-0.71774805,-0.034913953,-0.114259265,0.21882124,-0.018267822,-0.14878543,0.07553028,-0.11268952,0.0663422,0.17151943,0.023273429,0.044312384,-0.039415546,0.17503701,0.20570329,0.1731678,-0.059368588,-0.27828366,-0.0019248606,-0.2716984,0.1536073,-0.29536694,-0.13491896,-0.053905897,-0.29845425,-0.21346399,-0.38231805,-0.14749217,0.12136894,0.0063125845,-0.6014329,0.16442373,1.0
Backdoor.Graybird-0814e28a9bbff170fb9257df3ad5cf8a27287f7c9001f15ea6a683c05e72095c,-0.05960191,0.060474385,-0.02107518,-0.51469266,-1.0969218,0.05318471,-0.41377518,-0.0897566,-0.40247098,-0.33545002,0.61946857,0.26426297,-0.65606296,0.03539641,0.67561084,0.7260486,0.012404672,0.47576255,-0.63962877,-0.13180484,0.037199076,-0.05062115,0.15714331,-0.35991654,-0.11849404,0.3528041,-0.13238616,0.37509555,0.2183652,-0.4924358,-0.037379608,-0.4946206,-0.22847551,-0.2363832,0.06754184,-0.32264668,-0.21990815,0.13103074,-0.5198415,-0.24860302,0.11428332,0.14239536,-0.1723983,-0.25629902,0.039231993,0.23092268,-0.24338496,0.06506923,0.01674572,-0.3060519,0.024401575,0.057780486,0.2002851,-0.17650038,0.036048565,0.5623254,-0.10813359,-0.009800813,0.24539126,-0.06065246,0.24990983,0.09280053,0.078371584,-0.13264278,0.39866996,0.2520713,0.13519089,-0.08457828,-0.19860612,-0.036581844,-0.25233653,0.15916441,0.09884635,0.038987204,0.24490757,-0.29305667,0.2619701,-0.06775925,-0.49804902,0.010307168,0.31592542,0.6491931,0.09413759,0.13637966,-0.589992,-0.4619807,0.3549109,-0.15820071,0.26092535,-0.3974065,0.295027,-0.0447736,-0.45142794,-0.83017343,-0.34581855,0.25521374,-0.43750897,0.021734122,-0.38306293,-0.008914661,1.0
Backdoor.Graybird-08c34b0421ec2fd129554058eb0e19111b167fdeee45c3c51252c4ace128e70e,-1.1905789,0.48561427,0.23568957,-0.14617671,-0.21641138,0.071964376,-0.20541811,-0.2605419,-0.13760078,-0.029697487,0.50589204,0.18664446,-0.15413837,-0.08589234,0.30410466,0.0428991,0.62045443,0.19947357,0.1974369,-0.053011198,-0.22228079,0.3703011,0.24084376,0.17367156,-0.085416496,0.31968784,-0.162524,0.47188687,-0.030389603,-0.79060876,-0.12297754,-0.5392653,-0.4056034,0.21887396,-0.12898494,-0.41416153,-0.24101372,-0.07557621,-0.43840143,-0.4170012,0.34212327,0.24145254,0.11185146,0.16878645,0.100460395,-0.07731404,-0.27509397,0.022671869,-0.11396614,-0.055062693,-0.21965629,0.34950987,0.03741979,-0.29529688,0.13290147,0.62495077,-0.13995197,-0.18401761,0.28600493,-0.009629532,-0.21243265,0.46143517,-0.016662242,-0.23395538,0.11363766,0.47316056,-0.06334871,-0.16963011,-0.034921672,-0.3320665,-0.19993138,0.35710594,0.3347196,0.32697332,-0.22324221,-0.10885012,0.017856166,0.121370554,-0.03483391,-0.20795752,0.08826295,0.49810177,-0.12751259,0.27811605,-0.5933256,-0.14811528,-0.060351837,-0.17802295,0.48756754,0.20203578,0.29588017,-0.08187691,0.14694333,-0.44735548,0.10863541,-0.036802825,0.1528455,-0.10887169,-0.32198405,-0.045323767,1.0
Backdoor.Graybird-08c383b4ffb8ed9df7a17296ae0c1798d7f4b769f188d5eef55c77bb79dcd432,-0.49642956,-0.0084978435,0.35511184,-0.8672255,0.061700605,-0.02937864,-0.7105328,-0.29455256,-0.066843756,-0.054847952,-0.13636206,0.21604414,-0.67767256,0.01127189,0.22682115,1.1409622,-0.049361534,-0.10238786,0.4262171,-0.08492988,-0.117158525,0.3942645,0.044909604,0.35363597,-0.5718006,0.74009955,-0.31294975,0.4878827,-0.15060359,-0.19809756,0.45121273,-0.36989686,-0.32511434,-0.22790876,-0.42190447,-0.71484333,0.11966336,0.0041136784,-0.14247826,-0.15076104,0.34852618,0.011861579,-0.19427745,-0.0474758,0.021424005,0.17009225,0.09215201,0.07637964,0.027272075,-0.2423022,-0.10699505,0.28363025,0.42282993,-0.6199876,-0.10775256,0.03737679,0.1713485,0.36971816,0.046589352,-0.10205937,0.26817095,0.020547543,0.14651087,-0.50680906,-0.47475186,0.9951811,-0.12931962,-0.44281858,-0.036720432,-0.20062907,-0.11986414,0.24699219,0.12015994,0.35007784,-0.20349307,-0.33960515,0.5029978,0.1278022,-0.19217145,-0.19280083,-0.05675362,0.29562902,0.06523328,-0.28253043,-0.40335655,0.11168069,-0.014350896,-0.10857876,-0.15735847,-0.06475458,-0.5157624,0.017682036,-0.6175907,-0.053170055,0.05076992,0.1737181,-0.31916887,-0.14665209,-0.63058007,0.075991735,1.0
Backdoor.Graybird-08cadbda2bd111540dc25897982bc801f681dc16e0eba323973e193712332ef3,-0.40952852,0.037562486,0.03519615,-0.64141613,-0.016045026,0.16100194,-0.24786445,-0.0027222738,-0.15100132,-0.58909756,0.2813228,-0.020558534,0.20403308,-0.0144564565,0.119037226,0.26975954,0.16069236,0.04017207,-0.23967347,-0.10317172,0.15989387,-0.028686417,0.027609505,-0.17747602,-0.12387991,0.16199414,-0.20246996,0.06523694,0.15246452,-0.27721488,-0.0809298,-0.18861187,-0.2810495,-0.023395166,0.17562312,-0.2518507,-0.00087346486,0.03772514,-0.23975395,-0.33940795,0.21765171,-0.23819402,-0.19455506,0.12417939,0.02556992,0.28529787,-0.0044705686,0.042018827,0.09631348,0.1762745,0.03460289,0.13521634,0.17115884,-0.032212403,0.11405511,-0.06579166,-0.09279692,0.19173169,0.16648805,0.06766276,0.090842746,-0.06752221,0.05049932,-0.21225657,-0.07467408,0.3056554,0.11993973,-0.17675218,0.12966116,-0.023312366,-0.096900605,0.053864505,0.16019179,0.21765228,0.18853772,-0.15216875,0.2811911,-0.056174275,-0.20277767,-0.024383532,0.059851516,0.25000253,0.00278664,0.2751256,-0.456587,-0.13659173,0.10915631,0.03928654,0.114938974,-0.38767105,0.2584521,0.15354301,-0.12001586,-0.41852707,-0.23452134,0.24071014,-0.46408027,-0.002378542,-0.35554114,-0.12880017,1.0
Backdoor.Graybird-0904d313bde15d4656a630055d025d6a289de46fc2369597deb20d51da0ccd57,-0.37265667,0.40167114,0.030910004,-0.07262472,0.050910864,-0.07909778,-0.028089326,0.019618832,0.08150521,-0.40118963,-0.0019186382,0.04192335,0.12330112,0.053755503,-0.07888375,0.20402011,-0.36395827,-0.00924372,0.09887361,-0.05871265,-0.03926272,-0.04497594,0.1263041,0.03377957,-0.1973665,0.28642812,-0.120259374,0.117232,0.11403745,-0.045094576,0.13766605,-0.017734945,-0.12402152,-0.1829867,-0.08152095,-0.15460536,-0.056767322,0.05117057,-0.1409508,0.06153965,-0.077460594,-0.11246829,-0.23758908,0.07073439,-0.015068389,0.02684256,0.13209155,0.12331841,0.0636398,0.013174408,-0.07179494,0.046553634,-0.0041163787,-0.16362418,-0.13163243,-0.15785038,-0.11975124,0.34401122,0.077452816,-0.33510527,0.057490423,0.07098673,0.36966917,-0.10331664,0.11412575,0.17959753,-0.233822,-0.026246892,-0.15070993,0.021857975,0.07204545,0.015720498,0.019784437,-0.080531254,0.119089626,-0.20349328,0.18032138,0.057782132,0.11607239,-0.13459618,-0.11041609,0.042197265,0.12109826,0.27790824,-0.1523846,-0.1565053,-0.046655644,-0.081790164,0.25402313,-0.26304296,0.20255524,-0.025816366,-0.08079329,-0.23315029,-0.16638938,0.009666667,0.029429697,-0.010230573,-0.2518803,0.06799243,1.0
Backdoor.Graybird-095879f4cafe44bf45530fa8b6999d7361bdac2f041fc3c4e7afc1d80cbe914b,-0.036010068,0.3129825,-0.28149888,-0.4191394,0.021342438,-0.46554157,-0.39095137,-0.1049556,0.34999585,-0.4234003,0.14368586,-0.06957756,0.16347547,0.31867617,-0.22661935,0.54709226,0.3744068,-0.19702163,0.45734632,-0.052078426,-0.117712915,0.10755228,-0.015345227,-0.24047714,0.020465488,0.7252257,-0.08883763,0.1976272,0.2035486,-0.16349457,0.21347634,-0.30775332,-0.28324464,0.14776517,-0.2079946,-0.22144051,0.16618738,0.12750751,0.08814296,-0.43969426,0.24906665,-0.061978333,-0.11640247,-0.09044384,-0.24825045,0.12555943,-0.12115497,0.1827101,0.10390235,0.20933318,-0.26275048,0.3506852,0.32010898,-0.37913454,0.08968486,0.00868794,0.16489029,-0.089855455,0.4948582,0.028086111,0.13887507,0.48020214,0.20648882,-0.7930661,0.3446933,0.2570253,-0.3233798,-0.09037354,-0.25174594,-0.126847,-0.1657335,0.3988615,0.16800545,0.4944576,0.42421618,-0.9082764,0.5226036,-0.01717507,-0.19889508,0.13832815,0.11038081,0.50305897,0.19106928,0.1672917,-0.71180564,-0.1047491,0.055288408,-0.31782523,0.35148606,0.378689,0.07367997,0.10302794,-0.10854837,-0.43117952,0.07282575,0.16368999,0.0041660652,-0.0356506,-0.10343791,0.0027002636,1.0
Backdoor.Graybird-09a45409e39fb3077d1e7fea751027d152dfa6d9bd30829749ff4ec5caecdfb2,-0.52048707,-0.23352483,-0.2765042,-0.72198987,0.0022660939,0.028667776,-0.8253607,-0.3359509,-0.30515096,0.03357608,-0.029888062,0.22465342,-0.51343817,-0.19909526,0.6086925,0.8470956,0.117329605,0.43591967,0.22064838,0.077805884,-0.049846694,-0.28453457,0.17834085,-0.1293055,-0.2816685,0.698196,-0.48984692,0.07093024,-0.08417689,0.023118269,-0.052858375,-0.059538707,-0.2972456,-0.44962597,-0.034864694,-0.6037604,0.1366961,0.1307736,-0.4088549,0.0384227,0.07616701,-0.020228174,-0.05566622,-0.15251665,-0.1424943,0.4459106,0.11954674,0.1452099,0.09466933,-0.4563413,-0.16946992,0.56831306,0.4894838,-0.51159805,0.06956174,0.11164575,0.24252899,0.15163437,0.21024847,0.15722607,0.345473,0.056601774,0.04842318,-0.11267384,-0.34447384,0.76599544,-0.27082983,-0.6827629,-0.24515288,0.0760656,-0.2859705,-0.060950153,0.3370853,0.17909873,0.23518445,-0.16598873,0.16481428,0.19212803,-0.18043828,-0.074700356,0.17442398,0.7097451,-0.017975263,0.11277565,-0.45654348,0.14647284,-0.017201835,-0.2832847,0.064508826,-0.22655486,-0.16832238,0.012863137,-0.3716636,-0.34047773,0.21817137,-0.03584872,-0.27869222,-0.06579613,-0.34952095,0.3065445,1.0
Backdoor.Graybird-0a1311fceceea990bf446f7afa4fedcc6b7f8780afd4a6c87a31949818f87cea,-0.29590845,-0.31320176,-0.21381032,-0.7089354,0.3729504,0.21581472,-0.4255595,0.062108997,-0.16264632,-0.76184785,-0.018675923,-0.104875684,0.06728222,-0.09557263,0.17809476,0.7214037,-0.16872616,0.05106552,-0.2233294,-0.1158905,0.0143097555,0.09756629,0.008642875,-0.0055582114,-0.2716377,0.32545182,-0.48038703,0.051251035,0.2025219,-0.2950675,0.21178408,-0.10270487,-0.34479782,-0.15299815,0.0289397,-0.074703984,-0.025938326,0.080734596,0.003702813,-0.051741984,0.2229274,-0.17391895,-0.18113416,0.3713228,0.04161219,0.11390483,0.20839934,0.21657446,0.15277728,0.084317856,0.06896337,0.078831285,0.45070815,-0.1848435,0.1662371,0.013139501,-0.13209663,0.3316832,0.14974304,-0.17035107,0.121742874,0.04430386,0.03928694,-0.19522876,0.017167378,0.20820889,-0.024059596,-0.3446688,0.12882316,-0.02980816,-0.12617081,0.099852294,0.14657536,0.21072078,-0.13140424,-0.4259959,0.56939274,0.14556997,-0.08459981,-0.11067986,-0.37956694,0.26436278,0.25235528,0.4541617,-0.45016226,-0.059306744,0.077624306,-0.039969794,-0.008729911,-0.15961252,0.25670558,0.2277768,-0.041957106,-0.3078865,-0.29689914,0.35028535,-0.4504294,-0.030772798,-0.5611127,-0.19466059,1.0
Backdoor.Graybird-0ded1dc774b46d985a4e90a46f5d56a0047630d7a6e8df439870f7bb40b57a14,-0.37131926,0.18698645,-0.3663952,-0.707619,0.61070395,0.568002,0.0297658,0.5301806,-0.4172357,-0.30388442,-0.2275037,0.14563875,-0.13876557,0.33984274,-0.08134627,0.10669452,0.27415574,-0.01541622,0.26789424,-0.04342183,-0.07730836,-0.1968985,0.30575922,0.45029756,-0.029876309,-0.16169149,0.06250461,-0.13019693,-0.26941738,-0.5308707,-0.055697728,-0.3299886,-0.36159676,0.10148584,-0.049682308,0.2227476,0.22301796,0.22509174,-0.1884054,-0.4023844,0.26070738,-0.23857327,-0.20791507,-0.09604278,0.26974818,0.32540733,-0.1169346,0.17564982,0.07463278,-0.13030453,-0.051697254,0.17950656,-0.049220696,-0.16024828,0.11949371,-0.05138161,0.07290886,0.271627,0.045791566,-0.47699928,0.10233904,0.46207023,-0.048319243,-0.14701931,-0.31512764,0.34529665,-0.4492619,-0.40549123,-0.75137806,-0.32060325,0.016791543,0.4523059,-0.34041438,-0.18026029,0.13258418,-1.0903933,0.4805788,-0.1451917,0.22058366,0.1015241,-0.5204669,0.24247192,-0.0021834173,0.5351213,-0.19748883,0.41726297,-0.19320755,0.10171472,-0.08817402,0.28438193,0.10376702,-0.11617576,-0.18257344,-0.06409119,-0.14763898,-0.047549497,0.14793837,0.360659,-0.34288916,0.11261464,1.0
Backdoor.Graybird-0e4b24dfaad406b918efb40923889150f139511f43c56e34deac187d950ce03f,-0.50902075,0.35483077,0.21348889,-0.11066614,-0.5965109,0.32972506,-0.5478056,-0.04470578,-0.4045303,-0.2334641,0.01870509,0.18166317,-0.72677046,-0.08117173,0.5764996,0.5459456,-0.08186264,0.21261439,-0.38670915,-0.0057896636,0.2383415,0.06451458,-0.00471232,-0.18426171,0.14150234,0.24424195,-0.3490603,0.17055394,0.08236276,-0.61231136,0.2220168,-0.3511356,-0.34130782,-0.057928354,-0.06621421,-0.29582933,0.06598082,-0.025120273,-0.45057014,-0.3794047,0.40114006,0.0056426045,-0.3846485,-0.2604558,-0.121427566,0.36291632,-0.16168182,0.040693674,-0.15309936,-0.24294934,0.051100947,0.1447192,0.08011754,-0.14601634,0.278188,0.3952111,-0.29001603,0.046939213,0.1291886,-0.093506314,0.021772593,0.2762581,0.1677831,-0.12238378,0.32670698,0.26882058,0.011687005,-0.1694753,-0.2592797,-0.018673759,-0.07544216,0.4118601,0.03957379,0.17599851,0.005859626,-0.38605514,0.30801266,-0.14358672,-0.20391756,-0.02994603,0.14454351,0.35706642,0.18284592,0.061383303,-0.2995185,-0.12327621,0.25662708,-0.1520154,0.2422257,-0.08477795,0.12533057,0.065664776,-0.17412387,-0.38476485,-0.08695073,0.19965103,-0.01787149,0.09488861,-0.18647254,0.13582301,1.0
Backdoor.Graybird-0e9e218c49e56ec187e145db72a72726d50ae295f08b4bf344f19e13de603ba2,-0.26581848,-0.6392314,-0.1294762,-0.14743231,-0.122814536,-0.22471434,-0.45556608,-0.17095032,-0.40978146,-0.16831021,0.19639215,-0.174972,0.2664394,0.19388998,0.016111478,-0.018201523,-0.15239386,-0.19781712,-0.4481861,-0.1353048,0.24731857,-0.09610474,0.4091259,0.19741824,-0.21091874,0.47296754,-0.23476644,0.03687566,0.00025784082,-0.045536254,0.21214126,-0.33693358,-0.40464035,-0.22421394,-0.04066518,-0.32884088,0.10747893,-0.08975492,-0.057830915,0.06854625,0.30712965,0.25952375,-0.21949805,-0.23841707,-0.18081184,0.40114522,0.047711924,0.2664516,0.0069295815,-0.22289346,-0.26426482,0.3978502,0.13540709,-0.35315245,-0.2821508,-0.018067501,0.37573263,-0.1624018,0.23733288,0.13431649,0.19205855,0.3588655,0.3406089,-0.24844864,-0.08271729,0.44926134,-0.26645726,-0.14173639,-0.64938843,-0.14726827,-0.267666,0.48989454,0.090365365,0.038196243,0.074923135,-0.60586166,0.2575717,0.025009446,-0.21834388,-0.09393286,0.20527433,0.34756005,0.016106121,-0.18532011,0.15639304,-0.06620663,0.1908324,-0.23605077,0.22409457,0.052526843,-0.2641409,-0.14729486,0.058702704,-0.3296458,-0.22132705,-0.21830419,0.26442963,0.213814,-0.27908918,0.26673543,1.0
Backdoor.Graybird-0eec1cf54f4696068a4411a96e8deb728f734fac856440cb5175b1204d1dd137,0.09775716,-0.5145486,0.056921188,-0.76324135,0.09087377,0.04687194,-0.8003946,0.023731142,-0.110035144,-0.6440285,0.13862188,-0.32463497,-0.23404992,-0.15608113,0.15241177,0.39026803,0.2536154,0.077931106,-0.27001926,0.152173,0.13749014,0.08113314,0.14615336,0.109835684,-0.07367495,0.34586245,-0.19979776,-0.114653684,0.17799272,-0.50374764,-0.042027146,-0.49043187,-0.44012868,0.1744522,0.11638733,-0.29915482,0.11704643,0.15626994,-0.14428118,-0.24418423,0.3460914,-0.08627975,-0.16766149,-0.40607262,-0.032500796,0.21547179,-0.15828007,0.24861264,-0.0644157,-0.12919278,0.020751795,0.21684335,0.30321077,-0.20539716,0.14067043,0.024817867,0.105199955,0.09960034,0.2238879,-0.032067537,0.22476527,0.42897233,-0.22619274,-0.43100196,0.1690753,0.30761123,-0.13450415,-0.26802552,-0.41066098,-0.0005691189,-0.23153675,0.2880902,0.066069305,0.23069265,0.28411797,-0.39037403,0.26366872,0.016314795,-0.17944327,0.21928334,0.103705086,0.4321192,0.28224435,0.2656321,-0.5038301,-0.22360799,0.0010340126,-0.33450624,0.19310267,0.1432726,0.038139112,0.088886194,-0.14720924,-0.5781275,-0.29433203,0.15126735,-0.09178099,0.11568123,-0.38753015,-0.047350332,1.0
Backdoor.Graybird-10672ba06f9cceb9fb651a6338f13de953b8a97d9d5164acd08456fb7a974b69,0.030501148,0.033085383,-0.17888986,0.04691979,-0.25987142,-0.15963046,-0.6000965,-0.1576859,0.27201882,-0.06677563,0.24111079,-0.20670447,-0.073333055,0.31305322,-0.14793275,0.22368208,0.024659384,-0.32221368,0.22195922,0.19574715,0.13918525,0.26707053,-0.033918176,0.14932889,0.0041421973,0.53626823,-0.49468306,0.076630875,-0.040206313,-0.2577529,0.31885353,-0.021698965,-0.31217432,0.15587112,-0.17149876,-0.21264054,0.4914815,0.180178,-0.05019611,-0.12460237,0.29970554,0.095537245,-0.19992407,-0.22709307,0.00695122,0.23734397,-0.08179996,-0.035476312,-0.34672415,-0.31428277,0.03597634,0.09970905,0.17086552,-0.3167031,0.19597775,-0.11706463,0.076550364,0.02927895,0.1277252,0.031427346,0.027935753,0.4294212,0.20449048,-0.4689927,-0.11214617,0.54610056,-0.47360432,-0.37239194,-0.11091242,-0.14658909,0.06660315,0.48019585,-0.06651622,0.24657555,0.24227978,-0.51665527,0.41614154,-0.1501098,-0.020329006,-0.21553393,0.06928875,0.5807665,-0.002588044,-0.066932514,-0.6801013,0.12398056,0.056132223,-0.3380942,0.32123202,0.36221084,-0.11734347,0.15746641,-0.119080015,-0.35793045,0.16798924,0.24363346,0.13445945,0.22860031,0.10467223,0.021438165,1.0
Backdoor.Graybird-1078ebc75c7612450f362dc2e480699e1e6f21473898effad033a32e4e47d5ed,-0.30776244,-0.31774065,0.04370715,-0.76030576,-0.006681324,-0.32737255,-0.9920669,-0.16337864,0.038704578,0.006784022,-0.38477907,-0.034550015,-0.6925189,-0.019372236,0.262726,0.75358987,-0.13939919,0.12341252,0.09532743,-0.026889741,0.09562866,0.05017757,0.24761446,0.15587047,-0.42257735,0.73691756,-0.26749298,0.25119278,-0.050330587,0.07044986,0.24798815,-0.10208782,-0.40949586,-0.2513567,-0.03943454,-0.5746815,0.18636638,0.08057687,-0.11046232,-0.08899783,0.26804954,0.01877924,-0.23220053,-0.22525264,0.08460063,0.4427373,-0.16482492,0.20407942,-0.02606378,-0.34092042,0.017647075,0.26536578,0.44833663,-0.24915995,0.12215384,-0.061369747,0.09133586,0.2712807,-0.031902283,0.10211429,0.30221042,0.008862196,-0.021265233,-0.25346887,-0.38652036,0.81014514,-0.34394282,-0.41934687,-0.08145836,-0.005620429,-0.19030482,-0.0492506,-0.016889691,0.0068097836,0.27592736,-0.3660696,0.4081037,-0.05027895,-0.3049582,-0.15421878,0.1801427,0.61183745,-0.15387951,-0.1154238,-0.5598388,0.08497947,0.06763592,-0.23164631,0.18236765,-0.26998642,-0.21176854,0.025573235,-0.73506325,-0.49764928,0.013426595,0.26922473,-0.370066,0.0024320935,-0.49870747,0.09313752,1.0
Backdoor.Graybird-1203e135f7e763fee8490a3e11c091a2a7617dc3e486d2bbe6ac81a32bc931be,-0.86153173,0.16782051,0.24890149,0.04543912,-0.21672478,-0.21071868,-0.57702243,-0.24904506,-0.5253302,0.20544806,0.2770153,-0.10540951,-0.052407153,-0.19913104,0.30847275,-0.010737815,0.10614012,-0.0067341183,-0.57033795,0.06928976,0.056560382,0.020305986,0.3745248,0.15546855,-0.4078398,0.15063106,-0.40560707,-0.03242759,0.027947117,-0.13567072,-0.3226159,-0.06698189,-0.54995126,-0.04962605,0.30916107,-0.3285474,-0.018216394,-0.09489688,-0.2799413,-0.19898994,0.09104251,0.11484725,-0.17458557,-0.10851927,0.25796947,0.5041967,-0.14640419,0.2131904,0.17446244,-0.3879686,-0.20777404,0.43008363,0.09269934,-0.1318341,-0.24055591,0.0032365404,0.064135,-0.18074942,0.28421572,-0.114693984,0.21287176,0.13737974,0.035151172,-0.33598268,-0.15483062,0.8284713,-0.2808817,-0.23913047,-0.38080862,-0.34672844,-0.31408697,0.27236998,0.30716538,-0.13562006,0.10360962,-0.40954274,0.18781778,0.16254008,-0.18696378,-0.34789354,0.32899937,0.5530703,-0.42152512,-0.14559415,-0.42327228,-0.11219243,0.10930149,-0.12873922,0.1494808,-0.3041735,-0.059613165,-0.24221277,-0.2718262,-0.7620775,-0.16936243,-0.088995695,-0.12986813,0.08217567,-0.36774114,-0.03355081,1.0
Backdoor.Graybird-12efad6f7e8313a41ffc7a49cdd612243712922f8d7947141e366574279077b3,-0.66540337,-0.029196715,-0.027087402,-0.70047873,0.24193631,-0.15018177,-0.7231207,-0.08218399,0.07844667,-0.37113485,-0.13786288,0.1285991,-0.9485713,-0.16978,0.48116693,1.2169285,0.009617796,0.28877965,0.3709315,0.042448644,-0.24924217,0.3732524,0.14207189,0.34436393,-0.5635311,0.72720003,-0.37057194,0.32534537,-0.005314946,-0.01921139,0.29496452,-0.4108969,-0.39589608,-0.15174416,-0.24849994,-0.64986205,0.20198993,0.14327967,0.065262794,-0.15492067,0.46982366,-0.14992575,-0.19873948,0.03064747,-0.08211173,0.3419587,0.2863292,0.1897881,-0.015150732,-0.1340177,-0.1042335,0.27315736,0.48513526,-0.63674015,-0.11759033,0.01134495,0.14691137,0.36368886,0.18360862,0.054733127,0.17536469,0.000837896,0.22182699,-0.55017644,-0.45566225,1.089102,0.040201668,-0.35300234,-0.1640728,-0.09954299,-0.20084454,0.36793917,0.17168595,0.43020678,-0.0938368,-0.29065967,0.52219826,0.2557364,-0.013610269,-0.20289811,0.044153087,0.130033,0.08418129,-0.23682971,-0.45683518,-0.12790458,0.027417498,-0.07338427,-0.21189597,-0.12451481,-0.6250834,0.10493466,-0.3995565,-0.13808183,-0.0077223536,0.23741041,-0.45086756,-0.29054657,-0.6956461,-0.005595937,1.0
Backdoor.Graybird-12f4f6331583edc2599a31940233f76e950dee226f92573abf7ad0bad10cb2c7,-0.8345436,0.5253776,-0.019002724,0.15974596,-0.18933052,-0.42688587,-0.6717121,-0.32981917,-0.4615894,0.3631145,0.074939355,0.2131889,-0.29741886,-0.20043026,0.10846091,0.34088382,0.17303117,-0.069625705,-0.3822297,0.056420147,-0.09307051,-0.11063737,0.2201034,-0.12894607,-0.103524685,0.1511799,-0.26620987,-0.21791175,0.1573504,-0.48544103,-0.46451157,-0.31347182,-0.78173906,0.15635131,0.45472276,-0.44518647,-0.17975116,-0.06586463,-0.54059625,-0.51649773,0.16731188,-0.16341576,-0.36691636,-0.2549032,0.14545715,0.38113582,-0.32645607,0.20052953,0.034750566,-0.09997137,-0.029364435,0.41473684,-0.007254693,-0.13494785,-0.0468967,-0.25037307,-0.08962608,0.20088294,0.4723579,-0.16282262,0.20500134,0.20576468,-0.057228915,-0.46217635,0.0138832275,0.98084104,-0.31452546,-0.13747144,-0.4017365,-0.11694141,-0.14802213,-0.0973611,0.30438036,-0.047073293,0.16488948,-0.11283216,0.25046235,0.170045,-0.06013171,-0.14953588,0.3306227,0.47309658,-0.3922695,0.046837732,-0.5702945,0.05812239,0.09463868,-0.34688815,0.30092832,-0.21542889,0.08990272,-0.04894786,-0.61815554,-0.6528169,0.043981064,-0.08680278,0.026651705,-0.107525036,-0.47263208,-0.016984547,1.0
Backdoor.Graybird-143c25c7cc08038a40638df3cd01232232baed4a9469f356efc615b5041c794a,-0.6319046,-0.45368826,-0.3887596,-0.39845055,0.29444063,-0.36533883,-0.6512119,0.02032889,-0.38834572,0.11827138,-0.24493234,-0.11974485,-0.29139033,0.20436585,-0.07626283,0.013470968,0.32060316,0.09942262,-0.08894556,0.099565305,-0.30089107,0.35343733,0.42651758,0.57780534,-0.23542811,0.53812736,0.02066185,-0.118376225,-0.075755104,-0.51203614,-0.23270603,-0.61540645,-0.77435774,0.078448296,0.2311033,-0.32464182,-0.040016223,0.14608477,0.047514465,-0.3568276,0.72954035,0.1944228,-0.26063734,-0.097892515,-0.14206968,0.2869142,-0.0338623,0.21699779,-0.47329217,-0.26076883,-0.03557307,0.41815108,0.19580878,-0.1988316,0.113491245,0.3481411,0.030953147,-0.1817234,0.16653137,0.42708755,-0.3648324,0.54699594,-0.047717884,-0.699428,0.17011535,1.0029048,0.13674462,0.007796409,-0.57510483,-0.22122441,-0.2778801,0.5546786,0.29650277,0.27532294,0.14839989,-0.5197606,0.029780177,0.25516543,0.26274377,0.13073814,0.19545233,0.08115495,0.10460305,-0.24254858,-0.07100006,-0.23075952,0.21192728,-0.37085074,0.2427047,0.19217633,-0.3546757,0.32116172,0.033517774,-0.2738347,-0.058748618,0.031413455,0.27004114,-0.11131452,-0.4225386,0.03985786,1.0
Backdoor.Graybird-14818f4633cc87ac1b11b53895daa6cbc595065596c7ea86f807fb1a1ad79b72,-0.37639016,-0.114304416,0.1822404,-0.52122355,-0.3385818,-0.1817057,-0.24891149,-0.6101619,-0.32730883,0.24856617,-0.034703083,0.32265487,-0.23313746,-0.26594055,0.028603349,0.15611973,-0.023777835,0.013363813,0.47847864,0.25675914,-0.20302193,-0.24760334,0.41766027,0.1048804,0.15872303,0.51515996,-0.36436233,-0.017407486,0.18065031,-0.2094445,-0.18044886,-0.27564058,-0.28662017,0.17791973,-0.020998342,-0.4413364,0.23902993,-0.07315726,0.15136698,-0.119091734,0.43959925,-0.24102575,-0.17425218,0.036672067,-0.32684392,0.35103425,-0.07093548,0.2930329,-0.30608052,-0.24104986,-0.283729,0.3287085,0.13322566,-0.39181918,0.14358957,-0.0137104485,-0.005718993,0.12837832,0.16993876,-0.09239409,0.039077133,0.57692367,0.39756972,-0.5061295,0.21604845,0.54989797,-0.5048917,-0.24876183,-0.24462181,-0.03909295,-0.13702096,0.3488472,-0.03700725,-0.016517233,-0.09807781,-0.15065709,0.13819563,0.09085707,0.11547691,-0.057471156,-0.089392304,0.2586466,-0.0068600834,-0.14624941,-0.10570546,0.017529469,0.018452967,0.13720566,0.07270957,0.1892855,-0.23666851,-0.099039845,0.06595858,-0.3962591,0.06292391,0.027746504,-0.029856335,-0.033741437,-0.061456796,-0.15429394,1.0
Backdoor.Graybird-152a87566246d7b100a299d29e34ce080c52e714e0c2883b904d85c1144de18d,-0.4702093,0.11658795,0.05978635,-0.08458325,-0.006209597,-0.12648356,-0.1935782,-0.14517131,-0.16602877,0.14504533,-0.08670008,0.08993143,-0.33849376,-0.11069515,0.043235518,0.10068455,-0.027172865,-0.1855478,0.06275357,0.18611626,-0.026696151,0.12741333,0.18436036,0.3806476,-0.08009303,0.31975657,-0.3514633,-0.053294457,-0.017538331,-0.4586686,-0.015183106,-0.19998576,-0.48643112,-0.037938338,-0.010645307,-0.31342664,0.10846184,-0.019900354,-0.17153929,-0.1207258,0.21906699,-0.07544862,-0.2227916,-0.058199443,0.035175286,0.23809515,0.01680967,0.1851494,-0.16030976,-0.24934134,-0.05617747,0.31519917,0.10336458,-0.33051634,-0.056145146,0.0059107533,-0.02074428,0.102709055,0.33236936,-0.15080296,0.013886893,0.3849919,0.2075632,-0.36213467,0.010379479,0.72602016,-0.29636312,-0.21702284,-0.3918893,-0.056295972,-0.14537019,0.2215811,0.08317234,-0.12741035,-0.14687796,-0.083957784,0.10922229,0.14094596,0.15141444,-0.19564484,0.070753485,0.11079556,0.03125195,-0.19289291,-0.124162994,-0.1458104,0.012551096,-0.16095148,0.09049133,0.16386332,-0.17977509,-0.07309316,-0.19826645,-0.08854011,0.011699884,-0.08901437,0.29359445,0.008479866,-0.30004045,0.042708654,1.0
Backdoor.Graybird-16274674297d97fdb7c53027a4e6facd681428961e31bc85dfff497056b071a4,-0.5527515,-0.6582387,-0.18869084,-0.78454643,0.28815308,0.0643845,-0.7202293,-0.02081706,-0.56149614,0.2139621,0.06370606,-0.12903693,-0.09770815,0.26587114,-0.1299423,-0.2171668,0.37537137,0.041381683,-0.07706785,0.09760696,-0.00045735913,0.39674228,0.51555324,0.5499139,-0.36946145,0.45592082,0.03308981,-0.032434832,-0.020887595,-0.1215218,-0.23207508,-0.3142584,-0.58717865,0.040368777,0.4070102,-0.30984145,0.078318395,0.05711496,0.10601437,0.066218756,0.61776376,0.32047606,-0.27693897,-0.40779704,-0.07457718,0.27172306,-0.08320519,0.2929851,-0.2961963,-0.2574196,-0.021057671,0.47602788,0.097571835,-0.32629627,-0.042528626,0.2972227,0.14073855,-0.21687683,0.07020669,0.22517298,-0.15895618,0.16556321,-0.008313431,-0.464122,0.13164568,0.7461598,0.21151906,-0.121532016,-0.77872235,-0.25683224,-0.20212482,0.42507973,0.3650178,0.10627635,0.26202744,-0.48122597,-0.17357132,0.19151077,0.13944367,0.2107287,0.16220096,0.27734658,0.017805332,-0.12956949,0.03814251,-0.24000767,0.0539235,-0.0867045,0.32183677,-0.15492421,-0.32269436,0.05738184,0.07724481,-0.38997868,-0.4000367,-0.06860873,-0.0011676712,-0.019304495,-0.26251233,0.03093647,1.0
Backdoor.Graybird-16648fd7040db9b96d76e5f70711e8c62721035832f7b87594d62b0dd9b865ea,-0.50967276,0.4738467,0.23055774,-0.5958864,0.26289475,-0.007430049,-0.2052357,-0.09545207,-0.3146213,0.123337775,-0.017143242,0.1608507,-0.27589914,-0.24695821,0.19598567,0.36117116,0.43866822,-0.019898485,0.17450775,0.16271935,0.024432778,-0.011246257,0.19349237,-0.021276299,0.07072276,0.38510042,-0.39578325,-0.08292625,0.099400476,-0.18825626,0.017740732,-0.07042378,-0.3124454,0.112134114,0.09581156,0.021974538,0.18753095,0.08515713,-0.10804121,-0.1412027,0.25657225,-0.0741099,-0.1203323,0.010814516,-0.13448796,0.28654066,0.03478637,0.18604831,-0.0854521,0.05257011,-0.09558134,0.34399563,0.19480662,-0.40433803,0.05325611,-0.23532352,0.24044168,0.14216225,0.24598897,0.079238996,0.11944348,0.15902399,0.1285344,-0.25590035,-0.16852273,0.7382403,-0.25376397,-0.39317787,-0.15945852,-0.10119724,-0.08722821,0.16628358,0.23297182,0.23755732,0.16539907,-0.19321738,0.20151842,0.19833815,0.18090145,-0.15702331,0.008684316,0.35231996,-0.04226002,0.12764002,-0.40197492,0.07502734,-0.010818031,-0.083657004,0.18337265,0.1501506,-0.13339382,0.12274548,0.034353923,-0.22808363,0.012345904,-0.067401364,-0.121287875,0.025048526,-0.162698,-0.08275779,1.0
Backdoor.Graybird-16ce6a8444870c762676cc776860c1ff7daa2a2dc76abd29136a36d6538bba8a,-0.7733635,0.2504717,0.20128672,-0.004859176,0.13759966,-0.17012581,-0.5601283,-0.25096455,-0.42489344,0.38943344,0.18779957,0.1659476,-0.14183941,-0.1308166,0.13947071,0.21708943,0.20247121,0.12752698,-0.3996051,0.06963561,0.25624865,-0.12649103,0.20402654,-0.1405653,-0.16526793,0.21246198,-0.5316548,-0.21961711,0.25143275,-0.107662395,-0.33365223,0.0075976304,-0.553612,-0.07626993,0.7091609,-0.31012723,0.0065888604,-0.057865098,-0.40343657,-0.19413936,0.18322995,-0.2041281,-0.43482816,-0.29079244,0.15516178,0.6622847,-0.1953767,0.3435831,0.025157519,0.06286541,-0.093528256,0.59740067,0.025424259,0.023771904,-0.047740284,-0.08856332,-0.17092453,0.023811657,0.4884311,-0.14104888,0.0051222336,-0.0597805,0.017130611,-0.32685804,-0.024975594,0.79144275,-0.056668498,-0.26304734,-0.71743757,-0.2700065,-0.14877662,-0.00031786982,0.27716514,-0.24992117,0.15090097,-0.38730928,0.09696372,0.11805478,0.0023637183,-0.1581729,0.32636267,0.30175492,-0.45062557,0.06903919,-0.15086025,-0.18486708,0.20501626,-0.014448954,0.11239364,-0.5140691,0.04333607,-0.16093677,-0.40092152,-0.59140825,-0.24758047,-0.0516908,-0.13754822,0.03730022,-0.35058376,0.02509776,1.0
Backdoor.Graybird-16dc33ad95a90a03f9489182cf6061392a79cbaf96cceb87bd3c6c664daff4a3,0.11194261,-0.19794959,-0.036465954,-0.070233725,0.08881978,-0.26382476,-0.056785434,-0.080763236,0.12019175,-0.17836912,-0.035153862,-0.1624943,0.17089283,0.17617185,-0.08138682,0.14027412,-0.14048381,-0.18072018,-0.18251948,-0.044447113,0.031646643,0.096429475,0.053448044,0.07778804,-0.11911145,0.21669467,-0.13711116,-0.04506515,-0.061961792,-0.24156839,0.19415526,-0.15385683,-0.30954728,-0.068004526,-0.06617315,-0.094868414,0.045662157,-0.0021580681,-0.0093827,-0.104692146,0.1973107,0.016025217,-0.1630992,0.02290068,-0.15130892,0.18322036,0.18785775,0.061373126,-0.08786768,-0.0776487,-0.07168693,0.20908672,0.08169954,-0.14899212,-0.13024476,-0.14128196,0.11183244,0.03612497,0.05407763,0.07104959,0.0506301,0.15649913,0.11524669,-0.2335439,-0.19257243,0.53206104,-0.15818863,-0.01734939,-0.16344914,0.011667861,0.02707946,0.24624322,0.12123866,0.13946874,0.05184373,-0.2806913,0.15826853,0.101537436,0.08602229,-0.0691456,0.17202213,-0.027814647,-0.039983034,0.082973495,0.031587973,-0.03489664,0.10604692,-0.13384856,0.17620283,-0.08714302,0.04015925,-0.0013327517,0.1232281,-0.1403444,-0.032547522,0.019942544,0.15161736,0.0008109236,-0.17476724,0.13467798,1.0
Backdoor.Graybird-16dc7da8aef050616f3d99fd34b3f0410ce6a38f5a61c9ebc8e86e87195c4be3,-0.23237664,0.05462345,0.32615578,-0.5046215,-0.042988565,-0.0067672087,-0.05245475,-0.2998458,-0.3227407,0.15115257,0.07946854,0.24503925,-0.19896534,-0.29702216,0.31233197,0.18111557,0.2331684,0.21341006,-0.008685067,0.13196686,0.04797999,-0.2333088,0.21018533,-0.11922672,-0.122570805,0.5399611,-0.34825248,0.012957552,0.05771597,0.022950446,-0.25425783,-0.069174014,-0.19458362,-0.19673802,0.10017811,-0.50164694,0.04876142,0.0009083689,-0.18041572,-0.044871047,0.030704241,-0.13229033,-0.05072578,-0.041425623,-0.19204676,0.41925853,0.03777132,0.13387169,0.09201315,-0.032155443,-0.27401638,0.5380738,0.1710964,-0.12424098,-0.00069571816,-0.13141578,0.11575471,-0.0002871359,0.18526527,0.0017915426,0.08187961,0.04541533,0.23530936,-0.32452428,-0.037944607,0.485022,-0.22041804,-0.30364087,-0.18822433,-0.005671999,-0.16411455,-0.14058635,0.22938043,-0.039660513,0.20662321,0.06809362,-0.22540803,0.05995962,-0.10309868,0.021219319,0.22636059,0.29281956,-0.12702394,0.034811188,-0.08167491,-0.164811,0.0940967,0.022895064,0.10652569,-0.32980123,0.092843875,-0.15773445,-0.093855746,-0.39176217,-0.083675176,-0.059307687,-0.2255797,-0.013171933,-0.1108316,0.12562467,1.0
Backdoor.Graybird-1966b6b19ef74c24f458b6477ccb7e8c8427df6d65ea4dc5e0bffb811fbba2d7,-0.09224508,-0.45091638,0.12218607,-0.9922188,0.44424346,-0.123018734,-0.28602016,0.22950609,0.27511802,-0.9507259,-0.26721746,-0.35649323,-0.110207364,0.08955617,-0.08162415,0.7311189,0.066384844,-0.4112472,-0.25266942,-0.09725543,0.22191778,0.2807532,-0.0027959454,-0.26733956,-0.20605776,0.65912867,-0.31614277,0.18531092,0.11642243,-0.26053336,0.28624526,-0.021907816,-0.30126432,-0.027283613,-0.095818736,-0.17065997,0.28976122,-0.015274908,0.124912344,-0.4377463,0.33989635,0.026993066,-0.25347748,-0.0689,-0.2513145,0.38092673,0.054103788,0.24026729,0.30438787,0.014888693,-0.23060557,0.5151961,0.28292572,-0.143986,0.11268165,-0.20876426,0.1595698,-0.19520697,0.24090187,-0.086192496,0.20091218,0.2755801,0.12808247,-0.7615016,0.2484066,0.57516736,-0.37863493,-0.23044305,-0.39490044,-0.09827128,-0.40614152,0.4382875,0.45329645,0.32739213,0.4179522,-1.1272302,0.32429972,0.027485779,-0.12070278,0.1378524,0.41213635,0.21402569,0.07693545,-0.008576598,-0.2808347,-0.27591905,0.2482159,-0.050796963,0.22770542,0.1443144,0.3968626,-0.14080079,0.022655318,-0.43374845,-0.18262735,0.07258853,0.14004639,0.27515772,-0.17357226,0.1270135,1.0
Backdoor.Graybird-1c7dfb9affef8bef118a41d36e3e8c413f3076918a8821efeb3721af52ee5c52,0.002463468,0.23800069,0.31276533,-1.1342921,0.4945797,-0.1773709,-0.10152143,0.30523106,-0.040640295,-0.33062384,-0.7824956,0.12091368,-0.33650172,0.17978184,-0.05732422,0.36420852,0.03571946,-0.12509176,0.07576619,-0.1807448,-0.0910777,-0.1602204,0.5885175,0.098243244,-0.05703764,0.415784,-0.15511167,0.036682677,0.025022347,-0.11884557,-0.12499393,0.085761614,-0.50259,-0.022559147,0.11328386,-0.2909764,0.12427812,-0.08726524,0.16962273,-0.21258408,0.3144122,0.3317045,-0.280278,0.1780165,-0.14377794,0.071659446,-0.048119217,0.08210483,0.18363214,-0.0055884593,-0.15401596,0.27118137,-0.10406212,-0.2832736,-0.058076978,-0.11328971,0.07038154,-0.056247283,0.082585506,0.07776913,0.06792579,0.076624624,0.19426583,-0.19776143,0.07322209,0.7696725,-0.3463963,-0.23205185,-0.50232315,-0.23354466,-0.033305388,0.47460547,0.50103027,0.19766763,0.3372089,-0.60394263,0.011011288,0.18533008,0.10317355,0.08740871,0.19362257,0.25225547,0.10411782,-0.22876897,-0.09994589,0.120207414,-0.061486512,0.040376544,0.3083177,-0.24856351,-0.036818966,-0.07931848,0.042274363,-0.13269997,-0.05642107,-0.20892091,0.19659765,0.025676753,-0.13032761,0.107608944,1.0
Backdoor.Graybird-1cb523870e23e55d0d36af5a2e10472ac25390d3838c52c35b1106034132aad5,-0.17514196,0.20881955,0.34685233,-0.65552837,0.17932273,-0.1587542,-0.33730507,-0.3000328,-0.19385712,-0.04551825,-0.15535127,0.40519425,-0.22991343,0.11636996,-0.13718534,0.6662052,-0.18342863,0.027886912,0.3863889,0.0366841,-0.07723195,0.010479273,0.17004527,0.13397467,-0.27776068,0.5296143,-0.23605342,0.016234234,0.101714805,0.28963,-0.07756213,-0.10315447,-0.3117481,-0.25559983,0.088028,-0.4409164,0.033599496,-0.021273052,0.21369368,0.11243437,0.31873176,-0.24075828,-0.24710283,0.023385579,-0.13148768,0.41348925,0.03214463,0.32862207,-0.020298544,0.011150259,-0.13143331,0.2981706,0.21265215,-0.40574574,-0.17952877,-0.053090617,0.13594489,0.25082582,0.27323607,-0.08759959,0.20835878,0.03601872,0.39821967,-0.27289158,-0.15427564,0.7552695,-0.20298223,-0.18316898,-0.30195352,-0.042424534,-0.15508842,0.0932946,0.09195176,-0.1005845,-0.01740015,-0.2893806,0.23755182,0.19447139,0.11717834,-0.12883952,0.0051998617,0.03915434,-0.046936687,-0.03215042,-0.033906534,-0.1802065,-0.060644876,0.23603454,-0.020304698,-0.09190838,-0.20513713,-0.17778903,-0.18856113,-0.21239166,-0.17145503,-0.017975917,-0.18380207,-0.12162362,-0.40422252,-0.17311043,1.0
Backdoor.Graybird-1d17564930dc9cfdb8bf4483ba9763d17dd3f549facfdbe21ad18447663adedd,-0.6522261,0.28813988,0.41152093,-0.7738866,0.5446094,-0.24266684,-0.5646976,-0.23138282,0.046959378,0.032198526,-0.16995066,0.12931748,-0.53695387,-0.08252289,0.21805908,0.9529243,0.25922298,-0.0018800079,0.46849212,-0.033343326,-0.21775642,0.40968242,0.32700554,0.422447,-0.54241097,0.81539506,-0.25540215,0.38836387,-0.084102474,-0.011151296,0.32076582,-0.2827574,-0.19977316,0.020839296,-0.32419804,-0.44762498,0.24370246,0.2406854,0.3317288,-0.029889295,0.31970477,0.09343356,0.0488947,0.06675941,0.03358805,0.064806595,0.18786848,0.124777086,0.038245928,-0.03278713,-0.2279307,0.30986848,0.39558208,-0.5740933,-0.20995261,-0.04618275,0.25360453,0.24689846,-0.060641013,-0.019749096,0.12113999,0.034142014,-0.0052082944,-0.6098711,-0.6707751,1.0102267,-0.30390134,-0.39316761,-0.050906353,-0.29192507,-0.041117094,0.32417166,0.15701972,0.49283284,-0.01287674,-0.36929452,0.4315487,0.1453141,-0.032191623,-0.28246152,-0.015324226,0.2640167,-0.08720695,-0.06457056,-0.5459667,0.06737913,-0.1808418,-0.14166346,0.0060791187,0.037895482,-0.5645942,-0.04550613,-0.2974643,-0.26002386,0.0333728,0.13110876,-0.26558024,-0.1456738,-0.63453376,0.07097266,1.0
Backdoor.Graybird-1d2b95795f54a30db2241b441843c8baa1319704e0bd48f022ac919e71899787,-0.26341107,0.22310191,0.3290187,-0.7776625,0.12598205,-0.23292683,0.3018697,0.4351055,-0.08601494,0.100632556,-0.30613837,0.259194,-0.035459273,0.115867294,-0.17266813,0.121349424,0.29443273,0.05281712,0.20735914,0.030253006,-0.26848078,-0.04540613,0.42123684,-0.16693677,0.0870673,0.122132465,-0.08085523,-0.06887584,0.3454331,-0.23123278,0.01235838,-0.35031098,-0.6643996,0.426492,0.1411531,-0.24363881,0.13614988,0.017307773,0.2586225,-0.18973652,0.249578,0.015927216,-0.52149534,-0.18833253,-0.05132865,0.1735708,0.119155146,0.24715096,0.107887544,0.2581787,-0.016452245,0.07010253,-0.26345018,-0.1880646,-0.09845708,0.019668084,-0.29531333,0.13874146,0.072848745,0.06623149,-0.31718814,0.09637792,0.20356314,-0.13306713,0.19163303,0.6436092,-0.20862825,0.06367163,-0.86870986,-0.1557093,0.2166326,0.50866467,0.34326234,0.3677272,0.28110516,-0.54914343,0.33934057,0.052235074,0.17364042,-0.05413364,0.028327476,0.22183003,-0.029303065,0.22500163,-0.32267913,0.17412734,-0.109008655,-0.3763731,0.64790183,-0.2475812,0.06427383,-0.14042294,-0.06359722,-0.31208998,-0.12204472,-0.2451429,0.45267662,-0.1158208,-0.2674715,0.5180304,1.0
Backdoor.Graybird-1f987748aa836fcff784691f0f5195eaed0187c12906f016b7bbad1f9b10d20a,-0.5365167,0.18495156,-0.07867633,-0.299764,-0.37218264,-0.23309651,-0.05137637,-0.49445945,-0.33448783,0.3346372,0.09840945,0.45504302,-0.32984638,-0.22285274,-0.0369887,0.27204832,0.0045942273,0.012188794,0.46809453,0.30386263,-0.18903393,-0.19032036,0.44861275,0.28145114,0.01836418,0.6076055,-0.42896006,-0.079813324,0.16701508,-0.16990648,-0.2062295,-0.3067533,-0.4879931,-0.0336259,0.093516044,-0.584346,0.21566208,0.038893368,0.09898943,0.07199122,0.38974372,-0.22267215,-0.29675433,-0.080329105,-0.25079226,0.4449914,0.02226045,0.3722382,-0.32579094,-0.23437451,-0.25683567,0.45527932,0.12561369,-0.48478788,-0.032897875,0.035896868,-0.048149586,0.15638857,0.44462082,-0.11336259,-0.06285041,0.50925016,0.56341696,-0.59363973,0.2586674,0.7724268,-0.416708,-0.24848916,-0.6197354,-0.050191347,-0.13570093,0.278269,0.09394996,-0.11393724,-0.04450158,-0.19954883,0.13091569,0.20827112,0.21900757,-0.112669595,-0.044829685,0.1811899,0.07302058,-0.22004034,-0.02413758,-0.1793858,-0.02013288,-0.07231653,0.07619176,0.12009012,-0.3428738,-0.11215835,-0.18751903,-0.17516427,0.032747876,-0.10580244,0.1848023,-0.10526476,-0.2525359,0.038783517,1.0
Backdoor.Graybird-1fe3c46136004caa9f4598dbd12db50b539bc0e44de422870a0150ccdf6c4297,-0.22284083,0.105538875,0.37584317,-1.0263966,0.042065255,-0.12726559,-0.77731854,-0.22445081,-0.03419495,-0.010988224,-0.04362122,0.024575902,-0.59553164,0.09153443,0.076116346,1.2516563,0.027892375,0.11763767,0.4068962,0.099894814,-0.18009318,0.53527844,0.032892566,0.47461376,-0.7096098,0.81897104,-0.14472629,0.32310745,-0.19307135,-0.07516454,0.38638067,-0.54259884,-0.45867535,0.01622529,-0.4009327,-0.71022505,0.23720588,0.048037227,0.2574467,-0.22932342,0.50575334,-0.05867206,-0.21121651,-0.115489855,-0.0794199,0.37234798,0.11473073,0.18504754,0.028542826,-0.013483848,-0.11542731,0.23584448,0.47791556,-0.43310234,-0.03066552,-0.13271427,0.3069513,0.20451392,0.03552856,0.14452814,0.18982884,-0.048183266,0.09838899,-0.6431385,-0.4908675,0.95129484,0.01683731,-0.31432375,-0.044407524,-0.1410019,-0.1400434,0.17922005,0.04537873,0.3599342,-0.119484454,-0.32699385,0.5448435,0.19487853,-0.17038289,-0.092252396,-0.05169255,0.17913757,-0.029643042,-0.21150926,-0.4060938,0.18785623,0.053051922,-0.23341703,-0.12032267,-0.12903896,-0.47294995,0.077182315,-0.5218255,-0.23258942,-0.08446441,0.23961464,-0.39359096,-0.15964632,-0.6978665,0.112434216,1.0
Backdoor.Graybird-201267f2b8c394b866ce09e16997ce04701a0bdaa1f5651e81d1675af4a567a6,-0.92279446,0.6669268,0.23145366,-0.07213109,-0.13764189,-0.40114242,-0.6321465,-0.33506316,-0.3416984,0.38514197,-0.0057193264,0.20258516,-0.32624575,-0.19779162,0.074959956,0.32659063,0.24405639,-0.18097062,-0.2253265,0.05590304,-0.17545374,0.0721532,0.3034866,-0.15346754,-0.0400769,0.14459509,-0.25908735,-0.0495634,0.29043677,-0.50034475,-0.25445968,-0.2567402,-0.7139966,0.32502145,0.38062102,-0.3791675,-0.12325437,-0.13116482,-0.26883787,-0.40887722,0.19885951,-0.07329035,-0.33872193,-0.22634734,0.18030727,0.18712533,-0.3025131,0.25274497,0.08609289,-0.031421643,-0.021871965,0.34622627,0.008243498,-0.22065307,-0.06652951,-0.17163111,-0.21841924,0.16837713,0.48116463,-0.22571363,0.14012003,0.17292468,-0.099741496,-0.54343814,0.1419385,0.9011662,-0.30754375,-0.042935714,-0.4173149,-0.08120994,-0.09320211,-0.13138904,0.34229386,-0.009745639,0.018384904,-0.03197061,0.24336678,0.15829085,-0.11211826,-0.12777849,0.33167267,0.48092255,-0.45569798,0.0710996,-0.59954166,-0.012757116,0.13759804,-0.3044357,0.40869474,-0.23693697,0.11985011,-0.15883145,-0.62654525,-0.6843553,-0.03245355,-0.056004994,0.01036037,-0.17275159,-0.4248269,-0.054825358,1.0
Backdoor.Graybird-20459a8ebc99703a2171b85dc321c41ccb8fdd67b606ac75c890156db25d67e2,-0.06923988,0.06336596,-0.36878395,-0.20628284,-0.06121618,-0.43233487,0.09835928,-0.059306152,0.49482822,-0.5083497,0.20228705,-0.12974644,0.2883524,0.14810398,-0.2976179,0.44386095,0.16573502,-0.3228069,0.35010728,-0.083777726,-0.09087361,0.11004559,0.054565493,-0.23971994,-0.032815084,0.806076,-0.31150514,0.30337104,0.25022206,-0.23375286,0.35748097,-0.15666316,-0.26482087,0.11825633,-0.29543948,-0.2667817,0.18620723,0.05172811,0.09843555,-0.36593693,0.20024477,-0.026915288,-0.17858551,0.15718633,-0.2638076,0.15589334,0.07028305,0.14203905,0.07166941,0.19442394,-0.3029357,0.3804221,0.29276294,-0.2303998,0.1427437,-0.14136049,0.053732738,-0.03250638,0.27515998,-0.0457599,-0.058535416,0.40860868,0.3894949,-0.8061015,0.32194147,0.38417152,-0.46539953,-0.12766339,-0.0804575,-0.100312985,-0.072849125,0.39263338,0.25333816,0.49970993,0.31296426,-0.8280305,0.3948778,-0.032371063,-0.100214615,0.018213589,0.09127395,0.31057537,0.1694353,0.039008614,-0.47851965,-0.15041421,0.14825302,-0.27573517,0.36380523,0.2851991,0.23232062,0.06168254,0.039257396,-0.18976134,0.09182037,0.17661275,0.12994266,0.016994316,0.07413848,0.15061986,1.0
Backdoor.Graybird-21f994f2239ccaaddf25e98859f58e609dbc589127160c943dd884506d0f1e95,-0.22747377,0.27860424,-0.18016958,-0.87207216,-0.02870835,-0.04512186,-0.2734776,0.047602862,-0.6045926,0.30373895,0.18738425,0.1298392,0.5533243,0.50079507,-0.28409103,-0.07757513,0.23032388,0.14928195,0.27555746,-0.03325689,0.16361582,-0.38849017,0.80998385,0.25994363,0.07430455,0.42169818,-0.12669955,-0.24985883,0.07006657,-0.2408776,-0.2007163,-0.13652755,-0.6826588,0.2398733,0.40284675,-0.12280069,0.25424594,0.16186397,-0.05974612,-0.25941032,0.52374876,0.19598249,-0.43673888,-0.09165275,0.11837731,0.5244531,-0.3164544,0.3231923,-0.16304941,0.13786742,-0.18805026,0.44521847,-0.14377971,-0.21272114,0.08761836,-0.1648413,0.124633275,0.016675362,0.23479329,0.066419154,-0.05743224,0.28622082,0.19720952,-0.3118706,-0.003782419,0.6866049,-0.23700108,-0.3037368,-0.8542598,-0.27685153,-0.124129616,0.48205626,0.1443676,-0.04831329,0.31098056,-0.51640946,0.28667608,0.14889754,0.16633141,-0.08507237,-0.08432723,0.5662638,-0.03229238,0.056267314,-0.34211004,0.29401073,-0.09878274,-0.31269848,0.44926435,-0.10937656,-0.23314434,0.11539042,-0.07558449,-0.48829594,-0.29940376,-0.32256752,0.19526112,0.28995323,-0.52895415,0.17988911,1.0
Backdoor.Graybird-22772293d3a3b20b3610ae1c06ab72da41745c57356905855180b45c5d43ae96,-0.18119203,0.124122374,0.47038466,-0.8637541,-0.18778396,-0.18076238,-0.31329027,-0.49130762,-0.34389678,0.049958,0.12490047,0.27602103,-0.00091767736,-0.18149917,0.10423204,0.38739127,-0.10551163,0.1666059,0.44815266,0.0982737,0.017872557,-0.51584023,0.4377208,0.12850635,-0.165314,0.6277534,-0.15883873,0.047783915,0.014273014,0.3731634,0.0094806645,-0.015062668,0.09989072,-0.46637955,-0.01866459,-0.38178816,0.14238201,0.21606101,0.04419952,0.110926405,0.041934106,-0.26996675,-0.0031354935,0.008207998,0.16551767,0.569671,-0.0803367,0.3388684,-0.015610152,-0.2510528,-0.2544911,0.4053316,0.39739475,-0.10097996,-0.031005694,-0.30294925,0.17621626,0.42923492,0.0843472,-0.30852887,0.31381282,0.17523065,0.27339616,-0.5231721,-0.33664843,0.7914699,-0.53955513,-0.43681523,-0.13490298,-0.10157048,-0.2623506,-0.12280678,-0.14499152,-0.19848119,0.27750835,-0.35965392,0.33912793,0.057507027,-0.12528513,-0.30950415,0.035500236,0.40729117,-0.18884498,0.1078305,-0.38466144,-0.22325672,-0.02067039,-0.16465569,0.021783061,-0.26918435,-0.14548758,-0.16507044,-0.5628897,-0.66911757,-0.1942732,0.049631532,-0.37616727,0.14040698,-0.615449,-0.025567953,1.0
Backdoor.Graybird-22c98fc9dac84f509083a90a332517ead8eb265fc53ddb1d16e5cfd0dab0ebe1,-0.63871443,0.4230974,0.065010995,-0.1840213,-0.18655883,-0.050754327,-0.08749516,-0.046368595,-0.37791044,0.34858924,0.27246708,0.17870416,-0.12084888,-0.010829781,0.038153563,0.12918724,0.38955864,0.023880197,0.006035765,0.026463585,-0.101177365,0.17987029,0.388526,0.22727364,-0.11400484,0.2598221,-0.087040186,0.16261758,0.013068047,-0.5604225,-0.17765874,-0.28129423,-0.53812486,0.25745597,0.088180915,-0.30069578,-0.14426883,-0.052827146,-0.33794534,-0.4872027,0.26395166,0.21448335,-0.16259204,-0.026766619,0.28555995,0.26705796,-0.35997206,0.12158113,-0.015146061,-0.017807564,-0.18369974,0.37192002,-0.041597996,-0.09399171,0.07830282,0.13739718,-0.06929191,-0.16763788,0.37833852,-0.08848899,-0.10975433,0.1983791,0.032726835,-0.46502697,0.17284568,0.6323782,-0.041144654,-0.13394336,-0.34361896,-0.3412443,-0.23711276,0.16796698,0.29360235,0.075495265,-0.13634214,-0.21957375,0.12846711,0.18022281,-0.049833935,-0.19882809,0.15805596,0.3949996,-0.25293794,-0.083443195,-0.41725504,-0.0006576026,0.06916188,-0.34951338,0.293385,0.11097093,0.0014491442,-0.058318574,-0.27904254,-0.32973436,-0.037559323,-0.19810876,0.22866215,0.064918816,-0.37974146,0.06610832,1.0
Backdoor.Graybird-23259ea20d4f481cdc1bf58894f6280ddbe3fc56d7bfbaaf11bafdf4840f8c2c,-0.19704522,0.6872923,0.38907745,-0.5327892,-0.008702083,-0.08819689,0.2800232,0.29904655,-0.09344002,-0.0067139473,-0.12091986,0.2747545,-0.060588803,-0.23051953,-0.05247942,0.004762149,-0.17693767,0.15310039,0.42092443,-0.119985364,-0.39264956,-0.17472789,0.28956142,0.23809643,-0.1419145,0.12638095,0.0758298,0.003009775,0.104015775,-0.07850479,-0.2538464,-0.103549466,-0.235975,0.08048731,0.050680444,-0.17806725,-0.19738442,0.21108909,-0.30594242,-0.15932526,-0.109238096,-0.15018125,-0.19187157,0.08143301,0.09808496,-0.12202272,0.03020342,-0.12720844,-0.07116385,0.120746106,-0.03410677,0.0031772512,-0.22435088,-0.14045124,-0.11983643,-0.22623341,-0.17607103,0.4174377,0.0996633,-0.19456734,-0.23318383,0.08316473,0.41581234,-0.23827325,0.055015307,0.19691353,-0.12366336,0.061360925,-0.121351115,-0.041280713,0.2180985,0.23325658,0.12659574,0.3483941,0.33969483,-0.05786452,0.07199365,-0.021828393,0.3227248,-0.1500975,-0.066864535,-0.085435465,0.2309473,0.24401426,-0.4492996,-0.26701805,-0.2815809,-0.25000572,0.34273925,-0.041445304,0.10156426,0.13010146,0.15624183,0.017714512,0.026928948,-0.089305595,0.27027366,-0.17556037,-0.014522098,-0.03939513,1.0
Backdoor.Graybird-2486e00f3531d89506d2a87525b723d2508b4b8c0040824956aeca41b97d17d7,-0.20826457,-0.1779636,0.29074284,-0.9241199,0.119272575,-0.119627774,0.014380593,0.65605366,-0.23678294,-0.3265208,-0.11858467,0.020254634,0.035760574,-0.028451746,-0.37451577,0.31977853,-0.031053014,0.04961983,0.2902914,0.02248258,-0.2937541,-0.2445631,0.3532545,0.07367471,0.13501249,0.17387594,0.24251159,-0.32050964,0.20954008,0.049976986,-0.31629777,-0.3694999,-0.60666245,0.11196638,0.40913382,-0.25328076,-0.22293998,0.066709146,-0.38717857,-0.5364915,0.16722715,-0.06952903,-0.61424136,-0.4173361,0.10878655,0.24994552,-0.20359027,0.20861176,-0.07553246,-0.029823719,0.07583131,0.20091726,-0.13949546,-0.17621455,-0.029247465,-0.12545407,-0.057086103,0.15021828,0.3547134,0.27176586,-0.21015286,0.15967833,0.16259693,-0.3508136,0.26420173,0.7686652,-0.09253227,-0.077038996,-0.855944,-0.20941365,-0.07369687,0.31235743,0.40435588,0.36344603,0.5381356,-0.49255612,0.22810557,0.10684024,0.11865214,0.0052378606,0.24396421,0.31847662,0.06374072,-0.02421716,-0.45371765,-0.012334252,-0.016535098,-0.58029294,0.5041995,-0.03632961,-0.15433793,0.17701234,-0.21295476,-0.3068062,-0.022295156,-0.3546085,0.42271066,-0.0949255,-0.15788594,0.17132686,1.0
Backdoor.Graybird-2565563f99f161ad465a603000f5a2440b83b12413930bac01d20c6d3924f79e,-0.050018176,0.48207498,0.43969572,-0.8458617,-0.16522467,-0.25182587,-0.15391964,0.18166803,0.33673558,-0.3630954,0.042696264,-0.12232852,0.09395528,0.22488596,-0.19005443,0.42972282,0.062876076,-0.13827038,0.32116225,0.1414525,-0.040574424,-0.0013353025,-0.02929692,-0.09833695,-0.0091812285,0.4212015,-0.19364993,-0.071024455,0.11885281,-0.19391291,0.15785326,-0.20421207,-0.3298004,0.22656189,-0.13621247,-0.2032488,0.28808084,0.23595704,-0.13190664,-0.38274327,0.19082963,-0.20453662,-0.25384957,-0.2297461,-0.08380918,0.30291834,0.12631236,0.058666255,-0.06579532,-0.12071005,0.043442823,0.1116611,0.12750824,-0.29713517,0.06153834,-0.10620119,0.06811385,0.06283589,0.30126718,0.17041984,0.07681818,0.38927597,0.21255891,-0.3640011,0.15662262,0.3491736,-0.2040193,-0.15198292,-0.37010902,0.03672047,-0.13174789,0.5739133,0.20748326,0.5554646,0.5578923,-0.6674114,0.47081557,-0.07792731,0.028678218,-0.016135547,0.2480585,0.37678018,0.2423848,0.18824813,-0.68101436,-0.08795647,-0.07909277,-0.4057513,0.38559127,0.39681032,0.024462417,0.19209723,0.17663765,-0.2999333,0.06627998,-0.034205083,0.2399845,0.15845276,0.03836057,0.102672346,1.0
Backdoor.Graybird-272ea0be5ed16c1b6a1d0149a85107e382cf7dab94eb40fb49ec17acd3c00b0b,0.10335008,0.22905841,0.17931686,-1.1869978,-0.26279888,-0.19981745,0.26580068,0.395879,-0.04953262,0.1235956,-0.492209,0.33641306,-0.67794895,0.14192443,0.021108342,-0.027640712,-0.11833062,-0.1288161,0.21567495,-0.018050954,0.033309564,-0.23813966,0.6631887,0.20636658,-0.098050974,0.46793073,0.05173013,-0.031752948,-0.045672886,0.26784164,-0.32496455,0.19307168,-0.42622405,0.036679417,0.00926935,-0.48449826,0.27096677,0.073939756,-0.003335692,-0.32433408,0.19480754,0.22598471,-0.4103519,-0.3070397,-0.020908814,0.52046055,-0.17820436,-0.020305155,0.16752468,-0.25618657,-0.17907166,0.31300882,-0.27249682,-0.27430108,-0.05602846,-0.19583023,0.20143077,-0.07304889,-0.12194493,0.06603437,0.0514562,-0.0662934,0.545198,-0.22544914,0.03522271,0.69258803,-0.38460812,-0.28920475,-0.6891518,-0.20451938,-0.12139706,0.6444711,0.35279918,0.1929758,0.61731434,-0.567457,-0.07634765,-0.079803,0.054123767,-0.010323082,0.33735627,0.36964476,0.1242633,-0.3393684,-0.26701996,0.010662921,-0.22618748,-0.07878519,0.50214773,-0.12830119,-0.06556647,-0.27644855,0.07308408,-0.2575219,-0.2544238,-0.44451094,0.38081583,0.3410023,0.016994677,0.25530687,1.0
Backdoor.Graybird-27c0a52403d572f0ee5abc626a7f5cd834ed6a5b7eeebeadc848a5cc091eb5d1,-0.46611497,0.26512665,-0.14096676,-0.42056748,0.02153301,-0.0996739,0.09467292,0.24745426,0.268657,-0.24873985,0.2761703,0.05036338,-0.037890606,0.7101296,-0.18453327,-0.09583079,-0.43334678,0.118757024,0.21653523,-0.11109622,-0.21753214,-0.12589799,0.5975646,0.64963645,-0.49362987,0.2557135,0.25247797,0.016203346,-0.09397906,0.1125476,-0.23942532,-0.24840336,-0.2614332,0.051442806,0.035484366,-0.072760835,0.12705493,0.21109226,-0.23982598,0.08697602,-0.005072547,-0.15300642,-0.2131477,-0.59133077,0.033936698,0.28879097,-0.051080294,0.20103592,-0.1078093,-0.3181649,-0.21132666,0.21337156,-0.057934865,-0.6444826,-0.46054283,0.11078081,0.4493139,0.06983319,0.23944955,0.12917973,0.25945637,0.16537413,0.22852634,0.049472466,-0.2830514,0.19183943,-0.050521582,0.0017947793,-0.75109076,-0.059216596,-0.22595164,0.4460278,-0.18124473,-0.1787571,0.5087304,-0.57256144,0.18916468,-0.02181885,0.26868013,-0.11336147,0.10333398,0.19305131,-0.09273238,0.15659726,-0.10170951,-0.12952977,-0.18447196,0.11073345,0.20595443,0.21267033,-0.4262507,-0.119697414,0.07755292,-0.3065362,-0.1772106,-0.353944,0.17744164,0.22502634,-0.13655013,-0.11249091,1.0
Backdoor.Graybird-27d4f0a222bbb2285e395dcbed061a6eeb91a69d6c8cab8c98fd1ffb244c699a,0.026113538,0.10093838,0.27305624,-0.80937815,0.11738344,0.23682863,0.11357916,0.5238678,-0.719494,0.10632765,-0.29824764,0.49314997,-0.3129658,0.08304395,0.04401217,0.0047935364,0.034913644,0.10754184,0.55668473,0.13868245,-0.11723166,-0.1886137,0.7613929,0.44506416,-0.08190596,0.1480059,-0.10556565,-0.018235082,0.08752228,0.20481636,-0.048338916,-0.02541409,-0.3822097,0.24949278,-0.076118425,-0.16068664,0.32083902,0.051469933,0.3215423,0.023306843,0.17111045,0.23505333,-0.4799262,-0.26099643,0.2027354,0.38347998,-0.1493646,0.102450304,0.20149942,-0.020124724,-0.18614587,-0.046494197,-0.3853469,-0.40278816,-0.2951826,-0.17823362,0.09759977,0.17705412,-0.10736526,-0.23843104,-0.0031403156,-0.077186525,0.5976772,0.022571502,-0.27082747,0.71672165,-0.44956008,-0.28745028,-0.9382099,-0.42009637,0.1773111,0.73183674,-0.12276135,-0.04019726,0.06127025,-0.4515828,0.29407534,-0.06961815,0.04336485,-0.30257046,-0.14916705,0.4030548,-0.03996845,-0.04022523,-0.3213347,0.24976167,-0.22002117,-0.00237966,0.37719065,-0.22593747,-0.40125507,-0.43157756,-0.07190268,-0.38577297,-0.43521142,-0.40703437,0.2565569,0.2523278,-0.19394179,0.22657724,1.0
Backdoor.Graybird-2821c9781c0351109c2a8b9633972e2c71f46371b648d2103c2741f560b60a1b,-0.9220343,0.1971031,0.3434738,-0.21338142,-0.1658522,-0.03901584,-0.71483797,-0.18651496,-0.88126564,0.6551846,0.33797368,0.22383092,-0.08228423,0.05660255,0.26327348,0.038698897,-0.043348104,0.1367947,-0.7214224,-0.107343726,0.3466074,-0.15592492,0.45621634,-0.070830904,-0.29331413,0.16798517,-0.38513958,-0.15914604,0.23636284,0.1440496,-0.35619536,-0.0010911486,-0.47555918,-0.11213245,0.71532923,-0.31660652,0.010491318,0.10601446,-0.33090332,0.04020226,0.19030412,-0.0032291375,-0.41790998,-0.44622174,0.28755128,0.667628,-0.15591651,0.28610006,-0.056283668,-0.1454369,-0.07373688,0.44548854,-0.03322172,-0.09854835,-0.29361582,-0.07137191,-0.01945465,0.06946797,0.2968549,-0.03111137,0.098561056,-0.17825712,0.046424586,-0.27559546,-0.19664252,0.8334481,0.07117798,-0.16852938,-0.7172907,-0.27204648,-0.17988513,0.16355614,0.28825578,-0.105052345,0.3369898,-0.41239202,0.20951217,0.09125207,-0.06005039,-0.30846986,0.436372,0.38081503,-0.45098764,-0.0915074,-0.22390929,-0.2739551,0.16089118,-0.099429354,0.17423575,-0.52786285,-0.29994935,-0.12362993,-0.40728799,-0.68174857,-0.34748754,-0.13977493,-0.18599953,0.1206439,-0.44987997,0.01812145,1.0
Backdoor.Graybird-2860ba35f778ed52b8487fe93a77c05a2d49222ba8f6cb81877c1779d13c1f4a,-0.49148896,0.014888165,0.021022297,-0.5690512,0.5146824,0.323713,-0.08304768,0.49505374,-0.26979637,-0.1482945,-0.008760546,0.055280156,-0.20629314,0.26713005,-0.11043245,-0.032619327,0.18389872,0.1031739,0.18394877,-0.016453132,0.098019645,0.019540101,0.59282804,0.41750816,0.0010429628,0.052922726,-0.06712905,-0.13874842,-0.060975578,-0.29160714,-0.21322054,-0.12398377,-0.5547679,0.30894285,0.31608248,-0.027822506,0.3286066,0.0926943,0.11546752,-0.4068863,0.39811274,0.008607249,-0.4833767,-0.22554001,0.21418053,0.49817818,-0.23754016,0.26560634,-0.04030654,0.054028805,-0.17605022,0.3218581,-0.25742346,-0.11500873,0.033959083,0.13718802,-0.15480357,-0.06300954,0.0040642186,-0.090088494,-0.23909126,0.0717498,0.039523203,-0.17867655,-0.25850722,0.71712756,-0.31268767,-0.2729003,-0.91728014,-0.41459945,0.081212126,0.49574628,-0.02894187,-0.23464191,0.12246669,-0.6011897,0.227545,0.00040243386,0.23153414,-0.19416775,-0.057774875,0.23701966,-0.3299734,0.12768081,-0.24141343,0.26556754,-0.13863634,0.038005754,0.31515798,-0.2645403,-0.08701718,-0.29284236,-0.16706567,-0.4696142,-0.24800308,-0.17836685,0.2506944,0.22740917,-0.40026352,0.21316876,1.0
Backdoor.Graybird-2a1858cfa17d4f07292362a2719d61c97a487d29a5adf45d8e8b32f3252331a2,-0.5625311,0.36744893,0.60675067,-0.8583081,0.08614,0.20695186,-0.46106327,0.051944226,-0.2562878,0.012490272,-0.26062405,0.14809525,-0.8250844,-0.23640378,0.24042192,0.4135151,-0.21331371,0.29734778,0.2600783,0.31166625,-0.24478324,0.22914298,0.20595388,0.5901499,-0.47762677,0.36187628,-0.05082346,0.026271421,0.04261202,-0.36614168,-0.37998602,-0.34833065,-0.43072838,0.21343957,-0.024814343,-0.4097626,0.13237542,-0.14256306,-0.27471775,-0.2989973,0.00105619,-0.37885424,-0.2773807,-0.70442414,-0.18656418,0.27706316,-0.22412144,0.3145948,0.0831037,-0.051609915,-0.1491831,0.28785816,0.05675741,-0.4414698,0.0012557204,0.33080518,0.011294968,-0.20648365,0.46508414,0.10215639,0.022775538,-0.06088527,-0.028345374,-0.017763168,0.2734517,-0.11140521,0.11957979,-0.09837387,-0.61437744,-0.0617629,-0.3149384,0.1631889,0.104598545,-0.12472039,0.116149865,-0.37207532,0.13948092,0.1950455,0.20166606,-0.10728046,0.12423744,0.13527682,-0.04577922,0.10723821,-0.16574258,-0.20459576,-0.065656185,0.10706816,0.102467746,0.096919656,-0.1163473,-0.16412872,-0.0398977,-0.39559948,-0.022050371,-0.18769339,0.11871006,-0.1296306,-0.16816065,-0.14722215,1.0
Backdoor.Graybird-2a7c74a91f4b6f4ed632d97fc3ee8835a7a615cb15dbf6ecbb96526d06f64db6,-0.20702754,-0.0055643846,0.11715255,-0.3223695,0.17966785,-0.013458281,-0.3055973,0.1658175,-0.2185789,-0.70763993,-0.08390551,-0.27711833,0.15417817,0.1760096,0.007675173,0.5897516,-0.61882454,0.1533041,-0.5103806,0.03094636,0.025844272,0.1315642,0.088326275,0.26689804,-0.60370946,0.27516997,-0.23796652,0.042922277,0.084231295,-0.18614468,0.17682554,-0.26861045,-0.42738932,-0.29210547,-0.008987024,-0.28858003,-0.06696609,-0.025325643,-0.2527865,-0.077823415,0.06776052,-0.25854963,-0.43640098,-0.067371145,0.028485816,0.37349042,0.20661725,0.28070456,0.14768858,0.0255147,0.03397478,0.058982324,0.14054224,-0.101349264,-0.21038932,-0.25163293,-0.043537103,0.40171793,0.114977635,-0.2856569,0.25746936,-0.112332225,0.27063215,-0.032395832,-0.07358477,0.38592646,0.0060672336,-0.06326673,-0.2715966,0.035779025,-0.03662601,-0.11974684,-0.027492028,-0.30844,-0.031355917,-0.27301311,0.41019452,0.20555243,-0.011512062,-0.15401208,-0.17685947,0.06447894,0.03110703,0.2659456,-0.022356998,-0.047680236,0.12804377,-0.090091504,0.020603238,-0.5541085,0.11583618,0.0067421,-0.39975074,-0.4275781,-0.40157998,0.14782685,-0.3027946,-0.0010267613,-0.7123896,0.13904986,1.0
Backdoor.Graybird-2b470ddd183ec9f15d7cef2e1f2daf7243e1deef16fb6e74cb75b67c5d25df18,-0.051373415,-0.5401851,0.14764597,-0.92366827,0.16119483,0.027382396,-0.7380132,0.113940015,-0.32653832,-0.4128925,-0.3920131,-0.089252174,-0.40997502,0.0069528217,0.024555052,0.60463923,-0.054886196,-0.023004672,-0.09851265,0.124638945,0.11290656,0.15218551,-0.0012004313,0.07172456,-0.10975657,0.33222115,-0.15643884,0.02826348,0.20657313,-0.46045238,0.079302974,-0.40202454,-0.2229375,0.008881583,-0.051451042,-0.27171642,0.16005884,0.047539454,-0.14804828,-0.49145028,0.22404052,-0.19526815,-0.29855347,-0.25360346,-0.057990257,0.22084238,-0.09670252,0.12562037,0.07986094,0.015116807,0.10066134,0.020190071,0.22200188,-0.13162598,0.10744477,0.12686275,-0.0038151052,0.013930965,0.2378455,0.10529383,0.15906766,0.156705,-0.058557346,-0.22622907,0.09838506,0.25171885,-0.0069150324,-0.21600996,-0.3546114,0.023590563,-0.18185575,0.21557717,-0.073052265,-0.029040324,0.05342633,-0.22525124,0.27417082,-0.061091587,-0.28920406,0.16273598,0.14852338,0.24000701,0.25629818,0.16134578,-0.3735296,-0.261866,0.20322134,-0.04601284,0.029463774,-0.11551985,0.2001841,-0.041177783,-0.24951313,-0.5123922,-0.39383444,0.23519771,-0.18089439,0.13861889,-0.37066638,-0.0786968,1.0
Backdoor.Graybird-2ca870cb512099a0df67fefee9eb2bf8fd53cc078919852144d6cbff26456347,0.57263416,0.13246137,0.37270027,-1.2591159,-0.44528416,-0.16108184,0.020680062,0.38219535,-0.3234386,0.27908957,-0.7904665,0.38509715,-0.84891146,0.49626,-0.04900006,-0.19398534,-0.2668849,-0.27517688,0.32247728,0.22896227,0.14468955,-0.13988759,0.708995,0.7266747,-0.066410795,0.5150608,-0.14593822,0.015951227,0.017684827,-0.2714935,-0.064852744,-0.058334243,-0.5585835,0.102290615,-0.049486604,-0.25408024,0.46343607,0.029638644,-0.2880619,-0.30617395,0.26211348,0.08689218,-0.6615419,-0.5826382,-0.0045306874,0.4073538,-0.43326226,-0.02197402,-0.12348236,-0.06679437,0.032913953,0.0057303417,-0.31893086,-0.526462,-0.087039486,-0.23467115,0.2736366,0.21830416,-0.083561026,0.10078924,0.14529635,-0.0015277419,0.52697086,0.14826913,-0.18893215,0.7931941,-0.38411745,-0.39293587,-0.7843271,-0.13604926,0.095683254,0.6196407,-0.21869743,-0.3304105,0.46344745,-0.14870289,-0.025526928,-0.21595855,0.066801086,-0.04646522,0.022040037,0.4682005,0.38300094,-0.5697224,-0.26954463,0.072245054,-0.19678588,0.14867863,0.43225548,-0.11346179,-0.3968804,-0.13370802,-0.32281876,-0.18554395,-0.43866163,-0.24195814,0.16353877,0.37807095,-0.081105046,0.043867536,1.0
Backdoor.Graybird-2ec9be730d82cf10af338e7f25781006744b9dda9c9ff484acfd2de501b05e24,-0.29438132,-0.7199325,-0.5470533,-0.85552186,0.07458283,-0.06738253,-0.6871818,-0.1433229,-0.5912692,-0.027915949,0.09288097,0.06078752,-0.5436308,-0.037768196,0.3169803,0.29926878,0.1651863,0.43190348,-0.11106616,0.053399947,-0.25443193,0.13354696,0.3873576,0.5766871,-0.57347196,0.30338824,0.2044682,0.0060119056,-0.036093187,-0.47012714,-0.30985418,-0.78438693,-0.5810634,-0.016771972,0.1086279,-0.2949023,-0.14486486,0.16390148,-0.24113818,-0.1842519,0.40613815,-0.16854274,-0.26896727,-0.47653303,-0.21458016,0.4722029,-0.059683654,0.31165978,-0.15881906,-0.23294038,-0.20474862,0.4326174,0.23876117,-0.40748233,-0.12947375,0.53825337,0.14573704,0.047968663,0.09448437,0.12816823,0.042005718,0.15359254,-0.017710023,-0.27759176,-0.04160607,0.397972,0.30237252,0.016004637,-0.6114623,0.097795606,-0.25825956,0.14358373,-0.1166639,-0.14123486,0.060661234,-0.23416355,0.10185067,0.14431204,0.030692939,0.22784202,-0.09996639,0.02041168,0.19057868,0.17686692,0.096124105,-0.26066494,0.019505046,-0.029461153,-0.056590382,-0.11497675,-0.290988,-0.0075976085,-0.29418117,-0.24480708,-0.30359012,0.059648857,-0.1661628,-0.14018162,-0.65828377,0.09837213,1.0
Backdoor.Graybird-31e4807b0f375d8f919a3037f2764686a46d2e41bd957f8edd8f771621a3e53f,-0.47975832,-0.38412824,-0.5771729,-0.7018251,0.21778566,0.078508675,-0.5293765,-0.17516266,-0.47081122,0.02126265,0.26634243,-0.014744919,-0.44595495,-0.046119966,0.28552103,0.008836108,0.2910824,0.2913264,0.17595963,0.24178578,-0.33505207,0.18729497,0.35950077,0.64560896,-0.39161742,0.32216308,0.030915976,0.030001087,-0.07080057,-0.73699677,-0.3018933,-0.6260223,-0.38000965,0.040612586,-0.11923037,-0.1857013,0.036260393,0.06816694,-0.5395731,-0.34563604,0.12913518,-0.08788649,-0.14689611,-0.45048326,-0.25243467,0.18941367,0.06461009,0.1774316,-0.13275164,-0.24055667,-0.22115077,0.42694315,0.1209515,-0.64505494,-0.15807639,0.5614118,0.26841858,-0.1873402,0.25126696,0.29155684,-0.06178458,0.16040982,-0.039903197,-0.043768175,-0.0007105421,0.3192368,0.25402454,-0.20705009,-0.626596,-0.055249847,-0.22250707,0.30364078,0.0987935,-0.03551224,-0.076741986,-0.06698217,-0.0072418954,0.3430091,0.23827994,-0.0005887821,-0.11158078,0.17662568,0.19080953,0.1289746,0.02022016,-0.0678404,0.024343459,-0.10502255,0.029421143,0.060030114,-0.32262784,0.036425613,0.047823045,-0.16993034,-0.060492694,-0.2084341,0.11205068,-0.11129639,-0.40363052,0.17196617,1.0
Backdoor.Graybird-32cbc565918830a83537aef008c3587ea24d2172c7ed3563ac2f4a7506a7a00d,-0.39534956,0.046903934,0.4039514,-0.88025856,-0.100880235,0.029599175,-0.17611204,0.15598258,-0.26260597,0.36052456,0.07312983,0.052128937,-0.33409873,0.25906625,0.0037136544,-0.28722593,-0.0018815236,0.13011408,-0.1497199,0.108287014,0.24804413,-0.19627206,0.48880067,0.35396057,-0.06858359,0.39615202,-0.026187884,-0.24839322,-0.062643595,-0.21395177,-0.21276236,-0.35370153,-0.37618926,0.015284426,0.29653352,-0.31910717,0.34895852,0.2096354,-0.3120297,-0.063898966,0.30615678,-0.09557928,-0.3801619,-0.822689,-0.067410186,0.5325447,-0.12310607,0.25031653,-0.31543952,-0.16208513,0.005161595,0.4509505,-0.14770457,-0.18470004,-0.019578427,-0.019644277,0.20681891,0.0041442243,-0.0019297281,0.24625601,-0.14304802,0.24436101,-0.0009031983,-0.071759626,-0.10690357,0.5054437,-0.06298719,-0.19672601,-1.0953374,-0.055127643,-0.1762898,0.37555003,0.014771239,-0.09834283,0.5604347,-0.44390833,-0.09660362,-0.11617314,0.25003302,0.06653051,0.30059743,0.22231337,-0.056262404,-0.073716186,0.16790783,-0.06592236,0.02709457,-0.18203779,0.3698726,-0.00838241,-0.3075188,-0.050176255,-0.048555657,-0.3443989,-0.203108,-0.3720256,0.43471736,0.3060403,-0.2256291,0.41888255,1.0
Backdoor.Graybird-33e8337aad51e26cebf92f17cdc0c3ffa5ed55c74de4e7cd5b92db2d75e15339,-0.043758903,-0.036951955,-0.058879163,-0.057381112,0.14248936,0.06539352,-0.14304315,0.10587241,-0.08137622,-0.4461715,0.022694547,-0.20319988,0.17212911,0.06807683,-0.062255573,0.34339404,-0.34815252,-0.025806319,-0.30748534,-0.05819004,0.10339314,0.07364577,0.1441666,0.2365967,-0.4211823,0.16634388,-0.15867208,0.07402277,0.019918699,-0.106791526,0.19971746,-0.13111308,-0.2286893,-0.16454963,0.011713997,-0.0969726,0.0034446605,0.02902731,-0.063393936,0.09233224,0.08412092,-0.06684225,-0.25925878,-0.01941635,0.11936176,0.2376889,0.123014264,0.19560781,0.069614395,-0.07319188,0.019069042,0.025739782,0.101999216,-0.048128963,-0.1257358,-0.1498004,-0.0063374946,0.29188138,-0.045410786,-0.22155434,0.16112612,-0.032649808,0.15651147,-0.041885536,-0.14909041,0.31483352,-0.083946906,-0.12494345,-0.14973764,-0.05776663,-0.010526584,0.051305454,-0.04542392,-0.11177517,0.053348463,-0.34479523,0.32339996,0.035953686,-0.029076617,-0.15715429,-0.1495458,0.0977667,0.013384394,0.26571417,-0.08777362,-0.056488596,0.00041154388,-0.0692447,0.111609414,-0.31103814,0.13204904,-0.02711681,-0.1626281,-0.33215562,-0.35569957,0.09105453,-0.1360241,0.13787247,-0.45187494,0.05004514,1.0
Backdoor.Graybird-340c5cae28749592b0ea9453bd4f7d109b2fe2c8a03041e5da9961a7339eaa34,-0.5299902,-0.5881488,-0.30264527,-0.5853093,-0.20615505,-0.041812334,-0.49321988,0.042435136,-0.51249546,0.08252084,0.021204572,-0.0981801,0.0050066304,0.2744707,-0.13696502,-0.012852312,0.13684905,0.075470835,-0.28589904,-0.031047193,0.113729686,0.0105145285,0.6535858,0.7304517,-0.48020804,0.3294742,0.21420424,0.094213046,-0.08504581,0.035710994,-0.04021651,-0.6581933,-0.34035447,-0.39332846,0.34657016,-0.53881973,0.06279284,0.387966,-0.085089065,0.5131982,0.4817005,0.4086414,-0.2130009,-0.55809194,0.16585265,0.20098662,0.010787687,0.19686426,-0.34373036,-0.41953787,0.106494,0.16646884,-0.05169566,-0.15192643,-0.25271654,0.19612075,0.048219588,0.18247432,0.08919066,0.0014817965,-0.10100756,0.31381083,0.24029401,-0.43464518,0.08564367,0.570073,0.24857052,-0.11232182,-1.051367,-0.15452996,-0.15966703,0.40755045,0.12949988,0.059331696,0.5102554,-0.5615977,-0.016613677,-0.06435656,-0.10245115,0.24642365,0.10499201,0.2852849,0.3789993,0.06352244,0.06891124,-0.572583,-0.09145319,-0.48484936,0.25184247,-0.3654757,-0.19706877,0.034280874,-0.35084477,-0.3187589,-0.6222782,-0.0975508,0.19860709,0.20358002,-0.7272758,0.3483714,1.0
Backdoor.Graybird-3472255f40fa8003a08d8c641d9d2c5d0f749bf4c0420fc9a22040103a97c35b,-0.09193525,-0.49384892,-0.006822182,-0.25563636,0.3894428,-0.29123685,-0.2372982,0.010275008,0.09679425,-0.34633276,-0.40254292,-0.12771182,-0.15561129,0.25179064,0.101988286,0.22776943,-0.08272532,-0.036700282,-0.32372847,0.03470485,-0.10461865,0.036794525,0.14341117,0.1007645,-0.007929248,0.04814831,-0.11636906,-0.09987817,-0.0076995892,-0.28507343,0.038714956,-0.30071077,-0.26540375,-0.11780351,0.035975397,-0.0995488,0.05776091,0.14053704,-0.06204748,-0.1671014,0.26777267,-0.15331443,-0.10840829,-0.041262027,-0.12975179,0.21459,0.27213222,0.05926704,-0.19901007,-0.2660571,0.03223045,0.10349315,0.09990568,-0.24184774,-0.20918703,-0.015800027,0.04164351,0.15135925,0.18783158,0.040111095,0.1595181,0.29387692,0.030634312,-0.21792309,-0.28223684,0.7229643,-0.12299447,-0.023132116,-0.28887466,0.0977948,0.02741419,0.28149343,0.047439847,0.0815497,0.13933688,-0.20936504,0.1188472,0.065724924,0.1257577,0.020207182,0.29080284,-0.054774307,-0.036617,0.20050135,-0.0070491447,-0.24384907,0.101823576,0.016348688,0.00025942668,-0.032371894,-0.07528114,-0.023957144,0.035517044,-0.2405004,-0.037007354,0.15203623,-0.023910224,-0.038048357,-0.23644733,-0.013433347,1.0
Backdoor.Graybird-3473cb362c74478f5f8d200d068fbf1806d2dca138264e942574fb7abd324b42,-0.26796082,-0.005243405,0.31303632,-0.7145732,-0.085489616,-0.12459226,0.18579037,0.579486,-0.20701206,-0.009914024,-0.2078313,0.14488475,-0.3714493,0.08829433,-0.19915828,0.13340941,-0.24692838,0.2585125,0.1933509,-0.043960325,-0.1393897,-0.32891575,0.6932268,0.33171996,0.11296271,0.38511473,0.23634847,-0.10252137,0.18549146,-0.05064136,-0.14647415,-0.47330442,-0.3720745,0.014810909,0.34603465,-0.15424374,-0.040639415,0.07969662,-0.3386634,-0.45190763,0.24828689,-0.08127068,-0.62244743,-0.52171993,0.019933628,0.39849675,-0.27598107,0.21259962,-0.24087974,-0.046358265,-0.006545611,0.22176425,-0.18777393,-0.20311181,-0.09283535,-0.000446259,0.025224654,0.10023287,0.1605564,0.31382063,-0.19928424,0.2542067,0.32316846,-0.21673708,0.06396636,0.712886,-0.19264956,-0.012290336,-0.9294235,-0.1741818,0.012845678,0.47491065,-0.06775023,-0.027964236,0.51649797,-0.3706009,0.06358265,-0.21912207,0.04391034,-0.035091657,0.31491214,0.20928386,0.0038365014,-0.2026585,-0.12811221,-0.20270747,0.1581886,-0.18100388,0.48527464,-0.17243607,-0.3388688,-0.02006222,-0.15509598,-0.41268274,-0.22953273,-0.24199592,0.30857325,0.055640936,-0.03378611,0.17650624,1.0
Backdoor.Graybird-349a9ef306724d4e0a569074528204ac93186fc10679de7c0fd4117b7e674adf,-0.33966616,-0.69194454,-0.046392858,-0.6442124,0.045124695,-0.27752528,-0.856764,-0.26823318,-0.4266268,-0.13455456,-0.14604446,-0.09758515,-0.5277868,0.009294257,-0.029685462,0.4491926,0.12610519,0.19101304,-0.045779265,0.22422941,-0.025041908,0.25548196,0.4428507,0.43887028,-0.25502548,0.6109109,0.054617994,0.078870386,0.13237534,-0.42027435,-0.04970097,-0.5719693,-0.4503948,0.068686195,0.12329084,-0.36601543,0.10280488,-0.1694531,0.08137413,-0.22044349,0.5369154,0.15545638,-0.39734295,-0.39428508,-0.45029932,0.3023783,-0.19787548,0.2783162,-0.20269875,0.083556294,-0.16058883,0.30290517,0.05700613,-0.29038423,-0.084654555,0.124227926,0.20021062,-0.25361326,0.44828048,0.21930683,0.078445755,0.16257979,0.29908746,-0.5224971,0.3804386,0.5495098,0.26584333,0.12217557,-0.6436004,-0.067055926,-0.22388385,0.23036236,0.08609464,-0.17415537,0.012147076,-0.19003299,-0.085254714,0.26107946,-0.02526996,0.26795134,0.38856852,0.019637298,0.0638487,-0.17404325,0.19991525,-0.39156112,0.4806409,0.043447845,0.10846335,-0.37315622,-0.17025352,0.009134657,-0.12880272,-0.5459048,-0.40019646,0.078372955,-0.08453805,-0.0919149,-0.305323,-0.08817345,1.0
Backdoor.Graybird-34cb2e3660a417e83f902c990f20b3d0efa6e84ad20a7c769f2944cc333bc47b,-0.29478458,-0.12437156,0.2835991,-0.61792845,-0.121866696,-0.22337621,-0.33419183,0.026286418,-0.06632234,0.18923458,0.23984873,-0.09358308,-0.014446457,0.17693366,-0.10788457,-0.25054145,0.06248078,0.07175066,0.00083367585,-0.03705715,0.17819579,-0.279104,0.46235842,0.20749286,0.018250532,0.29355788,-0.13326989,-0.2634683,0.06923476,-0.025933981,-0.23412257,-0.30082574,-0.4695617,0.09150658,0.42143127,-0.31550285,0.19389755,0.11814326,-0.19134226,-0.011367935,0.3289246,-0.009538631,-0.35662234,-0.46813568,-0.0054533766,0.3924498,-0.13842714,0.22531311,-0.32316732,-0.118270114,-0.05264688,0.35910407,-0.045672305,-0.26776028,-0.12915641,-0.018294066,0.17994362,0.09049801,0.04744671,0.382639,-0.06297758,0.29059112,0.035764772,-0.09722392,-0.22271787,0.72339845,-0.12105912,-0.18583927,-0.7224481,-0.1665678,-0.0471819,0.5285047,0.12079951,0.15666242,0.5519066,-0.34809765,0.063819356,-0.021266613,0.134758,-0.076543674,0.2367374,0.35856348,-0.02710131,-0.11023204,-0.18711306,-0.04082487,-0.11623156,-0.2624309,0.44585592,-0.1164607,-0.42161512,0.08673629,0.038505863,-0.39322445,-0.14212649,-0.23739702,0.21049759,0.11209833,-0.1821834,0.13852799,1.0
Backdoor.Graybird-3512ae0eba2c3f6e4e6195c0e1bd70b9a9e3b3d7708f403ed4b5e281e4a1a120,-0.07044921,0.044462174,-0.18403941,-0.2298049,-0.14762415,-0.5195871,-0.564587,-0.3217583,-0.04751654,0.36616302,-0.10588643,-0.022653397,-0.56953436,-0.16561829,0.03613128,0.24811885,0.010022598,0.22399868,0.055766992,0.23065051,-0.12409719,-0.08828501,0.25756904,0.16475001,-0.14396693,0.43947768,-0.20390652,-0.07092591,0.27028415,-0.15405446,-0.092634276,-0.3379213,-0.36089128,0.07397957,0.2407672,-0.2684533,0.12392942,-0.13404854,-0.32524985,-0.15834151,0.25591576,-0.24547273,-0.345721,-0.46423057,-0.34220135,0.38679054,-0.14350304,0.29891774,-0.22645943,0.059758157,-0.0337355,0.30104434,0.10210658,-0.295757,0.048469868,-0.15972058,0.1727023,0.04036113,0.4375416,0.16596311,0.109596595,0.15247117,0.23030925,-0.22647662,0.30680972,0.21689884,0.13759477,-0.033078574,-0.5332914,0.018833987,-0.1410721,0.06286849,-0.06101238,-0.16482472,0.074384205,-0.21781263,0.08343311,0.1601802,0.083201125,0.18115956,0.065260716,0.17934455,-0.005895842,-0.14213991,0.14027722,-0.060837638,0.30068514,0.006308942,-0.02322447,-0.071241565,-0.25392175,0.1531349,-0.20753843,-0.2338517,-0.12622786,0.051933073,-0.17777105,-0.10628286,-0.08682869,-0.084551215,1.0
Backdoor.Graybird-35808e06d5ab73341611da612e9a37252f07f2bc7801725569ebb49895f59a05,-0.28301537,-0.19273813,0.4220322,-0.7685139,-0.045208655,0.16789779,-0.3841077,0.13743156,-0.1584772,-0.39664823,0.14961551,-0.46186557,0.16769324,0.041865796,0.04658043,0.36019805,-0.13920826,0.2947163,-0.35386977,0.17438264,0.0006415179,0.17581482,-0.11629073,0.14251667,-0.3790836,0.22628123,-0.0693286,0.008424096,-0.010229092,0.028624758,0.08989202,-0.39485422,-0.40705356,0.0023488821,0.12195833,-0.14239433,-0.059393324,-0.18834856,-0.32446042,-0.35476226,0.29545918,-0.2915438,-0.46748793,-0.35178256,-0.16938211,0.5390773,-0.044123698,0.19052492,-0.018979277,0.030992748,0.113954335,0.10631345,0.23086216,0.036866784,0.24393912,-0.049469996,0.013133222,-0.0036999325,-0.0402449,0.30395323,0.0058600935,-0.14104362,0.06999269,0.031157678,0.081673056,-0.0791479,0.34143355,-0.12609722,-0.034143824,-0.17596504,0.015631368,0.0031392397,-0.014517902,0.10613506,0.15499942,-0.5800806,0.37490475,-0.046579864,-0.21969937,0.10307336,-0.30492172,0.4085334,-0.1149322,0.20448263,-0.052446537,0.43950048,0.264972,-0.03913739,0.090862654,-0.38397154,-0.05099802,0.3675795,-0.05903403,-0.4736631,-0.18152362,0.29237044,-0.6295763,-0.03946742,-0.07065493,0.08865019,1.0
Backdoor.Graybird-365bea068bcb7c92f0dbf6868e8e6ac2d49feaae2d6464a4fbf9d4dc28ea4189,-0.032862063,-0.2652826,0.12118056,-0.95940465,-0.013723669,-0.07761393,-0.23121354,-0.20176448,-0.36593038,-0.018662632,0.09135282,0.2292714,0.25477314,0.038605724,-0.11119168,0.41703022,0.019476498,0.18523973,0.20551006,-0.05136815,-0.008491091,-0.43650573,0.5406005,-0.007916723,-0.10597981,0.3909639,-0.14852268,-0.08459287,0.10434433,0.22717804,-0.017486537,-0.21353373,-0.3910649,-0.1613765,0.2467413,-0.28490433,0.026904482,0.0935642,0.20115928,0.21232168,0.35311818,-0.099904306,-0.24148773,0.08121054,0.06861323,0.5225182,0.0077855694,0.35543573,-0.09115963,-0.21566817,-0.10859458,0.28643763,0.32558447,-0.2889437,-0.11121979,-0.33138204,0.24378444,0.41964045,0.12515077,-0.036529962,0.34707394,0.23450033,0.23783731,-0.3906366,-0.36359984,0.99593204,-0.40958902,-0.2685806,-0.25546482,0.0117350435,-0.10029924,0.08527822,-0.06410258,-0.04158696,0.2872863,-0.27710193,0.29361692,-0.027010769,-0.12667936,-0.057497032,0.036975887,0.36272794,-0.15268095,0.062801145,-0.23945533,-0.056695554,0.04991301,0.006175506,0.10917173,-0.22319543,-0.3306436,-0.02376818,-0.26213643,-0.4067671,-0.22239247,0.06941827,-0.3812118,0.006289786,-0.26623237,-0.12119362,1.0
Backdoor.Graybird-3796ba03a70668fe9a40cd399da7963d6dded9136682059f1443d5b493d37a83,0.022919597,-0.5583371,0.062187787,-0.70369685,0.18362193,-0.2033668,-0.7904746,-0.28757516,-0.033442467,-0.07719796,0.007883422,-0.08197635,-0.17017466,0.14253065,0.17764312,0.526579,0.040831085,0.37610102,0.042898085,0.044130396,0.0691611,-0.12464731,0.24836321,-0.11241616,-0.1795541,0.4822893,-0.2494435,0.03840785,-0.026085053,0.10850011,0.030851422,0.1255331,-0.19019355,-0.16656277,0.18515022,-0.25599483,0.14644033,0.071680926,-0.10776152,-0.1433422,0.31359875,-0.025291398,-0.12879094,-0.012481358,0.00077263714,0.51548386,-0.058926687,0.15130876,-0.100826286,-0.16841038,-0.051663365,0.35962766,0.22948122,-0.05377635,0.12754324,-0.23289126,0.09367158,0.12298173,0.08780981,-0.07791979,0.2796862,0.021638507,0.05257243,-0.2752738,-0.21163921,0.6064926,-0.14648135,-0.2349909,-0.12892328,-0.02352314,-0.15434659,-0.079319656,0.047784988,-0.12773095,0.18568455,-0.2735748,0.13028735,0.075434,-0.051863,-0.01088973,0.23301907,0.36044198,-0.34503046,0.0564934,-0.19341779,0.089175895,0.23230298,0.06409718,-0.011789505,-0.29662892,-0.11949943,0.06554585,-0.2830799,-0.52694976,-0.03557184,0.2062893,-0.46340764,0.07804887,-0.24319118,-0.008082639,1.0
Backdoor.Graybird-3799f857d04896d9155038342c96e32490cab5ce67ddf33dab263184d95ea41b,-0.0957156,-0.8825883,-0.5177325,-0.8256822,0.13908641,-0.090533525,-0.5616381,-0.061401155,-0.57169914,0.07920119,0.040658753,-0.26694283,-0.071400106,0.25257263,0.015346466,0.10495682,0.24613988,0.23501153,-0.26916063,0.08747589,-0.085735194,0.24565202,0.38624993,0.66404486,-0.63917476,0.32842755,0.15172973,0.029512994,-0.12820596,-0.23905239,-0.0860596,-0.5678187,-0.53787285,-0.10290142,0.2137872,-0.17713334,0.09305067,0.08392881,-0.06195509,-0.10842923,0.51005834,0.027380958,-0.28819734,-0.51832867,-0.11050286,0.60803384,-0.060346186,0.34281754,-0.110605754,-0.1512458,-0.1375684,0.5034865,0.2120155,-0.13698186,-0.035569724,0.3500787,0.17630787,-0.2123078,0.10920626,0.15467414,-0.08493665,0.07404162,0.0050999946,-0.40515992,-0.017957376,0.33737618,0.36837864,-0.060546838,-0.8501247,-0.08457658,-0.2703867,0.16997904,-0.053703822,-0.25419345,0.10805905,-0.66644996,0.07746121,0.060772188,-0.061460145,0.32176206,-0.087676555,0.13698858,-0.00018220462,-0.028738668,0.3135946,-0.12110295,0.15957454,-0.082182035,-0.098799616,-0.16214687,-0.19877227,-0.042000644,-0.29920354,-0.20346402,-0.43107268,0.097253084,-0.10558839,0.090966165,-0.5130871,0.29711297,1.0
Backdoor.Graybird-3920bdcebc14233421ec142268749c0cc1358bba2af6e2e561ce3ac346db2d8e,0.1105067,-1.0062836,-0.53017956,-1.0014216,0.375647,-0.24996905,-0.5883012,0.0037985414,-0.5403724,-0.13852485,-0.15326227,0.025535736,-0.32130504,0.14167449,0.14012128,0.2502297,0.16965911,0.28120655,-0.01808846,-0.064985715,-0.32921556,-0.05243619,0.4784271,0.5589477,-0.5107512,0.36711484,0.39993012,-0.04137771,-0.13448527,-0.27177468,-0.16548464,-0.78392166,-0.559628,-0.19035523,0.0002957548,-0.13240232,-0.20947246,0.098550126,-0.0691379,-0.08073836,0.22918719,0.003923764,-0.22386174,-0.57009095,-0.29060277,0.34451744,-0.07900846,0.3556008,0.03806041,-0.17245734,-0.29680967,0.45880872,0.2707406,-0.4827244,-0.3335731,0.44134888,0.40348986,-0.020770054,0.06436845,0.29273862,0.14447406,0.14000575,-0.11027124,-0.1047365,-0.27770805,0.49790785,-0.005621177,0.03331264,-0.7990744,0.05687268,-0.15505293,0.051325552,-0.14212437,-0.16029143,0.20066081,-0.48800835,0.15069725,0.13311547,-0.036323555,0.22675121,-0.072499596,0.12945202,0.08656617,0.23104641,0.2250667,-0.021877741,0.007956147,-0.17617412,0.1333495,-0.0880751,-0.33957753,-0.14325388,-0.36610132,-0.20322219,-0.18255515,-0.14129604,0.08165022,-0.16511801,-0.6145471,0.31255108,1.0
Backdoor.Graybird-3a81fabef97e62aaefc48fa799a00c00d531afda4d49a58e90161dfef215d056,-0.22845434,-0.23485745,-0.20709795,-0.3108072,0.16837075,-0.39598525,-0.09528628,-0.18616621,0.46997753,0.12498113,0.43588272,-0.041320864,-0.22957037,0.22815263,-0.15691738,-0.09068871,-0.047185097,-0.03026208,0.14708608,-0.13466914,-0.019885145,0.13108204,0.39869866,0.30277577,-0.33093432,0.5567319,-0.0814472,0.039816335,0.052605648,-0.2951073,0.05858974,-0.19718274,-0.43647292,0.44635284,-0.008246674,-0.009109955,0.2456719,-0.07833296,0.19402733,-0.19691922,0.24553584,-0.22578946,-0.2920515,-0.36590028,-0.16631866,0.45520285,-0.2133715,0.39277825,-0.026806409,0.13847733,-0.41495872,0.5686294,0.12160625,-0.27630097,-0.04412385,-0.05840419,0.19854155,-0.080992274,0.08674136,-0.16764842,0.035876874,0.22816737,0.037780836,-0.47502917,-0.056214362,0.15820393,-0.3176991,0.107818075,-0.5324043,-0.124299504,-0.11639044,0.1642135,-0.39842254,-0.36574453,-0.052786566,-0.5297093,0.1958073,-0.10444665,0.1390578,-0.0103050545,-0.06462788,-0.013851909,-0.40976098,0.0022326664,0.13882259,0.12465967,0.16618662,0.23742689,0.15472054,0.23070666,-0.251027,-0.2567463,-0.066984974,-0.34152535,-0.19769762,-0.039692473,0.11467841,0.16661446,-0.097093835,-0.07794111,1.0
Backdoor.Graybird-3ac9b0f65d3a26c5fe28cad9856d7119d2088f7cab78c37aa12348ea3b3bc000,0.12309615,-0.050045814,0.010821769,-0.36799175,-0.76072156,0.050329328,0.030078195,-0.5650513,-0.5212409,0.40411225,0.6589311,0.4966632,-0.025522439,-0.047391914,0.22424662,0.36709654,0.10284095,0.4520227,0.36655438,0.2122888,-0.12187069,-0.35067078,0.40829822,0.07772178,-0.2659979,0.50581187,-0.26117894,0.104814015,0.14235044,-0.031874433,0.050221436,-0.6084345,-0.31397414,0.029316224,-0.11434913,-0.43042415,0.24850473,0.12094924,0.25473803,0.30034924,0.25544468,-0.36930582,-0.22392127,-0.40140396,-0.1619683,0.7557691,0.020091567,0.5674861,-0.04645152,-0.21189708,-0.4043234,0.42559385,0.28158715,-0.36022118,-0.117359824,0.28326276,0.061893523,0.18551846,0.06670531,-0.25918818,0.11897811,0.37214038,0.31488466,-0.30467063,-0.08454099,0.31529385,-0.41795692,-0.16520555,-0.7114108,-0.0036164096,-0.15461068,0.22663318,-0.43207613,-0.3132907,0.008106302,-0.5412812,0.46611792,-0.120838426,-0.108994424,-0.12804767,-0.3021092,0.35665768,-0.17435353,0.2606859,-0.035359833,-0.010416796,0.0003602065,0.05077792,0.04966907,-0.03777667,-0.24098769,-0.4248894,-0.35238224,-0.5937731,-0.2506613,0.009309235,-0.1684994,0.06875947,-0.46215448,0.2956878,1.0
Backdoor.Graybird-3b6230033969a93587fc1d795bd800de9478b437d400bfaa3a1fd7ab0b082102,0.0699237,-0.67613846,-0.3066782,-0.8027317,-0.3991807,-0.22443059,-0.6436025,-0.18029985,-0.21385159,-0.08489362,0.20243551,0.26491958,-0.68575704,0.13217647,0.15718038,0.41878903,0.021543562,0.36445263,0.13797688,-0.06306585,-0.1487825,-0.07945542,0.30925727,-0.000424086,-0.04497991,0.51747245,0.27390754,0.034119315,0.15076661,-0.3162993,-0.21856533,-0.57575685,-0.3034865,0.21151029,-0.008579577,-0.39092776,0.012338961,0.01651237,0.18082882,-0.38580877,0.29859248,-0.03734983,-0.30015153,-0.44631672,-0.26373193,0.2213543,-0.34921658,0.195463,-0.03730536,0.12136241,-0.23883995,0.21578063,0.11874817,-0.1460646,0.040982205,0.29696974,0.07766849,-0.10905371,0.11801911,0.26259682,-0.033906557,0.0931811,-0.060726296,-0.45777524,0.26414183,0.27050373,0.10837701,0.1646528,-0.5138011,-0.06117639,-0.19471602,0.26786277,-0.09317494,0.06201479,0.2320921,-0.32756603,0.11310854,0.032639373,-0.13090748,0.22479741,0.3181017,0.08293831,-0.018785782,0.017949576,-0.17414556,-0.27515584,0.34073785,-0.0961094,0.2852488,-0.29264948,-0.042041592,-0.092169136,-0.18836336,-0.7097063,-0.34197712,0.03876942,-0.040313795,-0.056883045,-0.303589,-0.062808104,1.0
Backdoor.Graybird-3bd529df6d6af1c83eca9ff3fd494825f98908773b73ab6023b2d08e30fc9141,-0.029477414,-0.45154917,-0.14955856,-0.72386813,0.09856348,-0.088257745,-0.6249526,-0.12382806,-0.5628275,0.18263307,0.3506644,0.116345316,0.06523499,0.33306047,-0.14291863,-0.32746723,0.38420638,0.11704398,0.06508678,-0.09990305,0.2840525,-0.2703634,0.713231,0.35096592,-0.0497457,0.5054142,0.017718423,-0.2058756,0.17725687,-0.13079374,-0.25056615,-0.44313595,-0.44133377,0.16363989,0.46690157,-0.22958574,0.22624683,0.2771169,0.17911704,0.085805394,0.5892261,0.003913776,-0.3130129,-0.46007693,0.018735165,0.48277336,-0.3454732,0.39149147,-0.38366845,0.174359,-0.23397557,0.4724676,0.12922317,-0.21393599,-0.06322673,0.008089851,0.32059607,0.20616467,-0.0027010315,0.1855876,-0.034984797,0.33073246,-0.028565232,-0.52687633,-0.2299742,0.8945965,-0.024848636,-0.16117308,-0.7650571,-0.2226167,-0.15251754,0.5354368,-0.0950049,0.09153733,0.59260404,-0.52910125,0.103914745,0.0075425403,0.15397996,0.083741374,0.10463998,0.16824661,0.1338002,-0.12615763,-0.14732756,-0.3562781,-0.10398263,-0.19145447,0.31689236,-0.028858317,-0.55691576,0.07424639,-0.16306986,-0.433429,-0.5236025,-0.100183,0.028651895,0.2183703,-0.5048348,-0.044915207,1.0
Backdoor.Graybird-3d4c37580fcfcd3162538e57ebfd65f89caf379c9158dba626690d2ac7a24154,-0.25827447,-0.0827259,0.4139246,-0.92947674,0.123147584,-0.16822684,-0.6845249,-0.28715813,0.11949654,0.019338377,-0.05361507,0.12761857,-0.7109186,0.03616131,0.24070016,1.0465105,0.09538167,0.073913306,0.42220515,-0.053392764,-0.20383127,0.372079,0.16547824,0.31870303,-0.55918896,0.8486694,-0.26934755,0.50599134,-0.06861153,-0.3331317,0.42411023,-0.48312035,-0.27231175,0.023131168,-0.45100692,-0.70007086,0.20107156,0.016743284,0.021613436,-0.22457439,0.34726867,-0.04108508,-0.09154712,-0.07726415,-0.0015489408,0.13621114,0.0670931,0.10978664,0.01254995,-0.036583666,-0.158977,0.27322432,0.44917953,-0.53688943,-0.09225212,-0.06173554,0.2312814,0.3346651,-0.006603612,0.008879961,0.23871097,0.06486939,-0.038608745,-0.55377024,-0.52171713,0.9720923,-0.14957348,-0.3136797,0.038476113,-0.19419754,-0.09007705,0.23070754,0.022699282,0.39653638,-0.10758465,-0.2807148,0.4847083,0.10064982,-0.17021954,-0.18908787,0.036298074,0.2658106,-0.074890226,-0.22753614,-0.4801774,0.09739729,0.060032092,-0.13477382,-0.045990154,-0.046778638,-0.5312069,0.029738024,-0.54369086,-0.240511,0.042758103,0.21817268,-0.36973497,-0.16336766,-0.6101055,0.068771906,1.0
Backdoor.Graybird-3f40d1874219ac8f6ba08b587a9547da773b0356b58e4d40f584b595740fa7a4,-0.6536523,-0.62984735,-0.7182426,-0.30427733,-0.0770042,-0.04229299,-0.49437425,0.12443508,-0.5656926,0.34246337,0.37683597,-0.0013576072,0.16086495,0.71876967,-0.18232645,-0.25272602,0.17777614,0.16375026,-0.1726301,-0.0020710828,0.2485363,0.2576014,0.596919,0.4804964,-0.2900624,0.61037743,0.074899726,-0.028815232,-0.028105473,-0.3702775,-0.098550454,-0.2837529,-0.6738667,0.2044771,0.32596934,-0.34023157,0.21521035,0.31864014,-0.08400919,-0.09631517,0.6091508,0.20876636,-0.3609237,-0.48837107,0.1499647,0.4007003,-0.3265237,0.29960543,-0.34452772,0.21092016,-0.115794525,0.4838347,-0.12523729,-0.037675384,0.07442269,-0.20893148,0.06196249,0.112523176,0.24994215,-0.31336766,-0.16732489,0.30554652,0.18182196,-0.7636761,0.23153746,0.49164763,0.09057409,0.08722962,-0.95944506,-0.10933405,-0.28721806,0.17828356,0.04047331,-0.17395675,0.32514825,-0.45128238,0.042742908,0.13651367,0.28342128,0.14668393,0.13878731,0.09770383,-0.005035098,-0.16810197,-0.07308753,-0.2090549,0.055871546,-0.44504595,0.32268354,0.09766101,-0.28235665,0.10674643,-0.45109355,-0.31359297,-0.37181896,-0.16124757,0.35104012,0.25182423,-0.7228752,0.30949974,1.0
Backdoor.Graybird-3f4164fb248bf610709ce9546b2e1a2463d08270db94dbd7b8e42d16023a71b0,-0.0893672,-0.750533,-0.49895853,-0.45395714,-0.0122525375,-0.43227807,-0.5823363,-0.054320663,-0.06644545,-0.1834266,0.13222131,-0.111968376,-0.101018704,0.11007436,-0.11850382,0.12521033,0.015645744,0.11940084,-0.08918601,-0.15176056,0.0020322418,0.0078492,0.50587547,0.4100668,-0.43094504,0.5827559,0.15370062,0.060741577,0.053004183,0.010168647,0.07867719,-0.5437481,-0.52396,-0.1761435,0.12800291,-0.48383206,-0.017930545,-0.11340414,0.19291915,0.18075827,0.40743816,0.22944917,-0.26930472,-0.4776182,-0.21443039,0.25725755,-0.15680996,0.4208738,-0.03136613,0.07458376,-0.17789218,0.405113,0.1955299,-0.28058308,-0.23761867,0.04555969,0.33343908,-0.049811717,0.23646273,0.280568,0.063264705,0.15503778,0.06420013,-0.31280598,0.049785156,0.46178162,0.036886144,0.11231627,-0.81747794,-0.0985387,-0.23305696,0.27120703,0.10664935,0.076144,0.24858296,-0.71102226,0.18345907,0.15443327,-0.09449999,0.13618433,0.27937704,0.108999304,0.030466594,-0.13630764,0.25043657,-0.25388116,0.18504904,-0.310569,0.32556865,-0.20492491,-0.31397906,-0.08564537,-0.20535305,-0.23929031,-0.27963424,-0.17870055,0.24109866,-0.13356602,-0.47028965,0.2539188,1.0
Backdoor.Graybird-3fb1f955c5fedc93b423be002cde34a6436194ec36974c890a015566749cbfc9,0.63230044,0.13301846,0.4335208,-1.3181977,-0.32388043,-0.17539832,0.05860742,0.3534677,-0.16109024,0.15440933,-0.8703153,0.28668314,-0.8041738,0.48332426,-0.113511115,-0.037281577,-0.26475504,-0.42493138,0.31674603,0.2637862,0.18578406,-0.05304161,0.63256633,0.8098747,-0.1308791,0.4801581,-0.19262771,0.004115966,-0.07097102,-0.3031585,0.014462561,-0.04918214,-0.59995055,0.118952245,-0.112682246,-0.2644231,0.53562963,0.005086077,-0.17692277,-0.24438241,0.29056498,0.10996506,-0.61343855,-0.51504177,0.013749975,0.39494127,-0.3514872,-0.016635815,-0.07608782,-0.10026967,0.061238173,-0.042929925,-0.28947487,-0.55742013,-0.111206524,-0.28863913,0.29978344,0.18832375,-0.04151388,0.12405981,0.20080794,-0.022179026,0.4637238,0.16034923,-0.24936484,0.77813005,-0.3790136,-0.44375205,-0.7441956,-0.14421427,0.038139213,0.61629766,-0.18586941,-0.313257,0.38341364,-0.19643454,0.061212443,-0.1646851,0.06705382,-0.086800456,-0.0073192096,0.47102594,0.34258026,-0.51970005,-0.25423118,0.14580508,-0.23885627,0.1651476,0.36854422,-0.061893452,-0.37378132,-0.14155869,-0.27677196,-0.18049473,-0.43385202,-0.25147817,0.17788886,0.43105587,-0.1907301,-0.0034019123,1.0
