,0,1,2,3,4,5,6,7,8,9,10,11,12,13,14,15,16,17,18,19,20,21,22,23,24,25,26,27,28,29,30,31,32,33,34,35,36,37,38,39,40,41,42,43,44,45,46,47,48,49,50,51,52,53,54,55,56,57,58,59,60,61,62,63,64,65,66,67,68,69,70,71,72,73,74,75,76,77,78,79,80,81,82,83,84,85,86,87,88,89,90,91,92,93,94,95,96,97,98,99,LABEL
Backdoor.Graybird-009a62c6f6543ec65460d9a3984fac8dd65aba2feacfa00e8e253bb474a417e7,-0.34772402,0.23133022,-0.07830552,-0.22803366,-0.5482129,-0.4221089,-0.019130293,-0.34242722,0.067509264,-0.013355444,-0.14440784,-0.13264078,0.07346177,-0.0040198523,-0.31775802,-0.03012238,0.31105763,0.17381422,0.018032236,-0.69069165,0.74453795,-0.016918914,0.0090327505,-0.028642358,-0.04021957,0.07150302,-0.07921337,-0.06834845,0.3170615,-0.28050977,-0.27320015,0.24350442,-0.1591815,0.12249489,-0.40573975,-0.36831632,-0.7929441,0.26932037,-0.2305405,-0.2709183,-0.23124202,0.574905,0.5955452,-0.2825855,-0.42206132,-0.37401903,-0.005326778,0.042363826,-0.46089745,0.51590633,-0.22550699,0.2993423,0.0039305203,-0.06634299,0.36479282,-0.30691397,-0.09679342,-0.36988178,0.18076676,-0.30484274,-0.07071441,-0.24337944,0.21658733,-0.266723,-0.505796,0.50031936,0.3347225,-0.15239638,-0.09047549,-0.05956103,-0.17768957,0.58397865,-0.3043378,0.11611396,0.26660925,-0.21105045,-0.21600126,-0.29771534,0.035347756,-0.08727338,0.3246569,0.28554595,0.30388474,-0.26724604,0.1805626,-0.010382603,-0.24273013,-0.00034393536,0.35527992,0.3139144,-0.32756072,-0.10544788,0.18792571,0.19044256,0.15153447,0.18502478,0.3257377,-0.033748068,-0.3466822,0.65188867,1.0
Backdoor.Graybird-02842b14fc265c045f10e2c5ab47c0b0a757c41d13a53194deb66aceb2e3993d,0.021960527,0.34522045,0.75491667,-0.19191979,-0.3990799,-0.48449647,0.13602142,0.4199504,-0.36855605,-0.44252056,-0.047642555,0.2278764,0.09334658,-0.60977876,-0.19855765,0.3162386,0.17175166,0.051142104,0.49324867,-0.41469058,0.006117913,-0.21931575,-0.12758628,-0.0900091,-0.55483794,0.18698357,-0.024316559,-0.23344938,0.21763898,-0.02337448,-0.29661024,0.013290114,-0.037681084,0.051473547,-0.33217838,0.0071949996,-0.40706623,0.20377943,-0.09204157,-0.59032583,-0.3924179,-0.15349695,0.41791722,-0.43768883,-0.15235607,0.009595797,-0.41298914,-0.008701481,0.23728347,0.6224246,-0.10418099,0.20778006,-0.036147784,0.0663685,0.12094677,-0.48276785,0.40587047,-0.12757894,0.061263304,0.011602211,0.23175791,-0.33623934,0.43854058,-0.8712067,0.07108764,0.4099905,-0.14204013,0.06597408,-0.17172377,0.12702103,0.3327798,0.19799806,0.08432674,0.009748901,0.074120305,0.20483474,-0.26113537,0.11596994,0.063414656,-0.276993,0.23832962,0.27295226,0.13576736,0.1996027,0.2578422,-0.11445069,-0.41981697,-0.27097848,-0.15432213,0.14553975,-0.053039026,0.05898565,0.3992403,-0.030135848,0.17317142,0.45529163,-0.072133,0.051088493,-0.067603275,0.046698987,1.0
Backdoor.Graybird-03b5962ef8b9c83fe0ed10fc4333a68462865f3a4442346c5f7d004a46555448,-0.048589762,0.111860104,-0.0008897726,0.051725183,-0.4220462,-0.17572404,-0.007404622,0.13041568,-0.07052699,-0.1205166,0.13464773,-0.5573975,0.22221862,0.2469755,0.0641084,0.21579419,-0.16851953,-0.08640134,-0.043996386,-0.16113219,0.24538736,0.22261809,0.2148857,-0.43434095,0.62816685,0.032293264,-0.12398778,-0.021285316,-0.007851372,0.52224433,0.23752792,-0.36578298,0.3615221,-0.15740965,0.20463118,0.17222153,-0.26271752,-0.017751941,0.14191917,-0.22592244,-0.16866973,-0.56864977,-0.23789912,-0.05786069,-0.025184747,0.30810747,0.211585,0.17203063,0.30049834,0.039336093,-0.32505575,-0.11191389,-0.061657086,-0.20298153,-0.10383277,-0.20029832,0.017247085,-0.2754411,0.11507317,0.07225758,0.3229029,-0.12167013,0.5790045,0.08747595,0.35427663,-0.20610443,-0.24041407,-0.00918112,-0.35298815,-0.023373758,-0.3012898,0.10656038,0.20142564,-0.099043936,-0.06982138,-0.5747757,0.03775866,-0.13291304,0.07001568,-0.11794946,-0.00747272,0.110510625,0.07664133,0.38415727,0.108079396,-0.1758256,0.14892887,-0.36011133,0.18702129,0.2220656,0.6928671,-0.35388067,-0.27336514,0.030046612,-0.36666793,0.33225718,0.1372327,-0.053317536,0.29657632,0.40552497,1.0
Backdoor.Graybird-049f53a05707c2cccd67540609368ef20f395327adb9a026267369d568f78c0a,-0.106402054,0.39340776,0.14511453,0.17171985,-0.6933393,-0.059308894,-0.647112,-0.024035726,-0.64205873,0.08798246,0.71686625,0.42201993,0.16770265,-0.3280435,-0.40452376,-0.13276137,0.31018567,0.10425496,0.32936752,-0.056124628,0.705515,-0.03824586,0.42955643,0.43609622,-0.043982822,0.013005116,0.110141635,-0.15372357,-0.25921533,0.026396647,0.5737337,-0.020683542,-0.28769857,0.21131375,-0.3296823,-0.11435019,-0.3337836,0.30367362,-0.23255816,-0.17834485,-0.18263306,0.29829577,-0.024468286,-0.729365,-0.3232296,-0.034671787,-0.10320044,-0.34945953,-0.22792545,-0.15498798,-0.24579239,0.38262415,-0.008987107,-0.28589574,0.10107039,-0.027090684,0.28914738,-0.21910334,-0.09105784,0.12641317,-0.18165603,-0.21141873,-0.23231517,-0.20761144,0.13793567,0.6522531,0.041541014,0.026035856,0.09275159,0.11769954,-0.18711908,-0.011189719,-0.2064938,-0.26168975,0.5782681,-0.14039505,-0.22186598,-0.38413358,0.0015420998,0.08855977,0.3716546,-0.15282963,-0.16381611,-0.4304638,-0.10543927,-0.20125437,-0.14074358,-0.015224032,0.1419608,0.24926603,-0.22749296,0.06690411,0.49401462,-0.31019333,-0.33388242,-0.08611508,0.13222286,-0.12453829,0.022770265,-0.01156394,1.0
Backdoor.Graybird-05339051a960d18fafb2e5d656e36b2fa007462d9a7b2fbfcb4532b3235ac5ed,-0.26936984,-0.03955321,0.32616162,0.21706395,-0.9127501,0.17557961,-0.65779436,-0.3884762,-0.22531062,-0.15820669,-0.060307834,0.11768038,0.60868084,0.2761189,-0.53638095,-0.13122556,0.4221599,-0.031609267,0.14088817,-0.063260846,0.5374612,-0.20761485,0.26883796,-0.18156748,0.2774902,0.032859698,0.23986854,0.32551336,0.24123123,0.1836617,0.23019022,0.20302455,-0.0028541533,-0.06677063,-0.16592127,-0.11499296,-0.34644368,0.16338839,-0.41610143,-0.0924009,-0.27370378,0.15079008,0.18357746,-0.20641126,-0.60764813,0.10680312,0.13692321,-0.33964252,-0.0046321074,-0.13222969,0.10317057,0.37266904,0.06698078,-0.30977017,0.31102303,0.01471785,0.54205054,-0.12611303,-0.1969758,0.062201615,-0.29385215,0.0022006875,0.1283309,0.0005490992,-0.25488305,0.5452029,0.088452905,-0.117028736,0.051636707,-0.167848,-0.47220838,-0.19204754,0.15528224,-0.13900693,0.32499915,0.0037016866,-0.2803806,-0.14096028,0.33806607,0.018417409,0.48623088,-0.43363073,-0.2682508,-0.51852673,-0.3823215,-0.1450574,0.04785313,0.039663,-0.2188328,0.33199632,-0.06964588,0.31000558,0.3114447,0.047702737,-0.36311954,0.10516776,0.440361,-0.44174752,0.14844422,0.095166236,1.0
Backdoor.Graybird-05bb2dcf38927dc99961deedaaff6ff120bdfd383745bac5aeb0c28340ea1010,-0.111966416,0.19272962,0.37711963,0.03158001,-0.59833574,0.05203997,0.018390367,0.06691542,-0.21599342,-0.29469275,0.29222322,0.06296914,-0.0016349754,-0.028323933,-0.242435,0.039846648,0.27666155,-0.47457823,-0.036714286,-0.39993435,0.12067321,-0.11158694,-0.12636057,-0.39445397,-0.3030964,-0.15875123,0.17645521,-0.2391654,0.51625574,-0.10485071,-0.2530854,0.14897257,-0.0114259245,-0.21619664,-0.28265908,0.08412933,0.0797718,-0.1455378,-0.29668692,-0.48674944,-0.09382027,-0.2612349,0.47790188,0.15363573,-0.2417793,0.32357916,0.00956825,-0.1138155,0.054104213,0.36890453,-0.19995137,0.13129994,-0.1798884,0.19159164,0.44512224,-0.4908855,0.3980176,-0.19366859,0.24710865,-0.43809822,0.32527208,-0.16569763,0.34422815,-0.527707,0.08691467,0.77503145,-0.21818773,0.09412667,-0.25743935,0.14762037,-0.001230166,0.024632512,-0.050350893,0.17116612,0.53056705,0.14632596,-0.30720446,-0.12435535,0.035422735,-0.24264681,0.37813178,0.27336082,0.006768541,0.13561179,0.18532355,-0.5950861,0.12394958,0.13008924,-0.0925071,0.0017174142,0.15343744,0.19297922,0.28666177,0.074195184,-0.10646728,0.6695664,-0.2956183,0.30162826,-0.4697615,0.30812523,1.0
Backdoor.Graybird-06ba9a22cbf334f6beeb0bc5302d3f0d6b7ad734c9ed071d6f279936a37f4687,-0.25215808,0.40431222,-0.69173086,0.08893408,-0.6001024,-0.30159172,0.25796813,0.122180715,0.07433843,-0.31773844,0.044604167,-0.15924758,0.28539696,0.30690858,-0.14934371,-0.46411255,0.5018404,0.2863307,-0.23482512,-0.002566321,0.2989619,-0.116029084,-0.02470308,-0.26633894,-0.267365,0.55121255,-0.11906828,-0.0018267117,0.31453508,0.11527449,-0.05540429,0.053790152,0.37565845,0.040017594,-0.17877282,-0.079504855,-0.22267585,0.010744277,0.04652751,-0.6362337,-0.019960847,-0.5047145,0.571933,-0.22867264,-0.4753673,0.17939769,0.33478597,0.33495805,0.2136244,0.3122656,-0.31410024,-0.19415587,0.08894465,-0.42430937,0.11777391,-0.17317508,0.37676957,0.27040327,0.4802044,-0.1267243,0.4083338,-0.2107984,0.4543103,-0.16858438,-0.24155778,0.8582575,0.39311624,0.16064751,0.08668953,-0.3424262,0.08172437,0.18357392,0.28252825,-0.0038286115,0.28365225,0.17611744,-0.3050367,-0.20601963,-0.08381891,-0.09447417,0.37712416,-0.13965622,0.36804616,0.19300269,-0.005693353,-0.5875173,-0.061679065,0.0051123034,-0.13625544,-0.14937145,0.094919115,0.4093869,0.3160156,-0.033326264,-0.15983227,0.043989763,0.118235655,-0.057156824,-0.48115668,-0.010149538,1.0
Backdoor.Graybird-07adf0e72d58706d13117578493d64cc085811d7454fd598a805aa818a445f09,0.050966255,0.21873905,0.5483734,0.31140104,-0.5117075,0.33529243,-0.518286,0.15520939,-0.4276241,-0.19126646,-0.30456978,0.022011768,-0.09418341,-0.031431526,-0.059081063,0.21340838,0.67675036,-0.033374272,0.06786762,-0.29963946,0.10406246,-0.59717596,0.32108137,-0.3635803,0.07349935,-0.37341982,-0.50536615,0.21596663,0.13545443,0.21492727,-0.3168714,0.22317004,0.021903647,-0.12964204,-0.44016457,0.12907952,0.19024785,0.16400899,0.3366951,-0.39354894,-0.24841343,-0.24595274,-0.11221642,-0.08575783,-0.5534342,0.6378238,0.20260523,-0.1452596,0.33102387,0.06982377,-0.12536111,0.13539314,-0.1041544,0.27256292,0.33266482,-0.109039485,0.3820645,-0.06363909,0.07713306,-0.23054847,-0.022420982,-0.14728115,0.2970655,-0.10694899,0.24751465,0.4903508,-0.36686444,0.180981,-0.03608436,0.25988984,-0.16553992,0.13576317,0.030277422,-0.19332077,0.30037516,0.13911451,-0.24366258,0.409861,0.2056647,0.019344289,0.24405143,0.037416164,0.17802641,0.27949739,0.0713118,-0.3269215,0.016806193,0.16530296,0.13362472,0.31898057,-0.044325702,-0.11191653,0.3036029,0.21200944,-0.029792793,-0.06002057,0.15914093,-0.1313457,-0.0130810905,0.41754523,1.0
Backdoor.Graybird-0814e28a9bbff170fb9257df3ad5cf8a27287f7c9001f15ea6a683c05e72095c,-0.11007,0.029044326,0.8674501,0.33863932,-0.59999233,-0.30839628,-0.48612633,-0.41965637,-0.37991533,-0.4947914,-0.30236202,-0.18630014,-0.010642352,-0.44668692,-0.25502977,-0.06859307,0.10886309,0.092443466,0.3401972,-0.34093407,0.23122714,-0.45741963,0.31643188,-0.28256184,-0.3902872,0.14563224,-0.071872115,0.5157888,-0.102468446,-0.5730137,-0.28342324,-0.3064004,-0.2815863,-0.095981345,-0.31048098,-0.5376718,-0.32187742,-0.12384772,-0.0062246416,-0.36537856,-0.18155941,0.09161424,0.613904,-0.48147622,-0.5203999,-0.112170935,-0.026581038,-0.33686104,-0.16147673,0.035029218,0.071208954,-0.01650956,0.0031753355,0.038453966,-0.19040279,-0.095949344,0.6359446,-0.057864796,-0.36199695,0.32249966,-0.016697802,0.020397987,0.026047535,-0.27796996,-0.2729672,0.32422793,-0.26429906,0.03958354,-0.27516857,0.1513731,0.044655114,0.45783982,0.018849289,-0.3844615,-0.025944447,0.34900978,-0.31266448,0.32046843,0.17337964,0.06825119,-0.060028918,0.39545387,-0.03728394,-0.23416264,-0.14158754,-0.018630052,-0.41753536,0.16139348,-0.2190785,-0.08796409,-0.26002297,0.3408096,0.18001658,-0.12138959,0.13333204,0.6179702,-0.21767472,-0.19597702,-0.31675282,0.21317242,1.0
Backdoor.Graybird-08c34b0421ec2fd129554058eb0e19111b167fdeee45c3c51252c4ace128e70e,-0.24282572,0.4517806,0.19532032,-0.41329497,-0.5516087,-0.07248881,-0.44520196,0.3507835,-0.09096806,0.06311424,-0.106913224,0.37325716,0.19404037,-0.10966533,-0.60835123,-0.025572788,0.07728011,-0.124272875,0.30847025,-0.27488437,0.5732139,-0.086029746,0.29912886,0.25327048,0.14738122,-0.20857504,-0.27985606,-0.30203456,0.33273953,-0.09942582,-0.06466048,0.670758,0.17171498,-0.00662649,0.0035969005,-0.18532443,-0.376872,-0.04583307,0.13922791,-0.17172024,-0.54862314,-0.45114642,0.52689505,-0.38790742,-0.020765001,-0.19588788,-0.050234247,0.15697818,0.09644637,-0.14818549,0.26524094,-0.4388748,-0.059894826,0.04125635,-0.09565976,-0.21761613,-0.20240565,-0.12210148,-0.23455228,-0.24234019,0.28445035,-0.29882255,-0.019719686,0.12420359,-0.016894754,0.46642175,0.3359315,-0.12901485,-0.20251714,0.17057832,-0.22220436,0.20540825,-0.1522666,-0.011472921,0.45647138,-0.3711216,0.25252035,-0.51021665,0.0098095415,-0.26247343,0.23105979,-0.17621693,0.023830833,-0.14737684,0.07184557,-0.38548198,0.26908925,-0.17255677,-0.078208596,0.1531117,-0.0659118,0.26751587,0.080453284,-0.7397473,0.11970215,0.5941712,0.48198405,-0.12984505,-0.48654914,0.3967731,1.0
Backdoor.Graybird-08c383b4ffb8ed9df7a17296ae0c1798d7f4b769f188d5eef55c77bb79dcd432,-0.7097809,0.20574225,-0.29820138,-0.13737604,-0.56054,0.27952605,-0.14999813,0.46439588,0.08839122,-0.017816188,-0.028846402,-0.31103152,0.20058101,-0.023721218,-0.48367503,-0.017397625,0.3098131,-0.2258289,0.03372645,-0.2003206,-0.08480508,0.2532406,0.121226564,-0.59949094,0.32984984,-0.06060029,-0.3025722,0.11282744,-0.071445376,-0.122176215,-0.5671139,-0.0709746,0.64920753,0.4320833,-0.3310475,0.18756802,-0.2516847,0.01846964,0.09056473,-0.22394355,-0.17436978,0.10251433,0.26926437,-0.17589015,-0.44614506,-0.00138044,0.09532803,0.1357009,-0.055335164,-0.033160627,0.14822459,-0.11510656,-0.07617486,0.033526722,0.11717749,0.14284499,0.43269306,-0.08600605,0.43042758,-0.1265534,-0.17454876,-0.021624902,-0.043453302,0.57236516,0.20850988,0.33912748,0.519473,0.16971911,-0.356464,-0.0895014,-0.025671951,0.22536218,0.22690614,0.5136027,0.070199184,-0.025575774,-0.114994206,-0.1631994,0.1518409,-0.24535294,0.29605976,-0.1383975,0.61527616,-0.08365488,0.30063426,-0.40085092,-0.18858153,-0.46463075,0.47160366,0.09236868,0.06949891,0.24852341,0.44631663,-0.32910198,-0.19961959,0.07918233,0.5229511,-0.030817969,0.06346583,0.119834244,1.0
Backdoor.Graybird-08cadbda2bd111540dc25897982bc801f681dc16e0eba323973e193712332ef3,-0.056410395,0.44928056,0.36266762,-0.1388617,0.36182284,0.05420693,-0.24177465,-0.07070602,0.37802756,-0.38112977,-0.562901,-0.27430728,-0.38712633,0.08955452,-0.2625894,-0.02649302,0.025475558,0.017355366,0.40740436,0.036506914,-0.024618536,-0.30235645,0.17028274,-0.2733451,-0.3823094,-0.17698394,-0.647878,-0.13774896,0.017050117,-0.4480212,-0.2747448,-0.110567085,0.091009274,-0.03430518,-0.016607735,-0.03632125,0.050083425,0.24081562,-0.15902999,-0.21240714,0.17260505,0.08123774,0.23659933,-0.13955253,0.09590793,0.2539922,0.032551073,0.28368235,-0.08282698,-0.25360677,0.057958778,-0.61418486,0.11127143,-0.015801756,0.1148538,-0.17001362,-0.14130813,-0.0070673977,0.45297426,0.044030376,0.11015207,-0.1272588,0.1921664,-0.1220587,-0.029841844,0.17455323,-0.122153394,0.016789991,-0.4075711,0.25518575,-0.06701348,-0.07997013,-0.00475563,-0.6371253,-0.30285504,-0.30827668,0.16750848,-0.1343974,0.2397406,-0.31813312,-0.15411787,0.21553233,-0.21403557,-0.35854363,0.14940523,-0.38409728,-0.45323804,-0.23523712,0.05473318,0.25705284,0.7531714,-0.24619703,0.07932808,-0.05181751,0.22328994,0.30010638,0.041555617,-0.11616174,-0.39091247,0.2838705,1.0
Backdoor.Graybird-0904d313bde15d4656a630055d025d6a289de46fc2369597deb20d51da0ccd57,-0.056745954,0.32041824,0.27817488,0.37178794,-0.5270981,0.10457696,-0.107646525,-0.067165665,0.36808568,-0.5592813,-0.03673874,-0.71520954,-0.13752541,0.045722656,-0.3148051,0.083978444,0.0014455789,0.08734358,-0.08174856,-0.24285357,0.4469298,0.15970597,0.18325637,-0.050106652,-0.19846483,-0.39005628,-0.09723931,0.5120203,0.26538754,0.4173495,0.40024057,0.29179856,0.23569198,0.021108164,-0.0201099,-0.57272226,-0.72277063,0.051918585,0.32184947,-0.15473491,-0.28517678,-0.21371157,0.118238986,0.14358927,-0.27192304,-0.15450953,0.09745373,-0.24057655,-0.09356846,0.2523685,0.05374028,-0.32246062,-0.080082335,0.113440394,-0.1978853,-0.32133985,-0.19183518,0.006776996,-0.23504867,-0.40715358,0.3122014,-0.2677348,0.5908717,-0.14912847,-0.13977101,0.28488892,-0.5790592,-0.018652057,-0.51594955,0.6018254,-0.39823735,-0.020125704,-0.15208428,-0.5388968,0.49063134,-0.41148332,-0.038582314,-0.32648924,0.34963635,-0.17112507,-0.27392843,0.20496191,0.1367302,-0.47542733,0.25085628,0.14438158,-0.11900154,-0.38139093,0.4364275,0.020734344,0.22493276,-0.04561876,0.18176082,-0.10776817,0.24743153,0.24763839,-0.14765874,-0.0075373715,-0.036342684,0.64548,1.0
Backdoor.Graybird-095879f4cafe44bf45530fa8b6999d7361bdac2f041fc3c4e7afc1d80cbe914b,-0.18249792,-0.35392618,-0.17399032,0.17769979,-0.48653984,0.23704343,-0.76682055,-0.1817891,-0.60505295,-0.02384274,-0.16334064,0.32024089,0.43142983,0.30408213,-0.34355003,-0.13979088,0.66359293,-0.25148022,-0.2041328,-0.23100704,0.4004744,-0.4216687,0.061078455,-0.031351745,0.028183239,0.050514426,0.011290662,0.05378409,0.13605526,-0.3925753,-0.21053427,0.0329861,-0.02746672,-0.12029178,-0.7505821,-0.4011145,-0.46630815,0.13249822,-0.35726258,0.052667342,-0.30892965,0.45690146,0.4152502,-0.17792906,-0.37329823,-0.17864738,-0.04781567,-0.3735827,-0.5855308,0.0734172,0.2667436,0.29840374,0.31959718,-0.104316905,0.2619866,-0.22350267,0.064875945,0.1822381,-0.19497201,0.030401483,-0.21444476,0.189216,0.385086,-0.24329405,-0.42962983,0.3021267,0.44923297,0.19790801,-0.0501248,-0.2529956,-0.25312787,0.22389819,-0.029948631,-0.31709385,0.109842785,-0.32327703,-0.39356163,0.010613451,0.2687559,-0.17507598,0.3322424,0.21333493,-0.4467122,-0.48091805,0.041426882,-0.40509152,-0.04621145,0.19641572,0.046423227,0.40954646,-0.26781142,0.03546257,0.27385747,0.017295629,-0.12959966,0.31902713,0.14702323,-0.30044958,-0.2535172,0.14656581,1.0
Backdoor.Graybird-09a45409e39fb3077d1e7fea751027d152dfa6d9bd30829749ff4ec5caecdfb2,0.33574662,0.18009026,0.056970697,0.09971589,-0.42077723,0.37568143,-0.04050067,0.35688722,-0.07740912,0.27994892,0.09138158,-0.15682624,0.10610134,0.031055018,-0.121264964,-0.22274502,-0.03557093,-0.22480933,0.034431472,0.09341993,0.17356053,-0.13119996,-0.10361998,-0.3301109,0.5058815,0.3615734,0.1709804,-0.065055594,0.053166907,-0.39233783,-0.3337373,-0.04189176,0.5087419,0.32176465,-0.07034738,-0.10077334,-0.37047493,0.028307239,0.09727067,0.37134507,-0.29164857,0.14415833,0.10842613,-0.40258253,-0.49771452,-0.18054794,-0.28582323,-0.099175505,0.17207463,0.05702233,-0.12584592,-0.15913971,0.039091326,-0.23722441,0.056154378,0.13965915,0.24733055,-0.093988664,0.09926599,-0.2655978,-0.38425273,0.18094952,0.17239594,0.43377766,0.22918993,0.32486224,0.2431006,-0.006254138,-0.29543635,-0.12593724,-0.07905146,0.39386126,-0.07591541,0.027448349,0.040539872,-0.03282221,-0.3418053,-0.39823893,0.109203875,-0.24859035,0.23539403,-0.23068757,0.36379066,-0.14713365,0.08202913,-0.5405122,-0.16041724,-0.113922454,0.3676684,0.34007794,-0.24075276,0.27574402,0.4888185,-0.6025105,-0.016867965,-0.055224128,0.35759294,-0.35073882,0.044457957,-0.05047284,1.0
Backdoor.Graybird-0a1311fceceea990bf446f7afa4fedcc6b7f8780afd4a6c87a31949818f87cea,-0.15297113,-0.1174993,-0.22414185,0.24123067,0.11538579,0.35049096,-0.20117654,-0.18161885,0.06401414,-0.3035252,-0.28238064,-0.450916,0.09842282,0.20532566,-0.019615518,-0.021434197,-0.10824154,-0.22039798,-0.06558963,0.31412476,0.07913131,-0.18778002,-0.025876649,-0.26476222,-0.35623693,0.13968326,-0.18147619,0.015830941,-0.13017237,0.29258075,-0.09415463,-0.1233392,0.33499634,0.1495651,-0.087589756,0.108415395,-0.0036746971,0.03454124,-0.09900958,0.03673242,0.07848144,-0.13478115,-0.016828598,0.07893749,-0.02440074,-0.08220007,-0.0046149488,0.18259443,-0.090303995,-0.13571931,-0.38701472,-0.13219246,0.18680422,0.14031976,0.23074268,-0.620145,-0.1622069,-0.030023927,0.55163246,-0.04719567,0.2882926,-0.0825804,0.46338668,-0.23547336,0.5588432,-0.062454157,0.2338656,-0.09168531,-0.15207286,-0.22148569,0.0073506664,0.1174859,0.018866021,-0.09630729,-0.23707056,-0.2157203,-0.17688882,-0.01713206,-0.19950138,-0.2791857,-0.056664083,0.4033234,0.19849831,0.20986365,0.057407968,-0.36363858,0.13688394,-0.23441187,0.18769829,0.25185102,0.6954473,0.01579715,-0.07328318,-0.5343136,0.009816924,0.5401358,-0.24994841,0.11071933,-0.021294631,0.2723303,1.0
Backdoor.Graybird-0ded1dc774b46d985a4e90a46f5d56a0047630d7a6e8df439870f7bb40b57a14,-0.028109914,0.13980679,-0.28976825,-0.346397,-0.41130736,-0.4642543,0.13002644,-0.06646081,-0.3196805,-0.09490585,-0.017995678,0.09591843,0.11542469,-0.28551063,-0.104697935,-0.3991665,0.37811375,0.23490196,-0.2606297,-0.06919695,0.3860369,0.24947591,0.04196158,-0.3004399,-0.17011757,0.30832347,-0.2285982,0.39211562,0.48921028,-0.16577873,-0.07185488,0.09026959,0.34196594,0.028951507,0.016668707,-0.03365129,-0.3340379,-0.26299363,0.009518356,-0.5478179,0.08926876,-0.28275433,0.24997748,-0.018753855,-0.5680751,0.104937755,0.18387403,0.4396531,-0.13800193,-0.018955875,-0.14645885,-0.17222075,-0.09184468,-0.2438985,0.04093501,0.08906552,-0.18700661,0.16652584,0.28763038,0.0019443388,0.23319341,-0.19867869,0.3799061,0.03868047,-0.17065921,0.4603302,0.26549387,0.22235093,-0.3674773,0.18271129,-0.11677546,0.36811283,0.102334805,-0.018234828,0.49596894,0.08916556,-0.18871108,-0.27607065,-0.037697192,-0.12247018,0.0466744,-0.014559776,0.62501055,0.3331751,0.19147979,-0.18169741,-0.27342522,-0.3230639,0.26294518,0.014409404,0.11134381,0.18534836,0.24313244,-0.12374328,0.07724014,-0.17507301,-0.1283138,-0.14927715,-0.23900613,0.35665956,1.0
Backdoor.Graybird-0e4b24dfaad406b918efb40923889150f139511f43c56e34deac187d950ce03f,0.11564767,-0.024071526,0.4959372,0.45284092,-0.42093444,-0.32686266,-0.29679206,-0.31031546,-0.38687268,0.008438258,-0.19333127,0.08126672,0.4973648,-0.3198192,-0.62638986,0.035544205,0.11172351,0.21697077,0.37633622,-0.39992517,0.07140185,-0.66596127,-0.0011688641,-0.46532544,-0.36633292,0.3601317,0.08845153,0.0859749,-0.12997991,-0.2134759,-0.34837767,-0.44346413,-0.08554464,0.00110298,-0.31250376,-0.6861786,-0.06431566,0.096854016,0.019371446,0.06328355,-0.2499739,0.3907499,0.25102776,-0.6988489,-0.33339486,-0.19621116,-0.012415023,-0.23514917,-0.06621882,-0.1789462,0.10325719,0.099519014,0.044456888,-0.07389589,-0.13054393,0.10159599,0.74629617,0.060835116,-0.10803537,0.020061545,0.20002031,-0.11455359,0.10370676,-0.3331818,-0.18512434,0.28606588,-0.29447204,0.05368302,-0.42300364,-0.38073462,0.14541861,0.1954912,-0.00060041837,0.0015442572,0.14690708,-0.029180426,-0.2945933,0.081340484,0.13010314,0.061865974,0.36345747,-0.028132398,-0.261378,-0.2172719,-0.10622577,-0.054413434,0.007964115,0.03424652,-0.2701056,0.052598145,-0.27938074,0.4041419,0.12097382,-0.21006025,0.15519424,0.4921966,-0.077690214,-0.11641409,-0.2921653,0.2617472,1.0
Backdoor.Graybird-0e9e218c49e56ec187e145db72a72726d50ae295f08b4bf344f19e13de603ba2,-0.31885847,0.0951339,0.23765613,0.17429532,-0.37264976,0.23810652,-0.04858383,0.041610427,-0.5689736,-0.598308,0.1747517,-0.04778304,-0.023829833,0.025876692,-0.34518272,-0.046641007,0.3850015,-0.4522828,0.09455717,-0.20407821,0.11678268,0.105813265,-0.46152318,-0.47185603,-0.3958486,0.0029074908,0.089445986,-0.17764819,0.2985161,-0.03391134,-0.31876704,0.12920687,0.21795835,0.051958002,-0.3497915,-0.12408981,-0.19065829,-0.16873237,-0.15299702,-0.53559196,-0.18775634,-0.06136165,0.66174245,0.20602524,-0.1083461,-0.07410428,-0.11409882,-0.21248524,-0.036104314,0.547156,-0.06814453,0.11041934,-0.047480825,0.5344761,0.4357018,-0.84125745,0.10287577,-0.3301233,0.13284123,-0.31423426,0.3338554,-0.12651363,0.19887772,-0.58628255,0.11335119,0.43461242,0.071567655,-0.2081148,-0.3252955,0.105367206,0.15353528,0.17996436,0.113247015,0.059088457,0.33473742,0.20026526,-0.47157598,0.020331508,-0.03578547,-0.34016573,-0.016557539,0.63504165,0.014657907,0.019022308,0.40013352,-0.42700374,-0.0094237225,0.094223,-0.2049631,-0.32310146,-0.03810111,0.21068434,0.57076406,-0.17043483,-0.15890178,0.7480755,-0.39873204,0.2698229,-0.16809624,0.2192537,1.0
Backdoor.Graybird-0eec1cf54f4696068a4411a96e8deb728f734fac856440cb5175b1204d1dd137,0.19342156,-0.22584647,0.5878821,-0.2127023,-0.26983407,0.10892283,-0.26622495,-0.16246614,-0.31453502,-0.06077023,-0.19677901,-0.018439217,-0.023353495,-0.16648906,-0.12123575,-0.24455316,0.87336105,0.22163466,0.1665125,-0.58606285,0.45662525,-0.20347135,0.36131486,-0.29906133,0.09728453,-0.2396204,0.3286353,0.062455818,0.18839385,0.04785965,-0.11479522,-0.017064331,0.23244117,-0.19534247,-0.14580989,-0.105227455,-0.10024669,-0.04687204,0.024397803,-0.06267388,-0.5832317,0.12824364,0.3464116,-0.0014139337,-0.53694767,0.30792883,0.0962655,0.004086827,0.01955214,0.07254577,-0.06836254,0.12929328,0.17812437,-0.23841858,0.3307094,-0.012290619,0.14123116,0.14146855,0.24182898,0.026036553,-0.18913767,-0.07238126,0.34768918,-0.27103302,-0.09827775,0.63828135,-0.18359286,0.11279944,-0.3053265,0.2886792,0.3275343,0.031915262,0.15364134,0.012637822,0.43133223,0.14330065,-0.17686972,0.117481105,0.37620378,-0.28973424,0.32450405,0.17747265,0.2755753,0.073356345,-0.07353248,-0.6013135,-0.48917392,0.004085952,0.010409023,0.40289676,-0.027683293,-0.21970177,0.5749448,-0.18111934,0.21689044,0.23805317,0.22139849,-0.21999162,-0.4101553,0.2512691,1.0
Backdoor.Graybird-10672ba06f9cceb9fb651a6338f13de953b8a97d9d5164acd08456fb7a974b69,0.30886924,0.8704655,0.16003296,-0.23521213,-0.9124873,0.13907231,-0.187633,0.107616015,-0.24412477,-0.046479255,-0.037728887,-0.46892998,0.019749938,-0.2772133,-0.40015194,-0.024101192,0.36469057,0.14241196,0.11566677,-0.399055,0.06783134,-0.2200048,0.16396469,-0.16221508,-0.23530214,0.10534356,-0.24087682,-0.06810271,-0.21401598,0.19079773,0.008616076,0.010708047,0.30029878,0.15669514,0.054409813,-0.07204395,-0.4074784,0.22956139,-0.12298854,0.07856278,-0.61554384,0.21491773,0.29837397,0.22224936,-0.13101229,-0.08705035,-0.16998215,-0.022689257,0.25407544,0.18258105,0.33908647,0.31493506,0.09099608,-0.27139354,0.019688163,0.076560795,0.3843894,0.011634602,-0.023723617,0.06228558,-0.327524,0.17575057,0.25316453,0.0072785504,-0.23843984,0.034073215,0.1836069,0.3232735,-0.17032087,0.3560039,-0.35729292,-0.09657978,0.15974993,0.32458842,0.24369402,0.1655281,0.09284472,-0.094796434,0.35832635,-0.07437367,0.41206872,-0.4766755,0.08454737,-0.5718735,0.046149753,-0.5630533,0.37863904,-0.10336798,0.26038206,0.21323822,0.18558411,-0.057290338,0.13091028,-0.72864217,-0.025219327,0.235854,-0.012897986,0.155604,-0.33541358,0.09143654,1.0
Backdoor.Graybird-1078ebc75c7612450f362dc2e480699e1e6f21473898effad033a32e4e47d5ed,0.14530554,0.22236305,0.3970641,0.23692639,-0.60560954,0.3738686,-0.18455045,0.5527417,0.16291912,0.029161263,-0.0723835,-0.25132796,0.21197517,0.23269334,-0.37552908,0.059456125,0.09237568,-0.24142534,-0.1684244,-0.07274975,0.05044777,-0.17402022,0.117528334,-0.24369901,0.7169878,0.43683678,-0.03918611,0.028974185,-0.19861303,-0.2522015,-0.22635867,0.051327698,0.47590113,0.18258591,-0.20339166,0.08279864,-0.27348742,0.20872359,0.16057013,0.1846727,-0.095800504,0.21040732,0.22332549,-0.26678184,-0.6336125,-0.016549526,-0.113590136,0.06325794,0.18390423,-0.027644524,-0.11351819,-0.006911786,0.21036807,-0.22959578,0.050704673,-0.03843381,0.2973736,0.022941828,-0.018416286,-0.3242547,-0.28995916,0.20699582,0.08523828,0.43836042,0.48311102,0.40192282,0.14597653,0.016136069,-0.25709623,-0.14290297,-0.28399128,0.6931923,0.050419215,0.2713118,-0.010109152,-0.3302117,-0.1629792,-0.28242865,0.14462613,-0.16358353,0.33995003,-0.07810525,0.3464039,-0.13361816,0.19992201,-0.30818227,0.24065512,-0.26866513,0.518432,0.094999984,-0.13185795,0.1404025,0.06746492,-0.5070415,-0.14447252,-0.07429975,-0.17861952,-0.28296956,0.16059229,0.055097066,1.0
Backdoor.Graybird-1203e135f7e763fee8490a3e11c091a2a7617dc3e486d2bbe6ac81a32bc931be,-0.054993685,0.37503034,0.1940522,-0.031621408,-0.05358063,-0.26047534,-0.759004,0.3207198,-0.040858667,0.03409072,0.3987944,-0.10342091,0.44473362,-0.37074262,-0.9049518,-0.09406615,0.26819947,-0.6698623,0.0700982,-0.24527605,0.099418305,-0.29475102,0.17520444,-0.52386796,0.8504413,0.48827603,-0.18032984,-0.21039674,0.25055808,-0.14792186,-0.052363742,0.13072833,0.019444002,-0.3950043,-0.27087253,-0.4160711,-0.14534459,-0.07309421,-0.07331495,-0.18748862,-0.2225036,0.19107895,0.037353016,-0.23465593,-0.53821343,0.38517702,0.0066394582,0.2526822,0.41906798,-0.09842026,0.28029954,0.06353509,0.20764208,0.15870789,0.4621238,-0.26554114,0.3207587,0.0016599187,0.37785196,-0.22614767,-0.13729191,0.24095692,-0.012427944,-0.21589483,0.07827201,-0.095440775,0.05844012,0.43182257,-0.23549828,-0.056632243,0.1280937,0.54419535,0.002675516,-0.017613439,0.40389165,-0.13759238,0.018905453,-0.2995097,0.036045343,-0.20297502,0.6633066,-0.19590697,0.039284904,-0.24144621,0.054319102,-0.7186997,-0.09323805,-0.07454312,0.058147173,-0.13274664,-0.43454295,0.32827356,0.110713944,-0.24748977,-0.24825276,0.27800888,0.005393276,-0.181269,-0.44120687,0.046888564,1.0
Backdoor.Graybird-12efad6f7e8313a41ffc7a49cdd612243712922f8d7947141e366574279077b3,-0.6702461,-0.029221505,-0.11947419,-0.061760064,-0.4645612,0.3790782,-0.13621019,0.2750221,-0.017391944,-0.012814204,0.053038754,-0.28913584,0.33255246,0.00030177349,-0.4965654,0.03622413,0.2952511,-0.23863384,-0.09434359,-0.19201252,0.017868627,0.15331411,0.23353964,-0.84076434,0.31988204,0.08396529,-0.20973085,0.21201241,-0.28693414,-0.11270949,-0.50217324,-0.26366246,0.5624229,0.39243105,-0.3038891,0.2846617,-0.42032441,0.20424017,0.205897,0.10780385,-0.10693126,0.17263024,0.18943357,-0.00826174,-0.5001273,-0.10345109,-0.040541492,-0.05737765,-0.062323954,-0.042684432,0.044125814,0.07218498,0.14731297,0.0040897774,0.48631942,-0.059972424,0.48345,-0.09529821,0.44050553,-0.17863198,-0.38244808,0.11767366,0.19755577,0.3456043,0.4391503,0.04975933,0.42199576,0.08040192,-0.19436607,-0.17449422,-0.03870042,0.27587524,0.15612169,0.40319622,0.06293699,0.13117336,-0.27011904,-0.11240475,0.32200417,-0.25963262,0.42023516,-0.085251026,0.4450514,-0.1743308,0.21616828,-0.40774575,-0.35456237,-0.48525712,0.42176226,0.2510665,-0.15468,0.2234228,0.5130106,-0.46644092,-0.3098549,0.3239718,0.29937232,-0.10831858,-0.022583596,0.07363733,1.0
Backdoor.Graybird-12f4f6331583edc2599a31940233f76e950dee226f92573abf7ad0bad10cb2c7,-0.29308432,-0.017938877,0.19520791,0.12110778,-0.07423958,-0.26057416,-0.56576127,-0.18091118,-0.022365745,0.18165565,0.3763884,0.22832385,0.09275226,-0.2456946,-0.65513444,0.12117653,-0.15707634,-0.7128824,0.184591,0.011524839,-0.02081026,-0.3436991,0.3907177,-0.20349918,0.7280996,0.057212487,-0.2062417,-0.22832033,0.266685,-0.20427217,0.08586326,0.40758717,-0.24209611,-0.39543846,-0.3248662,-0.24519864,-0.05376337,-0.38200608,-0.39814815,-0.26160982,-0.19943461,0.27295548,0.10842558,-0.50128883,-0.79138786,-0.051075332,-0.25938576,-0.024332661,-0.1860826,-0.009604301,0.19956659,0.21869658,0.41466907,0.1196756,0.21341038,-0.6739681,0.5564303,0.079384044,0.070228696,-0.3392892,-0.04262763,0.08187794,0.18522121,-0.044853054,0.21502772,-0.17519805,0.111278765,0.38515478,-0.17416738,-0.36726964,0.25406104,0.85570383,-0.20318712,0.11374286,0.6762675,-0.3785498,-0.224002,-0.49866793,0.14163697,-0.26611426,0.6722402,-0.057313625,0.27773672,0.02247089,0.017802501,-0.59115154,-0.43445003,-0.37676784,0.3342362,0.15565132,-0.3424961,0.35178766,-0.03874089,-0.56723833,-0.28731036,0.2832675,-0.12517619,-0.19911772,-0.47025084,0.23814763,1.0
Backdoor.Graybird-143c25c7cc08038a40638df3cd01232232baed4a9469f356efc615b5041c794a,-0.21937239,-0.22563578,0.45139784,-0.3231626,-0.17498937,-0.14770928,-0.18630178,-0.006892252,-0.8294509,-0.017099114,-0.07654614,0.33319876,-0.32827163,-0.15502787,-0.17325772,-0.28792903,0.22039519,-0.22616829,0.18719111,-0.3549536,0.31301513,-0.52966416,-0.009151996,-0.35511124,0.33079875,0.07955711,-0.1901298,-0.11322769,0.3366706,-0.26071385,-0.7231935,0.117359795,-0.37287897,-0.20584686,-0.23003533,0.18928944,-0.19092168,0.15436764,0.14506853,0.0053779697,-0.26456708,-0.028546512,0.05084555,-0.3545021,-0.2266068,0.37870124,-0.1171669,-0.16001244,0.19783723,0.08145095,-0.34279025,-0.006435515,-0.10214865,0.14122294,0.5706748,-0.006257438,0.2907177,0.2878453,0.19740038,-0.56107086,-0.008539878,-0.14592256,0.35659012,-0.14334747,0.31172752,0.5273347,-0.085009344,0.29564986,-0.014411245,-0.51759475,0.0698028,0.61448646,-0.14348938,-0.09533973,0.334872,-0.07314602,-0.42273766,0.20752044,-0.07351957,0.098416746,0.1723786,0.04415238,0.05151659,0.19251679,-0.07393815,-0.49881414,-0.5316988,-0.052560903,-0.120630175,0.24727564,0.08530282,-0.018593367,0.28980032,-0.053965643,-0.04908351,0.17232901,0.19752336,0.1390315,-0.112343565,0.40594637,1.0
Backdoor.Graybird-14818f4633cc87ac1b11b53895daa6cbc595065596c7ea86f807fb1a1ad79b72,-0.26551634,-0.012749461,0.10460084,-0.064620435,-0.63591295,0.1532461,-0.08971821,-0.04618577,-0.18378042,0.1348686,0.3467067,0.22006817,0.16935475,0.30001283,-0.1857694,-0.06400511,0.2652326,-0.1590018,-0.2729043,0.15992686,0.20092453,0.050542545,-0.39541882,-0.032520387,0.019294256,0.21827021,0.28667766,-0.17194408,0.023559915,0.06580549,-0.34887245,0.0651023,0.91681415,0.19801366,-0.5875886,0.20552169,-0.5487179,-0.010198562,0.26404542,-0.26511574,0.0873708,-0.08590825,0.358608,-0.038601074,-0.42596954,-0.21720715,-0.020027265,0.2827903,0.031350534,0.23257962,-0.33312476,-0.16366749,-0.024533397,-0.020772982,-0.041229554,0.033452526,0.3597927,0.1316931,0.2793058,-0.11459745,-0.005636221,0.10629401,0.04356811,-0.15656655,-0.30057043,0.2486572,0.41163617,-0.05543145,-0.29325184,0.007700042,-0.18053593,0.19452187,0.045814693,-0.010890575,0.32897508,0.19751547,-0.08334226,-0.119543806,0.017951783,-0.3106364,-0.011586605,0.19754069,0.42112288,-0.048657514,-0.013034003,-0.3599963,0.05641682,0.017378682,0.29050556,-0.08648282,-0.038972896,0.07709322,0.29043534,-0.65336806,-0.0052147764,0.055282243,0.0745098,0.053236302,-0.18735407,-0.09841533,1.0
Backdoor.Graybird-152a87566246d7b100a299d29e34ce080c52e714e0c2883b904d85c1144de18d,-0.43289503,-0.13436727,0.33075973,0.24992338,-0.1556496,0.36471203,-0.5472639,-0.0180674,0.013364865,-0.19015373,0.56768465,0.2824247,0.1988694,0.0003560428,0.32037967,-0.21306571,-0.3445676,-0.37983957,-0.24282315,0.055429377,-0.07340728,-0.15636773,0.082248256,-0.7428011,-0.020662157,0.14262596,-0.057144195,-0.048267994,-0.0009562841,0.14257054,-0.10150318,0.61592954,0.51466745,-0.25880247,-0.5902682,-0.16923156,-0.3390455,0.124864265,0.15910321,-0.2225969,0.23679243,-0.23824592,0.21844536,-0.15170904,-0.566866,-0.034876358,-0.11845323,0.44486532,0.0874352,0.13290414,-0.24679433,0.003946785,0.1753523,0.07185639,0.48256183,0.073293656,0.7089655,-0.39174283,0.058135565,-0.077325836,0.124996,-0.43007836,-0.090074115,0.35947558,-0.21099715,0.3534439,0.18470931,-0.15138349,-0.4128486,0.1373816,-0.14444552,-0.081998944,0.14512661,-0.31438592,0.41399094,0.18986136,-0.47215077,-0.36599296,0.20951296,-0.23384005,0.354938,0.03957491,0.088332705,-0.26486447,0.42055815,-0.75648195,-0.1293825,-0.12857547,0.5364993,0.09095206,-0.08130234,0.049345914,0.3027081,-0.10374081,-0.1975263,0.30901957,-0.026153903,0.14628327,-0.42281556,-0.29439676,1.0
Backdoor.Graybird-16274674297d97fdb7c53027a4e6facd681428961e31bc85dfff497056b071a4,-0.06382427,-0.1072263,0.40399757,-0.1353154,-0.30613026,0.10834594,-0.39247608,-0.11576532,-0.35695493,-0.14597642,-0.21120347,-0.11497914,-0.19869627,0.06569306,0.26446167,-0.24748571,0.31634465,-0.032470573,-0.035851367,-0.33145222,0.5531542,-0.4687188,-0.042652387,-0.5712345,-0.0010398031,-0.03967266,-0.30809236,-0.20652652,0.4679758,0.050430275,-0.40763757,0.43454042,-0.10114514,0.02765553,-0.27707586,0.033991877,-0.22322643,0.21711391,0.2312733,0.05929034,-0.27025062,0.0046569156,-0.039274827,-0.2905811,-0.20760326,0.26856786,-0.09350413,0.20932701,0.045551237,0.2170278,0.12719123,0.096707635,0.34451213,0.11170749,0.6251927,-0.54565495,0.19425367,0.20907487,0.3704542,-0.36149138,-0.076369464,-0.29177213,0.23618177,-0.054075178,0.12856999,0.53499407,0.18849386,0.06380133,-0.05561691,-0.045401815,0.25330278,0.19897081,0.1122884,0.07088392,0.4579906,0.03774535,-0.38677362,0.2260113,0.23928265,-0.3659431,0.16063553,0.40235496,0.26688796,-0.03906605,0.0038877402,-0.5806846,-0.46948203,-0.06177281,0.18376568,0.35131156,-0.03845615,-0.19275266,0.15161858,-0.0901895,-0.08566479,0.29521582,0.025448147,-0.2353038,-0.27753657,0.43803495,1.0
Backdoor.Graybird-16648fd7040db9b96d76e5f70711e8c62721035832f7b87594d62b0dd9b865ea,-0.3743743,0.24108382,-0.012490505,0.05569377,-0.56740844,0.10148123,-0.19180432,0.12706243,0.35002562,-0.06647147,-0.22857425,-0.72638,-0.18208115,-0.19705868,-0.29207435,0.036333106,0.4449657,-0.5146319,0.011641127,-0.15244344,-0.122933604,-0.21413623,0.18104945,-0.4598447,-0.14884788,0.10122231,-0.16451432,-0.07493697,0.40158507,-0.010440651,-0.40208513,0.000511813,0.66802233,0.27083525,0.015429759,0.15832604,-0.37066612,0.12937155,-0.06829342,0.12273857,-0.28745556,0.24671234,0.09603647,-0.3275298,0.017091207,-0.01676882,-0.21140112,-0.040517554,-0.16549201,0.1609119,0.5531427,-0.088513315,-0.00574557,-0.053776264,0.115721755,-0.13562292,0.53040034,0.19094932,0.40284935,0.20726407,-0.24346767,0.07846932,-0.062626116,0.081936754,-0.391495,0.42874333,0.5539992,0.48715094,-0.073443264,0.15051891,-0.11494278,-0.1960424,-0.009469834,0.5504575,0.08964591,0.42217043,-0.053781155,-0.52464443,0.019631319,-0.10986857,0.35412893,-0.33773595,0.08746408,-0.37201715,-0.25799972,-0.3281727,-0.06935777,-0.16728438,0.03368286,0.46573704,0.31664371,0.07273438,0.37784326,-0.650848,-0.31506467,0.13764225,0.115779296,-0.041370735,-0.044308357,-0.04358663,1.0
Backdoor.Graybird-16ce6a8444870c762676cc776860c1ff7daa2a2dc76abd29136a36d6538bba8a,-0.3665399,0.79626244,-0.01194893,0.034324065,-0.62525946,-0.2426134,-0.3101514,0.70265245,0.10240951,-0.11537647,-0.12770434,0.19579259,0.31243363,-0.047620784,-0.83383787,0.19119243,0.13831678,-0.3267912,0.05181879,-0.06312144,0.45128995,-0.1472917,0.56629,0.14911766,0.16114889,0.2685574,-0.19265708,-0.13472824,0.2835801,-0.11792385,0.27002645,0.57863504,-0.05625849,-0.09112355,-0.046141732,-0.022256825,-0.2921874,0.05255542,-0.19545381,0.10653131,-0.37855324,0.06329238,0.111214235,-0.37450975,-0.3165567,-0.10784571,-0.3361303,0.020937124,-0.067890406,-0.037665036,0.15145802,0.10802739,0.092771314,0.06793926,0.25795925,-0.6703276,-0.07259797,-0.3690417,0.048673764,-0.59713113,0.24969964,-0.48603973,0.27238855,0.33818057,0.3281258,0.2604782,0.32551026,0.10028428,-0.2377822,-0.27610618,0.12361901,0.5777105,-0.040143285,0.09277055,0.36823165,-0.40884376,-0.27860713,-0.6606301,-0.08867463,-0.087418035,0.35986003,-0.24327974,-0.03279657,-0.0061480906,0.38329113,-0.4057574,-0.18628505,-0.3074866,-0.092374325,0.11917499,0.09090742,0.20324223,0.2184261,-0.43670183,0.04622953,0.46784133,-0.27016172,-0.14745426,-0.034900546,0.27615052,1.0
Backdoor.Graybird-16dc33ad95a90a03f9489182cf6061392a79cbaf96cceb87bd3c6c664daff4a3,-0.14557707,0.16435455,0.49937627,0.31422213,0.109144844,0.30720016,-0.13375089,0.10925848,-0.29916477,-0.5679219,-0.008890953,-0.4434132,0.122825906,-0.44845277,-0.41568574,-0.33203268,0.55165863,-0.01948102,0.29497918,-0.29592168,0.38684267,0.06631948,0.039034635,-0.57502455,-0.17152148,0.4191403,0.082591735,0.124597415,-0.26264715,-0.18035619,-0.091265686,-0.27843404,0.20638919,0.14348498,-0.30822933,-0.1587526,-0.13718654,0.18592556,0.046649802,-0.5423871,-0.17353551,0.28798452,0.50248396,-0.2866743,-0.37838602,-0.059363574,0.11209181,-0.23524342,-0.13120171,0.25483748,-0.13711354,0.011311018,0.12442778,0.035580315,0.40595213,-0.15300952,0.47318482,-0.5569195,0.07756245,0.44561762,-0.55573946,-0.27879643,0.074439116,-0.39348438,0.094363354,0.2959284,0.17675059,0.31272405,0.13099793,0.22322246,0.19847643,0.04979451,0.03415997,-0.15562119,0.030562889,0.32401556,-0.34413612,0.13079663,0.2913144,0.080642976,-0.045747217,-0.06757627,0.37848517,-0.004163287,-0.028806841,-0.35688066,-0.30841774,0.21740872,0.092415124,-0.040994667,0.043894667,0.10262969,0.6973992,-0.335476,-0.25923786,-0.0025328386,-0.2562432,-0.3014115,-0.120194525,-0.38069987,1.0
Backdoor.Graybird-16dc7da8aef050616f3d99fd34b3f0410ce6a38f5a61c9ebc8e86e87195c4be3,-0.26445112,0.00021128645,0.19158536,-0.3156398,-0.34832138,-0.30357054,-0.057844866,-0.1575605,-0.005104657,0.08401437,-0.26898733,-0.28564882,-0.09051428,-0.07219868,-0.10923609,-0.42784232,0.22675703,-0.30662435,0.25883526,-0.3232413,0.06296586,-0.40897813,0.25181657,-0.6571304,-0.14801508,0.44022578,-0.11502549,-0.0066840947,0.23615451,-0.24713269,-0.13379747,0.090540305,0.40569496,-0.13120613,0.24342255,0.34082353,-0.3886029,0.01772077,0.13311346,-0.010816872,-0.18816037,0.19172332,0.09630949,-0.43265355,-0.34336853,-0.21979532,-0.08147872,-0.18256956,-0.01645215,-0.23918127,0.00927252,-0.051296864,0.0955154,-0.20646079,0.030548124,-0.03764844,0.315299,0.1574623,0.23863223,0.22093621,-0.18196876,-0.09577785,-0.012273216,0.1685722,-0.11098859,0.48534307,0.13727754,0.4200649,-0.023158507,-0.1458895,-0.0062532146,0.32406875,-0.009273937,-0.18119662,0.1067284,0.09805226,-0.30909187,-0.1923161,0.41418976,-0.11036344,0.22688086,-0.20572257,-0.072276525,-0.05685016,-0.22748552,0.25143248,-0.5003409,-0.17703523,0.15387759,-0.07068413,0.11057952,0.06129961,-0.062024776,-0.38799873,0.07954095,0.18367247,0.14350282,-0.5654906,-0.14178401,-0.1341623,1.0
Backdoor.Graybird-1966b6b19ef74c24f458b6477ccb7e8c8427df6d65ea4dc5e0bffb811fbba2d7,-0.41622338,-0.05385009,-0.05357551,-0.18832095,-0.26614133,0.41598707,-0.17132954,-0.20570792,-0.22492394,0.058059625,-0.08485474,-0.00846992,0.07622806,-0.22651044,-0.27068016,-0.034676973,0.49277544,-0.074218415,0.22132798,-0.3957649,0.1368298,-0.22579642,-0.047700293,0.053655062,-0.3343258,-0.2254598,-0.10570605,-0.2686732,0.25262585,-0.11415975,-0.18170667,0.32679278,0.30152404,0.10698089,-0.17534004,-0.09135556,-0.6903218,0.37290552,-0.3473274,0.12960885,-0.5097858,0.71951455,0.4985369,-0.5342766,-0.24852675,-0.30465037,0.06352222,-0.04818923,-0.15491197,0.2907542,-0.012524729,0.2285776,0.15504543,-0.11819905,0.02622008,-0.16788182,-0.056091942,-0.09161364,0.16563536,0.36509144,-0.3210727,0.11342555,0.31383997,-0.42566538,-0.37768456,0.5492078,0.45739025,-0.1849631,0.23886313,0.27945152,-0.25529978,-0.036154997,-0.090186626,0.03092505,0.33107343,-0.014338859,-0.2067741,-0.010033829,0.06330165,-0.3352886,0.29651245,0.13155045,0.36176988,-0.22215109,-0.0037466409,-0.18836376,0.053445593,0.025473947,0.31363195,0.63511276,-0.20594735,0.06461048,0.44430542,-0.12975188,0.24200606,0.123391666,0.42160898,-0.12338709,-0.1315642,0.2229807,1.0
Backdoor.Graybird-1c7dfb9affef8bef118a41d36e3e8c413f3076918a8821efeb3721af52ee5c52,-0.13717268,0.33991274,0.391771,-0.5128514,-0.5477015,-0.14647996,-0.16864367,-0.11259678,0.03234894,0.19592816,0.27899325,0.2786391,0.04719435,-0.5507972,-0.14714886,-0.049457505,0.43342096,0.4420901,0.087137684,-0.4141263,-0.20839514,-0.4667093,0.34725553,-0.2918403,-0.21737655,0.30809096,-0.17382905,0.019942071,0.43023002,-0.38489687,-0.40777096,0.28984776,0.28668892,-0.05165264,0.18112174,-0.03955603,-0.6235787,-0.16786191,0.16903324,-0.25477007,-0.009501301,0.5227737,-0.021772722,0.00870874,-0.61461735,-0.039033275,0.08205391,0.17351967,-0.107782915,-0.2894935,-0.115408815,-0.015828323,0.11355324,0.11192111,0.32627612,0.06431423,-0.14756832,-0.020645551,0.0833553,0.076696284,-0.017642641,-0.3867035,0.19007906,-0.27211085,0.07517928,0.5465741,0.06965851,-0.023656322,-0.40507478,0.08564915,-0.25409418,0.38174698,-0.20410413,-0.30000722,0.25934553,0.1615634,-0.078672394,-0.2001728,0.2824792,-0.123992465,-0.19956398,-0.177888,0.4614794,0.020544963,-0.022437107,-0.23483269,-0.0856507,-0.30016968,0.24203528,0.11883761,0.22893085,0.06560402,-0.092984565,-0.27138627,0.014063785,-0.32465735,-0.26679367,0.0024042225,0.06614141,0.66430813,1.0
Backdoor.Graybird-1cb523870e23e55d0d36af5a2e10472ac25390d3838c52c35b1106034132aad5,-0.097844884,-0.002521071,0.23115967,-0.09225301,-0.36594334,-0.007645747,-0.09373439,0.1510895,-0.17733404,0.13995953,-0.21603853,0.3120746,-0.024373557,-0.020560654,-0.3020165,-0.7172453,0.13230997,0.09134806,0.0029462373,-0.14839296,0.2728674,-0.059165373,-0.17095144,-0.21423142,0.056594398,0.21181689,0.036326576,-0.4973182,0.31655812,-0.073620446,-0.08940455,0.21044102,0.45280963,-0.10556671,-0.03551829,-0.29476345,-0.4079869,-0.07828767,0.17373319,0.017976303,-0.3677605,0.0038174521,0.18074259,-0.2945582,-0.15386637,-0.15482293,-0.02394742,0.1999193,0.43354604,0.07426454,-0.296873,0.01724711,0.09000679,-0.14550088,-0.11073216,0.053712405,-0.043640986,0.16748711,-0.058654916,-0.08003631,0.19892614,0.15823896,0.15448448,0.15544216,-0.19341852,0.877533,0.23176372,0.11548202,-0.253641,0.06872514,0.07088482,0.13768667,0.3225389,-0.080642655,0.33892867,-0.22928539,-0.2581127,-0.1256114,-0.04076435,-0.14531288,-0.05764253,0.10059691,0.2570621,0.15742147,-0.061647367,-0.4965373,-0.16235623,-0.031088825,0.097460344,-0.2483138,0.12816206,0.11516799,0.22175565,-0.34777603,-0.030021776,0.2961356,0.13213527,-0.3064147,0.18584943,-0.1791686,1.0
Backdoor.Graybird-1d17564930dc9cfdb8bf4483ba9763d17dd3f549facfdbe21ad18447663adedd,-0.61915654,-0.0016805842,-0.03128347,0.22795233,-0.5585708,0.18679911,0.040451333,0.3274207,-0.030666789,-0.24688457,-0.24318697,-0.3769477,-0.018552763,-0.23257314,-0.42134634,0.044684183,0.26713672,-0.32789698,-0.06027501,-0.08604541,-0.09475675,0.26720285,-0.023284966,-0.5310034,0.22381191,0.11468151,-0.33615175,0.0795324,-0.07727622,-0.25617805,-0.5483139,-0.28339761,0.64731616,0.4561336,-0.47631904,0.376762,-0.3527891,0.29107738,0.1638131,-0.096403845,-0.068739384,0.06381309,0.23380129,-0.4861163,-0.4743462,0.0713188,0.13066955,-0.004991978,-0.07305898,0.15611084,0.17431301,-0.24194142,0.008775976,0.13490969,0.083729364,-0.08486117,0.57184756,0.04856931,0.23485862,0.09264286,-0.20478784,0.018982282,-0.15486127,0.38135687,0.24438705,0.35366058,0.27628857,0.0056946166,-0.1746045,-0.115969814,0.06732035,0.13543668,0.15719993,0.32218376,0.021838166,0.05776857,-0.17954698,-0.19113688,0.06662904,-0.29053068,0.19303264,0.17410193,0.61847526,-0.26137528,0.12980312,-0.33791882,-0.41275525,-0.56881666,0.498704,0.06952909,-0.08287137,0.28665093,0.38551053,-0.26622027,-0.38598347,0.26938096,0.3430329,-0.22180375,0.1460784,-0.08273974,1.0
Backdoor.Graybird-1d2b95795f54a30db2241b441843c8baa1319704e0bd48f022ac919e71899787,0.2733298,0.025643965,0.14237659,-0.1535706,-0.0767312,0.38897678,-0.34911036,0.0063469587,0.074257985,-0.2905231,-0.0062990645,-0.15319446,0.1697251,-0.4987859,0.019330665,-0.45522436,0.13299066,0.14686035,0.07773314,0.3361937,0.20846808,0.08169564,-0.024151815,-0.6698963,0.33512187,-0.28902853,-0.018593166,-0.09038581,-0.16300128,-0.27619535,-0.25306103,0.5336596,0.37739345,0.11826665,-0.17573653,-0.26640147,-0.25752854,-0.45401838,0.38918546,-0.32965338,-0.14030202,-0.011537156,0.3543994,0.16362289,-0.5705855,0.13465783,-0.08290653,0.3777466,0.016837878,-0.10496838,-0.0872084,0.020232739,0.1732055,-0.082244076,0.075068526,-0.05374562,0.1123241,-0.1195635,0.30842027,0.41358808,-0.04021615,0.15664071,0.22822641,-0.028439963,-0.1078588,0.063812554,0.31513265,0.14662145,-0.5040648,0.3001537,-0.2072591,0.005728395,0.43104172,0.0133496225,0.15223007,0.08497562,-0.38943443,-0.050175343,0.39985847,-0.23512463,-0.060682762,0.020171663,0.349689,0.051752552,0.14736772,-0.21959256,-0.6300578,-0.20164956,-0.116113365,0.29567608,0.41761935,-0.10726602,0.40399617,-0.55057955,0.13274713,0.14613748,-0.11357004,-0.15209273,-0.12237319,0.36277807,1.0
Backdoor.Graybird-1f987748aa836fcff784691f0f5195eaed0187c12906f016b7bbad1f9b10d20a,-0.19286023,0.19766298,0.16795255,0.27523664,-0.52701,0.14453816,-0.40168995,-0.1024185,-0.0036301005,0.18742575,0.4153305,0.38347825,0.4281175,0.21947648,-0.06892221,-0.26055482,0.021048732,0.03480042,-0.5656718,-0.12298571,0.119576715,-0.22973196,0.021749051,-0.3043202,-0.0736104,0.56314135,0.043614738,0.011300593,0.17144203,-0.022173485,-0.17524476,0.44535714,0.7722338,-0.19928747,-0.1617592,0.2140055,-0.39364287,-0.07939096,0.0971672,-0.47510326,0.12597525,0.009836045,0.6334706,0.07288793,-0.7365281,-0.08086759,0.0024032823,0.48643538,0.15675135,0.07767773,-0.63497007,0.14096856,0.17084973,-0.24005878,0.31360775,-0.06863637,0.18429773,-0.20727326,0.18713611,0.018392563,0.1198611,-0.12818651,0.4044074,-0.22013439,-0.072882466,0.5921391,0.27581194,-0.15398236,-0.084108874,0.10609309,-0.08733483,0.19690517,0.13715053,-0.1543926,0.118930824,0.27757335,-0.1291004,-0.21882492,-0.07535123,-0.13921002,0.13789073,0.07986653,0.23300311,0.27888784,0.069961384,-0.52988684,0.08024326,0.1176007,0.15723619,0.10104282,-0.081458226,0.287727,-0.00032291294,-0.30245104,0.07856611,0.27858114,-0.22257265,0.19026028,-0.6242087,0.013805956,1.0
Backdoor.Graybird-1fe3c46136004caa9f4598dbd12db50b539bc0e44de422870a0150ccdf6c4297,-0.5706654,0.035121433,-0.11257542,-0.12276488,-0.47260582,0.37201405,-0.089673035,0.420615,-0.16365966,0.12926173,0.17273703,-0.45307326,0.29374328,-0.20527443,-0.3787698,0.0028362158,0.28472325,-0.15991142,-0.133978,-0.18789838,-0.06734497,0.22920512,0.15786965,-0.69302815,0.41268855,0.062643446,-0.08808153,0.16764438,-0.14520897,0.005581977,-0.3434885,-0.23936956,0.6112824,0.286048,-0.2722719,0.2179915,-0.42104805,0.13156506,0.21528655,0.0030159215,-0.121796325,-0.050803963,0.21089232,-0.21480758,-0.5383775,-0.014672882,0.17939441,0.033467107,-0.011063897,-0.02395475,0.078972876,-0.1372526,0.10160211,0.06450673,0.41362444,-0.10077058,0.49693626,-0.0676595,0.44917622,-0.11988077,-0.3001885,0.02507406,0.14879642,0.4151708,0.38015592,-0.009974088,0.50907594,0.07431198,-0.13384686,-0.14223284,-0.051473886,0.45664817,0.15262872,0.41963103,0.22045198,0.13699272,-0.18155429,-0.16124858,0.21922685,-0.2836052,0.34099823,-0.07007763,0.6773341,-0.17119232,0.10633576,-0.2986617,-0.318092,-0.5129083,0.37054783,0.035959896,-0.14961913,0.39907733,0.58022755,-0.48444358,-0.3682889,0.26235077,0.3892933,0.029157104,-0.0048008794,0.020626226,1.0
Backdoor.Graybird-201267f2b8c394b866ce09e16997ce04701a0bdaa1f5651e81d1675af4a567a6,-0.03777951,0.13552235,0.39923555,0.17029218,-0.19075131,0.15187179,-0.5677199,0.16987601,-0.21066244,-0.08379003,0.49056837,0.40125737,0.18884161,-0.31612563,-0.12252964,0.00189483,0.030597271,-0.7268193,-0.08947702,-0.29675975,0.06319283,-0.26144275,0.68434113,-0.14368013,0.39305365,0.4248312,-0.04074062,-0.2180221,-0.009437324,-0.30585656,-0.00810676,0.52823627,-0.12286301,-0.40942964,-0.12940854,-0.11935488,-0.12920779,-0.3328474,0.16560961,-0.1654639,-0.25465572,0.10057833,-0.02664656,-0.5440158,-0.67729694,-0.15445878,-0.15448037,-0.19531286,-0.18764447,-0.28160173,0.35280132,0.18791462,0.43314812,0.16832562,0.2759382,-0.40897277,0.48760632,-0.10252771,0.050709277,-0.12001977,-0.08390602,0.10283392,0.16397773,0.24513215,0.22368552,0.09836007,0.036110066,-0.02385657,-0.04147292,-0.3355571,-0.11889379,0.78555787,-0.1663226,0.16455202,0.533104,-0.592966,-0.09400353,-0.24915658,0.392707,-0.17376731,0.6649369,-0.08037279,0.025849694,0.16441691,0.040826056,-0.5571394,0.053994298,-0.29101568,0.6090389,0.11351969,-0.605915,0.26222757,-0.08610102,-0.6201491,-0.33600804,0.38495848,-0.007169853,-0.27286217,-0.6553519,-0.020185087,1.0
Backdoor.Graybird-20459a8ebc99703a2171b85dc321c41ccb8fdd67b606ac75c890156db25d67e2,-0.24125677,-0.43775403,-0.18596661,0.05545827,-0.6927926,0.1028225,-0.6177058,-0.29912832,-0.39447203,0.08862985,-0.04412237,0.24824521,0.35105497,0.21550977,-0.38217318,-0.071308605,0.6620843,-0.18054748,-0.115067214,-0.33889145,0.07925554,-0.18576606,-0.011107594,0.013264357,-0.014510343,-0.09106601,0.13433751,0.28660417,0.29068142,-0.22199541,-0.29073757,0.16235894,0.2459971,-0.05980422,-0.6071164,-0.6006332,-0.6033676,0.17351288,-0.2895231,-0.050747614,-0.3643283,0.5771889,0.51294035,-0.12492598,-0.37427375,-0.20930418,0.19281149,-0.35717586,-0.49435654,-0.01819358,0.21274048,0.20001219,0.10811105,-0.1433828,0.24432945,0.019594442,0.061790813,0.1487271,0.06292786,-0.26451057,-0.2511202,0.25639692,0.41793716,-0.38569263,-0.52071255,0.46453184,0.41738594,0.039120983,-0.18055312,-0.27727783,-0.34128675,0.17020628,-0.075022966,-0.16374853,0.20204325,-0.25488272,-0.39515382,-0.08973924,0.07723993,-0.10398678,0.38727984,0.18794377,-0.48267668,-0.3590962,-0.11015288,-0.26460803,0.04051235,0.23255187,0.07825157,0.3816428,-0.21710037,0.17765155,0.21162125,-0.055499103,-0.06541394,0.1528324,0.24952383,-0.18304263,-0.4869192,0.32641882,1.0
Backdoor.Graybird-21f994f2239ccaaddf25e98859f58e609dbc589127160c943dd884506d0f1e95,-0.39631283,-0.06547353,0.22015116,-0.2920965,-0.2334497,-0.17245704,-0.32914993,-0.06762145,-0.7163234,0.13260767,-0.10208743,0.15286222,0.103242815,0.24252975,0.08337063,-0.39877263,0.39237568,0.12325074,-0.012058972,-0.24699512,0.049915988,-0.35700616,0.15073824,-0.25171039,-0.3315186,0.13466805,-0.17964818,-0.16771904,0.20003079,-0.2365793,-0.43131325,-0.07301135,0.312413,-0.49728185,0.028592542,-0.18858239,-0.2834362,0.10072504,0.094007954,-0.051872663,-0.10603078,-0.13607003,0.044333618,-0.84193027,-0.24466202,0.44418964,0.048483826,0.3047191,0.10206907,-0.08531403,-0.26269475,-0.18787971,0.09864108,-0.030849513,0.43157014,-0.14412165,0.26891914,0.26915228,0.101119176,-0.19349486,-0.07254439,-0.10401998,0.39466164,0.022276519,0.162938,1.0441822,0.3228283,0.059493512,-0.106156155,-0.2335995,0.14263265,0.20640078,0.1328099,-0.017183673,0.40732267,-0.08899939,-0.46790826,-0.019567415,-0.05157739,0.011966544,-0.03342697,0.011837411,0.38526765,0.14648397,0.07124682,-0.40439278,-0.2555169,0.0448518,0.0435742,0.37362376,-0.047721867,0.057497952,0.06754783,-0.03825506,0.0015063698,0.13857284,-0.13744774,-0.39635208,-0.45099288,0.21213634,1.0
Backdoor.Graybird-22772293d3a3b20b3610ae1c06ab72da41745c57356905855180b45c5d43ae96,0.1017742,0.29070032,0.30973035,0.10745109,-0.5709579,-0.16477251,-0.3086323,0.24945238,0.07047071,0.31624067,-0.09421001,-0.09367037,-0.05199403,-0.012124548,-0.49505574,-0.95253557,-0.06556735,-0.2565168,0.14184849,-0.016326254,0.053458788,-0.24866736,0.104782805,-0.1630068,0.114609204,0.2646135,-0.06350692,-0.073423035,0.022084411,0.017286604,-0.08369098,0.26842543,0.6166941,0.16645087,0.11594645,-0.21928634,-0.1871482,0.07714743,0.14866656,0.060299147,-0.34667712,0.096354716,0.23563871,-0.3020004,-0.34691498,-0.09932853,0.0068571162,-0.15364678,0.20006244,0.33019897,0.066403545,-0.1158222,0.1724701,-0.16394342,-0.287985,-0.35784674,0.23824063,0.13361044,-0.096303664,0.082680255,-0.3241411,0.115347855,0.12570207,0.1723004,0.075609915,0.6950327,0.22952732,0.23371644,0.105983526,0.085405074,0.052697178,0.14582871,0.43260434,-0.0884808,0.10945195,0.012334191,-0.22382846,-0.0502857,0.3300147,-0.122412935,-0.09505923,-0.3817647,0.43332675,-0.5366449,-0.29555574,-0.50619,-0.39969036,-0.26296452,0.1687498,0.18992423,-0.07857698,0.4040703,-0.029894361,-0.5203086,0.23247343,0.03445925,0.30948034,-0.54071116,-0.069660075,-0.01587536,1.0
Backdoor.Graybird-22c98fc9dac84f509083a90a332517ead8eb265fc53ddb1d16e5cfd0dab0ebe1,-0.51591414,0.045076195,0.6424163,-0.38092735,-0.0408253,-0.07967765,-0.34334755,-0.12009473,-0.009010617,-0.20469603,0.15850988,0.62268454,0.06951008,0.017385771,-0.18596709,-0.05320183,0.01769996,-0.3360738,0.12780355,0.19364214,0.14401971,0.21120487,0.045884974,0.08640362,0.37082532,-0.09938143,0.4247625,-0.05317318,0.11164454,-0.5528926,0.14277552,0.8900437,0.14577375,-0.295054,-0.062207796,-0.36781263,-0.54618174,-0.38045695,0.25915548,-0.16102326,-0.3504686,-0.15347694,0.21111433,-0.51344335,-0.05480894,-0.10820775,-0.047599196,0.0077032987,0.02581235,0.056065276,-0.007940399,-0.231919,0.016602889,-0.10040888,0.05058572,-0.2961049,0.14511344,-0.21561357,-0.019058358,-0.3103105,-0.20671298,-0.3112528,0.07199126,-0.06725563,0.007835082,0.6166406,0.1759628,-0.09545805,-0.23887953,-0.21489137,-0.17090158,0.6489372,-0.2989648,0.11210154,0.29821804,-0.8470621,0.1484835,-0.5758342,-0.04823731,-0.0052543157,0.010653425,-0.21911308,-0.08088403,0.29105112,0.03830078,-0.09315561,0.23174453,-0.1794114,0.41214508,0.28717628,0.054582246,0.20154509,-0.083942905,-0.4823997,-0.051002793,0.09674861,-0.041954648,-0.45365855,-0.3510767,-0.028165152,1.0
Backdoor.Graybird-23259ea20d4f481cdc1bf58894f6280ddbe3fc56d7bfbaaf11bafdf4840f8c2c,0.074726276,-0.30890527,0.24055533,-0.101200655,-0.27592292,-0.17306538,-0.20377965,-0.34084642,-0.008482727,-0.20952177,0.090356246,-0.2616556,-0.06489138,0.22432674,0.11357313,0.06725252,0.043772396,-0.05875618,-0.12823242,-0.06424799,0.21573018,-0.30905196,0.15845583,-0.38102248,-0.17976917,-0.110403895,-0.1719237,0.26052305,0.5994012,0.27494743,0.220942,0.3241812,0.021136012,-0.11803666,0.12876041,-0.1309866,-0.3088925,-0.41235036,0.038312934,0.13514484,0.013466619,-0.278536,-0.19656262,0.12669638,-0.35848308,0.42273378,0.35100874,-0.44217172,-0.052127838,-0.29133892,-0.26219022,0.01335809,-0.29222843,-0.30800825,0.17291617,-0.06375086,0.3380558,0.02058416,0.4426193,-0.482765,0.15700077,-0.07122667,0.30963027,0.24752468,-0.02973911,0.032663427,0.11248843,0.3354113,-0.14447568,-0.3494244,-0.26266605,-0.07331029,0.18395893,-0.026287409,-0.0056763585,-0.22747754,-0.24253674,0.13860524,0.1330393,0.0033250146,0.14588927,0.15775815,-0.39522713,-0.051281225,-0.22607876,0.08674359,-0.047856357,-0.16920866,0.22190757,-0.2202878,0.65467876,-0.06584103,0.2135285,-0.16166517,-0.42607066,-0.20726962,0.1002256,0.04558502,0.013940719,0.28429356,1.0
Backdoor.Graybird-2486e00f3531d89506d2a87525b723d2508b4b8c0040824956aeca41b97d17d7,0.42351627,-0.125648,0.41342735,-0.6465521,-0.08561323,0.14083552,-0.12417555,0.033658408,-0.08801654,-0.118787415,-0.08366522,0.12675306,-0.106632814,-0.1042881,-0.09057187,-0.13240255,0.24835894,-0.036734786,-0.18357863,-0.022124771,-0.42185187,-0.19875412,0.102285385,-0.31648603,0.039401997,0.37883225,-0.17997475,-0.20614012,0.538725,-0.17966418,-0.280218,0.34661767,0.38135287,-0.40648633,0.28022632,-0.03395252,-0.24906953,0.16404185,0.37829846,-0.043583006,0.09835206,0.48823687,-0.029744582,-0.045759797,-0.33869278,0.29141903,0.1902859,0.08922771,0.12257046,-0.10391232,-0.35705566,0.05689379,0.28670788,0.038473688,0.5836437,-0.15008514,-0.03520411,0.048543684,0.42477176,0.25233117,-0.021317966,-0.019040229,0.32846272,-0.11563304,-0.15554552,0.4058563,0.032504093,-0.32284147,0.0443921,0.05801972,-0.054267447,0.6238638,-0.15579574,-0.12740558,0.22896737,-0.09090298,0.06541168,0.08325591,-0.06623603,-0.11253875,-0.1872952,0.12264187,0.42201895,0.26909792,-0.25439483,-0.5583825,-0.27678615,-0.07541747,-0.15282406,0.23510908,0.56592476,-0.12421233,0.21800981,0.1576566,-0.15777615,0.094365805,-0.26245984,-0.11168595,0.19350012,0.42135614,1.0
Backdoor.Graybird-2565563f99f161ad465a603000f5a2440b83b12413930bac01d20c6d3924f79e,0.019183163,0.0943646,0.3280794,-0.23803532,-0.909725,-0.14755568,-0.9573571,-0.25354153,-0.30663416,0.2985174,-0.006004696,0.110264234,0.48462152,0.35108283,-0.55293185,-0.1912701,0.51995325,-0.22003552,-0.019363768,-0.48265526,0.32422286,-0.6754508,0.44520223,-0.17246571,0.31679535,0.08706052,-0.120143175,-0.15619777,0.21654993,-0.54417723,-0.33328968,-0.09203342,-0.12759499,-0.36934274,-0.6418431,-0.38626364,-0.22757427,0.13131048,-0.24178849,0.17599402,-0.34620667,0.23791383,0.16427162,-0.23312926,-0.21437827,0.0025149237,-0.080729894,-0.26239714,-0.421352,0.13003302,0.3226403,0.21715707,0.22673316,-0.047368973,0.39103097,0.095386155,0.3967493,0.04612183,-0.65540946,0.034159098,-0.48962876,0.040946405,0.39445132,0.085233755,-0.5393948,0.29099885,0.46922624,0.17892116,-0.0808165,-0.15016094,-0.20728484,0.3063193,-0.035204824,-0.15028633,0.31378517,-0.08537589,-0.41347256,-0.23218052,0.13984296,0.07687243,0.14336143,0.09365479,-0.34305817,-0.38378343,-0.23188654,-0.56650186,0.1841896,0.41683486,0.26844892,0.26144284,0.094135076,0.06904109,0.044548504,-0.091656074,-0.13944143,0.32467952,0.17081678,-0.25583217,-0.19920857,0.23466957,1.0
Backdoor.Graybird-272ea0be5ed16c1b6a1d0149a85107e382cf7dab94eb40fb49ec17acd3c00b0b,-0.14576204,0.25466305,-0.13947329,-0.14012186,-0.3308606,-0.87229806,-0.36534503,-0.47926497,0.086181186,-0.12059796,0.028442273,-0.25647292,0.21420267,-0.35348213,-0.08476364,-0.18656728,0.49240103,0.32175776,-0.01396596,-0.57258123,-0.34048298,-0.026421936,0.48652816,-0.1351149,-0.3628399,0.2003197,-0.1373935,0.2332505,0.52972585,-0.10742121,-0.26519656,0.32099095,0.3363282,-0.1860621,0.08226466,-0.4379192,-0.53702825,-0.23305655,-0.07687533,-0.39902735,0.022834435,0.13188347,0.013968571,-0.12379209,-0.6557288,0.21054676,0.18507905,0.4156101,0.16732457,0.099638484,-0.1864662,-0.13944352,-0.010776616,0.28127074,0.15411265,-0.007295952,-0.04951884,-0.048417684,-0.021478737,-0.16620737,0.21264556,0.1983758,0.26959273,-0.189425,0.013036028,0.4167345,0.0996813,0.21311992,-0.40598297,0.30161127,-0.3424144,-0.10368967,0.005238545,0.10853,-0.03149114,-0.10084277,-0.04143429,-0.17287028,-0.15300965,0.32000542,-0.08833254,-0.09627856,0.85126394,0.16907473,0.24769576,-0.34220004,0.120946966,-0.21450134,0.1383796,0.44500634,0.17886831,-0.21235369,0.12819119,-0.10377354,-0.19173944,-0.303763,-0.07227768,0.12043469,-0.10783801,0.3972412,1.0
Backdoor.Graybird-27c0a52403d572f0ee5abc626a7f5cd834ed6a5b7eeebeadc848a5cc091eb5d1,-0.36444068,0.33013976,0.1589494,0.35634354,-0.7325206,0.14315966,-0.8511638,-0.10510492,-0.08125804,0.13647577,0.5003981,0.3102644,0.68564254,-0.18413071,0.057597764,0.03224558,0.4716869,-0.0667354,0.10220499,-0.08791049,0.6288323,-0.21993832,0.43984333,-0.07754294,0.023821775,0.3838176,-0.074524455,0.035336293,0.20988014,0.0022363672,-0.09588764,0.29370534,0.28198287,0.23682323,-0.5320669,-0.20282409,-0.7051032,0.18550682,0.17235078,-0.05973718,-0.22961503,0.56749684,0.38352254,-0.588129,-0.17048661,-0.51871705,-0.14803272,-0.09028551,-0.28411585,-0.007948037,-0.0013891562,-0.16593407,0.053126078,-0.25757706,0.25497255,-0.019382522,0.19657694,-0.14813471,0.014176157,0.07026777,-0.31749597,0.1133926,0.08621398,-0.30500615,-0.09724233,0.37860677,0.22757077,0.018245807,-0.28011465,-0.08500102,-0.4565988,-0.40077493,-0.00293321,-0.15550543,-0.04164848,0.20699207,-0.100650236,-0.32048896,0.1379235,0.051335417,0.1944444,-0.13134296,-0.20629749,-0.64238375,-0.3092873,-0.23353577,-0.29889104,-0.10469201,-0.21691051,0.85077244,-0.32235324,0.005321616,0.18624264,-0.13764821,-0.42485082,-0.09784718,-0.115006246,-0.06680736,-0.20837937,0.15224607,1.0
Backdoor.Graybird-27d4f0a222bbb2285e395dcbed061a6eeb91a69d6c8cab8c98fd1ffb244c699a,-0.24504903,0.3246378,-0.35445884,-0.056892615,-0.51086426,-0.5852653,-0.24725011,-0.15806234,-0.0013917743,-0.0016399043,0.049642805,0.31645563,0.20647903,-0.14200008,0.014270806,-0.12555999,0.23300482,0.15657046,-0.14988627,0.12759419,0.019013185,-0.2642723,-0.17801929,0.04958028,-0.41886804,-0.04671757,-0.5257983,-0.07760998,0.4470211,-0.23057628,-0.3582022,0.4014449,0.43249565,-0.16518682,-0.3800485,-0.32826832,-0.36599016,0.09037323,-0.20686418,-0.2475921,0.079373665,0.114353076,0.45993102,-0.33862427,-0.44899213,-0.07000002,0.16017176,0.3808828,0.0067545753,-0.023658205,-0.47394827,-0.263187,-0.2178391,0.045787875,0.09059349,0.13648011,-0.10224019,0.022184437,0.14456835,-0.2450311,0.3446111,0.020117378,0.049373075,0.2191213,0.07198004,0.7354026,0.5941086,0.23528157,-0.4595636,-0.01309938,-0.37366337,0.2586566,0.16953105,-0.05995348,0.026831685,-0.06893028,-0.2383645,-0.2246751,-0.24372992,-0.15320778,-0.029150829,0.079099104,0.6688341,-0.019155037,0.37552175,-0.47734478,0.07686111,-0.26415536,0.17709643,0.5085596,0.12156963,0.15953894,0.07881133,-0.09889113,-0.0016212275,-0.34538832,-0.18012549,0.34156638,-0.28227967,0.43767166,1.0
Backdoor.Graybird-2821c9781c0351109c2a8b9633972e2c71f46371b648d2103c2741f560b60a1b,-0.41435042,0.515356,-0.19541562,-0.2311223,-0.4521301,-0.3610078,-0.44216654,0.3609021,0.061401676,-0.05777395,0.31273162,0.29943842,0.21389003,-0.22884676,-0.6551859,-0.030626053,-0.02987928,-0.45520598,0.021046279,0.054710217,0.015186596,0.18792658,0.021878608,-0.14473419,0.5583327,0.3950728,-0.17820455,0.079215094,0.3866641,-0.39057535,0.034074914,0.6090082,-0.03293008,0.10545359,-0.031497326,-0.17362607,-0.27813897,-0.12643251,0.000988683,-0.328714,-0.3492268,0.0059279683,0.32592586,-0.11920206,-0.45963734,0.15259582,0.03752814,-0.045240227,0.37315375,0.054525737,0.18597892,0.046125356,-0.03984224,0.23050359,0.41596195,-0.6201214,0.124100044,-0.44654337,0.17248906,-0.7420306,-0.0058775414,-0.29011822,-0.16945511,0.18305613,0.5431823,0.4122932,0.20927526,-0.28165376,-0.07908541,-0.30299842,0.047684956,0.71793735,-0.18469273,0.019601649,0.5721666,-0.3394201,-0.029026512,-0.52907175,-0.06075371,-0.27274483,0.41554385,-0.2771312,0.056714367,-0.1773854,0.24619453,-0.5503845,-0.096812345,-0.16379187,-0.34914792,-0.45358726,-0.08345849,0.61139816,0.19049537,-0.4813765,-0.3973808,0.56679696,-0.5454498,-0.035831433,-0.31923062,-0.07097144,1.0
Backdoor.Graybird-2860ba35f778ed52b8487fe93a77c05a2d49222ba8f6cb81877c1779d13c1f4a,-0.010715727,-0.027417982,-0.0731346,-0.8852485,-0.24990278,-0.21652919,-0.10470285,0.46288863,-0.12042406,-0.056839366,-0.025475904,0.7600221,-0.21362503,-0.3686123,-0.04393265,-0.059689052,-0.0035946106,0.18559656,0.08320783,0.033948563,0.26431787,0.20033807,0.07516657,0.09384525,0.40376002,0.0019958683,-0.09843494,-0.08283549,0.31156823,-0.23984326,-0.10487133,0.24915645,-0.014810485,-0.30034217,0.14693882,0.020015463,-0.39944872,-0.059962325,0.3360948,-0.24828611,-0.22101705,-0.07944338,-0.0011423448,-0.3977012,-0.1806049,0.6826189,0.17855711,-0.016012143,0.048903544,0.33968624,0.14964849,-0.029179618,0.025684614,0.1355864,0.08851001,-0.35346153,-0.12324935,0.18572658,0.1410239,-0.0045695654,0.20396411,-0.1104759,0.17620166,0.13296655,-0.08680425,1.0419528,-0.037632063,0.048164785,-0.066812284,-0.006813615,-0.090602644,0.23528449,0.069783404,-0.092696115,0.3345437,-0.22430515,-0.1351181,-0.020626381,0.2590731,-0.14817375,-0.010453869,-0.14812176,0.29128593,-0.12772565,-0.08685923,-0.32154852,-0.6649918,-0.30260187,-0.12600024,0.3413783,0.21434715,-0.061371427,0.48180252,-0.32815304,-0.08635453,0.3826934,0.21276993,-0.04193184,0.09104694,0.29560256,1.0
Backdoor.Graybird-2a1858cfa17d4f07292362a2719d61c97a487d29a5adf45d8e8b32f3252331a2,-0.12340038,0.3864677,0.2731098,0.09504956,-0.44975483,-0.17202772,-0.2913132,-0.48041677,-0.3404457,-0.5052349,-0.046063222,-0.14033838,0.089839324,-0.1084106,-0.04720743,0.2482328,0.41117403,0.3522446,-0.037871357,-0.4300466,0.34163108,-0.5981819,0.47369775,-0.37555078,0.058900442,-0.060849108,-0.18505858,0.014303867,0.36614853,-0.55678785,-0.4075979,-0.22008099,-0.5696578,0.12415998,-0.11611957,-0.083007425,-0.4227219,0.29322648,-0.67944026,0.16112672,-0.11812695,-0.09171616,0.13213323,-0.27003992,-0.56131285,0.1145627,-0.7687006,-0.1607137,0.14549503,0.3123309,-0.1249389,0.3093209,0.1263337,-0.14461954,0.50640976,-0.16937569,0.7469774,-0.11514203,-0.656107,0.054488264,-0.24485622,-0.31067714,0.41298336,0.008233994,-0.12671348,0.3533405,0.08975788,-0.5212027,-0.002181723,-0.17156601,0.064923674,-0.07052413,-0.29006016,-0.15150136,0.20025209,-0.0701886,-0.22549601,-0.14178039,0.034381162,-0.11180448,0.07833604,0.21138683,0.13397521,-0.4952151,0.20076704,-0.2665569,-0.26129028,-0.02271337,0.18993439,0.10576217,-0.012662334,0.049574044,0.4213017,-0.006719164,-0.43755832,0.31572142,-0.08224083,-0.3803453,0.09065233,0.22535586,1.0
Backdoor.Graybird-2a7c74a91f4b6f4ed632d97fc3ee8835a7a615cb15dbf6ecbb96526d06f64db6,-0.24004793,-0.115612805,0.27904552,0.25061154,-0.3424535,-0.30345708,0.036993515,-0.0398788,0.05467736,-0.18517119,-0.09759964,-0.7670014,0.025093589,0.28910774,-0.2869127,0.10470421,0.054578114,-0.1573692,0.10993009,-0.32086384,0.35267404,0.109029576,0.27660224,-0.62272626,0.021506818,-0.38207605,-0.14480892,0.19705291,0.11195139,0.53515345,0.31709376,-0.053102396,0.32704023,-0.26538327,0.2379761,0.15366624,-0.5185835,0.12702426,-0.061060328,0.039435666,-0.22494926,-0.32290268,-0.119409345,-0.32781428,-0.22942513,0.10491547,0.18779726,-0.12843324,-0.1406525,-0.10340847,-0.11726166,-0.20502208,-0.13645403,-0.4496328,-0.14531532,-0.51951903,0.07889143,0.020022301,0.2148291,-0.18040623,0.3004658,-0.46805313,0.39054167,0.24607626,-0.022321602,0.19555272,-0.18929856,-0.050558385,-0.51135164,0.42960867,-0.3564576,-0.04669,0.19163433,-0.45129928,0.44038245,-0.36312714,-0.13688597,-0.33972088,0.5372146,-0.21399117,-0.2978898,0.05920571,-0.0073331785,-0.17655413,0.036611553,0.4834511,-0.3268814,-0.25860387,-0.019095855,0.20306103,0.6498876,-0.11697891,0.019216748,-0.09379865,0.11659844,0.29647565,-0.37148792,-0.18923998,0.054895192,0.48989844,1.0
Backdoor.Graybird-2b470ddd183ec9f15d7cef2e1f2daf7243e1deef16fb6e74cb75b67c5d25df18,-0.3456288,-0.12236997,0.36849442,0.33710304,-0.05503258,-0.058677513,-0.32257563,-0.42065123,-0.45205387,0.20636988,-0.5748797,-0.2786588,0.08341531,-0.15417574,-0.61176085,0.07629367,0.43522337,-0.06592525,0.11558441,-0.053644143,0.369789,0.06671224,-0.008202554,-0.29760292,-0.17942536,-0.14279573,0.18165639,-0.038469184,0.10666198,-0.24072832,-0.02673651,-0.49935594,-0.08340607,-0.3717697,-0.25688466,-0.20180385,-0.39401913,0.059955154,-0.13979392,0.07267916,-0.17702581,-0.03429326,0.15316081,-0.5656589,-0.11814768,-0.09091386,-0.18624462,-0.11218617,-0.076025754,0.29366586,-0.2485753,-0.04230859,-0.0289032,-0.14732145,0.13369831,-0.23018457,0.5824701,0.04267728,0.4368326,0.1480622,0.005816909,-0.18848014,0.13394634,0.030458657,-0.33053535,0.11554059,0.054983523,0.27700207,-0.07930752,0.07658161,0.10670958,0.3370621,-0.12119398,0.15416165,0.52475286,0.19740866,-0.1894459,0.17806306,-0.09421277,0.037665848,0.16291033,0.19431306,0.46270913,0.060413916,0.12128374,-0.1284251,-0.28307578,-0.046456076,0.31548995,0.14916502,-0.08424088,-0.047013547,0.5228523,-0.031588845,0.09332556,0.12733786,0.17115498,-0.15373123,-0.27964988,0.1345432,1.0
Backdoor.Graybird-2ca870cb512099a0df67fefee9eb2bf8fd53cc078919852144d6cbff26456347,-0.17317702,0.45471197,0.029163383,0.029261218,-0.46496254,-0.67510957,0.02023672,-0.5325259,0.34487358,-0.15397337,-0.022611443,-0.2471061,0.33412504,-0.41902187,-0.26648757,-0.11879221,0.2287068,0.18527766,0.00443882,-0.11110815,-0.2720592,0.177484,0.29415795,-0.16249742,-0.3848527,0.22140688,0.1897502,0.26185516,0.7759844,-0.66606826,-0.17434056,0.17602421,0.372461,-0.087700106,-0.10128682,-0.36343375,-0.77161485,0.10527098,0.032043677,0.018335143,0.111467265,0.19856197,0.04567037,-0.39128453,-0.32740292,-0.00093263853,0.2582974,0.56725943,-0.045815468,-0.06278955,-0.20482737,-0.38764533,-0.07316828,-0.0010797392,0.17163809,0.31342793,-0.084648155,-0.085788116,0.46353307,0.14866765,0.012101801,-0.3913079,0.13946669,-0.12090232,-0.28593487,0.34054533,0.16037609,0.08693869,-0.5783683,0.2284421,-0.2325858,0.36639896,-0.2831973,-0.21120244,-0.05576575,-0.067486204,0.15467416,-0.17438291,-0.19651756,-0.006203689,-0.2149888,0.107700095,0.42731825,0.2669748,0.12856375,-0.124925055,0.13329972,-0.08726305,0.10508734,0.4192422,0.67999876,-0.18030183,0.17126608,0.24396689,0.24147366,-0.19143492,0.10195286,0.04761978,-0.01815324,0.3511451,1.0
Backdoor.Graybird-2ec9be730d82cf10af338e7f25781006744b9dda9c9ff484acfd2de501b05e24,-0.043708127,0.26871973,0.8670036,-0.06733307,-0.5519019,0.06483532,-0.52556705,-0.10517661,-0.5636403,-0.4404383,-0.4522615,0.0831129,-0.267317,-0.3461004,-0.39884365,-0.037497375,0.6957722,-0.008446926,0.35806122,-0.18292883,0.20959444,-0.5705406,0.29517806,0.025387976,-0.066414244,-0.050429836,0.09869643,0.10138003,0.2877324,-0.59995383,0.054600097,-0.089860074,-0.31386805,-0.013215632,-0.4281916,-0.05065828,-0.15153922,-0.26247808,-0.006490771,-0.17768794,-0.3076518,-0.42501646,-0.070369564,0.04329101,-0.6144269,0.47570744,-0.27183133,-0.25463584,0.14417543,0.058552347,-0.4717578,0.21499975,-0.22614671,-0.057303958,0.32409772,-0.0072391857,0.08990413,0.16028106,0.2815603,-0.21356553,0.09345098,-0.07394758,-0.07521174,-0.19508997,0.38412482,0.31513828,-0.26328266,0.22273795,-0.39438915,0.252509,0.13212563,0.3609704,0.029148486,-0.12336052,0.45059666,0.35858667,-0.42335114,0.07187973,-0.118984014,-0.111320235,0.11872392,0.3895989,0.18486737,0.24827623,0.1705026,-0.2346216,-0.5463709,-0.010976695,-0.11137579,0.05172646,-0.054053746,0.089011274,0.74412614,-0.29214638,0.13683616,-0.0045436528,-0.06728645,0.46383768,-0.11967971,0.31669438,1.0
Backdoor.Graybird-31e4807b0f375d8f919a3037f2764686a46d2e41bd957f8edd8f771621a3e53f,-0.23795038,-0.12042147,0.6806389,0.019350452,-0.50638044,0.29267764,-0.60011965,-0.27333322,-0.45838696,0.098994866,-0.12509099,0.49921072,0.20780161,-0.12600048,-0.3571514,0.0856868,0.58868426,-0.04619346,0.14144939,-0.18221591,0.18914498,-0.4974856,0.2035086,-0.08452539,0.0650891,-0.091623105,0.031232458,0.026206711,0.35357043,-0.29354867,-0.06537475,0.15655725,0.036169354,0.023253674,-0.3957385,0.20215406,-0.13221999,0.11969086,0.20581327,0.02687235,-0.093519084,-0.046682253,-0.40130037,-0.013965194,-0.30195937,0.38684997,0.011990542,0.089948766,0.23551203,0.13433063,-0.29966486,0.053001944,-0.12884262,0.061759688,0.33958605,-0.003540839,0.014942823,0.30507848,0.4597256,-0.006733185,-0.21757667,0.12891085,0.020695029,-0.33509707,-0.029492233,0.6310058,-0.40686005,0.13719009,-0.06377812,-0.0008169139,-0.01182362,0.024550846,-0.2129311,0.084315136,0.26195347,0.42979473,-0.021908207,0.1325107,-0.120011084,0.08178059,0.1609711,-0.022660227,0.32605448,0.23024355,-0.39913762,-0.39193028,-0.1950465,0.030793795,-0.10453837,0.4035279,-0.12029003,-0.14976612,0.5444811,-0.40838796,-0.24628481,-0.22771211,0.14860883,0.0012482124,0.048075214,0.07226893,1.0
Backdoor.Graybird-32cbc565918830a83537aef008c3587ea24d2172c7ed3563ac2f4a7506a7a00d,-0.21930668,0.2380399,0.63318247,-0.25071904,-0.25398496,-0.18673413,-0.33125064,0.40020218,-0.18377727,-0.0034464684,-0.027534291,0.19050762,-0.007213418,0.22956082,-0.017764231,-0.41838196,0.43568733,0.03292529,0.362944,-0.10427558,0.1296848,-0.1312296,0.13799559,0.072599694,0.020823086,0.0470526,0.053851794,-0.29920545,0.27695575,0.01722306,-0.057650715,0.25832975,0.21053077,0.07313015,-0.12165951,-0.19625874,-0.06099681,0.2757174,0.37732634,-0.36536086,0.0018894182,-0.17315426,-0.14783151,-0.7020374,-0.063684575,0.25611225,-0.008682369,0.2107082,0.16189872,0.20222083,-0.19313768,-0.018290587,0.14286904,0.21314612,0.3345754,-0.31327692,0.27946952,0.3225029,0.142154,-0.30078968,-0.084721744,-0.045455262,0.17780061,-0.2042349,0.103093006,1.6465337,0.14816697,-0.07256155,0.16552249,-0.24568371,0.0229975,0.22262384,0.023859631,0.50428665,0.31012595,0.03292489,-0.30574793,0.17294818,-0.011416446,0.08092288,0.25933054,-0.24385822,0.5375013,-0.1542197,-0.021425625,-0.16905397,-0.119892016,-0.23779738,-0.067096554,0.289231,-0.21996428,-0.15776947,0.47869986,-0.40977168,-0.17975925,-0.24856503,0.085655704,-0.38751805,-0.1483367,-0.030955687,1.0
Backdoor.Graybird-33e8337aad51e26cebf92f17cdc0c3ffa5ed55c74de4e7cd5b92db2d75e15339,0.34694046,-0.36911735,-0.034668975,-0.17650081,-0.37188226,-0.008594851,-0.4287542,0.022558333,0.011912615,-0.19630314,-0.10798631,0.008989405,-0.04216475,0.21720576,-0.27198222,-0.14466912,0.06722965,-0.32860085,0.068186715,0.39470878,0.01942123,-0.2602457,-0.18418004,-0.40379298,0.15930538,-0.30498573,-0.40381902,-0.3059868,-0.02158021,0.10297289,0.12795196,-0.4709745,0.10517342,-0.08613115,-0.26850888,0.18699737,0.10175704,0.2640147,-0.04124397,0.14403266,-0.061458368,-0.100455716,-0.021285329,-0.264881,0.13149141,0.34403887,0.11004893,-0.16947484,0.09198307,0.097367585,-0.20323831,0.018986894,-0.06645323,0.13792731,0.09603151,-0.4076226,0.29103714,0.08380996,0.016069975,-0.06635015,0.2067285,-0.14802875,0.14783603,0.12908973,0.15080768,0.2757032,0.33520737,0.493659,-0.10386371,-0.135955,-0.1631233,0.26178285,0.08102171,-0.055443235,-0.09321357,-0.10629109,-0.27581188,-0.1961698,-0.19197613,-0.05190855,0.022820303,-0.030592915,-0.069541395,-0.10200834,0.0037784334,-0.21333796,0.10050886,-0.22037196,-0.00025914598,0.15942897,0.84355587,0.12301975,0.17281978,-0.36714274,-0.11990523,0.43495432,-0.022970261,0.21022046,0.36856553,0.20671327,1.0
Backdoor.Graybird-340c5cae28749592b0ea9453bd4f7d109b2fe2c8a03041e5da9961a7339eaa34,-0.045154016,-0.10416574,0.59158784,-0.07445671,-0.6109706,0.088478684,-0.29416934,-0.10344735,-0.34250122,-0.26423332,-0.35287946,-0.021631978,-0.027178196,0.121421926,-0.124827206,-0.31244546,0.4016124,-0.036539834,0.007022864,-0.20178427,0.4527889,-0.3720376,-0.043940097,-0.34184438,0.2715329,0.11822594,0.0071855364,0.011333863,0.48339278,-0.21166398,-0.21686956,0.103182286,-0.06526088,0.005338535,-0.091397956,-0.12300025,-0.009602882,0.2466747,0.17643826,-0.017879322,0.1780884,-0.11671334,0.1007447,-0.2866391,-0.6123147,0.7043466,-0.23310412,-0.061049826,-0.016044013,0.25115955,-0.032790143,0.20842208,0.012297032,0.12807928,0.26915208,-0.1658214,0.2607454,-0.015536813,0.2239703,-0.22101693,0.008935808,0.14329456,0.26521266,0.011616548,0.11001525,0.6874523,0.099907026,0.33266553,-0.069542,0.020689147,0.2790593,0.28982335,0.015669746,0.30259404,0.29011384,-0.2094154,-0.2578598,0.21486548,0.10869382,-0.29434747,0.24085605,0.2162682,0.43046156,0.04588727,0.293776,-0.28126562,-0.18544357,0.11887498,0.15658967,0.20406768,-0.33934572,-0.057525065,0.27512664,0.060327683,0.053764153,0.14862561,-0.09991411,-0.2730244,-0.001355469,0.22773778,1.0
Backdoor.Graybird-3472255f40fa8003a08d8c641d9d2c5d0f749bf4c0420fc9a22040103a97c35b,-0.060733218,0.066374466,0.22888733,0.23988385,-0.16854149,0.21642235,-0.27542147,0.21901083,-0.7449171,-0.57424885,-0.16326788,0.11263032,0.0459499,-0.67759454,-0.86632854,-0.057406574,0.13922793,0.051779892,-0.057131473,-0.31707126,0.30295742,0.3352478,0.118302874,-0.28325367,-0.42886478,0.2751421,0.007762418,0.32027745,-0.43163064,-0.048599467,-0.4603264,-0.48877355,-0.046077657,0.26238027,-0.26934427,-0.06277756,0.01935865,0.15524505,0.039247934,-0.5502597,-0.15812993,0.11158848,0.26054215,-0.11784669,-0.22299735,0.11354162,0.043172106,-0.06695676,0.029936738,-0.11952492,0.14195162,0.1345762,-0.05088006,0.38215223,0.40649712,0.046520326,0.6453524,-0.23569296,0.42577615,0.2446565,-0.12108573,-0.1921215,0.2639302,-0.39345148,-0.080552384,0.23760472,-0.04084003,0.2755408,-0.18019879,-0.05050785,-0.12663369,-0.041364904,0.051672973,-0.047325335,-0.0016370198,0.43101728,-0.32310787,0.6713137,0.24824809,0.13917449,0.19185849,-0.22658667,0.06566484,-0.19021933,0.13665175,-0.44030517,-0.15247937,-0.12148597,-0.16211048,0.049049757,0.057617437,0.21253857,0.6968653,-0.39069003,-0.10424196,0.40302554,0.2855089,0.06948663,-0.09403441,0.2104732,1.0
Backdoor.Graybird-3473cb362c74478f5f8d200d068fbf1806d2dca138264e942574fb7abd324b42,0.24648018,-0.26897007,0.25284725,-0.32248884,-0.11174086,-0.012450544,-0.13901527,-0.39169592,-0.13590147,-0.25219005,-0.15075661,0.22756657,-0.3220273,0.37266102,-0.26156202,-0.18763138,0.111741506,0.0025701346,0.04170187,-0.25035957,-0.1944892,-0.4476684,0.19858305,-0.12414636,-0.107286885,0.25507796,-0.100540586,-0.24446788,0.71633184,0.06568305,0.06963781,0.033537,0.492691,-0.056437567,0.04128998,0.066129714,-0.13298084,-0.037959013,0.13154775,-0.27997094,0.038900692,-0.04992423,-0.0852648,-0.2188717,-0.25088942,0.23132572,0.054230046,0.4607278,0.18788475,0.16186367,-0.3148425,-0.06662716,0.11890141,0.04727717,0.20985787,-0.15078536,-0.04626465,0.3348536,0.5035032,0.47483125,0.19606066,0.36313644,0.39260703,-0.23109193,-0.3674787,0.4402059,0.0914863,-0.03978853,-0.18745022,0.058448598,-0.15961649,0.49595305,-0.13972333,0.15680319,0.051637538,-0.19944538,0.27828112,0.10814738,-0.29678354,-0.13608609,0.10953114,-0.009451945,0.60626346,-0.0012028974,0.18062283,-0.19410807,0.025715493,-0.32316348,-0.23668426,0.18521214,0.17269431,-0.28695792,0.1427385,0.03921475,-0.2511136,-0.005139941,-0.016367197,-0.06318141,0.17576887,0.29153663,1.0
Backdoor.Graybird-349a9ef306724d4e0a569074528204ac93186fc10679de7c0fd4117b7e674adf,-0.087128595,-0.042032998,0.76222277,0.13315248,-0.8400903,0.2599493,-0.47549507,-0.15861577,0.019682731,-0.10031126,-0.23977654,0.26227507,0.30978253,-0.09474299,-0.50530136,-0.06704545,0.45510232,-0.08741539,0.07438628,-0.124274775,0.2739094,0.020302303,-0.27081406,-0.53437924,0.45394993,-0.13205987,0.2173699,-0.09892087,0.36127913,-0.25564387,-0.23757,0.23210748,0.11042563,0.040741082,-0.5129997,-0.24267401,-0.26520732,-0.113159426,0.16613781,-0.27038044,-0.13873746,0.23920903,0.17423776,0.043793254,-0.44736746,0.08519704,-0.07135456,-0.16468026,-0.104619384,0.4063359,0.07690529,0.4437792,0.14637904,0.24288931,0.02544871,-0.35631946,0.08250669,-0.17674765,-0.07274536,-0.0767663,-0.022688443,0.10782469,0.10486905,-0.25137585,-0.34875372,0.28344247,-0.11551619,0.394003,-0.38535497,0.24467209,0.27465385,0.49141407,-0.10222944,0.15399328,0.27510333,0.227435,-0.18434915,-0.0054988614,0.18559773,-0.19281904,0.060097218,0.19326508,0.2799931,0.24213699,-0.05003096,-0.63349956,-0.31133097,0.08683298,-0.22658233,0.2829153,-0.14053121,-0.07164934,0.5823145,-0.10335652,-0.26445612,0.34581587,0.19762857,-0.20065176,0.45413712,0.23786046,1.0
Backdoor.Graybird-34cb2e3660a417e83f902c990f20b3d0efa6e84ad20a7c769f2944cc333bc47b,-0.18556361,0.058451843,0.4619939,-0.22080179,-0.14208588,0.1722411,-0.7268512,0.12823203,-0.34190348,0.29576394,0.46606234,-0.31987828,0.40967414,0.065357015,0.012386226,0.01973721,0.20983724,0.02519074,0.123992525,-0.034592945,0.102263644,-0.2102257,-0.15368643,-0.2387971,0.1087588,-0.2330816,-0.19313382,-0.19638923,0.50044614,0.23527123,-0.013876768,0.04856855,0.5533461,-0.066852,-0.5391699,0.13740562,0.23383377,0.030128207,-0.04534966,-0.31396216,-0.020656988,-0.12162071,-0.012028836,0.20944469,-0.28155673,-0.033571795,0.0700689,0.038873017,-0.08449099,0.09002298,-0.1519077,0.02514383,0.10130626,0.32004613,0.5613564,-0.42745376,-0.010480499,0.3184579,-0.029058976,-0.49392423,-0.2499,-0.0053518508,0.29388586,-0.32379225,0.35775545,0.78143346,-0.032308556,0.1224191,-0.21353762,-0.030041602,0.18689457,0.20064133,-0.056343187,0.23813628,0.4862946,0.19135524,-0.2182203,0.07290475,0.15168744,-0.1858094,0.35900408,0.06785085,0.26129222,-0.279025,-0.013297724,-0.37828672,-0.035481125,0.067751415,-0.16020975,0.18740362,-0.20539781,-0.1867492,0.56951773,-0.44929352,-0.058516033,-0.10831317,-0.38733438,-0.4133305,-0.21729083,0.059279993,1.0
Backdoor.Graybird-3512ae0eba2c3f6e4e6195c0e1bd70b9a9e3b3d7708f403ed4b5e281e4a1a120,-0.50059396,-0.11287392,-0.16211624,-0.1792414,-0.17244309,0.30529058,-0.38852605,-0.11592363,0.10218105,-0.11752058,0.28879106,-0.19359106,0.33765596,0.41650894,-0.33938906,-0.076764114,0.19795516,-0.33763364,0.19760236,-0.25756425,0.37145054,0.0321461,-0.24151109,-0.5048425,0.3113045,0.17245577,-0.09275845,-0.073110126,0.06820026,-0.07488341,-0.1450337,-0.3354165,0.5123631,-0.25864998,-0.49495578,-0.007019363,-0.4019133,-0.15073411,0.026661111,-0.36762196,-0.2094959,-0.23466429,0.93776864,0.28055176,0.04620197,-0.16693261,0.10852346,0.16561608,-0.042449575,0.3097619,-0.016918082,-0.31870076,0.050039567,-0.08281323,0.26458865,-0.3137829,0.24168251,0.049940594,-0.06482092,-0.15424404,-0.19498703,-0.104880825,-0.22877567,-0.15681975,-0.14596297,0.35023367,0.21734904,-0.1916279,-0.4099986,-0.011976902,-0.06596144,0.18970478,0.08538866,-0.2382107,0.38232547,0.13356881,-0.22906627,-0.089642376,0.14160387,-0.38793844,0.046918295,0.50201607,0.057433955,-0.027790798,0.038821578,-0.694708,0.39842203,0.37358427,0.12096813,-0.26291543,0.030327966,0.22502285,0.26036966,-0.44651744,-0.20301709,0.46086884,-0.33305076,-0.022215953,-0.42987934,0.021374257,1.0
Backdoor.Graybird-35808e06d5ab73341611da612e9a37252f07f2bc7801725569ebb49895f59a05,-0.32713744,0.7310871,-0.032469656,0.36894554,0.011714025,-0.25081512,-0.28491688,0.0705598,0.28925237,-0.15828893,-0.50435436,-0.5214103,-0.01278855,-0.3020778,0.044102896,-0.11041558,0.14820848,-0.14632683,-0.05120207,0.56584674,0.028007174,0.24494238,-0.075755686,-0.43056956,-0.5294355,-0.030923162,-0.4601484,0.014933537,-0.27018315,-0.15172519,-0.14159489,-0.06675558,0.1474429,-0.09766509,0.018318227,-0.10762306,0.070141025,0.44840494,-0.21231803,0.08097223,0.020689555,0.16180024,-0.26209688,0.09261746,0.17013404,-0.020516576,-0.0468965,0.18160997,-0.04648024,-0.053689033,-0.2078458,0.13889074,0.14736396,0.10670388,0.18078896,-0.34096125,-0.21611045,-0.33114251,0.46248877,0.09706869,0.06358188,-0.34626886,0.18697706,-0.071243346,0.3061114,0.22807787,0.16608228,0.13126673,-0.11385423,-0.007191865,-0.22485282,-0.06393502,0.06633252,-0.033312082,-0.29285985,-0.120607466,-0.21819714,0.060280643,0.020505926,0.22669114,-0.117502466,-0.15813674,-0.01596602,0.07903236,0.061047897,-0.2891175,-0.012929413,-0.1385011,0.028696952,0.4301972,1.0298504,-0.4536893,0.01546765,-0.30194113,0.07035139,0.1249894,-0.17390029,0.011762244,0.00544513,0.0053544864,1.0
Backdoor.Graybird-365bea068bcb7c92f0dbf6868e8e6ac2d49feaae2d6464a4fbf9d4dc28ea4189,0.2789756,0.24691997,0.29896253,0.3442536,-0.39156327,0.09625046,-0.078769125,-0.15562624,-0.39515796,-0.003649455,-0.12821133,-0.17551348,0.0029229985,-0.21624644,-0.2157642,-0.4718493,0.037177656,0.02457212,0.17188452,-0.21285792,-0.059386022,-0.6402362,0.050252378,-0.2279867,-0.28205073,0.18234664,-0.20047748,-0.55079585,0.28111857,0.0986201,0.023094928,0.105447605,0.17699435,0.10009098,-0.07051594,-0.058138747,-0.16031948,0.29143274,-0.08089626,0.02168438,-0.1064862,0.030925548,-0.2948224,-0.66212904,-0.3190322,0.03842518,-0.14058529,-0.032392923,0.3949301,0.42640904,-0.33678803,0.21005218,0.16066241,-0.1335887,-0.0026449645,-0.25948018,0.45661113,0.16017152,-0.10443086,0.16833429,-0.15162918,0.13131681,0.32104594,0.03371092,-0.10589532,0.49873686,0.20179033,0.16250496,0.37080315,0.26158515,0.008209309,-0.012428521,0.19190994,0.02809541,0.46794748,0.25613388,-0.31081918,0.113311104,0.20487066,-0.21131039,0.14641397,-0.05770556,0.58704954,-0.18318203,-0.22452286,-0.4926278,-0.17478113,-0.12967625,0.3849688,0.21811315,0.03819477,0.09929672,0.37722617,-0.28462785,-0.07365178,-0.08786187,0.23828703,-0.23602237,0.103769936,-0.152164,1.0
Backdoor.Graybird-3796ba03a70668fe9a40cd399da7963d6dded9136682059f1443d5b493d37a83,-0.08910755,0.15862754,0.15264653,0.12805705,-0.5745807,0.0051710834,-0.794487,-0.032363605,0.15643522,-0.22570463,-0.17554523,0.20170812,0.15432999,0.4258384,0.13222426,-0.33937085,0.55663896,-0.037598602,-0.17617278,-0.034685906,0.1790705,0.083855495,-0.38511276,-0.20724578,0.7042509,0.49811256,-0.06507742,0.12329831,0.08595073,0.110388644,-0.61609024,0.16403817,0.4258412,-0.09578779,-0.13415201,-0.24145551,-0.17554876,0.17457063,0.019544406,-0.63257235,0.119555935,-0.21819872,0.26559883,-0.08468745,-0.4804348,0.486579,-0.04645339,0.18446758,0.1270147,0.09549587,-0.32454172,-0.18944503,0.08095491,0.08529753,0.34995097,0.058233984,-0.13007525,-0.21025148,-0.14431947,-0.34204456,0.07827016,-0.056535847,0.022411967,-0.31176844,0.38826704,0.59511596,0.23096402,-0.008381553,-0.13058622,-0.0802521,0.14449239,0.009903797,-0.0023786738,0.013574973,-0.11590422,-0.2242419,-0.19924703,-0.28808126,-0.35883734,0.072073944,-0.035718467,0.23867108,0.26370546,0.04757276,0.29852226,-0.49902552,0.18277851,0.21630901,0.19687493,-0.21928993,-0.16118169,-0.039166737,0.07182528,-0.10921629,-0.5295204,0.049443092,0.29250464,-0.02319439,0.10073371,0.2446217,1.0
Backdoor.Graybird-3799f857d04896d9155038342c96e32490cab5ce67ddf33dab263184d95ea41b,-0.49618992,0.07674774,0.38767,-0.2057155,-0.37448773,0.13748018,-0.30288398,-0.00021983963,-0.5236284,-0.36936125,-0.1689234,0.17480297,-0.044848163,0.06108335,-0.28786105,-0.26561415,0.50737566,-0.12813047,0.4033356,-0.5170583,0.17481099,-0.1437999,0.20556785,-0.22603396,-0.1990746,-0.040045187,-0.25980887,0.15479364,0.37992215,-0.25696382,-0.2973081,0.018903747,-0.22652368,-0.014980911,0.031737223,-0.019518467,-0.22466998,-0.067472115,-0.0014210929,-0.4007745,-0.17929104,-0.44972473,0.32645404,-0.08894328,-0.29238355,0.6230023,-0.2484487,0.028925575,0.075328454,0.12720768,0.029468734,0.14677079,-0.19660649,-0.12758751,0.2220484,0.030433847,0.3475755,0.08898841,0.262758,-0.197201,0.08455135,-0.10662037,0.08292962,-0.18070956,-0.008993714,0.69403875,-0.13547792,0.2791242,-0.29741964,-0.016111111,0.09291631,0.10232207,0.0075063957,0.2457839,0.5227156,0.00035696052,-0.16495791,0.11388344,0.10876873,-0.101904504,0.39007375,-0.05441729,-0.00088478916,0.010283893,0.37357238,-0.15558685,-0.17931528,-0.13553439,-0.1906915,-0.028369147,-0.14855897,-0.018636173,0.26461697,-0.042556435,-0.08773898,0.32476306,-0.051030125,0.21841307,-0.36455476,0.19864349,1.0
Backdoor.Graybird-3920bdcebc14233421ec142268749c0cc1358bba2af6e2e561ce3ac346db2d8e,-0.07505925,0.2081531,0.52466226,0.20712921,-0.8388628,-0.13012663,-0.5394253,-0.058178328,-0.82487553,-0.47818762,-0.55211556,0.12905982,-0.2816611,-0.5899441,-0.6881706,0.1580376,0.5909223,-0.13379148,0.5006802,-0.040530805,0.31108388,-0.05168527,0.03913417,0.05593724,0.19651414,-0.056055803,0.0577382,0.4541405,0.38962987,-0.42618427,-0.20930244,-0.14763565,-0.38831028,0.15788728,-0.15248458,-0.2188193,-0.10712819,-0.02005024,-0.30568945,-0.4326869,-0.18529855,-0.56036925,0.06744448,0.060810644,-0.47552717,0.44313833,-0.37024996,-0.3245593,0.21294333,0.41103938,-0.23499554,0.09334252,-0.46380943,0.10314489,0.21729498,-0.10800965,0.09603986,0.30385438,0.2279778,0.042936224,0.17662366,0.23123541,-0.071517825,-0.03540682,0.13864428,0.4726609,-0.093071215,-0.062387496,-0.1653118,0.23906109,-0.22485226,0.54129124,0.003966179,-0.012493371,0.2962405,0.21586788,-0.09451717,0.22147398,-0.35055906,-0.069921926,0.09223123,0.3217847,0.35087278,-0.10783859,0.08668672,-0.24144998,-0.46962023,-0.06851914,-0.2588174,0.1786631,-0.14188848,0.15432937,0.54334277,-0.2435841,-0.08346495,0.23832653,-0.1262703,0.314955,-0.105171524,0.32375905,1.0
Backdoor.Graybird-3a81fabef97e62aaefc48fa799a00c00d531afda4d49a58e90161dfef215d056,0.15227467,0.5819031,0.085561015,0.08501762,-0.35858,-8.391359e-05,-0.42178443,0.17347774,-0.68695676,-0.37666604,0.36553815,0.20475802,0.40449607,-0.45903218,-0.11967695,-0.54640496,0.37479493,-0.062032387,0.46175054,-0.01844116,0.5038043,0.3522893,0.12149426,0.18498178,-0.44548613,0.15469086,0.061193723,-0.28575173,-0.20740356,0.15476412,0.26536176,0.23552518,-0.027620643,0.24414119,-0.34720674,-0.16926183,-0.247073,0.33972824,-0.1867244,-0.18697926,0.0034132348,0.04425243,0.010244278,-0.46601483,-0.2232021,-0.2557389,-0.30148134,-0.053300448,-0.46137956,-0.06599903,0.083886355,0.52555215,-0.02702849,0.03635465,0.18340172,0.08237986,0.02003884,-0.18038797,0.12829123,0.17909391,0.008049214,0.092968665,-0.28189126,-0.22906496,-0.054947227,0.3133603,0.23514532,0.050189838,-0.22285815,-0.002487613,-0.08504533,-0.040095307,0.069929235,0.10565043,0.4602916,-0.4809803,-0.19717519,-0.335142,0.1576244,-0.037270345,0.47354975,-0.18005237,-0.059975557,-0.18081033,0.16545701,-0.3640506,-0.038264442,0.27154514,-0.19524798,0.39490995,-0.538628,-0.03327041,0.5561752,0.05302239,-0.16967699,0.23749384,0.6154734,-0.20797415,0.003374981,-0.04262678,1.0
Backdoor.Graybird-3ac9b0f65d3a26c5fe28cad9856d7119d2088f7cab78c37aa12348ea3b3bc000,-0.20458336,0.5121158,-0.1545579,-0.24305825,-0.4886164,-0.096090235,0.08246455,0.19853406,0.06083931,-0.3920428,0.1605254,-0.19701311,0.15858884,-0.1760579,0.17813694,-0.52326673,0.4940918,0.014206302,-0.363389,-0.068896346,0.45524338,0.35286605,0.11464086,-0.16937125,-0.2164074,0.34225175,-0.032468166,0.046129845,0.3705633,0.04455832,-0.06320984,0.16534306,0.36639202,-0.10175862,-0.06182298,-0.15326416,-0.4923907,0.012592305,-0.018089496,-0.60908884,0.1300662,-0.43468383,0.56992036,-0.21002583,-0.3906974,0.2446681,0.20949483,0.3203899,0.090219244,0.2655662,-0.30176073,-0.12180421,-0.050924532,-0.38193905,0.23698916,-0.009356792,0.16904788,0.15363576,0.49004698,-0.1225225,0.37571663,-0.2632163,0.18478696,0.029292574,-0.35109115,1.1127013,0.58482087,0.20420055,0.099429265,0.10576729,-0.15999556,-0.028390052,0.2721552,0.059216965,0.40231442,0.1883947,-0.33423573,-0.12485278,0.0011392493,-0.099559516,0.31966045,0.020357858,0.38894245,0.13226901,0.16523743,-0.53503764,-0.11885035,0.051558793,0.12500548,-0.035443407,0.06744293,0.21985316,0.5345346,0.06065525,-0.121662386,0.16991529,0.3640326,0.067491814,-0.59022945,0.12783304,1.0
Backdoor.Graybird-3b6230033969a93587fc1d795bd800de9478b437d400bfaa3a1fd7ab0b082102,0.16884738,0.27492365,0.621168,-0.27272236,-0.50658846,-0.4638544,-0.3216677,-0.2317561,-0.5039559,-0.20432961,-0.14354192,-0.27097103,0.10778305,0.14432123,-0.7121058,-0.013565601,0.39323878,0.24979489,0.3527276,-0.24259438,0.07114076,-0.30097768,0.12382315,-0.059477683,0.08582356,0.09663585,0.043858077,-0.0684354,0.006352979,-0.30087727,-0.18964215,-0.32081738,-0.24068813,-0.07457831,-0.014635605,-0.45564815,0.088570416,-0.13916548,-0.1272785,-0.27592263,-0.12709701,-0.055260062,0.2904665,-0.4316515,-0.38527521,0.06404104,-0.0701467,0.0050796866,0.36371022,-0.07408378,-0.19331309,0.07988228,0.07166761,-0.27624664,-0.11821663,0.042355917,0.45087236,-0.05808562,0.043166332,0.08843964,0.22471093,0.03985308,0.19130097,-0.1780009,0.122585,0.3596014,0.11691265,0.10698923,-0.11074221,0.075465895,0.10982634,0.7636553,0.26071876,-0.09867221,0.4660094,0.009154161,-0.2769115,0.14364286,-0.13275778,-0.029238237,0.1687153,0.11819054,0.21166037,0.1242682,0.13299915,-0.43826827,-0.2011687,0.21902347,-0.216821,-0.566152,-0.029480059,0.29861435,0.36427903,-0.14103577,-0.00059262896,0.07158894,0.012599375,-0.14449036,-0.21319823,0.098127216,1.0
Backdoor.Graybird-3bd529df6d6af1c83eca9ff3fd494825f98908773b73ab6023b2d08e30fc9141,0.22746165,0.10835621,0.5519697,-0.016615927,-0.12797382,0.057547323,-0.33107212,0.23135298,-0.4206939,-0.1551996,0.16840874,0.07617467,-0.18909632,0.05353785,0.13948013,-0.4295826,0.46080297,0.029209241,-0.03309111,-0.057865463,-0.12859516,-0.09407293,0.24140018,-0.026973601,-0.22460197,0.2460606,-0.13938734,-0.22023824,0.20485976,-0.06434645,-0.03111462,0.033656154,0.16206388,-0.2584135,-0.20533635,0.019343914,-0.22454639,0.20086503,0.3251726,-0.39033756,0.20586433,-0.2270511,-0.002326921,-0.8336893,-0.1837333,0.37271723,0.09877637,0.18668711,-0.07692307,0.50662243,-0.1597895,-0.086712874,0.3202122,0.23376544,0.5616408,-0.69246286,0.33798438,0.40940338,0.4874613,0.12274722,-0.032305885,0.033307247,0.2966441,-0.18850428,0.06757622,1.0977281,0.29273465,0.048558135,0.20913087,0.0055537946,0.090877935,0.5674715,0.2400877,0.29933092,0.4590952,0.02499403,-0.23491918,0.12842992,-0.075565994,-0.04190955,0.27779153,0.23492803,0.5310121,-0.3513168,0.19356969,-0.22428621,-0.20471029,-0.14591332,0.33490625,0.1576816,-0.41275817,-0.108984135,0.35746413,-0.22049679,-0.039994955,0.22369255,-0.2883507,-0.06665607,-0.49584013,0.017624645,1.0
Backdoor.Graybird-3d4c37580fcfcd3162538e57ebfd65f89caf379c9158dba626690d2ac7a24154,-0.4766287,0.11563348,-0.27945614,-0.13927749,-0.6402263,0.37825942,-0.21262552,0.50840354,-0.08121017,0.0037717016,0.22154666,-0.2930692,0.19425113,0.05453583,-0.5131687,0.20881023,0.2346389,-0.34300154,-0.24618044,-0.25342542,-0.22128114,0.15753478,0.22619602,-0.87451744,0.44483253,0.10769143,-0.19558017,0.30908713,-0.13442142,-0.1519702,-0.51433945,-0.08670944,0.7236587,0.61948866,-0.81762975,0.30637556,-0.49382922,0.28523037,0.16274533,-0.122902974,-0.024336215,0.17819266,0.08456279,-0.12414084,-0.749506,0.06817532,0.17947781,0.06538921,-0.14713198,-0.08351739,0.20705105,-0.0027332706,0.17166092,0.13774678,0.4224825,-0.081940204,0.44475058,0.10495283,0.61567885,-0.15110566,-0.30397433,0.15103748,-0.060813304,0.27161542,0.46557853,0.005496545,0.38230154,0.1616077,-0.36797997,-0.110802926,0.06254242,0.16617827,0.12471874,0.24496453,-0.057682738,0.016238915,-0.23505509,-0.26991615,0.10326361,-0.2852158,0.51863194,0.18774927,0.27384603,-0.20427158,0.21971808,-0.48189762,-0.5012878,-0.4423818,0.41564536,-0.006812712,-0.017206466,0.21764314,0.50662607,-0.38001618,-0.41858795,0.41795662,0.39400455,-0.23266734,0.04402641,0.024121715,1.0
Backdoor.Graybird-3f40d1874219ac8f6ba08b587a9547da773b0356b58e4d40f584b595740fa7a4,-0.16173705,0.066586725,0.27483642,-0.29519874,0.008231665,0.12532736,-0.16586718,-0.20304888,-0.32352662,-0.30270213,0.40545014,0.25516853,-0.059815384,-0.02221507,0.07939655,-0.32019994,0.15171137,-0.13224804,-0.21114682,-0.3223808,0.31236178,-0.017180819,0.024789413,-0.3181908,-0.049797695,0.1899505,-0.02729499,0.067608304,0.5819866,-0.17994642,-0.3797942,0.28671032,-0.105519906,-0.097376615,-0.07588909,0.060333017,-0.33728367,0.10668935,0.2658641,0.03567543,0.21164407,-0.053869005,0.20872551,-0.46606466,-0.38019067,0.4554324,-0.32516903,0.1978982,0.20350985,0.32133704,-0.2420719,0.25721955,-0.049422607,0.030581877,0.33418623,-0.005219215,0.45806628,0.1661983,0.06991206,-0.23859362,-0.004871319,-0.25392288,0.14279933,-0.12128213,0.10124659,1.278141,0.017225612,0.12323172,0.16138907,-0.09319453,0.051758036,0.22758009,0.035564434,0.12161598,0.6656124,-0.21859577,-0.20779026,0.21884766,0.19081143,-0.19059618,0.24003622,0.13544695,0.24334495,0.2013026,0.057226554,-0.2906017,-0.30771866,0.1216377,0.13464539,0.07519752,-0.18544409,-0.011336517,0.23737586,0.1889488,0.035981048,0.14886549,0.027506031,-0.023517856,-0.2945653,-0.09107606,1.0
Backdoor.Graybird-3f4164fb248bf610709ce9546b2e1a2463d08270db94dbd7b8e42d16023a71b0,-0.16609876,0.49971077,0.19914979,-0.236259,-0.5743384,-0.0016700624,-0.052989658,0.3344577,-0.40343288,-0.5513562,0.29795814,0.47208887,0.014610983,-0.22097635,-0.15565379,0.16601287,0.27891415,-0.49576154,0.06806782,0.018230714,0.21391474,-0.07161666,-0.12687752,-0.101327576,-0.06501987,-0.055361833,-0.18541671,-0.21393278,0.3468578,0.08391734,-0.24110101,0.10198718,-0.09689585,-0.15455164,-0.2287534,-0.015282218,-0.18411672,-0.030327475,-0.25219133,-0.38823122,-0.10480053,-0.11029793,0.4092719,0.25427043,-0.26233757,0.48435646,-0.19575241,-0.01911339,0.273883,0.2777871,-0.17860077,0.37000525,-0.18750264,0.31500927,0.6603984,-0.28570828,0.1373081,-0.19823024,0.3647101,-0.3401735,0.29082868,-0.047855955,0.22239228,-0.5664559,0.04553813,0.55953914,-0.0005726911,-0.026377615,-0.052497253,0.053998318,0.087477826,0.0743097,-0.03566631,0.030303419,0.4253722,0.16082995,-0.14064877,0.046778772,-0.07702577,-0.38325298,0.39076346,0.33125356,-0.050572533,0.25125962,0.14292432,-0.6398773,-0.0043610404,0.23072205,-0.2531022,-0.054288108,-0.060426496,0.21610035,0.50176454,0.11286576,-0.19081764,0.6416874,-0.09849766,0.44350663,-0.21877365,0.25657585,1.0
Backdoor.Graybird-3fb1f955c5fedc93b423be002cde34a6436194ec36974c890a015566749cbfc9,-0.24323405,0.05384624,-0.028394802,0.021895498,-0.5951158,-0.4505321,-0.25347805,-0.4196489,0.032161076,-0.26981354,0.12983935,-0.28493375,0.32700035,-0.3706167,-0.28012818,-0.28962597,0.31986856,0.20597945,-0.10778732,-0.29841545,-0.29181448,0.10050859,0.28324693,-0.3423485,-0.49762127,0.31907603,0.24077894,0.5502195,0.57528645,-0.58346707,-0.2543913,0.22509794,0.4983677,0.11905598,-0.2059925,-0.35839418,-0.79901344,0.05509207,0.13004363,-0.2654127,0.031120826,0.044002954,0.15968238,-0.33875215,-0.48661357,0.08011646,0.343053,0.38343158,-0.14946353,-0.39573994,-0.06045339,-0.39882264,-0.065030046,-0.063999094,0.1840276,0.3371477,-0.048527006,0.05164605,0.4265283,0.12782298,-0.06907248,-0.33035195,0.20193583,-0.16603795,-0.17887875,0.2931758,0.31779155,0.26970056,-0.52443147,0.19298285,-0.34661347,0.24161747,-0.34321836,-0.2592821,-0.10285705,-0.078529604,0.0700771,-0.02434242,-0.1230938,0.08586389,-0.21822907,-0.007571688,0.23657653,0.22237305,0.14152505,-0.1208188,0.15904711,-0.0645348,-0.14830749,0.34874824,0.679888,-0.07033049,0.14366312,-0.025619999,-0.0025098762,-0.103945486,-0.14823048,-0.10020892,-0.17822921,0.3449869,1.0
