,0,1,2,3,4,5,6,7,8,9,10,11,12,13,14,15,16,17,LABEL
Backdoor.Graybird-009a62c6f6543ec65460d9a3984fac8dd65aba2feacfa00e8e253bb474a417e7,0.9977729,1.0228761,1.157247,-0.53014404,0.40298867,0.33183894,1.0509759,-0.09364346,0.95030206,-0.0010737933,-0.88662416,-0.23164956,-0.10635173,0.23765439,-0.2617902,-1.134447,0.3617948,0.6785438,1.0
Backdoor.Graybird-02842b14fc265c045f10e2c5ab47c0b0a757c41d13a53194deb66aceb2e3993d,1.1626366,0.70032465,0.7869617,-0.43804505,-0.83712965,0.616685,0.93789583,0.049009193,1.1619186,0.020549802,-0.45370325,0.07523902,-0.33449513,0.34287065,0.31414053,0.4177569,0.70316947,0.55861044,1.0
Backdoor.Graybird-03b5962ef8b9c83fe0ed10fc4333a68462865f3a4442346c5f7d004a46555448,0.7521438,0.5676241,-0.086384416,-0.36805,-0.056395337,0.11270524,1.270361,-0.48468307,1.1998262,-0.48180324,-0.5887155,0.37144998,0.42695817,0.20964697,-0.25653777,-0.17386787,0.21743275,0.6024673,1.0
Backdoor.Graybird-049f53a05707c2cccd67540609368ef20f395327adb9a026267369d568f78c0a,0.62178147,0.4745088,0.3806109,-0.5922178,0.0003931509,0.28524423,0.6775466,-0.2929861,0.9345667,0.21088293,-0.37928638,-0.022012588,-0.48240638,-0.28433537,0.17853574,-0.028966028,0.4758963,0.34920424,1.0
Backdoor.Graybird-05339051a960d18fafb2e5d656e36b2fa007462d9a7b2fbfcb4532b3235ac5ed,1.0681721,0.4668092,0.93395466,-0.7974763,-0.45190498,0.8258968,0.2962315,-0.14508459,1.2126629,0.15714377,-0.68629646,-0.2506626,0.26264605,-0.34329638,0.04895112,-0.3287961,-0.016379496,0.69124085,1.0
Backdoor.Graybird-05bb2dcf38927dc99961deedaaff6ff120bdfd383745bac5aeb0c28340ea1010,1.6297827,0.4423134,0.7657756,-0.29591176,-1.3034308,1.3518919,0.21158363,-0.0067408835,1.3759588,-0.043981846,-0.12863623,-0.42390656,-0.29115695,0.40801412,-0.011199267,-0.12756668,0.28864905,0.20799696,1.0
Backdoor.Graybird-06ba9a22cbf334f6beeb0bc5302d3f0d6b7ad734c9ed071d6f279936a37f4687,1.5986623,-0.4393956,-0.44721317,-0.55842435,-0.85383415,0.7048745,1.0578201,-0.1677867,0.508896,0.21329315,-0.9211426,-0.82897806,-0.58024186,-0.13023284,-0.57188344,-0.2980375,0.16040167,0.7118028,1.0
Backdoor.Graybird-07adf0e72d58706d13117578493d64cc085811d7454fd598a805aa818a445f09,1.439563,-0.27682403,-0.36494267,-0.55290055,-0.989353,0.60277176,0.93786675,0.476104,0.56806177,-0.88799983,0.14583291,0.04345437,0.07537507,0.7592331,0.5672225,-0.18568014,0.6090863,0.5020235,1.0
Backdoor.Graybird-0814e28a9bbff170fb9257df3ad5cf8a27287f7c9001f15ea6a683c05e72095c,1.6595002,-0.30818987,-0.6757021,-1.101804,-0.96147627,1.2379073,0.22332133,0.1201163,0.069200166,-0.49659085,-0.24923833,-0.6162387,-0.5347386,0.29859725,-0.71888727,-0.20110127,0.89135665,0.018324405,1.0
Backdoor.Graybird-08c34b0421ec2fd129554058eb0e19111b167fdeee45c3c51252c4ace128e70e,0.20834926,-0.20574875,-0.11926356,-0.8303649,0.3860826,1.1095495,0.07331544,0.21113832,-0.25748095,-1.0899613,0.020573445,-0.40351272,-0.5891329,0.032931153,0.69658846,-1.5812719,0.5285123,0.7511009,1.0
Backdoor.Graybird-08c383b4ffb8ed9df7a17296ae0c1798d7f4b769f188d5eef55c77bb79dcd432,1.6707155,-0.22688024,-1.2602977,-0.65365213,0.03577737,0.74184006,0.17193756,0.16837004,1.2940239,-0.054679338,0.68031657,-0.608674,-1.0918038,-0.92951375,0.18071873,-0.9695388,0.4854345,-0.070297435,1.0
Backdoor.Graybird-08cadbda2bd111540dc25897982bc801f681dc16e0eba323973e193712332ef3,0.5459944,0.15749323,-0.5238525,-0.29751927,0.4432686,-0.015226123,0.30076322,-0.058616865,0.5446637,-0.5600752,-0.094629295,-0.25541827,-0.02522504,0.32241598,0.5204759,-0.9446602,0.5647302,0.5778428,1.0
Backdoor.Graybird-0904d313bde15d4656a630055d025d6a289de46fc2369597deb20d51da0ccd57,0.2767079,0.3845716,0.2615394,-0.6213151,0.16796166,0.1648197,0.44066483,-0.27741492,0.27507165,-0.38122883,-0.5668571,0.40684402,-0.08162639,-0.11259067,-0.0689308,-0.70275956,-0.09789512,0.363906,1.0
Backdoor.Graybird-095879f4cafe44bf45530fa8b6999d7361bdac2f041fc3c4e7afc1d80cbe914b,1.4972904,0.06607382,0.70469946,-0.77611333,0.5828628,0.6578136,0.47069305,0.2775104,0.43901277,-0.07912643,-0.549438,0.033481676,-0.6980528,-0.19253604,-0.25004032,-1.2581972,-0.0013744805,0.51189446,1.0
Backdoor.Graybird-09a45409e39fb3077d1e7fea751027d152dfa6d9bd30829749ff4ec5caecdfb2,1.4295826,-0.34539098,-0.63306504,-1.6694623,0.11078481,0.33332014,-0.257795,0.42562276,0.38659292,-0.4947269,0.5265761,-0.35221353,-1.1595325,-0.4148252,0.16223173,-0.6444267,0.8301498,0.5827111,1.0
Backdoor.Graybird-0a1311fceceea990bf446f7afa4fedcc6b7f8780afd4a6c87a31949818f87cea,1.1632732,0.49749282,-0.5844339,-0.11887093,0.52891475,-0.056249846,0.35463604,-0.5001516,0.91358155,-0.98328346,-0.23485503,-0.13137902,-0.075904615,0.47879675,-0.10474801,-1.1322726,0.07218249,0.23319036,1.0
Backdoor.Graybird-0ded1dc774b46d985a4e90a46f5d56a0047630d7a6e8df439870f7bb40b57a14,1.9420179,0.40686285,0.11299768,-0.48644638,-0.08018303,0.01639448,0.27950093,-1.4453166,0.28499863,-0.5763747,-0.25108096,-0.13404046,-0.39555562,-0.31315532,0.026745161,-0.49123204,-0.06661882,1.0043818,1.0
Backdoor.Graybird-0e4b24dfaad406b918efb40923889150f139511f43c56e34deac187d950ce03f,1.1822677,-0.3715009,-0.3598617,-1.7433652,-0.2899758,1.1896408,0.2999154,-0.0525254,-0.20405641,-0.52597517,0.30468667,-0.120993406,-0.28618258,0.2081328,-0.03720186,-0.15919293,0.5374567,-0.009482083,1.0
Backdoor.Graybird-0e9e218c49e56ec187e145db72a72726d50ae295f08b4bf344f19e13de603ba2,1.4028052,0.42790437,0.49553022,-0.4555498,-0.6929078,0.96765983,0.57775575,-0.13582917,0.9325778,-0.6595396,0.20274349,-0.5322686,-0.63251084,0.2989458,-0.018268952,0.038968056,0.31014624,0.097304955,1.0
Backdoor.Graybird-0eec1cf54f4696068a4411a96e8deb728f734fac856440cb5175b1204d1dd137,1.6630388,-0.0649401,-0.13331129,-0.6139697,-0.3613585,0.312692,0.4052622,0.02179537,0.99831885,-0.32788846,0.26738113,-0.0092532085,-0.441245,0.07535631,0.039858054,-0.29203275,0.87396914,0.324394,1.0
Backdoor.Graybird-10672ba06f9cceb9fb651a6338f13de953b8a97d9d5164acd08456fb7a974b69,1.1638533,0.08120209,0.64181995,-0.82770365,0.12140006,0.8291401,-0.11703933,0.21946277,0.82078785,0.069249764,-0.16164969,0.15507954,-0.48665664,-0.36103103,0.43079957,-0.85218245,0.558815,-0.10095649,1.0
Backdoor.Graybird-1078ebc75c7612450f362dc2e480699e1e6f21473898effad033a32e4e47d5ed,1.3171849,-0.48481974,-0.5708985,-1.1924351,-0.19684885,0.48978856,-0.31680343,0.43352675,1.0339593,-0.10520734,0.5394705,-0.31106633,-0.8820062,-0.32743588,0.28493455,-0.2796182,0.65421027,0.9284057,1.0
Backdoor.Graybird-1203e135f7e763fee8490a3e11c091a2a7617dc3e486d2bbe6ac81a32bc931be,0.5673419,-0.15075581,0.009419113,-0.8644264,-0.4751159,1.1588551,0.041825358,0.9076306,-0.0351394,-0.82521546,0.5438745,-0.65895134,-0.86234313,-0.41139704,0.60773575,-0.74850386,0.17395642,0.84937274,1.0
Backdoor.Graybird-12efad6f7e8313a41ffc7a49cdd612243712922f8d7947141e366574279077b3,1.7438766,-0.21962962,-0.9421049,-1.1729436,0.032875884,0.56305146,0.022282787,0.5880442,0.9343943,-0.17275842,0.9701336,-0.037817907,-1.178715,-0.7759476,0.13616957,-0.5912595,0.50660783,-0.30658662,1.0
Backdoor.Graybird-12f4f6331583edc2599a31940233f76e950dee226f92573abf7ad0bad10cb2c7,0.9797085,0.014694331,0.08999869,-0.946732,-0.16232845,0.7530995,0.35456163,1.1564461,-0.27949485,-0.29868245,0.6636519,-0.9536943,-0.36380923,-0.6240103,0.06824781,-0.9927827,0.33126923,1.0215385,1.0
Backdoor.Graybird-143c25c7cc08038a40638df3cd01232232baed4a9469f356efc615b5041c794a,1.4617485,0.15213208,0.68673915,-0.37343702,-0.67945194,0.9344308,0.10964961,0.36650366,1.0615379,-0.56851035,1.4277254,-0.024885474,-0.5205927,0.11424853,0.1382584,-0.46888405,-0.31048948,0.13895126,1.0
Backdoor.Graybird-14818f4633cc87ac1b11b53895daa6cbc595065596c7ea86f807fb1a1ad79b72,0.8708951,-0.036803655,-0.027858164,-0.63001853,0.0028753227,0.8601091,0.7054179,0.5315965,0.4643219,0.41018066,-0.18214792,-0.9791053,-1.1295124,-0.08952475,0.1331327,-0.34623,-0.40859446,-0.080159664,1.0
Backdoor.Graybird-152a87566246d7b100a299d29e34ce080c52e714e0c2883b904d85c1144de18d,0.9628318,0.2574136,0.115998484,-0.54413044,0.1036675,0.64050734,0.35987395,0.1470703,0.61294454,-0.46335208,0.8142007,-0.4739561,-0.6029584,-0.3447991,0.16491944,-0.49796063,-0.04272571,0.0054111495,1.0
Backdoor.Graybird-16274674297d97fdb7c53027a4e6facd681428961e31bc85dfff497056b071a4,1.2212064,-0.006263667,0.22149491,-0.078186855,-0.6022568,0.6916333,0.34924105,0.8139087,0.9594423,-0.75588906,1.3085005,-0.15480319,-0.8075197,0.38214216,0.643726,-0.59030825,-0.46705914,0.4422552,1.0
Backdoor.Graybird-16648fd7040db9b96d76e5f70711e8c62721035832f7b87594d62b0dd9b865ea,0.48328102,-0.13773662,-0.3877165,-0.7243014,0.33687454,0.32867572,0.23400623,0.38862327,0.2465553,-0.048154462,0.6916297,-0.5894205,-0.77625084,-0.45018104,0.07735909,-0.8663133,-0.1438785,0.38101193,1.0
Backdoor.Graybird-16ce6a8444870c762676cc776860c1ff7daa2a2dc76abd29136a36d6538bba8a,0.51010835,-0.25018707,0.082772054,-1.0500768,-0.65217537,0.6099282,0.049342476,0.918877,0.029322911,0.080020025,0.7441427,-0.49970886,-0.32160768,0.05034551,0.011235273,-1.0826886,-0.17171967,1.1180404,1.0
Backdoor.Graybird-16dc33ad95a90a03f9489182cf6061392a79cbaf96cceb87bd3c6c664daff4a3,0.5248756,0.525213,0.16993903,-0.35780072,-0.23571348,0.233608,0.56220174,-0.074848175,0.4285126,-0.0923836,0.22771144,0.49515945,-0.042140316,0.34130186,-0.13108945,0.19158484,0.04172654,0.34106722,1.0
Backdoor.Graybird-16dc7da8aef050616f3d99fd34b3f0410ce6a38f5a61c9ebc8e86e87195c4be3,0.4842706,-0.0525843,-0.3536744,-0.72052234,0.06345758,0.46434873,0.28805876,0.4405566,0.26477122,0.1144069,0.2073468,-0.899159,-0.8013469,0.22797346,-0.054491315,-0.22999054,0.033287838,0.43090817,1.0
Backdoor.Graybird-1966b6b19ef74c24f458b6477ccb7e8c8427df6d65ea4dc5e0bffb811fbba2d7,1.3643163,0.6043586,0.81000966,-0.6711398,0.508573,0.3343811,1.1563122,-0.34023437,1.0438684,0.019043563,-0.19584611,-0.69651467,-0.22239394,-0.04805584,-0.039097685,-0.8285778,0.000152088,0.83690363,1.0
Backdoor.Graybird-1c7dfb9affef8bef118a41d36e3e8c413f3076918a8821efeb3721af52ee5c52,0.35613677,0.19853903,0.37253258,-0.54332256,-0.03864497,0.1492505,0.7755437,-0.14393477,0.2742313,-0.23531312,0.6567842,-0.6710983,-0.81744033,-0.303549,0.13802224,-0.72709376,0.19492735,1.2255275,1.0
Backdoor.Graybird-1cb523870e23e55d0d36af5a2e10472ac25390d3838c52c35b1106034132aad5,0.5031336,-0.17332762,-0.00042871194,-0.562629,0.396832,0.54372346,0.44252035,0.5411379,0.3460244,-0.45274612,0.31318307,-0.6894882,-0.7919724,0.17883638,0.14690077,-0.5153634,0.25933567,0.59749967,1.0
Backdoor.Graybird-1d17564930dc9cfdb8bf4483ba9763d17dd3f549facfdbe21ad18447663adedd,1.4255879,-0.40134373,-1.2101507,-0.90643096,0.30784062,0.8893944,0.17143187,0.24907044,0.98618895,-0.004974671,0.92390937,-0.3824633,-1.3043841,-0.9087224,0.22644678,-0.6374496,0.005046628,-0.13933566,1.0
Backdoor.Graybird-1d2b95795f54a30db2241b441843c8baa1319704e0bd48f022ac919e71899787,0.41587728,-0.18343121,0.23479263,-0.47543693,0.11360594,0.279468,1.5555143,1.0103024,0.5602139,-0.28378028,0.28154033,-0.08600185,-0.108396485,-0.284252,0.6321183,-0.9377479,-0.263721,0.8349518,1.0
Backdoor.Graybird-1f987748aa836fcff784691f0f5195eaed0187c12906f016b7bbad1f9b10d20a,1.2265301,0.038496464,0.23330665,-0.30986583,-0.32662904,0.8733126,0.68385917,0.77017087,0.7644082,0.17533316,-0.014618216,-0.8009164,-0.7608649,-0.02774833,0.007131017,-0.5912216,-0.2595092,-0.19122367,1.0
Backdoor.Graybird-1fe3c46136004caa9f4598dbd12db50b539bc0e44de422870a0150ccdf6c4297,1.6531476,-0.19022366,-1.2468747,-0.8953242,-0.073221914,0.80786765,0.30253714,0.25234127,1.2906665,-0.021802958,0.9603497,-0.5930707,-1.0730668,-1.2376813,0.25864038,-0.63563526,0.15540062,-0.10799192,1.0
Backdoor.Graybird-201267f2b8c394b866ce09e16997ce04701a0bdaa1f5651e81d1675af4a567a6,0.98650414,-0.1940881,0.23254086,-0.7929326,-0.07299323,1.026006,0.7293174,1.3677268,-0.057708465,-0.36354476,0.6137329,-0.8347086,-0.49984282,-0.5816223,0.15287434,-1.4214015,-0.13499914,0.92133605,1.0
Backdoor.Graybird-20459a8ebc99703a2171b85dc321c41ccb8fdd67b606ac75c890156db25d67e2,1.177888,0.17717665,0.89563084,-0.6231288,0.26747018,0.53551733,0.67805535,0.35541806,0.44235173,-0.037808076,-0.8204235,0.43065438,-0.27887508,-0.19629334,-0.31747335,-1.2986966,-0.21301043,0.69813097,1.0
Backdoor.Graybird-21f994f2239ccaaddf25e98859f58e609dbc589127160c943dd884506d0f1e95,1.1787378,-0.7682661,0.2607571,-0.39000994,-0.44379854,0.7624894,0.5694187,0.56763095,0.3518168,-0.5169391,0.2992211,0.2227678,-0.5867192,-0.09081901,1.1721343,-1.2879764,-0.012895046,1.5292364,1.0
Backdoor.Graybird-22772293d3a3b20b3610ae1c06ab72da41745c57356905855180b45c5d43ae96,0.7785091,-0.57219446,-0.6378883,-0.86780334,0.0354372,0.21729146,0.6172809,0.7079523,0.8710399,-0.39460775,0.25583416,-0.5403948,-1.0309421,0.21884404,0.3289119,-0.26674137,0.46493688,1.0642562,1.0
Backdoor.Graybird-22c98fc9dac84f509083a90a332517ead8eb265fc53ddb1d16e5cfd0dab0ebe1,0.84085786,-0.11442245,0.1980489,-0.54547846,-0.15763,0.82359827,0.16746148,0.7790838,0.038034163,-0.6637323,0.2501531,-0.35342157,-0.16205646,-0.3045009,0.7671589,-0.7108311,0.10605613,1.2430037,1.0
Backdoor.Graybird-23259ea20d4f481cdc1bf58894f6280ddbe3fc56d7bfbaaf11bafdf4840f8c2c,0.07945217,0.31297165,-0.43801385,-0.69775563,0.24461332,-0.21791472,0.46459627,0.456671,-0.18041596,-0.42567396,-0.049049083,0.75583583,-0.52152956,-0.37433544,0.14953871,-0.5860693,-0.30636752,0.36284623,1.0
Backdoor.Graybird-2486e00f3531d89506d2a87525b723d2508b4b8c0040824956aeca41b97d17d7,0.4131581,0.039935958,0.70879346,-1.2338905,0.2298787,-0.05216818,0.59899354,0.8668038,0.31146395,-0.82475704,0.7282122,0.10628816,-0.57055026,-0.114896566,0.9278892,-0.6882443,-0.41005656,1.3379368,1.0
Backdoor.Graybird-2565563f99f161ad465a603000f5a2440b83b12413930bac01d20c6d3924f79e,0.9171004,-0.10870109,0.4281288,-1.1269176,0.24943325,0.1627002,0.99925876,0.13682501,0.22080941,0.21380603,-0.42284727,-0.13865185,-0.14841883,-0.73209435,0.0008103947,-0.8601865,0.09643337,0.86903846,1.0
Backdoor.Graybird-272ea0be5ed16c1b6a1d0149a85107e382cf7dab94eb40fb49ec17acd3c00b0b,0.36707473,-0.20253366,0.53512585,-0.94819003,0.21004698,0.45181698,0.73142815,-0.15363726,0.36716357,-0.33902764,0.46141487,-0.40808403,-0.08870691,-0.3678123,0.8786867,-0.4439219,-0.59160274,2.0073612,1.0
Backdoor.Graybird-27c0a52403d572f0ee5abc626a7f5cd834ed6a5b7eeebeadc848a5cc091eb5d1,0.98754555,0.8290763,0.4486568,-0.44894588,-0.88252723,0.098218106,0.12637733,-0.47588393,0.9240035,-0.03191553,-0.46597847,-0.22997528,0.2829507,-0.57383156,0.44471654,0.30893514,0.022501042,0.8316953,1.0
Backdoor.Graybird-27d4f0a222bbb2285e395dcbed061a6eeb91a69d6c8cab8c98fd1ffb244c699a,0.9007651,-0.3659068,0.0137671195,-0.8176785,-0.39785424,0.06919456,1.0618519,-0.71591324,0.45803636,-0.032275137,-0.037807018,-0.18713345,-0.18999714,-0.10096271,1.1185763,-0.20163392,-0.19022101,1.3898201,1.0
Backdoor.Graybird-2821c9781c0351109c2a8b9633972e2c71f46371b648d2103c2741f560b60a1b,0.43008116,-0.11628109,0.25161764,-1.2601444,-0.9053463,0.8081457,0.11788758,1.2667701,-0.12038976,-0.3090045,1.2710663,-0.66308045,-0.38184372,-0.04169956,0.15139675,-0.76285374,0.2018808,1.1851187,1.0
Backdoor.Graybird-2860ba35f778ed52b8487fe93a77c05a2d49222ba8f6cb81877c1779d13c1f4a,1.0601996,-0.062805906,0.74663275,-0.9017862,-0.26066005,0.2452013,0.67912906,0.02296112,0.3201482,-0.3530741,0.2981091,-0.28876162,-0.4942015,-0.109561734,0.722284,-0.762624,-0.28861183,0.9548122,1.0
Backdoor.Graybird-2a1858cfa17d4f07292362a2719d61c97a487d29a5adf45d8e8b32f3252331a2,0.5052022,0.877131,-0.094327025,-1.6308784,-0.7259736,0.2464836,0.18855333,0.038487673,0.44465816,0.14007014,0.14956947,-1.3101422,0.2544411,-0.05567568,0.30604675,-0.519466,-0.5549028,0.43225664,1.0
Backdoor.Graybird-2a7c74a91f4b6f4ed632d97fc3ee8835a7a615cb15dbf6ecbb96526d06f64db6,0.56572807,0.5268378,0.25101957,-0.35677725,0.11248899,0.23068997,1.0810745,-0.50634754,1.0362644,-0.43322638,-0.40174377,0.42011115,0.1884239,0.26343793,-0.3514631,-0.14756545,-0.16377887,0.7165994,1.0
Backdoor.Graybird-2b470ddd183ec9f15d7cef2e1f2daf7243e1deef16fb6e74cb75b67c5d25df18,0.7831302,0.2856042,0.18918455,-0.9179174,-0.66091835,0.36922637,0.77742183,-0.053294063,0.7181272,0.0056227003,-0.11280786,-0.66716474,-0.29809463,0.5729426,0.027126,0.1850783,0.12382678,0.1964279,1.0
Backdoor.Graybird-2ca870cb512099a0df67fefee9eb2bf8fd53cc078919852144d6cbff26456347,0.8361335,0.23734798,-0.1543471,-0.84931237,-0.16673858,-0.13514005,1.1630584,-0.5541118,0.7630188,-0.058398005,0.4769151,-0.9021792,0.3593826,-0.46108353,1.4710666,0.18723035,-0.031856433,1.7991298,1.0
Backdoor.Graybird-2ec9be730d82cf10af338e7f25781006744b9dda9c9ff484acfd2de501b05e24,1.4932376,-0.05709535,-0.35589734,-0.36422217,-1.3763678,0.54974777,1.1449691,0.49410003,0.9625036,-0.51257926,0.51482993,-0.5461901,-0.1359213,0.5722546,-0.10295868,0.54382324,0.24975488,0.556311,1.0
Backdoor.Graybird-31e4807b0f375d8f919a3037f2764686a46d2e41bd957f8edd8f771621a3e53f,0.94373643,-0.25126147,-0.16661373,-0.39196497,-1.4280545,0.574355,0.67883915,0.6158179,0.7191881,-0.6627936,0.2840448,-0.38990015,-0.44856235,0.6196181,0.466822,0.13807058,-0.35693395,0.7325473,1.0
Backdoor.Graybird-32cbc565918830a83537aef008c3587ea24d2172c7ed3563ac2f4a7506a7a00d,0.99556214,-0.03436065,0.5187565,-0.9042901,-0.8640829,0.2971349,0.91780394,0.9017473,0.99758214,-0.36826518,0.49911445,-0.18122281,-0.3077607,0.025007665,0.62834674,0.05857749,-0.42674667,0.85260445,1.0
Backdoor.Graybird-33e8337aad51e26cebf92f17cdc0c3ffa5ed55c74de4e7cd5b92db2d75e15339,0.40336898,0.4289024,-0.07165285,-0.25580844,0.244699,0.30441612,0.74142355,-0.23460867,0.6987266,-0.15478842,-0.21845044,0.21951234,-0.022248918,0.40754557,-0.13981456,0.13383749,-0.0072010085,0.49292096,1.0
Backdoor.Graybird-340c5cae28749592b0ea9453bd4f7d109b2fe2c8a03041e5da9961a7339eaa34,1.659916,-0.25234962,0.20762868,-0.83836365,-1.2629238,0.6373965,0.47149915,0.8728603,1.1241856,-0.5411572,0.43583384,0.19598277,-0.039463688,1.1427064,0.26963228,-0.12845105,-0.14110309,0.61097693,1.0
Backdoor.Graybird-3472255f40fa8003a08d8c641d9d2c5d0f749bf4c0420fc9a22040103a97c35b,0.5162302,0.7464713,0.37913138,-0.32488364,-0.47189498,0.28572366,0.45863146,0.24478863,0.42782786,-0.0059793266,0.13108645,0.41720384,-0.29446626,0.52889204,-0.19298781,0.3550387,0.43718198,0.40804824,1.0
Backdoor.Graybird-3473cb362c74478f5f8d200d068fbf1806d2dca138264e942574fb7abd324b42,0.2792008,0.18218663,0.7279252,-0.9826963,-0.7529501,0.3278805,0.63294816,0.83579975,0.52436626,-0.53115845,0.8434791,-0.15740754,-0.114554,0.03623229,0.8390867,-0.20757769,-0.4787727,1.0009897,1.0
Backdoor.Graybird-349a9ef306724d4e0a569074528204ac93186fc10679de7c0fd4117b7e674adf,0.83034015,0.37050912,0.026485305,-0.4932115,-0.9670611,0.8929658,0.38188866,0.53932625,0.86717653,-0.37165397,0.61656475,-1.3815621,-0.8435131,0.71515775,-0.06748729,0.024066614,-0.56802404,0.12813313,1.0
Backdoor.Graybird-34cb2e3660a417e83f902c990f20b3d0efa6e84ad20a7c769f2944cc333bc47b,0.5626987,0.12738109,0.5679037,-0.9779281,-0.6095363,0.12060026,0.43488935,0.81537586,0.91519856,-0.3119537,0.7964364,0.0250377,-0.57365507,-0.2243649,0.7732202,-0.029075617,-0.29997194,0.5544809,1.0
Backdoor.Graybird-3512ae0eba2c3f6e4e6195c0e1bd70b9a9e3b3d7708f403ed4b5e281e4a1a120,0.8457002,0.8356432,-0.2899661,0.05406276,-0.4984004,0.3221003,0.0073695253,0.7044892,1.0556431,-0.53484994,0.12777853,-1.2477367,-0.23726685,0.15280668,-0.15845221,-0.2470244,-0.3058053,0.22823212,1.0
Backdoor.Graybird-35808e06d5ab73341611da612e9a37252f07f2bc7801725569ebb49895f59a05,0.06727486,0.49626705,-0.811944,-0.04815241,-0.095795155,-0.114153504,0.4458322,0.08389274,1.2892523,-0.30136198,0.06836813,-0.4606479,0.47082466,0.043566234,0.3780732,-0.6698113,0.27957714,0.3566025,1.0
Backdoor.Graybird-365bea068bcb7c92f0dbf6868e8e6ac2d49feaae2d6464a4fbf9d4dc28ea4189,0.85725844,-0.24435665,-0.31123143,-0.37937737,0.009508383,0.2086342,0.08855784,0.4636773,1.1777539,0.19732101,-0.04180169,-0.50505763,-0.37732163,0.35911956,0.39293638,-0.1413148,0.40704232,1.0229906,1.0
Backdoor.Graybird-3796ba03a70668fe9a40cd399da7963d6dded9136682059f1443d5b493d37a83,0.7249644,-0.3178379,-0.4262754,-0.59234273,-0.09813864,0.27297938,0.20407589,0.21954381,0.64384365,0.10943175,0.073020846,-0.7381126,-0.44727883,0.10969769,0.55724293,-0.54150563,0.74200237,0.77687585,1.0
Backdoor.Graybird-3799f857d04896d9155038342c96e32490cab5ce67ddf33dab263184d95ea41b,1.3980827,0.036944687,0.12031854,-0.016728405,-1.1020957,0.67621505,0.5820508,0.2578221,1.2522324,-0.6272522,0.15007594,-0.7521967,0.03217676,0.17933309,0.27487886,-0.20649265,-0.020830918,0.5348143,1.0
Backdoor.Graybird-3920bdcebc14233421ec142268749c0cc1358bba2af6e2e561ce3ac346db2d8e,1.6463956,0.29804045,-0.18435054,-0.40023035,-1.301391,0.27619964,1.1253263,0.5969526,0.9690825,-0.61076725,0.2514904,-0.63149,-0.23211348,0.59228325,0.059473496,0.38100076,0.5690153,0.7030333,1.0
Backdoor.Graybird-3a81fabef97e62aaefc48fa799a00c00d531afda4d49a58e90161dfef215d056,0.6753091,0.80939376,0.6602662,-0.21636853,-0.38969654,0.2470628,0.30601993,0.112872794,1.2981596,0.12565157,0.0026975172,-0.7334729,-0.52853274,-0.6630965,0.31019503,-0.37281734,0.0840216,0.27041134,1.0
Backdoor.Graybird-3ac9b0f65d3a26c5fe28cad9856d7119d2088f7cab78c37aa12348ea3b3bc000,1.4260356,-0.37167463,-0.32101226,-0.6953405,-1.0711892,0.6229085,0.93942744,0.32378283,0.6920874,0.26216093,-0.9074839,-0.6060993,-0.5358189,-0.067652434,-0.66697025,-0.2694378,0.092043184,0.6866844,1.0
Backdoor.Graybird-3b6230033969a93587fc1d795bd800de9478b437d400bfaa3a1fd7ab0b082102,1.2392598,0.20923491,0.13556997,-0.4920204,-1.1602712,0.56669533,0.49123442,0.38853878,1.0400213,-0.26806238,0.23354542,-0.55016154,-0.25341734,0.08580278,-0.31876022,0.07563484,0.64664745,0.29880112,1.0
Backdoor.Graybird-3bd529df6d6af1c83eca9ff3fd494825f98908773b73ab6023b2d08e30fc9141,1.1146758,-0.3475472,0.10834535,-0.3253784,-0.7462983,0.4296797,0.09824174,0.86113685,0.92436963,-0.48153687,1.0615106,-0.0062277466,-0.8122707,0.47701684,0.9094576,-0.40165108,0.30167514,0.8990547,1.0
Backdoor.Graybird-3d4c37580fcfcd3162538e57ebfd65f89caf379c9158dba626690d2ac7a24154,1.4260895,-0.19420849,-1.0379735,-0.8721066,0.004305814,0.6357668,0.29756597,0.42984807,1.299987,-0.07395686,0.8382826,-0.503132,-1.0340911,-1.0007327,0.33016726,-0.6264763,0.4228863,0.100806914,1.0
Backdoor.Graybird-3f40d1874219ac8f6ba08b587a9547da773b0356b58e4d40f584b595740fa7a4,1.7288241,-0.37147167,0.50964755,-0.22948918,-0.65172756,1.1414403,0.12616523,0.32931915,0.6612148,-0.526513,0.7816709,0.43640015,0.36201882,0.05480536,0.7652335,-0.6952176,-0.012230176,0.8921446,1.0
Backdoor.Graybird-3f4164fb248bf610709ce9546b2e1a2463d08270db94dbd7b8e42d16023a71b0,1.5004659,0.55725366,0.34729505,-0.3779497,-1.0080136,0.64361733,0.75769234,0.4214951,1.0293585,-0.5757164,0.4437627,-0.29516065,-0.094376296,0.24933039,-0.37786824,0.16627896,0.2514223,0.22776823,1.0
Backdoor.Graybird-3fb1f955c5fedc93b423be002cde34a6436194ec36974c890a015566749cbfc9,0.79301876,0.27223447,-0.17577617,-0.67405826,-0.09838255,-0.04631119,1.2956556,-0.40506604,0.7350679,-0.17844203,0.37264565,-1.0713686,0.33661202,-0.31268328,1.304548,0.07351636,0.085859835,1.7370577,1.0
Backdoor.Graybird-4038529ffe618fbca7b702da5a4588bf4f827bfe34e22bedebc16bea8ac5cd5b,0.88596755,0.16294998,0.28060585,-0.5402679,-0.40306288,0.31333724,-0.22589068,-0.0045807553,1.3256466,-0.36439002,0.18747108,-0.33640411,0.21657425,-0.07484603,0.28857744,-0.51014596,0.1608532,0.86761385,1.0
Backdoor.Graybird-43915d2a212d5620489fc5dbbbf17d934ab474e34a1058aa28ea2ae0160d6a7e,1.4469153,-0.42563912,-0.65458846,-1.194693,-0.3371183,0.49587092,-0.40948784,0.57853764,1.3027569,0.007173998,0.3691373,-0.56950474,-0.5532599,-0.2637981,0.38099045,-0.44732344,0.6447989,0.7229273,1.0
Backdoor.Graybird-442eb6cd344fcc9a88b1ef5a28e662ea6a9415ff012b27b75ca3b8c07af9ae61,0.10270933,0.5882583,0.20620155,-0.9185278,-0.88784325,0.5388119,-0.1276583,0.56162775,0.12881881,0.18398632,-0.25570434,-1.0802251,-0.023199556,-0.15928613,0.21403755,-0.5185925,-0.45549396,0.6510513,1.0
Backdoor.Graybird-45133c62869e94f748e8f947328388b6cf1190cc750f712e25695ff4e87a8ec0,1.1036198,0.509339,-0.024935644,-0.909333,-0.48044837,0.04975249,0.5505731,0.2688787,0.6820881,-0.078737676,-0.25464022,-0.66367674,-0.12935242,0.6386403,-0.22784679,0.16544789,0.6246346,0.26705533,1.0
Backdoor.Graybird-4611ce9f971ce2a63d17317779aaa34aebb478c1a91c3031abf37b39a0e8a754,0.97751296,0.012698632,0.26292318,-0.98464584,-0.40606973,0.6752829,0.20731682,0.34349594,0.36693612,0.27304998,-0.6564165,-0.568352,-0.048972636,-0.07340611,-0.25109565,-0.3202382,0.08164223,0.5808783,1.0
Backdoor.Graybird-4768fb2a55ff7a38d1c9f26c22517c25e81050233f75a43909f56cf2bab55549,1.0047997,0.71593916,-0.07552144,-0.39408898,-0.14133126,0.4825683,-0.5437201,0.89344597,0.5594002,-0.14061606,0.14976403,-0.91423744,0.064615995,-0.45344433,0.015543253,-0.25795156,0.1989081,0.04266165,1.0
Backdoor.Graybird-48641176d1e0ac527a5bb4a797afe8ebddb93625bfb2e7878a0cd40164988326,0.56930697,0.44859898,-0.02502758,-0.048987962,-0.3709097,0.14390494,-0.40957534,0.41831714,0.8502663,0.17086798,0.0483446,-0.15044397,0.52587324,-0.15346809,0.07609184,-0.914892,0.36474612,0.56504184,1.0
Backdoor.Graybird-4873836e446dfd4e56e491364059f5f6642b9e62c3af541249d2a58f060d810a,1.0079399,0.15670942,0.6136416,-0.7412983,-0.42678452,1.225595,-0.03199813,1.1883798,-0.5282004,-0.1395083,0.4482469,-0.8627102,-0.249436,-0.8274597,0.08447143,-0.919311,0.58851916,1.0317854,1.0
Backdoor.Graybird-49584192e192cd599da8b7891636d00d60f6e3a1714cec9384e53f0c3ff64dad,0.84498686,0.69781107,0.31232753,0.039692257,-0.8062325,0.30646163,-0.07514571,-0.27816048,0.69788504,-0.25739175,-0.35880807,-0.34246477,0.5589201,-0.57671547,0.5092295,-0.061891116,0.2095682,1.0187179,1.0
Backdoor.Graybird-4a7c1f06c02316a383b3509b0530d50eea0fc52e3292f80ef6d99337ed1976cf,1.0531026,-0.09363008,-0.02272632,-0.5832715,-0.9860458,0.9974158,0.24095343,0.13557985,0.09680285,-0.39329308,-0.13478765,-0.47512478,-0.13335991,0.20432484,-0.16856389,-0.31456143,0.46627885,0.2183001,1.0
Backdoor.Graybird-4b3805331f864f1002915b1b89e8f70643baaf6b43b688a32c2cb3810ffb3b4a,0.22289789,0.115619935,0.300733,-0.31806564,-0.15918313,0.67359155,-0.09876539,0.9078706,0.21743037,-0.71210575,0.2600795,-0.4553747,-0.033530947,-0.2981469,0.68398684,-0.93537086,0.36715996,1.1304623,1.0
Backdoor.Graybird-4ee3bccc014a06cfedefb088d22c918bad78cbcb74568815a14ebfbbcf119d37,0.77770627,-0.1491512,0.23949067,-0.29310983,-0.17222638,1.1673218,0.1864405,1.0687869,0.34218,-0.4539068,0.42401293,-0.62747484,0.14656442,-0.19616686,1.0672702,-0.9545718,-0.27859893,1.3215302,1.0
Backdoor.Graybird-4fa0fe574b88526a330dea8e92ead1925846131a452b09c7a42eeee07e2be5c5,0.16654174,0.2781588,0.25933203,-0.80193007,-0.6393768,0.52096504,-0.43587407,0.8907309,0.028827462,-0.54607886,0.35579395,-0.66637063,-0.39042026,0.43263307,0.45221847,-0.70777315,-0.26245147,1.1622299,1.0
Backdoor.Graybird-4fb50e21fca67a80c0600b322ca12170a8283b4b04073cc330aefa42e3f01cb1,1.177172,0.94525677,1.0261769,-0.43698788,0.30224505,0.33844045,0.46881407,-0.020452969,0.6653318,-0.27400824,-0.9641488,-0.008854714,-0.27890098,0.17180318,-0.07995943,-0.9478206,0.48696485,0.98318315,1.0
Backdoor.Graybird-50d21079164fd8e7d563e365422688728379b15b4239beb025e4109a16f4f758,0.4447783,-0.04461795,0.76195866,-0.9409267,-0.52062464,0.39489388,0.5707478,0.6557433,0.7249157,0.048399713,0.1824493,-0.32366544,-0.0046188873,-0.18445893,0.7630337,-0.7691488,-0.10308803,1.4038419,1.0
Backdoor.Graybird-51500e8ba9a95263700256b5b7b75c162508a80b3de7f0eb946ecacf98d78ff7,0.53547955,0.41167653,0.71687496,-0.54573214,-0.7469677,0.7481665,0.19380385,0.08305772,0.21260554,-0.50235295,0.19754007,-0.062537305,-0.20620373,-0.31796947,0.100361854,-0.24058862,-0.4533188,0.2953182,1.0
Backdoor.Graybird-51faade6c8030b7f7b359977e1d699538610f96747fa89f8a1b0ea49926cdd36,0.86892515,0.4516936,0.25522253,0.06606757,-1.3871502,0.776764,0.24268895,0.0046238336,1.0951418,-0.25233233,-0.098274626,-0.46794185,-0.42882884,0.08845062,0.14167076,0.1439467,0.54749495,0.48286548,1.0
Backdoor.Graybird-523152dee0737aae6b8210fb53d9ae9b2bf6be10a89e399cf1b0a193972f282f,0.55105907,-0.18532576,0.3279824,-0.17837758,-0.28009436,1.1376559,0.08396976,1.0711963,0.29620844,-0.6933495,0.2837095,-0.41797447,0.048658855,-0.104635686,1.0946764,-1.0148882,-0.3080925,1.5045708,1.0
Backdoor.Graybird-5266d90616b279757b5839b40696798dbe68c783582ecadb11cac439583b6212,1.117877,-0.28172052,0.11529449,-0.21279058,-0.83984625,0.6870259,-0.36165062,0.500224,1.2427925,-0.71329296,0.05343527,0.3337765,-0.23117198,0.76354474,1.4193374,-1.2108617,-0.3283549,0.8455871,1.0
Backdoor.Graybird-53078f85f6b3651de46b7551e7f032e1734e80f6c89faf69560b2b92a5a94747,0.97055674,0.5109314,0.5067809,-0.2680373,-1.3525678,0.75580513,0.3782489,-0.35962188,1.1747837,-0.09578396,-0.17016713,-0.73535454,-0.8952363,0.33119896,-0.10303716,-0.22657429,0.47369206,0.34842032,1.0
Backdoor.Graybird-53ee4a2152057901cd94a7f4d548f02a3937cdf4186d27a33f991382b93cb631,1.4890486,-0.4612377,0.22002491,-0.03699966,-0.6298993,0.8476475,0.13588835,0.2944736,0.7657921,-0.8917273,0.81863874,0.4980465,-0.41403773,0.25948915,1.1916887,-1.2860979,0.15169246,1.0753655,1.0
Backdoor.Graybird-540e9c189e9d37ffb217e7a0dc732fffef53c3efd3d0317f44bc3bc05b69fe28,0.26924714,-0.4390715,-0.19897535,-0.84842116,-0.95823866,0.77638316,-0.11905631,0.83923596,-0.013827651,-0.037727233,0.85799414,-0.51458454,-0.19275904,0.3027996,0.7296284,-1.0924001,-0.32309783,1.3499535,1.0
Backdoor.Graybird-54aa30e8c4b561710cadfa1b08bec3380375ff52f9b9485c946e177499b90e93,0.39540482,-0.2560753,-0.39661193,-1.2996204,-0.520866,0.36875105,-0.56066024,0.11418564,0.25415036,-0.45974684,0.41887283,-0.30282018,-1.116976,0.35372508,0.91042155,-0.81278026,1.2114774,1.0909605,1.0
Backdoor.Graybird-54c2b04305bbaf46d7fa1fc9901bfc4cc51b632f8ff0004fca5c9d0d34a43e88,1.2154715,0.02645823,0.25551882,-0.007868102,-1.1782242,0.5919746,0.24342456,0.7666148,0.84349126,-0.46014667,0.98687494,-0.30313095,-0.62632334,0.6186354,0.75453764,-0.56181115,-0.1900571,0.6845453,1.0
Backdoor.Graybird-5508b64b67d9039955e8e78c7303205e0bf31f2fff2a412cc009217a3b843c42,-0.05743603,-0.36683232,-0.023458393,-0.1101745,-0.60462904,1.1117572,0.06943382,0.6708134,0.26711425,-0.08026598,-0.2631896,-0.6821272,-0.7478596,-0.22165693,0.5503281,-1.6013879,-0.20916711,1.0904163,1.0
Backdoor.Graybird-553ea1898739926e3c60643be9671a798abf142557d4b169cf15e8e5bdb907c4,0.39171752,-0.16018423,-0.13587481,-0.74159414,-0.43982092,0.6525738,0.10073135,0.3430377,0.07033558,-0.04704572,-0.02083649,-0.7889813,-0.7102266,-0.03452554,0.47484866,-0.8346753,0.72466975,0.7701819,1.0
Backdoor.Graybird-56d68b4fdc5c32b9c7b6eb0c20c22903b6db6bbdc85deeb1672b96b1053b7702,0.16279483,0.1749872,-0.36109602,-0.2790893,-0.2046126,0.27568927,-0.11187779,-0.07669316,0.37098926,0.15314956,-0.25102374,-0.08638157,0.07074868,0.14688696,0.5287821,-0.39857617,0.06855797,0.3043725,1.0
Backdoor.Graybird-57ff8c60d243dfa0c50b38830b71d9935436c7681da9891396a9a5dd5cbc2596,0.11765836,-0.099109605,-0.24440657,-0.83454084,0.027192015,0.042472687,0.8870001,-0.5085384,0.3717216,0.0091009,0.4466506,-1.0075521,-0.86105055,-0.06654,0.7884265,-0.6496769,0.29637542,1.2887447,1.0
Backdoor.Graybird-598964da286937c1fb024677585b5d6fb4a214187a0bc61264871b41016b7f75,0.72775614,-0.1405817,0.15740243,-0.92821044,-0.39200884,1.0666696,0.030302336,0.93309253,-0.18220955,-0.36954996,0.53375864,-0.92484236,-1.0379293,-0.54051083,0.18612182,-0.9003901,0.42584312,1.1908962,1.0
Backdoor.Graybird-5a80a9d8a1cd9ff7dd8ded5152045cf323620251db85d71f355794d2e4c26c82,0.10152711,-0.07214166,-0.7847222,-0.534806,0.2680746,0.30418465,-0.05520358,0.36437774,0.80077374,0.29382965,0.5904317,-1.0177739,-1.5662534,0.28513998,0.23870698,-0.08339852,0.55793214,0.9445068,1.0
Backdoor.Graybird-5c75303926f53f292fe5acf87d08293b2b626af5cc8c69501dec28f11fb03bce,0.5951409,0.60078967,0.4513207,-0.345816,-0.84556454,0.32905728,0.49782395,0.22381201,0.64757586,-0.3671773,-0.27397475,-0.5401947,-0.7233396,0.48487577,0.091294736,0.36833718,0.16613074,0.6995361,1.0
Backdoor.Graybird-5cbab5b1edf3be8aba7f313ea0e50221e824a6cba2e40df2dae24cb8a7a8fafa,0.7496165,0.4127513,0.18752483,-0.33205044,-0.8136993,0.6951218,0.6859128,0.32411867,0.92250675,-0.39613655,0.10544278,-1.0558984,-1.0211865,0.73762274,0.18899292,0.30779964,-0.18852717,0.6768133,1.0
Backdoor.Graybird-5e73532a8544c28bf2076391c5b7c0c39fa3ad1ba60441f722a4649aca25d20b,0.62561923,0.4609954,0.13392818,-0.5387065,0.44944698,0.23567899,0.8171956,-0.27965984,0.7407389,0.09348631,-0.1300914,-1.0043602,-1.3474039,-0.3599439,0.253944,-0.45398992,0.9790515,0.5691625,1.0
Backdoor.Graybird-5e906a24c568f2c1132a8a0154207773b8c0ff6986ab56ceab00a8cfc9c2d5b6,0.7088567,-0.0025488075,0.23679842,-0.77470124,-0.1779551,1.0691222,0.23453037,0.99637526,-0.22133186,-0.6248936,0.30599666,-0.7571008,-1.0466893,-0.5302637,0.33670115,-0.7799701,0.49079648,1.1584798,1.0
Backdoor.Graybird-5fcb64cfd38ba0a62f85708679fde53986d09f5038c72f149819ecab6dc8507e,1.1187999,0.5840795,0.2922288,-0.5245778,-0.39532846,0.40487045,0.31642178,0.0061693517,0.7732757,-0.21995404,-0.2862125,-1.1272731,-0.740726,0.4123226,0.1583767,0.24080822,0.6941295,0.35788828,1.0
Backdoor.Graybird-60b1b1bee471d35c2e07afcaf3c8005576c2cb29eccec1ee68bf23cc76af078b,0.7912072,0.88390166,0.35869744,-0.7419884,0.31833395,0.4575397,0.7631366,-0.24357858,0.7388456,-0.02951526,0.18695201,-1.4597044,-1.320623,0.23416524,-0.024574114,-0.22889976,-0.35890308,-0.008087758,1.0
Backdoor.Graybird-60d764cb2a5e9e67977f7d978aa66df908db656bba989d480f3b6ff68202e4e2,0.38701236,1.032044,0.37266806,-0.47694197,-0.11916051,0.24183682,0.16861986,-0.4497473,0.6230236,0.07282134,-0.13735346,-0.9802868,-0.62577903,-0.43374416,0.21326403,-0.33360878,0.36551648,0.20029019,1.0
Backdoor.Graybird-61add8504bacaafb7dc19c8a24bde60b28dfcf574d101e5533c12d95895958e8,1.3348681,0.100517265,-0.34251636,-0.3399999,-0.179252,-0.18429367,0.5273867,-0.78147835,0.757784,-0.17200787,-0.055301607,-0.8628876,-0.90654695,0.1594668,0.72640586,-0.25041747,0.38831106,1.3753369,1.0
Backdoor.Graybird-61f39838e948a57120a57619fe6b93fb9c9b2a150636f0a3a1cb870b52b288e8,1.0945995,0.82569677,-0.29326788,-0.20242101,0.28591353,0.24621524,0.31660053,0.0393202,0.96775633,-0.61599517,0.47177902,-1.5470862,-1.015989,0.25629896,0.3797939,-0.11771399,-0.28850228,0.32779336,1.0
Backdoor.Graybird-61fb0d0c3ed4f269fb8497a0abfef6dc543c509650b2af81aabeb605fb11e7ac,0.9131732,0.511491,-0.105278626,-0.14415105,-0.44230464,-0.036852453,0.46847954,-0.29591984,0.607005,-0.16238412,0.15376407,-0.32755262,0.3292152,-0.29573447,0.9017177,-0.24504735,-0.27295727,0.56974983,1.0
Backdoor.Graybird-62a7401d04f88017eaf9a90cbe104e71cf86c982e930cdaa41f630cb40eeef87,0.9539167,0.71497595,-0.21297884,-0.06563951,-0.3329069,0.0701935,0.3746064,-0.4524844,0.82041794,-0.23326306,0.25036532,-0.42505604,0.35274276,-0.38671204,0.92014927,-0.23082563,-0.23066613,0.36058438,1.0
Backdoor.Graybird-63e2eb4bc7fc4ce5504efdadfe434d52ad8b3699d5670c575b0d6749eb9da2a1,1.1404046,0.59054923,0.17355476,-0.20150869,0.29736465,-0.04065636,0.24804159,-0.97249246,0.4936146,-0.4397292,-0.1015931,-0.45498347,-0.4037464,-0.1370367,0.21480483,-0.6840167,0.18316668,1.0764593,1.0
Backdoor.Graybird-65991ce74d589f9fe4d0cefbe5eda390986221c041faed595ca5b635a48460cb,1.0038505,0.58554614,0.511811,-0.7649478,-0.25574112,0.3561423,0.40800297,-0.15118617,0.47999823,-0.43274894,0.06738749,0.042171776,-0.20865557,0.11715625,0.40403405,0.44368562,0.4069208,0.35084766,1.0
Backdoor.Graybird-65d264ba371d426165a67d137b3a7da59ee4c7d2f919832a3ab028825e0177be,1.1278204,0.92685735,0.61972296,-0.53214675,0.42526218,0.020444809,0.4375687,-0.39926693,0.8973209,-0.055108216,-0.1309116,-0.7515478,0.28834653,0.1554293,0.4631404,-0.8010394,0.48442414,0.9666443,1.0
Backdoor.Graybird-66786bb835a1674bc9295a67c584c9da1aff48441df00a21451727cf3b1e6a9e,1.4388179,0.6486975,0.8617091,-0.6248979,0.4181635,0.32948372,1.0827447,-0.33335742,1.1000541,0.04434934,-0.2483065,-0.7597578,-0.094489604,-0.156252,-0.034319878,-0.82320416,0.13634138,0.8155728,1.0
Backdoor.Graybird-66c23272f29f90036382aa571ce861ef2d542d96de626fda2ee58ae67bf5b9d6,0.5818577,0.058830068,0.2540818,-0.68061304,-0.17874897,0.4310382,1.3014282,-0.9947871,0.89260924,-0.12604327,0.63072973,-0.76721466,0.090228625,-0.39603522,1.2260817,-0.27024478,-0.49488682,1.7302554,1.0
Backdoor.Graybird-66ef45fab44825af0fcd0f58e3ccab4792697337741dae14ea4faa1d4664e20d,1.7303452,-0.22966208,-1.2744172,-0.7101021,0.035717748,0.6888462,0.30173033,0.17278236,1.5317031,-0.19371288,0.84140223,-0.6970578,-0.9567716,-0.92340696,0.3898056,-0.5002144,0.36879462,0.1226513,1.0
Backdoor.Graybird-67425cd076901418623f3637faf1494475f22b93e177b42592d3330628cb1290,0.7951634,0.6393826,0.73354185,-0.37275365,0.480593,0.24416052,0.14100339,-0.3006204,1.1204748,-0.6837016,0.14340024,-0.3088401,-0.17235486,-0.24306391,0.4932537,-0.68262845,0.078894496,0.5081307,1.0
Backdoor.Graybird-69c8069ecc84dde235d404175eb4bb9f290b5d1a4ea6e38ec5546db7e8297763,0.56261194,-0.14538404,0.36523202,-0.08199333,-0.21397668,1.2087092,0.25864425,0.93039405,0.16630809,-0.64640146,0.15851162,-0.39185104,0.1351731,-0.27056804,1.2641948,-0.98221564,-0.36029908,1.4991047,1.0
Backdoor.Graybird-6a098aa51cf1f256b4f7ba9a00f9dd694ce861af7631c2017787b649a3c9303e,1.4733979,-0.1575447,0.6486593,-0.69627917,-0.54498744,0.76154065,0.36929294,0.48881888,1.6044391,-0.20234822,0.5190349,0.47909135,0.33720803,0.3252386,1.1562247,-0.5363733,-0.5678138,0.46391442,1.0
Backdoor.Graybird-6a7abfcf01608d31fd5666e4b92bd5e4a461b40fb54721d26ba40107a3707012,1.4958142,0.014047183,0.21333973,-0.98305005,-1.1198974,0.7846165,-0.18096872,-0.20450641,1.0228708,-0.27372986,-0.698041,-0.24666882,-0.14374833,0.483806,0.5239375,-0.15069595,0.21401945,0.22259258,1.0
Backdoor.Graybird-6acf73ce429b03da848243858022756272a351e5d0a2f668c20fa8454b22ace8,1.0622954,-0.22006743,0.551391,-0.72750235,-0.7624393,1.0125573,0.14391927,0.36902964,1.2387644,-0.293927,0.5049113,0.08612033,0.06290961,0.4394856,1.34049,-0.6270497,-0.23636484,0.512719,1.0
Backdoor.Graybird-6b70eac6c80bae3841169ad629bbb4f713f1f459d39f758be7868a807a6e9d7f,1.0788045,-0.12335818,0.38791895,-0.2563963,-0.2473376,0.71670663,-0.02750826,0.38322982,1.0739163,-0.12265961,0.40832803,-0.32060242,-0.48017925,0.56390375,0.6315163,-0.5656382,-0.18551363,0.51617706,1.0
Backdoor.Graybird-6c59c054dc3d17fd97cb3525e71853d608222e848f3e57dbd3adad8585231eec,0.48326382,-0.5819305,0.1896541,-0.9858598,-0.09872094,1.1143849,0.03055284,0.69091386,0.13476104,-0.06345288,0.15262237,-0.27687663,-0.38513204,-0.0044066166,1.1856902,-1.3752238,0.03574361,1.3517653,1.0
Backdoor.Graybird-6cfb5586d80cc93044a1795e99640f6a849914656deec59bbe8118ff968eca77,0.73272437,-0.10061823,0.38540033,-1.2238029,0.0997146,0.4432407,0.15669885,-0.18961245,0.762613,0.021744719,0.11056089,-0.11154118,-0.4515648,0.12059603,0.99019873,-0.60723776,0.18798593,0.27156895,1.0
Backdoor.Graybird-6d242d408bf0e3c49e088eb4cd4a939511c4ea60db11d94d96a7a7a39be70f9c,1.3515353,-0.19386907,0.48182988,-0.97599876,-0.32259327,0.58790094,0.46676946,0.37463135,1.0046484,-0.059045464,0.4950695,0.26641122,-0.03286323,0.48771203,0.713318,-0.614785,0.055576388,0.30170625,1.0
Backdoor.Graybird-6d321e528269b7a7e1f6436e1380c65a20f1d714ebc0026e0a99839dc1a501e4,0.3887869,-0.059652526,-0.28818318,-0.45959407,-0.04607826,0.39692932,-0.011762825,0.13729067,0.44921678,-0.2612316,0.35784033,-0.34819093,-0.18927646,0.29460627,0.6060623,-0.81328535,0.2629031,0.48234022,1.0
Backdoor.Graybird-6d34635438401f6c4f7794bc4f2c8c446f82edeb567f31a83cf3ae034ea773d1,0.32831094,0.05622473,0.7199535,-1.5611912,-0.4066574,0.6585814,-0.24099827,0.30169758,0.54461616,-0.09295492,0.46509743,-0.3702123,-0.13371134,0.09286377,1.0831485,-0.5956461,-0.78659695,1.3343682,1.0
Backdoor.Graybird-6ee285070d1eef800260ba31817c3e7cec3985f0a6a2849a5dc74e445f878a15,-0.057963595,0.024845941,-0.22187097,-0.6242858,-0.061575595,0.36585498,0.013991841,0.28567758,0.23464558,0.25405318,0.12581079,-0.07521272,0.1445332,-0.027758738,0.46063387,0.12709492,0.15866606,0.54440784,1.0
Backdoor.Graybird-6f9dc6c32999551acea67812a90d930ad72a1eb37dd2694c27e9a8adff7a3a9f,0.89736116,-0.030757278,0.67004347,-1.1243509,-0.76399225,0.8707335,-0.619232,0.42605567,1.2205434,-0.29130092,-0.07657962,0.056710083,-0.1312276,0.34928763,1.1519942,-0.8120485,-0.17986917,0.46581385,1.0
Backdoor.Graybird-71c886f2fd76eb9bd2bc630b058bd694391456685963926b6189fd07dca25a9e,0.90085185,-0.12271081,-0.056542214,-0.88149244,-0.2675627,-0.1739443,0.6866791,-0.5631524,0.45937645,-0.16163391,-0.11467804,-0.5060991,-0.5534361,0.43364578,1.1418138,-0.6997052,0.35955262,1.0880933,1.0
Backdoor.Graybird-725f4e4c108170d54ef93e14503fab7add7cc13b10df35ba8fe020f0dab88d2d,0.70737493,0.6158184,0.5179599,-0.6478538,0.26659846,0.10296246,0.39040908,-0.34872946,0.81154555,-0.038428586,0.16074501,-0.46506175,0.15530615,0.6775286,0.39329904,-0.8609644,0.26040658,0.7341416,1.0
Backdoor.Graybird-730ed728d5c30bbf322823b8d041c6e3c86249b31946b64b6568a1948cc8e6ed,0.9530511,0.01264343,0.43943256,-0.88715154,0.21066292,0.5678196,0.43843353,-0.2526769,0.9657764,0.3998548,-0.8180813,-0.5349275,-0.8539545,-0.23618396,0.42602563,-0.8091063,0.49403942,0.59769624,1.0
Backdoor.Graybird-739a860eb0dbc39fe915e0761f973180262e418e737f75ebbc4007fe1eaea473,0.6455463,0.1468037,0.019992141,-0.81553864,0.24724971,-0.07284712,0.4843138,-0.39111277,0.9895144,-0.35162726,0.52255195,-0.59634894,-0.09946607,0.10260002,1.5818471,0.31039178,0.34529823,1.692029,1.0
Backdoor.Graybird-757d5da46a1617a1b5a07c2d4c17ec72f6c946ab3ca540e8da0131504084de93,1.4983093,0.14381196,-0.34251603,-0.5175078,-0.42635363,0.78186744,0.5111529,0.6209542,0.881271,-0.34586668,0.005708974,-1.014014,-0.4721481,0.07052725,0.17737003,-0.11297966,0.04289832,-0.09469947,1.0
Backdoor.Graybird-759d25eb1e779c0cf9a1791494780efd719aef5f5a316dee827da31758678a77,0.5482967,0.14687634,0.111367285,-0.85660017,-0.020716842,-0.032650813,0.59405744,-0.011245363,0.6769193,-0.7125499,0.55473024,-0.3575634,0.33866483,-0.11391359,1.5234545,-0.37351924,-0.16232502,1.2161759,1.0
Backdoor.Graybird-764e8d67b8a22cd013f7d302251a249fe7c6c3c4a2d2acb9d1e5f88d557715a3,0.75890815,0.014075214,0.05324068,-0.8212552,0.082579166,0.24498108,1.360376,-0.85531723,0.8184002,-0.25983012,0.6004637,-0.60623395,0.40787065,-0.41533428,0.9679673,0.14960669,0.020892806,1.4752527,1.0
Backdoor.Graybird-76c6fe9ca5a7a1b18fae029ae849431daf6bb211afe955222d5c778bf3472509,1.0500456,-0.36606884,0.3634752,-1.0148215,-0.99192214,0.73205465,-0.00895301,0.9344452,1.1957061,-0.2252542,0.3511451,0.30968365,0.08680565,0.5705953,1.0918596,-0.063398905,-0.22055525,0.6906586,1.0
Backdoor.Graybird-79ebf2c2afd7a143d1833a4702c1dd0aa83e71d78c456649eb59051335c309de,0.51940864,-0.029612109,-0.27610186,-0.82305694,-0.07249629,0.4141249,-0.14205289,0.32611156,0.13567725,-0.13295087,-0.062247027,-0.53278965,-0.08821693,0.024407024,-0.097824745,-0.35164908,0.13974708,0.53114694,1.0
Backdoor.Graybird-7a94befd3a93c00b1ca28bd169792504aae64411f804665e0641305e801b215e,0.54809636,0.040334344,-0.3850234,-1.2851201,-0.020330744,-0.33314982,0.9131721,-0.40742147,0.5717689,-0.34544277,0.27447596,-0.7764016,-0.052735027,-0.24939659,1.479294,0.18169439,0.11171149,1.4887954,1.0
Backdoor.Graybird-7c1334bb1b9e6b4730760f754ab9010783b7f29f821b02bf1478448ad59cf6df,0.73299474,0.047212802,-0.66957515,-1.3100822,-0.30970052,0.42854375,0.05578876,0.27141008,0.8381116,-0.2903648,-0.17694026,-1.1151001,-0.8716598,-0.4469672,0.27555275,0.11180316,0.3197913,0.14692543,1.0
Backdoor.Graybird-7cdae407c0cbf514980c892b1c4495e999866aa3be4f6ebc6e482feecd8cfdea,1.170032,0.10547199,0.159239,-0.6903655,-1.0414728,0.7290146,-0.043605037,-0.33540982,1.1700636,0.010926775,-0.52880645,-0.66824186,-0.28760093,0.32954022,0.28758043,-0.20351052,0.27752995,0.6074608,1.0
Backdoor.Graybird-7d85ae8d40e1df6c39d67e97e16bbaa2a1aa6f8bcbec78dfc492de86ef57dc87,1.5407019,-0.40600923,-0.45053107,-0.7830728,-0.9891545,0.64311725,1.0760726,0.21000698,0.46518975,0.46167293,-1.0611748,-0.6420777,-0.51098716,0.039437518,-0.48992246,0.022423552,-0.06421628,0.54250836,1.0
Backdoor.Graybird-7d9aec70614646558761e1e9d7aaea88933ee32493d21395b322b04a438140bc,1.315547,-0.27184168,-0.603146,-1.3041928,-1.0099341,1.1206098,0.3555571,0.06535043,0.0007264881,-0.5863459,-0.17493854,-0.61452925,-0.28289768,0.30117613,-0.70588464,-0.2270308,0.76840097,0.18832582,1.0
Backdoor.Graybird-813477cf47cbe8c132ebbd8bc358f8c03417de303cf35c71f5ab051cdae4724e,1.4527153,-0.20852669,-0.7315179,-1.2693342,-1.1792368,1.1251225,0.038711093,0.17922218,0.118909165,-0.6844409,-0.22532395,-0.65896666,-0.3662648,0.3899625,-0.48850736,0.01988075,0.9476138,0.11989067,1.0
Backdoor.Graybird-81819096e605e81210d610faa6bf8fb85c29c7418b86a6314d154d531cfd0c1e,0.3109072,-0.25457078,-0.3601307,-0.43970937,-0.33694145,0.32931995,0.3285559,0.15938559,1.2072196,-0.13967934,0.2689911,0.28255907,0.6165516,-0.3512865,0.23262629,-0.4069413,0.55440444,0.8809017,1.0
Backdoor.Graybird-82198faa9497d0ea97adae75c36085d9a604203cc0b853faa079881ea9f79ca8,0.8671568,-0.12749775,0.23768337,-0.8118868,-0.6269577,1.1854168,0.08779756,0.9267924,-0.07439241,-0.45250544,0.346914,-0.82300377,-1.0521393,-0.6408475,0.313881,-0.87888986,0.6108246,1.168056,1.0
Backdoor.Graybird-829996786890ae93f6bf998085dd695982bcf299bf215faed795aa37dbc490be,0.23523551,-0.039735794,0.23634732,-0.67844075,-0.42341313,0.73376447,-0.15007752,0.9356954,-0.035016038,-0.11135911,0.24306569,-0.431864,-0.27802423,0.2646188,0.42479092,-0.6972325,-0.17295884,0.8900108,1.0
Backdoor.Graybird-83423cd8ce4f3caa1de47af0f9f15b5582728ea77bf70cfdf4ef7190035b612b,0.12531948,0.043221768,-0.022817845,-2.0054872,-0.23478037,0.4747519,-0.23276258,0.21269988,-0.05530586,-0.56336904,0.121082865,-0.63230467,-0.6195474,-0.4845414,0.4765294,-0.52766746,0.63520604,0.8867585,1.0
Backdoor.Graybird-8367e7bcdb92a165868cea32162a752a53fe5d15ceaa3674f817bab68caf2e48,0.7942254,-0.21822035,-0.5683477,-1.2384287,-0.33975914,0.52576464,-0.2668812,0.39738593,0.38268235,-0.13433325,0.7533481,-0.9178979,-1.4438328,-0.19063,0.09978526,-0.6911716,0.9967677,1.0437915,1.0
Backdoor.Graybird-8422d4ab5d5079a5a7d9896892e0c3271aee157a1f54d7bc0dba7937c1e98f74,0.13896634,-0.06962957,0.08035601,-0.9624146,0.17700753,0.35363394,0.76111734,-0.528379,0.53300685,-0.3300748,0.5511068,-0.90730065,-0.7352861,-0.07251886,0.6830128,-0.3744645,-0.063857466,1.468938,1.0
Backdoor.Graybird-85ec05a6c1aa040abed43cef7e85100a0da06525f674231cde7ed92af582c824,0.524555,0.6306159,-0.20426165,-0.28925472,-0.2088958,0.26748833,-0.1467408,0.38439402,0.72431296,-0.08613464,0.35068494,-1.0868077,-0.13579617,0.11257367,-0.24131756,-0.36951533,-0.3817428,0.321942,1.0
Backdoor.Graybird-861fb76c171296ca9ff2fc6e65fb4ef70adca3e8be932551485a48097ec54c0a,1.4025973,-0.18825936,0.16626842,-0.65240186,-0.866948,0.8664008,-0.13671006,0.06625938,0.974132,-0.74606276,0.9730659,-0.11898421,0.19360875,0.8868969,0.5443727,-0.6671983,-0.23428634,0.66549736,1.0
Backdoor.Graybird-8670f570c5bc895583b54b34f673e9b6d727cc2a8c2a196f1fe5d7a542f71908,0.3870169,-0.05865478,0.21396665,-1.0179775,-0.7855667,0.8393622,-0.26820782,1.2817566,0.43116415,-0.21656662,0.8554687,-0.80407786,-0.3621595,0.13280101,0.15408595,-0.28938875,0.22974238,1.2405833,1.0
Backdoor.Graybird-8918ce36caf2732f3bfec79d19f8a096bce314c983cf02357466949b290681e2,0.61294365,0.055946443,0.3982056,-0.5933173,-0.6758612,0.4893419,-0.13738711,-0.1283465,0.89950216,0.054252934,0.27659136,-0.2766108,0.26860926,-0.104454406,-0.16294624,-1.0355694,-0.15054813,0.82748955,1.0
Backdoor.Graybird-8923ffa1222f65f71c7c385d1cec6fde5720dbe5add154d279f4f359b631134a,0.5219944,0.035776887,-0.41675857,-0.9199874,-0.300941,0.18039435,0.096069925,0.35574582,0.92996615,-0.29191464,0.24510886,-0.9271027,-1.474865,0.21389586,0.27463695,-0.6649862,0.5359223,0.6360769,1.0
Backdoor.Graybird-89481ef77be1b32a0454fa76de2d79cec871effda0b9fd6c21861f3c572c3798,0.78129053,0.34545186,0.16138652,-0.8035029,-0.19323514,0.22220172,0.9204952,-0.45452896,1.0085921,-0.5095959,-0.29022506,0.437992,0.78022844,0.21481048,-0.34739333,-0.32963786,0.13591102,0.6767259,1.0
Backdoor.Graybird-89b141aa860cddf3c6b0bec91bfca679ff5d8614135a0677e4c1caa7d37a9c89,1.3718971,0.35941878,0.25572398,-0.79039234,-0.82369375,0.5392915,0.16756466,-0.14338423,0.9947757,-0.70545185,-0.11142691,-0.7398891,-0.454162,0.80771726,0.0026511601,0.14026265,-0.013421737,0.5774323,1.0
Backdoor.Graybird-89fe5e86386ee8e977bf7bd47a2658eee37e28236ba8a8f9aefaba734141ff21,0.271916,0.054367203,0.014393176,-0.9433414,-0.9218211,0.6010522,0.049996965,1.0270433,0.2084262,-0.8864604,0.7072739,-0.7779889,-0.8382375,-0.08968589,0.3786512,-0.8223666,0.18492801,0.9966109,1.0
Backdoor.Graybird-8a46c3e1144d6c02853f92b643be99b44dee1f443eff59801c96216bbc5405d6,1.0255033,0.34379265,-0.040983535,-0.2663301,-0.94082123,0.8358045,0.43591776,-0.09668638,1.2409002,-0.40832004,0.06962272,-1.0685674,-0.6950494,0.4567842,0.08885287,0.13836773,-0.002450707,0.43812338,1.0
Backdoor.Graybird-8a970cb90dd3321d111d8fd2dd517e86bbf9c79b6a162cd6bb7cb5699edc4b5f,1.6958616,-0.25826478,-1.1844518,-0.9165401,-0.05221895,0.66370505,0.4848263,0.36821732,1.5613695,-0.011354416,0.67028,-0.60930693,-0.8504167,-0.83343047,0.41227338,-0.46384627,0.2370068,-0.114721164,1.0
Backdoor.Graybird-8c4d358653ddf842f102fa6a1f87c59a3cc65557df4aaf113816f3a2680df216,0.67842,0.429943,-1.0166283,-0.06638474,0.23963849,-0.39362764,0.768945,0.027637374,1.3882074,-0.6768767,-0.04432041,-0.1576695,0.21980336,0.065080345,-0.11426053,-0.69630605,-0.026161304,0.515714,1.0
Backdoor.Graybird-8c8a2ad65a9f2eb8690f5ec41bac47876a617432c8fa85fb0d81078fef9d4bf8,1.4648434,0.04882184,-0.41490194,-0.34237185,-1.0615978,0.43266085,1.2306658,0.42856207,1.0570353,-0.93568707,0.9305545,-0.2787298,-0.42690602,0.5244942,-0.123179555,0.41549742,0.44942287,0.3294785,1.0
Backdoor.Graybird-8c95f3c3819ad63d453d8792095390904dc501b5a8f5a70e5b5691d200110ef3,1.0465562,0.10444215,-0.111220665,-0.4795696,-0.3335362,-0.05695094,0.16029888,-0.5343128,0.6082872,-0.58265215,-0.10145235,-0.7949415,-0.6154583,0.17820697,0.99476224,-1.1522819,0.05516984,1.2147714,1.0
Backdoor.Graybird-8d4a784362ac2b3ddd42e1616c08f6805a5672ed39ea15714100a70b9e1fc842,1.5489814,0.334932,0.28305608,-0.86642253,-0.7130267,0.35576522,0.50165623,-0.01348078,1.2600935,-0.21544541,0.07116815,-0.37551755,-0.30283588,0.55909175,0.555402,-0.08586405,0.7392729,0.16256045,1.0
Backdoor.Graybird-8de2ca2818c65b69c510a8fe5bfa47608d63fbe23538ad51a6f5661c6daf222f,1.7947923,0.10484381,-1.1094213,-1.1327947,-0.32827222,0.4958497,0.25276667,0.44557238,1.3458521,-0.27138212,1.04033,-0.44099995,-0.98798585,-1.1001197,0.24867347,-0.6686967,0.26243195,-0.49868566,1.0
Backdoor.Graybird-8ee8ed6292025a4830b430fbc42984c2b3fa30a7fd3aad6ef3f0abc1363bdea3,0.55092764,0.43433368,0.3142952,-1.0699333,0.4582279,0.1871564,0.20140149,-0.3630442,0.73166984,0.16346312,-0.06398958,-0.40961665,-0.48311496,-0.1486717,0.74940586,-0.47050655,0.27302238,0.2983531,1.0
Backdoor.Graybird-8f1081cf86782cc1b1577cb67497d6fb854f20cb6515dd8a14b564d43c6752a0,0.61271924,-0.18814456,0.18303223,-1.0726087,-0.2551537,1.2212715,0.3866683,0.90904033,0.10880756,-0.7022407,0.6048482,-0.7056003,-0.5258968,-0.6673689,0.6208352,-1.0291697,0.92936206,0.8327579,1.0
Backdoor.Graybird-8f119cfb976e3b606d5a14c8223f6ff7efcb22ec1491da008b081e11f5ff9dac,1.2366748,-0.38876143,0.25688294,-0.34057826,-1.2215917,1.1761714,0.56395555,0.24920222,0.99935585,-0.8474738,0.6171314,-0.16984807,-0.17262478,0.53639466,0.7954388,-0.6881889,-0.089242816,0.5429903,1.0
Backdoor.Graybird-92310a91c8e822e825dee87224b6f400b7a40024d44aaee44575c08311d922a5,0.40988988,0.42197654,0.25017956,-0.29692206,-0.26452145,0.29373765,0.37309182,0.3249662,1.7257557,0.11783044,-0.05259705,0.44116375,0.207267,-0.047695328,-0.12521303,-0.6231314,0.59929144,0.38384748,1.0
Backdoor.Graybird-9289f437e7f7c37d9dcee484de2c1850637fd0feb549e31a2aaac1400dec6b1c,0.03649208,0.18137065,0.5217662,-1.4413573,-0.08846819,0.20888929,0.21685344,0.18150392,0.3443131,-0.021993097,0.22651394,-0.11461369,-0.15352046,0.026533352,1.3325318,-0.9328779,0.021746567,0.95431405,1.0
Backdoor.Graybird-935ef5a37611172206877fbd8823614c947a21b71e8a8ca746a1299e1d3357ed,0.2717306,-0.35543734,0.20064373,-0.81230074,0.078632526,0.26884708,0.9709071,-0.5548814,0.58009225,-0.4213858,0.4432262,-0.22371285,-0.312419,-0.71284384,1.0019684,-0.3946331,0.043545555,1.6153641,1.0
Backdoor.Graybird-93a713200100c3ae76e3985038dd5466151583924da3469fa71387d3af298ac2,0.05250742,0.12953463,0.07307318,-1.6673509,-0.14097403,0.3915351,-0.062099904,0.13354918,0.02434981,-0.51165247,0.14375395,-0.6744106,-0.585778,-0.16801648,0.45083925,-0.6057869,0.5953099,0.83859813,1.0
Backdoor.Graybird-945eb21ef074656d9a1a86747c9d7b5d15f29a567fa27fef01fb2737e576ad03,1.0697057,1.0035512,0.4484118,-0.7429466,0.11713596,0.43446222,0.3026637,0.4170169,0.9878196,-0.15689193,0.21607426,-1.0033493,-0.92620105,-0.2587689,-0.29073724,-0.33245802,0.10826385,-0.3480085,1.0
Backdoor.Graybird-94623d56ca044b70fe15d88621894fcd59eafe180da385d9d9305186f7f4b86b,0.7414203,-0.08917732,-0.8478071,-1.0998145,-0.3189616,0.27562103,0.13988669,0.30625942,0.62539583,-0.1708639,0.25503042,-0.7862774,-0.6797869,-0.8079636,0.71039647,-0.6530702,0.5142477,0.30411503,1.0
Backdoor.Graybird-946b3de2c3b514a6c2efe10f2b71f28ee63a9b6730a24a7eba83aa0cf5c5341d,0.8247399,-0.2286541,-0.5346658,-1.7366471,-0.28993875,0.21404147,-0.29523396,0.7997136,0.46582398,-0.3929735,0.48841232,-0.43464273,-0.8485783,-0.3348269,0.599031,-0.7974441,0.8565491,0.6740614,1.0
Backdoor.Graybird-95d4ffb8d58ae1108f465097fc357a901f9e00da85ec8d3adecb017be08edc7a,0.53136283,0.642342,0.5973965,-0.9293099,0.05176396,0.34011155,0.4827331,-0.22444907,0.79112035,0.025419423,-0.49347717,-0.94885695,-1.0677414,-0.9494703,0.2672187,-0.59275645,0.7001204,0.34363517,1.0
Backdoor.Graybird-963cd338182a57b18f2a85b8a36f5617a8c91fda7f68627cab80fad0a8e08c45,-0.020012371,-0.016714863,0.014972233,0.012310296,-0.022201838,-0.023074701,0.0132387215,0.016888984,-0.012482066,0.021194624,0.024198797,0.019537488,0.012312161,-0.00035507313,0.012334675,0.003979524,0.013460328,0.005955822,1.0
Backdoor.Graybird-967456f14643ad8f8bab3ed0b5468ff69704502ae64b5c37f66d43eb71ee5909,0.29712963,-0.0015316253,0.5268501,-0.9084115,-0.47966263,0.037143297,0.6045895,0.6236239,1.112337,-0.14727494,0.6689116,-0.25200388,-0.89049727,-0.24359778,0.9849122,-0.18013453,-0.2921175,1.0944072,1.0
Backdoor.Graybird-97d6d5d2bfd16a21b6b02bc9bb883dbcd437d0a71f34eebe95d8419a8b80eb89,0.96189004,0.60126126,0.6495088,-0.57386833,-1.3814421,0.9499481,0.14239836,0.113918275,1.1100708,-0.2879052,0.11438523,-0.99437374,-1.0889909,-0.089731984,-0.0642608,0.11914547,0.36295137,0.34412315,1.0
Backdoor.Graybird-98970c86f23de51867088ebeda57ac2ea32d14ce4aea3b1ce33d30f7482a6448,0.9493915,0.4322498,0.48501423,-0.3497763,-1.0824878,0.7085541,0.399286,0.006473049,1.0136541,-0.29655814,-0.13694806,-0.5229945,-0.602308,0.15411353,-0.06541844,-0.1478136,0.6279355,0.4572564,1.0
Backdoor.Graybird-9a3a9d7c1d351acf199e6bd2b341f60fee80d72b2775e0cb823397a501994860,0.81160194,0.24732877,0.4763642,-0.6611077,-0.70082086,0.20076482,0.21922053,0.59695375,1.4006577,-0.30196378,1.1464872,-0.0049151634,-0.58853656,-0.15695971,1.163344,-0.28592598,0.26300907,0.4823059,1.0
Backdoor.Graybird-9aa73f468e17862621a2fad53b9d4d7b2e739f4529ca0271244b5306e4eab8d6,0.3149775,0.5079484,-0.17107111,-1.4937283,-0.29302984,0.534169,0.1852856,0.019524103,0.49368364,-0.051047143,0.5233789,-1.7249519,0.0074692336,-0.22978145,0.34285197,-0.6555614,-0.45219716,0.6755514,1.0
Backdoor.Graybird-9b214aadee23c6591c9ff73d0f579e35b8b2dee1b7ab8e5cfbd75a5a21bb885a,0.73779213,-0.03723942,-0.73985845,-0.87095743,0.11319147,0.28601164,0.2534564,0.18099263,0.45755067,0.0016984657,-0.08566756,-0.9624779,-0.5301749,-0.16322011,0.3584876,-0.3155098,-0.098904386,0.4687877,1.0
Backdoor.Graybird-9c1495b62ed7d9ed9e1c812aed748f99a5fb67d1a2ec3fdc92d72e2cee7a387d,1.3075359,-0.1418392,-1.2936796,-0.74682444,0.1592865,0.6373754,0.19790433,-0.20021832,1.2471247,-0.08788078,0.6792125,-0.9250102,-0.7462249,-1.074745,0.6857614,-0.65775186,0.48198372,0.07207026,1.0
Backdoor.Graybird-9e2df649e165d2c1d71aecc2e127fc76d8d47d0d81a89c163eae69820d37bf20,0.5219093,0.22535391,-0.020565698,-1.1054455,-0.16531041,0.47837,0.6356927,0.7872008,-0.051708657,-0.31797454,0.24904491,-0.93083006,-0.40361568,-0.5726362,0.18170454,-1.1949786,0.6045813,0.46430233,1.0
Backdoor.Graybird-9fb2b93a16534f2ee2ca6ae8290af116472da4351149a234accca893dba2a0f2,1.3334992,0.50940126,0.75991076,-0.7035632,-1.3162689,1.2744197,-0.06390673,-0.12869696,1.2437174,0.25803468,-0.10712188,-0.45300683,-0.16841704,0.34648654,0.10294971,-0.14195138,0.50409657,0.16095278,1.0
Backdoor.Graybird-a035a8b8a7aacc5376be19dc3391fd2a77015718b8cf24d78052ac937b1728a7,0.6602115,0.5890469,0.28497732,-0.6225644,0.057514593,0.41322368,-0.14889333,0.36275247,0.7641717,-0.07808769,0.29831952,-0.67385745,-0.42854697,-0.4037749,0.16040963,-0.1422651,0.07556443,0.3583767,1.0
Backdoor.Graybird-a0498a02cb192000d067d4f36547b86cb08637ee7a481600e910092c19a9ce9f,0.9014245,0.46072164,-0.038429853,-0.28478563,-0.5536765,0.1905082,0.4197379,-0.17463285,0.6769814,-0.028853701,0.14548403,-0.38205925,0.23488085,-0.39700323,0.963963,-0.29051661,-0.19299644,0.5293463,1.0
Backdoor.Graybird-a0a04c1fabf634b2f915f759027d71530989359d81650c39616c53fd5ebed357,0.4569087,0.032894995,-0.13770883,-0.6280373,-0.80155456,0.37612882,0.11476499,0.91995174,0.045412272,-0.27416298,0.8544204,-0.96137875,-0.21655703,-0.18920456,0.14236365,-0.9795783,-0.071986884,1.0749456,1.0
Backdoor.Graybird-a1fd6d8666fb7b058edc88955c022b3e35e36da23edbd184264ef39fa45805eb,0.9166985,0.58228964,-0.2995549,-0.19919471,-0.6140554,-0.0005710402,0.3284244,-0.14939064,0.6215017,-0.2383868,0.016770039,-0.5310124,0.27774027,-0.4859955,0.8780044,-0.6203835,-0.3748646,0.43203056,1.0
Backdoor.Graybird-a221b13a700b9045f22cd0d311320249d702dc9c524a63c481ef897d8c942ff6,0.0057687424,0.3055785,-0.8952942,0.03907686,0.19545591,0.074720286,0.47441992,0.1437898,0.6952583,-0.1326194,0.5020485,-0.54903066,0.14589317,0.055315867,0.28111294,-0.67214113,0.09005454,0.37236217,1.0
Backdoor.Graybird-a227a623250f4c7c092fe77a5c045c32ad70c823e62f7bb33aa5ac1f008f1495,0.7319863,-0.335189,-0.2998392,-1.4125994,-0.6716185,0.52813333,-0.50521046,0.580968,0.3028547,0.017408518,0.58983463,-0.4126353,-0.6505604,-0.13740838,0.40408516,-0.7124189,1.3559588,1.101383,1.0
Backdoor.Graybird-a4492c845667ef93abaf271159c99086b3859c054a659175e868d70abdfff9b5,0.20460756,0.16878004,0.81709105,-1.3521001,-0.27934906,0.39814544,0.11677217,0.09988159,0.5983299,-0.08648912,0.38820007,-0.2862569,-0.12783508,0.061753158,1.1914545,-0.9565682,-0.14930129,1.1741978,1.0
Backdoor.Graybird-a76cec89ebfc66826a15c42805bf44594a8a6b253ddd6604640b3266f35cae11,0.32012844,-0.1317639,0.0113261305,-1.6620828,-0.27324817,0.40283152,-0.19013584,0.3196079,0.2469803,-0.3172484,0.11227777,-0.5660465,-0.74144685,-0.4460655,0.37649924,-0.6262566,0.83337224,0.83243597,1.0
Backdoor.Graybird-a7a720a29e06215ed50f840a8d18f38825bfbbd4a42e07559b96d2f697bb9790,-0.001340775,0.02652049,-0.027092103,-0.025191477,0.011328912,0.0033443437,0.024487145,0.025380442,0.010736998,0.02386372,-0.013555207,-0.012500256,-0.0031674819,-0.011890527,0.015931087,0.0021539065,-0.01348191,-0.014865524,1.0
Backdoor.Graybird-a7f764ea4a46e90e7099c57efc98ae694eaa367fdcac8d476fe4909a28f6f93e,0.67600524,-0.009339899,0.0066128736,-0.65451026,-0.18161233,0.70724905,0.3944655,0.64166737,0.05499392,-0.5415688,0.0776986,-0.8510273,-0.31236488,-0.26615167,0.2859851,-0.5664339,-0.05698405,0.76552373,1.0
Backdoor.Graybird-a9b74966b43fc58513bdebe3503b486e27223be89656081715866bd929bcb6c1,0.9574102,-0.23878074,-0.44717196,-1.6170081,-0.34162673,0.6022843,-0.5885771,0.42502135,0.48748904,-0.2191598,0.42691728,-0.699901,-0.8469229,-0.08515472,0.26495498,-0.45155728,0.9588082,0.93035996,1.0
Backdoor.Graybird-aa7c621dd35e31ae61d7a2b36dc4e515485c4e56c4ce9a133dea31594a5ab6e8,0.0979538,0.5637643,-0.10994551,-1.785474,-0.5109239,0.54678065,0.3826852,0.004705318,0.47490245,0.2002388,0.6813667,-1.4907242,0.32720298,-0.3207857,0.36286363,-0.5011816,-0.38335165,0.6442227,1.0
Backdoor.Graybird-abfe016fe929fdfce4bfc9426a4bf7e6b99e4faeba2a4d3603912c414cff4b01,0.41045794,0.07396719,0.0063208956,-1.0158763,-0.19070669,0.6663492,0.04796264,0.8968488,-0.29393622,-0.27326247,0.5540154,-0.80015665,-0.34991962,-0.27468777,-0.21032095,-0.8803888,0.36871237,0.7104592,1.0
Backdoor.Graybird-ac449976a1b7cb50b8e71f28be4ef44bd6f6642e3b0c5ccdfb26822e79b98537,0.9257912,0.78684086,1.3295617,-0.5848835,0.2954311,0.17446864,0.7242784,0.19024052,0.6925619,-0.33891752,0.22415395,-0.27522495,-0.1886513,-0.15394066,0.0986344,-1.1022909,-0.0039976207,0.62489074,1.0
Backdoor.Graybird-ac4add28458e73105e8f654da05566e4015098744e8aebb3204aee72caa57e9e,-0.15972202,0.25171322,0.2608243,-0.29777092,-0.37444606,1.0424224,-0.14695886,0.5271697,-0.047674283,-0.73713994,0.0756598,-1.0674416,-0.08104645,-0.023357702,0.44773704,-1.021129,-0.18150437,1.1943858,1.0
Backdoor.Graybird-ad74a71d3a7f3b6b6210cc7dd1d30b3663949dd5ef418dbd619adf39ca5c48ba,0.16655208,0.5235903,0.053625662,0.012300615,-0.07232378,0.45202547,0.45003954,0.35780966,-0.22425522,-0.07034021,-0.106462985,0.14277762,-0.35286358,-0.17318343,-0.1335386,-0.201524,0.037989173,0.72735786,1.0
Backdoor.Graybird-ad90f50d4ca71148c1a52506f79f120410d3181462295f8524580688548a0396,0.15820234,-0.054518126,-0.028670555,-0.26743132,-0.07194305,0.9563817,0.22297624,0.37476382,0.0183152,-0.5143022,0.40471506,-0.96086836,-0.8887595,-0.1792087,0.20509699,-0.8764398,0.39515686,1.1546156,1.0
Backdoor.Graybird-ad96e019652bae1367bbbde130c9e6e7098048b89b82f89353ea0aa688f49b10,0.6530339,0.59154767,0.64704174,-0.31710407,0.1822378,0.6727789,0.11270885,-0.22417556,0.47558033,-0.19124268,-0.322734,-0.8366254,-0.99764603,-0.5055137,0.10135869,-0.98813117,0.4243106,0.7227361,1.0
Backdoor.Graybird-ad9900cf8bf77c5291d6583fa7d2bf68ad622e2404b85bd87fc99b4a76cf9ee1,0.51322,0.13678339,0.46056148,-0.84694695,0.1630615,0.43558288,1.3545104,-1.0668573,0.812183,-0.0019661798,0.73435056,-0.8102701,0.113339216,-0.66216284,1.0559183,-0.5583574,-0.52800876,1.5199971,1.0
Backdoor.Graybird-ada0d13de57259ca50f6c6137799d46819ad67d2730c83da6e11cf07eec1f93f,-0.4082771,0.34730172,-0.021175778,-0.78615755,-0.7628638,0.68415266,-0.26343125,0.11590368,-0.17570056,-0.27145526,0.29686105,-0.845729,-0.091732584,0.18082191,0.33094245,-0.64797264,-0.2909367,0.87039715,1.0
Backdoor.Graybird-ae51172509ee5dc56c8f1c971c67fcf819300950ca16836957b08483d575ed52,1.0085748,-0.24158917,-0.6407064,-1.2144494,-1.2691282,1.2870966,0.20225784,-0.20101151,0.12878175,-0.47968417,0.067620695,-0.9591696,-0.38688663,0.31756428,-0.52604383,-0.45676252,0.60394806,0.15984175,1.0
Backdoor.Graybird-afee8e31fe9fb0951bdb8389508c98a1de93dbf3beb5eab5725263e529f36abb,0.32080507,-0.11121203,-0.35667545,-0.37193978,-0.34043682,0.39376828,0.34180012,0.19253086,0.07854436,-0.07914122,0.06231226,-0.21459137,0.07534341,0.075197384,0.12800837,-0.08355892,-0.018569995,0.2973199,1.0
Backdoor.Graybird-b0e89e830426555734cc9364af793e2d18c2da4c2637ba0a4958fdefaf4c4f3b,0.21461177,0.16421314,-0.23736715,-0.24234077,-0.39719725,0.45570165,0.14326163,0.0037890158,0.07598614,-0.07737676,-0.021112321,-0.15866016,0.110288434,-0.02967502,-0.10593093,-0.21121424,0.120634764,0.2586426,1.0
Backdoor.Graybird-b4b202425d9d0632578ac630d5d3399c1e978c392bccc49015d296804c2d050e,0.34487668,0.655991,-0.21348044,-1.3853166,-0.40285304,0.54511654,0.24576703,0.10659449,0.2474754,0.18985234,0.11137484,-1.712665,0.032545608,-0.2722846,0.51304764,-0.68753165,-0.7816516,0.7228593,1.0
Backdoor.Graybird-b50c771b0643fcc2080eafe121cb24dc5f21cbdb5ee1d6a80833e7c892d0c42d,1.355166,0.5755965,0.10281674,-0.27794534,-1.1639422,1.0697688,0.22117676,-0.031160472,1.1330385,-0.19745935,0.39966384,-1.1734513,-0.7897728,0.15426137,-0.48174086,0.06449586,-0.0032592881,0.17444396,1.0
Backdoor.Graybird-b62439942588e8e2953b38988d69c96093a848cbd09b6c56ff8a90a46acdeee1,0.6441075,0.5892184,0.9289828,-0.45779902,-0.39473572,0.6968247,0.23397209,-0.43525538,1.123102,0.11474568,-0.5305911,-0.40380695,-0.10353653,-0.4261117,-0.14862931,-0.75359285,-0.20731214,0.6263871,1.0
Backdoor.Graybird-b66dc00d759d7e7bd24d8a7ffea8a7629b7d498777351a92b218c94084490813,0.7822597,0.0855902,0.46298304,-0.078841224,-1.1275425,1.2835689,0.18066396,0.07866654,1.1995542,-0.52999806,0.55253756,-0.74907726,-0.9395303,0.22179466,0.31020525,-0.26211387,-0.39008638,0.40410128,1.0
Backdoor.Graybird-b76eaa093ad34277a7a5edbc5fb0baa5a29e0225f975fff671c4640b229a4b7b,0.56930125,0.073999934,0.17961875,-0.7111835,-0.09339639,0.42418945,1.0620091,-0.9854247,0.7943612,-0.29926062,0.6399971,-0.9035795,0.051922977,-0.5933648,1.1090841,-0.26049128,-0.7177689,1.6151717,1.0
Backdoor.Graybird-b7736881b6aa7a0bf18c5e27ba9055755ffde26b3664c0cc2170381946bfa384,0.34006834,0.06186111,0.68158287,-1.4595749,-0.312013,0.70481014,0.048456956,0.25252995,0.601121,-0.111608274,0.281135,-0.50430864,-0.25879657,0.029250277,0.7952142,-0.7273906,-0.632103,1.0453242,1.0
Backdoor.Graybird-b8c6f42091540caf959c5f816c3b30a2c84f93031292bcd29cc41b3bb4f9bda8,1.2839149,-0.14482868,0.033224046,-0.5133152,-0.57789457,0.8322177,0.6412497,-0.64291275,0.6087993,-0.0834835,-0.3477792,-0.9717456,-0.74254876,-0.18980977,-0.43543416,-0.9085476,-0.29490036,0.59966046,1.0
Backdoor.Graybird-b8ff0d86c56138a367840fcfdd9fb22a6e81662f2587374bc7da963bd7932695,1.60567,-0.29308653,-1.0821794,-0.9543928,-0.12639885,0.6813379,0.32264167,0.07239287,1.2138377,-0.17985182,0.7059272,-0.77625424,-1.1653483,-0.8575912,0.6600126,-0.6718095,0.21000591,0.1785553,1.0
Backdoor.Graybird-ba96f8453e48690995c933fb5c2c66ddda190efb57210194df1d4a39567cb717,0.6315733,-0.2611271,-0.08798391,-0.9145433,-0.5661075,1.0263121,0.37339783,0.8475969,-0.11458024,-0.52921176,0.8935715,-0.59810513,-0.62833506,-0.57036406,0.5305683,-0.6246691,0.037898995,0.6348716,1.0
Backdoor.Graybird-baab9ad8886c8e2217215c04cafec5d183d1e867148ff7dab39ac3b405b0d32e,0.43039387,-0.009061507,0.4252636,-0.45965633,-0.20520729,1.0912205,0.16755837,0.74090254,0.15712312,-0.67730045,0.2296592,-0.66034186,-0.07519383,-0.33359414,0.7926313,-0.8096942,-0.26839736,0.9388161,1.0
Backdoor.Graybird-bb3bcd7121f8fc69917389f87203921a174bdc227a86543480d0eb1e00424e03,0.025806103,-0.0071309973,-0.015697338,0.015376303,-0.010499825,-0.002811561,0.010161112,-0.013570931,-0.021337276,0.0024346411,-0.02540951,0.0010425813,0.024756454,-0.02054234,0.01269927,0.016791724,-0.0074718692,0.023795553,1.0
Backdoor.Graybird-bb50e9e002128a3c9f93d264af4e428ddb1b17d052fdd7d3382eebd968752ba4,0.7986278,0.22192246,0.18493392,-0.48790744,-1.0104746,1.002713,0.52181953,-0.041122176,0.5962034,-0.2624892,0.3528484,-1.240047,-0.7380831,0.42761406,0.099279344,0.08483311,-0.9062007,0.4417281,1.0
Backdoor.Graybird-bbc2b33dd5221c657bc85954d7765dbaeea17c76cd081f0245b310266d729a9e,0.52841425,-0.21844438,0.0591558,-0.5136076,-0.31439865,1.3103949,0.0915593,0.9405052,0.47909454,-0.46902958,0.2092955,-0.9730397,-0.37175563,-0.28980422,0.96887463,-1.2284831,-0.21337867,1.2354527,1.0
Backdoor.Graybird-bc0d7b7b3bd4174a6a541b3a330761d73e33784bb20ec3af183d87af0b0d22a2,0.57378954,0.5253253,-0.0033585203,-1.6061968,-0.51571405,0.6179152,0.3513319,0.34332094,0.3217858,0.1655593,-0.009056832,-1.5251637,0.07155796,-0.35652643,0.66603863,-0.80929416,-0.65736353,0.71634716,1.0
Backdoor.Graybird-bd5688c51d6dfccc1039fb219ab892c35ba24d9822d86ab40c97923c9c570d17,0.47717544,-0.22384894,0.14136279,-0.6450498,-0.45949364,0.9843949,0.5001871,0.93753177,0.25232753,-0.12700798,0.13704789,-0.97928804,-0.27053288,-0.3699124,0.12801467,-0.5950687,0.14273238,0.9173976,1.0
Packed.Generic.244-405ff75ba460c30acc0c447d5dfacbcf1747e0ccf14d43803f245a093a4606f6,0.23433855,0.051293954,-0.28894988,-0.28833535,-0.23238087,0.43774995,0.2753544,0.26965055,0.15859874,-0.13754015,0.06983427,-0.031284504,-0.1428957,-0.033495735,0.20267051,-0.3533861,-0.1510812,0.29226995,1.0
Packed.Generic.436-1a23287a403b7120948ca18d5c923b7758751d547e5c517df9d092e0ccc5b513,-0.020020701,-0.02636751,0.012679841,-0.010526089,0.008373224,0.0048684347,0.014722162,0.013670938,0.021383563,0.0074973605,-0.01119517,0.010724157,-0.005725248,0.023821618,-0.0014088883,-0.0032942907,0.02196948,0.024726579,1.0
Packed.Generic.442-713be2c25660a73a654e607038b61b1481943a623e14ec83f576aa1ee324f119,-0.062661685,0.49404836,-0.30880055,0.02717482,0.01661627,0.70268625,0.28776693,0.2279918,0.18161586,0.10106953,0.016029073,0.034950018,-0.08367632,-0.009244656,-0.16995898,-0.061423525,-0.05743728,0.25154898,1.0
Packed.Generic.446-5074d2b104067bbdc6d8f63c524208a7118737cda0aa67491218cb93e7c563be,0.015947454,-0.009803327,-0.024836691,-0.017306471,0.0011009143,-0.009103145,0.0009208388,0.017991317,0.004791528,0.026494486,-0.0071157864,0.0066190828,-0.0136530185,-0.008062467,-0.0050602523,0.013397634,-0.01244546,0.025928251,1.0
Packed.Generic.459-00d6abcff691d6a002415d014f92742dbf7a0e95404045a5ad5236e95867a7cf,-0.4297029,0.50092065,-0.86650246,-0.2778821,0.218357,1.0218728,-0.18429911,0.34326518,-0.44743314,0.5510146,-0.036529653,-0.49404997,0.1794629,0.06674224,0.23635721,-0.12448668,-0.2913446,0.1137438,1.0
Packed.Generic.459-036dfbafa87aad6c64d39188a29fbc2dbd7811174254e16b0e4b41a912b71818,-0.02440303,0.7268547,-1.0325874,-0.07326752,0.20366174,1.1102751,0.028119335,-0.28714076,-0.18492287,0.04991323,0.19510864,-0.9016231,0.067184865,-0.3727539,-0.20778261,-0.21673122,-0.58837855,-0.120755464,1.0
Packed.Generic.459-0aaf78909cf5b80e9ffeb0c38d65dcf6c9fef8cfab2ddae8dc49586414184c59,0.0065521863,0.19386207,-0.511128,-0.3632023,0.19120851,0.8359191,-0.06468829,0.22688727,-0.51574457,0.25967225,0.1426835,-0.21439385,0.2155845,-0.47885627,0.41686043,-0.30945167,-0.28118327,0.37220776,1.0
Packed.Generic.459-0b3bad40eaa85e5276f7752a2f206367e3c6383cea1665b2ceb38462d9956ba2,0.13057776,0.43009797,-0.35895762,0.26995686,0.4208676,1.0423907,0.87046003,-0.4978008,-0.31373823,-0.3731462,-0.06565332,-0.43961063,-0.038708363,-0.25158384,-0.18352994,-0.349101,-0.7433802,0.3518269,1.0
Packed.Generic.459-0fafa2116d6e4f64b3cdc3b45b6613ecaba5f1d51431ea1e4826009fa3d37e23,-0.34997597,0.38088998,-0.48245308,-0.13986994,0.1362782,0.9316876,-0.082973,0.32218742,-0.27428553,0.43640563,0.0034513937,-0.5039537,0.17294532,0.19718061,0.36430046,-0.15357557,0.05176853,0.3485988,1.0
Packed.Generic.459-17807b69395a94c87cc26f69d0ef2ef5c6173616faa0b692f119006d42b67351,-0.38816428,0.14748456,-0.544688,0.042094354,0.086218,1.0415385,0.353243,0.20653044,0.09816673,0.30116296,0.13253073,-0.16692887,0.52286124,-0.08595419,0.18293314,-0.13391016,-0.5082813,0.22230628,1.0
Packed.Generic.459-1a3a3b3721f70b03304d66b058a1207a18a09b04607cb5534c7d21d9a85e9b0b,1.0996723,0.85334593,-0.9826207,-0.4815503,0.044748187,0.6205422,-0.023305565,0.36605936,0.25480452,0.16771795,-0.79493135,-0.20163295,0.9632743,0.09658294,0.23480088,0.084149994,-0.052686144,-0.56925195,1.0
Packed.Generic.459-1ab7a402f531ed3ff0804d08c7e788a30a9b7979a686a772a625de97bf912c45,0.41104436,0.3238782,-0.7379575,0.3990278,0.19183187,1.0940624,0.31471822,-0.23886101,-0.050015338,0.053111214,-0.02233776,-0.69228375,-0.016078595,0.1782263,0.27353215,0.24115051,-0.47140324,0.26697242,1.0
Packed.Generic.459-1b1639aa5b7df9e22ed2831e3dce05b876f516baa8f22acfc45bad67b5a1ee11,-0.23336497,0.13221402,-0.775863,-0.369726,-0.19901554,0.8208049,0.13864249,-0.20383911,-0.15587217,0.36143845,0.014937277,-0.45306963,0.27318305,-0.36057892,0.20686698,-0.19716814,-0.5133947,0.2999728,1.0
Packed.Generic.459-1e8b814a4bd850fc21690a66159a742bfcec212ccab3c3153a2c54c88c83ed9d,-0.17437914,0.4441997,-0.31727722,0.023304153,0.27175114,1.0000128,-0.07193484,0.5023982,-0.003208025,0.110969536,-0.27037776,-0.34360653,0.36318725,-0.022709193,0.31406596,-0.019815264,-0.16225307,0.25056452,1.0
Packed.Generic.459-1ef7749816a852b040dab62c5014f16fed7ca6eb8bffc17858a0fb1c735e1e4e,-0.34147686,0.4194183,-0.5048304,-0.016677387,0.2276191,0.9646389,-0.16592646,0.35925478,-0.11750182,0.32073122,-0.08273231,-0.25803575,0.25351742,-0.07166604,0.1743498,0.12951593,-0.24337187,0.29818824,1.0
Packed.Generic.459-214bddab1ad8db29d7c9decb88020df62597aa4f216c515b79e51a131f1fe472,-0.0030204142,0.0032828716,-0.025961857,0.026747057,0.023583889,0.025708914,-0.02459543,-0.019403765,0.005273882,-0.022964502,-7.21001e-05,-0.011573623,0.007984281,-0.0023386579,0.023016784,0.02487728,0.0067218146,0.024459455,1.0
Packed.Generic.459-2f51f383024959bfa2fb84c2ceb25165e8cbea46c80dfb5502372a023787b1e6,0.47478354,0.31231362,-1.5500933,-0.5031323,-0.61292183,1.3109331,0.06716842,-0.43180746,-0.13875826,-1.316815,-0.4338577,0.22587565,0.5662517,-0.6240751,1.0426192,-0.67023784,-0.72814775,-1.1619856,1.0
Packed.Generic.459-3815101cbf0bedf2cec3586347591f304a9e1b2ffe705d6432196d602efe4a4b,0.0676071,0.72069275,-1.1245782,-0.11010198,0.14901502,0.8502446,0.22146332,-0.24174209,-0.050026074,0.09298225,0.20193964,-0.77155274,0.47963318,-0.32378283,0.15012597,-0.16355519,-0.35416847,-0.22594835,1.0
Packed.Generic.459-3bba14fa351b56736f18336c6c53b73d0c522821d53244b9443a82e1c7f5e0c8,0.21803388,0.41379198,-0.5932721,-0.2844331,0.21495181,0.31963563,-0.10540407,0.650509,-0.51062006,-0.18125014,-0.20998849,0.037175603,0.17294264,-0.08365359,0.39656982,-0.27784216,-0.23711012,0.29451996,1.0
Packed.Generic.459-3faca97a1e578ff05a6e572f735fd7f3d395d451a590b4902555a6b366b78457,0.37429452,0.26190507,-0.54418784,-0.27231678,0.03928338,0.77731496,0.18886259,0.6636765,0.21607012,0.41829976,-0.118543334,-0.098286346,0.50346047,-0.20586249,0.24631256,0.13939422,-0.15211284,-0.20530452,1.0
Packed.Generic.459-40eae7ab95d657fb8f92e93893c0b1198fba354d24bbae6e14f9f3d2b67a581b,0.17832416,0.29656437,-0.6699279,-0.0705617,0.058459457,0.7299704,0.13242961,0.6108134,-0.4795475,-0.13135491,-0.055391047,-0.07582295,0.19170246,0.10347818,0.7885749,0.2607363,-0.66392833,0.26051134,1.0
Packed.Generic.459-4848e5b93db4f8f84c6a42964c9e9f34de6301cde178efa50000dbd0add961f8,0.10671858,0.28479856,-0.5777502,-0.35293847,0.3694282,0.68733484,0.10484931,0.67046213,-0.17732471,0.2381862,-0.26229468,-0.19241236,0.8517849,-0.08487216,0.3630255,-0.3561467,-0.56036526,0.17970696,1.0
Packed.Generic.459-48d19a47fcd1606c2128e43c511b85107074d1575427277ac5da6c4fb92a910a,-0.2018005,0.46918136,-0.4316191,0.14846087,-0.07945502,0.818163,0.041054673,0.50019526,-0.5241207,0.37280187,0.20527607,0.039386578,0.1783684,-0.3245923,0.35076568,-0.11393073,0.11571574,0.39131463,1.0
Packed.Generic.459-4af525d622d718e7e826421a5f0497fce2d7161a1d7a74e1855f08bf54235e48,0.011500905,-0.012309108,0.025036965,0.016871832,0.0031029251,-0.008047806,-0.014413496,-0.0047333953,0.0063770646,-0.014210424,-0.018990718,-0.023376022,0.0026286144,0.02268102,0.016566506,0.02544323,-0.023876013,-0.027042286,1.0
Packed.Generic.459-4c239e4738a92d5619bc54f5c71e1e7d91b52533fb3084d2b59625411f571b8b,0.020256033,0.018635742,-0.017476495,0.021478968,0.0043738782,0.00045189593,-0.021994956,-0.022631504,-0.0049857595,0.007855283,-0.0033647055,-0.008953686,-0.01562517,0.0036725898,0.021247156,-0.0018809768,0.011804081,-0.007436163,1.0
Packed.Generic.459-4e23ab64fa716f8c029624f913a5528634baba7b503f97039035b373f979150b,0.44957766,0.47489542,-0.8764906,0.21936369,0.2521583,0.8587142,0.14972365,-0.68850696,-0.49782318,-0.31406644,0.43974656,-0.27188018,-0.28491396,-0.18304178,-0.20765874,-0.39016148,-0.46105415,0.3460747,1.0
Packed.Generic.459-505bba216a397c03f8f7b199aa7b8ee855d573acabe4feab68ea754552dc3638,0.0764631,0.43780187,-0.6967364,-0.7532021,-0.1318336,0.043272026,-0.04590745,-0.124293,-0.47618908,0.26997405,-0.78411883,-0.06776283,0.058136217,0.17949086,0.42737252,0.107522294,-0.42012548,0.48723745,1.0
Packed.Generic.459-5e36491adc58d36413844bf77dec3cf05f5c54db4f0f3222094cede52dd20250,0.1587501,0.36549503,-0.7431097,-0.65123844,-0.4423973,0.39737877,0.30320048,0.14612158,-0.56966114,0.06808127,-0.4001501,0.3943761,0.869439,-0.51557344,0.3177892,-0.48600292,-0.495285,0.003572935,1.0
Packed.Generic.459-5f414bb02294f0206d7faed97ebbdaa73598c5e93089f92f08439c441373080b,-0.22266579,0.42374268,-0.68151724,0.11485511,0.19604965,0.6090591,0.064780846,0.45669594,-0.25526443,0.19501656,0.014942636,-0.072837465,-0.12816146,-0.075893894,0.184358,0.01781956,-0.34815192,0.43501958,1.0
Packed.Generic.459-63b5427786cff03648827dcfbaabebffe9b95eac300472aa62835c5ee0e79952,0.22723608,0.7500196,-0.3317029,-0.014881745,0.06399625,0.37566626,0.05116751,-0.121710084,0.33702138,0.0064374753,-0.39716917,0.41858345,0.03910172,0.21241052,0.072885685,-0.013152146,-0.0064525306,0.18757725,1.0
Packed.Generic.459-6415395860da34f7eccb31a2088e6c85370920f3a94bfe58fd158b1a1696de2a,0.03530933,0.4979113,-0.54356056,-0.22203289,0.2930607,0.58484644,-0.024919672,0.4160862,-0.635617,0.13528183,-0.42845252,-0.19090559,0.034315914,0.032686755,0.4738438,0.15301181,-0.5270988,0.38579127,1.0
Packed.Generic.459-690abd0547a6a385d6889aa9494d4c6572c5bdd0a216ba19d451b27bdb673d03,-0.24986859,0.4190535,-0.45679668,-0.15556297,-0.029080413,0.68400735,-0.08680724,-0.08633234,-0.28588575,0.069731325,-0.21634465,-0.08103587,0.3435637,-0.34244034,0.21297467,-0.3328109,-0.12609635,0.10694364,1.0
Packed.Generic.459-6a940d6390897ae6b48247fb688b3ab7ec24be63fbfe4d21278f8d0234e259ac,0.48240596,0.44010827,-1.5738692,-0.48405862,-0.7592375,1.1770668,-0.08196991,-0.6975995,0.07836129,-1.328624,-0.42362234,0.32554406,0.66389304,-0.907571,1.187084,-0.6735645,-0.68117595,-1.0179182,1.0
Packed.Generic.459-6b6a2c973e26b4df5811a8977314d75c8f16be4f339709396719458d47044927,0.33739734,0.39645413,-1.3513838,-0.41782138,-0.69437855,1.2699381,-0.15041131,-0.53908646,-0.23617283,-1.5396936,-0.172296,0.286642,0.35037225,-0.80287737,1.0821825,-0.6240859,-0.87552077,-0.8679829,1.0
Packed.Generic.459-6bd57c2f8a3f48394a8ad4d86156f170fe3c9216ce5ed181af4b9cd28cf6cd68,0.24138199,0.37772667,-0.8387636,-0.005360741,-0.01770729,1.365755,0.068813205,0.019034807,-0.0015038042,0.14192872,-0.1210406,-0.54907566,0.61052895,-0.27181798,0.059045956,-0.20758948,-0.39956877,-0.40534234,1.0
Packed.Generic.459-6f1c56439369077eb7a71589ac4eaf40b786630541e03f440b5d0ec8573b6f14,-0.7000879,0.27234784,-0.77790916,-0.058338,-0.08515785,1.2913139,0.37648684,0.04264388,0.07963344,0.17599651,0.3840352,-0.101289414,0.20081587,-0.53255105,-0.12669149,-0.028870108,-0.43931788,-0.11500732,1.0
Packed.Generic.459-6f9871dd1c8d32f573af024b2e1266a45335b25d9dac7da43e13b95d8674b991,-0.13745272,0.7355946,-0.5804865,0.08902871,0.03456466,1.1019801,0.20795704,-0.079734,0.033226795,-0.052137677,-0.2805719,-0.24810717,0.42780143,-0.52431816,0.06507058,-0.41444162,-0.2976923,-0.39551562,1.0
Packed.Generic.459-6fd527f97246c1dd2f490592e92929cbd220facdaeb51c2ac0746a2d6afa4fdf,0.26484138,0.31841677,-0.5563725,-1.0769962,-0.09861732,0.69687676,0.045980275,-0.06635438,-0.35270587,0.5565008,-0.4433535,-0.50152487,0.19562036,-0.28136063,0.51850593,0.2663309,-0.2214271,0.039581995,1.0
Packed.Generic.459-77499c6177ab8679acc3e56ffe5e259d6d6b25601393288c66edd0abb99d1c8a,-0.15019454,-0.18006407,-1.2536945,-0.5698174,0.19497524,0.589458,0.24160302,-0.18036738,-0.5619632,-0.480886,-0.5061334,0.9732234,-0.57947344,-0.7231583,0.23287319,-0.88969016,-1.1430393,0.30132234,1.0
Packed.Generic.459-7e9042c93369a37c040e5f8e2a82f5c1aa822c2a980ea5b6407ceb95358973ad,-0.5535095,0.52429,-0.7153135,-0.25053987,-0.0034778556,0.8973388,-0.17227103,0.20859951,-0.46395567,0.41597953,0.2054253,-0.53091985,0.266665,-0.10993974,0.20937932,-0.2738137,-0.47852495,0.1446258,1.0
Packed.Generic.459-830e78e59168bc9dac1620914be9c3496f14cbe88da845657aad553ccd3166b0,-0.24081334,0.5400695,-0.49456346,-0.014865548,-0.46876934,0.8896516,-0.17896958,0.41344962,-0.13679588,0.328085,0.026126169,0.34140337,0.42273325,-0.22697218,0.029803239,-0.22303113,-0.22199415,0.29410297,1.0
Packed.Generic.459-89505c4ce4333973404152b4d282a2db465b55695f3f4a3d99302d41e71a37c9,-0.27459982,0.40087008,-0.80408216,-0.3663162,0.32685903,0.60303605,0.78294337,-0.55302846,-0.20838428,0.2307645,-0.086929984,-0.2219947,-0.017326873,0.039621137,0.23811552,0.1537809,-0.9911857,0.40094423,1.0
Packed.Generic.459-8acdc4645bfb9f66a12ecdf08f10b2521c1c5abe09362da80ace6cf8d2cb97d9,0.25042433,0.18184334,-0.78395283,-0.25117752,0.21069787,0.743857,0.14973143,0.42415258,-0.287847,-0.121194765,-0.046945047,0.13043684,0.2610177,0.14411142,0.7163337,0.18289244,-0.7108992,0.029258085,1.0
Packed.Generic.459-8b33c1d9e943e1e10a16413b9f15224dbba0985a0b7d7c64ba5846ffc456b2eb,0.32805568,0.2485347,-1.6067345,-0.5153251,-0.81784046,0.99475783,0.014646046,-0.4066235,0.14523126,-1.3757988,-0.29669875,0.36165422,0.50609833,-0.7724704,1.0902677,-0.6170808,-0.53622967,-0.7404868,1.0
Packed.Generic.459-94e82f70d4868e71f0a5692ee7427de1ba82023eb29c903f8709f32be68389fa,-0.24644285,0.41735718,-0.7762598,0.21281584,0.103423834,0.7465039,0.18703316,0.48287323,-0.15142904,-0.0464521,-0.22369826,0.2568712,-0.12980127,0.14269456,0.09120445,0.5931068,-0.28706738,0.6673269,1.0
Packed.Generic.459-9a0d060554e226aeea332c88eac9a398c0eb2369d18b4ed026e552937e005f7f,-0.041439638,0.31605855,-0.6771044,-0.3838045,-0.061095916,0.28775868,0.071485676,-0.019246344,-0.43594733,0.1665039,0.0017598954,0.31960312,0.48477829,-0.34919325,0.28176072,-0.39530858,-0.39858037,0.33241764,1.0
Packed.Generic.459-9a21a5ff38c96546fe8cc265e528545c4af6c1c1f9f0425a18b100f6668f15b3,-0.31184795,0.41488266,-0.9766622,-0.28393576,-0.22613724,0.07834302,0.46646553,0.22769564,0.21983622,-0.66050136,0.17273779,0.04779037,-0.18546137,-0.37517682,-0.34532878,-0.6204179,-0.10849174,0.2505633,1.0
Packed.Generic.459-9c31fae7e63fab99afa523523a522406d31efc2fc8911cc66a2a01d3aac7f3ec,0.08236236,0.24697533,-0.358203,-0.08648078,0.15229383,0.16670662,1.0834261,-0.12446982,0.9546287,-0.110215716,0.30500013,-0.3305806,0.12589994,-0.17832439,0.198206,-0.21782862,-0.062668316,0.42587975,1.0
Packed.Generic.459-9f2f873d5dc70f42e4908fe27e07335d3af9cb66138b8ccc1702e0bb3f19b93c,0.18321595,0.4366926,-0.14497282,-0.038864516,-0.031400915,0.39249474,0.24386472,0.248798,-0.036252074,0.16475825,0.011609939,-0.02711478,-0.03363311,0.14272611,0.259662,0.0023347968,-0.067374565,0.30726862,1.0
Packed.Generic.459-9fbad03e4fa9ff326f01f4db9c104a6f9eaa45c395c9b18a8e1c20bbfffdf83d,-0.62617046,0.4666083,-0.48316503,-0.34901217,0.10766778,0.6202761,-0.18753941,0.59564906,0.00384182,0.078953765,0.1414456,-0.23691423,0.3892893,-0.012465667,0.24046804,-0.1627061,0.09051332,0.2494431,1.0
Packed.Generic.459-a0d548572e73075a60c4f4b969ebb710715f1548e2793e75b9302d4b112d0c6d,-0.5662504,0.5067095,-0.8323757,0.4291498,0.15811372,0.81285113,0.34181693,0.53932106,-0.28006533,-0.24279208,-0.20607215,-0.17152375,-0.29964486,0.0058821784,-0.21954475,0.007446632,-0.13387261,0.42622238,1.0
Packed.Generic.459-a504e7a61acabbadb0b7da8ad32b371bd3cc96438da513076cc4099a6b893da3,0.30669034,0.2353377,-1.4379917,-0.3564153,-0.7264881,0.8878616,0.045947157,-0.5392275,0.12281553,-1.4019266,-0.36244878,0.23225747,0.23739794,-0.77572984,1.183649,-0.5530064,-0.7528974,-0.73248726,1.0
Packed.Generic.459-aa780f5d84f401e8d91a82ec648129c76a4cb560e24d31a0e4894bbf59216254,0.4428517,0.6048412,-0.51170254,0.3631179,0.16172267,1.3550074,0.5799678,-0.311706,-0.54383504,-0.18976323,-0.13781674,0.046577204,0.24431032,0.11160128,-0.274463,-0.12816772,-0.28313103,-0.45126128,1.0
Packed.Generic.459-ab53105c89c2b60cd3c71af68b54c9ddf8d67f51ed8e2b8246950a76e71e5b8e,-0.43333906,0.32694012,-0.94358385,0.0075062755,-0.54635614,0.58184046,0.35037592,0.5592073,-0.4465682,-0.2662416,-0.35721153,0.07783236,-0.031104477,0.09146902,0.17923763,0.39506376,-0.42311907,0.3784157,1.0
Packed.Generic.459-b94ba3366281d25ea57e8a95611f6c0d49e4eba43d31b52e226eb8bd7241bfbb,-0.47266227,-0.16153139,-1.0044909,-0.36416402,-0.10540261,0.4373457,0.29620728,-0.4054852,-0.16712965,-0.11881119,0.19463411,0.16567428,-0.13458917,-0.56845087,0.455154,-0.86236155,-0.36347032,0.47501728,1.0
Packed.Generic.459-bb21142319ca5cd9f9421a3c72ff3790214e7a3338a5a4af178ffe163439a987,0.3085418,0.20077439,-1.7244856,-0.3548845,-0.64065653,1.2614602,0.23111175,-0.5703986,0.015984397,-1.4185587,-0.4537672,0.22032744,0.5553911,-0.77999276,1.191805,-0.446864,-0.9555183,-0.8388265,1.0
Packed.Generic.459-bee0217c1a15eb06b4e1ec2053b552f6d959bcb7f0e8a4c52f2aa6b08639f808,-0.47215146,0.24682061,-0.9308177,-0.13781886,-0.06919459,0.6044981,0.34491777,0.56512415,-0.5411992,-0.14628062,-0.13407345,0.01300685,-0.031146942,-0.060644213,0.26729238,0.16624817,-0.5502921,0.21825369,1.0
Packed.Generic.459-c1277fe78f0ddd35e79823e50d9c5c6818e8d71f35f72be9fa291e57a08231cc,-0.29298797,0.57495797,-0.58078474,0.17983752,0.18395627,0.8487671,0.28580058,0.23915663,-0.17555475,0.22427714,-0.08947404,-0.051936626,0.31864467,0.01759105,0.25180885,0.15521067,-0.5080786,0.2832043,1.0
Packed.Generic.459-c284808faf0e9c6c3aa49bba3a39113237ebc5dc9373fcb4fe6abeefbd57c475,-0.011440811,0.254622,-0.09011309,-0.46479854,0.11840977,0.23780589,0.076127164,0.24334535,-0.11568858,-0.19492678,-0.19919506,0.16647165,-0.23441896,-0.052312538,0.19865057,-0.49691907,-0.22155917,0.1749213,1.0
Packed.Generic.459-c6c8c29d4d3ea2021efe4aade2ac785e43617039109e2d0a334bb6e14ed4b02e,0.0035634206,0.024712436,0.025313556,-0.012096528,0.026391609,-0.0061773276,-0.0038321498,-0.005748855,0.0024980174,-0.0011027125,-0.014051239,-0.022379138,-0.024555046,-0.015259225,-0.012731173,0.021496547,-0.021643143,-0.007131522,1.0
Packed.Generic.459-cad1d8ddc393f8e5c99fe4b3a229d43c0daad3a05601a04e1015858746a0f72c,-0.36848775,0.44931293,-0.68756217,-0.46029535,0.13984512,0.56599396,-0.34502786,0.29340142,-0.42496508,0.10529094,-0.20845652,0.010214807,0.30902144,-0.45184767,0.4259626,-0.19039965,-0.4608589,-0.038413465,1.0
Packed.Generic.459-cbb510a3dc80802cf748aa8a300b68c86dab31b98d376da140424c8caa2ce63f,-0.5877968,0.8144092,-0.20818569,0.0060511176,-0.23284158,0.60019726,0.30932668,0.29209015,0.10834866,0.49110016,-0.12557602,0.0121814,-0.0013392072,-0.23463207,-0.10484587,-0.42205128,-0.10410815,-0.26597264,1.0
Packed.Generic.459-cc8ba0292c86b520bf40a54725729cd8996b1526565e0d3c13edc5ea926d37f2,0.34592602,1.0109848,-0.9711106,-0.6873205,-0.1522143,0.53440285,0.13213287,-0.31510717,0.090097815,0.22187912,0.13328002,-0.83484316,0.5053697,-0.2926277,0.24644163,0.30182102,-0.2530413,-0.38138914,1.0
Packed.Generic.459-cd61577fcc4e233d93257fee3ca48b9a047439a1d4a63c9bcf6bf1e5cae362f9,0.08591198,0.5576906,-0.43012527,0.31178162,0.39077654,1.0698107,0.50758123,-0.04754728,-0.40099806,-0.090491,-0.15052128,0.23061107,0.14882019,-0.12539826,-0.2103603,-0.26330203,-0.37303558,-0.1482981,1.0
Packed.Generic.459-cee1070329d89c7e8b91fd447637c660ce7c85be47b4e3d397a8a5df1a69543c,-0.3661361,0.5539476,-1.3370632,-0.16344899,0.31117877,-0.020940272,0.5324034,0.34152776,0.4754803,-0.5343961,0.16107742,-0.07585955,-0.17041756,-0.27991748,-0.43859908,-0.6606813,-0.124591075,0.20081882,1.0
Packed.Generic.459-d1a1c48eee2997b966866aff1e91e05d606283454a6c4d8a14b4e0608089c575,0.12730044,0.57928705,-1.134189,0.11227546,0.22726978,1.0685402,0.26675487,-0.32415757,-0.05848562,0.03215877,0.30442506,-0.6157886,0.33969945,-0.2623505,-0.14819479,-0.27833855,-0.5659171,-0.15589602,1.0
Packed.Generic.459-df81db69dfeea1069747017293171e41ae078264032f6ae322192eca2e0ceb18,0.14163312,0.30972826,-0.33135015,-0.342072,0.2181497,0.84649354,0.010734427,-0.19837114,-0.39496222,-0.106288895,-0.13409592,0.4551219,0.17279358,-0.27978456,-0.017479641,-0.39207608,-0.14952238,-0.2590793,1.0
Packed.Generic.459-e01a6feaf948054fda71f7cc2186c06b8b0b34ee1d67bf8f474a8d3ab3476cf7,-0.37020233,0.39566237,-0.6667081,0.13634941,0.08465801,0.97968364,0.5913841,-0.11379443,-0.09567196,0.23958237,-0.07256083,-0.16432294,0.375994,0.18869518,0.21426873,0.04619731,-0.8153654,0.47755244,1.0
Packed.Generic.459-e25248e56c0a1c4f41e0d41d15bd8174bdb1154fad585bf2f2f8196a61798fbd,0.38746616,0.48810375,-0.44259426,0.29618058,0.36674187,1.1159874,0.5021891,-0.088545166,0.09672195,-0.41499647,-0.5857701,-0.20115566,0.28661734,-0.12612571,-0.040165626,0.0036427407,-0.5435901,-0.162365,1.0
Packed.Generic.459-e316f11b798e6fe8cb480f6593a247f0904d9b73d34b20a0779cb7e10595d58f,0.3115845,0.35471088,-1.3744808,-0.4802315,-0.95417273,1.1523745,-0.28767705,-0.7591358,-0.0051418827,-1.1647296,-0.83319134,-0.011048663,0.684149,-0.78613335,0.87356013,-0.84452677,-0.77489644,-0.83400303,1.0
Packed.Generic.459-eb7c1601884b212effd5de39a9a03ed1906f7780cc2e83efbebdeba9b99600bb,-0.35384187,0.564078,-0.55195665,-0.607374,-0.0894282,0.56611365,0.045887846,0.18810971,-0.41634417,-0.08161143,0.046727348,-0.18805355,0.18435015,-0.1693648,0.14773875,-0.24777251,-0.16651942,-0.16664077,1.0
Packed.Generic.459-ed473a0c51bce88c92572db81a114854fe32bc13e51439437781224d123b1db6,-0.10585554,0.20259404,-0.16869155,-0.4658332,0.087119006,0.28162622,0.16232768,0.18518119,-0.02963663,-0.084988974,-0.20878138,0.17499843,-0.34381598,-0.17709944,0.04895479,-0.40480664,-0.22197174,0.09028451,1.0
Packed.Generic.459-ef5f6188077b4af8447716698d3bf7256e3d52746d7caf89a7cb662c225a0702,-0.40393448,0.5556249,-0.76588863,0.1844802,-0.07919413,1.0035329,-0.026606021,0.43097824,-0.0894373,0.34253028,-0.060161125,-0.12472173,0.16103506,-0.045528714,-0.0155095635,0.19387603,-0.22790366,0.11686293,1.0
Packed.Generic.459-f0b78c237246d4feae48fb025e061955f18d8c12674a3446669b3ea0a665bfee,-0.069221385,0.08357361,-0.9679685,-0.55535215,0.25489888,0.4696628,-0.10649077,-0.05948053,-0.5227153,-0.7613482,-0.5916399,0.9312983,-0.5741238,-0.77448606,0.2421847,-1.1448568,-1.1975596,0.38699704,1.0
Packed.Generic.459-f9f09f8f0fb86c6a69d5118ca0e0320c8f9dfc7ff6130ae94a830d315478db95,0.3741169,0.4739571,-1.2313313,-0.45142683,-0.76540583,1.3101175,-0.27842006,-0.4442566,-0.1428306,-1.4397371,-0.15501894,0.49993062,0.38268036,-0.8337024,1.0556272,-0.5798522,-0.78750503,-0.9352557,1.0
Packed.Generic.459-fa2d736ba0c93a5e1a3df9c219579f4f70d588df49d365345b9a7cd3f1c6f6be,0.055320624,0.35020366,-0.32271782,-0.5899874,0.0961011,0.08291947,0.22801587,0.04760399,0.16265592,-0.1906836,-0.07337768,-0.31077927,-0.14760913,-0.13139576,0.25532517,-0.10808994,-0.10564814,0.11740935,1.0
Packed.Generic.459-fd00df759209178ca88a1415cf22bfb1d0e42aee10a1ff5bc1e88717d763a6c8,-0.6978636,0.41839534,-0.8775456,-0.3929088,0.09173666,0.9703593,0.14408244,-0.019756021,0.087094285,-0.097256415,0.18747891,-0.036019422,0.4244852,-0.24431765,0.2954601,-0.0211193,-0.29556072,-0.05167729,1.0
Packed.Generic.459-fedc06a181bb97a1f18dda82e9c48bc0ec413392f01564901ffefaf25b9166c0,-0.38359067,0.38942286,-0.7364109,-0.027177652,-0.03568216,1.1677049,0.33084673,-0.08009652,0.13425915,0.15644366,0.08490473,-0.25087965,0.21659534,-0.10840362,0.13143647,0.042410273,-0.38362262,-0.037003204,1.0
Packed.Generic.482-1c88688bb677f19cb78120b589ade1ad8f44b917ab6f3f051262059304d6b707,0.45181903,0.05529563,-0.50186324,-0.62367904,-0.28417438,0.59964216,0.18693854,0.15389468,0.19064356,-0.57246786,0.028666794,0.099037215,-0.7174141,-0.4799269,0.38936222,0.12886882,-0.21716186,0.04688757,1.0
Packed.Generic.485-31dc99adc339ffb8009b0d19d2fc9d8493e77abc8c00885cb02bc29e729d0290,-0.10271075,0.39351946,-0.39843923,-0.7148315,-0.37090433,0.28255832,0.5185472,-0.23641253,-0.10892679,0.010958731,0.49193415,-0.042731572,-0.035795026,-0.328097,0.4132583,-0.20147319,-0.31739807,0.12033906,1.0
Packed.Generic.485-6fd26757399429f32c7f2fc2e2a07db270a65522d996442ecdc63cc27c9744f2,0.024884082,0.009825889,-0.01285797,0.011287596,-0.025297025,-0.009245255,-0.020930218,-0.01091641,-0.019401917,-0.01843108,-0.0018629531,0.010649956,-0.002978262,-0.017330471,0.02060327,0.025364287,-0.00597997,0.0026211673,1.0
Packed.Generic.493-033e5773ba2326d4070677f49c1b8a2e062165efca44e301c780e4f860ea5ace,-0.18722112,0.4753475,-0.7829946,-0.34172544,0.1239364,0.49986744,-0.025326293,0.26480025,0.19979568,0.25701368,-0.19262713,-0.34203863,0.2179783,-0.29177207,0.47148037,0.15238811,-0.30002668,0.011687518,1.0
Packed.Generic.493-03a89497cd2585ce7b0348cbb7f15fd7bc8231c2272b677f05f3a852537eb700,0.000117110816,0.05749113,-0.6952255,-0.55707747,-0.17179231,0.43450165,0.3050316,-0.13730872,-0.36676005,0.30781972,-0.08711097,0.0070853005,0.59063494,-0.35389057,0.46874267,-0.4923644,-0.5260365,0.4545656,1.0
Packed.Generic.493-03d81b2f3b4b81745371da608d2da8364768cc3d6979348815b4a1400a746024,0.03365134,0.34108138,-0.66967875,-0.10521922,0.11548284,0.5077543,-0.14769061,0.6652942,-0.17373067,-0.25134677,-0.057648752,-0.26446924,0.24948768,-0.29704884,0.3203781,-0.36562437,-0.43958756,0.19483483,1.0
Packed.Generic.493-03f2cae4481d9d07eca4d43dbfaaa4a298fe2120628a915fb10a97619ada0a99,-0.0379379,0.83219934,-0.3922934,-0.14938614,-0.15378033,0.19446284,-0.10275716,0.19027066,-0.3375098,-0.07066183,-0.118323885,1.1867243,-0.18008788,-0.45041507,0.7095311,-0.16153169,-0.86248875,-0.015979383,1.0
Packed.Generic.493-042b0cfec8bc8f81e91a5c4fcf6bcfa610fd32573651bc38d1810715fcb0f6d0,0.5718833,1.1149899,-1.2324862,-0.36938688,0.06527816,-0.13929561,-0.19089632,-0.032864023,-0.6845693,-0.15858896,-0.2967022,1.0906253,-0.8761707,0.74120915,0.36345482,0.15935868,-0.48161745,-0.2421094,1.0
Packed.Generic.493-04ae5bee8e1a64519ba24ce669dff1e819a580a408290e261279b6c64ae41163,0.7027098,0.42186397,-0.56249845,-1.1196436,-0.012665453,-0.20477426,-0.16816765,0.4001405,-0.17722897,-0.23294917,-0.06064534,0.6621966,-0.12307608,-0.5961263,0.37034488,-0.399692,-0.4356014,0.12878835,1.0
Packed.Generic.493-04ef2f19cc604e10b3dec55030a851675822012105ecaf9f0f30d59122ee24b8,-0.097793736,0.582851,-0.74205476,-1.3393358,-0.93446165,-0.18700323,-0.3961778,0.06242306,-0.15771188,0.28762245,-0.5037187,0.7008091,0.25208983,-0.37660888,0.66208714,-0.49377698,-0.6870942,0.104431644,1.0
Packed.Generic.493-05c40ea59eba20c51d545e56c3b439ca6babe89421cac3905230703a85b42b6c,-0.038300414,0.4119668,-0.73686814,-0.3292679,-0.13324727,0.24584429,-0.1807798,0.25949207,-0.53250074,0.048204422,-0.22008888,0.31644353,0.28910694,-0.29911506,0.16809876,-0.29721478,-0.1969049,0.056028217,1.0
Packed.Generic.493-06cc1216dd4082717b0a803dc6cf08c179700d0b6361682d77cc413509736cd3,0.16288462,0.26898474,-0.8451216,-0.8704208,0.14716151,0.60404223,-0.26669422,-0.059226543,-0.30473143,0.3506127,-0.196605,0.016727792,-0.081788436,-0.07240919,0.44628683,0.45113355,0.0029665763,-0.18117493,1.0
Packed.Generic.493-09b89daea8ca96123244c43827b25ba7b9de5b23bd47a5d84b469ba5c4f6b81a,0.29396757,0.695478,-0.57545614,-0.41580826,0.27407104,0.29801857,-0.26337853,0.41634354,-0.2913066,-0.2282886,-0.02106902,0.09452779,0.3408925,-0.08316237,0.24424984,0.055088602,-0.41821027,0.025323547,1.0
Packed.Generic.493-09ee3b0ca334d7adf03d594432d6be22345f5579ffbc889824e94a4feef7d211,0.24679974,0.036328755,-0.2890809,-0.20970544,-0.20214233,0.377816,0.29413614,0.2674041,0.08551104,0.21436638,-0.2428183,0.27648994,-0.20801516,-0.061598353,0.076777115,-0.27061668,0.11876263,0.14243884,1.0
Packed.Generic.493-09eee33ffe9823e2bfdd68237ad683fa489ba8be50ca8a74f43ca6d94c8a9e05,0.21122392,1.0989873,-0.60020804,-0.40920413,-0.075909235,0.17062713,-0.16717072,-0.21412665,-0.6331434,-0.18156077,-0.3741277,1.2387979,-0.08663867,0.04047093,0.81652844,0.3043473,-0.4997235,-0.07048305,1.0
Packed.Generic.493-0af1867da1859394f6555412abb06ea919338580bd2d0da1631a2afe5155e794,0.4028528,0.830001,-0.5989934,-1.2942593,0.3132419,-0.2825016,-0.16040242,0.12628964,-0.21919866,0.07683309,0.25151357,0.7811384,-0.24562159,-0.7071721,0.22519796,-0.7923186,-0.4982434,-0.28814405,1.0
Packed.Generic.493-0ba860029509fa7caa09964ecf985dfb054513a3485f828e5c3728798b8e9c31,0.019006671,0.6151218,-0.52879846,0.042858433,0.5222809,1.1224334,0.38873652,-0.07388654,-0.7195524,-0.3980969,-0.20364489,0.032252736,-0.118517734,0.13126642,-0.20830111,0.12063244,-0.69217306,-0.23055637,1.0
Packed.Generic.493-0cafd8c517b7db9a4884607639708c9f5817c7b1b289c5d7e314298d01fa3a2d,0.20546882,0.52940696,-0.3896931,-0.18221658,-0.15285748,0.46061978,-0.19095781,0.31881797,-0.14279956,0.10136129,-0.027584955,-0.04012225,0.32962894,0.03707579,0.24111551,0.13605396,0.15381801,0.19451092,1.0
Packed.Generic.493-0ce63b7da709e077b3da47992aec484510dd07f0065425e2e1aae1c9b9e1d684,0.51225495,1.4348164,-0.6826692,-0.7153712,0.50612026,-0.09713102,-0.03163976,-0.034558512,-0.49340478,0.08027389,-0.35298976,0.58294404,-0.44346774,0.45660824,0.32238773,0.34724912,-0.51625085,-0.48131594,1.0
Packed.Generic.493-0d092c1a16bc31b012d1c81b4480539768d69aeca135d70846d78c69601bedf8,0.10349868,0.8077572,-0.39658615,-0.5890367,-0.105492905,0.42988524,-0.16988209,0.13720235,-0.43087104,-0.1434379,-0.00014472152,1.3970492,-0.28256172,-0.53815925,0.41426906,-0.13792065,-0.60425746,-0.38789243,1.0
Packed.Generic.493-0dd4d4fdcaeb57a4b640d6cbafc0b652ccef4d70b91814dc1178718a8893db46,-0.010743412,0.42698938,-0.6884747,-0.85119504,0.24102572,0.44029722,-0.17200866,0.5004088,-0.17197324,0.3523328,-0.29493895,0.03577724,0.39497906,-0.40338975,0.5203248,0.090698026,-0.49799994,0.001967183,1.0
Packed.Generic.493-0e3423f3259e78e77e59b890bcf6d6c6f69a474a0985f2909f649590ea63dc3e,0.29086974,0.42722,-0.7044348,-0.7154255,-0.08529701,0.33240098,-0.27552742,0.52619046,-0.19971815,0.21576837,-0.33601865,-0.15886042,0.51378036,-0.16548745,0.5566299,0.31030104,-0.38951018,0.108659066,1.0
Packed.Generic.493-0e836f79b44f329b6fb5b774bbcc90a261c25ec6e587de1be05add517deac82d,0.33901528,0.45365888,-0.62658894,-0.3254674,0.10459839,0.7109528,-0.1882534,0.5511852,-0.11656351,0.065645225,-0.0647462,-0.34524584,0.21954918,-0.32899055,0.5554664,0.24894793,-0.22805862,0.024137553,1.0
Packed.Generic.493-0f1c51d55dc4bde3cf0c62147fbe6409bdc4d341d52247d00f586a6482af1511,0.023273334,0.3517886,-1.1215147,-0.4008475,-0.30750814,0.5071931,-0.08756901,0.74719644,-0.17632154,-0.3195528,0.069945686,-0.1967633,0.11808254,0.056255046,0.24905908,0.42018235,-0.7326784,-0.07878357,1.0
Packed.Generic.493-0f9791c794f5b75a028a9f00882d1a429daebe07d4c383b42c0c93c6deba1feb,0.7329325,1.142089,-1.2536148,-0.5502205,0.27190533,0.7289002,-0.23487361,-0.11824918,-0.1614999,0.093888596,-0.21941474,-0.7159785,0.35149688,-0.51984364,0.17409435,0.098177224,-0.13895299,-0.6170307,1.0
Packed.Generic.493-0fa6afcf6e176443f40a957d536390b16863490e7ebbd67d56ad9a64ab089fe5,0.18564996,0.29116687,-0.38152188,-0.7197342,0.18082787,0.18635847,0.080669306,0.21282206,-0.24117722,-0.072154276,0.051497303,0.3634669,-0.0661453,-0.43168885,0.17697735,-0.27676448,-0.41737688,0.12570234,1.0
Packed.Generic.493-10b3ba47ca026bf5e8bad5df0f4f777ff134dec6227852540def207525d36eb3,-0.042267695,0.5095629,-0.89919376,-0.9217289,-0.40324143,-0.3955909,-0.73970985,0.25906292,-0.55130595,-0.3705072,-0.73254347,0.59164613,-0.15816972,-0.8344225,0.21404916,-1.1783739,-0.8738362,1.0035946,1.0
Packed.Generic.493-11d6325f04688567de142e43f8ddb73ec622bfb61a00e9c958876790ffa1c061,0.07789127,0.320303,-0.49067956,-0.29125747,0.0753966,0.7128381,-0.17199378,0.3000798,-0.011463719,0.27604985,0.18597938,-0.3034006,0.19989657,-0.14298365,0.38879818,0.24742074,-0.029224297,0.2580435,1.0
Packed.Generic.493-12bb1c91686d3809451aa259ffbe2e6d02542e429dd4fa743b5f35ae3c0ae246,0.57642657,0.5997562,-0.40952164,-1.1075407,-0.15595251,-0.27701807,-0.30264986,0.24788398,-0.31178564,0.012650943,0.10568825,0.70156324,0.07205788,-0.59087086,0.23842753,-0.80996627,-0.46733442,0.3396695,1.0
Packed.Generic.493-13f4978d7d789b0a5ffc8bde52a6ba66762782610904fb1abfde1048c5998568,-0.22610468,0.58683085,-0.59616256,-0.42599592,-0.12240822,0.9421562,-0.00906179,-0.06036658,-0.1198538,0.33710203,0.20018584,-0.07641399,0.6283121,-0.26065373,-0.17793086,-0.39737856,-0.36381018,-0.15047228,1.0
Packed.Generic.493-15e0a189813b2b0ab552872bcb9ca44e901012a6b157b7a22313ba1fda303eac,-0.2004055,0.39553332,-0.7500045,-0.49673274,-0.03528229,0.4450962,0.21483886,-0.3962438,-0.6829219,0.6979118,-0.36598852,-0.08723626,0.22395484,0.024260232,0.52874506,0.01411774,-0.3788617,0.45129642,1.0
Packed.Generic.493-16a0788252dafa6c3561ded3454c800077f2985b642d9916a3af098863661bab,-0.2903484,0.4504481,-0.90479106,-0.6893209,0.15185544,0.28628507,-0.013601884,-0.08433143,-0.49823132,0.251607,-0.40691614,-0.36478102,-0.106337115,0.06490224,0.16829051,-0.040519767,-0.58038753,0.101753876,1.0
