,0,1,2,3,4,5,6,7,8,9,10,11,12,13,14,15,16,17,18,19,20,21,22,23,24,25,26,27,28,29,30,31,32,33,34,35,LABEL
Backdoor.Graybird-009a62c6f6543ec65460d9a3984fac8dd65aba2feacfa00e8e253bb474a417e7,-0.45614633,-0.20465723,-0.08510637,0.53942215,-0.17232345,-0.46068174,0.18608826,-0.03519438,-0.27303812,0.60718983,0.14385733,0.44858682,0.25190115,0.0032197838,0.35828015,0.6366286,0.09739762,-0.07421973,-0.58875704,-0.5472166,0.30183804,0.536195,-0.9393352,-0.19765757,0.5665074,0.4028779,0.37585422,0.081155874,-0.6077685,-0.43304616,0.075547665,0.54400474,-0.87250715,-0.07840827,0.26320052,0.41018835,1.0
Backdoor.Graybird-02842b14fc265c045f10e2c5ab47c0b0a757c41d13a53194deb66aceb2e3993d,0.053732235,-0.37401125,0.47532928,0.32451037,0.2957558,-0.06073812,0.25037667,-0.10400995,-0.46329224,-0.20697588,-0.25290763,-0.0138388695,0.70530486,0.60468125,0.49594665,-0.106011115,-0.11754459,-0.13356365,-0.058838576,0.21353191,-0.17687602,0.044825364,-0.057866618,-0.09625644,0.0009633831,0.6693057,-0.4681729,0.018968884,-0.8974614,0.09434057,1.0218132,-0.23947476,-0.5080738,0.60584044,-0.021425007,0.49879614,1.0
Backdoor.Graybird-03b5962ef8b9c83fe0ed10fc4333a68462865f3a4442346c5f7d004a46555448,-0.39523146,-0.3103374,-0.35516712,0.36864585,-0.6321666,-0.016545236,-0.00052230567,-0.21128473,0.4283413,-0.03425342,-0.41012055,-0.4304557,-0.51368344,-0.15702198,0.4619702,0.40940598,0.332694,-0.47258392,0.25755084,-0.12403052,-0.15999398,0.92297924,-0.35006,0.32708007,-0.60265636,0.27717975,0.17419064,0.016814964,-0.4870005,-0.09930208,0.18273626,-0.7493746,0.39956647,0.045399267,-0.44848546,-0.58429646,1.0
Backdoor.Graybird-049f53a05707c2cccd67540609368ef20f395327adb9a026267369d568f78c0a,0.32869193,-0.443735,0.07560352,0.29773858,0.632728,0.33560523,0.26350725,0.93532854,0.22140697,0.27542102,-0.105602466,1.0787008,0.45580617,-0.2889381,0.13593405,0.021653812,0.23339099,-0.24065307,-0.349578,0.1389556,0.39361098,0.42037553,-0.63865167,-0.09477043,0.27269733,0.1572368,0.21402818,0.14322256,-0.8241458,0.018155722,0.46106395,0.3903272,-0.37699878,-0.051550694,0.46170804,0.051897354,1.0
Backdoor.Graybird-05339051a960d18fafb2e5d656e36b2fa007462d9a7b2fbfcb4532b3235ac5ed,0.09662159,-0.25907683,0.014060885,0.32761812,0.1415053,-0.5441345,-0.03567663,0.6548063,0.35773847,-0.11890661,0.47652438,0.8453669,0.95621425,-0.010884284,0.7755104,-0.14714235,0.083806045,-0.24111408,0.046485107,0.19991936,0.73568875,0.52713203,-0.6558263,-0.03305449,0.24533121,0.28595698,0.11864477,-0.0734658,-0.24762231,-0.2687716,0.36870673,0.472392,-0.055153903,-0.6862737,0.15413602,0.68794775,1.0
Backdoor.Graybird-05bb2dcf38927dc99961deedaaff6ff120bdfd383745bac5aeb0c28340ea1010,0.4332174,-0.49081916,0.33711457,0.582604,0.12940377,-0.49262583,0.28005108,0.11678565,-0.42484385,-0.3906062,-0.6256282,0.35802603,0.5328993,0.43105072,0.56923276,-0.06051288,-0.61870337,0.27161086,-0.33525145,0.7257396,-0.17910059,0.28053337,-0.7355294,-0.37789544,0.026129685,0.70431453,-0.35417277,0.15121254,-0.73250127,0.4536261,1.0135182,-0.052438352,-0.4506963,-0.18036313,-0.36863923,0.098514915,1.0
Backdoor.Graybird-06ba9a22cbf334f6beeb0bc5302d3f0d6b7ad734c9ed071d6f279936a37f4687,-0.19154839,-0.3105048,-0.42542374,0.011644715,-0.62969506,0.6033054,-0.31555298,-0.2934844,0.13922462,0.05021828,0.054746587,0.11774323,0.008927345,0.121844046,0.3124641,0.01385502,-0.22964337,-0.27830315,-0.16991177,-0.09259699,0.39655796,0.048123214,-0.38694805,-0.2340512,-0.2051452,-0.019876502,0.27777046,0.009518732,-0.7822106,-0.23244984,-0.37392554,0.19347763,-0.51047516,-0.08827044,-0.32639998,1.0295721,1.0
Backdoor.Graybird-07adf0e72d58706d13117578493d64cc085811d7454fd598a805aa818a445f09,0.10386608,-0.34164113,-0.22720087,0.23178102,0.13579674,0.28427258,0.49301142,0.12650523,0.30353156,0.1034811,-0.014369351,0.6084904,0.65857136,0.3054111,-0.022164738,-0.31390226,-0.031955652,0.25002065,-0.378578,0.32402265,-0.09782694,0.5401653,-0.68274516,-0.07960831,-0.548307,0.28373495,0.42989445,0.1553431,-0.62847495,-0.16812904,1.0496607,-0.005992461,-0.42148736,-0.2624372,-0.36336675,0.36157572,1.0
Backdoor.Graybird-0814e28a9bbff170fb9257df3ad5cf8a27287f7c9001f15ea6a683c05e72095c,0.26715925,0.03494097,0.53994393,0.41697598,0.8275414,-0.424061,0.28387436,0.3007496,-0.31464013,0.26850772,-0.1440092,0.40476438,0.296061,0.39790687,0.95352477,-0.19076076,-0.5037926,-0.3208155,-0.19234686,0.3727276,0.48199257,-0.40612528,-0.40128756,-0.45784277,0.070057936,-0.1552476,0.028754126,-0.025159663,-0.87356377,-0.031249646,-0.07962859,0.004086465,-0.8533021,-0.16821495,0.12165975,0.5691458,1.0
Backdoor.Graybird-08c34b0421ec2fd129554058eb0e19111b167fdeee45c3c51252c4ace128e70e,-0.0652641,0.20376025,0.28947234,-0.6571004,0.31157908,-0.17956683,-0.33346796,-0.4874432,0.435376,-0.11215078,-0.051321924,1.0190997,0.048383284,0.013128863,0.19896267,-0.5700095,-0.2686552,-0.3498205,-0.7337708,0.31047174,-0.8633808,0.37844422,-1.0168831,0.6431634,0.19400156,0.12539086,-0.058348205,-0.13759957,-0.64397675,0.21471153,0.25336137,-0.5448553,-0.10966128,-0.24400678,-0.3279013,0.1194572,1.0
Backdoor.Graybird-08c383b4ffb8ed9df7a17296ae0c1798d7f4b769f188d5eef55c77bb79dcd432,-0.0032173062,-0.2527508,-0.16778038,0.25484446,0.22722477,-0.260033,-0.010065922,0.13030624,-0.095033325,0.1514171,-0.0027392406,0.07919258,-0.07313312,0.1713747,0.27000508,0.31580642,-0.59409803,-0.39069512,0.10742254,0.4801948,0.5883328,0.76978165,-1.0087652,0.42208993,0.13131087,-0.12423365,-0.37540346,0.22731625,-0.46511474,-0.36689633,0.3804861,-0.2700013,-0.33957893,0.17896393,-0.555561,0.40786734,1.0
Backdoor.Graybird-08cadbda2bd111540dc25897982bc801f681dc16e0eba323973e193712332ef3,0.09079172,0.11372853,-0.18337388,-0.022108449,-0.28038812,-0.5406357,-0.021207256,-0.5263154,0.3288973,0.058348216,-0.24760933,-0.5304672,-0.22889419,-0.24573776,0.39825824,-0.0433611,-0.2726521,-0.5189093,-0.32239714,-0.48992547,0.025833633,0.012001089,-0.71226454,-0.21853349,-0.26363084,0.39683372,0.03190174,-0.3913494,-0.023798862,-0.84216446,0.22037907,-0.21730919,0.24615447,-0.0032151458,0.054362547,-0.12150866,1.0
Backdoor.Graybird-0904d313bde15d4656a630055d025d6a289de46fc2369597deb20d51da0ccd57,-0.13653639,-0.43449196,0.3000059,0.47885472,-0.25513366,0.28464237,0.85408676,-0.28990942,-0.0034108334,0.1787945,-0.23681697,0.059043325,-0.07440429,0.027503207,-0.08043825,0.25239855,0.068404645,-0.8539446,-0.28643176,-0.2655222,-0.12129531,0.9826896,-0.06574069,0.28869015,-0.8001774,0.12169609,0.52494925,-0.44310415,0.16012655,-0.024363413,-0.122307405,-0.26607853,0.049918104,-0.38394767,0.1558063,0.58677554,1.0
Backdoor.Graybird-095879f4cafe44bf45530fa8b6999d7361bdac2f041fc3c4e7afc1d80cbe914b,0.27107462,-0.19354402,-0.24098215,0.72324115,0.48635867,-0.86548626,0.30642208,-0.043304168,-0.05413117,0.6114332,-0.07074592,1.0545412,0.27125752,0.36429074,0.42212182,0.18940257,0.5331305,0.13806476,0.017168608,-0.2913315,0.3619236,0.28291187,-1.1452075,-0.42280868,0.16297898,0.34901896,0.8001586,0.49917647,-0.64149934,-0.101390995,-0.031449728,0.26581585,-0.61131454,-0.3767759,0.15194932,0.6440761,1.0
Backdoor.Graybird-09a45409e39fb3077d1e7fea751027d152dfa6d9bd30829749ff4ec5caecdfb2,0.5325851,-0.22409502,-0.34608924,-0.22480102,-0.11784723,0.14620025,0.27581263,0.049928613,-0.02323752,1.0250331,0.2212673,0.111482866,0.2743243,-0.06298908,0.20310609,0.07433084,-0.22296815,-0.18074134,-0.05636179,0.67417306,0.038680382,0.722111,-0.83819175,0.53581846,0.53982127,0.4331071,-0.17218244,0.2275744,-0.8058265,-0.042707622,0.18547721,-0.29765588,0.5788467,-0.19879663,-0.4805656,0.44141772,1.0
Backdoor.Graybird-0a1311fceceea990bf446f7afa4fedcc6b7f8780afd4a6c87a31949818f87cea,0.032517906,-0.2141999,-0.4031422,0.2920496,-0.28327185,-0.18257162,0.12674856,-0.2322063,-0.025460804,-0.344602,-0.79038733,-0.33228317,-0.1883271,-0.14466093,0.38349363,-0.15856425,0.08122745,-0.0027662893,-0.116176136,0.14115839,-0.046495635,0.26558295,-0.49755654,0.08796473,-0.490017,-0.26903537,0.24779247,-0.09471591,-0.67036223,-0.59939736,-0.36853313,-0.3278621,0.34268147,-0.16361953,-0.40098533,-0.6237598,1.0
Backdoor.Graybird-0ded1dc774b46d985a4e90a46f5d56a0047630d7a6e8df439870f7bb40b57a14,-0.20108785,-0.96886593,-0.21800908,-0.37238714,-0.30393267,0.5013349,0.15426385,-0.37822813,0.08117169,-0.15955952,0.43671307,0.30403218,-0.26071173,0.62025565,0.52466655,0.31765732,-0.20923786,-0.12886293,-0.22226362,-0.15482222,0.14809993,-0.02966462,-0.47424132,0.11702656,0.090889975,0.5083454,0.22138965,0.44192323,-0.80111605,-0.16270757,-0.10268225,0.49241868,-0.25537252,0.22704,-0.07799056,0.44532666,1.0
Backdoor.Graybird-0e4b24dfaad406b918efb40923889150f139511f43c56e34deac187d950ce03f,0.31115693,-0.09245591,0.036929846,-0.18273531,0.88846606,-0.34171054,0.22949506,-0.024682468,-0.336033,0.02746039,0.19512965,0.52526087,0.14741716,0.13647778,0.4585122,0.00032756117,-0.22696047,-0.93969554,-0.42795786,0.17068297,0.23277442,-0.3792445,-0.23437367,0.10627582,0.17004414,-0.553909,0.38195097,-0.36559516,-0.8620162,0.16517062,0.1438196,-0.23997232,-0.6091335,0.32844752,0.30839851,0.0036620586,1.0
Backdoor.Graybird-0e9e218c49e56ec187e145db72a72726d50ae295f08b4bf344f19e13de603ba2,0.49277472,-0.36739796,0.13716581,0.094644316,0.11970821,-0.15478136,0.57275397,-0.3999375,-0.05930096,-0.62501544,-0.158982,0.5550565,0.5940852,0.45942998,0.18296964,-0.28522718,-0.7297877,-0.3099112,-0.25361377,0.80642384,0.00050656113,0.14921474,-0.553824,0.08152398,0.0692279,0.47958127,-0.47665524,-0.13751797,-0.81902933,0.47542843,0.43209314,0.24514388,-0.47380993,0.61970896,-0.15032035,0.10689416,1.0
Backdoor.Graybird-0eec1cf54f4696068a4411a96e8deb728f734fac856440cb5175b1204d1dd137,-0.16153945,-0.15205662,-0.044962462,0.57918745,0.65396935,-0.10948431,0.40736568,-0.070846915,-0.13825451,0.24250752,0.25720486,0.27594763,-0.42738098,0.36870116,0.7675808,0.22462584,-0.5147534,-0.17138408,-0.5552149,0.80534524,-0.3791418,0.35194835,-1.0325611,-0.47836286,0.09682303,0.097407304,-0.0486867,-0.34777826,-0.9741225,-0.34256208,-0.22795956,0.057417765,-0.78983206,-0.28560597,-0.14175826,0.27990815,1.0
Backdoor.Graybird-10672ba06f9cceb9fb651a6338f13de953b8a97d9d5164acd08456fb7a974b69,0.21761858,-0.048677914,-0.0024090612,0.316038,0.351478,-0.5131508,0.27542862,0.21715738,0.3927947,-0.19188586,0.23108412,0.32716367,0.48874882,0.21260625,0.77348816,0.61046046,0.1330675,-0.50909644,-0.2698515,-0.00870559,0.14115246,0.59773695,-0.3251838,-0.80114293,0.5764557,0.24546725,0.27621582,-0.096439235,-0.72892725,-0.30642867,0.6166556,0.027786596,-0.4531676,-0.27060777,-0.14856572,0.2413616,1.0
Backdoor.Graybird-1078ebc75c7612450f362dc2e480699e1e6f21473898effad033a32e4e47d5ed,0.61280215,-0.5263312,-0.251122,0.4032625,-0.18206234,0.26689366,-0.01722007,0.08174791,-0.13032694,0.46705073,-0.25056666,0.22887203,0.02576716,0.1674039,1.041496,-0.17010659,0.046071377,-0.3705677,0.49582618,0.55042773,0.34109142,0.4147543,-0.06773911,0.030734893,0.89038014,0.07861731,0.27459392,0.56103987,-0.69451386,-0.20475747,0.641383,-0.3680202,-0.0023495143,-0.26690856,-0.199502,0.43796673,1.0
Backdoor.Graybird-1203e135f7e763fee8490a3e11c091a2a7617dc3e486d2bbe6ac81a32bc931be,-0.16547969,-0.994026,0.22009899,0.2945732,0.47212684,0.079914235,-0.8430377,-0.1818118,-0.406038,-0.012173788,-0.30725765,0.624226,-0.22645245,0.45816594,0.040217992,-0.41502142,-0.47909668,-0.5783016,-0.25138742,0.7566092,0.37873238,0.33160666,-0.7701829,0.8524631,0.40029836,0.98884636,0.48034945,0.20308578,-0.8843722,0.23165038,0.53369945,-0.23149772,-0.28069106,-0.15747339,0.03114341,0.25404,1.0
Backdoor.Graybird-12efad6f7e8313a41ffc7a49cdd612243712922f8d7947141e366574279077b3,0.096160896,-0.14582045,-0.3014112,0.42025608,0.48807535,-0.038619995,0.015065868,0.08978981,-0.33390784,0.34361935,0.1071092,0.29872978,-0.042147864,0.2930992,0.45629475,0.2916321,-0.54034233,-0.361504,0.46193746,0.5435165,0.5781706,0.8316444,-0.941214,0.26289025,0.31459543,0.17519556,-0.3416341,0.2753559,-0.8696946,-0.12000843,0.35253435,-0.23120227,0.14411284,0.2548559,-0.718957,0.690563,1.0
Backdoor.Graybird-12f4f6331583edc2599a31940233f76e950dee226f92573abf7ad0bad10cb2c7,-0.23509595,-0.63952035,0.34402654,0.11469102,0.28757438,-0.09836145,-0.5270886,0.056392685,-0.8348993,-0.103754014,-0.42501947,0.2213687,-0.4039416,-0.232012,0.6303612,-0.3308662,-1.0842615,-0.6291019,-0.47616708,0.9291387,-0.36020255,0.377922,-0.5958065,0.6884408,0.7529501,0.5869557,-0.14332487,0.3233732,-1.0991138,-0.0427815,0.035259146,-0.118988514,-0.47207555,-0.031123374,0.06292158,0.048774317,1.0
Backdoor.Graybird-143c25c7cc08038a40638df3cd01232232baed4a9469f356efc615b5041c794a,-0.1495732,-0.13181691,0.18145135,-0.5459825,0.2460622,0.22436336,0.36950225,-0.6478007,-0.20756665,0.21478614,0.030588437,0.0020579137,0.14437185,0.22406933,0.2860912,0.2361466,-0.31615826,0.4668882,-0.30334568,0.11455716,-0.12454365,-0.07447023,-0.6216973,-0.34605613,-0.42601594,0.58356786,0.558269,-0.6949078,-1.0498834,-0.32162184,0.5722651,0.3303937,-0.1550866,-0.2596468,-0.36693949,0.20475645,1.0
Backdoor.Graybird-14818f4633cc87ac1b11b53895daa6cbc595065596c7ea86f807fb1a1ad79b72,0.51968753,-0.24107999,-0.24363732,0.08924167,-0.050981097,0.09680659,0.20021437,-0.5573276,-0.06181033,0.06225283,0.26325473,0.28577915,-0.20112023,0.20909783,0.17960425,0.08421965,-0.7109769,-0.23197715,-0.7009662,0.37940452,0.41027302,0.5194266,-0.058459703,0.050171293,0.17030957,0.24639356,0.10952837,0.26935992,-0.32554328,0.13169,-0.34251687,-0.28651136,0.21523131,0.2770599,0.27184716,0.7661825,1.0
Backdoor.Graybird-152a87566246d7b100a299d29e34ce080c52e714e0c2883b904d85c1144de18d,0.1330799,-0.15479448,-0.40982944,0.46408382,0.28594562,-0.1992532,0.01532323,0.5426282,-0.46844482,0.33874267,0.45046368,0.2490882,-0.250618,0.067955814,0.75731,0.10059084,-0.33626354,-0.95504904,-0.16655849,0.5231194,0.39267153,0.5653727,-0.7242139,0.15715551,0.079993784,-0.115797564,-0.17283493,0.31622514,-0.43793818,0.2886813,0.32701933,0.17814755,0.51610446,-0.1630867,0.3949264,0.5881196,1.0
Backdoor.Graybird-16274674297d97fdb7c53027a4e6facd681428961e31bc85dfff497056b071a4,-0.050113942,-0.61160797,0.36109206,-0.3003062,0.19835496,-0.046368483,0.16625343,-0.15769003,-0.5263011,0.37541148,0.42505077,0.39406377,0.15921026,0.18205889,0.130803,-0.025106048,-0.8588585,0.40890342,-0.14978346,0.40312302,0.0019654166,0.14128846,-0.5666071,0.40480217,-0.35974738,0.51586986,0.21584569,-0.44510707,-1.270769,-0.5504467,-0.3452867,0.27540806,-0.5730267,-0.08536219,-0.69312996,0.44235402,1.0
Backdoor.Graybird-16648fd7040db9b96d76e5f70711e8c62721035832f7b87594d62b0dd9b865ea,0.5705631,-0.0738236,0.072446994,0.6067826,-0.13269843,-0.016093804,-0.2585014,-0.37470248,-0.2809878,0.7265404,-0.16843143,0.24545771,-0.11072612,0.31767207,0.6142631,0.3925793,-0.26323205,-0.08946901,-0.60352653,0.93638545,0.06999783,0.6155319,-0.21069428,0.06698892,0.26306254,0.19281568,-0.22668922,0.06779615,-0.9690692,0.35008234,0.047810957,-0.036187973,-0.4305068,-0.005244307,-0.12397078,0.9754716,1.0
Backdoor.Graybird-16ce6a8444870c762676cc776860c1ff7daa2a2dc76abd29136a36d6538bba8a,-0.25572243,-0.89297044,-0.14783937,0.25991723,-0.005549067,-0.32817826,-0.5360404,0.07973749,-0.5005493,-0.23432675,-0.27489716,0.76879853,-0.3827391,-0.16563699,0.22104415,-0.039114643,-0.22565036,-0.6874596,-0.5160101,0.17928664,0.14986037,0.8431637,-0.90124166,0.4672401,0.7405596,1.0816483,-0.32860494,0.1433056,-0.7397797,-0.060145084,0.38926774,0.2141284,-0.35831493,0.0024058446,-0.42928284,0.3441743,1.0
Backdoor.Graybird-16dc33ad95a90a03f9489182cf6061392a79cbaf96cceb87bd3c6c664daff4a3,0.20449327,-0.35996982,0.034794983,0.2926061,0.28745526,0.15199615,-0.16566963,-0.33541885,-0.24737383,-0.18602748,-0.29179242,-0.13712688,0.9584849,-0.044111196,0.26443473,0.19145705,-0.38843524,-0.2628088,-0.28370863,0.41973117,0.12896572,0.42723265,-0.27949587,0.19081952,-0.54981005,-0.12889506,-0.20414977,0.29652834,-1.161818,0.5220288,-0.06571489,-0.1124996,-0.34459138,0.5058447,0.4047323,-0.16187379,1.0
Backdoor.Graybird-16dc7da8aef050616f3d99fd34b3f0410ce6a38f5a61c9ebc8e86e87195c4be3,0.16360202,-0.53185725,0.27944294,-0.18494181,-0.13989103,-0.020296063,-0.36255786,-0.2521049,-0.29699847,1.0068065,-0.059149873,0.38528177,-0.17582326,-0.14731246,0.41827434,-0.27854857,-0.32370818,0.26674512,0.05971361,0.5265075,0.30279243,0.26461074,-0.55508024,0.89646196,-0.1735074,-0.046885747,-0.035872653,-0.28198156,-1.24706,0.48151094,0.38418937,-0.12928696,-0.02543414,0.032752004,-0.28295803,0.17312379,1.0
Backdoor.Graybird-1966b6b19ef74c24f458b6477ccb7e8c8427df6d65ea4dc5e0bffb811fbba2d7,-0.06698559,-0.5837694,-0.5271934,0.29433575,0.07569357,-0.34308586,0.67343634,0.17728934,0.31601915,0.2047995,-0.39388382,0.64731944,0.7126384,0.3289646,0.30532205,0.5828141,0.13448986,0.028125467,-0.31765324,-0.3039023,0.22773895,0.35376123,-1.0498397,-0.42533275,0.62720996,-0.31115967,0.34377375,0.5350456,-0.9253719,-0.26858008,0.30830142,0.097294815,-0.7778456,-0.41624427,0.8031728,0.048739746,1.0
Backdoor.Graybird-1c7dfb9affef8bef118a41d36e3e8c413f3076918a8821efeb3721af52ee5c52,0.40296423,-0.4840162,-0.2654008,-0.15008518,0.077602185,0.05207447,0.048294768,0.025611369,0.028575286,0.4549368,0.2937308,-0.37178633,0.19058873,0.29829013,0.7572918,-0.46248415,-0.04816593,-0.026057096,-0.6323565,-0.2956658,-0.46657085,0.40212798,-0.6485008,0.1528609,0.43369058,-0.052597318,-0.33891076,-0.15736106,-0.62010574,-0.69489515,-0.2033671,0.5747222,-0.045990884,-0.6126097,0.3513525,0.76902217,1.0
Backdoor.Graybird-1cb523870e23e55d0d36af5a2e10472ac25390d3838c52c35b1106034132aad5,0.24678072,-0.32458338,-0.026909225,-0.083739914,-0.043356754,0.38885581,0.1203715,-0.37090445,0.07600469,0.5217079,-0.35399565,0.60166276,0.20204362,0.27373803,0.41969085,0.07174854,-0.67762256,-0.052458614,0.33533004,-0.09310029,-0.1396133,0.32235268,0.21057163,0.050859068,0.47340596,0.68037945,0.47193488,-0.085959844,-0.9162437,0.3599859,0.47447592,-0.30140853,-0.24453473,-0.21176937,0.13119331,0.26832178,1.0
Backdoor.Graybird-1d17564930dc9cfdb8bf4483ba9763d17dd3f549facfdbe21ad18447663adedd,0.09225607,-0.02307648,-0.118071094,0.27544758,0.17368706,-0.28438064,-0.4850251,-0.12910935,-0.5178846,0.3570733,0.048033666,0.05193248,0.063505456,-0.23509167,0.50189793,0.38703245,-0.6761963,-0.404242,0.21417859,0.5878656,0.38971007,0.54568875,-0.9945415,0.20605165,0.26454198,-0.07104882,-0.31083494,0.1316825,-0.6099265,-0.44228104,0.2710298,-0.45385438,-0.0845442,0.00728726,-0.6379187,0.7089962,1.0
Backdoor.Graybird-1d2b95795f54a30db2241b441843c8baa1319704e0bd48f022ac919e71899787,0.038877416,0.12897784,-0.5337569,-0.13110885,0.7511223,0.32358164,-0.13737065,0.32321116,0.13161582,-0.011537696,0.3014252,-0.38335288,-0.10992239,0.3477151,1.0055665,0.03697543,-0.09261536,-0.21078074,0.08967586,0.059855904,-0.02999904,0.42719746,-0.31851333,-0.30027145,0.051078513,-0.021316137,0.114322044,-0.44339404,-0.350286,-0.32565314,-0.08449468,0.10734606,-0.18003902,-0.48646316,0.38215,0.68485373,1.0
Backdoor.Graybird-1f987748aa836fcff784691f0f5195eaed0187c12906f016b7bbad1f9b10d20a,0.34241936,-0.35130638,0.36169142,0.09749875,0.2082401,-0.35039514,0.3402632,-0.06375462,-0.13238193,0.16733046,-0.07806345,0.2259045,0.83599824,0.10682597,0.5753825,0.34928817,-0.43403277,-0.008165696,-0.33910874,0.21129777,0.11345847,0.7002495,-0.69827116,-0.59390014,-0.11832371,0.4782221,-0.2865698,0.59497046,-0.7863855,0.3063115,-0.13496168,0.1167137,0.124774165,-0.15463771,-0.18770193,0.6620719,1.0
Backdoor.Graybird-1fe3c46136004caa9f4598dbd12db50b539bc0e44de422870a0150ccdf6c4297,0.091977455,-0.16598123,-0.16361494,0.4876269,0.45150983,0.032378834,0.262116,0.1389205,-0.24635105,0.20421463,0.05429078,0.0143281175,-0.15098147,0.069484964,0.59091973,0.18859838,-0.57357347,-0.72504896,0.32659355,0.8827218,0.5568236,0.800723,-0.8757873,0.32170302,0.25619775,0.0022813405,-0.2561938,0.23355368,-0.52026933,-0.070541695,0.4159399,-0.18960942,-0.04539132,0.07362664,-0.57062453,1.1568928,1.0
Backdoor.Graybird-201267f2b8c394b866ce09e16997ce04701a0bdaa1f5651e81d1675af4a567a6,-0.011798202,-0.81116056,0.19225174,0.026996128,0.32620758,-0.2615662,-0.5395183,0.29194164,-1.1520439,0.0029986838,-0.3298709,0.6350341,-0.16639525,-0.19455117,0.064838365,-0.5342311,-0.6518088,-0.51208866,-0.28001612,0.48012936,-0.638294,0.28956008,-0.86962986,0.5826757,0.2231969,0.47751865,0.044384677,0.2396172,-0.8492977,0.024642281,0.0820049,-0.3572346,-0.12090889,-0.2982874,-0.11139341,0.37222004,1.0
Backdoor.Graybird-20459a8ebc99703a2171b85dc321c41ccb8fdd67b606ac75c890156db25d67e2,-0.06473231,-0.48869285,-0.35880557,0.7761417,0.34287968,-0.60953164,0.42473105,-0.041878626,0.235619,-0.12274287,-0.12794755,0.7670276,0.30575126,0.19549641,0.44698593,0.49244776,0.25254893,-0.43318018,0.225808,-0.31200868,0.43950292,0.30343702,-0.9426532,-0.32508853,0.21001136,0.030703455,0.6918229,0.18751805,-0.6202155,-0.10735577,0.3376736,0.18383366,-0.61389965,-0.43009654,0.39910892,0.654869,1.0
Backdoor.Graybird-21f994f2239ccaaddf25e98859f58e609dbc589127160c943dd884506d0f1e95,0.08481855,0.09235759,-0.29604596,-0.10839465,0.15199013,0.02548848,0.25063425,-0.119538404,-0.021708928,0.7295993,0.2699448,0.50133646,-0.046325315,0.3417923,0.19612324,-0.2449124,-0.42715612,-0.10727632,-0.055360977,-0.13910802,0.5284853,-0.06284672,-0.69080853,-0.32332546,0.1822766,0.44577965,0.114605084,-0.18816662,-1.0576558,-0.7146511,0.2794067,0.086116105,-0.24430647,-0.3579708,-0.28238618,0.48904112,1.0
Backdoor.Graybird-22772293d3a3b20b3610ae1c06ab72da41745c57356905855180b45c5d43ae96,0.36795142,0.039952572,0.2762332,-0.036460113,-0.12821743,-0.13496016,-0.23738228,-0.5499089,0.20088446,0.8762421,-0.31133264,0.32027557,0.24107008,0.35547724,0.5697333,-0.16007787,-0.14525269,0.08128876,0.4826776,0.10682594,-0.11427195,0.6333585,-0.102301076,0.464798,-0.00025024806,0.015450176,0.13447501,-0.2605196,-0.7075198,-0.21999602,0.5739721,-0.35918415,0.18882798,-0.3459831,-0.14975955,0.15231737,1.0
Backdoor.Graybird-22c98fc9dac84f509083a90a332517ead8eb265fc53ddb1d16e5cfd0dab0ebe1,-0.05170423,0.36345884,0.64882994,-0.6850543,0.124461986,-0.3737194,-0.6078613,-0.2540305,0.0055018677,-0.0982375,0.018254204,0.43561682,-0.12355257,0.077966556,0.10926723,0.14862478,-0.34086928,-0.5362675,-0.78149104,0.23132072,-0.45487574,0.3641673,-0.9195867,0.6009586,-0.19229369,0.79346937,-0.2663455,-0.2711924,-0.2697245,0.43523526,0.21416262,-0.47428206,0.19779384,-0.6277597,0.03949198,0.05269756,1.0
Backdoor.Graybird-23259ea20d4f481cdc1bf58894f6280ddbe3fc56d7bfbaaf11bafdf4840f8c2c,0.76533145,0.35634577,-0.09792856,0.18082538,-0.06312126,-0.16300428,0.3934799,0.31680697,-0.23587908,-0.1742257,-0.14136533,0.11908553,-0.29990625,-0.115792796,0.07464402,0.46492794,-0.13204777,0.050141484,0.83919954,-0.021645745,0.13293335,0.4010429,-0.058240753,0.76660264,-0.4923073,0.06370235,0.3332511,-0.48335904,-0.1423989,-0.19697264,-0.015964199,0.14818822,-0.19566797,0.2750469,-0.16069046,-0.055567604,1.0
Backdoor.Graybird-2486e00f3531d89506d2a87525b723d2508b4b8c0040824956aeca41b97d17d7,0.49638095,-0.54169345,-0.07457377,-0.27166155,-0.17798413,0.14735797,-0.21135826,0.7086866,0.093508445,0.12394864,0.074075274,-0.060654886,0.786799,0.6339693,0.28511843,-0.5158035,-0.035219118,0.09827158,-0.37583253,-0.36411607,0.29743788,0.35015535,-0.33305848,0.42410246,0.4470232,-0.010566963,-0.35886988,0.34983727,-0.76864517,-0.48750526,-0.4386792,0.32098722,-0.06860102,-0.31941164,0.05726647,0.22363156,1.0
Backdoor.Graybird-2565563f99f161ad465a603000f5a2440b83b12413930bac01d20c6d3924f79e,0.2155947,-0.04436622,-0.3072026,0.54564124,-0.022799753,-0.7281432,0.22634418,-0.004369474,0.39185798,0.59138584,0.08681093,0.46816465,0.060857527,0.29727426,0.8589318,0.404823,0.2110211,-0.22222961,-0.2535415,-0.46075577,0.18601502,0.17624325,-0.6927086,-0.512787,0.36180383,0.40127575,0.5173122,0.5574689,-0.58196765,-0.41296643,-0.2881797,0.50190866,-0.58456796,-0.19078387,0.17963427,0.6558227,1.0
Backdoor.Graybird-272ea0be5ed16c1b6a1d0149a85107e382cf7dab94eb40fb49ec17acd3c00b0b,0.32260022,-0.6795667,-0.49738738,0.07836592,0.09432844,-0.00021216673,-0.48353302,0.32648677,-0.44772515,0.13256428,0.3171188,0.14786199,0.37786874,-0.10325061,0.6801304,-0.28357852,0.31971884,-0.53170395,-0.93109006,0.089418635,0.12904331,0.10185289,-0.20747623,0.26398796,-0.026973221,-0.10346312,-0.22343314,-0.68689257,-0.48880613,0.13509442,-0.024119813,0.47675437,-0.7176065,-0.1390513,0.37526312,0.5273228,1.0
Backdoor.Graybird-27c0a52403d572f0ee5abc626a7f5cd834ed6a5b7eeebeadc848a5cc091eb5d1,0.3488657,-0.3440822,-0.57331055,0.63082695,0.47102672,-0.11820645,-0.3666688,0.50065845,0.07401757,0.7163338,0.27068514,1.0238715,0.43896592,0.22180754,0.39872602,0.44494823,-0.037273366,-0.21061611,-0.031763114,0.18777665,0.64949965,0.74289966,-0.3057933,0.13998377,-0.23823303,0.29761887,0.6489365,0.033075426,-0.7221078,0.3182713,0.57870376,0.23604527,-0.16886231,-0.054617282,-0.036388893,0.8394588,1.0
Backdoor.Graybird-27d4f0a222bbb2285e395dcbed061a6eeb91a69d6c8cab8c98fd1ffb244c699a,0.10339464,0.08276705,-0.51357204,0.03976532,0.18779477,0.1536307,-0.375512,0.11014926,-0.024730409,0.077206865,0.22391883,0.54139876,0.16689384,0.60000867,0.33441108,-0.18191968,-0.27709073,-0.17361324,-0.091976896,-0.25137722,0.13173293,0.34661767,-0.15370701,0.23066022,0.36505017,0.18243933,0.33818722,-0.3859643,-0.7974694,0.008354044,0.80650383,0.5071867,-0.45426315,0.24006926,-0.048283406,0.25837812,1.0
Backdoor.Graybird-2821c9781c0351109c2a8b9633972e2c71f46371b648d2103c2741f560b60a1b,-0.0410671,-0.6236891,0.1237094,0.18504745,-0.060054354,-0.2228307,-0.056633033,-0.04617566,-0.2735909,-0.7593736,-0.06373192,1.2092783,-0.26331267,-0.18162122,0.26218438,-0.15113552,0.1338661,-0.73784447,-0.37753034,0.2623753,-0.27229604,0.6809851,-0.87433505,0.68902683,1.0447774,0.50862086,0.24781652,0.43694195,-0.8498971,0.4653358,0.20364128,0.29026428,-0.20657402,-0.010721481,-0.26302907,0.37306833,1.0
Backdoor.Graybird-2860ba35f778ed52b8487fe93a77c05a2d49222ba8f6cb81877c1779d13c1f4a,-0.11251187,-0.03296785,-0.6143307,0.03768544,-0.16183992,0.2405937,-0.41580388,0.09411339,0.26239836,0.23618695,-0.1760413,0.22901516,0.07761777,-0.0901868,0.31773525,-0.2943524,0.17086285,-0.106459916,-0.59660167,0.1399712,-0.15269296,0.50050354,-0.6037577,-0.046191186,0.02687426,0.4516167,0.011541517,-0.041635733,-0.60971427,-0.049658604,0.01961105,0.4080927,-0.13516049,0.042997196,0.2360084,0.2806518,1.0
Backdoor.Graybird-2a1858cfa17d4f07292362a2719d61c97a487d29a5adf45d8e8b32f3252331a2,-0.4951046,0.5185697,-0.57951015,0.6544851,0.41720802,-0.66232866,0.43823814,0.098759234,-0.08167675,0.15095977,0.5933184,0.33835948,0.5928585,0.25282627,1.4987803,-0.31270823,-0.27126136,-0.29623854,-0.4861027,-0.27637857,-0.08827616,0.07770821,-0.63758993,0.06568071,0.68377846,-0.043232054,0.14181164,-0.007409095,-0.60242176,-0.10900063,-0.4480151,0.46900377,0.16114196,-0.02545201,0.20677185,0.94561595,1.0
Backdoor.Graybird-2a7c74a91f4b6f4ed632d97fc3ee8835a7a615cb15dbf6ecbb96526d06f64db6,-0.64150155,-0.06682997,-0.33244905,0.57674176,-0.58922595,-0.3161281,0.14058359,-0.29026768,0.4107718,-0.22740678,-0.54696804,0.18454784,-0.61628735,-0.05240498,0.56702745,0.44709548,0.5311647,-0.3541716,0.40833908,-0.5242331,0.12509161,1.0196753,-0.046126246,0.374947,-0.89037246,-0.23490046,0.40442652,0.16611803,-0.4091097,-0.5188502,0.10792671,-0.49483338,0.31101015,0.15859663,-0.5829671,0.057188887,1.0
Backdoor.Graybird-2b470ddd183ec9f15d7cef2e1f2daf7243e1deef16fb6e74cb75b67c5d25df18,-0.09500445,-0.53120065,-0.03109023,0.22690472,0.3720524,-0.4471908,-0.037370656,-0.0035689024,-0.5971825,0.20924588,-0.2105902,0.30814067,-0.29678354,-0.11801827,0.22773533,0.58274394,-0.8216221,-0.026708344,-0.45183,0.10326208,0.23532154,0.058837574,-0.7630895,-0.32206172,0.02594741,0.07906665,0.31774536,-0.14001627,-0.5424912,-0.06819899,-0.17939717,-0.42097127,-0.7780188,0.49459043,-0.20879559,0.5213752,1.0
Backdoor.Graybird-2ca870cb512099a0df67fefee9eb2bf8fd53cc078919852144d6cbff26456347,0.67210966,-0.6661383,-0.14379112,0.39116988,-0.0071862647,0.61281484,-0.061732102,-0.17180394,-0.006187369,0.76087683,0.94515043,-0.07893643,-0.20383991,-0.13769484,0.5239546,-0.2943129,0.46484604,-0.42745906,-0.22456451,0.16362327,0.17933543,0.4133144,-0.7220004,-0.037702054,0.013319997,-0.023638848,0.03941221,-0.75123715,-0.64799064,-0.20021212,0.22287963,0.36218247,-0.2711099,-0.25205037,0.060424708,0.11499927,1.0
Backdoor.Graybird-2ec9be730d82cf10af338e7f25781006744b9dda9c9ff484acfd2de501b05e24,-0.07343595,-0.5144554,0.44273666,0.44821757,0.32592502,0.2683417,0.42571163,-0.08882467,-0.40037897,-0.24836837,-0.23606369,0.45796835,-0.046248287,0.3980216,0.51041305,-0.43711627,-0.39937785,0.067173645,-0.62018305,0.67176634,-0.02613555,0.022112729,-0.35192335,-0.1503395,-0.47059956,0.66324216,0.0302465,-0.26985294,-0.70483404,-0.37333775,0.23667257,0.41916662,-0.3089413,-0.20161462,-0.16426457,-0.14366923,1.0
Backdoor.Graybird-31e4807b0f375d8f919a3037f2764686a46d2e41bd957f8edd8f771621a3e53f,0.13836962,-0.3632617,-0.08226234,0.016266258,0.06706068,0.25667834,0.37848687,-0.1410526,-0.03430377,-0.33515877,0.028756209,0.04197359,0.28672847,-0.28152683,-0.15830149,-0.29182145,-0.33287436,0.44556576,-0.97261477,0.96223736,0.23976077,0.26774338,-0.9105069,0.021959975,-0.3915083,0.7266145,0.27069998,-0.24921416,-0.56759745,0.024548076,0.08089787,-0.06687886,-0.21525012,-0.47575375,0.053067554,0.26643634,1.0
Backdoor.Graybird-32cbc565918830a83537aef008c3587ea24d2172c7ed3563ac2f4a7506a7a00d,0.48867103,-0.220052,-0.115819216,-0.43876007,-0.10209661,-0.16762581,-0.23516746,-0.19097531,0.3933914,0.30026868,0.39706826,-0.19330579,0.36450255,-0.08329003,0.47038588,-1.0954741,-0.30929577,-0.13405816,-0.48388764,0.47363374,0.39474759,-0.013659481,-0.4271443,-0.33290556,-0.56645685,0.4106589,0.13787521,0.03745489,-1.0312119,-0.34768692,0.048664387,0.06751762,0.051895823,-0.3974457,-0.5092024,0.6482866,1.0
Backdoor.Graybird-33e8337aad51e26cebf92f17cdc0c3ffa5ed55c74de4e7cd5b92db2d75e15339,-0.64641047,-0.13295428,-0.51026756,0.39553666,-0.2577584,-0.30880594,-0.45276186,0.15876094,0.056723185,-0.28292635,-0.13358508,-0.5924763,0.14192565,-0.060354758,0.92147654,0.3296828,-0.123901434,0.15367332,-0.18285292,-0.03605058,-0.61565596,0.5430563,-0.4219795,-0.32784754,-0.4239371,0.06149377,0.41268337,-0.22063918,-0.21093208,-0.36323023,-0.36560923,-0.09625492,0.19134681,0.32104078,0.21173741,-0.37186906,1.0
Backdoor.Graybird-340c5cae28749592b0ea9453bd4f7d109b2fe2c8a03041e5da9961a7339eaa34,0.13927515,-0.5677856,0.07105528,0.2620911,0.35685322,0.10818912,0.2649145,-0.07005625,-0.07119709,-0.04399937,0.20450337,0.5939227,0.6910338,0.5569771,0.24602146,-0.28637737,-0.6231896,0.45065832,0.13279761,0.5049452,-0.04475771,0.5535851,-0.51935184,0.08967176,0.0072091417,0.34574053,0.35961026,-0.09683208,-0.695132,-0.58993167,0.34543103,0.01772633,-0.38712242,-0.28246263,-0.14893952,0.09221367,1.0
Backdoor.Graybird-3472255f40fa8003a08d8c641d9d2c5d0f749bf4c0420fc9a22040103a97c35b,-0.073754005,-0.46839526,-0.31965247,0.3526961,0.118790835,-0.13507013,0.2319502,-0.18002078,-0.03625036,-0.65329945,-0.3574417,0.10322062,0.47401842,0.10991887,0.4990968,0.3868053,-0.2754651,-0.03386568,-0.1357728,-0.28582197,-0.05218204,0.2873483,-0.4267107,-0.016911395,-0.07727188,0.082712136,-0.3068534,0.09992711,-0.89608794,0.026215093,0.5942511,0.035514988,-0.6451928,0.008825014,0.062362652,0.1831672,1.0
Backdoor.Graybird-3473cb362c74478f5f8d200d068fbf1806d2dca138264e942574fb7abd324b42,0.51010823,-0.62941307,-0.06295908,0.025297526,-0.11797334,0.53783655,-0.401635,0.6466474,0.48428562,-0.12452998,0.0659294,-0.038540743,0.53458816,0.43016866,0.2846392,-0.3976242,-0.10405491,0.5539209,-0.09600197,-0.18157506,0.48032257,0.37135014,-0.28831968,-0.034101736,-0.053727403,-0.22013193,-0.28613365,0.012791119,-0.4612211,-0.6427317,-0.28033403,-0.20274696,-0.287516,-0.46473128,0.19998421,0.21847616,1.0
Backdoor.Graybird-349a9ef306724d4e0a569074528204ac93186fc10679de7c0fd4117b7e674adf,0.41762197,-0.1162663,0.22751912,0.83700305,0.3165021,-0.45201,0.50185674,0.044502176,0.06141225,0.28076756,-0.11832091,0.17190543,0.2789824,0.22496125,-0.06539051,0.13044365,-0.6460124,-0.26798177,-0.37183037,0.88631266,0.10834388,0.81038624,-0.7819072,0.18531434,0.1589442,0.3186609,-0.3238758,-0.22855355,-0.5043708,-0.00201905,-0.20071945,-0.54342407,-0.6985738,-0.36205357,0.136584,0.07011432,1.0
Backdoor.Graybird-34cb2e3660a417e83f902c990f20b3d0efa6e84ad20a7c769f2944cc333bc47b,0.52061915,-0.32065767,0.03712422,-0.5743288,0.45963627,-0.04288965,0.08192633,0.24868888,0.214479,-0.10482704,-0.09531887,0.49744484,0.33613354,0.44105,0.1825243,-0.68865454,-0.80635947,0.65657073,-0.3517945,0.5064054,0.41778237,0.43413648,-0.7669109,0.0078066383,-0.17627315,0.4900889,-0.017188704,0.9218668,-0.62253875,-0.8001738,-0.043167595,0.101078264,0.050055217,-0.15625067,0.043101393,0.4374489,1.0
Backdoor.Graybird-3512ae0eba2c3f6e4e6195c0e1bd70b9a9e3b3d7708f403ed4b5e281e4a1a120,0.159951,-0.04277375,0.020205164,-0.046101786,-0.025739696,0.020542098,0.7231457,-0.89430606,-0.46953654,-0.053446665,-0.065929264,0.1096241,0.0009321309,0.06803685,0.867877,-0.03502319,-1.3015649,-0.55510086,-0.6520845,0.19042264,0.08717173,0.49843025,-0.22725226,0.22316688,0.16082257,-0.2475999,0.12990429,0.18548445,-0.83966,1.0237055,-0.34415817,-0.0334067,-0.30782503,-0.31735867,-0.0975574,0.43357158,1.0
Backdoor.Graybird-35808e06d5ab73341611da612e9a37252f07f2bc7801725569ebb49895f59a05,0.35840043,-0.07904016,-0.21752732,-0.009269035,-0.5071112,-0.36914676,-0.5680786,-0.4233429,-0.058168117,-0.03779525,0.055151675,-0.52507424,-0.03353021,0.10569417,1.02529,-0.29068628,0.18732886,-0.6170144,0.15761478,0.10486583,-0.20971964,0.118012615,-0.068309635,-0.0528785,-0.07970928,0.3375006,-0.2466655,-0.046301395,-0.7511704,-0.5483836,-0.22380477,-0.34819353,-0.32582727,0.30668852,-0.20170325,-0.7416707,1.0
Backdoor.Graybird-365bea068bcb7c92f0dbf6868e8e6ac2d49feaae2d6464a4fbf9d4dc28ea4189,0.22609822,0.037961256,-0.025356859,-0.21466766,0.123264216,-0.062873974,-0.17089058,0.03566217,-0.13676967,0.4373947,0.02977314,0.6524039,0.5551898,0.6971982,0.64573425,-0.17838557,-0.37726998,-0.23461658,0.42706013,-0.17190862,0.45211235,0.034230195,0.04194094,-0.42112827,0.6327558,0.054032873,-0.10750368,-0.24171925,-0.85055923,-0.13082549,0.3182248,-0.31747785,-0.18926263,0.29742894,0.1756948,0.42360923,1.0
Backdoor.Graybird-3796ba03a70668fe9a40cd399da7963d6dded9136682059f1443d5b493d37a83,0.37991944,0.34476578,-0.633617,-0.3982595,-0.23069319,-0.0013317142,0.03704437,-0.030817807,0.25535572,0.4045545,0.41031644,0.6817253,0.2681838,0.24631135,0.14346036,0.14468497,-0.9999186,-0.040213928,-0.3508859,0.14476284,0.0940495,0.6040917,-0.74618965,-0.03688703,0.09281259,0.5246154,-0.16238755,-0.09093268,-0.4020478,0.17378098,0.20691562,-0.03544235,0.15138188,-0.3270277,-0.52825636,0.94498646,1.0
Backdoor.Graybird-3799f857d04896d9155038342c96e32490cab5ce67ddf33dab263184d95ea41b,-0.17453739,-0.0878465,0.14130954,0.027076542,0.18802755,-0.43022364,0.37994915,-0.0027995212,-0.19607899,-0.11672839,-0.05898677,0.67586094,0.19876957,0.47532034,0.09948392,-0.284028,-0.7649525,0.42542377,-0.56578547,0.81501913,0.08588239,0.4690158,-0.55070794,0.039433524,0.011898884,0.5488173,0.005293601,-0.4436566,-0.8005175,-0.35310948,0.70994675,-0.29736465,-0.6131571,-0.17043547,-0.31628883,-0.14057653,1.0
Backdoor.Graybird-3920bdcebc14233421ec142268749c0cc1358bba2af6e2e561ce3ac346db2d8e,0.2721213,-0.028969651,0.51618016,0.42950755,0.09725852,0.22630924,0.20247585,-0.21339634,-0.6084037,-0.29637188,-0.39501414,0.46992475,0.19528343,0.03243086,0.22468999,-0.20032257,-0.27942526,0.1257352,-0.68564904,0.8635608,0.25440255,0.5281054,-0.5241344,0.097612105,-0.81180966,0.6741914,-0.2500108,0.19907491,-0.8928447,-0.34209666,0.5352263,0.7208851,-0.42884183,-0.3348438,-0.20240337,0.013527553,1.0
Backdoor.Graybird-3a81fabef97e62aaefc48fa799a00c00d531afda4d49a58e90161dfef215d056,0.23464333,-0.12824504,-0.2879407,0.64137334,1.0394899,0.0024507842,0.14695859,0.62339854,0.15237056,0.4151933,-0.06400214,0.29605672,0.9047687,-0.078859664,0.299372,0.23135713,-0.26234165,0.0016177015,-0.22021388,-0.21998787,0.48500255,0.33607894,-0.25875646,-0.28254828,0.3036164,0.37364885,0.19919994,-0.5531538,-0.5378445,-0.59602517,-0.23716307,-0.295667,-0.34066358,0.09310229,0.25340608,0.15986635,1.0
Backdoor.Graybird-3ac9b0f65d3a26c5fe28cad9856d7119d2088f7cab78c37aa12348ea3b3bc000,-0.18561062,-0.5951701,-0.2669306,-0.12751807,-0.47221223,0.46545058,0.007489118,-0.1788427,-0.28954208,0.1788005,0.10212924,0.38693842,0.14701779,0.33866987,0.49425644,0.3132809,-0.17004296,0.085618325,-0.121222936,-0.06958275,0.50576055,-0.04574206,-0.18052173,-0.46029097,-0.20452735,0.2277997,0.13314983,-0.023132993,-0.90168035,-0.3608003,0.10572885,0.08629741,-0.32573193,-0.16661757,-0.13696527,0.7979411,1.0
Backdoor.Graybird-3b6230033969a93587fc1d795bd800de9478b437d400bfaa3a1fd7ab0b082102,0.5280055,-0.3088681,0.27569237,0.050642695,0.49383175,0.04313086,0.5559916,-0.1208653,0.29737926,0.029940225,-0.27138242,0.07933272,-0.04142004,0.21987468,0.74621665,-0.10262387,-0.43878835,0.032022163,-0.026219275,0.3855276,-0.4555676,-0.14980419,-0.5020341,-0.60269535,0.43939495,0.107167445,-0.044104964,-0.2751759,-0.61346775,-0.7828315,-0.29218006,-0.19020097,-0.7361137,-0.07943995,0.014984661,0.1004598,1.0
Backdoor.Graybird-3bd529df6d6af1c83eca9ff3fd494825f98908773b73ab6023b2d08e30fc9141,0.201655,-0.3216711,0.11060006,-0.22724944,0.32020515,0.29087818,-0.19416115,-0.079514004,-0.25152597,0.43630582,0.1156808,0.25394613,0.7560573,0.47054705,0.5915746,-0.50557256,-0.5193173,0.30035448,-0.31677878,0.31765953,-0.11294055,0.24323972,-0.2737157,-0.093754105,-0.46872035,0.41194293,-0.34519687,0.054931358,-0.74553925,-0.2674492,-0.12548116,0.06334569,-0.20647012,0.002633039,-0.19442728,0.7032732,1.0
Backdoor.Graybird-3d4c37580fcfcd3162538e57ebfd65f89caf379c9158dba626690d2ac7a24154,-0.049401127,-0.12910677,-0.42093763,0.07759921,0.45986763,0.044572994,0.1431941,0.16338706,-0.053785708,0.4000337,0.09907562,-0.04828558,-0.06448901,0.29454267,0.38677132,0.43447176,-0.71628267,-0.5607741,0.33297083,0.63447267,0.49989852,0.7804336,-0.9436211,0.55515546,0.24496134,0.024437476,-0.16450588,0.14138505,-0.6413424,-0.08992312,0.043372046,-0.17438994,0.12417018,0.10956181,-0.6918886,0.7260699,1.0
Backdoor.Graybird-3f40d1874219ac8f6ba08b587a9547da773b0356b58e4d40f584b595740fa7a4,0.22882725,-0.24775635,0.07042741,-0.39240533,0.1843933,-0.15089123,0.31029984,-0.014693828,0.07888758,0.15198389,-0.11714939,-0.073605545,0.9390982,0.39424106,0.69531643,0.05216995,-0.5025623,0.2681473,0.09569834,0.49044624,0.33347064,0.038682513,-0.28300455,-0.39644307,0.11796244,0.7409765,-0.35582504,-0.54511905,-0.8125088,-0.59876436,0.73126763,0.07779726,-0.30475745,-0.087645344,0.107945204,0.19054446,1.0
Backdoor.Graybird-3f4164fb248bf610709ce9546b2e1a2463d08270db94dbd7b8e42d16023a71b0,0.50307626,-0.7002758,0.25270882,0.42714146,0.28606784,-0.2013934,0.5013354,0.16301502,-0.60940677,-0.8348276,-0.32835293,0.68338233,0.78813267,0.6096318,0.4748191,0.059366573,-0.67326003,0.59618205,-0.40959838,0.5524646,-0.5670442,0.5685501,-0.6497989,0.03370702,0.48388228,0.4306703,-0.14296329,0.008651528,-0.4760357,0.15747972,0.65624666,0.23932251,-0.48488015,-0.18496223,-0.13546701,0.32049385,1.0
Backdoor.Graybird-3fb1f955c5fedc93b423be002cde34a6436194ec36974c890a015566749cbfc9,0.72393423,-0.81253654,-0.2960121,0.53405875,0.25417382,0.3139348,-0.22602592,-0.21581376,-0.08934201,0.4335956,1.0498468,0.16559921,-0.06691736,-0.022104999,0.48516712,-0.20162143,0.48422098,-0.6276461,0.029624294,-0.06580206,0.22103454,0.19989064,-0.53073347,0.34102008,-0.07329548,-0.20540313,0.18417984,-0.77516514,-0.8106861,-0.15968284,0.38528022,0.26942042,-0.27422458,-0.104431264,0.027290758,0.15747458,1.0
Backdoor.Graybird-4038529ffe618fbca7b702da5a4588bf4f827bfe34e22bedebc16bea8ac5cd5b,-0.0024677108,0.00037113528,-0.6869194,0.19995107,0.09018967,0.6179179,-0.3463099,-0.08855836,0.15949363,-0.07873732,-0.4743744,-0.70387256,1.0575894,0.07500935,0.3312796,-0.67775595,-0.18974479,-0.35110933,-0.42461917,-0.3264449,0.047542766,0.3903698,-0.08513708,-0.49587503,-0.73686534,-0.033193402,0.24534117,-0.28176197,-0.8387538,-0.68365705,0.2194467,-0.03978918,-0.0674336,-0.7660548,0.12108506,0.2340906,1.0
Backdoor.Graybird-43915d2a212d5620489fc5dbbbf17d934ab474e34a1058aa28ea2ae0160d6a7e,0.66101915,-0.37763712,-0.3386027,0.42741698,-0.08817059,0.09172192,-0.17399503,0.31113428,0.2157347,0.58856815,-0.39464295,0.15110809,0.13871814,-0.12402881,0.82527417,-0.24301738,-0.0690663,-0.5552696,0.44822285,0.5024962,0.4788665,0.18459168,-0.20417397,0.32159337,0.679304,0.0051874686,0.22146375,0.58831644,-0.6245586,-0.16330896,0.65133893,-0.46678498,-0.14363746,-0.24667321,-0.20146365,0.39841834,1.0
Backdoor.Graybird-442eb6cd344fcc9a88b1ef5a28e662ea6a9415ff012b27b75ca3b8c07af9ae61,0.123738006,0.52582514,-0.4202217,0.11986735,0.53408945,-0.1255749,0.40713614,0.011565714,-0.21219355,-0.08467726,0.5723015,0.109622866,0.07911992,-0.13302448,0.8230185,-0.36810943,-0.3911395,-0.3389944,-0.11045541,-0.32106683,0.50323987,0.20885758,-0.47487164,-0.27348065,0.22883287,-0.16993564,0.59591824,0.10261199,-0.74721175,0.15201615,0.039850682,0.47916475,0.02958165,0.0863132,-0.16587651,1.1164125,1.0
Backdoor.Graybird-45133c62869e94f748e8f947328388b6cf1190cc750f712e25695ff4e87a8ec0,0.28655612,-0.57073545,0.33318844,0.45658243,0.26076323,0.0016929667,0.124179445,-0.43713418,-0.2952359,0.049088746,-0.10129487,0.7831801,-0.6140897,-0.13240452,0.6171598,0.66339767,-0.5045733,-0.05032955,-0.49883857,0.10816961,0.25313666,0.35123608,-0.6932813,-0.16969052,0.36978778,-0.048513323,-0.27746898,-0.30174068,-0.6388541,-0.17044416,0.3552036,0.23724826,-0.34929836,0.4894675,-0.3854718,0.6541205,1.0
Backdoor.Graybird-4611ce9f971ce2a63d17317779aaa34aebb478c1a91c3031abf37b39a0e8a754,0.552133,0.16755638,0.04856093,0.72185427,0.49826077,-0.903918,0.07118942,0.09453224,-0.1869595,0.29016382,-0.0012387972,0.7227993,0.704691,0.6077288,1.0962331,-0.16683577,-0.0767902,-0.3161674,0.34479442,0.27143177,0.37470973,0.6000599,-0.7461167,-0.22988477,0.42173424,0.124446146,0.45965633,0.44127148,-0.42652968,0.2046617,0.47118682,0.25329086,-0.94350684,-0.24672723,-0.3712537,0.8814097,1.0
Backdoor.Graybird-4768fb2a55ff7a38d1c9f26c22517c25e81050233f75a43909f56cf2bab55549,0.21848977,-0.28954017,-0.46329626,0.011751156,0.11332257,-0.125787,0.21912864,-0.10557316,-0.39686185,0.111713655,-0.7558534,-0.5618398,0.17861995,-0.028099813,1.2982486,0.20227234,-0.6468344,0.21504709,-0.77893317,0.26016253,0.04264493,0.07132248,-0.40760437,-0.11707214,-0.081353046,-0.8402202,0.014597464,0.116074644,-0.38198128,0.28019747,-0.18953401,0.20038,-0.025489941,0.035120487,0.18985637,0.1667226,1.0
Backdoor.Graybird-48641176d1e0ac527a5bb4a797afe8ebddb93625bfb2e7878a0cd40164988326,-0.28822348,-0.23058599,-0.17203337,0.298879,-0.07802936,0.56646484,0.49595,0.21315248,-0.12187966,0.26709217,-0.8102727,-0.52049285,0.48150456,-0.2571279,0.17751369,-0.02451313,-0.7716578,-0.41423127,-0.38991603,-0.072790295,-0.35582522,0.65847534,-0.30707163,0.2473471,-0.37519082,-0.30774653,0.16784377,-0.38247663,-0.36624613,-0.6638019,-0.005557677,0.25583124,-0.3274418,-0.56903696,0.21528624,0.27835557,1.0
Backdoor.Graybird-4873836e446dfd4e56e491364059f5f6642b9e62c3af541249d2a58f060d810a,0.073845685,-0.5922891,0.18888485,-0.37544665,0.5242592,-0.43775424,-0.45114714,-0.003238409,-0.8180694,-0.3236336,-0.2553244,0.5947421,-0.07343653,-0.21560097,0.38231897,-0.15848157,-0.38230124,-1.2221295,0.16798213,0.32017413,-0.17371656,0.40964368,-0.95526767,0.650737,0.6863824,0.7301278,0.24288744,0.57232565,-0.80559486,0.4539808,0.32108393,-0.30696958,-0.1938407,-0.06952085,-0.06744875,0.116912015,1.0
Backdoor.Graybird-49584192e192cd599da8b7891636d00d60f6e3a1714cec9384e53f0c3ff64dad,0.2158871,-0.1018278,-0.21990466,0.4889753,0.57969,0.26560506,0.030847495,0.26337403,0.034573093,0.26604444,0.5239893,0.8067521,0.5317275,0.15748483,0.24772076,0.52105606,0.29360226,-0.3500557,-0.24137475,-0.28561983,0.5780312,0.48628443,-0.35187215,-0.04233121,-0.14943491,0.07896957,0.7016907,0.25775704,-0.6897699,0.18630043,0.47407407,0.022467703,-0.25626275,-0.1314539,0.08304991,0.95623654,1.0
Backdoor.Graybird-4a7c1f06c02316a383b3509b0530d50eea0fc52e3292f80ef6d99337ed1976cf,0.6153191,0.2781235,0.20463154,0.19077812,0.7002559,-0.7207121,0.6686973,0.2177619,0.058734924,0.054495636,-0.068743624,0.5411888,0.09107562,0.47778434,0.74489295,0.37340254,-0.26828858,-0.4289945,0.044349387,0.7760987,0.6867718,-0.3475051,-0.20217533,-0.5529266,0.42123216,-0.10625156,0.24379864,-0.20556904,-1.1488701,0.090195924,-0.2790634,0.03662337,-0.26574022,0.056833252,0.40850556,0.6160737,1.0
Backdoor.Graybird-4b3805331f864f1002915b1b89e8f70643baaf6b43b688a32c2cb3810ffb3b4a,0.18405794,-0.7793584,0.18666813,0.28765762,0.2239789,-0.1716722,-0.23211387,-1.0563602,0.1821616,0.2518918,-0.080121726,-0.03929922,-0.33532277,0.23341748,0.7689068,-0.06452292,-0.308841,-1.2415365,0.17117734,0.35826942,-0.33322257,0.13386656,-0.76907986,-0.029768212,0.0886365,0.52968025,0.24522176,-0.16933687,-0.6417452,-0.14970997,-0.11763293,-0.028150484,-0.14694293,-0.37326324,0.45020136,-0.030855915,1.0
Backdoor.Graybird-4ee3bccc014a06cfedefb088d22c918bad78cbcb74568815a14ebfbbcf119d37,0.29625368,-0.3017058,-0.022417324,-0.05267117,0.50385976,-0.20586184,-0.4884919,-0.25345916,-0.036524598,-0.04402695,-0.33582598,0.27951387,-0.116197504,-0.19618502,0.31748688,0.033113893,-0.3406815,-0.7856843,-0.6488687,0.53840756,-0.743436,0.16180214,-0.9344195,0.16912603,-0.19498076,0.37537104,-0.35485482,-0.2855309,-1.0765225,0.39864677,-0.29808858,-0.17657788,-0.3268871,-0.410169,-0.1229418,0.440682,1.0
Backdoor.Graybird-4fa0fe574b88526a330dea8e92ead1925846131a452b09c7a42eeee07e2be5c5,0.40129337,-0.37049794,0.08303018,0.7341975,0.4322328,0.10647123,0.11060157,0.4158485,-0.4549788,-0.7831012,0.045450848,1.1600438,0.05021595,0.10252358,0.9533576,-0.19637755,-0.12985873,-1.0761184,-0.2559624,0.4051084,0.2672474,0.56290114,-0.18111102,0.3489928,0.39237985,0.55740976,-0.4543872,0.03304221,-0.86595654,0.6105868,-0.047412366,0.5303004,-0.19187962,-0.5893857,-0.19682382,0.010134246,1.0
Backdoor.Graybird-4fb50e21fca67a80c0600b322ca12170a8283b4b04073cc330aefa42e3f01cb1,-0.30839798,0.09707124,-0.2513475,0.45610157,-0.2727256,-0.75663126,0.22337008,-0.2505868,0.31536227,0.34542665,-0.045845207,0.29188594,0.4591251,0.19915491,0.2376998,0.2937966,0.12638812,-0.34022602,-0.015833976,-0.5451074,0.23430477,0.4101417,-0.92779875,-0.3194847,0.46451473,0.33603978,1.1280361,0.29891133,-0.60463375,-0.6098951,0.13594528,0.5485071,-1.0230176,-0.081340924,-0.014509957,0.7056183,1.0
Backdoor.Graybird-50d21079164fd8e7d563e365422688728379b15b4239beb025e4109a16f4f758,0.11119721,0.33262163,0.083980896,-0.43350756,0.4675297,0.21258937,-0.43707982,0.48419058,0.26631716,-0.13819186,-0.0049310843,0.12268783,0.16707571,-0.1705576,0.9489084,-0.8295227,-0.040119626,-0.2652922,-0.3544239,0.36193326,-0.47583094,0.59726006,-0.37906072,0.15777971,0.29997417,0.08266535,0.13731815,-0.18348902,-0.5816288,-0.40311304,0.19360308,0.651492,-0.15891357,-0.5075273,-0.048681755,0.88096184,1.0
Backdoor.Graybird-51500e8ba9a95263700256b5b7b75c162508a80b3de7f0eb946ecacf98d78ff7,0.4484649,-0.03610641,0.3442987,0.43623284,0.21794082,0.24359085,0.18403962,-0.16713609,0.2198219,0.23599775,-0.28519097,0.35359493,-0.057370253,-0.37565622,0.29709408,0.20922254,-0.30680695,-0.29828998,-0.2617735,0.07958153,0.07317547,0.46869606,-0.75766027,0.39916965,0.08516671,0.9683673,-0.24571888,0.06982054,-0.46690243,0.6344493,0.7793993,-0.21541582,-0.6055007,0.27854037,-0.60681164,0.49786916,1.0
Backdoor.Graybird-51faade6c8030b7f7b359977e1d699538610f96747fa89f8a1b0ea49926cdd36,0.59592396,-0.013391996,0.02916418,0.52742517,0.037511144,0.07184632,0.0044731484,0.08819486,-0.21975155,-0.40134856,-0.110386774,0.34950322,0.20617615,0.6513351,0.15979522,0.11984311,-0.65406,0.18491392,-0.7562434,0.5968796,-0.056446638,0.05740934,-1.0205948,-0.33988824,-0.4505285,0.6992147,-0.32230052,-0.45586103,-0.30639896,0.414658,0.95095235,0.2123207,-0.532301,-0.30474347,-0.17997031,-0.27218118,1.0
Backdoor.Graybird-523152dee0737aae6b8210fb53d9ae9b2bf6be10a89e399cf1b0a193972f282f,0.06041789,-0.14742377,0.16639504,-0.00889933,0.15604544,-0.28415912,-0.5123763,0.11277431,-0.085930854,-0.0020413152,0.08664958,-0.025119074,-0.06307158,-0.042344958,0.28237015,0.09497933,-0.5032076,-0.83422697,-0.5815961,0.45565364,-0.039343122,-0.14046018,-0.7521913,-0.22503193,-0.3790808,0.6619374,-0.3296439,-0.5900499,-1.1332872,0.38111973,-0.04691724,0.32094896,-0.14310417,-0.37712625,0.08760226,0.27487397,1.0
Backdoor.Graybird-5266d90616b279757b5839b40696798dbe68c783582ecadb11cac439583b6212,0.19180864,-0.37647852,-0.05564723,0.06514899,0.12094749,-0.16960374,0.4900288,0.13801326,0.053689077,0.76031286,-0.07636611,0.033592068,0.6710334,0.28920487,0.19563378,0.16415796,-0.63513815,0.048962824,0.0018006939,0.1662341,0.059617966,-0.10966299,-0.60413873,-0.53204197,0.13144428,0.7222933,0.06118802,-0.28714606,-0.84977937,-0.46026668,0.23906083,-0.3593807,-0.49059853,-0.24810608,-0.2509604,0.41102493,1.0
Backdoor.Graybird-53078f85f6b3651de46b7551e7f032e1734e80f6c89faf69560b2b92a5a94747,0.4628015,-0.6031561,0.22713028,0.29632306,-0.023300258,-0.106640175,0.44768915,0.19864836,-0.11004597,-0.13159843,-0.36392143,-0.013991033,0.70409083,0.9110847,0.30167788,0.07419251,-1.0559273,0.18789563,-0.546529,0.42503273,0.028762655,0.0975743,-0.5012291,-0.14442824,0.5622897,0.48622602,-0.07122277,0.24736263,-0.70167494,0.37284455,0.693298,0.065882444,-0.10140013,-0.3676084,0.13043082,0.3018676,1.0
Backdoor.Graybird-53ee4a2152057901cd94a7f4d548f02a3937cdf4186d27a33f991382b93cb631,0.0070418976,0.17706096,-0.24790786,-0.5183721,0.15749678,0.05026846,0.127684,-0.14660937,0.15472566,0.47028425,0.47797248,0.65168643,0.44165775,0.56831706,0.13326257,-0.2870065,-0.433275,0.37712356,-0.090237826,0.26881084,0.22561793,-0.023036273,-0.5631081,0.055989858,0.046726935,0.5397966,-0.030889992,-0.37463206,-1.1213639,-0.37887225,0.29206476,0.010616984,-0.2561897,-0.1538926,-0.1191838,0.67862064,1.0
Backdoor.Graybird-540e9c189e9d37ffb217e7a0dc732fffef53c3efd3d0317f44bc3bc05b69fe28,-0.045913815,-0.81472015,-0.4675476,0.2763054,-0.058158107,-0.102300085,-0.3920369,0.11841461,-0.28394023,-0.32002667,0.04026305,0.74930185,-0.2689942,0.27813298,0.41427264,-0.32456943,0.21123104,-0.7770949,-0.2948296,0.22777675,0.04083857,0.9100998,-0.5291404,0.6324161,0.5487777,0.481648,-0.09585078,0.23249665,-0.9722753,-0.012274201,0.5612037,0.3685388,-0.32880884,0.21004441,-0.6905202,0.3740288,1.0
Backdoor.Graybird-54aa30e8c4b561710cadfa1b08bec3380375ff52f9b9485c946e177499b90e93,0.40780193,-0.044519886,-0.54340106,-0.24220301,0.1564836,0.011548231,0.19222187,0.020984402,-0.2527517,0.45281368,-0.335303,0.49922764,-0.0077851317,0.01950934,0.57460123,0.17516162,0.14125462,-0.21090569,0.07505937,0.48223588,-0.032911353,0.575118,-0.03501264,0.077938564,0.58414745,0.5031063,0.2659022,0.49582475,-1.0629793,-0.28763676,0.35994738,-0.135327,-0.06128207,-0.26936126,-0.28542954,0.497233,1.0
Backdoor.Graybird-54c2b04305bbaf46d7fa1fc9901bfc4cc51b632f8ff0004fca5c9d0d34a43e88,0.15618286,-0.63050056,0.59260637,-0.06482637,0.19309579,0.041518975,0.23497187,-0.36517197,-0.40545702,0.3319546,0.1261739,0.30715242,0.029041283,0.2796815,0.10702498,0.12146668,-0.71585196,0.3852004,-0.06353974,0.51483375,-0.01956945,0.36326164,-0.48930678,0.11995478,-0.22117433,0.32278997,0.1596237,-0.53361905,-0.84760135,-0.5122562,-0.17561342,0.006454127,-0.47712496,-0.036824297,-0.3174008,0.5572048,1.0
Backdoor.Graybird-5508b64b67d9039955e8e78c7303205e0bf31f2fff2a412cc009217a3b843c42,0.3007307,0.009222053,0.19421017,0.04182321,0.1908498,-0.18122523,-0.3641314,-0.70710737,-0.20889755,-0.8233792,0.2896173,1.2032074,-0.16253816,0.3924125,0.4798555,-0.027972585,-0.5729466,-0.48649776,0.09384818,0.42892784,-0.024406828,0.3349391,-0.6280507,0.43891588,0.062350832,0.90545076,-0.17729457,0.12721312,-1.0491443,0.3969262,0.29322544,0.093114026,0.14164482,-0.6346587,-0.25395262,0.78326243,1.0
Backdoor.Graybird-553ea1898739926e3c60643be9671a798abf142557d4b169cf15e8e5bdb907c4,-0.05032038,-0.3042692,0.442393,-0.58242756,0.103834376,-0.23715715,0.16381617,0.27137396,0.31291267,0.02760545,-0.006769288,0.8970058,-0.13880755,-0.24941497,-0.07521809,-1.0904015,-0.18329751,-0.8198461,-0.32848284,0.40793678,-0.35622424,0.5977608,-0.40273133,0.2171827,0.52380383,0.12287601,0.32878897,-0.16284075,-0.88262683,-0.16370156,0.3224198,-0.15959996,0.16408595,0.15893589,-0.0007982163,0.58359647,1.0
Backdoor.Graybird-56d68b4fdc5c32b9c7b6eb0c20c22903b6db6bbdc85deeb1672b96b1053b7702,0.08175467,0.04099452,-0.24392734,0.04260962,0.4383403,-0.121829025,0.18400629,0.399798,0.16033946,0.33467105,-0.076081574,0.5783176,-0.3083954,-0.17694227,1.0948964,0.4501667,0.032654427,-0.43984485,0.104853384,-0.17653923,-0.88358736,0.049592476,0.0071607768,-0.017845413,0.45420346,0.5549042,0.45348024,-0.14029306,-0.1395728,-0.33978873,0.90272343,-0.19726236,-0.13690719,0.23887222,0.48626968,0.6607768,1.0
Backdoor.Graybird-57ff8c60d243dfa0c50b38830b71d9935436c7681da9891396a9a5dd5cbc2596,0.32666582,-0.57500666,-0.35712636,0.016113948,0.40590242,0.20247985,-0.044139702,-0.37403592,-0.08331221,0.2757291,0.49559018,-0.24937679,-0.24257855,0.29494715,0.60800076,-0.053562652,0.11099141,-0.3581315,-0.10801078,-0.3166379,-0.11052864,0.47859886,-0.51088786,0.34896266,0.48923713,-0.18843801,0.21395183,-0.5498088,-0.90986234,-0.0620786,-0.15337801,0.38427365,-0.39137596,-0.33867154,0.14598146,0.26856667,1.0
Backdoor.Graybird-598964da286937c1fb024677585b5d6fb4a214187a0bc61264871b41016b7f75,-0.18679444,-0.6003249,-0.07487528,-0.24342583,0.6775839,-0.23578654,-0.40754178,0.039951317,-0.58095783,-0.61952007,-0.58982074,0.60968727,-0.481535,0.1442291,0.3763817,-0.5497553,-0.9618426,-0.65212655,-0.43378475,0.7774453,-0.7401729,0.06662035,-0.89432,0.47137836,0.27034006,0.38847974,0.20878391,0.12283997,-0.8654538,-0.26910582,0.20324183,-0.2257945,-0.18576157,-0.35572615,0.04377835,-0.028842831,1.0
Backdoor.Graybird-5a80a9d8a1cd9ff7dd8ded5152045cf323620251db85d71f355794d2e4c26c82,0.2988572,-0.36591005,0.24548393,-0.22860855,-0.1345192,-0.027684566,-0.7108385,0.030455798,-0.3604218,1.0303867,0.078989394,-0.13790897,-0.08801587,0.35129538,0.5230298,-0.29638505,-0.48438624,-0.32682237,0.32986984,0.75873977,-0.17230365,0.47510302,-0.33827025,0.10455757,0.39746967,0.25284612,-0.004458515,-0.04172422,-0.8423771,-0.039022367,0.06980914,-0.52420336,-0.20482425,-0.011584943,0.17640556,0.41276374,1.0
Backdoor.Graybird-5c75303926f53f292fe5acf87d08293b2b626af5cc8c69501dec28f11fb03bce,-0.3275802,-1.0402037,-0.23100404,0.23539077,0.23347439,0.20954512,0.19466792,-0.18423305,-0.5415065,-0.5312385,-0.33268148,0.11977465,0.2558374,-0.040084813,0.47307456,0.4650682,0.111476265,0.03215697,-0.539772,0.072228566,-0.09799181,0.43467513,-0.47110486,0.2737072,-0.34138685,0.6258946,-0.27646592,0.44422227,-0.86575365,0.44669715,0.27667493,-0.35695392,-0.9806895,0.5201253,0.06677156,-0.41799513,1.0
Backdoor.Graybird-5cbab5b1edf3be8aba7f313ea0e50221e824a6cba2e40df2dae24cb8a7a8fafa,0.76587504,-0.48079094,0.29443476,0.52745456,0.32510543,-0.2000845,0.35554552,0.29245847,-0.13019203,-0.10802606,0.1984442,0.11753761,0.07852558,-0.06646976,-0.061808344,0.27933425,-0.8229257,0.32395,-1.1429449,0.9527991,-0.21200217,0.7313137,-0.763614,0.09101307,0.36726773,0.98504233,-0.65238523,0.1629204,-0.83101296,-0.17323466,0.046953388,-0.5386829,-0.64294875,-0.18579893,0.22771785,-0.31215084,1.0
Backdoor.Graybird-5e73532a8544c28bf2076391c5b7c0c39fa3ad1ba60441f722a4649aca25d20b,0.541288,-0.5939706,0.19196485,-0.40766975,0.80589217,-0.6909499,0.4259668,-0.10798853,0.34881997,0.23667532,-0.84909564,0.2408967,0.07899343,0.20759779,0.6276143,-0.018044507,-0.039832845,-0.21165228,-0.121496916,-0.3976762,-0.09151937,0.70155555,-0.26597676,-0.4705364,0.808084,0.19861446,0.67461205,-0.024180418,-0.7841226,-0.57429475,0.28025955,-0.039090626,-0.24000147,-0.5019272,0.1895225,0.35441065,1.0
Backdoor.Graybird-5e906a24c568f2c1132a8a0154207773b8c0ff6986ab56ceab00a8cfc9c2d5b6,-0.06986604,-0.74198115,0.17105484,-0.0681305,0.5359836,-0.29904246,-0.35369575,-0.014599679,-0.5381369,-0.20478405,-0.21424106,0.5982717,-0.25042403,0.13124934,0.42823416,-0.44868904,-0.6174141,-0.5582097,-0.19759724,0.6404542,-0.3701489,0.037122,-0.6597316,0.70287883,0.39930043,0.7935559,0.15011153,-0.00424619,-0.94482464,0.029464632,0.41122368,-0.084437445,-0.2199486,-0.5230098,0.21991026,0.13068691,1.0
Backdoor.Graybird-5fcb64cfd38ba0a62f85708679fde53986d09f5038c72f149819ecab6dc8507e,0.50969845,-0.029789407,0.19767466,0.363751,0.14187759,-0.110761605,-0.10260149,-0.2703975,-0.17757739,0.27275103,0.28257537,0.13779393,-0.5801759,-0.03457828,0.058520604,-0.26709458,-0.48442516,-0.5950232,-0.7179096,0.34820193,-0.1664776,0.23910703,-0.58008176,-0.23254155,0.105477005,-0.28918073,-0.047177386,-0.34193867,-1.2832551,-0.13617869,-0.14126173,0.050733138,-0.46179917,0.026697109,0.23705582,0.16181684,1.0
Backdoor.Graybird-60b1b1bee471d35c2e07afcaf3c8005576c2cb29eccec1ee68bf23cc76af078b,0.5458496,-0.38868687,-0.52727103,0.06274439,-0.35438204,0.18689907,0.32013768,-0.11662725,0.39222115,0.6641671,-0.061220076,0.13756894,0.13239913,0.39415663,0.17074679,0.044345938,-0.11279709,0.038781974,-0.6853946,-0.062215026,-0.19279566,0.5310298,-0.4083053,-0.09494533,0.04609725,0.3215677,0.3819193,0.6398792,-0.3760435,0.35372418,-0.2186349,0.0055310004,-0.10581515,0.29850093,-0.009660498,0.5488677,1.0
Backdoor.Graybird-60d764cb2a5e9e67977f7d978aa66df908db656bba989d480f3b6ff68202e4e2,0.7626572,-0.32618967,-0.4067198,0.118785545,0.97375333,-0.15837865,0.5850146,0.73454744,0.49642625,0.17653139,0.20066032,0.821382,-0.024665557,-0.56230307,0.17946576,0.19636159,0.2844465,-0.25648654,-0.1938545,0.20555092,0.46480563,0.66646403,-0.31275323,-0.20490432,0.24572319,0.41034612,0.34014237,-0.054377895,-0.8306299,-0.0817407,0.5431552,-0.23082216,-0.016667604,-0.046945117,0.6004118,0.070805006,1.0
Backdoor.Graybird-61add8504bacaafb7dc19c8a24bde60b28dfcf574d101e5533c12d95895958e8,0.0873063,-0.42687875,-0.5057429,-0.3731762,0.03304388,0.27678642,0.16073078,-0.25175613,-0.03324464,0.07379777,0.056456044,0.32462317,-0.34323514,0.8206987,0.4182675,-0.23883858,-0.088869095,-0.33021206,-0.09097515,0.124787815,0.1075139,-0.049691357,-0.3021218,0.17640734,0.2082384,-0.2031409,-0.019489676,-0.34545472,-0.71382535,-0.42468128,-0.09683497,0.037836403,-0.052276574,0.043884523,-0.2661241,0.5272169,1.0
Backdoor.Graybird-61f39838e948a57120a57619fe6b93fb9c9b2a150636f0a3a1cb870b52b288e8,0.14848948,-0.055388685,-0.34116763,0.5263492,-0.049304243,0.15970488,0.1862214,0.095045365,-0.061930466,0.5372216,0.06254748,0.36185184,-0.09712807,0.41375825,0.15154833,0.3722441,-0.1645014,-0.24770685,-0.5726208,-0.20242065,-0.19987096,0.69998467,-0.8285329,0.19929548,-0.09991147,-0.3133023,0.11279523,0.20362975,-0.62218183,0.10329559,-0.12911308,0.08916336,-0.039623074,-0.5922924,-0.2750289,0.43679836,1.0
Backdoor.Graybird-61fb0d0c3ed4f269fb8497a0abfef6dc543c509650b2af81aabeb605fb11e7ac,0.23073305,-0.31389433,0.46099865,0.3611522,-0.4741283,-0.3388329,-0.18001589,0.11508831,-0.06509684,0.2653012,0.110717595,0.8976966,0.3880575,0.16133934,-0.3261412,0.36707023,-0.13301097,-0.3759817,-0.48616216,0.039235957,-0.41006517,0.45104834,-0.28502548,0.5921044,-0.46195287,0.004592428,-0.015556197,-0.19227965,-0.10212172,-0.027823366,0.39566758,-0.01031522,-0.1626292,0.24773307,0.6824626,1.1790785,1.0
Backdoor.Graybird-62a7401d04f88017eaf9a90cbe104e71cf86c982e930cdaa41f630cb40eeef87,0.3392977,-0.8681493,0.6044068,0.45408893,-0.97558814,-0.39148355,-0.5009117,0.06348046,-0.30761284,1.0700092,-0.12080871,0.6463912,0.1835152,-0.24247074,0.09412323,0.54408854,0.07292457,-0.029324662,-0.37885654,-0.0438997,-0.6159776,0.50875217,0.010992482,0.45606327,-0.056375798,0.2151251,0.3400616,-0.0729347,-0.31792805,0.31164005,0.5732408,-0.22947721,-0.14223872,0.2219408,1.0018294,0.96711105,1.0
Backdoor.Graybird-63e2eb4bc7fc4ce5504efdadfe434d52ad8b3699d5670c575b0d6749eb9da2a1,-0.06077403,-0.7892501,-0.4784009,-0.29865158,-0.3349575,0.33709812,-0.19218744,-0.3795496,-0.2583074,0.25900447,-0.068805516,0.080104664,-0.63357073,0.8557609,0.6730404,0.11426213,0.29185978,-0.10942433,-0.6939047,-0.26344562,-0.05304304,-0.011338921,-0.3292237,0.27989906,0.15789442,0.5262444,0.03011221,0.18520135,-0.6532826,-0.22240296,-0.15128583,0.4022153,-0.5214487,0.06946127,-0.23974909,0.46260852,1.0
Backdoor.Graybird-65991ce74d589f9fe4d0cefbe5eda390986221c041faed595ca5b635a48460cb,-0.23050895,-0.39650485,0.019825222,0.27813065,0.28777322,0.48500416,0.3313458,-0.017980903,-0.43932682,-0.050831504,0.36363307,0.21213198,0.45869568,0.27416235,0.20393759,0.5914334,-0.44178343,0.015775813,-0.45857957,0.20839804,-0.06406491,0.41660345,-0.38325143,-0.10366869,0.11527505,0.3227642,-0.123386055,-0.20800419,-0.7700783,0.25782672,0.55747026,-0.4847222,-0.35214373,0.20123535,0.021107614,0.20261087,1.0
Backdoor.Graybird-65d264ba371d426165a67d137b3a7da59ee4c7d2f919832a3ab028825e0177be,-0.028552445,-0.42458495,-0.12360804,0.082139045,-0.51151156,-0.4239755,0.34609094,-0.10871679,0.13095671,0.3352692,0.19031376,-0.0879194,0.8956598,0.20280801,0.52133757,0.034510948,0.30226907,0.29067513,-0.49732623,-0.58050764,0.48670235,0.25388193,-1.1900669,-0.7472443,0.5066453,0.34157243,0.35412633,0.5413222,-0.50377923,-0.17241785,-0.5690317,0.3408381,-0.59324193,-0.12911193,0.09183385,0.87667316,1.0
Backdoor.Graybird-66786bb835a1674bc9295a67c584c9da1aff48441df00a21451727cf3b1e6a9e,-0.108974315,-0.36252752,-0.47278383,0.57007515,-0.08417494,-0.5516568,0.60921335,0.273687,0.07264114,0.37209055,-0.49967486,0.4676239,0.7521452,0.3880242,0.4475363,0.3826082,0.0701889,0.016818635,-0.14363088,-0.36519396,0.19772476,0.4092722,-1.0179856,-0.29896042,0.6282141,-0.2151103,0.3218087,0.49680173,-0.77082866,-0.37975988,0.14333113,0.0645844,-0.9447737,-0.55121005,0.49564573,0.10726256,1.0
Backdoor.Graybird-66c23272f29f90036382aa571ce861ef2d542d96de626fda2ee58ae67bf5b9d6,0.7068851,-0.4349413,-0.31183362,0.38122803,0.113141544,0.26297697,-0.17851435,-0.11156039,0.100042276,0.12489763,0.51663166,0.08263467,-0.1883069,-0.4973928,0.56145346,-0.093306646,0.21391498,-0.2700574,-0.38019174,0.35988662,0.33610982,0.42400017,-0.53115207,0.2526157,-0.08046729,0.01890841,-0.32666185,-0.82220054,-0.52546674,-0.17389023,0.30655274,0.57489425,-0.4005168,0.19109032,-0.097593166,0.13753317,1.0
Backdoor.Graybird-66ef45fab44825af0fcd0f58e3ccab4792697337741dae14ea4faa1d4664e20d,0.017893327,-0.07811235,-0.24390897,0.31045204,0.4838966,0.029094415,0.06935564,0.034355562,-0.35231668,0.46057847,-0.11004324,-0.021281352,-0.070576034,0.10193607,0.78988427,0.67034644,-0.60023236,-0.56894135,0.21967807,0.8649473,0.41230103,0.64295334,-0.7945536,0.24270748,0.3087248,-0.054758556,-0.27003154,0.26180527,-0.50374234,-0.19090207,0.2547475,-0.25897416,-0.16681148,0.21607745,-0.47006714,0.94348073,1.0
Backdoor.Graybird-67425cd076901418623f3637faf1494475f22b93e177b42592d3330628cb1290,0.23014894,-0.28516403,-0.34363133,0.19873294,0.016912233,-0.3655316,0.09226815,0.32897875,0.0021794573,0.8077426,0.058869965,-0.25091028,-0.02380054,0.24615833,0.57887137,-0.55472887,0.23639522,-0.049310148,-0.33745557,0.42000374,-0.51233387,0.10217195,-1.2146957,-0.20139787,0.7499837,-0.016772848,0.3006453,-0.00315777,-0.8991929,-0.37802482,-0.22082955,0.36429802,-0.4139012,-0.12870996,0.16724649,0.503636,1.0
Backdoor.Graybird-69c8069ecc84dde235d404175eb4bb9f290b5d1a4ea6e38ec5546db7e8297763,0.18822426,0.07612784,0.24250093,-0.10147379,0.435969,-0.2136181,-0.5146557,0.10203505,-0.08576618,0.08340693,-0.3023511,-0.07093449,-0.039816838,-0.14223367,0.22528349,0.16063292,-0.5478541,-0.88801825,-0.28057462,0.5710915,-0.12793352,-0.25200158,-0.84960073,0.04919024,-0.4341821,0.7426194,-0.34630612,-0.45946616,-0.8121158,-0.032238867,-0.15109485,0.12657253,-0.27297306,-0.34869036,0.020965636,0.46818867,1.0
Backdoor.Graybird-6a098aa51cf1f256b4f7ba9a00f9dd694ce861af7631c2017787b649a3c9303e,0.18762185,-0.10713103,0.46234208,-0.23352803,0.2919997,-0.24352062,0.34975314,-0.012186884,0.030768013,0.022056136,-0.43257734,-0.10055294,0.40829676,0.18084167,0.22273941,0.359927,-0.5179898,0.27094725,0.21672286,0.17685077,0.068328016,-0.22413324,-0.7474241,-0.5354058,0.12686944,0.66929615,-0.07652847,-0.29096097,-1.0392183,-0.4179254,0.6233802,-0.035714086,-0.12607624,0.16546749,-0.19472043,0.54676336,1.0
Backdoor.Graybird-6a7abfcf01608d31fd5666e4b92bd5e4a461b40fb54721d26ba40107a3707012,0.65027034,-0.09838543,0.6018411,0.13096689,0.9163032,-0.23601002,0.25115982,0.04175463,-0.5347429,-0.004775732,-0.2873686,0.13674583,0.59329706,0.66829395,0.28515595,0.19713277,-0.72655934,0.21732375,-0.8139003,0.2869842,-0.1645228,0.19736628,-0.39008045,-0.053020284,-0.025023073,0.68301105,-0.715273,-0.074572414,-0.59957314,0.013431164,0.6075744,-0.40947378,-0.5773683,0.15487564,0.3564961,0.04706558,1.0
Backdoor.Graybird-6acf73ce429b03da848243858022756272a351e5d0a2f668c20fa8454b22ace8,0.34404814,-0.8035651,0.30707964,-0.26720956,0.1967025,-0.08089201,0.61924624,-0.02739091,-0.07401219,-0.1775987,0.28349942,-0.2432971,0.83716524,0.1684011,0.26080108,-0.11525219,-0.6049238,0.042618874,0.1653691,0.43595776,0.24071062,0.21701661,-0.13206969,-0.63882846,-0.28970098,0.78909594,-0.057309777,-0.38455975,-1.2491192,-0.5311285,0.2995525,0.1957946,-0.058772188,-0.0744273,0.22057667,0.26101995,1.0
Backdoor.Graybird-6b70eac6c80bae3841169ad629bbb4f713f1f459d39f758be7868a807a6e9d7f,0.10500348,0.018973896,-0.095266536,-0.49120796,0.2663742,0.10451245,0.25642872,0.16789606,-0.2692233,0.18204947,0.17591812,0.46630555,0.50470746,0.71645534,-0.21823303,-0.040675234,-0.50453645,0.3941352,-0.25571024,0.2817762,0.060875025,0.100195654,-0.47617456,-0.13824664,-0.5221381,0.15433265,-0.07224302,-0.557799,-1.2147902,-0.6444646,-0.04296915,0.08539848,-0.5565148,0.008570553,-0.3920398,0.28109777,1.0
Backdoor.Graybird-6c59c054dc3d17fd97cb3525e71853d608222e848f3e57dbd3adad8585231eec,0.08637958,0.13341166,0.31227392,-0.24234188,-0.007002015,-0.16769591,-0.40139833,-0.2756078,0.12359972,0.028349,-0.01879005,0.514861,-0.11963047,0.2486988,0.39847544,-0.6041989,-0.13730028,-0.20564112,-1.0314584,0.12116072,-0.65599805,-0.065209046,-1.0822769,0.21595678,0.42943698,0.74125,0.05845095,0.18579875,-0.41837445,0.24282259,-0.05047423,-0.13214639,0.22300033,-0.45607638,-0.4295586,0.21413289,1.0
Backdoor.Graybird-6cfb5586d80cc93044a1795e99640f6a849914656deec59bbe8118ff968eca77,0.48349965,-0.10784639,-0.17339613,0.76727796,0.17735364,-0.30556157,0.4334208,-0.3898446,-0.32471737,-0.37852904,-0.35582978,-0.0037715738,0.3876175,0.1487561,0.35840893,-0.022838805,-0.22933702,-0.45506525,-0.09881318,0.24685848,0.48917657,0.3618928,-0.6313178,-0.70592386,0.08309079,0.2534339,-0.18578787,-0.36574218,-0.4859222,-0.21307115,0.12987827,0.35590452,-0.53358126,0.3802786,-0.14115255,0.40012708,1.0
Backdoor.Graybird-6d242d408bf0e3c49e088eb4cd4a939511c4ea60db11d94d96a7a7a39be70f9c,0.34409735,-0.42423353,-0.0799501,-0.13643521,0.6403407,-0.22618544,0.17253916,0.5605503,-0.19795762,0.2657625,0.19479261,0.014107543,0.29720744,0.21655631,0.5946903,0.34700203,-0.46331114,-0.06260915,-0.62547135,0.092512466,-0.23829891,-0.012568308,-0.6500877,-0.9405469,0.36458793,0.15885158,-0.1587178,-0.5322072,-0.99690133,-0.7326284,0.63660806,-0.12485903,-0.6663169,-0.3068245,0.062099162,0.16138509,1.0
Backdoor.Graybird-6d321e528269b7a7e1f6436e1380c65a20f1d714ebc0026e0a99839dc1a501e4,0.2844644,0.52390635,-0.08328448,-0.18870671,-0.34800002,-0.4779617,-0.0038355282,-0.59450334,0.22672148,-0.31307134,-0.3592066,-0.4502697,-0.16742288,-0.45432,0.27218756,-0.004411272,0.032149095,-0.33990455,-0.33884394,-0.15949172,0.35321835,-0.24515854,-0.62315583,-0.087633505,0.062100265,-0.03916659,0.2555464,-0.40489158,-0.36725557,-0.7509805,-0.028812349,-0.41733727,-0.32940948,-0.108430244,-0.18160376,0.03828396,1.0
Backdoor.Graybird-6d34635438401f6c4f7794bc4f2c8c446f82edeb567f31a83cf3ae034ea773d1,0.4679847,0.03182527,-0.22757158,0.056237668,0.45876175,0.31370744,-0.69692403,0.65075636,-0.1959983,-0.032851234,0.2504096,-0.05667745,0.6513277,-0.22932479,1.0195098,-0.15536551,0.023813507,0.05754508,-0.877681,0.05944386,0.36323777,0.26658398,-0.0989299,0.31633416,-0.09803244,-0.5131512,0.2943906,-0.12549876,-0.4415135,-0.27349988,-0.14046754,0.6153735,-0.1077923,-0.70902056,-0.060121767,0.57470065,1.0
Backdoor.Graybird-6ee285070d1eef800260ba31817c3e7cec3985f0a6a2849a5dc74e445f878a15,-0.12166628,0.07406633,0.12557833,0.110729985,0.22818579,0.31712607,0.2481142,0.8127416,-0.40373564,-0.62693876,0.25155482,0.1620677,-0.19479904,-0.22444402,0.5768332,0.32761267,-0.42833564,-0.42276755,-0.39143085,-0.02017368,-0.53999174,-0.18510279,0.19724078,0.10579873,-0.5747063,0.32680762,0.641626,-0.26692402,0.5355977,-0.22731054,0.3074676,0.25208786,-0.9225233,0.29313812,0.6896977,0.43887398,1.0
Backdoor.Graybird-6f9dc6c32999551acea67812a90d930ad72a1eb37dd2694c27e9a8adff7a3a9f,0.13160312,-0.5750882,-0.1901976,-0.33902463,0.0774774,-0.20031376,0.47801974,0.65000224,-0.08739843,0.2813559,0.16928509,-0.031146636,0.59691185,0.28264415,0.15350573,-0.013714422,-0.40435678,-0.053933345,-0.041210517,0.4085123,-0.004800597,0.06442814,-0.43639126,-0.40462327,-0.5337307,0.9754201,-0.39162767,-0.5598645,-0.96585315,-0.421021,0.41795906,-0.1826467,-0.12177824,-0.5123659,0.010744726,-0.14380477,1.0
Backdoor.Graybird-71c886f2fd76eb9bd2bc630b058bd694391456685963926b6189fd07dca25a9e,0.11525384,-0.69057757,-0.48140347,-0.3827915,0.045548934,0.15740807,-0.071956865,0.056121115,0.42340875,0.072374195,0.13378131,-0.2825987,-0.029688958,0.44801986,0.89771736,-0.027253656,0.105025694,-0.2680972,0.52518713,0.108613424,-0.13537599,0.0199945,-0.35677692,0.06174951,0.08374646,-0.020870294,-0.080532275,-0.30882618,-1.0931915,-0.19309467,0.08001398,0.66514367,0.05602446,0.12963127,0.05114534,0.31646237,1.0
Backdoor.Graybird-725f4e4c108170d54ef93e14503fab7add7cc13b10df35ba8fe020f0dab88d2d,0.015307356,-0.13011126,-0.1744889,0.22739938,0.35825604,-0.40189308,0.6179762,0.17428088,-0.35877788,-0.18095991,-0.19856559,0.43205997,0.78137356,0.26008037,0.023205845,0.56897545,-0.10073313,-0.08760968,-0.23731348,-0.5189742,-0.054060936,0.07141265,-1.0426912,-0.28025082,0.6032965,-0.16095938,0.14347056,-0.10433575,-0.8923999,-1.0184174,-0.08292276,0.3158612,-0.8986443,-0.6153483,0.55034983,0.45627594,1.0
Backdoor.Graybird-730ed728d5c30bbf322823b8d041c6e3c86249b31946b64b6568a1948cc8e6ed,0.40734458,-0.40686157,-0.13702564,0.76589197,0.44322267,-0.43376866,0.11913123,0.064181164,-0.30819213,0.13507313,0.4157463,0.4166269,0.68343276,0.06292982,0.86460346,-0.14300944,0.2932765,-0.2612049,0.20279314,0.41582435,0.2707266,0.6640134,-0.71552736,-0.20278004,0.41688415,0.14355046,0.4508079,0.1927408,-0.6575947,-0.114901625,0.062477402,0.04904136,-0.5160153,-0.07684749,-0.4447223,0.76981366,1.0
Backdoor.Graybird-739a860eb0dbc39fe915e0761f973180262e418e737f75ebbc4007fe1eaea473,0.54442406,-0.61385375,0.37670624,0.03209232,-0.035180565,0.065823786,-0.090666905,0.24440157,0.22351126,0.023450391,0.56204736,0.14842314,-0.3367129,0.13505788,0.41197643,-0.25272295,0.06302017,-0.64974713,-0.4087915,0.026465768,0.311367,0.3011567,-0.18787555,0.29288048,-0.06559719,-0.023784652,-0.5025722,-0.58689845,-0.6530778,-0.56859326,0.17796439,0.6673481,-0.27263775,0.19605996,0.1873309,0.117018335,1.0
Backdoor.Graybird-757d5da46a1617a1b5a07c2d4c17ec72f6c946ab3ca540e8da0131504084de93,0.13125345,-0.31169772,-0.11795834,0.28257325,-0.4886085,0.184364,0.14807044,-0.19536826,0.11903248,0.27576873,0.2961486,0.26926,0.49420998,0.7381081,0.48435923,0.21783598,-0.81026214,-0.3369341,-0.5320634,0.3089245,0.42012367,0.35709196,-0.0031547155,-0.44860315,-0.12643225,0.2830887,0.12839445,0.28062853,-0.4927208,0.48939845,-0.25192502,0.03282051,0.1299367,0.08707341,0.27888405,0.4779879,1.0
Backdoor.Graybird-759d25eb1e779c0cf9a1791494780efd719aef5f5a316dee827da31758678a77,0.2023772,-0.63943654,-0.49916288,0.035762325,-0.2335962,0.45342463,-0.5315019,-0.23723324,0.19364072,0.113666594,0.42446485,-0.35241878,0.2129372,0.030356713,0.8992239,-0.33156523,0.37943205,-0.6053667,-0.28590563,-0.30728856,0.22527331,0.23298994,-0.37265646,-0.07888118,-0.22185689,-0.4742533,0.16539189,-0.3921719,-0.53068316,-0.45677364,0.22827744,0.6968108,-0.25857982,-0.37337577,0.28898337,0.44896916,1.0
Backdoor.Graybird-764e8d67b8a22cd013f7d302251a249fe7c6c3c4a2d2acb9d1e5f88d557715a3,0.75658214,-0.5689535,-0.33072427,0.4150869,0.29880375,0.18656477,-0.040025074,0.05484784,-0.14443333,0.28618318,0.5320345,0.3498153,-0.49724773,-0.2984176,0.57172567,-0.17298849,0.15231313,-0.1570578,-0.60913277,0.49632284,0.14616089,0.4810159,-0.70534664,0.223425,-0.041665364,0.06784604,-0.38971618,-1.0163791,-0.3374585,-0.28821656,0.13561505,0.52656573,-0.5641215,-0.002254635,0.01918758,0.12654759,1.0
Backdoor.Graybird-76c6fe9ca5a7a1b18fae029ae849431daf6bb211afe955222d5c778bf3472509,0.33882287,-0.35796422,0.049207613,-0.28762478,-0.19970898,-0.060378212,0.28839484,0.39038578,0.13321717,0.14408131,0.47072384,-0.20382471,0.6909265,0.36333013,0.17619577,-0.1339904,-0.33408743,-0.13311246,0.124113224,0.19687845,-0.011722578,0.30659854,-0.49240103,-0.60645705,-0.4078794,0.45272446,-0.2984986,-0.03461846,-0.9564735,-0.3603538,0.28740963,0.16118707,-0.21628378,-0.20955427,-0.19654813,0.57468164,1.0
Backdoor.Graybird-79ebf2c2afd7a143d1833a4702c1dd0aa83e71d78c456649eb59051335c309de,0.49542078,-0.40836817,0.029573336,0.47139406,0.04905925,-0.6876966,0.036097568,0.7678239,-0.28703344,0.58298564,0.021192722,0.6553551,0.14076489,0.28596133,0.6639317,0.11787853,-0.082975775,-0.2424268,-0.20252216,-0.1162826,-0.21419185,0.7855816,-0.3190274,-0.36550862,0.24533582,0.13129987,-0.19634391,-0.054938663,-0.42834792,0.15997714,0.40413618,-0.112918966,-0.49750414,-0.028643541,0.21119022,0.65178746,1.0
Backdoor.Graybird-7a94befd3a93c00b1ca28bd169792504aae64411f804665e0641305e801b215e,0.48451087,-0.98552245,-0.30079085,0.33161697,-0.04397717,0.1820841,-0.14998737,0.020598434,0.11332241,0.5525741,0.47572312,0.011997324,-0.15586443,-0.2503302,0.06260267,-0.36701393,0.0942143,-0.41816097,-0.24173576,-0.41111326,-0.012227416,0.36623693,-0.77405393,-0.07078478,-0.069149554,0.05328208,0.031921964,-0.6415938,-0.8396094,-0.320819,-0.078491375,0.48349583,-0.27471,0.08527726,0.1780764,-0.041608512,1.0
Backdoor.Graybird-7c1334bb1b9e6b4730760f754ab9010783b7f29f821b02bf1478448ad59cf6df,-0.14603183,0.006047747,0.2675852,-0.45054814,-0.1826927,-0.38108373,0.45069662,-0.5290724,0.08903348,0.18279816,-0.056147378,-0.021082265,0.44373575,0.043615118,0.5952622,-0.22470182,-0.34127387,-0.18102933,-0.025492322,0.33840114,0.4029949,0.28152645,-0.87351954,0.033670876,0.5531736,0.12452512,0.43936512,-0.165183,-0.97758734,-0.10253465,-0.3071517,0.7143963,0.090452924,-0.4025272,-0.28296524,0.7829634,1.0
Backdoor.Graybird-7cdae407c0cbf514980c892b1c4495e999866aa3be4f6ebc6e482feecd8cfdea,0.3771166,-0.22227938,0.5367859,0.5937102,0.39310384,-0.32113373,0.43320265,0.3415201,-0.50460607,-0.16283359,-0.34285375,0.19171527,0.33115995,0.6086394,0.017007755,-0.0324679,-1.0644118,0.21627243,-0.24082059,0.21241896,0.03548987,0.23046565,-0.49734312,0.3231529,0.31245634,0.9054765,-0.86392957,-0.076021604,-1.0507442,-0.12998606,0.90260696,-0.21355785,-0.85314727,0.31197125,-0.026627364,-0.38193315,1.0
Backdoor.Graybird-7d85ae8d40e1df6c39d67e97e16bbaa2a1aa6f8bcbec78dfc492de86ef57dc87,-0.104044355,-0.36203733,-0.20038077,-0.22726811,-0.34057486,0.32253343,0.10325033,-0.1516126,-0.24110924,0.443787,-0.20443098,0.35434678,-0.29479516,0.41172686,0.4060255,0.32098475,-0.14284994,-0.30011418,-0.203506,-0.16232923,0.41333088,0.12243806,-0.15658121,-0.3628318,0.010593673,0.10007224,0.13266201,-0.015971862,-0.66586965,-0.3357517,-0.2957635,0.16362438,-0.6367514,-0.11003204,-0.14794195,0.96079755,1.0
Backdoor.Graybird-7d9aec70614646558761e1e9d7aaea88933ee32493d21395b322b04a438140bc,0.5598461,-0.16518891,0.7347501,0.55364823,0.97290933,-0.5663052,0.46166945,0.45818195,-0.17032003,0.3375708,0.093980834,0.48078692,0.07815965,0.693623,1.199184,0.0065134647,-0.39869195,-0.24310467,0.16560903,0.541235,-0.007142354,-0.10790224,-0.44035292,-0.5644012,0.30845588,-0.17129526,0.070770785,-0.21100372,-0.8063729,0.06829987,0.086077705,-0.27764916,-0.89476085,-0.20307364,0.22227576,0.35678744,1.0
Backdoor.Graybird-813477cf47cbe8c132ebbd8bc358f8c03417de303cf35c71f5ab051cdae4724e,0.32793808,-0.049518757,0.6014343,0.37041637,0.94953537,-0.51341426,0.6707389,0.37850878,0.028497962,-0.42522728,0.12250404,0.7662817,0.40664363,0.43472,1.2654657,0.07836973,-0.2904444,-0.33895507,0.14031687,0.20433693,0.49805424,-0.18802245,-0.31492934,-0.37467465,0.17194451,-0.32425767,0.25130594,-0.2569542,-0.66069275,0.04779113,0.102243125,0.106718056,-0.84698284,-0.40207544,0.017029785,0.37035498,1.0
Backdoor.Graybird-81819096e605e81210d610faa6bf8fb85c29c7418b86a6314d154d531cfd0c1e,-0.49762863,-0.09212341,-0.384381,0.015474454,-0.1946564,0.39420506,-0.050449997,-0.05543387,0.0031276075,-0.21085098,0.13237713,-0.57229954,-0.011762125,-0.32166666,0.7361158,-0.42401665,-0.14426824,0.041977808,-0.07143061,0.09358457,0.10170092,0.278331,-0.043328132,-0.010128017,-0.60483426,0.00901014,-0.03150012,-0.8064762,-0.60874015,-0.24548876,0.32960075,-0.22998744,-0.03970119,-0.27871826,0.48892456,0.10116099,1.0
Backdoor.Graybird-82198faa9497d0ea97adae75c36085d9a604203cc0b853faa079881ea9f79ca8,-0.14538327,-0.5099341,0.012747855,0.060852725,0.31373587,-0.30972293,-0.6047364,0.030241318,-0.8485752,-0.4665065,-0.21568653,0.44623595,-0.025247404,-0.23208794,0.19443068,-0.49331298,-0.92189044,-0.5626277,-0.35724774,0.705535,-0.7331095,0.54025453,-0.8471153,0.8064967,0.34089088,0.46352547,0.0900839,0.23340464,-0.9919263,-0.35913473,0.36724445,-0.04276874,-0.1656976,-0.3908429,-0.020491684,-0.08606404,1.0
Backdoor.Graybird-829996786890ae93f6bf998085dd695982bcf299bf215faed795aa37dbc490be,-0.0070065646,-0.10376753,-0.18820149,-0.49843344,0.3808283,-0.28035057,-0.3457982,0.12053182,-0.021494498,-0.21737334,0.2633342,0.3935856,-0.6857786,-0.042841714,0.34243885,-0.58503705,-0.083424695,-1.0337579,-0.71709704,-0.23512302,0.3079994,0.7053426,-0.3402712,0.012088462,0.44625193,1.2049465,0.10796541,-0.13792557,-0.63824296,0.49496868,0.16819443,0.13376671,-0.3496079,0.17337361,-0.3453899,0.5020038,1.0
Backdoor.Graybird-83423cd8ce4f3caa1de47af0f9f15b5582728ea77bf70cfdf4ef7190035b612b,0.6751997,0.77567047,0.4004531,0.204772,0.22231393,-0.070313156,-0.022255268,-0.48590744,0.71458787,0.57003284,-0.059849117,0.07843096,-0.1133219,0.047951754,0.07005551,-0.37406084,-0.39285895,-0.38615876,-0.5389962,0.202076,0.49626443,0.81394273,-0.5930072,0.041688133,0.4964512,0.6518185,0.42975274,0.053818513,-0.85079026,-0.0655048,0.30409923,0.10991745,0.23544441,-0.5288609,-0.33839548,0.20374587,1.0
Backdoor.Graybird-8367e7bcdb92a165868cea32162a752a53fe5d15ceaa3674f817bab68caf2e48,0.77076286,-0.11966807,-0.33569893,-0.31961358,0.0870781,-0.0657579,-0.09700269,0.19542421,0.44871488,0.5049991,-0.05114053,0.15576579,0.23048474,-0.023643287,0.80900353,-0.24838364,-0.22534692,-0.36935723,0.34013036,0.46513066,0.21709093,0.68404365,-0.053546637,0.4811319,0.4413973,0.286795,0.30127892,0.29307368,-0.49245366,-0.11870433,0.8010599,0.030190604,0.011890021,-0.3602291,-0.09559931,0.51099646,1.0
Backdoor.Graybird-8422d4ab5d5079a5a7d9896892e0c3271aee157a1f54d7bc0dba7937c1e98f74,0.47340256,-0.5687828,-0.32159522,-0.015828535,0.21701898,0.2734188,0.12531483,0.20670882,0.028611548,0.1620231,-0.06284589,0.092943616,0.32729328,0.22769205,0.65822965,-0.4864197,0.04493161,-0.33545288,0.11286877,0.5018121,0.21889311,0.22705144,-0.12132375,0.33505002,-0.069271274,-0.026412452,-0.3200711,-0.16956216,-0.73311436,-0.16068181,0.03872493,0.3158208,-0.52596766,-0.23492715,0.54172117,0.19555672,1.0
Backdoor.Graybird-85ec05a6c1aa040abed43cef7e85100a0da06525f674231cde7ed92af582c824,0.3704685,0.117843255,0.10444469,0.19333868,-0.020297842,0.1947799,0.37350684,-0.84539187,-0.04983104,-0.43765867,-0.6039486,-0.24503854,0.29740974,0.14983208,0.24998933,-0.3248377,-0.8144481,-0.15637459,-0.4406863,0.71473086,0.60406625,0.18262434,-0.7443668,0.2618532,0.07214832,-0.26375064,0.1504591,-0.23257801,-0.92578703,0.97961766,-0.07879369,0.45446506,-0.19361457,-0.14901713,0.11457784,0.21739393,1.0
Backdoor.Graybird-861fb76c171296ca9ff2fc6e65fb4ef70adca3e8be932551485a48097ec54c0a,0.3245048,-0.21120554,-0.23131993,0.14356934,0.007318914,-0.07715055,0.21244541,-0.20824988,0.17916515,0.025421984,-0.060291234,0.340212,0.6163086,0.47744665,0.21505678,0.1353071,-0.68304586,-0.07745223,0.023174563,0.3499616,0.11075716,0.24310285,-0.5176724,-0.04282887,0.15416947,0.40611482,-0.084929414,0.051521473,-0.87702876,-0.70182073,0.5698984,0.09164728,0.19414628,-0.36441314,0.06383795,-0.063428536,1.0
Backdoor.Graybird-8670f570c5bc895583b54b34f673e9b6d727cc2a8c2a196f1fe5d7a542f71908,-0.26825485,-0.4964306,0.029319286,0.396403,0.34492958,-0.17778145,0.11995143,0.055848807,-0.24029614,-0.54189485,-0.2932278,1.293036,-0.20988265,0.20497823,0.24044758,0.03785829,-0.016532412,-0.9441601,-0.3164131,0.009760529,-0.081655174,1.0852467,-0.66745657,0.99563235,0.8834139,0.80888677,-0.022457916,0.36089525,-0.8170698,0.20436026,0.4763722,0.30450258,-0.3469839,0.010855329,-0.31999087,-0.23001313,1.0
Backdoor.Graybird-8918ce36caf2732f3bfec79d19f8a096bce314c983cf02357466949b290681e2,-0.13597381,-0.16654946,-0.91522646,-0.042131487,-0.0075968285,0.51097417,0.10345565,-0.1527368,0.23132879,0.2461946,-0.29614627,-0.45455268,0.55783314,-0.11730845,0.4417221,-0.3308934,-0.37996018,-0.49863958,-0.52937466,0.032483794,0.10118008,0.15707424,-0.041378587,-0.34156156,-0.74517447,0.15651429,0.22523785,-0.46607932,-0.714007,-0.6252924,0.45845044,-0.057020217,-0.4085793,-0.5362575,-0.11410556,0.45035118,1.0
Backdoor.Graybird-8923ffa1222f65f71c7c385d1cec6fde5720dbe5add154d279f4f359b631134a,0.49175224,0.17991817,0.19681531,0.0128218625,-0.029971316,-0.051109098,0.04167323,-0.34115404,-0.032905433,0.9237264,0.25579566,0.39669415,0.1950216,0.40357462,0.67745346,-0.28448686,0.033712972,-0.078281775,0.5541221,0.4784748,0.007988544,0.16180524,-0.6809203,0.26486015,0.43364227,0.43686986,-0.28769007,0.36183265,-1.3288778,-0.21721081,0.06387664,-0.26272345,-0.24600111,-0.3325416,-0.060218047,0.09765621,1.0
Backdoor.Graybird-89481ef77be1b32a0454fa76de2d79cec871effda0b9fd6c21861f3c572c3798,-0.6622356,-0.24210958,-0.47672015,0.09300024,-0.3020187,0.13559702,-0.0027844606,-0.51344043,-0.057039805,-0.15077826,-0.44754344,-0.6736632,0.50263095,0.34152395,0.2878405,0.16349891,-0.12671204,0.017932376,-0.24602197,-0.19490828,0.20876096,0.5302182,0.19296695,0.2083084,-0.6108633,0.03223014,0.6292379,-0.07298497,-0.5878177,-0.5363298,0.14664635,-0.84596956,0.005852964,-0.66718507,0.20221709,0.1368385,1.0
Backdoor.Graybird-89b141aa860cddf3c6b0bec91bfca679ff5d8614135a0677e4c1caa7d37a9c89,-0.10182255,-0.6385309,0.14237645,0.6565242,0.114218056,0.31743237,0.38791323,-0.11117886,-0.346813,-0.4176144,0.1252722,0.10829917,0.27993432,0.4843936,0.27689576,-0.002259757,-0.18379946,0.020408662,-0.6095404,0.40949076,0.041804958,0.50296825,-0.68408746,0.5020757,-0.046428144,0.36039895,-0.3684506,-0.51373684,-0.7099515,0.21154453,1.0011712,0.19413038,-0.7394546,0.034522396,-0.22730315,-0.52030283,1.0
Backdoor.Graybird-89fe5e86386ee8e977bf7bd47a2658eee37e28236ba8a8f9aefaba734141ff21,-0.11162181,-0.8434741,0.023241682,0.5009293,0.18719947,-0.35720286,-0.20787837,0.15026867,-0.7448899,-0.22811192,-0.7084055,1.0337982,0.0556581,0.062297326,0.36154744,0.17955086,-0.112351306,-1.1445271,-0.09788437,0.33188987,-0.10691981,0.6194186,-0.6403379,0.74208415,1.0099498,0.7133945,-0.1292102,-0.08280884,-0.5741022,0.3208483,0.3397663,0.14099002,-0.18537763,-0.0076091993,-0.051980127,0.30947286,1.0
Backdoor.Graybird-8a46c3e1144d6c02853f92b643be99b44dee1f443eff59801c96216bbc5405d6,0.15114875,-0.31318593,0.37499407,0.90666306,0.41800025,-0.3009847,0.29920956,0.28136197,-0.5045637,0.08156558,0.22030318,0.7221746,0.1857745,0.5218486,0.03246202,0.30436975,-0.7594129,-0.05919379,-0.11230822,0.67746115,-0.1720286,0.95414704,-0.5469416,0.21646327,-0.3578611,0.77706605,-0.79007095,-0.547299,-0.72580963,0.08613674,0.05786191,-0.20446199,-1.2846391,0.3951013,0.12855725,-0.25468597,1.0
Backdoor.Graybird-8a970cb90dd3321d111d8fd2dd517e86bbf9c79b6a162cd6bb7cb5699edc4b5f,0.14433606,-0.23732951,-0.33611706,0.3393797,0.41993833,0.4644685,0.030216102,0.05662834,-0.074487045,0.53012097,0.28123552,0.08106397,0.083369486,-0.06538023,0.71326554,0.623271,-0.7789017,-0.49328575,0.26615515,0.7320977,0.43867606,0.5555697,-0.88347656,-0.0024879081,0.30268434,-0.006304392,-0.1760379,0.15246741,-0.7053885,-0.08558647,0.16426747,-0.27880877,-0.06889895,0.1609782,-0.54145384,0.7567751,1.0
Backdoor.Graybird-8c4d358653ddf842f102fa6a1f87c59a3cc65557df4aaf113816f3a2680df216,-0.2907884,-0.15527743,-0.47537228,0.25872055,-0.39256147,0.19120027,-0.19081403,-0.3283091,-0.04933916,-0.20266072,-0.50119525,-0.52227944,-0.3507482,-0.22397126,1.0342289,-0.06658078,0.080950424,-0.056244943,0.26687098,0.039594676,-0.19690406,0.43309823,-0.2376655,-0.06972451,-0.5291991,0.12709332,0.157035,0.24207377,-0.6636189,-0.79271096,-0.19020389,0.026626207,-0.10464514,-0.08786716,-0.29879847,-0.20154373,1.0
Backdoor.Graybird-8c8a2ad65a9f2eb8690f5ec41bac47876a617432c8fa85fb0d81078fef9d4bf8,0.4010423,-0.33115113,0.23957048,0.25355357,0.44073614,-0.08784006,0.61703736,-0.252588,-0.748696,-0.1183437,-0.23759542,0.291145,-0.08927052,0.30095044,0.3472064,-0.09366701,-0.3886782,0.5473053,-0.4596496,1.019992,-0.03166616,0.3379333,-0.40343672,-0.038005568,-0.3546351,0.50843006,0.36681777,-0.29737175,-0.85578334,-0.66981524,0.23571523,0.30434912,-0.3561131,-0.31095996,-0.31127596,-0.27418533,1.0
Backdoor.Graybird-8c95f3c3819ad63d453d8792095390904dc501b5a8f5a70e5b5691d200110ef3,-0.06165766,-0.32995927,-0.2578838,-0.22491914,-0.056281477,0.50240517,0.040466107,0.15226468,0.22826956,0.17722523,0.23810747,-0.02976828,-0.2843076,0.43837926,0.5407971,-0.3106694,-0.3637321,-0.15944934,0.3851254,0.5371275,-0.2311728,0.051588953,-0.38067403,0.09880313,0.08538275,-0.060010187,0.10629693,-0.14078349,-0.9384963,-0.42788237,0.06391379,0.06664106,0.12794738,0.436834,-0.39156073,0.40020278,1.0
Backdoor.Graybird-8d4a784362ac2b3ddd42e1616c08f6805a5672ed39ea15714100a70b9e1fc842,0.3113458,-0.17202464,-0.10440407,0.45179337,0.30868858,-0.13281034,-0.056014195,-0.074230775,-0.34699264,0.18145463,-0.17597751,0.052043032,-0.19468124,0.24616688,0.32724833,0.17404005,-0.41229415,-0.25337797,-0.40569156,0.17521645,0.16050506,-0.112447575,-0.7184814,-0.5123418,0.39551917,0.14401646,-0.13743745,-0.058437083,-1.1876913,-0.4897497,-0.00327519,0.04147137,-0.53172123,-0.05824809,-0.15336032,0.43286216,1.0
Backdoor.Graybird-8de2ca2818c65b69c510a8fe5bfa47608d63fbe23538ad51a6f5661c6daf222f,0.17299208,-0.23581748,-0.21670707,0.4400907,0.6735432,0.04914681,0.11387953,0.14579171,-0.3135787,0.17795551,0.15352766,-0.01936067,-0.22761527,-0.018010814,0.653401,0.2916863,-0.578425,-0.41101232,0.28763765,0.6728612,0.43939778,0.89539886,-0.7499636,0.115680456,0.17375316,-0.115318306,-0.39386556,0.13280259,-0.8344525,-0.1653389,0.43436414,-0.42299336,-0.26601276,0.36422193,-0.6301983,0.8100983,1.0
Backdoor.Graybird-8ee8ed6292025a4830b430fbc42984c2b3fa30a7fd3aad6ef3f0abc1363bdea3,0.08424592,-0.3104041,-0.50119764,0.5070501,0.32017982,-0.25314072,0.19522113,-0.0115887085,-0.22501771,-0.12930617,-0.17504318,0.05825941,0.47193298,0.025019998,0.14286602,-0.09426501,-0.010990545,-0.2484323,-0.5232378,0.56577146,0.17958638,0.6976046,-0.8516754,-0.48144403,-0.12570417,-0.05455141,0.1683738,-0.32550922,-0.45615202,-0.27666798,0.29496172,-0.085431166,-0.5125683,-0.045902345,0.007964186,0.6144464,1.0
Backdoor.Graybird-8f1081cf86782cc1b1577cb67497d6fb854f20cb6515dd8a14b564d43c6752a0,0.31073457,-0.51287156,0.6190124,0.023458937,0.39436516,-0.23129453,-0.49359205,-0.39984664,-0.9843416,-0.3959212,-0.19791539,0.97431153,0.034511097,-0.024606822,-0.060898025,-0.43961078,-0.7360258,-0.31026736,-0.72781533,0.52087235,-0.68392605,0.4404987,-0.90303284,0.71990573,-0.2466984,0.49382693,-0.17743003,0.06545086,-1.0688195,0.8531962,0.19621557,-0.37212995,-0.09860555,-0.43460152,0.008272893,0.15727928,1.0
Backdoor.Graybird-8f119cfb976e3b606d5a14c8223f6ff7efcb22ec1491da008b081e11f5ff9dac,0.23626082,-0.084458254,0.17822011,-0.16174127,0.16591078,-0.09759103,0.4581906,-0.06355683,-0.13104537,0.082000695,0.05176134,0.26676092,0.6313449,0.53917575,-0.17041665,-0.047385927,-0.8572529,0.38942364,-0.02213609,0.37786505,0.19024037,0.13590382,-0.6050551,-0.31119087,-0.022114081,0.80769986,0.01113035,-0.32684678,-0.99893373,-0.3169057,0.13441849,-0.35722676,-0.3334067,-0.22102804,-0.48613477,0.18487674,1.0
Backdoor.Graybird-92310a91c8e822e825dee87224b6f400b7a40024d44aaee44575c08311d922a5,-0.31755868,-0.2973519,-0.5026934,0.37230948,-0.24152662,0.5240089,0.40173605,0.24352002,-0.110214025,0.07932173,-0.5402501,-0.41675705,0.20510443,-0.26990807,0.30262244,-0.41871136,0.03655583,-0.28548998,-0.31151623,0.20058818,-0.16772494,0.26884922,-0.10537747,-0.03134411,-0.75578517,0.14730452,0.06639889,-0.86054957,-0.5025371,-0.12786546,-0.09192845,0.06401155,-0.20699573,-0.3029947,0.15789448,0.026800185,1.0
Backdoor.Graybird-9289f437e7f7c37d9dcee484de2c1850637fd0feb549e31a2aaac1400dec6b1c,0.3982346,0.26673022,-0.086199276,0.07626346,0.24501088,0.26063403,-0.83081377,0.60376096,0.123946644,-0.14509661,0.17652927,-0.22729576,0.07525424,0.052586082,0.7617865,-0.3651896,0.046402384,0.25833905,-0.7898581,-0.01168413,0.099801496,0.17979436,-0.32696193,-0.015543552,0.2113906,-0.39329335,0.22875285,0.1631043,-0.89512384,-0.35943216,-0.0076431064,0.29737255,-0.2743827,-0.67387503,0.14550482,0.1346086,1.0
Backdoor.Graybird-935ef5a37611172206877fbd8823614c947a21b71e8a8ca746a1299e1d3357ed,0.6373679,-0.4179208,-0.5157108,0.055714585,0.20372999,0.37497574,-0.20609926,-0.019176904,0.12553425,0.40132007,0.08377221,0.1500145,0.067678675,0.19578125,0.30121323,-0.2781202,-0.035063397,-0.39435062,0.1982376,0.010970957,0.08799154,0.38129526,-0.4838874,0.55197066,0.3575261,0.24312098,-0.32825264,-0.32569745,-0.7449711,-0.4021243,-0.06705631,0.65449727,-0.21610269,0.041448742,0.50391006,-0.103797875,1.0
Backdoor.Graybird-93a713200100c3ae76e3985038dd5466151583924da3469fa71387d3af298ac2,0.63784117,0.9667924,0.33355477,-0.013053562,-0.10536187,0.03874849,-0.0063441377,-0.22135167,0.95746595,0.1881307,-0.04319373,-0.041685827,-0.41748407,0.14113054,0.2288428,-0.6211338,0.02060305,-0.6081042,-0.5203264,0.4797358,0.48415336,0.5791826,-0.44176137,0.26069617,0.54395646,0.3870586,0.36397523,0.025436655,-0.91147983,-0.0034756975,0.34216154,0.3323298,0.029365348,-0.43740728,-0.53031456,0.07859403,1.0
Backdoor.Graybird-945eb21ef074656d9a1a86747c9d7b5d15f29a567fa27fef01fb2737e576ad03,0.6666044,-0.3446876,-0.10698111,0.36731353,0.06314698,0.48497614,0.40759113,-0.15734147,0.16498044,0.16789559,-0.40838432,0.045115214,0.17895666,0.13196321,0.44360724,0.35734558,-0.6373407,0.041067924,-0.14587468,-0.09325304,-0.30244344,0.8367428,-0.27229422,-0.21595135,0.12381643,-0.092513,0.058582664,0.42625466,-0.7077474,0.35777867,-0.14794804,0.19486012,0.24560727,-0.092332885,-0.0100377435,0.64906377,1.0
Backdoor.Graybird-94623d56ca044b70fe15d88621894fcd59eafe180da385d9d9305186f7f4b86b,0.8802888,-0.06031011,-0.14723821,0.09749604,-0.44009683,-0.4113747,0.31919762,0.12284998,0.18734087,0.43248928,-0.28919303,-0.052082457,-0.023975164,-0.0015259739,0.29164,-0.045225818,-0.10948112,-0.33987355,-0.55014545,0.82374305,0.2725799,0.6890498,-0.38244665,0.7427795,0.3409349,-0.07968754,-0.05658021,0.3240344,-1.1511339,-0.07704733,0.30074048,0.47462803,0.50781584,-0.5385346,-0.43328065,0.17348666,1.0
Backdoor.Graybird-946b3de2c3b514a6c2efe10f2b71f28ee63a9b6730a24a7eba83aa0cf5c5341d,0.4931763,-0.05169417,-0.29481307,-0.10479305,-0.48241127,0.0050059743,-0.01070083,0.1683487,0.47892183,0.92076546,-0.24218617,0.1969758,0.079641424,0.5169701,0.65475124,-0.1506066,-0.10191976,-0.63356066,0.31746227,0.36772427,0.5358737,0.66853106,-0.14027865,0.7440165,0.51890737,0.25780356,-0.131145,0.55104244,-0.5819808,0.1033678,0.035274334,-0.45888686,0.05184346,-0.6684152,-0.30487856,0.20580222,1.0
Backdoor.Graybird-95d4ffb8d58ae1108f465097fc357a901f9e00da85ec8d3adecb017be08edc7a,0.44942,-0.7436613,-0.27359906,0.36789963,0.5197999,-0.31558773,0.14626732,0.7403608,0.6068685,0.38737202,-0.43215755,0.78707945,0.25491893,-0.19521207,0.43866917,-0.19639471,-0.52043486,-0.32037532,-0.27060926,-0.39497188,-0.05505607,0.6494931,-0.65981394,-0.35288718,1.0020106,0.86354893,0.13217235,0.4346514,-0.94831026,-0.6467208,0.3804193,0.18863866,-0.35043472,-0.6023979,0.00853688,0.008845989,1.0
Backdoor.Graybird-963cd338182a57b18f2a85b8a36f5617a8c91fda7f68627cab80fad0a8e08c45,-0.19062258,-0.4605868,0.26420414,0.047761288,-0.26468202,-0.10362538,0.14461637,0.04787792,0.4345991,-0.12173856,-0.5369939,-0.26793736,-0.29182994,-0.03479774,0.48652095,-0.17054932,-0.27917767,-0.2221409,-0.63688886,0.11836669,-0.20083505,0.4408573,-0.4050786,-0.027338102,0.44721526,0.3982778,-0.11102186,0.07830867,-0.831715,0.34302482,0.77943635,0.17084807,0.051936142,0.5638288,0.27669573,0.12827417,1.0
Backdoor.Graybird-967456f14643ad8f8bab3ed0b5468ff69704502ae64b5c37f66d43eb71ee5909,0.42601407,-0.14594203,0.19695136,-0.27764112,0.21285303,0.100542285,-0.07814726,-0.077849776,0.20878051,0.0314807,-0.16452327,0.32758704,-0.14666319,0.42094254,0.31501067,-0.7753215,-0.3894879,0.12453626,-0.5438336,0.0035068837,0.5095338,0.075037666,-0.77823985,-0.2793828,-0.44849828,0.3779602,-0.10585386,0.40463737,-0.49228436,-0.7012993,-0.19878305,0.6020036,-0.42005152,0.054131813,-0.49871495,0.49312666,1.0
Backdoor.Graybird-97d6d5d2bfd16a21b6b02bc9bb883dbcd437d0a71f34eebe95d8419a8b80eb89,0.26266444,0.019834038,0.53247875,0.526944,0.16957517,-0.7479046,0.49271202,0.27988103,-0.3592201,0.20897251,-0.104940064,0.38061658,0.86254054,0.35965008,0.64491874,0.0017728611,-0.6149876,0.5423662,-0.34914887,1.1092322,-0.20668906,0.30228147,-0.6051909,-0.5329998,-0.045866795,0.50679976,-0.33216512,-0.44040617,-0.7723513,0.22451603,0.29770526,-0.62374604,-0.6812473,-0.020174583,-0.13801812,-0.22228828,1.0
Backdoor.Graybird-98970c86f23de51867088ebeda57ac2ea32d14ce4aea3b1ce33d30f7482a6448,0.07933517,-0.8497699,0.13897674,0.324823,-0.0051455875,-0.08946343,-0.090915084,0.23577322,-0.09089889,-0.38238603,-0.19163272,0.26171616,0.69173056,0.6939289,0.38042116,-0.0065033846,-0.75469905,-0.076704115,-0.32259315,0.19864209,-0.21877299,0.19403906,-0.36940846,-0.19044508,0.43146145,0.37294686,0.11408189,-0.29868066,-0.78068745,0.34930828,0.72489315,0.0041138777,-0.34918502,-0.6006048,0.30102035,0.16845094,1.0
Backdoor.Graybird-9a3a9d7c1d351acf199e6bd2b341f60fee80d72b2775e0cb823397a501994860,0.06354348,-0.36322254,-0.41410998,-0.038462684,-0.042259805,0.16013002,-0.107464865,-0.03689059,0.3325745,0.44137508,0.048711166,-0.2007722,0.1887078,0.11008659,0.39628154,-0.7257619,-0.37127662,0.1650523,-0.67079014,0.22737189,0.30141014,0.15538369,-0.27615282,-0.50176704,-0.5551912,0.8173033,-0.23700407,-0.36984476,-0.76011753,-0.48220724,-0.18739755,0.15786932,0.12484158,-0.15865158,0.20245896,0.29549047,1.0
Backdoor.Graybird-9aa73f468e17862621a2fad53b9d4d7b2e739f4529ca0271244b5306e4eab8d6,-0.46575117,-0.14857368,-0.7939553,-0.029328505,0.12959875,0.08930027,-0.10940609,0.6136405,-0.13102485,0.25986418,0.4374941,-0.1545997,0.4621575,0.18353215,1.0947949,-0.35538644,-0.17742044,-0.3934882,-0.21928616,-0.22129747,-0.058983054,0.2883568,-0.6692419,0.041164525,1.5068421,0.031924862,0.56760067,-0.165364,-0.59361255,-0.09055291,-0.14214383,0.37473857,-0.17887965,-0.3900273,0.3672498,1.0206311,1.0
Backdoor.Graybird-9b214aadee23c6591c9ff73d0f579e35b8b2dee1b7ab8e5cfbd75a5a21bb885a,0.20556954,0.000586073,-0.122690745,-0.19471602,-0.6089229,-0.08229381,-0.43654922,0.17034529,0.29024017,0.79647905,0.2749084,0.1670944,0.1959094,0.51569813,-0.10799988,0.14820644,-0.39105982,0.1783149,0.08267747,0.1772787,0.85446346,0.8096534,-0.7918159,-0.06490515,0.16794777,0.2269277,0.09869073,0.26759055,-0.65071845,0.022456864,-0.09623916,-0.44473475,-0.15654203,-0.093475804,-0.28089085,0.59852713,1.0
Backdoor.Graybird-9c1495b62ed7d9ed9e1c812aed748f99a5fb67d1a2ec3fdc92d72e2cee7a387d,0.09382722,-0.09762378,-0.44492987,0.28145096,0.15359028,0.017863974,-0.2898774,-0.12961495,-0.4706864,0.61338276,-0.1119599,0.06565027,0.21350503,0.017573027,0.6915241,0.32391158,-0.82800376,-0.6715765,0.3770006,1.164249,0.5995722,0.3043792,-0.8842387,0.51078933,0.2152599,0.100030184,-0.29513985,0.26764315,-0.7698311,-0.6512159,0.13112146,-0.043144945,0.12694414,0.33831656,-0.44594306,0.5590544,1.0
Backdoor.Graybird-9e2df649e165d2c1d71aecc2e127fc76d8d47d0d81a89c163eae69820d37bf20,-0.13659015,-0.6468076,0.033040438,0.23303747,0.42019784,-0.29628342,-0.6993812,0.082532704,-0.7033468,0.051769678,-0.36330256,0.888394,-0.04052713,0.41327447,0.2844278,-0.62490463,-0.50131625,-0.6753306,-0.37704846,-0.15970555,-0.32987142,0.41682842,-1.0564439,0.6179247,0.9484953,0.99378103,0.17441006,0.33155042,-0.16429876,0.30704007,0.2359543,0.05164633,0.3722462,0.12942593,-0.021429239,0.63259196,1.0
Backdoor.Graybird-9fb2b93a16534f2ee2ca6ae8290af116472da4351149a234accca893dba2a0f2,0.21890607,-0.37690938,0.11390296,0.55420923,0.12942268,-0.36258495,0.24322161,0.16329637,-0.3833304,-0.31010416,-0.27673006,0.31394047,0.574426,0.46584618,0.4119431,-0.27777532,-0.8979037,0.2681391,-0.385868,0.9035389,-0.101024576,0.07120095,-0.7195403,-0.3601588,0.22871783,0.68690497,-0.31316945,-0.42150283,-0.8608163,0.28648436,0.70414925,-0.19151026,-0.38859403,-0.083959,-0.31054145,0.34209996,1.0
Backdoor.Graybird-a035a8b8a7aacc5376be19dc3391fd2a77015718b8cf24d78052ac937b1728a7,-0.16216952,-0.037487242,-0.33190894,0.6348031,-0.470053,0.21564834,-0.09800911,-0.21973756,-0.22618419,-0.1740775,-0.21331945,0.31883815,0.24090604,-0.095612325,0.7768746,0.17758575,-0.1808284,0.17954876,-1.2689589,0.11336366,0.25240278,-0.47787714,-0.8317755,0.10996244,0.6152521,0.23924202,0.12850304,0.43449628,-0.7245179,0.36809298,0.77315587,0.19820209,0.19485481,0.061996456,-0.027323537,-0.0077369865,1.0
Backdoor.Graybird-a0498a02cb192000d067d4f36547b86cb08637ee7a481600e910092c19a9ce9f,0.448003,-0.84748906,0.4991642,0.7534332,-0.82326806,-0.26232016,-0.38161424,0.06665581,-0.3784061,0.9874756,0.3647862,0.8937161,-0.06854035,-0.22779463,0.31461078,0.42978963,-0.2323964,-0.339728,-0.5316838,0.34477934,-0.42192754,0.37152776,0.36824024,0.638562,0.093952216,0.11360149,0.4868232,0.25146073,-0.61627585,0.38297364,0.6546918,-0.27210027,-0.09502361,0.48281494,1.0824237,0.8806776,1.0
Backdoor.Graybird-a0a04c1fabf634b2f915f759027d71530989359d81650c39616c53fd5ebed357,0.48658392,-0.6506619,0.30004665,0.16555297,-0.39567444,-0.10841393,-0.09980005,0.30122033,-0.34248495,-0.30371046,-0.040253192,0.8781863,-0.41718847,-0.32976142,0.1136734,0.0018036402,-0.19591981,-0.8418639,-0.606497,0.038555663,-0.14838503,0.8419127,-0.80008847,0.3855424,0.68688715,0.5965682,-0.26969388,0.32950747,-0.104894854,0.42787313,0.2475548,0.20451947,-0.26398084,0.4425844,-0.38694528,0.42984554,1.0
Backdoor.Graybird-a1fd6d8666fb7b058edc88955c022b3e35e36da23edbd184264ef39fa45805eb,0.4476293,-0.67861193,0.23724805,0.3527188,-0.50385743,-0.101388454,0.15915254,0.2927116,-0.25156003,0.52275,0.18664742,0.7985174,0.39061695,0.13095069,-0.22855477,0.47426453,-0.20291582,-0.24814792,-0.494904,0.21338896,-0.17115259,0.35701415,0.07313185,0.37142754,-0.35560662,-0.09421096,0.19397676,-0.29614004,-0.0010355711,-0.32793716,0.43153146,-0.11774874,-0.07080232,0.31721264,0.9347268,1.0542225,1.0
