,0,1,2,3,4,5,6,7,8,9,10,11,12,13,14,15,16,17,18,19,20,21,22,23,24,25,26,27,28,29,30,31,32,33,34,35,LABEL
Backdoor.Graybird-009a62c6f6543ec65460d9a3984fac8dd65aba2feacfa00e8e253bb474a417e7,-0.100880705,-0.2938524,-0.36955723,0.6298448,-0.9636369,0.1873476,-0.26265985,0.2605016,-0.3580496,-0.29625633,-0.039578613,0.30952045,0.11801157,1.2217791,0.17754355,0.08418873,-0.09959414,-0.6360981,-0.093172505,-0.7436312,-0.26660538,0.44819054,-0.19699419,-0.030908821,0.023694407,-0.3834394,0.547645,-0.39715973,-0.2284771,-0.5332006,-0.120470196,0.35082623,-0.7574497,-0.31225315,0.38314986,-0.2580645,1.0
Backdoor.Graybird-02842b14fc265c045f10e2c5ab47c0b0a757c41d13a53194deb66aceb2e3993d,0.16213983,-0.6285592,-0.75912035,-0.14480022,0.46601886,-0.38454884,0.47269318,-0.07402248,-0.3202495,-0.29188618,-0.4321996,0.11769602,0.24182846,0.2972902,-0.070272446,0.1388219,0.20434996,-0.28966638,0.17435972,-0.24807923,-0.28425404,0.5842328,-0.2162405,-0.2034663,-0.051734474,-0.05534395,0.11853496,0.15416509,-0.28564268,0.017835425,-0.5884077,0.12512095,0.057458736,0.038304668,0.3186658,0.2884065,1.0
Backdoor.Graybird-03b5962ef8b9c83fe0ed10fc4333a68462865f3a4442346c5f7d004a46555448,-0.21716438,0.3924578,-0.18283927,0.1483655,-0.5556898,0.69032925,-0.012723837,0.5458209,-0.19706517,-1.0242033,0.12621991,0.22616923,0.74108845,-0.55025727,0.17748338,-0.04537293,0.1367138,-0.43726772,0.6826259,-0.43886647,-0.6252559,0.153107,0.2544201,0.2446536,-0.023753136,0.24437945,0.09517401,0.13515806,0.17277819,0.6415982,0.057843916,0.20718725,0.260719,0.24318664,-0.039614663,-0.007011098,1.0
Backdoor.Graybird-049f53a05707c2cccd67540609368ef20f395327adb9a026267369d568f78c0a,-0.68327755,0.056536164,-0.12877917,0.38870028,-0.5007188,0.058103785,0.21109003,0.22076726,-0.14419101,-0.33799407,-0.12420054,-0.463527,-0.18907325,0.80382323,0.4052879,-0.101196155,0.45042697,-0.20837222,0.10795489,-0.9377525,0.07267202,-0.068506755,-0.28809986,-0.3105097,0.41323993,-0.28789625,0.19466563,0.31715414,-0.44356966,-0.51750374,-0.19648135,0.0020349442,-0.15597862,0.059699055,0.51910174,0.24299331,1.0
Backdoor.Graybird-05339051a960d18fafb2e5d656e36b2fa007462d9a7b2fbfcb4532b3235ac5ed,-0.86696464,0.12934639,0.22491968,0.13858427,0.010793737,0.020650987,0.23611636,-0.16027793,-0.3668436,0.2693536,-0.27630672,-0.04790505,-0.11622924,1.0336022,0.115312494,-0.092894465,-0.05898911,-0.1366167,0.2740461,-0.526802,0.10034482,0.43610644,-0.26156402,-0.57468754,0.273013,-0.50479907,0.39622653,-0.464459,-1.0752667,-0.2534284,0.037254084,0.37262797,-0.32526177,-0.23502696,-0.057689838,0.7014446,1.0
Backdoor.Graybird-05bb2dcf38927dc99961deedaaff6ff120bdfd383745bac5aeb0c28340ea1010,0.32955068,-0.6051103,0.16643347,-0.44454104,-0.38337004,0.177387,0.6371061,-0.27685025,-0.49083903,-0.5504978,-0.0032962724,0.59598684,0.023008242,0.26432306,-0.30012652,0.5853286,0.38094473,-0.2964605,-0.17136903,-0.48560667,-0.43081272,0.31801915,-0.64233303,-0.2964998,-0.15142365,0.24753496,0.41864473,0.021694407,-0.20810348,0.08691626,-0.072443634,0.33751452,-0.39491826,-0.015693037,0.70253825,0.19750562,1.0
Backdoor.Graybird-06ba9a22cbf334f6beeb0bc5302d3f0d6b7ad734c9ed071d6f279936a37f4687,-0.44787997,0.6131849,-0.90963,-0.45486414,-0.24103595,-0.0012492946,0.06637346,0.38424417,0.0530187,-0.49567798,-0.46191078,0.74751097,-0.30820912,0.3848809,0.20481543,0.29961398,-0.39225385,-0.07893591,0.095676266,-0.41219962,-0.69335926,0.5608431,-0.25849283,-0.56143034,0.68739647,-0.48947337,0.79749155,-0.66271204,-0.29280263,0.47930634,0.14235272,0.044948984,0.47625297,0.03764732,-0.029883767,-0.029279528,1.0
Backdoor.Graybird-07adf0e72d58706d13117578493d64cc085811d7454fd598a805aa818a445f09,-0.12729046,-0.8724986,-0.07969994,-0.48926535,-0.33975652,0.18272442,0.45030403,-0.22439037,0.26727393,-0.7861364,-0.5343555,0.48037532,0.33782956,0.18056561,0.44606665,-0.10346823,-0.3709152,-0.11947591,-0.28558344,-0.28583607,0.1464694,0.48520887,-0.6737052,-0.02626074,-0.025233643,-0.22477919,0.38450977,0.4137671,-0.050217893,0.61464745,0.13012308,0.8358805,0.21214654,0.13655761,0.44738245,-0.373851,1.0
Backdoor.Graybird-0814e28a9bbff170fb9257df3ad5cf8a27287f7c9001f15ea6a683c05e72095c,-0.34384707,-0.06363437,-0.046192724,0.016190974,-0.24994734,0.5425255,0.5136587,-0.385868,-0.04512826,0.20525512,-0.7298598,-0.13413262,-0.4417954,0.7704909,0.062332366,-0.17279126,0.48597676,-0.12794083,-0.051228944,-0.79306865,-0.10605767,0.59950906,0.057071224,0.52190673,0.10042967,-0.5047577,0.47332197,0.28868794,-0.048588425,-0.24395347,-0.32035866,0.07014252,-0.5999266,-0.031109562,0.9810699,0.29974002,1.0
Backdoor.Graybird-08c34b0421ec2fd129554058eb0e19111b167fdeee45c3c51252c4ace128e70e,0.19654839,0.22489198,0.10548262,-0.097319186,-0.08552187,0.31050986,0.050188035,0.3102093,-0.77780044,-0.14418004,-0.28954065,0.12208039,-0.9069777,0.55259025,-0.37279198,-0.13013478,-0.04951,0.20358953,0.39890602,-0.51120055,-0.2248278,0.38320854,-0.49350065,-0.294234,-0.22285,0.31620172,-0.36113906,0.20727938,-0.48162416,0.16001473,0.49279034,-0.19247656,0.53878784,-0.048174318,1.0422356,0.3908501,1.0
Backdoor.Graybird-08c383b4ffb8ed9df7a17296ae0c1798d7f4b769f188d5eef55c77bb79dcd432,-0.1365635,-0.36289972,-0.9922973,-0.5258428,-0.5255982,0.046752308,-0.1412513,0.20173006,-0.52038336,-0.68161386,-0.4039801,0.2686013,0.073215015,0.33725977,-0.7706439,-0.7386018,-0.053050805,0.25748682,0.15136139,-0.9630269,-0.9281284,0.045530118,-0.08267497,0.2417444,0.94699305,-0.2336523,0.12478862,-0.39211726,-0.23255031,0.27041635,-0.26786295,-0.20935388,0.44574937,-0.5431684,0.38037497,-0.054437105,1.0
Backdoor.Graybird-08cadbda2bd111540dc25897982bc801f681dc16e0eba323973e193712332ef3,0.36522648,0.07725675,0.32893187,-0.4146511,-0.8309347,0.47243872,0.1999745,0.4364249,-0.2162126,-0.3505677,-0.17174949,0.6119338,0.3384444,0.20794721,0.121946394,-0.37681663,0.14451039,-0.0010725003,0.23282948,0.2724325,-0.13196939,0.3511553,0.6671194,-0.52551264,0.11711043,-0.09892665,0.25355294,-0.32909015,-0.24810708,-0.022687636,-0.52659255,-0.0027545511,0.2955325,0.5793911,-0.12249977,-0.48054358,1.0
Backdoor.Graybird-0904d313bde15d4656a630055d025d6a289de46fc2369597deb20d51da0ccd57,0.5399219,-0.03387301,0.099635795,0.16888519,-0.3283384,0.2865373,0.072609186,0.28174978,-0.0969961,-0.20254672,0.113208205,0.0074673686,0.05103835,0.3609319,0.6905362,0.10752188,-0.21775162,0.29781574,0.6257942,-0.2651117,-0.26259768,0.7077358,0.45526955,0.29354724,0.16050328,0.18064956,0.73016495,0.14835641,-0.46739012,0.34016097,0.27216905,0.96951157,0.0049569244,1.0987123,-0.1323676,-0.3038738,1.0
Backdoor.Graybird-095879f4cafe44bf45530fa8b6999d7361bdac2f041fc3c4e7afc1d80cbe914b,-0.70625067,-0.04109732,-0.21902868,0.26934752,-0.9109434,0.3268389,0.018356247,0.039543025,-0.84353316,-0.048705466,-0.14518216,-0.0575358,-0.1252913,0.8222251,0.18579824,0.4388296,-0.07457805,-0.53330624,-0.26317924,-0.38910082,-0.067370765,0.40659022,-0.14857736,-0.39154086,0.057413355,-0.16558455,0.7853522,-0.29102919,-0.34794423,-0.078778945,-0.116640866,0.8896871,-0.29628965,-0.4241596,0.6300399,0.14347485,1.0
Backdoor.Graybird-09a45409e39fb3077d1e7fea751027d152dfa6d9bd30829749ff4ec5caecdfb2,-0.23800588,-0.39692432,-0.11679268,-0.2837231,-0.58595127,-0.031818755,0.27767804,0.72023743,-0.34055752,-0.2947689,-0.13800214,0.2564813,-0.058944095,0.8120349,-0.6291825,-0.40351436,0.34567913,-0.019406592,0.06742166,-0.5590516,-0.7753426,0.1458084,-0.44515738,0.11754415,0.73203945,-0.5468155,-0.24707516,0.101515085,0.071512036,0.3535139,-0.46145192,-0.2315134,0.33715153,-0.25899443,0.38537753,-0.16516407,1.0
Backdoor.Graybird-0a1311fceceea990bf446f7afa4fedcc6b7f8780afd4a6c87a31949818f87cea,0.18689597,0.84666204,-0.11087564,0.14021659,-0.2905594,0.03018613,0.02624545,0.41723433,-0.09082509,-0.4739776,0.2180518,0.26205474,0.45016298,-0.7450866,0.21697652,-0.55285794,0.31734604,-0.3950404,0.29657242,-0.118182324,-0.5452026,-0.1401183,-0.027204916,-0.44067264,-0.32993552,0.09392478,-0.18927927,-0.092187144,-0.25571817,0.5851532,-0.44962516,-0.1799738,-0.41786677,0.45959887,0.5924794,-0.61551154,1.0
Backdoor.Graybird-0ded1dc774b46d985a4e90a46f5d56a0047630d7a6e8df439870f7bb40b57a14,-0.4508814,-0.04865828,-0.4962248,0.035732754,-0.26550668,-0.25240156,0.0007556348,0.44334245,-0.024169056,-0.01963889,-0.6348901,0.3861911,-0.3189708,1.0582626,0.41575208,-0.30636284,-0.54999566,-0.88822335,-0.07970923,-0.18118423,-0.35934,0.39854077,-0.48959678,-0.3614751,0.4642797,-0.108107895,0.64735866,-0.164718,-0.32117108,0.30652317,0.431686,0.37256166,0.45590216,0.040393423,0.122953996,0.3623063,1.0
Backdoor.Graybird-0e4b24dfaad406b918efb40923889150f139511f43c56e34deac187d950ce03f,-0.44126233,-0.07031708,0.16499837,0.06671323,-0.013230248,0.097673066,0.1774021,0.15821788,-0.122283734,0.1686701,-0.30702555,-0.8030811,-0.37888226,0.78189796,0.12318552,-0.36344817,-0.09817499,-0.65009934,0.26843706,-0.64246255,-0.09866903,0.17978376,-0.057426933,-0.013206143,-0.4134176,-0.3693393,-0.17566842,0.48721468,-0.12489881,0.13182624,-0.17800905,0.0922492,-0.7737272,0.012525364,0.8148795,-0.15758026,1.0
Backdoor.Graybird-0e9e218c49e56ec187e145db72a72726d50ae295f08b4bf344f19e13de603ba2,0.94487995,-0.27857694,0.17623101,-0.17960717,0.31429374,-0.088139705,0.56645334,0.09732776,-0.36608565,-0.6056868,0.113670364,0.31086567,0.041270234,0.3241734,-0.35490978,0.6140877,0.3518633,-0.31675366,0.33212352,-0.38249943,-0.7785448,0.12799837,-0.33343711,-0.7134669,-0.21076697,0.7493835,0.49562952,-0.34849143,-0.46702296,0.5042158,-0.0077332063,0.06362252,-0.14837219,0.29376495,0.81182903,0.018337928,1.0
Backdoor.Graybird-0eec1cf54f4696068a4411a96e8deb728f734fac856440cb5175b1204d1dd137,-0.097134806,-0.25226322,-0.15994829,-0.3502635,-0.68329954,-0.18550888,0.7193852,-0.47284526,0.16204049,-0.1287029,-0.58368284,-0.15295543,0.23918365,0.6641489,-0.35717967,-0.41053307,-0.3187142,-0.15858267,0.015640764,-1.1836821,-0.43162787,0.6828393,-0.55758244,-0.319471,0.49811068,-0.06409053,0.6223542,-0.24033603,-0.111878805,0.17301925,0.09850222,0.496458,-0.19441643,0.26483712,0.7994584,-0.007217999,1.0
Backdoor.Graybird-10672ba06f9cceb9fb651a6338f13de953b8a97d9d5164acd08456fb7a974b69,-0.6102996,-0.43738723,-0.43159962,0.19998878,0.12368598,-0.21362881,0.41189563,0.54981375,-0.63998425,-0.28164154,-0.5834337,-0.233216,0.21564108,0.33339736,-0.16962907,-0.45635977,-0.24958195,-0.5087487,0.4054165,-0.6523099,0.28984913,0.64228773,-0.37370715,-0.39160937,0.041290756,-0.67989665,0.613442,-0.56640995,0.04748387,-0.34632635,-0.07584338,0.12139242,0.060605418,-0.17854686,0.4578021,0.6612929,1.0
Backdoor.Graybird-1078ebc75c7612450f362dc2e480699e1e6f21473898effad033a32e4e47d5ed,-0.46327856,-0.36929178,0.14289415,-0.8168968,-0.44127098,0.1870179,0.010045901,0.56908035,-0.36503857,-0.6042239,-0.27832454,-0.02224011,-0.5883908,0.42008346,-0.22912323,-0.30180842,0.31777847,0.16448903,-0.0014231938,-0.6386233,-0.29290038,0.568756,-0.02145662,0.17229277,0.36434096,-0.59724784,0.27869788,0.07007163,0.14413519,0.13722877,-0.2418697,0.033685952,0.0721309,-0.15571457,0.4866642,0.26668376,1.0
Backdoor.Graybird-1203e135f7e763fee8490a3e11c091a2a7617dc3e486d2bbe6ac81a32bc931be,-0.5788961,-0.16049555,-0.12819469,-0.87412536,-0.45272884,0.8573909,-0.13525018,0.42835754,-0.68690056,-0.69864565,-0.6694214,-0.33584207,-0.49485695,0.93031424,0.09530778,0.25400367,-0.2922987,-0.16985004,-0.021611225,-0.31903264,-0.44324914,0.15403241,-0.5800257,-1.1796495,0.18891321,0.03165369,-0.12102181,0.59757173,0.24622983,-0.52530485,0.33601,-0.15991677,0.48271573,-0.23005794,0.5463055,0.5258859,1.0
Backdoor.Graybird-12efad6f7e8313a41ffc7a49cdd612243712922f8d7947141e366574279077b3,0.01690263,-0.71013176,-0.6576585,-0.61159956,-0.28296667,0.108207524,0.013044595,0.39500323,-0.6274886,-0.7412727,-0.17704894,0.1937897,-0.1324595,0.6035108,-0.7110488,-0.39259693,-0.02062839,0.2166977,0.30137053,-0.9420847,-0.67970324,0.13092755,-0.17369083,0.1861801,1.2421623,-0.15311588,0.2927472,-0.14844836,-0.19773231,-0.038089026,-0.3001481,-0.10190843,0.29338297,-0.38483498,0.5959363,0.051732764,1.0
Backdoor.Graybird-12f4f6331583edc2599a31940233f76e950dee226f92573abf7ad0bad10cb2c7,-0.30093428,-0.22364901,0.1267397,-0.48039812,-0.49608484,0.5434356,0.16040088,-0.07252803,-0.53923553,-0.63708067,-0.8280774,-0.504979,-0.54793453,0.82593626,-0.4427877,-0.16739106,0.65601104,-0.5333206,0.48123947,-0.97925717,-0.60666573,0.40967786,-0.1952038,-0.6350972,0.51329553,0.17672019,-0.3375149,0.7849938,-0.14943126,-0.08659831,0.17962275,0.041682817,0.05867057,0.016284361,1.258278,0.27172658,1.0
Backdoor.Graybird-143c25c7cc08038a40638df3cd01232232baed4a9469f356efc615b5041c794a,0.658333,-0.07248188,0.124489106,-0.37982324,-0.75026786,-0.049673054,-0.301962,0.803831,-0.354672,-0.15139128,-0.4096921,0.5381467,0.3984245,0.4772186,0.07571266,0.19406444,0.10689209,0.038488533,0.24778077,-0.10218121,-0.25077376,0.1288784,-0.63554686,0.13237783,0.2627107,0.45699698,0.25874618,0.101642795,-0.15909043,0.28996873,-0.5995926,0.22988987,-0.6200037,0.037240144,0.69570374,-0.6323668,1.0
Backdoor.Graybird-14818f4633cc87ac1b11b53895daa6cbc595065596c7ea86f807fb1a1ad79b72,0.37617788,0.37735522,-0.32443243,0.07752126,0.025193045,0.25303197,0.20642897,0.16766925,-0.63048226,0.15581724,-0.20674005,-0.009075796,-0.11461358,0.2560252,-0.13066462,-0.07200159,-0.156053,0.48849496,-0.3708072,-0.54586965,-1.2212224,0.0393378,-0.18796189,-0.6950664,0.25650537,-0.06961303,0.23467197,-0.5802728,-0.3413034,-0.20408738,0.109220564,0.50978583,0.35235098,0.0457888,0.07681001,0.49933404,1.0
Backdoor.Graybird-152a87566246d7b100a299d29e34ce080c52e714e0c2883b904d85c1144de18d,0.009221731,0.013269372,0.11061834,-0.39338332,-0.47982496,-0.04561888,0.58782494,-0.014583778,-0.44531366,0.15333647,0.5481869,-0.23583211,-0.30601797,0.73368603,-0.44349918,0.16968666,-0.13876753,-0.29530883,-0.3435257,-0.6954524,-1.312762,-0.32600328,0.24406411,-0.7292364,0.3823178,0.44459438,-0.44417238,-0.26364508,-0.80079234,-0.38490465,-0.60784274,-0.3083501,-0.04491094,0.23868455,0.063312136,0.38651967,1.0
Backdoor.Graybird-16274674297d97fdb7c53027a4e6facd681428961e31bc85dfff497056b071a4,0.5362339,-0.26784825,-0.00979894,-0.12508868,-0.22036248,-0.28071266,-0.083990455,0.58695596,0.10388372,-0.2124211,-0.5780067,0.4888098,-0.09408953,0.6427482,-0.06933558,-0.2821152,-0.38202098,-0.11239825,-0.23816057,-0.5597153,-0.16611402,0.12238299,-0.8856627,-0.4177517,0.47255647,-0.34576964,-0.012925408,0.3377457,-0.25831702,-0.13866226,-0.16537598,0.45636386,-0.36226216,0.016433205,0.55729806,-0.06835607,1.0
Backdoor.Graybird-16648fd7040db9b96d76e5f70711e8c62721035832f7b87594d62b0dd9b865ea,0.2149939,-0.26874632,-0.6306714,-0.37284186,-0.7734453,0.31639335,0.33015412,-0.0002305161,-0.5785071,-0.40541348,-0.53557295,0.28783768,-0.13015373,0.6893098,-0.57798004,-0.91423035,0.07978342,0.028623967,0.30477637,-0.75410926,-0.33800685,-0.09107323,-0.753165,0.2923023,0.6507817,-0.0018967396,0.015954891,-0.56483084,-0.186721,0.002883557,-0.17948622,-0.20429613,0.33625847,-0.7531483,0.6409332,0.048334114,1.0
Backdoor.Graybird-16ce6a8444870c762676cc776860c1ff7daa2a2dc76abd29136a36d6538bba8a,-0.8009353,-0.5415966,-0.31477734,0.006999808,-0.5350824,0.29518852,-0.029609475,-4.6011002e-05,-0.63959974,-0.7584946,-0.17091906,-0.4769167,-0.14142469,0.44292685,-0.3999782,-0.038692463,0.22868274,-0.46544334,0.8329655,-0.9075532,-0.34218624,0.13834405,-0.3891026,-0.5604482,0.24196991,-0.082233846,-0.42476696,-0.14024852,-0.60475487,0.06784945,0.5499009,0.55695665,-0.14996228,0.0984056,0.60281944,-0.3206658,1.0
Backdoor.Graybird-16dc33ad95a90a03f9489182cf6061392a79cbaf96cceb87bd3c6c664daff4a3,0.076360404,-0.34682253,-0.623606,-0.5315745,0.3034104,0.042513713,0.26408648,0.27339774,0.33075163,0.19965312,-0.47657126,0.30478978,0.53337806,0.23266508,-0.068242975,0.020370085,0.583086,-0.36917266,0.5249412,0.22591624,-0.36641112,0.33888498,-0.3079829,-0.717065,0.41517127,-0.2129933,0.3698084,-0.6029725,-0.46947753,-0.095548354,0.33364108,0.02168697,0.28866425,0.279145,0.23131913,0.5115288,1.0
Backdoor.Graybird-16dc7da8aef050616f3d99fd34b3f0410ce6a38f5a61c9ebc8e86e87195c4be3,-0.3681906,-0.008724302,0.22944887,-0.80005026,-0.863458,0.1308321,0.45767662,0.71407574,-0.04271932,-0.8563408,-0.18319002,0.5587912,-0.6227455,0.79432213,-0.11038207,-0.60066044,0.094197355,0.08679017,0.6960967,-0.3289383,0.23745394,-0.03976637,-0.082850024,-0.029615704,0.871215,-0.7559983,0.13626288,-0.23811066,-0.08151285,-0.17386335,0.13735291,-0.6758171,0.1027011,-0.10767054,0.30016306,-0.31899014,1.0
Backdoor.Graybird-1966b6b19ef74c24f458b6477ccb7e8c8427df6d65ea4dc5e0bffb811fbba2d7,-0.22851287,-0.3769675,-0.47287285,0.5473582,-1.100935,-0.2258948,0.11460258,0.2605123,-0.3786444,-0.33026436,-0.21105857,0.032636028,0.19881691,0.6046002,0.08848914,-0.36554483,-0.30812654,-0.7648699,-0.009631485,-0.16769248,0.09711381,0.087546244,-0.6544392,-0.13061213,-0.23776351,-0.55904204,0.5885222,-0.8741459,-0.2517701,0.32304376,-0.37848872,0.48325282,-0.24592148,-0.5420154,0.7031591,-0.019639624,1.0
Backdoor.Graybird-1c7dfb9affef8bef118a41d36e3e8c413f3076918a8821efeb3721af52ee5c52,0.13511667,-0.2988351,-0.087057434,0.0594388,-0.06802566,-0.063623846,0.50303715,-0.03913076,-0.26110828,-0.09365117,-0.2016656,0.04394026,-0.079180144,1.1003772,-0.06187267,-0.3381011,-0.04591476,-0.4657728,-0.16937011,-0.5749933,0.04117582,0.37221104,0.16051036,-0.52748424,0.458402,-0.57529825,0.7665727,-0.17982383,-0.48072156,-0.18967752,0.077870205,-0.028600348,0.66849905,-0.20676725,0.32091102,0.096062854,1.0
Backdoor.Graybird-1cb523870e23e55d0d36af5a2e10472ac25390d3838c52c35b1106034132aad5,-0.6415239,0.07965046,0.44037855,-0.3660222,-0.53950644,0.2777244,0.3219696,0.5667168,-0.97685665,-0.2566844,-0.010942439,0.5184769,-0.06598531,-0.010938136,-0.04121289,0.04456953,-0.060964428,-0.08708669,0.20657547,-0.28808162,-0.3988263,0.07951305,-0.5861657,-0.26268536,0.6282454,-0.29726568,0.21135269,-0.317502,-0.14958191,0.6125386,-0.032063484,0.29181123,0.111435,-0.28987944,0.073667645,0.004848882,1.0
Backdoor.Graybird-1d17564930dc9cfdb8bf4483ba9763d17dd3f549facfdbe21ad18447663adedd,0.006575638,-0.38800716,-0.45174292,-0.6125258,-0.6320477,0.6159194,-0.06691443,0.31484437,-0.61732686,-0.599879,-0.5293274,0.32487276,-0.27369905,0.36264926,-0.68549156,-0.7454375,0.08094667,0.30206412,0.048579305,-0.9078318,-0.83905,0.067009054,-0.046642013,0.25883427,0.70534515,-0.14318079,0.1320051,-0.28155246,-0.02443754,0.034989823,-0.30614966,-0.36534894,0.38838953,-0.5033694,0.47395435,0.10952564,1.0
Backdoor.Graybird-1d2b95795f54a30db2241b441843c8baa1319704e0bd48f022ac919e71899787,0.0522754,-0.23985767,-0.33570427,0.093411624,-0.051340092,-0.36011153,0.54837674,0.17297809,-0.1618724,-0.33306578,0.3654756,0.6022518,-0.47863314,0.3375051,-0.5775919,0.12685265,-0.38170624,-0.5318719,-0.63513184,-0.19134519,-0.058541667,0.03695709,-0.23934783,-0.41450855,0.22969532,-0.11172647,0.74788207,-0.004567519,-0.6254403,0.16683559,0.014505254,-0.47125062,0.26720783,0.61613464,0.5732287,0.37631953,1.0
Backdoor.Graybird-1f987748aa836fcff784691f0f5195eaed0187c12906f016b7bbad1f9b10d20a,-0.046930823,0.23653765,0.16128506,-0.15220413,-0.5471196,0.21220216,0.832412,-0.15573967,-0.7264285,0.3001342,-0.04945563,0.15318203,0.19755685,0.78838307,-0.07647009,0.19658287,0.19762698,0.20896213,-0.6168248,-0.27121717,-0.52331793,0.0063744113,-0.3490537,-0.3942399,0.41908115,-0.077386774,0.6035913,-0.09432956,-0.25725007,-0.038549684,-0.089123696,0.122964926,-0.06998889,-0.24213019,0.25150883,0.12309925,1.0
Backdoor.Graybird-1fe3c46136004caa9f4598dbd12db50b539bc0e44de422870a0150ccdf6c4297,-0.4948359,-0.5455743,-0.92271036,-0.6259316,-0.40162525,0.21278487,0.009071914,0.335857,-0.39799237,-0.62234265,-0.32824025,0.11635035,-0.3547974,0.5753164,-0.82783824,-0.5032961,0.07021857,0.4185658,-0.074694216,-0.9376837,-0.6337508,0.08930318,-0.16560055,0.12066832,1.1623799,-0.2010872,0.1465911,-0.40767983,-0.473448,0.15683825,-0.11025692,-0.2305074,0.1586413,-0.29044563,0.46346843,0.012248459,1.0
Backdoor.Graybird-201267f2b8c394b866ce09e16997ce04701a0bdaa1f5651e81d1675af4a567a6,-0.29245624,0.34224638,0.017652264,-0.28862286,-0.6137604,0.4132377,-0.36807746,0.29946995,-0.58280843,-0.47486645,-0.64883184,-0.28162464,-0.44277415,0.910409,-0.32708517,-0.03752053,0.32073727,-0.48596385,0.23456089,-0.97113454,0.038671687,-0.21502757,-0.13378693,-0.44294712,0.48818,-0.2206289,-0.2936954,0.79999447,-0.19615953,-0.10700394,0.1584012,-0.29636198,0.32035393,0.11310626,1.1646017,0.06673602,1.0
Backdoor.Graybird-20459a8ebc99703a2171b85dc321c41ccb8fdd67b606ac75c890156db25d67e2,-0.8337949,0.044232275,-0.38536638,0.25940013,-0.78830737,0.03939997,0.2392393,0.37864184,-0.6862755,-0.1654901,-0.07017933,-0.0071074236,-0.31551775,0.6968516,0.2684617,0.35271648,0.028621975,-0.4768678,0.083630584,-0.16258177,-0.46189204,0.48761746,-0.27209148,-0.3456018,0.001374464,-0.33129182,0.65716356,-0.5097357,-0.19349693,0.018386178,0.011398301,0.738006,-0.4475077,-0.16556878,0.52030915,-0.20826842,1.0
Backdoor.Graybird-21f994f2239ccaaddf25e98859f58e609dbc589127160c943dd884506d0f1e95,0.15982115,-0.36698493,0.1885443,-0.26992476,-0.5259747,-0.1719369,0.21708615,0.25272965,-0.25614807,0.041325778,-0.6774338,0.6300429,0.09526503,1.005644,-0.31401777,-0.7594664,-0.08959954,-0.25025052,0.27886143,-0.4398048,-0.5768767,0.27711448,-0.15600312,-0.708596,0.41629994,-0.31913203,0.74466854,0.1485706,-0.07517535,0.5584659,-0.85660183,-0.033679053,0.16048792,0.02673403,0.5338698,-0.11855575,1.0
Backdoor.Graybird-22772293d3a3b20b3610ae1c06ab72da41745c57356905855180b45c5d43ae96,-0.19408363,0.17671989,-0.080475904,-0.51481164,-0.45445147,0.2659142,0.44235247,0.4671486,-0.4714562,-0.26960325,-0.03872418,0.60467446,-0.13360792,0.24985442,-0.3342371,-0.22921422,-0.022496121,0.47351158,0.5266367,-0.23778497,-0.15500739,0.2242242,-0.013418199,-0.03358191,0.3161624,-0.45162272,0.20168251,0.047769994,0.20350255,0.24673289,-0.12684026,-0.35165235,-0.12912324,-0.0689885,0.4215515,0.059611604,1.0
Backdoor.Graybird-22c98fc9dac84f509083a90a332517ead8eb265fc53ddb1d16e5cfd0dab0ebe1,0.12289359,0.20922625,0.012132092,-0.19550128,-0.003753685,0.5770542,0.11785585,-0.17308283,-0.8269158,0.17847267,-0.41390046,-0.35730022,-0.6305129,0.3692742,-0.035336055,0.041083965,-0.37612438,-0.087020844,0.7024547,-0.2181177,-0.36795837,0.07706446,-0.2962003,-0.3833111,0.3181368,0.41893736,-0.40421182,0.32208973,-0.6998902,-0.45763582,0.93920434,-0.018874858,0.53096324,0.51149905,0.78044635,-0.05259349,1.0
Backdoor.Graybird-23259ea20d4f481cdc1bf58894f6280ddbe3fc56d7bfbaaf11bafdf4840f8c2c,0.37121361,0.26947346,-0.20861718,0.24667865,-0.7835617,0.44835782,0.090692095,0.5397098,-0.32866666,0.37917235,0.095492415,0.32376677,0.042051814,-0.030885894,-0.07255316,-0.1258158,0.10209762,-0.27412727,0.21736293,-0.18296853,-0.56732464,0.21721993,0.028208353,-0.061991364,0.20621307,0.12769483,-0.42216545,0.55677354,-0.50659263,0.16511968,-0.23142436,-0.34734663,-0.061810818,-0.33468267,-0.09126686,-0.3605182,1.0
Backdoor.Graybird-2486e00f3531d89506d2a87525b723d2508b4b8c0040824956aeca41b97d17d7,0.05855635,-0.1696898,-0.0525193,-0.4555272,-0.25925145,-0.31244326,0.21475916,-0.12854505,-0.22661528,0.09591664,0.5262802,0.4621786,-0.003080431,0.7033804,-0.40352356,-0.15421529,-0.27242866,-0.5607426,-0.77661264,0.09881583,-0.16307367,0.50518805,0.22325367,-0.6898421,-0.06424894,-0.55966043,0.5595073,-0.5429984,-0.7898798,0.26136464,-0.4033184,-0.49588138,0.39931118,-0.26926205,0.4741452,0.042506956,1.0
Backdoor.Graybird-2565563f99f161ad465a603000f5a2440b83b12413930bac01d20c6d3924f79e,-0.7459139,-0.05236183,-0.21834469,0.6057626,-0.8533676,0.5880839,0.35310134,0.40338698,-0.55938,0.17094009,-0.08405094,-0.09323732,-0.4053783,0.5698645,0.15898731,0.10565047,0.25660026,-0.7725203,-0.34813786,-0.45922083,-0.1686151,0.24225126,0.09763346,-0.16914316,-0.035138413,-0.34116194,1.0227653,-0.5858972,-0.33692265,-0.24730687,-0.2919112,0.5273441,-0.27726924,-0.2362458,0.16181926,0.06246269,1.0
Backdoor.Graybird-272ea0be5ed16c1b6a1d0149a85107e382cf7dab94eb40fb49ec17acd3c00b0b,0.57294786,-0.1536436,-0.33729023,0.27752724,-0.38969898,-0.18923017,0.7514794,0.17990892,0.045690674,0.5285063,0.39533836,-0.14853086,-0.343376,0.96490747,0.07094706,-0.03777102,-0.16433516,-0.5696802,0.37199652,-0.9300418,-0.80103123,0.13531174,-0.18282661,-0.30307305,0.39011928,-0.30676585,0.21378122,-0.08494581,-0.2506927,0.052957017,0.30645326,-0.75704956,-0.06639604,0.71839064,0.016368901,-0.09937282,1.0
Backdoor.Graybird-27c0a52403d572f0ee5abc626a7f5cd834ed6a5b7eeebeadc848a5cc091eb5d1,-0.36779526,-0.082681686,-0.5087463,0.33585283,-0.18263297,0.11008345,0.75143445,0.6706887,-0.47851065,-0.21908756,-0.1520489,0.21751305,-0.30749583,0.883093,0.33970687,-0.25785583,0.2862958,0.018184273,0.4058694,-0.61044097,0.17218901,-0.040341824,0.027543958,-0.33028334,-0.08529094,-0.31076342,-0.025058277,0.23073505,-0.09630762,-0.33667126,-0.65509987,0.6007932,-0.60238695,-0.054389562,0.031230792,-0.2670965,1.0
Backdoor.Graybird-27d4f0a222bbb2285e395dcbed061a6eeb91a69d6c8cab8c98fd1ffb244c699a,-0.15866596,-0.21765889,-0.22642443,0.16215767,-0.32119095,0.084831916,0.5641163,0.36182445,-0.4617198,-0.080478184,-0.048377827,0.3534789,-0.8004546,0.4723402,0.12402213,-0.48625517,-0.6501603,-0.65724343,0.34090367,-0.3928028,-0.25761414,0.22481741,-0.04146252,-0.6562031,0.33455423,-0.43980664,0.5096804,0.21627808,-0.049785517,0.36595598,-0.37724712,-0.39630178,0.23765394,0.27565718,0.25406334,0.05596136,1.0
Backdoor.Graybird-2821c9781c0351109c2a8b9633972e2c71f46371b648d2103c2741f560b60a1b,-0.6713409,-0.41367507,0.26290938,-0.3409468,-0.29868582,0.4133277,-0.013733281,0.56003493,-1.2054423,-0.09410406,-0.12083019,-0.6554927,-0.5047285,0.7553461,0.090482846,0.19195828,0.4049884,-0.44297945,0.59684956,-0.33819926,-0.3479785,0.22102639,-0.47876295,-1.0954674,-0.026114168,0.2511193,-0.44242743,-0.35045257,-0.40276945,-0.10117877,0.46032587,-0.008999275,0.02310017,-0.1686832,0.8981062,-0.08615061,1.0
Backdoor.Graybird-2860ba35f778ed52b8487fe93a77c05a2d49222ba8f6cb81877c1779d13c1f4a,-0.15034404,-0.20287582,0.08674564,-0.025431708,-0.22749408,0.14588806,0.08599054,0.08040442,-0.21407448,0.28841272,-0.59813845,0.5000092,0.13507456,0.8838128,0.1280573,-0.3469885,0.12113575,-0.4785782,0.06640834,-0.24415515,-0.53531575,0.29359487,0.015548273,-0.8565833,-0.09597743,0.13225824,0.1010716,-0.3616829,-0.45160174,0.4826206,-0.22821853,-0.18189101,0.122267835,0.24861278,0.47160357,0.011771188,1.0
Backdoor.Graybird-2a1858cfa17d4f07292362a2719d61c97a487d29a5adf45d8e8b32f3252331a2,-0.3215335,-0.2433463,0.51019096,0.5815573,-0.23945035,0.29265246,0.4501088,0.02945962,-0.67183965,-0.20065086,-0.07854993,-0.3711527,0.34140638,1.6455066,0.14232346,-0.27394098,-0.5888388,-0.56556135,-0.14191552,-0.61563087,-0.2721013,0.4557805,-0.32384855,-0.4193284,-0.10636828,-0.30327886,0.22481743,-0.66617596,-0.24130154,-0.30728424,-0.38481328,0.49669188,-0.52812004,0.09494349,-0.11554457,1.0805655,1.0
Backdoor.Graybird-2a7c74a91f4b6f4ed632d97fc3ee8835a7a615cb15dbf6ecbb96526d06f64db6,-0.33943307,0.18152894,-0.096495055,-0.18486574,-0.4461998,0.5073293,0.43360138,0.5741312,-0.11198763,-0.7987725,0.2143863,0.53440976,0.36660627,-0.093242444,0.33433384,-0.049718782,0.10930138,0.021151586,0.7170482,-0.54607016,-0.29142964,-0.032830354,0.45407784,0.55274934,-0.33543056,0.098333776,0.14688689,-0.5193955,-0.20732267,0.90608525,0.2576576,0.8616969,0.39270437,0.4681864,-0.3529649,-0.42943335,1.0
Backdoor.Graybird-2b470ddd183ec9f15d7cef2e1f2daf7243e1deef16fb6e74cb75b67c5d25df18,0.045474023,-0.3143062,-0.19228633,-0.21582317,-0.77889544,0.07874355,0.023594068,0.2378027,0.076789916,-0.12936656,-0.466763,0.3035631,0.20914352,0.81271243,0.1885073,-0.367002,-0.4526697,-0.038457274,-0.044674017,-1.2830398,-0.3169333,0.22477198,-0.48789918,-0.18663014,-0.20378008,-0.13443327,0.7296246,-0.14632529,0.082781255,0.06724567,0.13532278,0.553069,-0.49499696,-0.22793199,0.059545632,0.20395151,1.0
Backdoor.Graybird-2ca870cb512099a0df67fefee9eb2bf8fd53cc078919852144d6cbff26456347,0.3730643,-0.13893186,-0.3217031,-0.42942068,-0.56135243,0.3953542,0.56244516,0.09487053,-0.0037285548,-0.38056037,0.48867255,0.14017467,-0.72794455,0.7823451,-0.38416713,-0.26697332,-0.56796604,-0.5625878,0.0934696,-0.07355152,-0.7724345,0.3220749,0.17335393,-0.0029649073,0.93935806,-0.6313524,0.12326056,-0.15280204,-0.043634616,-0.10166617,0.13235806,-0.4996978,0.64724344,0.25757253,0.1464344,0.0624465,1.0
Backdoor.Graybird-2ec9be730d82cf10af338e7f25781006744b9dda9c9ff484acfd2de501b05e24,0.60008943,0.07244702,0.067003265,-0.0735872,-0.56280476,-0.103001095,0.29777196,-0.008972975,0.012278281,-0.21854262,-0.49664888,0.6575772,-0.22834511,0.49148044,0.13779329,0.0981769,0.08516052,-0.2473944,-0.12882863,-0.35391447,-0.59842914,0.8433082,-0.6940951,-0.111652985,0.13996786,0.11177618,0.273286,0.31911406,-0.03788592,0.033471815,0.2944903,0.12863533,-0.585074,0.33635798,0.7866946,0.15226674,1.0
Backdoor.Graybird-31e4807b0f375d8f919a3037f2764686a46d2e41bd957f8edd8f771621a3e53f,0.63039774,-0.12623745,0.14084968,-0.29576677,-0.52229387,0.5251405,-0.11096718,0.38286194,0.52742964,-0.44941437,-0.63270986,0.08160257,0.52689224,0.48416224,0.26941755,0.089119725,0.13470216,0.29177493,-0.4059724,-0.4085947,-0.5539291,0.07303718,-0.9504949,-0.7490069,0.52490604,-0.18571678,-0.25266787,0.30789202,-0.15162405,-0.48923957,0.19497867,0.5048101,-0.4600981,0.053107914,0.27384177,-0.52381724,1.0
Backdoor.Graybird-32cbc565918830a83537aef008c3587ea24d2172c7ed3563ac2f4a7506a7a00d,0.17732592,-0.112290904,0.3670974,0.02619218,-0.33153868,-0.27765113,0.023745328,0.66207767,0.27388865,0.15820736,-0.5324098,0.3189804,0.15051536,0.62380767,-0.28458712,-0.12814124,0.8948546,0.3036903,-0.35737208,-0.014964061,-0.6212928,-0.0026297048,-0.23078068,-0.8594618,0.101379536,-0.5215256,0.43685985,-0.34629014,-0.72450066,0.002201974,-0.28102797,-0.2504236,0.26004744,0.20219469,0.3450444,-0.034964014,1.0
Backdoor.Graybird-33e8337aad51e26cebf92f17cdc0c3ffa5ed55c74de4e7cd5b92db2d75e15339,0.11840671,0.29666758,0.2550879,0.05404519,-0.40229577,0.59560436,0.034426134,0.5997848,-0.5766355,-0.59132826,0.4087919,0.056195024,0.0037012442,-0.51007694,0.3504714,-0.24863333,0.1937984,-0.19931619,0.68485266,-0.59080523,-0.32454535,-0.35741466,0.08172091,0.322295,-0.45533213,0.28243122,0.029974477,-0.5522674,-0.33779106,0.18014917,-0.21391417,-0.34822053,-0.10696914,0.1828631,0.087508515,-0.40035906,1.0
Backdoor.Graybird-340c5cae28749592b0ea9453bd4f7d109b2fe2c8a03041e5da9961a7339eaa34,0.35578483,-0.52976173,0.24668407,0.03949322,0.20299292,0.13016717,0.13293141,-0.061924998,0.31159818,-0.27989247,-0.6872321,0.5609795,0.21149296,0.97457415,0.102749735,0.111964785,0.0655282,0.15850754,-0.2126336,-0.57113516,-0.6006103,0.551185,-0.9345927,-0.34674764,0.17279722,-0.63551277,0.3077548,0.64641047,-0.15327805,0.1268423,-0.5149283,0.5611321,0.3159909,0.38678563,0.41756648,0.0327608,1.0
Backdoor.Graybird-3472255f40fa8003a08d8c641d9d2c5d0f749bf4c0420fc9a22040103a97c35b,0.18463299,-0.7910262,-0.47994396,-0.77151287,0.3249153,-0.029860439,0.0573402,0.5060943,0.22221121,-0.13761476,-0.6990743,-0.10706254,0.39176258,0.062050264,0.065759294,0.013002863,0.5354921,-0.4802593,0.4134135,-0.6030243,0.11019584,0.16190943,-0.042839438,-0.2817563,-0.21600054,0.2441627,0.5043117,-0.26084414,-0.44872442,0.35451213,0.46592617,0.512825,0.31131423,0.042322308,0.48690623,-0.1297866,1.0
Backdoor.Graybird-3473cb362c74478f5f8d200d068fbf1806d2dca138264e942574fb7abd324b42,0.025768235,-0.015389415,0.057942834,-0.17047846,-0.21401866,0.1471778,0.024372904,-0.38190535,0.05943156,-0.21354173,0.89369696,0.67896837,0.07819041,0.29060468,0.21916942,-0.019517995,-0.4655622,-0.08089073,-0.4506838,-0.5776555,0.011537172,-0.02676366,-0.0419046,-0.59039056,-0.16182964,-0.72691095,0.53429586,-0.14736773,-0.60086393,0.05801128,0.014569188,-0.5840522,0.41814414,-0.21486174,0.4370596,0.37107402,1.0
Backdoor.Graybird-349a9ef306724d4e0a569074528204ac93186fc10679de7c0fd4117b7e674adf,0.51695216,-0.69471186,-0.18751752,0.099691786,-0.9120719,0.27626732,0.3971146,-0.38245323,-0.07193483,-0.2774945,-0.37157333,-0.20859681,-0.05627446,0.79645926,-0.55442613,0.069405444,0.29009676,0.3391953,0.10930392,-0.74364406,-0.5720246,0.57434434,-0.5297359,-0.29874402,0.19451033,-0.1514076,0.38539356,0.022787975,-0.34718543,-0.019177612,-0.80808276,0.22886379,-0.20327288,0.24132754,0.3814473,0.11811179,1.0
Backdoor.Graybird-34cb2e3660a417e83f902c990f20b3d0efa6e84ad20a7c769f2944cc333bc47b,0.26003984,-0.6086409,0.56205195,-0.11036352,-0.2932646,0.3289182,-0.19352853,0.28855744,-0.1371771,-0.281038,-0.59726954,0.31017187,-0.015122363,0.9023267,-0.12964402,-0.14685187,-0.13828477,-0.10029927,-1.1160903,-0.38161567,-0.19711137,0.10336088,-0.06983331,-0.8830451,-0.040270578,-0.08821763,0.67239857,0.2559341,-0.65481704,0.31602803,-0.18117906,0.2679687,0.029105525,-0.2959723,0.25846016,-0.08550139,1.0
Backdoor.Graybird-3512ae0eba2c3f6e4e6195c0e1bd70b9a9e3b3d7708f403ed4b5e281e4a1a120,0.15327807,-0.24262829,0.13903555,-0.22752552,-0.30730885,0.040112983,0.3140335,0.5907296,0.14123917,-0.075687096,-0.03614111,0.3533402,-0.08560619,0.4022593,0.1861885,0.3641069,0.20757113,0.106548645,-0.2707742,-0.8997874,-1.1587095,0.48126215,0.011844311,-0.9726792,0.38994533,0.4439469,0.12040945,-0.748993,-0.536957,0.13073853,0.35313827,0.068209276,-0.11554721,0.13189287,0.29679736,0.4665561,1.0
Backdoor.Graybird-35808e06d5ab73341611da612e9a37252f07f2bc7801725569ebb49895f59a05,-0.053178575,0.32243034,0.24282837,0.3266087,-0.5136249,0.42978913,0.3308298,0.45706654,-0.04366713,-0.43969393,-0.028772276,0.08704489,0.6387263,-0.35080773,-0.5766445,-0.33292714,-0.12153483,-0.24157456,0.6039664,-0.23460881,0.11375711,-0.013678817,0.37323192,-0.040310472,-0.28344938,0.093819425,-0.15523906,-0.06209106,-0.41953254,0.35771215,-0.56838965,-0.21115987,0.08279994,0.62115294,0.1720463,0.16477045,1.0
Backdoor.Graybird-365bea068bcb7c92f0dbf6868e8e6ac2d49feaae2d6464a4fbf9d4dc28ea4189,-0.5498389,-0.25101468,-0.27443323,-0.3169667,-0.2493006,0.18696737,0.3700181,0.24269558,-0.31044915,-0.4448797,-0.2615452,0.36696652,-0.40790448,0.32192636,0.09196891,-0.26739815,-0.598778,-0.063924365,0.42547598,-0.38688743,0.29106978,0.4283973,-0.17754471,-0.2812203,0.22054881,-0.6494656,0.41180977,-0.24823655,-0.1407037,-0.2599467,-0.6886649,-0.1367896,0.1760213,-0.20431066,0.08610488,0.55429035,1.0
Backdoor.Graybird-3796ba03a70668fe9a40cd399da7963d6dded9136682059f1443d5b493d37a83,-0.15386468,-0.7303038,-0.14020383,-0.29950958,-0.311082,-0.5753492,0.3846624,0.7313855,-0.6721991,-0.091363326,-0.45005846,0.057354398,-0.16757229,0.5341804,-0.34030515,0.19084148,0.15570347,-0.26073515,0.2372741,-0.46206784,-0.44575223,0.324855,-0.17372923,-0.23982234,0.41045865,-0.41582504,0.12227261,0.16454954,-0.43450257,-0.18921416,0.1546311,0.07054265,1.0571355,-0.020047773,0.1966838,-0.24548654,1.0
Backdoor.Graybird-3799f857d04896d9155038342c96e32490cab5ce67ddf33dab263184d95ea41b,0.63715255,-0.21090291,0.48749155,-0.26103204,-0.019585466,0.1797667,0.75926393,0.05176554,-0.11436833,-0.09126393,-0.68236333,0.20839031,0.30249116,0.61746144,-0.23525469,0.21770956,0.3340064,0.11702434,0.5303282,-0.53600734,-0.5484574,0.40094867,-1.0625498,-0.19959903,-0.24211885,-0.09951766,0.22905995,0.40786228,0.20156048,0.16617331,-0.3664789,0.37996104,-0.047594428,0.09063665,0.6264222,0.29066804,1.0
Backdoor.Graybird-3920bdcebc14233421ec142268749c0cc1358bba2af6e2e561ce3ac346db2d8e,0.66735464,-0.33572084,-0.30180755,-0.04193826,-0.23990366,-0.04923576,0.49217495,-0.017120488,-0.16751878,-0.59721637,-0.82392824,0.5980049,0.30579287,0.6497997,0.19872105,0.38909793,0.07403823,0.06911329,-0.3826784,-0.48176485,-0.5789059,0.456446,-0.8951347,-0.20822464,0.037565354,0.38081682,0.2235578,0.31646037,0.19499084,0.15283889,0.12102725,0.24110076,-0.68652433,0.46866316,0.8322581,0.31760287,1.0
Backdoor.Graybird-3a81fabef97e62aaefc48fa799a00c00d531afda4d49a58e90161dfef215d056,-0.5452116,-0.49015442,-0.5613726,0.38925686,-0.2801969,-0.09059529,0.09368455,0.2813744,0.6413683,-0.21428478,0.108156465,-0.60156184,0.112961665,0.30636767,-0.09060611,-0.03413308,0.30467218,-0.42582804,-0.2539818,-0.78044,0.13903162,-0.29691812,-0.14517148,-0.58185935,0.27100632,0.092690885,0.14275296,0.58670956,-0.8993152,-0.10084431,-0.68994117,-0.25299475,-0.036911093,0.34100553,0.85791564,0.22147778,1.0
Backdoor.Graybird-3ac9b0f65d3a26c5fe28cad9856d7119d2088f7cab78c37aa12348ea3b3bc000,-0.35989416,0.22514002,-0.88914996,-0.2926714,-0.4300535,-0.20667556,0.0028825921,0.50432444,-0.07636918,-0.11682011,-0.20283577,0.74364763,0.030240955,0.5636576,0.20256586,0.09722949,-0.33269724,-0.21215147,0.016664848,-0.32009867,-0.539369,0.35926026,-0.6676392,-0.37880698,0.70490575,-0.11528299,0.49115464,-0.43603474,-0.30231485,0.0273994,-0.15334646,0.061192207,0.63911796,0.13183986,0.25616193,-0.17196433,1.0
Backdoor.Graybird-3b6230033969a93587fc1d795bd800de9478b437d400bfaa3a1fd7ab0b082102,-0.5619055,-0.033928636,0.31824118,0.043658093,-0.22317852,0.018729119,0.5231719,-0.12541085,-0.61498106,-0.15063561,-0.5169854,-0.053982817,-0.023933323,0.114041395,0.031161597,-0.16651656,-0.1717519,-0.33777124,-0.3391981,-0.7352906,-0.44806817,0.81928754,-0.3706695,-0.081679404,0.019473197,-0.4083556,0.8119133,0.13401008,0.19491999,0.5024242,0.017597457,-0.10170528,-0.30574062,0.31474012,0.4292778,-0.03179808,1.0
Backdoor.Graybird-3bd529df6d6af1c83eca9ff3fd494825f98908773b73ab6023b2d08e30fc9141,0.40731514,-0.49171832,0.2920603,0.020244068,0.21735188,-0.10808263,0.058990106,0.037344616,-0.15127687,0.28292003,-0.35166872,0.58708465,0.2829907,0.80756944,-0.086168304,0.1253286,-0.06603448,0.030396657,-0.43075413,-0.2402541,-0.48492542,-0.019506129,-0.5359929,-0.60038555,0.2022127,-0.4952542,0.6964776,-0.1712427,-0.57237077,-0.051610827,-0.25732923,-0.1054967,0.31648883,0.47115314,0.40805286,0.16003577,1.0
Backdoor.Graybird-3d4c37580fcfcd3162538e57ebfd65f89caf379c9158dba626690d2ac7a24154,-0.02865337,-0.54863703,-0.53374577,-0.5015681,-0.54529816,-0.030675152,0.21943855,0.48787862,-0.8142759,-0.41704717,-0.34287012,0.27909914,-0.29406732,0.6974002,-0.91906357,-0.41805816,0.177167,0.17852671,0.30593625,-0.81097335,-0.5695231,-0.097249314,-0.053685438,0.3101827,0.87122613,0.001854052,0.25861645,-0.038319122,-0.27441362,0.04922346,-0.208314,-0.48740774,0.4191278,-0.24686807,0.5438778,-0.119972385,1.0
Backdoor.Graybird-3f40d1874219ac8f6ba08b587a9547da773b0356b58e4d40f584b595740fa7a4,0.21173528,-0.5928109,0.083167076,-0.2794278,-0.25803462,0.22786477,0.15017907,-0.46418044,0.025952477,0.0020447136,-0.8491208,0.49957597,0.70289373,0.7790145,-0.121343486,0.06777619,-0.12457251,-0.1895333,0.019185869,-0.09033794,-0.42150223,0.8393557,-0.58636063,-0.35865945,0.5042492,-0.15810023,0.16349468,0.48715237,-0.22082578,0.16047767,-0.6271966,-0.13189682,0.017771304,0.40114796,0.6806151,-0.17133577,1.0
Backdoor.Graybird-3f4164fb248bf610709ce9546b2e1a2463d08270db94dbd7b8e42d16023a71b0,0.562849,-0.405082,-0.24752583,0.047827423,-0.18029469,0.0016463648,0.41390356,0.09700751,-0.5434858,-0.45078787,-0.11240346,0.16718826,-0.0602348,0.36529228,-0.08275806,0.69724095,0.55889004,-0.5041236,-0.08502088,-0.55156434,-0.7202001,0.5604677,-0.96395403,-0.37499264,-0.22102599,-0.105278045,0.2858024,-0.17374915,-0.05329305,0.22645664,0.15782723,0.34231392,-0.24084483,-0.10349787,0.5468323,0.09200916,1.0
Backdoor.Graybird-3fb1f955c5fedc93b423be002cde34a6436194ec36974c890a015566749cbfc9,0.075011946,-0.020286141,-0.41003963,-0.29189128,-0.37582514,-0.0007540606,0.77838063,0.1456348,-0.13208811,-0.24728979,0.5463221,0.24537882,-0.54145074,0.8104326,-0.22231404,-0.09190123,-0.49017936,-0.27666858,0.3609187,-0.10638871,-0.5338879,0.49411502,0.4703572,-0.17404005,0.68152124,-0.37773478,0.2431194,0.024518298,-0.1224396,0.066314854,0.5182427,-0.37804002,0.47839847,0.03018624,0.33335188,-0.017626984,1.0
Backdoor.Graybird-4038529ffe618fbca7b702da5a4588bf4f827bfe34e22bedebc16bea8ac5cd5b,0.47832412,0.49488628,0.15583663,-0.2910622,-0.6666072,0.27164793,-0.21538776,-0.56921434,0.043183807,-0.44884434,-0.4043208,0.06921783,0.260239,0.29843196,-0.18907608,-0.1387726,0.09526994,-0.22815655,0.24486324,0.053195465,-0.39543408,0.4400846,-0.36837798,-0.09551352,0.46135762,-0.25689968,0.6400667,-0.14660288,-0.45898175,0.23269561,-0.26834118,-0.41252798,0.24431479,0.6665166,0.46861988,0.23386891,1.0
Backdoor.Graybird-43915d2a212d5620489fc5dbbbf17d934ab474e34a1058aa28ea2ae0160d6a7e,-0.62023646,-0.42657426,0.13758133,-0.6791453,-0.7720156,-0.030790227,0.13718437,0.83197254,-0.41919494,-0.7745212,-0.38721132,0.11167909,-0.40567434,0.53960973,-0.51326126,-0.43852973,0.07170499,0.041347947,0.014334415,-0.38360578,-0.5563082,0.5016418,0.28002948,-0.122756265,0.17711921,-0.6344888,0.10500503,0.025053997,0.2874428,0.301928,-0.32376066,0.031775877,0.10769169,-0.17805888,0.44362944,-0.07922347,1.0
Backdoor.Graybird-442eb6cd344fcc9a88b1ef5a28e662ea6a9415ff012b27b75ca3b8c07af9ae61,-0.447372,0.12990677,0.2842822,0.36693424,-0.17402254,0.09079128,0.61861384,0.44219813,-0.652501,0.0073895403,-0.7129012,-0.29689077,0.2812816,1.6608704,0.112137936,0.055619616,-0.22713028,0.35143653,-0.22198346,0.0810428,-0.34329894,0.09916456,0.11799682,-0.30072236,0.21466279,-0.6254954,-0.023396095,-0.19404285,0.09790723,-0.47743353,-0.4681365,0.8040349,-0.6023418,0.5041391,0.33539748,0.2248423,1.0
Backdoor.Graybird-45133c62869e94f748e8f947328388b6cf1190cc750f712e25695ff4e87a8ec0,0.10858138,-0.2759908,-0.44142163,-0.44968665,-0.22672024,0.3507259,0.4129623,-0.03876718,0.13948707,-0.18387122,-0.18135193,-0.016525423,-0.18387017,0.3968806,-0.15885174,0.26794896,0.20821868,-0.36992553,0.1651335,-0.8144965,-0.358324,0.6547267,-0.75196046,-0.08454532,-0.083837934,0.15791832,0.68615097,-0.41871825,-0.06878282,-0.0045220964,0.4647179,0.75194806,-0.35018548,0.2428503,0.7271244,0.069917694,1.0
Backdoor.Graybird-4611ce9f971ce2a63d17317779aaa34aebb478c1a91c3031abf37b39a0e8a754,-0.83945644,-0.8010941,-0.5801643,0.17080645,0.052019812,0.13491991,0.7226013,0.00026050146,-0.5662438,-0.37780756,-0.37022957,-0.5066206,0.4032194,1.0438237,-0.2299943,0.11446943,0.34371766,-0.47722527,0.23830521,-0.07113769,0.16409607,0.13319372,0.16004683,-0.25191957,0.3111683,-0.15421128,0.55546355,0.42203695,0.08429858,0.06701302,0.15247793,0.4503754,-0.17996213,0.37720945,0.4841502,1.4542805,1.0
Backdoor.Graybird-4768fb2a55ff7a38d1c9f26c22517c25e81050233f75a43909f56cf2bab55549,0.7315991,0.087487265,0.19461998,-0.7273172,-0.5430247,0.18119128,0.5128259,-0.33577198,-0.39219177,-0.092873685,0.053575918,0.077137046,0.08859493,0.28147614,0.22473186,-0.13735385,0.39022586,-0.39963523,-0.70907784,-0.038731825,-0.49648818,-0.08770342,-0.18825375,-0.053444564,0.27496544,0.102366015,-0.30593422,-0.58994025,-0.36610678,-0.18732008,0.036344055,-0.26211855,-0.2006426,0.21391119,0.23717895,-0.06835352,1.0
Backdoor.Graybird-48641176d1e0ac527a5bb4a797afe8ebddb93625bfb2e7878a0cd40164988326,0.2750947,0.065736115,-0.17283282,0.2871339,-0.68963116,0.33143798,-0.010322228,0.084655076,0.10062822,-0.7061779,-0.22602914,-0.14606723,-0.2748523,0.27368838,0.083113275,-0.2652134,0.31693152,-0.44414887,0.24929976,-0.74860024,-0.6075524,-0.3112562,-0.12654184,-0.13649444,0.06483144,-0.14243196,0.4107665,-0.08228004,-0.56950545,0.22612773,-0.059364446,-0.32918876,0.20329013,0.1535619,-0.12356511,0.007845494,1.0
Backdoor.Graybird-4873836e446dfd4e56e491364059f5f6642b9e62c3af541249d2a58f060d810a,-0.82157534,-0.2594631,-0.009030676,-0.04180527,-0.56139714,0.26220423,-0.30752513,0.2326349,-0.6985007,-0.86011285,-0.44045234,-0.59884375,-0.429716,0.72789794,-0.29179406,-0.020590305,0.14620659,-0.6720632,0.36419734,-0.52138466,-0.022219991,-0.06756179,0.25219154,-0.9693033,0.31514487,-0.28322938,-0.8922875,0.5567853,-0.5002374,-0.33259442,0.5041185,0.29102343,0.042200193,0.2525636,1.1262916,0.1562856,1.0
Backdoor.Graybird-49584192e192cd599da8b7891636d00d60f6e3a1714cec9384e53f0c3ff64dad,-0.39468095,-0.39495268,-0.6248277,0.3764848,-0.0011890214,0.2961492,0.3039632,0.8803878,-0.549522,0.26880434,0.010461228,0.12159788,-0.30960837,0.92143345,0.458058,-0.13143592,0.32546964,-0.048473444,0.039908774,-0.4134734,0.08888811,-0.25274587,-0.072671585,-0.33031794,-0.25707653,-0.36881036,0.069729485,0.1483068,-0.15262894,0.18982536,-0.66332805,0.55477357,-0.5496348,0.06769272,-0.07819909,0.09824254,1.0
Backdoor.Graybird-4a7c1f06c02316a383b3509b0530d50eea0fc52e3292f80ef6d99337ed1976cf,-0.06664666,-0.18001938,0.21302705,-0.114094295,-0.2385877,0.18133956,0.78752106,0.004582737,0.14247476,0.7238493,-0.46621588,-0.39606106,0.01484713,0.80416065,0.046921607,0.17711978,0.14579256,-0.5325645,0.011670967,-0.7102543,-0.26805502,0.2612058,0.25620952,0.048588056,0.08278733,-0.1687392,0.5945946,0.25487685,-0.036175888,-0.19940494,0.11883973,0.2274186,-0.69895834,0.19450444,0.91150653,0.025411606,1.0
Backdoor.Graybird-4b3805331f864f1002915b1b89e8f70643baaf6b43b688a32c2cb3810ffb3b4a,-0.40584856,0.38403395,0.1807514,-0.69316334,-0.34598628,0.3450759,0.2294103,-0.09014044,-0.29484606,-0.39183277,-0.61713034,-0.5029316,-0.44780877,1.2885393,-0.40563142,0.08305716,0.47308967,0.19323961,0.28553718,-0.56788945,-0.3653105,0.5891304,0.58900183,-0.50285816,-0.19086455,0.07709292,0.28589728,-0.054587137,-0.5733236,0.059252862,-0.023950834,-0.058489893,0.3300706,0.1640539,0.2329121,-0.03160088,1.0
Backdoor.Graybird-4ee3bccc014a06cfedefb088d22c918bad78cbcb74568815a14ebfbbcf119d37,-0.42198214,0.32852975,-0.16822532,-0.35579786,-0.57287693,0.4570385,0.17033546,-0.103840835,-0.85110724,-0.37057126,-0.7577427,-0.7755919,-0.09771872,1.0471493,-0.36569363,-0.020492893,0.0836786,0.118481815,0.07864052,-0.6885365,-0.13982941,0.4353519,-0.23090345,-0.5507985,0.012665262,0.09566065,0.09992198,0.37292936,0.0011483196,-0.42796686,0.031419665,-0.3521014,-0.09714767,0.1865756,0.71841645,-0.057050183,1.0
Backdoor.Graybird-4fa0fe574b88526a330dea8e92ead1925846131a452b09c7a42eeee07e2be5c5,-1.1684655,-0.18389298,-0.16862608,-0.2254627,-0.56066704,-0.37624207,0.52919364,-0.14272842,-0.2503335,-0.29855523,0.0048534945,-0.56451666,-0.34192926,0.42006975,-0.584952,0.55134034,0.17415777,-0.04475007,0.2980235,-0.6650817,-0.54436594,0.62276995,-0.07648205,-0.6794696,0.0702454,0.043252707,-0.517611,-0.24827607,-0.8933207,-0.018204415,0.23802695,0.13753876,-0.11716299,0.4465198,1.2497083,0.26224998,1.0
Backdoor.Graybird-4fb50e21fca67a80c0600b322ca12170a8283b4b04073cc330aefa42e3f01cb1,-0.5205935,-0.17562199,-0.48284435,0.44004053,-0.7373045,0.32127607,-0.08295452,0.27753422,-0.39368287,0.10419762,-0.2255851,0.13434137,0.17600119,1.3044994,0.19988845,0.21993078,0.535785,-0.812679,0.14359553,-0.25793967,-0.10941003,0.18186273,-0.26713812,-0.35940734,-0.37255138,-0.18022354,0.74513894,-0.36847004,-0.37303522,0.031976428,-0.27773649,0.45541868,-0.4685167,-0.1463893,0.25656384,0.031062024,1.0
Backdoor.Graybird-50d21079164fd8e7d563e365422688728379b15b4239beb025e4109a16f4f758,-0.3713017,-0.07987249,-0.16786426,0.1573705,-0.046693135,-0.2143152,0.550226,0.11615576,-0.36905923,-0.034639355,-0.43510765,0.059621744,-0.6682688,0.89536875,-0.26385385,-0.042437915,-0.13041613,-0.6159038,-0.60876465,0.12951486,-0.3780951,0.1718778,0.13331178,-0.56220657,0.014121979,-0.25039017,0.054886445,-0.08481839,-0.5591349,0.35636395,0.3298327,-0.2850497,0.32354003,0.5929582,0.8172844,0.20267381,1.0
Backdoor.Graybird-51500e8ba9a95263700256b5b7b75c162508a80b3de7f0eb946ecacf98d78ff7,-0.14915918,-0.4868442,-0.8662279,-0.957268,-0.315852,0.44069004,0.22324055,-0.017224912,-0.55922014,-0.55503464,-0.5390912,-0.41108185,-0.2934694,0.2671755,-0.19754934,-0.020565037,0.49574974,0.03509009,0.08606162,-0.37029746,0.01757918,0.6472806,0.09729334,-0.13294183,0.37894285,0.4860692,0.054386575,0.64171785,-0.24867435,0.15420918,-0.00022023554,0.40873525,-0.009057139,0.0232027,0.56533396,-0.0983521,1.0
Backdoor.Graybird-51faade6c8030b7f7b359977e1d699538610f96747fa89f8a1b0ea49926cdd36,-0.18761519,-0.5653112,0.03147962,-0.58095837,0.25322983,-0.29550016,0.8090093,-0.105622046,-0.4556936,-0.818467,0.16837853,0.043666575,0.3760934,0.09207902,-0.08294373,0.41419843,-0.17319548,-0.40731412,0.25094417,-0.2631927,-0.83374697,0.28560248,-0.62496656,-0.13443851,-0.23871069,0.6268738,0.90041995,-0.23020352,-0.010346451,0.29961723,0.09911319,0.21935742,-0.2786821,0.102155544,0.7189489,0.39587414,1.0
Backdoor.Graybird-523152dee0737aae6b8210fb53d9ae9b2bf6be10a89e399cf1b0a193972f282f,-0.4311014,0.32802823,-0.16871618,-0.2720897,-0.522472,0.095163226,0.4304327,0.14228956,-0.48034325,-0.34022915,-0.32903144,-0.29638672,-0.15950996,1.1938816,-0.10727088,-0.15690586,0.37960845,0.09594987,0.4854728,-0.62107223,0.030869106,0.5087737,0.2414594,-0.7991402,0.1404037,0.15334798,0.33337376,0.43527827,-0.095522486,-0.69438523,-0.31428897,-0.26220503,-0.14136024,0.45673466,0.67717254,-0.2163036,1.0
Backdoor.Graybird-5266d90616b279757b5839b40696798dbe68c783582ecadb11cac439583b6212,0.41769898,-0.78836995,0.49143368,-0.31959227,-0.66100204,0.1726706,0.14166915,0.11065738,0.011057247,-0.07535928,-0.4112759,0.52966994,0.43475902,0.5606519,-0.12328453,-0.098887175,-0.14495037,-0.1575938,0.040445797,-0.65718836,-0.10815734,0.44792295,-0.35841483,-0.56519276,0.48098245,-0.52633923,0.71807915,0.42658412,-0.19107759,0.4001425,-0.6118158,-0.021825071,-0.10468548,0.08185626,0.22401978,-0.39275128,1.0
Backdoor.Graybird-53078f85f6b3651de46b7551e7f032e1734e80f6c89faf69560b2b92a5a94747,0.5662641,-0.51777244,0.44421855,-0.22493683,-0.37086806,-0.30165023,0.705046,-0.15302587,-0.53946495,-0.5172892,0.09574187,0.60365885,0.48574,0.46875793,-0.27403685,0.5554326,0.076141745,-0.17804293,-0.19385229,-0.27272552,-0.22547497,0.776731,-0.80828875,-0.5635392,-0.012747431,-0.021386387,0.95409906,-0.019054452,-0.24455358,-0.10226585,0.058884148,0.37268424,-0.46827346,0.0068260287,0.27896887,0.36179316,1.0
Backdoor.Graybird-53ee4a2152057901cd94a7f4d548f02a3937cdf4186d27a33f991382b93cb631,0.09632188,-0.2111325,0.30565926,-0.46420506,-0.15255165,-0.013306543,0.1395986,0.23908703,-0.42616174,0.19033073,-0.6536563,0.5604834,0.26308402,0.9925749,-0.28353,-0.8060687,-0.30345717,-0.3555025,0.33376646,-0.180295,-0.0985954,0.5216147,-0.7286468,-0.88551694,0.6564652,0.008917659,0.5325764,-0.033026762,-0.055098943,0.5097431,-0.51063144,0.29192734,0.07790011,0.3811682,0.51825446,0.39960665,1.0
Backdoor.Graybird-540e9c189e9d37ffb217e7a0dc732fffef53c3efd3d0317f44bc3bc05b69fe28,-0.5283029,-0.5042626,-0.32145062,-0.61755323,-0.34132662,-0.31755555,0.3480268,0.29319707,-0.7383908,-0.4245959,-0.00029049697,-0.5370215,0.13943487,0.52432066,-0.30210775,0.43518654,0.43455738,-0.30980888,0.7680081,-0.5365219,-0.37157294,0.28071854,-0.22787136,-0.7533869,0.21247187,0.19628148,-0.42316434,0.027041536,-0.42786664,0.123336114,-0.14478774,0.3746426,0.13223383,-0.084238514,0.9087811,-0.65312034,1.0
Backdoor.Graybird-54aa30e8c4b561710cadfa1b08bec3380375ff52f9b9485c946e177499b90e93,-0.9349624,-0.35488713,-0.12327057,-0.07336976,-0.6136916,0.11944796,0.1334413,0.7486819,-0.6731954,-0.13783798,-0.74586743,0.016739996,0.23014638,0.27018633,-0.34479567,-0.13406575,0.0008527244,-0.14731568,-0.27684736,-0.6048386,-0.42753816,0.25629777,-0.25494543,-0.079069026,0.058406956,-0.3786603,-0.3224488,0.037618205,0.2961186,0.14892504,-0.21616662,-0.23093188,0.060235742,0.07624243,0.5787906,0.036344014,1.0
Backdoor.Graybird-54c2b04305bbaf46d7fa1fc9901bfc4cc51b632f8ff0004fca5c9d0d34a43e88,0.44818616,0.01228973,0.00516352,-0.14400636,-0.18173331,-0.06160727,-0.11008207,0.4323423,0.16637775,-0.04752223,-0.49191508,0.44959006,0.12677334,0.74086475,-0.06771819,0.07427875,-0.16161017,-0.025980366,-0.22169748,-0.7578988,-0.5819326,0.2586763,-0.7636698,-0.5296802,0.5752416,-0.3382388,0.12643427,0.47111034,-0.2340174,0.02465985,-0.20698068,0.42737055,-0.13447054,0.14912559,0.34571418,-0.305383,1.0
Backdoor.Graybird-5508b64b67d9039955e8e78c7303205e0bf31f2fff2a412cc009217a3b843c42,-0.45650938,0.056712933,-0.23131575,0.26219285,-0.105349906,-0.079210386,0.44458205,0.7159271,-0.55646527,-0.022851616,-0.7808868,-0.2150311,-0.8060371,0.7009317,-0.13734084,0.33636397,-0.0053659566,-0.11535437,0.23050046,-0.0491171,-0.43925393,0.1821322,-0.42914018,-0.57997006,0.0042254208,0.45641384,0.106713876,0.16748618,-0.47122806,0.12332832,0.45441142,0.18304059,0.31204668,0.36931637,1.0698435,0.58379555,1.0
Backdoor.Graybird-553ea1898739926e3c60643be9671a798abf142557d4b169cf15e8e5bdb907c4,-0.057649143,0.43489996,0.23832908,0.056211926,-0.45302823,0.4461752,0.14073914,0.02948798,-0.12649275,-0.2577814,-0.25955033,-0.19928186,-0.3598458,0.62089485,0.18847443,-0.2434353,-0.049031854,-0.008972674,0.21634997,-0.32495403,-0.04800843,0.23197615,-0.16620313,-0.55049676,0.16699883,-0.0768814,-0.620452,0.10895659,-0.39551422,0.5601853,0.18803303,0.38618422,0.52477634,0.735028,0.7196898,-0.2874698,1.0
Backdoor.Graybird-56d68b4fdc5c32b9c7b6eb0c20c22903b6db6bbdc85deeb1672b96b1053b7702,-0.5718432,-0.05661555,0.08242809,0.017592276,-0.07137818,-0.16088308,0.776843,0.43932724,-0.7203609,-0.26196298,0.08738282,0.14717595,-0.26642865,-0.2103969,0.38538417,-0.869755,-0.33388442,-0.26126167,-0.2679032,-0.789695,0.5697758,0.060309324,0.047524672,-0.2746235,-0.18687086,0.103398554,0.11245065,0.05869207,-0.10829566,0.64900845,0.34394526,-0.27487847,0.027592037,0.9237763,0.77517384,-0.32144105,1.0
Backdoor.Graybird-57ff8c60d243dfa0c50b38830b71d9935436c7681da9891396a9a5dd5cbc2596,0.20062,-0.021835275,-0.4988572,-0.080078006,-0.41913164,0.15363106,0.75672495,0.39569005,-0.05121002,-0.28496167,0.25472468,0.114649065,-0.24618356,0.79096514,-0.35807434,-0.2927487,-0.1317856,-0.60349345,0.060199697,-0.40589067,-0.1095603,0.08536797,0.10758432,-0.31092247,0.727915,-0.74190706,0.30485412,-0.55225474,0.036777858,0.37889883,0.14053027,-0.26860592,0.6243413,-0.008490924,0.30147034,-0.034826163,1.0
Backdoor.Graybird-598964da286937c1fb024677585b5d6fb4a214187a0bc61264871b41016b7f75,-0.35490885,0.018494764,0.50975233,-0.63503623,-0.3974907,0.32820517,-0.12825043,0.32504112,-0.5580826,-0.45013258,-1.0277857,-0.5199086,-0.16601822,1.0188261,-0.4657543,-0.20213109,0.43724704,-0.3522856,0.100698195,-0.82636786,-0.20957889,-0.0617758,-0.22760722,-0.44205624,-0.025191352,0.11441927,-0.41810697,0.5486416,-0.107619174,0.12767328,0.59226,0.08744862,0.24543348,0.19659035,1.2223382,0.21201319,1.0
Backdoor.Graybird-5a80a9d8a1cd9ff7dd8ded5152045cf323620251db85d71f355794d2e4c26c82,0.09927082,-0.30247575,0.2872804,-0.21843387,-0.6467723,0.53589785,0.26612613,0.27030903,-0.7521065,-0.88317317,-0.51869327,0.13006969,-0.33829087,0.40724626,-0.30302954,-0.2692415,-0.36977258,0.14061943,0.39178598,-0.5856536,-0.089548066,0.12373636,0.03574089,-0.034222737,0.17977259,-0.5704184,-0.25559604,0.1834289,-0.011106939,-0.02514475,-0.1493221,-0.2575386,0.48359725,-0.4588869,0.18547411,-0.028881926,1.0
Backdoor.Graybird-5c75303926f53f292fe5acf87d08293b2b626af5cc8c69501dec28f11fb03bce,0.24823503,-0.4528642,-0.56212276,-0.68007195,0.060303096,-0.22193088,0.4405933,-0.29409328,-0.034076776,-0.6647469,-0.7336155,0.18490866,0.3880651,0.083711766,-0.10983926,0.51339895,-0.19967604,-0.19329572,0.27907652,-0.6613264,-0.16109014,0.45466194,0.052677255,-0.5470943,-0.011786897,-0.3639685,0.40529892,0.14758754,0.02452746,0.15933888,0.79550505,0.19662076,-0.40929344,0.013232968,0.62535053,-0.087019876,1.0
Backdoor.Graybird-5cbab5b1edf3be8aba7f313ea0e50221e824a6cba2e40df2dae24cb8a7a8fafa,0.4753185,-0.7854064,0.3858536,0.2903336,-0.5362844,0.62239486,0.5791949,-0.3483059,-0.4757898,-0.5416586,-0.62292695,-0.34005168,0.030655628,0.14794019,-0.3786361,-0.04837718,0.038068973,0.124674745,-0.27574965,-1.27519,-0.5963894,0.7610756,-0.53186613,-0.45634878,-0.110335216,-0.12137983,0.4274151,0.31423125,-0.13781676,-0.28473496,-0.29063174,0.43837962,-0.29306716,-0.30480316,0.4879407,0.3730068,1.0
Backdoor.Graybird-5e73532a8544c28bf2076391c5b7c0c39fa3ad1ba60441f722a4649aca25d20b,-0.5972609,-0.04013359,-0.24182081,-0.27425882,-0.25464162,0.3718949,-0.1816547,0.31355056,0.006672166,-0.3755431,-0.7694314,-0.58205515,-0.04034728,0.9042208,-0.050949395,-0.109758146,0.10529717,0.20641874,-0.4292186,-0.94610316,0.8420745,0.12685823,-0.36169425,-0.0010457813,-0.034034353,-0.77376837,0.4024774,-0.16454509,-0.25129467,0.40320256,-0.056830935,0.06720339,0.13410036,0.25352502,0.7466829,0.2876224,1.0
Backdoor.Graybird-5e906a24c568f2c1132a8a0154207773b8c0ff6986ab56ceab00a8cfc9c2d5b6,-0.5140779,-0.10075967,0.25623652,-0.48573855,-0.33853814,0.3623084,-0.068475164,0.54702914,-0.7752693,-0.6139133,-1.0167233,-0.67239255,-0.25098446,0.8350142,-0.03383415,0.23873416,-0.28750557,-0.38079417,0.12258357,-0.52394325,-0.08045745,-0.0036223372,-0.585306,-0.56015474,0.19586192,0.15817925,-0.47971013,0.7138509,0.1925202,-0.3855481,0.35021156,-0.010064788,-0.06683029,-0.054230276,1.0204982,0.44758627,1.0
Backdoor.Graybird-5fcb64cfd38ba0a62f85708679fde53986d09f5038c72f149819ecab6dc8507e,0.28634894,0.20947187,0.30130744,-0.20656429,-0.81215894,-0.1796614,0.58568037,-0.5219387,0.22607957,-0.48684555,-0.23142049,-0.39821476,0.10337105,0.62393963,-0.08837888,-0.20489778,0.012652281,-0.44278842,0.1742376,-1.0437366,-0.37783647,0.20530973,-0.36552438,-0.22851661,0.34343275,0.027490983,0.4950144,-0.24261941,-0.5138722,0.42061663,-0.16443759,0.627975,0.15322368,0.036932915,0.20675175,0.19453156,1.0
Backdoor.Graybird-60b1b1bee471d35c2e07afcaf3c8005576c2cb29eccec1ee68bf23cc76af078b,-0.13875681,0.27016062,0.24685599,-0.39250237,-0.6857094,0.2679667,0.19834585,-0.1671174,-0.70061916,-0.20802344,-0.33894145,-0.077230856,-0.071194485,0.4833524,0.24183553,-0.15493998,-0.31750146,0.1467017,-0.30228812,-0.60307086,-0.33924234,0.2723636,0.012232943,-0.27023792,0.012155463,-0.41400388,0.40319824,-0.5915504,-0.30352658,0.030477,0.10267983,0.40624896,0.06928281,-0.17095797,-0.4451942,0.24542522,1.0
Backdoor.Graybird-60d764cb2a5e9e67977f7d978aa66df908db656bba989d480f3b6ff68202e4e2,-0.67964697,-0.4161348,0.27175277,0.31919748,-0.41587365,0.22283386,0.2031787,0.22892663,0.091551654,-0.35937634,-0.4263052,-0.6274266,0.021836141,0.5845369,0.48303178,0.034745302,0.27360487,-0.18219493,0.14408976,-0.87307495,-0.13031916,-0.45869306,-0.3589449,-0.27425656,0.34092376,-0.018460551,-0.25802863,0.22176035,-0.55238205,-0.098351195,-0.22231315,0.54383177,-0.010722145,-0.014063518,0.77245986,0.35254565,1.0
Backdoor.Graybird-61add8504bacaafb7dc19c8a24bde60b28dfcf574d101e5533c12d95895958e8,0.3615892,-0.04542691,-0.052251346,-0.18787764,0.14142881,-0.18370683,0.12754591,0.36176962,-0.12583247,0.32711256,-0.34727538,0.6688534,0.16875537,0.78233093,-0.07196869,0.042610057,-0.23420162,-0.23131919,-0.24811329,-0.5311337,-1.0323875,0.08291504,-0.1185061,-0.028161693,0.47592926,-0.61519486,0.23112415,-0.45613587,-0.13409726,0.7529071,0.19057119,-0.20323506,0.4397823,0.13774328,0.2642934,0.16023287,1.0
Backdoor.Graybird-61f39838e948a57120a57619fe6b93fb9c9b2a150636f0a3a1cb870b52b288e8,-0.25966614,0.27130684,0.05220984,0.08272793,-0.83525336,-0.19600599,0.059880055,0.5956133,-0.7025081,-0.571461,-0.01077329,0.06330887,0.27091113,0.930067,-0.11840892,-0.35139257,-0.84729594,0.38084695,-0.15592626,-0.21634784,-0.6316804,0.06837149,0.10274694,-0.7046769,0.14669017,-0.100467734,0.5235607,-0.22387326,-0.035714626,0.15171078,-0.22599708,0.16131264,-0.1525394,-0.12164677,-0.11560983,0.24583447,1.0
Backdoor.Graybird-61fb0d0c3ed4f269fb8497a0abfef6dc543c509650b2af81aabeb605fb11e7ac,0.032337975,-0.22069696,-0.20696267,0.105742656,0.2344624,0.011932978,0.5326609,0.96849906,-0.60506344,0.0010030955,-0.5163899,-0.054912444,-0.6211383,0.94730806,0.49838513,-0.11989131,0.022384107,-0.26753747,0.25611112,-0.059985977,0.1526895,-0.3578297,-0.5672774,-0.26882926,-0.780901,0.15934533,0.18956873,-0.214405,-0.76693636,-0.24305454,-0.1404586,-0.1957886,0.35346445,-0.199251,-0.6822266,0.01593206,1.0
Backdoor.Graybird-62a7401d04f88017eaf9a90cbe104e71cf86c982e930cdaa41f630cb40eeef87,-0.1721462,-0.033463217,-0.20867658,0.04928509,-0.031021433,0.06492945,0.1904848,0.41506812,-0.49779263,-0.7331125,-0.35990185,0.310695,-0.49904114,0.1462488,0.8195837,0.3013585,0.121783406,-0.3245707,0.023545869,-0.32054076,0.45566514,-0.61021566,-0.014467527,0.2500721,-0.434786,-0.09505688,0.25336128,-0.03487139,-1.0829685,-0.37450373,0.1644887,-0.09504472,0.25476333,-0.5767083,-0.56829685,0.18151249,1.0
Backdoor.Graybird-63e2eb4bc7fc4ce5504efdadfe434d52ad8b3699d5670c575b0d6749eb9da2a1,-0.21433637,-0.012706693,-0.20095764,-0.22009782,-0.14401172,0.14003144,-0.13428071,0.021689812,-0.057906207,0.34168285,-0.76998353,0.3485219,0.15249804,0.94199467,0.026795723,-0.37426075,-0.5074246,-0.25032324,-0.01576005,-0.43305957,-0.22165167,0.70300657,-0.37244737,-0.43283954,0.4851828,-0.17712992,0.53924465,-0.042617835,-0.39351556,0.26583403,0.31308776,0.21470702,-0.103499144,0.07844125,0.17854935,0.24011962,1.0
Backdoor.Graybird-65991ce74d589f9fe4d0cefbe5eda390986221c041faed595ca5b635a48460cb,0.25785068,-0.48675662,-0.3080716,-0.34378734,0.4932989,-0.14515193,0.3061336,0.0097303325,0.060418893,0.0059846602,-0.341959,0.046710487,0.45806372,0.74516314,0.22138844,0.1303097,-0.100153044,-0.23862994,0.5535417,-0.5179494,-0.040347166,0.31828868,-0.29472688,-0.10962578,-0.17717443,0.1746838,0.53035986,0.3416344,-0.041810494,0.25668693,0.09029209,0.40532246,0.23075476,-0.19126761,0.99969786,0.02802589,1.0
Backdoor.Graybird-65d264ba371d426165a67d137b3a7da59ee4c7d2f919832a3ab028825e0177be,-0.4119346,0.1121216,-0.5156633,0.58826274,-0.5869717,0.23227334,-0.41518688,-0.16171882,-0.2427335,0.042861424,-0.05089154,-0.1648388,0.6262086,0.71217275,0.58565956,0.039846208,0.18987878,-0.53947145,-0.3156025,-0.5436993,0.1277159,0.24489553,-0.76120013,-0.123750225,0.113350436,-0.3613167,0.8439227,-0.535772,-0.6242103,0.26839975,0.037512396,0.6063457,-0.43325588,-0.1576261,0.105821684,0.52677166,1.0
Backdoor.Graybird-66786bb835a1674bc9295a67c584c9da1aff48441df00a21451727cf3b1e6a9e,-0.23062104,-0.31914473,-0.18979654,0.5166586,-1.2064843,-0.05568486,0.059320506,0.08814856,-0.43216056,-0.17600292,-0.19638969,0.009695918,0.13907294,0.59775466,-0.011146682,-0.15147804,-0.23846032,-0.55100834,0.03577752,-0.20654559,0.09478427,0.27724355,-0.47714326,-0.11665765,-0.16970956,-0.6734314,0.90977055,-0.7263802,-0.38871312,0.6027168,-0.15294337,0.27059948,-0.3441593,-0.44555598,0.50915414,0.147617,1.0
Backdoor.Graybird-66c23272f29f90036382aa571ce861ef2d542d96de626fda2ee58ae67bf5b9d6,0.24174406,-0.08697069,-0.48005176,0.1338213,-0.57571733,0.2397932,1.1130271,-0.1518856,0.040071357,0.08175899,0.07336532,0.21786247,-0.45448887,0.8511582,-0.13454677,0.02705322,-0.43351385,-0.58433026,0.35684913,-0.48754603,-0.44264692,0.25919816,-0.22194348,0.1803443,0.5290859,-0.24839076,-0.073798895,0.056869928,-0.27207732,-0.013806455,0.5286921,-0.24724446,0.42321306,-0.049671404,0.11232173,-0.31577486,1.0
Backdoor.Graybird-66ef45fab44825af0fcd0f58e3ccab4792697337741dae14ea4faa1d4664e20d,-0.1385932,-0.5799021,-0.75056314,-0.3871313,-0.58472204,-0.00031439515,0.29935008,0.3510281,-0.80379033,-0.3496222,-0.3490441,0.31840628,-0.6004214,0.40636843,-0.8235672,-0.7906802,0.20279223,0.16156161,0.08259425,-0.90279144,-0.55152005,0.0024544536,-0.09522243,0.27420598,0.71084315,0.1348167,0.3172354,-0.1253048,-0.39596686,-0.15873125,-0.34893924,-0.49948648,0.13611159,-0.048044756,0.482674,0.17896357,1.0
Backdoor.Graybird-67425cd076901418623f3637faf1494475f22b93e177b42592d3330628cb1290,0.08609256,-0.0046669235,0.33174753,0.5060772,-0.53300184,0.017049247,0.3045753,0.2622611,-0.32246464,0.15820035,-0.5695754,-0.21537279,0.23412567,0.78465486,0.16925727,0.065602,0.6049391,-0.38546404,0.46586496,-0.7514623,-0.18366478,-0.021287588,0.57732964,-0.23930709,0.21646205,-0.47556683,0.7566667,-0.30894852,-0.46417028,0.60471934,-0.4224243,-0.28150946,-0.18038104,-0.54293007,0.5055073,-0.15433875,1.0
Backdoor.Graybird-69c8069ecc84dde235d404175eb4bb9f290b5d1a4ea6e38ec5546db7e8297763,-0.3053384,0.12675197,-0.549149,-0.5559941,-0.5187026,0.2911313,0.46133754,0.10005137,-0.54038906,-0.29711053,-0.48542684,-0.41484237,-0.20773676,0.73277354,-0.49694523,-0.1686429,0.22108507,0.25855297,0.44216356,-0.4997942,0.0070043397,0.5928945,0.28621286,-0.6142725,0.25686216,0.2896845,0.1893988,0.6133293,0.010334318,-0.4107011,0.037722707,-0.5263628,-0.2579782,0.63116264,0.7564742,-0.026867831,1.0
Backdoor.Graybird-6a098aa51cf1f256b4f7ba9a00f9dd694ce861af7631c2017787b649a3c9303e,0.3179737,-0.631139,-0.13968417,-0.61056805,-0.55248606,0.33372325,-0.13056058,-0.10095313,0.0076683275,-0.075008154,-0.7611157,0.24153289,0.559401,0.4554419,-0.10427068,0.22244395,0.18793537,0.07738332,-0.20984754,0.024575014,-0.30440333,0.10272265,-0.5770342,-0.27333435,0.4964705,-0.025316825,0.5757359,0.39845994,-0.26029864,-0.30905738,-0.3733479,0.49011192,-0.06809539,0.37768778,0.6418946,-0.06585922,1.0
Backdoor.Graybird-6a7abfcf01608d31fd5666e4b92bd5e4a461b40fb54721d26ba40107a3707012,0.6653242,-1.2279837,-0.065187246,-0.3190889,0.08854997,-0.076063454,0.35174388,-0.25928196,-0.42431897,-0.3812558,-0.097906336,0.12920892,0.27637437,0.23314269,-0.46007314,0.09201432,-0.17997865,-0.16505653,-0.037114132,-0.47699746,-0.8465687,0.4693407,-0.4739837,-0.2932669,-0.04217382,0.17059103,0.60876536,0.46175376,-0.14535178,-0.3540096,0.08532458,-0.030533826,-0.28020838,0.09469471,0.67758006,0.29957592,1.0
Backdoor.Graybird-6acf73ce429b03da848243858022756272a351e5d0a2f668c20fa8454b22ace8,0.56200624,-0.2637579,0.2997266,-0.36874706,-0.53277814,-0.26466477,-0.09652572,0.3688471,0.32964218,-0.53105295,-0.8354472,0.1478146,0.5768806,0.31546682,-0.10691327,0.24302833,0.30779913,-0.40863785,-0.13213898,-0.15752205,-0.49051568,0.32279453,-0.52277523,-0.5394916,0.78232116,-0.18554798,0.6259136,0.025578262,-0.36248744,0.0756946,-0.3549753,0.06366208,-0.29351693,0.064920135,0.32728204,-0.12789164,1.0
Backdoor.Graybird-6b70eac6c80bae3841169ad629bbb4f713f1f459d39f758be7868a807a6e9d7f,0.26530474,-0.0966451,-0.00451876,0.01326075,-0.21122141,-0.173074,-0.13449296,0.4802544,-0.15015529,0.27498817,-0.68165886,0.30513555,-0.06373432,0.69843227,-0.29412836,-0.11096331,-0.58431184,-0.43759543,0.08652924,-0.48778495,-0.5624291,0.15053229,-0.9642091,-0.30358377,0.22053252,-0.3515122,0.24150766,0.20965517,-0.106692724,0.45079118,-0.24162877,-0.037206862,-0.20703551,0.4200888,0.49376884,0.3547532,1.0
Backdoor.Graybird-6c59c054dc3d17fd97cb3525e71853d608222e848f3e57dbd3adad8585231eec,-0.11172512,0.2267327,0.4937497,-0.38653034,-0.11686194,0.3379816,0.12394252,0.09755513,-0.7775296,-0.10086481,-0.52051896,-0.07201511,-0.17038085,0.65693164,-0.15649194,0.17977114,0.2330277,0.14195962,-0.059577413,-0.54509467,0.10285551,-0.1969927,-0.44415528,-0.23488815,-0.1733898,-0.2757273,0.25959787,-0.10978975,-0.35037455,-0.39934415,0.42301628,-0.14068133,0.7916876,0.10264923,0.59912145,0.28300694,1.0
Backdoor.Graybird-6cfb5586d80cc93044a1795e99640f6a849914656deec59bbe8118ff968eca77,-0.31650326,-0.5976936,-0.6361306,0.029928451,0.31942213,0.34074652,0.24175802,0.05770294,0.24275804,-0.71043736,-0.21822384,-0.8181374,0.4263811,0.0361143,-0.1592048,0.13851671,0.4954313,-0.94982857,0.0244583,-0.390265,-0.7653022,-0.20785011,-0.24508433,-0.56991565,0.43842554,0.17725354,0.8519416,-0.050667353,-0.3502426,-0.04599318,-0.41899002,-0.34954724,0.18485317,0.6906428,0.5679936,-0.21286441,1.0
Backdoor.Graybird-6d242d408bf0e3c49e088eb4cd4a939511c4ea60db11d94d96a7a7a39be70f9c,-0.1215353,-0.7265072,-0.18849032,0.033677794,-0.7009406,-0.088200286,0.15565945,-0.36436355,-0.23087695,0.28923127,-0.3645957,0.0034071188,0.27848414,0.18526788,0.009737408,-0.40224344,-0.24750105,-0.60039175,0.12077822,-0.9371938,-0.40367708,0.66443616,-0.6406517,-0.3044553,0.25068912,-0.20605956,0.7080526,0.17474514,0.046676137,0.39898127,-0.30711254,0.19607854,-0.16730845,0.5331918,1.0590457,0.331027,1.0
Backdoor.Graybird-6d321e528269b7a7e1f6436e1380c65a20f1d714ebc0026e0a99839dc1a501e4,0.27448002,0.29634285,-0.07848188,-0.70222723,-0.8779442,0.39476794,0.5818794,0.081968375,-0.1873696,-0.10544921,-0.18810149,0.6581018,0.028693456,-0.071556434,0.20218748,-0.12601131,-0.007908099,0.09854111,0.2296537,0.60308325,0.06522612,0.4506832,0.38990018,-0.31795326,-0.06393426,0.08012761,0.3126931,-0.74201196,-0.556799,0.33254632,-0.7731411,0.008808805,0.32646304,0.38967502,-0.044659417,-0.45137775,1.0
Backdoor.Graybird-6d34635438401f6c4f7794bc4f2c8c446f82edeb567f31a83cf3ae034ea773d1,-0.33915251,0.38971716,-0.38205487,-0.1796069,-0.15088709,-0.09627992,0.37300655,-0.090612225,0.35465235,0.39750153,0.03828413,0.28582847,-0.43683976,0.4609532,0.09474682,-0.2147224,0.019726042,-0.2750122,-0.36932275,-0.17247027,-0.5587207,0.49691346,0.47965798,-0.4559345,-0.02813577,-0.22717151,-0.040504932,-0.28442425,-0.6907211,-0.028221494,0.25182408,-0.12639758,-0.23430395,0.025307115,0.7411947,0.25589326,1.0
Backdoor.Graybird-6ee285070d1eef800260ba31817c3e7cec3985f0a6a2849a5dc74e445f878a15,-0.45803648,-0.5566083,-0.33889428,0.14434975,-0.16545457,-0.09037267,0.2944855,1.2419518,-0.92779857,0.21542202,-0.92893547,-0.14580004,-0.38356057,-0.09891659,-0.041962937,-0.08525418,-0.12105477,-0.2833586,0.31531036,-0.31435776,-0.34673598,0.10138311,0.51645863,0.39384484,0.16880828,0.20865035,0.38304713,-0.45466617,-0.49499667,0.2842429,-0.109286726,-0.17357662,0.20178607,0.6728051,-0.23586401,0.08620447,1.0
Backdoor.Graybird-6f9dc6c32999551acea67812a90d930ad72a1eb37dd2694c27e9a8adff7a3a9f,0.5874173,-0.6869387,0.5207192,-0.21534239,-0.81554514,-0.23596361,0.058956917,0.43366966,-0.19720066,0.043285556,-0.5189589,0.18570754,0.52079207,0.4162892,-0.29224855,0.084772676,0.26631245,-0.092725284,0.57263255,-0.3374612,-0.6166459,0.4246931,-0.23575649,-0.17937274,0.65829766,-0.26010188,0.47584027,0.47604212,-0.2621181,0.1769621,-0.46212813,-0.04085749,-0.38130042,0.040080942,0.2961783,-0.31470004,1.0
Backdoor.Graybird-71c886f2fd76eb9bd2bc630b058bd694391456685963926b6189fd07dca25a9e,0.23371886,0.091199376,0.0764714,0.014105318,-0.5976746,-0.36900598,0.36442935,0.75293916,-0.08693872,0.07067358,-0.12414189,0.56135195,-0.28805116,0.59876955,-0.033086125,-0.01749799,-0.18123029,-0.5889879,-0.011234725,-0.14366683,-0.38872945,-0.100651264,0.17700672,-0.7339063,0.50091803,-0.27853125,0.39383447,-0.1878796,-0.3470502,0.40455735,-0.051822647,-0.60350525,-0.053576745,0.21168077,0.15607108,0.1089732,1.0
Backdoor.Graybird-725f4e4c108170d54ef93e14503fab7add7cc13b10df35ba8fe020f0dab88d2d,-0.012474805,-0.3113923,-0.5594994,0.57311255,-0.9520989,-0.43616226,-0.25300044,0.91554195,-0.34592256,0.39588803,-0.70079935,-0.24728397,0.0656306,0.6624931,0.04292407,-0.0816325,-0.574325,-0.4086299,0.104484044,-0.57896495,0.0016053332,0.5483562,-0.36473128,-0.27807373,0.08174692,-0.26875943,0.93937284,-0.9234938,-0.32212007,0.37870634,-0.40161756,-0.12935957,-0.12032477,0.06288323,0.9184606,0.4181807,1.0
Backdoor.Graybird-730ed728d5c30bbf322823b8d041c6e3c86249b31946b64b6568a1948cc8e6ed,-0.898023,-0.45742056,-0.57497215,0.37032294,0.13063008,0.13142307,0.12526841,0.27411047,-0.66540384,-0.52870274,-0.32668415,-0.5273326,0.6076104,0.6014515,-0.2596607,-0.13395092,0.58316505,-0.42538935,0.08847479,-0.32882735,-0.4595808,0.48832756,-0.22020723,-0.37735456,0.3582546,-0.7663854,0.07256875,-0.13699067,0.13974412,-0.24123104,-0.00078849215,0.35678816,-0.38445467,0.24288511,0.28222024,1.1666435,1.0
Backdoor.Graybird-739a860eb0dbc39fe915e0761f973180262e418e737f75ebbc4007fe1eaea473,0.41065985,0.1376761,-0.35303983,-0.19911112,-0.4348263,0.46030608,0.88393104,-0.072289996,-0.2676416,-0.022543522,0.34509817,0.04425685,-0.44763267,1.0839437,-0.1842015,-0.13107981,-0.61802346,-0.19070344,0.008657755,-0.060435828,-0.48037443,-0.1647894,0.27925387,-0.5401224,0.35037276,-0.13659257,-0.13337436,-0.34415412,-0.21439263,-0.03212143,-0.035960775,-0.48478454,0.2176794,-0.02823456,0.07090007,-0.0052272044,1.0
Backdoor.Graybird-757d5da46a1617a1b5a07c2d4c17ec72f6c946ab3ca540e8da0131504084de93,0.3285423,0.659902,0.108002976,-0.34000614,0.030519212,-0.051154673,0.38799074,-0.18805957,-0.4539263,0.18650544,0.119346276,0.33611283,-0.12195557,0.47125766,-0.07293322,0.33351704,-0.48112535,0.07938617,-0.023889273,-0.4781789,-0.7827488,-0.004877483,-0.09199072,-0.78739715,0.22244835,0.16599901,0.53914034,-0.45761108,-0.6317771,0.12942734,0.008070689,-0.067749284,0.20715511,-0.09093492,0.100371934,0.61591506,1.0
Backdoor.Graybird-759d25eb1e779c0cf9a1791494780efd719aef5f5a316dee827da31758678a77,0.34106767,-0.045464523,-0.14450358,-0.047364265,-0.21981499,-0.01822952,0.43330657,0.47454137,0.1031038,-0.26662812,0.7609624,0.4411713,-0.49956056,0.9649464,0.1345899,-0.25686213,-0.27351815,-0.38802987,0.2854712,-0.44180527,-0.5390769,-0.06306106,0.2812087,-0.40772325,0.35294253,-0.48295814,0.38566005,-0.49925375,-0.4111433,0.30724645,0.26404753,-0.5149236,0.06545216,0.42255098,-0.32587856,-0.2533834,1.0
Backdoor.Graybird-764e8d67b8a22cd013f7d302251a249fe7c6c3c4a2d2acb9d1e5f88d557715a3,0.211932,-0.16989115,-0.64009637,0.13220422,-0.3934116,0.21772672,1.2676051,-0.062192593,-0.004772469,0.041650802,0.14293778,0.3361949,-0.3441051,0.99958974,-0.46734583,-0.020167213,-0.48627713,-0.53404224,0.2552896,-0.5867127,-0.756705,0.35909358,-0.19993253,0.1283502,0.71750593,-0.34706315,0.15085755,0.043781362,0.038040787,0.04584478,0.40429312,-0.3039356,0.54772717,0.033882804,0.3191997,-0.3389031,1.0
Backdoor.Graybird-76c6fe9ca5a7a1b18fae029ae849431daf6bb211afe955222d5c778bf3472509,0.15267843,-0.72653544,0.4521872,0.013452046,-0.3022565,-0.41634807,0.16393286,0.49274188,0.05890541,0.0759534,-0.3807165,0.094405584,0.3833497,0.5927113,0.1496936,0.25027984,-0.0017462178,0.09151088,-0.19932285,-0.29388478,-0.38085037,0.20298,-0.5312318,-0.5027586,0.3407854,-0.49893337,0.6711996,0.13173285,-0.43467242,-0.0036732682,-0.3981122,-0.07311198,0.27110448,0.3195176,0.224763,-0.20382966,1.0
Backdoor.Graybird-79ebf2c2afd7a143d1833a4702c1dd0aa83e71d78c456649eb59051335c309de,-0.34244424,-0.66159755,0.17584732,-0.16350597,-0.4386583,0.32522836,0.472771,0.07305019,-0.28889322,-0.4721064,0.24277347,-0.2549943,-0.13674024,0.22369564,-0.049437467,-0.043199748,-0.040543567,-0.22628514,-0.09783343,-0.8000658,0.0031018625,-0.04278293,-0.116068885,-0.027482683,-0.017850628,-0.55217457,0.32276073,-0.31041223,-0.33558187,-0.7924358,0.13842522,-0.06669299,-0.22880618,-0.14799961,0.13167095,0.1850797,1.0
Backdoor.Graybird-7a94befd3a93c00b1ca28bd169792504aae64411f804665e0641305e801b215e,0.32941717,-0.263123,-0.55154645,-0.24987975,-0.57138664,0.1844293,0.62515086,0.007233552,0.1441197,-0.50417674,0.61593115,0.035936568,-0.5229011,0.84502393,-0.11380201,-0.11149494,-0.61301285,-0.8162068,-0.039364796,-0.23387699,-0.43613827,-0.40954787,0.10962361,-0.4112758,0.8075928,-0.88484704,0.011888534,-0.13091649,-0.0644584,0.101152405,0.14411773,-0.3224255,0.5661952,0.3287292,0.3095339,-0.22104187,1.0
Backdoor.Graybird-7c1334bb1b9e6b4730760f754ab9010783b7f29f821b02bf1478448ad59cf6df,-0.38738912,0.19336917,-0.44808444,-0.53931123,-0.5385612,-0.15267505,0.17703046,0.37181535,-0.16247387,-0.30676758,-0.6229539,0.14088456,0.32290888,1.2501373,-0.027787289,-0.052309647,0.21739665,-0.3907449,0.19050622,-0.33660403,0.09334548,-0.07664563,-0.08706447,-0.32786494,0.6221879,-0.015684448,-0.017225469,0.051615268,0.0033343146,0.079722084,-0.055949513,-0.2602114,-0.33023348,0.03147914,0.6228707,0.043366563,1.0
Backdoor.Graybird-7cdae407c0cbf514980c892b1c4495e999866aa3be4f6ebc6e482feecd8cfdea,0.58203244,-1.1007751,-0.109301254,-0.41386876,-0.3105903,-0.12393673,0.7190123,-0.2652862,-0.4639658,-0.7825199,-0.25767845,-0.063073955,0.13998602,0.2168868,-0.6245833,0.44640306,0.05529445,-0.29516694,0.39422545,-0.8832744,-0.45521855,0.57590324,-0.36046067,-0.24110161,-0.2591087,0.17066741,0.43722114,0.302003,-0.070170075,-0.004050823,-0.19058137,0.19129005,0.042446926,-0.021966176,0.6186291,0.5135577,1.0
Backdoor.Graybird-7d85ae8d40e1df6c39d67e97e16bbaa2a1aa6f8bcbec78dfc492de86ef57dc87,-0.44476467,0.1529685,-1.0005076,-0.32807353,-0.4432137,-0.226685,0.11702697,0.41305992,-0.24809134,-0.0064085154,-0.25006446,0.67663616,-0.20125939,0.2011671,0.08181918,0.12697698,-0.44488993,-0.23734438,-0.034153346,-0.6509636,-0.7699221,0.0901986,-0.3096583,-0.21251951,0.9204748,-0.27158928,0.62063754,-0.32671744,-0.31669852,0.38459527,0.109276034,0.10273619,0.37892896,-0.09619967,0.2391634,-0.37786856,1.0
Backdoor.Graybird-7d9aec70614646558761e1e9d7aaea88933ee32493d21395b322b04a438140bc,-0.45834854,-0.15411659,0.0873519,0.02815597,-0.1485475,0.60314804,0.6813134,-0.20006868,-0.108415335,0.20216846,-0.15528563,-0.34075058,-0.5395634,0.7497677,0.058822744,-0.014931706,0.21758641,-0.45247218,0.026123999,-1.0132804,-0.35210088,0.78555477,0.26874873,0.6237113,0.112607576,-0.47815898,0.4717948,0.49402747,0.26941878,0.1627792,-0.18806311,-0.107404575,-0.5756708,-0.09105615,1.259693,0.072787076,1.0
Backdoor.Graybird-813477cf47cbe8c132ebbd8bc358f8c03417de303cf35c71f5ab051cdae4724e,-0.3677787,0.04578535,-0.3179246,0.30191255,0.08113367,0.6817841,0.70984656,0.20757644,0.17716914,0.23514755,-0.27850732,-0.30445328,-0.48881143,0.93762374,0.079367094,0.07420675,0.46661913,-0.17135452,0.15020868,-0.4361298,-0.049115617,0.77845246,-0.17961502,0.22209084,-0.11716297,-0.2856909,0.2793596,0.16035345,-0.03904607,-0.38243353,-0.34475103,0.19042906,-0.5842967,0.21594182,0.7700043,0.35951495,1.0
Backdoor.Graybird-81819096e605e81210d610faa6bf8fb85c29c7418b86a6314d154d531cfd0c1e,0.4255924,0.3992786,-0.7110898,0.1593383,-0.4048384,0.21018463,0.33429074,0.27150208,0.46500382,-0.74961793,-0.68204445,0.139112,-0.20869713,-0.08033175,-0.10707826,0.28975242,0.13211544,-0.39090267,0.9545972,0.17436473,-0.5303945,-0.3467266,-0.014611343,0.28381371,-0.047533408,-0.38029033,-0.033590738,0.0038467275,-0.1697688,0.22699662,-0.28106612,-0.41880643,0.1857706,0.4878417,0.4039564,0.10328152,1.0
Backdoor.Graybird-82198faa9497d0ea97adae75c36085d9a604203cc0b853faa079881ea9f79ca8,-0.48356223,0.024818143,0.23435643,-0.09665606,-0.37557992,0.51873696,0.015204315,0.29406962,-0.66388285,-0.559242,-0.7804692,-0.7197474,-0.41649505,0.94691503,-0.3975439,-0.15012997,0.35224804,-0.42628452,0.44950694,-0.6729888,-0.3167777,0.46815747,-0.26228595,-0.90959674,0.20006812,0.0066067846,-0.3777118,0.81348485,-0.025674013,-0.017759005,0.4605895,-0.039434545,0.053308222,0.06395054,1.1954186,0.3667726,1.0
Backdoor.Graybird-829996786890ae93f6bf998085dd695982bcf299bf215faed795aa37dbc490be,-1.1806015,-0.3636526,0.046601962,-0.55917287,-0.28639448,-0.28653762,0.29329345,-0.05558477,-0.5250303,-0.5160506,-0.30198196,-0.47975552,-0.11486613,0.68528205,-0.28796145,0.0651918,0.0483906,-0.09184417,0.047127493,-0.67468923,-0.007586387,0.060448658,0.25300178,-0.7691517,0.05281655,-0.330642,-0.32172665,-0.07746124,-0.6786579,-0.13505024,0.6813175,0.6912712,0.16641852,0.6150614,0.7708133,-0.26408255,1.0
Backdoor.Graybird-83423cd8ce4f3caa1de47af0f9f15b5582728ea77bf70cfdf4ef7190035b612b,-0.044117402,-0.32314637,-0.14310104,-0.6174738,-0.5267475,0.48359355,0.3015625,-0.23175624,-0.34679243,-0.37723297,-0.6189247,0.113071755,-0.15718655,0.7947921,-0.19208483,-0.9803582,-0.18502027,0.49039197,-0.15543905,0.031935375,-0.27043086,-0.27858847,-0.10506974,-0.4746304,0.20830274,-0.1042194,-0.2566372,0.16907614,-0.24336371,0.25170967,-0.5736163,0.33891937,0.26334673,0.21356788,0.12722881,0.33061182,1.0
Backdoor.Graybird-8367e7bcdb92a165868cea32162a752a53fe5d15ceaa3674f817bab68caf2e48,-0.74509335,-0.47673324,-0.036580004,-0.40188965,-0.72444755,0.08888404,0.2210148,0.2895547,-0.81628126,-0.111472316,-0.4627798,0.26808923,-0.48014122,0.6441517,-0.43395963,-0.55552864,-0.13532668,-0.097067095,-0.027549976,-0.10912966,-0.42709896,0.36152488,-0.09934032,0.025511792,0.079197355,-0.547748,-0.16572867,-0.24304624,-0.31097564,0.6328367,-0.41613278,-0.103233576,0.38000447,-0.06532503,0.21364316,-0.21556933,1.0
Backdoor.Graybird-8422d4ab5d5079a5a7d9896892e0c3271aee157a1f54d7bc0dba7937c1e98f74,0.21169035,-0.07865936,-0.32140073,0.1846403,-0.54094285,-0.34727398,0.80750036,-0.10645204,-0.1658244,0.0410287,0.01567974,0.3952736,-0.27441067,0.8668114,-0.65870976,-0.19962634,-0.15743358,-0.32232958,0.34646514,-0.2996383,-0.37569723,-0.051680785,-0.045137644,-0.10972999,0.80052227,-0.844619,0.06508873,-0.18004091,-0.61683774,0.1664393,0.24804635,-0.1569491,0.13816543,0.1445345,0.25607216,-0.15324816,1.0
Backdoor.Graybird-85ec05a6c1aa040abed43cef7e85100a0da06525f674231cde7ed92af582c824,0.07104817,0.0065083676,-0.2557541,-0.21623057,-0.1246733,0.4154949,0.42068294,-0.0012544162,0.12308423,-0.12133228,-0.28170344,-0.14861873,-0.042911172,0.11211418,0.20842132,0.44059053,0.7526219,-0.36194402,0.11825763,-0.5912972,-0.6895307,-0.1494423,-0.29793146,-1.0030359,0.79173803,0.09746161,0.29548144,-0.49513966,-0.60483074,0.09464555,0.21383683,-0.39269423,-0.2977815,0.21108852,0.2792451,0.020056324,1.0
Backdoor.Graybird-861fb76c171296ca9ff2fc6e65fb4ef70adca3e8be932551485a48097ec54c0a,0.26271704,-0.35418507,0.28470117,-0.2647652,-0.2965098,0.223342,0.17754471,-0.2582287,0.12759714,-0.10485903,-0.6249102,0.5698859,0.5705537,0.7814869,-0.17183325,-0.08930726,0.25736383,-0.005832785,-0.06476854,-0.16738106,-0.4676709,0.87894815,-1.0715814,-0.66210836,0.34115446,-0.0959375,0.4612181,0.22400807,-0.19415322,0.5301385,-0.90236104,0.4937782,0.19725671,0.4202856,0.47957096,0.39138022,1.0
Backdoor.Graybird-8670f570c5bc895583b54b34f673e9b6d727cc2a8c2a196f1fe5d7a542f71908,-0.8419458,-0.24511833,-0.39556846,-0.04647234,-0.23784429,0.11427234,-0.049708247,0.53845936,-1.1934992,-0.4639605,-0.26848328,-0.64206946,-0.20026405,0.6299807,-0.39375237,0.30495265,0.017571215,-0.050103854,0.79463375,-0.7143409,-0.42844835,0.49354097,-0.3006631,-0.88373125,0.17976522,-0.018511364,-0.7467684,-0.22878537,-0.40546805,0.11612172,0.13925335,0.2721927,0.05371594,-0.08131025,1.0153179,-0.32253504,1.0
Backdoor.Graybird-8918ce36caf2732f3bfec79d19f8a096bce314c983cf02357466949b290681e2,0.3464946,-0.113480866,0.18417248,-0.2570552,-0.30181214,0.013453224,0.46436995,-0.47559527,0.10301188,-0.63067263,-0.61023784,0.36711794,0.037912328,0.32166576,-0.39938357,-0.14521989,0.31041318,-0.5284768,0.27945164,-0.32927713,-0.7313089,0.17038794,-0.40635303,-0.17321555,0.19422787,-0.34534234,0.63358736,0.014175961,-0.4487281,-0.048569527,-0.13668267,-0.2998667,0.13553785,0.62933546,-0.088173606,0.014548233,1.0
Backdoor.Graybird-8923ffa1222f65f71c7c385d1cec6fde5720dbe5add154d279f4f359b631134a,-0.35845587,-0.18679285,0.21896803,-0.5076639,-0.43319097,0.13069646,0.67515194,0.120305404,-0.8018206,-0.78474534,-0.23378348,0.24240282,-0.09150275,0.10428174,-0.43371737,-0.2095054,0.13556516,0.05595307,0.20660762,-0.362032,-0.06548809,0.25731394,-0.09762365,0.04511283,1.2211413,-0.9971447,0.052900903,-0.23714982,-0.07463183,-0.0077828155,-0.17555943,-0.28130618,0.12575434,-0.50648254,0.35671276,0.25596514,1.0
Backdoor.Graybird-89481ef77be1b32a0454fa76de2d79cec871effda0b9fd6c21861f3c572c3798,0.07089296,0.41515267,-0.16132501,0.22890899,0.041153207,0.15327024,0.061617926,0.3812115,0.1732453,-0.9942237,-0.02331927,0.29938528,-0.008986634,-0.4211563,0.5711379,-0.38298365,0.10839752,0.28184444,0.6019957,-0.14036009,-0.09888468,0.42850703,0.0001235675,0.24120642,-0.22627674,-0.1882044,0.25070477,-0.10169208,-0.46770012,0.9402745,0.14839146,0.37237036,-0.14574085,0.427577,0.057312954,-0.19880277,1.0
Backdoor.Graybird-89b141aa860cddf3c6b0bec91bfca679ff5d8614135a0677e4c1caa7d37a9c89,0.4170222,-0.44377115,-0.41740903,-0.50107616,-0.15135379,-0.04308207,0.5493576,0.07700112,-0.09246242,-0.6048659,-0.61036533,-0.29820633,-0.0077129286,0.66518927,0.26172924,0.66797066,0.3078185,0.07999068,0.57346326,-0.334423,-0.4698924,0.43038142,-0.47026446,0.037207693,-0.27387187,0.022167865,0.22872624,0.33068058,0.19879088,-0.04780507,-0.0879351,0.24087681,0.02267317,-0.088914305,0.29345894,0.065293856,1.0
Backdoor.Graybird-89fe5e86386ee8e977bf7bd47a2658eee37e28236ba8a8f9aefaba734141ff21,-1.145908,-0.41538727,-0.2955145,-0.1641564,-0.62759227,0.38004407,-0.28318635,0.47923455,-0.7112711,-0.38967058,-0.23929454,-0.6743389,-0.20982832,0.82961076,-0.25172228,0.12819421,0.0344448,-0.2522579,0.7707537,-0.40842915,-0.599881,0.4473472,-0.48776144,-0.6513821,0.021188192,-0.022743126,-0.62968403,-0.012902666,-0.256509,0.1875861,-0.0235154,-0.28732342,0.053042766,0.38817653,0.89009064,-0.088279784,1.0
Backdoor.Graybird-8a46c3e1144d6c02853f92b643be99b44dee1f443eff59801c96216bbc5405d6,0.5708464,-0.84407383,-0.25893012,0.07884003,-0.086602084,0.017041918,0.7260823,-0.07631847,-0.0053027445,-0.6864646,-0.65207905,-0.21406955,-0.12508391,0.29751387,-0.7447302,0.08194989,0.12174813,-0.0655093,0.7628876,-0.99933666,-0.6988653,0.4819234,-0.51607716,0.13815576,-0.32147253,0.31689027,0.29615855,0.38703164,-0.0988283,-0.12185878,0.34580272,-0.061126627,-0.0343469,0.05731059,0.95073164,0.73776966,1.0
Backdoor.Graybird-8a970cb90dd3321d111d8fd2dd517e86bbf9c79b6a162cd6bb7cb5699edc4b5f,-0.04950274,-0.46691045,-0.82106733,-0.47040233,-0.6131018,0.007075113,0.24648134,0.36203152,-0.7281927,-0.37912118,-0.08766792,0.2705872,-0.47139743,0.4372257,-0.65366983,-0.60188013,0.19535321,0.07337036,0.1735276,-0.9693211,-0.729529,0.015249824,-0.32872853,0.16348894,0.82543486,0.14768259,0.2651456,0.17467514,-0.29010156,-0.03129998,-0.29233092,-0.40686625,0.4997415,-0.25800842,0.28855821,0.19012666,1.0
Backdoor.Graybird-8c4d358653ddf842f102fa6a1f87c59a3cc65557df4aaf113816f3a2680df216,-0.00852397,0.70873797,0.04881394,0.29262468,-0.6285098,0.49767548,0.1733791,0.81400293,0.07001167,-0.8408505,-0.19352154,0.7451169,0.24709076,-0.7766737,-0.5410925,-0.044315413,0.38497323,-0.35288665,0.09049812,-0.1062756,-0.7298902,0.006408665,0.57498854,-0.034074362,-0.1866844,0.21286432,-0.02261963,-0.1938716,-0.3492879,0.28817442,-0.060913995,0.022338852,-0.32580715,0.5673579,0.10188643,0.029156132,1.0
Backdoor.Graybird-8c8a2ad65a9f2eb8690f5ec41bac47876a617432c8fa85fb0d81078fef9d4bf8,0.7999477,-0.21895602,-0.12234692,-0.23402573,-0.68394023,-0.21543483,0.15720251,0.111502804,-0.10380453,0.056002274,-0.70247126,0.29741278,0.5471499,0.5820578,-0.033417232,0.018398602,-0.0385712,-0.16961607,-0.3667681,-0.61788815,-0.5258255,0.44652888,-0.91213024,-0.23563398,0.025969064,0.06304956,0.1775881,0.5031187,0.26901022,0.061430022,-0.102244146,0.19489284,-0.67942756,0.07498063,0.76884514,0.13507627,1.0
Backdoor.Graybird-8c95f3c3819ad63d453d8792095390904dc501b5a8f5a70e5b5691d200110ef3,0.15363613,0.13414556,0.5319332,0.2483458,0.26771268,0.17605096,0.40069002,0.34575492,-0.28283414,-0.039893348,-0.5021659,0.6489666,-0.38944554,0.87186337,-0.299341,0.012612402,-0.044690955,-0.451331,-0.1697265,-0.03378553,-0.75693303,0.31834975,0.22525948,-0.5295861,0.65314704,-0.7759964,0.47074977,0.16520679,-0.22891176,0.6542547,-0.2326926,-0.33783194,0.00822433,-0.17267153,0.17537338,0.36938125,1.0
Backdoor.Graybird-8d4a784362ac2b3ddd42e1616c08f6805a5672ed39ea15714100a70b9e1fc842,-0.319278,-0.2920736,-0.32128063,-0.3649313,-0.68403494,0.02238367,0.25909925,-0.12634867,-0.13754278,0.00033196952,-0.30559233,0.3311866,0.29444367,0.3403917,0.2379201,-0.14439857,-0.46319377,-0.58721733,-0.24738385,-1.3066537,-0.2749606,0.5459925,-0.6825091,-0.5038796,0.6430236,-0.028149158,0.7260964,-0.35411707,-0.14127329,0.46643406,-0.2093485,0.8323641,-0.083069704,0.182948,0.06828193,0.49582198,1.0
Backdoor.Graybird-8de2ca2818c65b69c510a8fe5bfa47608d63fbe23538ad51a6f5661c6daf222f,-0.36773804,-0.61352813,-0.6525908,-0.5960231,-0.47633797,-0.069445424,0.2757401,0.4146318,-0.4257196,-0.51383865,-0.30297324,0.26454467,-0.33769086,0.46228355,-0.8512655,-0.50348073,0.28277436,0.31189775,0.09370842,-0.94527256,-0.73957753,0.051689286,-0.16420531,0.49934635,0.96198857,-0.29851788,0.25187802,-0.40375507,-0.29590932,-0.09558304,-0.12638257,-0.48722455,0.267976,-0.17766717,0.6557069,0.024428185,1.0
Backdoor.Graybird-8ee8ed6292025a4830b430fbc42984c2b3fa30a7fd3aad6ef3f0abc1363bdea3,-0.5695836,-0.5738866,-0.6372278,0.56806254,0.1848353,0.40056494,0.1378865,0.114146106,0.37362558,-0.8246906,-0.118980765,-0.54711354,0.6333977,0.4009874,0.271053,-0.015290701,0.05008193,-0.8991739,-0.0995893,-0.78709334,-0.36063173,-0.41289133,-0.37663865,-0.7786591,0.43319198,0.06657025,0.76409715,-0.04626797,-0.36453328,0.3782617,-0.60917765,-0.13463748,0.20744775,0.54971284,0.38955614,0.15188967,1.0
Backdoor.Graybird-8f1081cf86782cc1b1577cb67497d6fb854f20cb6515dd8a14b564d43c6752a0,0.011183858,0.18827929,0.049781706,-0.52376705,-0.6999101,0.19677472,-0.2614309,0.4399436,-0.69721097,-0.32068235,-0.9491595,-0.5086935,-0.31928542,1.1091635,-0.33519626,-0.23915479,0.47316346,-0.10039002,0.28349486,-0.5137654,-0.0038273851,0.09425266,-0.7913653,-0.59069484,-0.09781279,0.057764534,-0.20157772,0.78274727,0.050739713,-0.46482283,0.6862586,0.09246723,0.15915573,-0.103598535,1.2925074,0.5445512,1.0
Backdoor.Graybird-8f119cfb976e3b606d5a14c8223f6ff7efcb22ec1491da008b081e11f5ff9dac,0.47664627,-0.3129874,-0.014341065,-0.37416378,0.032949824,0.16575697,0.20897044,-0.17945135,0.2579005,-0.4710189,-0.5618675,0.34705022,0.32087588,0.3399191,-0.17489786,0.46340925,0.12591854,-0.007459807,0.167781,-0.33931375,-0.012896953,0.20734905,-0.9964107,-0.4207702,0.6074048,-0.7871556,0.7059279,0.39526945,-0.07571851,0.1989603,-0.7460519,0.3098581,-0.03848618,0.24406642,0.52093285,0.2883311,1.0
Backdoor.Graybird-92310a91c8e822e825dee87224b6f400b7a40024d44aaee44575c08311d922a5,0.17386131,0.11437606,-0.33991927,-0.25166,-0.48137432,0.36666495,0.21871027,0.5957302,0.07606304,-0.6167297,-0.8503773,-0.09689212,0.14629757,-0.2444504,-0.109283604,0.34776255,0.3552358,-0.53993654,0.9407588,-0.27280656,-0.433332,0.37846005,0.045106918,-0.043302447,0.053437445,-0.2037561,0.35020754,0.072851405,0.19228487,0.33344555,-0.40036777,-0.41873762,-0.29790023,-0.07074545,0.5066329,-0.5765865,1.0
Backdoor.Graybird-9289f437e7f7c37d9dcee484de2c1850637fd0feb549e31a2aaac1400dec6b1c,-0.3190704,0.2299139,0.2903798,-0.3133619,-0.64316684,0.05490643,0.64959323,-0.33142945,-0.1612371,0.11350418,0.39795107,-0.1657706,0.06489582,0.9812855,0.008821607,-0.28930923,-0.335031,-0.4648135,-0.44362435,-0.3401078,-0.17635934,0.10168608,0.3239416,-0.55451936,0.35092402,-0.19383512,0.40389526,-0.3147639,-0.45573166,-0.21243191,0.025017502,-0.62592494,0.16772781,-0.15885039,0.2431633,0.40637848,1.0
Backdoor.Graybird-935ef5a37611172206877fbd8823614c947a21b71e8a8ca746a1299e1d3357ed,0.22446926,0.093595035,-0.14108844,0.32273072,-0.22567971,0.23273814,0.9371211,-0.14994636,-0.41574022,-0.07321658,0.47184798,0.34047064,-0.203627,1.1933599,-0.81955856,-0.4011256,-0.23279513,-0.7606962,0.3403524,-0.16190058,-0.14297535,0.31978196,0.4633449,-0.073359035,0.9778504,-0.6867569,0.0862411,-0.030702386,-0.38237536,0.100769624,-0.030422466,-0.14652534,0.21195857,0.017640125,0.5045577,-0.5731874,1.0
Backdoor.Graybird-93a713200100c3ae76e3985038dd5466151583924da3469fa71387d3af298ac2,0.101142906,-0.25934428,-0.09021003,-0.6032337,-0.44724077,0.37131995,0.66048676,-0.022592904,-0.506151,0.02030025,-0.6314682,0.06204697,0.24178077,0.72528064,-0.26191264,-0.35071373,-0.08290701,0.76799226,0.039170325,0.17479351,-0.39529008,-0.2852002,0.26849967,-0.51275164,0.2704604,0.0038698127,0.08234809,-0.04557372,-0.12352528,0.73082525,-0.391492,0.12072032,0.042932577,-0.18292023,0.36463583,0.03149496,1.0
Backdoor.Graybird-945eb21ef074656d9a1a86747c9d7b5d15f29a567fa27fef01fb2737e576ad03,0.4377436,0.26618776,-0.09535209,-0.7805667,-0.53495187,-0.06450984,0.38183293,-0.4444536,-0.8242183,0.111466005,0.10233148,0.2821207,-0.12296112,0.61478144,-0.027536113,0.44487774,-0.007519548,0.07050843,-0.39375553,-0.33561167,-0.80996853,-0.03900606,-0.13827609,-0.51136243,0.5819225,-0.12063089,0.40517384,-0.46820867,-0.3751498,0.119076505,-0.3329762,0.39622316,-0.119410075,-0.037778154,0.25728205,0.1497712,1.0
Backdoor.Graybird-94623d56ca044b70fe15d88621894fcd59eafe180da385d9d9305186f7f4b86b,-0.30269378,0.055074852,-0.664991,-0.709749,-0.61890966,-0.0009944309,0.39178833,0.19473666,-0.20767245,-0.7450809,-0.20851521,0.10157842,0.31864056,0.88503987,-0.88652265,-0.6827897,-0.028275058,0.34867308,0.25734317,-0.41979373,-0.07978929,-0.05384142,-0.0615586,-0.27419198,0.77743137,-0.23447065,-0.075130306,-0.6553661,-0.15622851,0.6517687,-0.58723867,-0.40697613,0.6406013,-0.097219914,0.63135254,0.5006282,1.0
Backdoor.Graybird-946b3de2c3b514a6c2efe10f2b71f28ee63a9b6730a24a7eba83aa0cf5c5341d,-0.49885735,-0.8354413,-0.15325738,0.03632918,-0.53677905,0.13157026,0.3162293,0.47054413,-0.27838978,-0.55584335,-0.13438071,0.17186192,0.33692846,0.23840398,-0.7409125,-0.49215275,-0.40238076,0.45343748,0.53781503,0.12868835,-0.4410722,0.26224145,-0.21989535,-0.19705594,0.23499177,-0.448811,-0.048843954,-0.12465781,-0.24554862,0.47346067,-0.5986939,0.050468113,0.2604011,-0.25067008,0.42238837,0.204046,1.0
Backdoor.Graybird-95d4ffb8d58ae1108f465097fc357a901f9e00da85ec8d3adecb017be08edc7a,-0.7764575,-0.43362257,-0.11223164,-0.15857252,0.02201879,-0.022223568,0.44979823,0.24107102,-0.23976439,-0.57182276,-0.2053948,-0.62247664,0.02150242,1.0045315,-0.23671302,-0.23644024,0.047290962,-0.29925305,-0.2030035,-1.0684972,0.35313526,0.2163818,-0.20832808,-0.6701944,0.54427475,-0.4423725,0.48940963,0.114578776,-0.17107733,0.46255,-0.29905304,0.06137443,0.6398067,0.23163411,0.8502922,0.12132283,1.0
Backdoor.Graybird-963cd338182a57b18f2a85b8a36f5617a8c91fda7f68627cab80fad0a8e08c45,-0.012272402,0.012266927,0.52889585,-0.42471704,0.22647078,-0.044728063,0.4149875,0.074252926,-0.98389685,-1.3946131,-0.9631823,0.23473918,0.735082,0.2480859,0.22577873,-0.24493505,0.2169621,-0.10368107,0.03662613,-0.6021704,0.057814647,0.42356074,0.16845864,-0.55662566,-0.13498414,0.15986145,0.27425024,-0.34400335,-0.20836894,0.28813815,0.34550443,0.22566861,-0.45566446,-0.18592457,-0.37228015,0.29020587,1.0
Backdoor.Graybird-967456f14643ad8f8bab3ed0b5468ff69704502ae64b5c37f66d43eb71ee5909,-0.06857204,-0.31915677,0.2809137,-0.09425007,-0.11732906,0.26540214,-0.022962162,0.109613575,0.056791775,-0.086903356,-0.560797,0.69929254,0.082511954,1.0347617,-0.1491607,-0.2816854,0.06298968,0.026819034,-0.71424073,-0.16965085,-0.452094,-0.33710286,-0.33115447,-1.014379,-0.06146373,-0.46225646,0.7119719,0.080543295,-0.46882665,0.2351548,-0.26854208,0.09180608,-0.08663406,-0.24379726,0.31462255,-0.047691997,1.0
Backdoor.Graybird-97d6d5d2bfd16a21b6b02bc9bb883dbcd437d0a71f34eebe95d8419a8b80eb89,0.35601613,-0.7679946,0.437951,-0.12934501,-0.19165903,0.69642407,0.96046937,-0.7563649,-0.094461076,-0.3543714,-0.1108986,0.08432979,0.6200384,0.34223926,-0.11601684,0.3206103,0.35512486,-0.46934563,0.074166216,-0.8133836,-0.4070808,0.29939803,-0.8022502,-0.060468797,0.21044742,0.045740772,0.12384088,0.5812728,0.012681626,0.1524473,-0.074569054,0.21436964,-0.40088022,0.025609206,0.5074164,0.50387436,1.0
Backdoor.Graybird-98970c86f23de51867088ebeda57ac2ea32d14ce4aea3b1ce33d30f7482a6448,0.2117969,-0.25770992,0.40171412,-0.20021725,-0.08149051,0.145529,0.591524,-0.066478655,-0.31576964,-0.38314706,0.028538698,0.20074397,-0.1636314,0.55395967,-0.07661075,0.9401568,0.36442035,-0.27504995,0.16763318,-0.23246956,-0.5749474,0.5443297,-0.5860449,-0.6982744,-0.1650927,-0.15314728,0.5995051,-0.17132086,-0.31626886,0.2560225,0.10884025,0.29989663,-0.05594585,0.09592705,0.33957195,0.21601418,1.0
Backdoor.Graybird-9a3a9d7c1d351acf199e6bd2b341f60fee80d72b2775e0cb823397a501994860,0.22184767,0.07836023,0.3064053,-0.076032504,-0.07636249,-0.032477397,-0.3012411,0.37594903,-0.079050876,-0.2008905,-0.57458955,0.32616273,0.90091336,0.7562839,-0.26868135,0.15564647,0.46352684,-0.2796764,-0.033197016,-0.05104589,-0.5871344,-0.119583175,-0.085905105,-0.6934244,0.3949588,0.13265821,0.44770008,-0.30548546,-0.5992446,0.12406128,-0.5207313,-0.205637,0.2369963,0.4224897,0.036665145,0.3137527,1.0
Backdoor.Graybird-9aa73f468e17862621a2fad53b9d4d7b2e739f4529ca0271244b5306e4eab8d6,-0.19266231,-0.19779502,0.3977026,0.4344485,-0.7200146,0.435939,0.0017044253,0.4618181,-0.39583594,-0.40845817,-0.048066683,-0.32894805,0.202434,1.5918561,0.1679292,0.3248483,-0.12629452,-0.38577116,-0.04370546,-0.68420535,0.013168926,0.04952337,0.2661473,-0.21502793,0.06044752,-0.4304379,0.39271095,-0.7326156,-0.2507003,-0.29124773,-0.60551643,0.17610337,0.14427862,0.001819033,0.44805565,0.21026446,1.0
Backdoor.Graybird-9b214aadee23c6591c9ff73d0f579e35b8b2dee1b7ab8e5cfbd75a5a21bb885a,0.099966444,-0.10188654,-0.25014722,-0.3039905,-0.24593572,0.76179665,-0.1442495,0.4182261,0.06431883,-0.67898345,-0.53502285,0.3280455,0.14721392,0.5483824,0.09496101,-0.020609753,-0.19065955,0.09694343,0.7053261,-0.45254138,-0.027641594,-0.15481904,-0.35820594,0.11995047,0.24257724,-0.5773317,0.45025522,0.13550012,0.12365142,0.6437703,-0.17733003,0.12683843,0.45967257,-0.68848085,0.4134606,-0.32265618,1.0
Backdoor.Graybird-9c1495b62ed7d9ed9e1c812aed748f99a5fb67d1a2ec3fdc92d72e2cee7a387d,0.079981536,-0.16952938,-0.72538644,-0.45760992,-0.47366208,-0.09543063,0.32176104,0.72190577,-0.6377424,-0.5671228,-0.64243674,0.2265742,-0.3710319,0.35617623,-0.7572016,-0.7990403,0.09631264,0.19295542,-0.16540016,-0.8627946,-0.84750056,0.1232709,-0.046490397,0.031386286,0.55961955,0.18546958,0.17691572,-0.16290885,0.0019865118,0.043702133,-0.42477056,-0.67209625,0.3759343,-0.004517653,0.3717132,0.14919299,1.0
Backdoor.Graybird-9e2df649e165d2c1d71aecc2e127fc76d8d47d0d81a89c163eae69820d37bf20,-0.6716723,-0.34766,0.32658803,-0.37362984,-0.18394749,0.24820134,-0.25236815,0.30882177,-0.4376591,-0.76254785,-0.6866879,-0.16464831,-0.41651157,1.145347,0.08279557,0.19444285,0.14958581,-0.6425996,0.21008924,-0.7920087,-0.26285022,-0.1406251,0.18834384,-0.7083912,0.115083754,-0.37934193,-0.1859297,0.04733205,-0.2601882,-0.15183455,0.23924236,0.23220925,0.5511514,-0.0021825037,1.012559,0.32923308,1.0
Backdoor.Graybird-9fb2b93a16534f2ee2ca6ae8290af116472da4351149a234accca893dba2a0f2,0.47518948,-0.59622985,0.43979037,-0.1313827,-0.39253637,0.19946925,0.72660226,-0.13544461,-0.3655115,-0.60833853,-0.2718298,0.37240902,0.059421837,0.4255164,-0.54054546,0.66496205,0.44349834,-0.8480633,0.36953902,-0.57368016,-0.6733952,0.31501833,-0.8629547,-0.33663192,-0.276745,0.043820743,0.2713979,-0.123342544,-0.17940216,-0.06880764,0.027839463,0.15217091,-0.40791208,-0.18370803,0.5261549,0.23437835,1.0
Backdoor.Graybird-a035a8b8a7aacc5376be19dc3391fd2a77015718b8cf24d78052ac937b1728a7,-0.04513136,0.03395334,0.17997268,-0.5740475,-0.6568648,0.23470776,0.4368354,-0.32216385,-0.72272676,-0.27648267,-0.07342701,0.2785748,0.08670417,0.76280594,0.38891873,0.115522325,0.31293765,-0.40710643,-0.026904574,0.1270291,-0.4730614,0.3531097,-0.41242185,-0.9571721,-0.3329911,-0.06642862,0.042929716,-0.73312956,-0.03804804,-0.6013221,-0.16862148,0.41933417,-0.1955762,-0.109911494,0.41270906,0.32579088,1.0
Backdoor.Graybird-a0498a02cb192000d067d4f36547b86cb08637ee7a481600e910092c19a9ce9f,-0.4106697,-0.007394878,0.17381094,-0.42609155,-0.14835192,0.08541341,0.29532927,0.27383882,-0.5755635,-0.6001881,-0.4765151,0.1401111,-0.7902343,0.49252474,0.55197674,0.33709854,0.0055061816,-0.108788796,-0.14807898,-0.44165894,0.086065575,-0.14505307,0.1644219,0.15774952,-0.838163,0.20249021,-0.15320939,0.01733433,-0.9865314,-0.4909234,0.20078765,0.20107803,0.13019273,-0.45228752,-0.4613112,0.4180218,1.0
Backdoor.Graybird-a0a04c1fabf634b2f915f759027d71530989359d81650c39616c53fd5ebed357,-0.24555983,-0.21723665,-0.07068566,-0.4113082,-0.4323647,0.39917716,0.21528642,0.20493606,-0.87889093,-0.34059668,-0.00853385,-0.47241864,-0.6374112,0.28293926,-0.4132949,0.3360052,0.30831188,-0.22877282,0.31531963,-0.28139806,-0.13657019,0.34973288,-0.18339649,-0.8020851,-0.043650597,-0.15009788,-0.49942827,-0.26854596,-0.575406,0.022178903,0.61944085,0.074120335,0.36847076,0.29657537,0.7644898,-0.5337685,1.0
Backdoor.Graybird-a1fd6d8666fb7b058edc88955c022b3e35e36da23edbd184264ef39fa45805eb,0.12933372,-0.27556872,-0.11940283,-0.08245203,0.38394073,-0.112926744,0.67754406,0.69242543,-0.4264932,-0.28693768,-0.3405507,0.14263123,-0.28035226,0.98447263,0.52948856,-0.20361854,-0.09213564,-0.49723098,0.08312175,-0.22414123,0.14258596,-0.71223104,-0.3726266,-0.07358243,-0.7298125,0.012637474,0.06486207,-0.25108,-0.7926529,-0.2331932,-0.504904,-0.3316266,0.41269735,-0.3172625,-0.76218385,-0.28061137,1.0
