,0,1,2,3,4,5,6,7,8,9,10,11,12,13,14,15,16,17,18,19,20,21,22,23,24,25,26,27,28,29,30,31,32,33,34,35,36,37,38,39,40,41,42,43,44,45,46,47,48,49,50,51,52,53,54,55,56,57,58,59,60,61,62,63,64,65,66,67,68,69,70,71,LABEL
Backdoor.Graybird-009a62c6f6543ec65460d9a3984fac8dd65aba2feacfa00e8e253bb474a417e7,0.08956648,-0.0299319,0.1378609,0.053230714,-0.09354961,0.0030388718,-0.009617673,-0.0003136235,-0.084831424,0.044847883,-0.14908978,-0.12268795,-0.0465221,-0.06488424,-0.018536184,-0.0022601462,0.052311905,0.0469138,0.07478316,-0.08233579,0.11864718,0.036201768,0.10317171,0.06764189,-0.14867572,-0.0180082,-0.12735532,-0.06563279,0.010468591,-0.03452864,0.08625085,0.032418713,0.16450837,-0.11913721,-0.08407216,0.08815021,0.18245864,0.020800581,0.05293905,-0.085686006,-0.052148893,0.24715619,0.044392545,-0.07440699,-0.12572022,-0.17670994,-0.08043463,0.06607047,0.012115844,-0.0008630344,-0.003972224,-0.037797842,0.042661604,-0.020807678,0.035815887,-0.03807902,0.04946801,0.04617213,0.011863015,0.016904749,0.014920542,0.035924677,-0.016530175,0.023527803,0.06293627,0.032595392,-0.046796285,0.07246542,0.0035313198,-0.0058579603,-0.03083354,0.011623107,1.0
Backdoor.Graybird-02842b14fc265c045f10e2c5ab47c0b0a757c41d13a53194deb66aceb2e3993d,0.035718158,-0.0075108632,0.16055073,0.068601966,-0.1041709,-0.002127937,-0.006516902,0.0010547208,-0.08518782,0.054835804,-0.15531988,-0.1204284,-0.04401613,-0.08629089,-0.017647948,-0.0125310235,0.051282927,0.074390344,0.0709054,-0.07508704,0.09292641,0.013295064,0.07602991,0.053322174,-0.12378929,-0.0050399555,-0.12120401,-0.06560715,0.003881893,-0.039859764,0.08729602,0.052071895,0.17662853,-0.10962661,-0.08289911,0.08821819,0.16630684,0.024568181,0.0444534,-0.06952941,-0.04840072,0.25020304,0.039426375,-0.0696305,-0.11711461,-0.18144508,-0.07183172,0.050014146,0.018947149,-0.02137693,-0.0049310373,-0.074399285,0.05260995,-0.044922438,0.051076762,-0.053832065,0.050424315,0.053550895,0.015864272,0.03159662,0.0013139792,0.052229077,-0.019513613,0.028015515,0.04582967,0.010545512,-0.033983883,0.074101985,0.006105706,-0.01358936,-0.043820124,-0.008083554,1.0
Backdoor.Graybird-03b5962ef8b9c83fe0ed10fc4333a68462865f3a4442346c5f7d004a46555448,0.06816707,-0.037321918,0.12412612,0.0772053,-0.05933277,-0.00088796695,-0.0065146494,0.0064009205,-0.03182843,0.06112212,-0.10919363,-0.09366709,-0.02232837,-0.07088875,-0.03562356,-0.007003414,0.05921986,0.064430445,0.083825216,-0.0982788,0.1427607,0.021091158,0.121298015,0.086196475,-0.16280542,-0.010327437,-0.15584855,-0.08951123,-0.003420841,-0.039878212,0.12947296,0.048851043,0.20278376,-0.14213158,-0.111375794,0.10590361,0.14700629,0.011292728,0.034982175,-0.05312195,-0.032843728,0.22899467,0.035001006,-0.07437736,-0.07445442,-0.1818165,-0.056457028,0.04641364,-0.0009584539,-0.027025977,-0.03441347,-0.09774115,0.06646975,-0.048326537,0.06291757,-0.08611842,0.04058927,0.04209596,0.026125077,0.045676433,-0.0079577295,0.054510616,-0.0139769325,0.033308595,0.0595544,-0.017827172,-0.064772494,0.03427821,0.021368237,-0.030328792,-0.083070174,0.057246827,1.0
Backdoor.Graybird-049f53a05707c2cccd67540609368ef20f395327adb9a026267369d568f78c0a,0.102476195,-0.036893852,0.08775327,0.04931139,-0.050034665,-0.0046043517,-0.0074594636,-0.00062704226,-0.06311805,0.0533681,-0.14882705,-0.12229318,-0.04807077,-0.054165833,-0.0127153825,0.0059972727,0.043894287,0.06325392,0.07060974,-0.086968325,0.14128968,0.022859722,0.11658073,0.07394594,-0.16267937,-0.013345642,-0.14409932,-0.077648,0.014078285,-0.034669213,0.093672894,0.039711222,0.15221561,-0.11599384,-0.08737219,0.0827154,0.18239771,0.027739007,0.04929407,-0.0776269,-0.03771993,0.2453224,0.03329495,-0.08607352,-0.11829615,-0.20009999,-0.086330496,0.06752531,0.018846523,0.00079037953,-0.0031537116,-0.039512623,0.033660434,-0.015876992,0.03798666,-0.046482082,0.039591797,0.045342248,-0.0090827495,-0.0088599,0.03732971,0.03719675,-0.023002176,0.032708548,0.045998976,0.032687906,-0.040232487,0.062632285,0.0032006418,-0.010611117,-0.018839603,0.006754425,1.0
Backdoor.Graybird-05339051a960d18fafb2e5d656e36b2fa007462d9a7b2fbfcb4532b3235ac5ed,0.036963515,-0.030018289,0.105470546,0.05241959,-0.10148121,-0.0020117315,-0.006493848,-0.010332064,-0.077796385,0.06499488,-0.16041937,-0.14071596,-0.035506904,-0.07198506,-0.016748836,-0.007511344,0.044116173,0.053931944,0.06730082,-0.08071158,0.109142736,0.02434882,0.09343106,0.07302257,-0.13582557,-0.00091418024,-0.1361952,-0.07835231,0.0034493925,-0.034125224,0.09024149,0.04783518,0.16892995,-0.12914702,-0.09415309,0.09728988,0.17098238,0.027267268,0.04080322,-0.079760745,-0.048126854,0.2707153,0.050042853,-0.07877207,-0.11800573,-0.18013678,-0.07679822,0.065038785,0.019956704,-0.013068047,-0.007823068,-0.06791216,0.054827362,-0.030421963,0.046208043,-0.060261104,0.044865265,0.05436239,0.026530543,0.035149883,-0.0025636472,0.041986328,-0.007919917,0.019308392,0.056053806,0.0065009175,-0.03090712,0.051283028,0.014880183,-0.02382808,-0.04890778,-0.005221841,1.0
Backdoor.Graybird-05bb2dcf38927dc99961deedaaff6ff120bdfd383745bac5aeb0c28340ea1010,0.07968477,-0.04076589,0.12240402,0.06116077,-0.07719852,0.00043961502,-0.04750376,0.0084063765,-0.07899141,0.047558993,-0.16699316,-0.12746643,-0.041630838,-0.056780808,-0.010490525,0.0042210333,0.04447418,0.05792099,0.06452194,-0.08639092,0.14259578,0.021488978,0.11104585,0.062382113,-0.14395428,-0.0068678996,-0.13158019,-0.07972372,0.01169985,-0.040028427,0.08407266,0.037998576,0.1684141,-0.1366094,-0.09314419,0.076776996,0.16781567,0.029219981,0.037994947,-0.0736276,-0.037363905,0.25601077,0.032874137,-0.08232828,-0.11698084,-0.19655709,-0.08772296,0.0727286,0.0120910555,0.0007973046,-0.011790976,-0.040699936,0.061070938,-0.024692025,0.04545211,-0.06762831,0.04309945,0.061389748,0.006875391,0.012216747,0.025416939,0.041660137,-0.021572154,0.032985017,0.06563265,0.027603954,-0.04355015,0.05627544,0.0073403413,-0.015817383,-0.037276153,0.014144802,1.0
Backdoor.Graybird-06ba9a22cbf334f6beeb0bc5302d3f0d6b7ad734c9ed071d6f279936a37f4687,0.08390754,-0.06270172,0.109780096,0.06684719,-0.04470815,-0.0045638336,-0.07248837,0.0112383785,-0.041282468,0.04768459,-0.13742921,-0.09841466,-0.046861615,-0.071892634,-0.021950776,-0.0042060674,0.034233116,0.09582213,0.0905892,-0.09187241,0.16263448,-0.0013428323,0.11771428,0.072099544,-0.15209192,0.0045600124,-0.14590691,-0.07884194,0.015301496,-0.0440224,0.09430478,0.056148633,0.18295589,-0.14614853,-0.099024,0.08533949,0.14309306,0.02329289,0.031228969,-0.053978074,-0.038581952,0.22522774,0.03375715,-0.072405994,-0.09082725,-0.17828372,-0.063519545,0.06220629,0.011745255,-0.003198055,-0.025454074,-0.07499032,0.07516642,-0.040360734,0.067871094,-0.07591231,0.053869233,0.052515283,0.011581352,0.020961495,0.021635648,0.054103136,-0.018556602,0.037725978,0.057627812,0.016534356,-0.057885733,0.045630466,0.012522323,-0.020591477,-0.05683365,0.038261887,1.0
Backdoor.Graybird-07adf0e72d58706d13117578493d64cc085811d7454fd598a805aa818a445f09,0.105828166,-0.05925508,0.13407332,0.06444659,-0.07898235,0.00037916767,-0.035338573,0.004393014,-0.032716505,0.046790134,-0.09495442,-0.08524627,-0.0067870184,-0.030437406,-0.024766568,0.0049362043,0.053862184,0.02164557,0.05583678,-0.087953344,0.1492543,0.0585975,0.13553809,0.09191083,-0.18244135,-0.024924677,-0.14479041,-0.080970645,-0.019870007,-0.039299242,0.14529158,0.036224533,0.22018775,-0.14197779,-0.11345539,0.11679791,0.14924829,0.009435718,0.037992127,-0.072916985,-0.028356139,0.20872271,0.019466523,-0.069136806,-0.05929968,-0.15635224,-0.049761284,0.04415409,-0.00066242996,-0.025480846,-0.019372817,-0.08605804,0.062452085,-0.03349165,0.050258234,-0.074063666,0.05095794,0.028669221,0.0073698005,0.040012296,-0.023666218,0.058008924,-0.028313195,0.04614643,0.075503394,-0.03238709,-0.06726333,0.060378212,0.035379823,-0.031093188,-0.10513999,0.048971377,1.0
Backdoor.Graybird-0814e28a9bbff170fb9257df3ad5cf8a27287f7c9001f15ea6a683c05e72095c,0.059671257,-0.002081469,0.11827558,0.052776996,-0.07960832,-0.00018704089,0.025930524,-0.0037297693,-0.11152117,0.04725027,-0.16181219,-0.1296682,-0.052871037,-0.0495096,0.00084262446,-0.00249854,0.05167858,0.04222905,0.067544445,-0.078676,0.10443689,0.04226376,0.095403135,0.07480964,-0.1410431,-0.004844082,-0.124724664,-0.078412846,0.0005806804,-0.04282622,0.083758235,0.04460498,0.17094435,-0.114771836,-0.08858462,0.09674841,0.18104106,0.017879799,0.045364827,-0.08335293,-0.05060954,0.2578348,0.03790776,-0.078820854,-0.13694313,-0.18261209,-0.09695672,0.062240835,0.013953901,-0.009250999,0.0010391023,-0.04045244,0.04665009,-0.032259915,0.034541413,-0.039950334,0.039961424,0.05435193,0.010555507,0.028016634,0.0252327,0.043758925,-0.01358847,0.011068746,0.059206203,0.027639994,-0.03202097,0.06970435,0.0009658515,-0.018641476,-0.026783343,-0.007826877,1.0
Backdoor.Graybird-08c34b0421ec2fd129554058eb0e19111b167fdeee45c3c51252c4ace128e70e,0.095755264,-0.030944765,0.10768502,0.036274996,-0.06047931,0.0053436765,-0.031284463,0.002288369,-0.06999052,0.048801936,-0.14997992,-0.12183037,-0.0490782,-0.04131746,-0.017483994,0.011968323,0.0427823,0.021135066,0.055132546,-0.07365239,0.1225298,0.035899594,0.10023136,0.06888168,-0.1557246,-0.00817373,-0.13803396,-0.081092246,0.0083204815,-0.03581826,0.062498275,0.040485535,0.16091077,-0.13795969,-0.08908807,0.07374374,0.19026808,0.033843525,0.054683145,-0.09067082,-0.05351981,0.28860956,0.052270636,-0.086327046,-0.155085,-0.20324333,-0.09399329,0.07349691,0.028900275,0.012200461,0.010555429,-0.023400942,0.04158503,-0.02132463,0.029870681,-0.025503138,0.045835193,0.046516392,-0.0073306146,-0.0046235113,0.029667642,0.035976697,-0.012760428,0.010743019,0.054966133,0.0513306,-0.03890893,0.07144101,-0.0007359617,-0.004672119,-0.009124071,-0.009027328,1.0
Backdoor.Graybird-08c383b4ffb8ed9df7a17296ae0c1798d7f4b769f188d5eef55c77bb79dcd432,0.12664776,-0.067202374,0.10748761,0.03925781,-0.063837364,0.0017006233,-0.067755416,0.0038868142,-0.04119098,0.054963384,-0.12656052,-0.09451804,-0.025958266,-0.055648845,-0.026827553,0.004954899,0.030071193,0.04629941,0.06044546,-0.086561814,0.15589236,0.017219488,0.110086046,0.066333525,-0.16803224,-0.011197425,-0.15059789,-0.08241843,0.008039894,-0.039602578,0.097892,0.046560287,0.19045427,-0.14205296,-0.106283404,0.092747815,0.16870616,0.023384446,0.048670523,-0.0746706,-0.0418781,0.2424046,0.031059898,-0.070913196,-0.10172397,-0.18581718,-0.076314524,0.064400315,0.0114276735,-0.0048350818,-0.01072296,-0.05978744,0.047526028,-0.031298067,0.05169423,-0.065483816,0.042302616,0.04697204,0.006088634,0.010060426,0.0082463585,0.050310552,-0.01777952,0.03987873,0.053671118,0.021595942,-0.049169764,0.05445784,0.017165147,-0.0136976475,-0.05514414,0.027213855,1.0
Backdoor.Graybird-08cadbda2bd111540dc25897982bc801f681dc16e0eba323973e193712332ef3,0.07423592,-0.040099658,0.14254268,0.06759854,-0.07361405,-0.0076315356,-0.0151307,0.0024202133,-0.05920392,0.044579316,-0.11885737,-0.09704006,-0.02823013,-0.041063577,-0.01983634,0.0016541058,0.051333055,0.044941727,0.06375258,-0.08731248,0.12562662,0.037116066,0.11833545,0.073652074,-0.15575032,-0.021051351,-0.13003162,-0.078615986,-0.008087409,-0.04508893,0.11637155,0.038230013,0.20444885,-0.15209273,-0.10372003,0.09945963,0.15583263,0.012933716,0.031142361,-0.07043929,-0.040605776,0.23597322,0.036892064,-0.07585259,-0.08543959,-0.17599258,-0.058599338,0.061932303,0.010442319,-0.027758451,-0.010588503,-0.081425816,0.05791548,-0.048254654,0.05497256,-0.07807915,0.057291392,0.05927832,0.028605089,0.03749956,0.0029855059,0.070386864,-0.020053491,0.03431608,0.07149035,-0.010574603,-0.060884356,0.063750155,0.017573627,-0.021621488,-0.07594756,0.028990822,1.0
Backdoor.Graybird-0904d313bde15d4656a630055d025d6a289de46fc2369597deb20d51da0ccd57,0.09284077,-0.061428804,0.11462733,0.0770063,-0.054635968,0.00010713596,-0.025771312,0.004817459,-0.047349464,0.048015054,-0.13587244,-0.09873355,-0.03259614,-0.05255452,-0.021432025,0.0022846125,0.05122339,0.06615467,0.07151154,-0.08926576,0.1543139,0.01983605,0.12117856,0.07792012,-0.16325803,-0.01036268,-0.1420433,-0.07458581,0.0014753337,-0.045816395,0.10619484,0.050775483,0.18870074,-0.13377008,-0.09440127,0.08822638,0.15329859,0.021882795,0.038659245,-0.066897616,-0.040629145,0.24438685,0.029646872,-0.08133767,-0.103051655,-0.20203121,-0.07598844,0.062653415,0.017890185,0.00028058668,-0.021107756,-0.07024883,0.061781567,-0.032148898,0.048900586,-0.07111229,0.050327167,0.057965543,0.00833926,0.018093232,0.011809669,0.04523981,-0.014818936,0.032768924,0.05040827,0.0084128,-0.04816407,0.05185318,0.01328125,-0.010720257,-0.059589244,0.0375136,1.0
Backdoor.Graybird-095879f4cafe44bf45530fa8b6999d7361bdac2f041fc3c4e7afc1d80cbe914b,0.021722244,-0.09890841,0.11085677,0.13704464,-0.017944245,0.010066749,0.012572345,-0.0026182102,5.082329e-07,0.05338936,-0.09670687,-0.06702821,-0.036058694,-0.10372247,-0.03490967,-0.031771637,0.052360415,0.13035229,0.09408389,-0.12280906,0.14663331,-0.01180232,0.11872967,0.090368666,-0.1481138,0.011583886,-0.14895527,-0.08581488,0.011547139,-0.052185565,0.12191039,0.060288,0.22900711,-0.15870294,-0.1202001,0.098403014,0.08105438,0.015080723,0.0076417727,-0.030380188,-0.033338137,0.23092207,0.024648694,-0.084738046,-0.053947844,-0.19181071,-0.039801642,0.053692084,0.007041879,-0.041621897,-0.07215853,-0.15580273,0.09857637,-0.059603814,0.09484484,-0.13503706,0.038264565,0.074893445,0.062403027,0.0851705,-0.01636467,0.07555647,-0.012654216,0.03385921,0.048676673,-0.044379245,-0.042782094,-0.012169021,0.021796688,-0.029221904,-0.08342412,0.07489912,1.0
Backdoor.Graybird-09a45409e39fb3077d1e7fea751027d152dfa6d9bd30829749ff4ec5caecdfb2,0.08279019,-0.043142673,0.11531053,0.0132049,-0.11868739,-0.004709884,-0.09054972,0.008405329,-0.07611641,0.061033394,-0.18753394,-0.1348841,-0.046767276,-0.066420205,-0.019548075,0.007052178,0.04010285,0.048691753,0.07010542,-0.07792758,0.14063704,0.018097471,0.113705,0.059468374,-0.14382412,-0.0061539495,-0.14292228,-0.07304132,0.021932486,-0.03765621,0.062384397,0.044091642,0.13362436,-0.13674955,-0.088600606,0.060921237,0.1797569,0.024401842,0.048398007,-0.091363974,-0.051452145,0.26590508,0.0476068,-0.07066431,-0.1424469,-0.20146254,-0.08775461,0.081219,0.021491656,0.025034284,-0.0015496445,-0.019305164,0.03952795,-0.00095089275,0.03236407,-0.037397593,0.044839006,0.044478357,-0.006679179,-0.0062209675,0.032315627,0.03079098,-0.005249256,0.01918444,0.06496814,0.053913865,-0.050626997,0.075299196,0.015811088,0.00091797166,-0.029206641,-0.014626334,1.0
Backdoor.Graybird-0a1311fceceea990bf446f7afa4fedcc6b7f8780afd4a6c87a31949818f87cea,0.09387367,-0.032114,0.11534132,0.03310404,-0.0905335,-0.0054451325,0.014609383,-0.0048748455,-0.08552444,0.054623846,-0.13362719,-0.116463125,-0.03089745,-0.034670178,-0.0010775194,0.008984035,0.04891361,0.008959538,0.05678166,-0.08548357,0.111423396,0.06826632,0.115305595,0.08864868,-0.15054545,-0.028714696,-0.13171326,-0.06951886,0.003657295,-0.025363963,0.08354965,0.022563398,0.14232929,-0.112316415,-0.08314108,0.09438185,0.21418622,0.02846019,0.0570901,-0.092881046,-0.062723465,0.269264,0.048469257,-0.07605462,-0.14802217,-0.18962583,-0.097559705,0.07424797,0.009035898,0.0013825473,0.017618498,-0.0064820214,0.014305421,-0.0129364,0.0134259295,-0.012478356,0.03840454,0.022093441,-0.0033517214,-0.0022868717,0.011036591,0.02154659,-0.008081303,0.019297805,0.057895545,0.043578282,-0.052183907,0.07185341,0.012432032,-0.0011465796,-0.025213908,0.005488261,1.0
Backdoor.Graybird-0ded1dc774b46d985a4e90a46f5d56a0047630d7a6e8df439870f7bb40b57a14,0.043915194,-0.029466873,0.093802154,0.07878794,-0.077679805,0.0029887522,-0.007225145,-0.0067124167,-0.048780095,0.06273574,-0.14293158,-0.117102586,-0.021851009,-0.055990264,-0.019035049,-0.016058292,0.05275127,0.06316634,0.0718666,-0.08990372,0.12544188,0.028669106,0.11057251,0.08404253,-0.1533812,-0.010348202,-0.14482948,-0.07719639,-0.0042345994,-0.041013192,0.116627134,0.044686824,0.20165405,-0.12926985,-0.09984265,0.096656606,0.14654794,0.0122190565,0.038722046,-0.060440063,-0.03196146,0.23475163,0.03458618,-0.082210705,-0.07898699,-0.1787986,-0.05495887,0.04524138,0.0021262506,-0.03633182,-0.02835011,-0.08625824,0.057202257,-0.04834236,0.05992265,-0.08230976,0.046558693,0.053152118,0.023035122,0.05209986,-0.005296217,0.06783056,-0.020582145,0.026705215,0.0532768,-0.03488001,-0.038100667,0.034581643,0.013433438,-0.028987791,-0.071452245,0.010352688,1.0
Backdoor.Graybird-0e4b24dfaad406b918efb40923889150f139511f43c56e34deac187d950ce03f,0.02583363,-0.0006189247,0.0945386,0.05589592,-0.07300761,0.005136168,0.0012164871,-0.0031468144,-0.05483543,0.047080353,-0.12781559,-0.111040674,-0.025563661,-0.055058524,-0.021767532,-0.018879285,0.04450889,0.0715316,0.06345315,-0.07664478,0.09994879,0.013200993,0.091587186,0.07324895,-0.13499512,-0.0025814192,-0.13527861,-0.065412834,0.0040558986,-0.048435833,0.095900185,0.052726027,0.1997765,-0.14917746,-0.112542026,0.10020896,0.17571977,0.022090314,0.043938722,-0.080251776,-0.052912027,0.27443087,0.048139345,-0.07358181,-0.11574582,-0.18248366,-0.08694596,0.059940167,0.018362163,-0.022258254,-0.008918808,-0.086991824,0.05937151,-0.0482672,0.057542786,-0.062180553,0.042308986,0.063366964,0.040281985,0.05801078,0.0007229575,0.05144772,0.0032089702,0.0036467116,0.053226564,-0.00863457,-0.02934618,0.023672357,0.0010508104,-0.026089195,-0.04223338,-0.0063863187,1.0
Backdoor.Graybird-0e9e218c49e56ec187e145db72a72726d50ae295f08b4bf344f19e13de603ba2,0.08110728,-0.026045699,0.12471103,0.04895832,-0.081194334,0.0009457583,-0.012014461,0.0041602096,-0.07889095,0.04283346,-0.14811744,-0.11312597,-0.04263975,-0.03255601,-0.0063945428,0.0055570044,0.046801124,0.031960577,0.05823424,-0.06807233,0.11733322,0.041044593,0.0982634,0.06720447,-0.1577004,-0.012067988,-0.14364538,-0.082037404,0.01181188,-0.04163644,0.09884145,0.052170046,0.16969202,-0.1360812,-0.09225177,0.0980842,0.20293534,0.025385054,0.042093564,-0.07932662,-0.043843213,0.28006017,0.048579045,-0.07874839,-0.14475864,-0.2012005,-0.0932078,0.07313703,0.014029998,-0.0036574823,0.010445127,-0.049908638,0.04368998,-0.03262728,0.034377515,-0.03387036,0.04681782,0.056897238,0.0017359068,0.01308869,0.028826518,0.057206217,-0.010086281,0.017463803,0.045442883,0.027837988,-0.03791815,0.08834885,0.0036057227,-0.007976751,-0.030835474,-0.028803414,1.0
Backdoor.Graybird-0eec1cf54f4696068a4411a96e8deb728f734fac856440cb5175b1204d1dd137,0.08209398,-0.034039572,0.12093916,0.052132953,-0.058494326,0.002715983,-0.013735518,-0.0020831164,-0.05029452,0.052702475,-0.116206944,-0.11154125,-0.030704943,-0.047788166,-0.023110196,0.0022707505,0.04764993,0.029742787,0.059120476,-0.08625112,0.13173711,0.04924983,0.1190379,0.0826902,-0.15826523,-0.022315186,-0.13425781,-0.08223983,-0.008881515,-0.037892785,0.120487355,0.029183583,0.19388792,-0.13659385,-0.095879026,0.09961251,0.17602651,0.015932402,0.044908356,-0.08120737,-0.043232147,0.24898571,0.038627476,-0.073377475,-0.10340721,-0.17832531,-0.06909073,0.056278523,-0.0005026505,-0.023917628,0.0032121579,-0.067632884,0.050764818,-0.040871203,0.03816859,-0.04440668,0.047911458,0.036498774,0.0074771997,0.028182872,-0.003989491,0.056447253,-0.022364965,0.02768424,0.061435748,0.00022769907,-0.05523261,0.06466107,0.0120036565,-0.02326561,-0.07058604,0.020499371,1.0
Backdoor.Graybird-10672ba06f9cceb9fb651a6338f13de953b8a97d9d5164acd08456fb7a974b69,0.047903564,-0.05403057,0.15312898,0.09345042,-0.08762726,0.0009886547,-0.053782664,0.005003134,-0.025265247,0.054995567,-0.15260585,-0.10793328,-0.039783515,-0.12572663,-0.0538971,-0.018892867,0.047643185,0.13470528,0.10399288,-0.10607288,0.1480807,-0.013361773,0.10600904,0.07878054,-0.1457378,0.0039755176,-0.15340178,-0.07732727,0.017000254,-0.045285355,0.11087854,0.05787613,0.20328736,-0.1421618,-0.10643023,0.09146649,0.11989161,0.02068239,0.026782481,-0.043500867,-0.03701037,0.23447676,0.023850637,-0.07689936,-0.05696559,-0.17684358,-0.045483433,0.044774037,0.006256596,-0.01631041,-0.051695686,-0.11468608,0.08147734,-0.032902453,0.08071976,-0.11141648,0.038715426,0.058493134,0.042256277,0.05642029,-0.006366802,0.055208515,-0.015124034,0.030088441,0.062317222,-0.012402687,-0.053440005,0.027621506,0.017972516,-0.029295983,-0.082997106,0.052672286,1.0
Backdoor.Graybird-1078ebc75c7612450f362dc2e480699e1e6f21473898effad033a32e4e47d5ed,0.026179392,-0.024123454,0.10210864,0.08727888,-0.05112995,-0.0048339823,0.009603954,-0.009761412,-0.07332012,0.047398612,-0.15794417,-0.12665065,-0.042944983,-0.07363673,-0.016554452,-0.009620028,0.05295478,0.079341516,0.07396073,-0.086143166,0.09582537,0.00051634596,0.079656266,0.06818997,-0.11885365,-0.00055708113,-0.122302584,-0.065068506,0.009308769,-0.039766267,0.08262281,0.052575026,0.18779269,-0.13532749,-0.106322855,0.08827957,0.15575364,0.024120484,0.037576355,-0.05889136,-0.0441989,0.2718475,0.039073974,-0.087073386,-0.13140658,-0.20232575,-0.08172201,0.0724994,0.020256525,-0.02820344,-0.0144713605,-0.09361258,0.060761835,-0.049278527,0.053308077,-0.06827175,0.034124844,0.06695849,0.031718466,0.049855433,0.012606478,0.055529658,-0.0023796505,0.013116181,0.050570425,0.012676688,-0.009732195,0.044272054,8.02353e-05,-0.016009029,-0.023968775,-0.013224004,1.0
Backdoor.Graybird-1203e135f7e763fee8490a3e11c091a2a7617dc3e486d2bbe6ac81a32bc931be,0.091995165,-0.02387537,0.09640739,0.047872353,-0.057915792,0.002372948,-0.020345401,0.008200052,-0.079420984,0.04341219,-0.16133161,-0.11826429,-0.057340067,-0.050386716,-0.002036882,0.005522818,0.037794467,0.06625562,0.07795707,-0.080622025,0.13969406,0.02395375,0.11405934,0.06717443,-0.14621617,-0.012039434,-0.13976428,-0.073343955,0.01855155,-0.03521818,0.071768574,0.04283286,0.14819914,-0.11459288,-0.09105884,0.069651365,0.17990322,0.022776017,0.039756883,-0.0769468,-0.046759587,0.24580236,0.04042623,-0.0838808,-0.13184687,-0.20428987,-0.09345111,0.07701794,0.02814444,0.019230668,0.0059295655,-0.026822383,0.0482255,-0.015436295,0.030173916,-0.04966122,0.048731595,0.057593726,0.0029586833,0.0012926267,0.034397848,0.032433245,-0.0061510806,0.016695263,0.055269003,0.05150928,-0.034382276,0.055169236,0.002284389,-0.0030208842,-0.0140317,-0.0038420004,1.0
Backdoor.Graybird-12efad6f7e8313a41ffc7a49cdd612243712922f8d7947141e366574279077b3,0.095929,-0.027475273,0.08902065,0.025815712,-0.06263462,-0.0040552854,-0.040675152,-0.004873169,-0.05115173,0.05330663,-0.13929398,-0.10856979,-0.037681285,-0.056509294,-0.02370914,0.0061756466,0.039056025,0.056295663,0.05508772,-0.062433455,0.12289816,0.019454863,0.09345474,0.04806782,-0.166759,-0.0140810935,-0.14475533,-0.08446086,0.0070254984,-0.048222903,0.09771291,0.05786308,0.19111966,-0.13798288,-0.10486836,0.1054897,0.1814285,0.02158366,0.042158984,-0.07546462,-0.044982083,0.24174415,0.036995705,-0.078841485,-0.10978403,-0.18048812,-0.06684963,0.05117319,0.018071646,-0.023160018,0.001218877,-0.06494617,0.051171314,-0.050311334,0.039559722,-0.05528657,0.049561474,0.03853543,0.00462106,0.021336386,0.014272049,0.052236807,-0.015755966,0.025022723,0.052214827,0.004223672,-0.033641104,0.06630704,0.005650284,-0.012551035,-0.03937678,-0.009835684,1.0
Backdoor.Graybird-12f4f6331583edc2599a31940233f76e950dee226f92573abf7ad0bad10cb2c7,0.04542384,-0.044783406,0.11338563,0.09436741,-0.0643437,0.0052385847,0.0032427534,-0.0034682967,-0.012233564,0.06441711,-0.10163828,-0.09234652,-0.015683355,-0.07991815,-0.048914436,-0.022299286,0.065425225,0.06920626,0.07841553,-0.09942735,0.12138204,0.021841664,0.11581844,0.08915013,-0.16692431,-0.01763986,-0.14390968,-0.087715566,-0.0014035922,-0.04137589,0.14474396,0.048011396,0.22100541,-0.13913354,-0.11570423,0.12090812,0.14601849,0.015272793,0.029466031,-0.061406378,-0.04682858,0.2591378,0.030236453,-0.088289976,-0.06979123,-0.18361847,-0.0502282,0.04726102,0.0050221262,-0.04422126,-0.030420553,-0.12316214,0.06488252,-0.057572767,0.06455235,-0.087925255,0.046910662,0.04613404,0.03311058,0.058719225,-0.017978989,0.061737575,-0.016623162,0.029130341,0.06479142,-0.0509302,-0.051531658,0.022227827,0.015378546,-0.02688392,-0.0844827,0.04400563,1.0
Backdoor.Graybird-143c25c7cc08038a40638df3cd01232232baed4a9469f356efc615b5041c794a,0.070166744,-0.04944626,0.13322997,0.10340301,-0.07062625,0.002331683,-0.02978478,0.0017065869,-0.04251227,0.045264285,-0.103021435,-0.091686726,-0.0051211957,-0.04638189,-0.037381284,-0.0015531284,0.055793673,0.05118043,0.06108269,-0.08974696,0.15432176,0.030519744,0.13112967,0.081875056,-0.17973366,-0.024888488,-0.158624,-0.08851286,-0.0063142893,-0.049526528,0.14374761,0.04791089,0.22388253,-0.15095751,-0.11585255,0.10772835,0.1317999,0.015685098,0.03061164,-0.06103453,-0.024529664,0.22398809,0.01619588,-0.08453742,-0.06213949,-0.19084805,-0.04218856,0.049658097,-0.006885489,-0.048699934,-0.03159867,-0.10776758,0.069196485,-0.04476509,0.06703825,-0.08876935,0.060686253,0.06029459,0.03264251,0.053237278,-0.023202945,0.075988635,-0.026969008,0.04253381,0.049035065,-0.05143293,-0.06763364,0.053065706,0.029398954,-0.022761857,-0.10190316,0.041106008,1.0
Backdoor.Graybird-14818f4633cc87ac1b11b53895daa6cbc595065596c7ea86f807fb1a1ad79b72,0.09407767,-0.034994144,0.108657,0.006574204,-0.082554586,-0.0031972588,-0.056409,0.00023401661,-0.07109,0.042008065,-0.13877082,-0.12005625,-0.046268474,-0.04613302,-0.014242142,0.0035162168,0.040003087,0.029415911,0.053528797,-0.07222606,0.12223602,0.018229945,0.0956213,0.05268519,-0.14627635,-0.0030650287,-0.13545528,-0.06559505,0.017530732,-0.038727432,0.080529116,0.0365645,0.15772267,-0.13871695,-0.09566474,0.07901387,0.20154005,0.03437686,0.059377965,-0.085661575,-0.060402356,0.25977474,0.050011903,-0.07546729,-0.14309828,-0.17893803,-0.09040732,0.068250135,0.02839411,-0.0063652406,0.017863873,-0.030451963,0.029172119,-0.02847733,0.035112675,-0.028472021,0.042565003,0.03404704,-0.0017465618,0.012271865,0.011249549,0.028845849,-0.011659139,0.011161289,0.04756131,0.049752843,-0.02951004,0.06760748,-0.0041857953,-0.011422653,-0.0105845705,-0.01917821,1.0
Backdoor.Graybird-152a87566246d7b100a299d29e34ce080c52e714e0c2883b904d85c1144de18d,0.091395795,-0.024741735,0.11988037,0.028810758,-0.08874586,0.0037488516,-0.043196127,-0.005797851,-0.06577763,0.046421815,-0.12858869,-0.11095585,-0.025875967,-0.03600739,-0.028047655,0.014871111,0.04794008,0.017257322,0.049082085,-0.075270765,0.13085009,0.04121438,0.115114644,0.07256473,-0.16614592,-0.0138113,-0.1413202,-0.07317161,0.0021021636,-0.033429854,0.11875562,0.0344031,0.20360711,-0.15065272,-0.107221425,0.10279494,0.18303297,0.02902473,0.03708071,-0.08091761,-0.04431567,0.243783,0.040191963,-0.06640785,-0.10306284,-0.15787108,-0.06987576,0.047509734,0.008389659,-0.017137978,0.0041741026,-0.064373754,0.04888163,-0.045063112,0.044798218,-0.049068343,0.044796687,0.043048587,0.011838281,0.03353626,-0.0038358455,0.056432385,-0.012433942,0.023602486,0.07212692,0.0037932927,-0.06180516,0.07127795,0.023447894,-0.029947903,-0.06766173,0.014124351,1.0
Backdoor.Graybird-16274674297d97fdb7c53027a4e6facd681428961e31bc85dfff497056b071a4,0.10611222,-0.04969331,0.11398741,0.0038078504,-0.07410431,0.0070674475,-0.07157155,0.005674377,-0.08220283,0.05056223,-0.15581466,-0.1283583,-0.037311446,-0.039471995,-0.019675253,0.01207497,0.044251516,0.0121665485,0.054275267,-0.070718065,0.13048922,0.035311848,0.10161413,0.059506077,-0.15134652,-0.008999812,-0.13049668,-0.07278584,0.0042423746,-0.027378272,0.057035673,0.025310617,0.12891051,-0.11887458,-0.07418835,0.07496965,0.21242353,0.024272554,0.060077626,-0.09243716,-0.05652771,0.27362737,0.05634125,-0.07942206,-0.15701558,-0.19957331,-0.10139503,0.074024074,0.02566436,0.008435131,0.030635389,-0.0057511386,0.020602446,-0.020210152,0.00840946,-0.00039361493,0.055476215,0.03168238,-0.023011232,-0.010129872,0.018373061,0.032256354,-0.012839388,0.024291707,0.057140473,0.06340401,-0.045713164,0.094588876,0.012936481,-0.001493992,-0.023547018,-0.01626029,1.0
Backdoor.Graybird-16648fd7040db9b96d76e5f70711e8c62721035832f7b87594d62b0dd9b865ea,0.0067671454,-0.033683002,0.11781216,0.08863017,-0.10742822,0.006655953,-0.042725477,-0.0051775826,-0.0495491,0.062464703,-0.16432358,-0.12174971,-0.027434586,-0.098974526,-0.045284335,-0.02590895,0.0553737,0.10320069,0.09490724,-0.097434446,0.13263232,0.0044445363,0.103242755,0.07770967,-0.1360911,-0.0015271241,-0.13484466,-0.07275638,0.0067448113,-0.047658302,0.097921245,0.05625969,0.19284193,-0.14847244,-0.10128659,0.087080665,0.12872338,0.022272168,0.026991462,-0.050398458,-0.041571766,0.25133413,0.04186953,-0.07831951,-0.06813846,-0.17347603,-0.06284978,0.052964978,0.016472576,-0.025436332,-0.046488654,-0.10975516,0.08867467,-0.03550191,0.07648198,-0.10656681,0.041656803,0.08181693,0.045343667,0.06371152,-0.0021970049,0.05475017,-0.0037615674,0.023596356,0.06923828,-0.038758095,-0.04432583,0.028367013,0.022179093,-0.026074696,-0.077994004,0.03174119,1.0
Backdoor.Graybird-16ce6a8444870c762676cc776860c1ff7daa2a2dc76abd29136a36d6538bba8a,0.07370955,-0.071428254,0.1562496,0.14899765,-0.03183481,-0.0017494638,0.018718313,0.0018169638,-0.023361742,0.053096466,-0.10135825,-0.08572737,-0.030156413,-0.085951895,-0.032631304,-0.012855999,0.059289675,0.10428122,0.09836585,-0.10998768,0.16505648,0.016592402,0.1439771,0.10820421,-0.17550059,-0.020798363,-0.16744894,-0.09337588,-0.010659396,-0.05280613,0.14607763,0.056130636,0.21851161,-0.13755979,-0.10953569,0.10959277,0.092582785,0.0049856342,0.028638663,-0.040490653,-0.013927202,0.2015055,0.00048444793,-0.08736564,-0.031532582,-0.19120443,-0.025337832,0.037234325,0.002755541,-0.034076855,-0.055957634,-0.10990771,0.08558024,-0.035808053,0.08238876,-0.11578446,0.037442606,0.059921585,0.023707898,0.04178795,-0.0028299235,0.070234984,-0.032306105,0.049922295,0.04030202,-0.02446403,-0.07315133,0.028532922,0.02484458,-0.02130649,-0.098158844,0.09265167,1.0
Backdoor.Graybird-16dc33ad95a90a03f9489182cf6061392a79cbaf96cceb87bd3c6c664daff4a3,0.09886009,-0.044524584,0.13736552,0.03516267,-0.10996543,0.004058022,-0.049581096,-0.00025464405,-0.07430769,0.05711109,-0.14517526,-0.121541925,-0.033943307,-0.04853955,-0.017842459,-0.002601437,0.049869895,0.026825007,0.07955368,-0.09847778,0.13045289,0.055835444,0.12118458,0.0788688,-0.15769011,-0.017695026,-0.13108881,-0.07196377,-0.0007673966,-0.03264258,0.09874653,0.031954214,0.1511185,-0.120157845,-0.07635406,0.08732446,0.18985943,0.017062396,0.06692964,-0.0865967,-0.066034414,0.2546841,0.034904193,-0.06753108,-0.11817441,-0.18852384,-0.07737632,0.07073285,0.013709847,-0.006935813,0.0017332031,-0.032923166,0.02455517,-0.010587841,0.029607702,-0.03283978,0.045530345,0.02400955,-0.002477941,0.0041597593,-0.00046358476,0.03017873,-0.022948757,0.032902315,0.06467964,0.021775581,-0.058472183,0.07156363,0.025288494,-0.00796866,-0.05819548,0.01917275,1.0
Backdoor.Graybird-16dc7da8aef050616f3d99fd34b3f0410ce6a38f5a61c9ebc8e86e87195c4be3,0.08947343,0.008432292,0.10624273,-0.00093967456,-0.086736195,-0.0022928892,-0.051579136,0.00048072345,-0.08604787,0.057070874,-0.17975964,-0.13673602,-0.07151611,-0.079280965,-0.013825715,0.008806793,0.03416823,0.064167835,0.06749743,-0.07094218,0.1009238,0.0072824033,0.07160276,0.04070054,-0.14215532,0.0004949999,-0.13354193,-0.067797564,0.018488165,-0.040063083,0.053818684,0.053626586,0.15561199,-0.122113235,-0.08616961,0.081852145,0.21999183,0.024848193,0.05343015,-0.08976995,-0.054308683,0.26596528,0.04626664,-0.06547591,-0.16574492,-0.17873983,-0.10922298,0.07764405,0.032258805,0.0033104925,0.017683601,-0.028606892,0.040060047,-0.031749513,0.034139525,-0.024259953,0.05217945,0.04328307,-0.0037638259,0.0096948035,0.031741902,0.030961629,-0.00749545,0.01020685,0.059992347,0.06765114,-0.020194355,0.065318935,-0.010518846,-0.0070019145,0.009012003,-0.02744041,1.0
Backdoor.Graybird-1966b6b19ef74c24f458b6477ccb7e8c8427df6d65ea4dc5e0bffb811fbba2d7,0.083529904,-0.053022847,0.14688557,0.04504694,-0.10228145,-0.0013762445,-0.047632877,0.0071611553,-0.0475291,0.055540804,-0.12826848,-0.097862154,-0.029943742,-0.07618786,-0.04169477,-0.0069843754,0.05149014,0.07193006,0.08984509,-0.0928462,0.13885796,0.031147026,0.110328555,0.081259355,-0.1529997,-0.007584764,-0.14019518,-0.074735865,-0.00035163606,-0.039779697,0.10338691,0.046276785,0.19166955,-0.13186938,-0.0930955,0.10235948,0.16539903,0.020699145,0.041595075,-0.06903024,-0.053610843,0.23013231,0.031926166,-0.06803293,-0.08509638,-0.16944513,-0.057397738,0.050647434,0.00803312,-0.013817412,-0.01563224,-0.06787272,0.048648283,-0.02398841,0.051504955,-0.07131842,0.050713364,0.037468247,0.01746287,0.028391326,-0.0068881894,0.03853857,-0.017604936,0.04245338,0.06971963,0.0015888548,-0.055311326,0.04190421,0.020586487,-0.023941223,-0.08209924,0.04905118,1.0
Backdoor.Graybird-1c7dfb9affef8bef118a41d36e3e8c413f3076918a8821efeb3721af52ee5c52,0.101019695,-0.010263306,0.10483151,0.013674164,-0.08955817,-0.0077439644,-0.04109801,-0.004194965,-0.08097507,0.043948416,-0.15269424,-0.12685427,-0.037019733,-0.037314612,-0.005803356,0.01964812,0.031127933,0.017331477,0.04768195,-0.066153966,0.11574955,0.03783595,0.09475902,0.050088808,-0.15423407,-0.008559228,-0.133356,-0.07446349,0.0052587464,-0.03659292,0.086583056,0.043392383,0.17543921,-0.13605595,-0.100542754,0.097186565,0.20949659,0.031062242,0.050800607,-0.09198719,-0.048876464,0.2720669,0.046024933,-0.08037849,-0.15183723,-0.18733385,-0.098647475,0.06630202,0.022246135,-0.010979926,0.027919715,-0.044743456,0.03214105,-0.032938275,0.028447092,-0.034169313,0.050944943,0.053143747,-0.0013024774,0.01556889,0.017206771,0.038448397,-0.012449218,0.011967742,0.05582217,0.0432217,-0.033515893,0.07489719,0.003286544,-0.01508861,-0.020601239,-0.026022336,1.0
Backdoor.Graybird-1cb523870e23e55d0d36af5a2e10472ac25390d3838c52c35b1106034132aad5,0.055043187,0.011711551,0.10150299,0.01948904,-0.10670705,-0.0043278006,-0.041463308,-0.007383557,-0.11483932,0.053212922,-0.18749687,-0.14182909,-0.051787976,-0.03671479,-0.008351709,0.01552231,0.037676256,0.047288932,0.053512204,-0.06290395,0.098973565,0.026174009,0.06824874,0.04131272,-0.13384849,-0.008364358,-0.13074255,-0.061718423,0.014359453,-0.040482122,0.06769238,0.041689564,0.1515986,-0.123628564,-0.09453286,0.09091937,0.20629975,0.022005338,0.04536194,-0.0863371,-0.051851712,0.27675584,0.04683132,-0.07693149,-0.15709676,-0.18990807,-0.10019648,0.078927465,0.018437512,0.004339109,0.024463551,-0.034296025,0.04320376,-0.020868713,0.029117,-0.02789207,0.05012318,0.06558505,0.009457021,0.012705688,0.034490377,0.040914197,-0.01600407,0.01591691,0.054627907,0.034818422,-0.014498251,0.08391487,0.0010744786,-0.010150543,-0.005999566,-0.052386347,1.0
Backdoor.Graybird-1d17564930dc9cfdb8bf4483ba9763d17dd3f549facfdbe21ad18447663adedd,0.07048759,-0.03694364,0.11162106,0.029684858,-0.08311319,0.00074428786,-0.048922557,-0.0021202604,-0.073691785,0.05712889,-0.16310696,-0.12587507,-0.051589165,-0.07635038,-0.018725209,-0.005509436,0.03274447,0.08186364,0.07979527,-0.07287351,0.118996136,0.0023898324,0.08367982,0.055669326,-0.13275829,-0.0045285556,-0.14370987,-0.07597649,0.020688936,-0.033633415,0.077039935,0.045489535,0.16017959,-0.12269744,-0.08934827,0.08749835,0.17861505,0.02397534,0.046082556,-0.0807127,-0.04501889,0.26245454,0.04387247,-0.07623784,-0.13050267,-0.17846267,-0.08575494,0.065825514,0.01680719,0.0014628109,-0.0053967456,-0.044257365,0.05495639,-0.018293198,0.042731415,-0.052606266,0.047154963,0.054629445,0.011104336,0.011041114,0.021769118,0.037858427,-0.010876462,0.020764723,0.051890105,0.029717771,-0.03266577,0.052507892,-0.0026192826,-0.014251938,-0.018211566,-0.016260954,1.0
Backdoor.Graybird-1d2b95795f54a30db2241b441843c8baa1319704e0bd48f022ac919e71899787,0.10427647,-0.033286795,0.12634316,0.0422299,-0.05337086,-0.0009722175,-0.033683147,0.002544972,-0.05609736,0.039409783,-0.118748136,-0.10292606,-0.03393732,-0.048694264,-0.022887068,0.0118415775,0.040846698,0.027659083,0.052203596,-0.08165656,0.12694696,0.037559733,0.105566226,0.07306271,-0.1675206,-0.02173241,-0.14103164,-0.085704595,-0.008638322,-0.043597147,0.12053802,0.041353643,0.19043627,-0.13363719,-0.10274535,0.11127771,0.1895104,0.016537962,0.043176156,-0.07919986,-0.04994391,0.24286602,0.035830665,-0.074439004,-0.11065297,-0.17922164,-0.07148876,0.05178924,0.017574308,-0.022570178,0.010647116,-0.06595854,0.043296993,-0.037157945,0.03907832,-0.048231237,0.05541255,0.038311567,0.0017870789,0.025433071,-0.00602667,0.059127737,-0.023003578,0.029861463,0.06399086,0.009582136,-0.047536578,0.06713381,0.012928938,-0.025388,-0.048339285,0.013569869,1.0
Backdoor.Graybird-1f987748aa836fcff784691f0f5195eaed0187c12906f016b7bbad1f9b10d20a,0.04400544,0.021331673,0.11117388,0.0150700975,-0.122293636,-0.0033741032,-0.0035141925,-0.0103948815,-0.07883572,0.051884104,-0.14793517,-0.13392468,-0.028268125,-0.045662858,-0.010586587,0.0044643744,0.049928118,0.02619608,0.04599776,-0.073496394,0.07339763,0.049933348,0.07245705,0.054872256,-0.1328669,-0.019256009,-0.11757174,-0.069417864,0.00081799534,-0.035597235,0.08351876,0.030078433,0.18712421,-0.12229655,-0.08820102,0.104749136,0.21701947,0.023981303,0.054923937,-0.09791564,-0.061544396,0.27448535,0.059768084,-0.067972474,-0.12990363,-0.15692683,-0.089475155,0.057656873,0.01654287,-0.010555955,0.009043655,-0.052035704,0.038880304,-0.03421027,0.02959737,-0.029853329,0.03973861,0.045726337,0.019791871,0.026232183,0.0032907098,0.042406738,-0.008303778,0.0059376666,0.07372742,0.016374433,-0.035810225,0.06072399,0.005428918,-0.02480278,-0.037475724,-0.024105184,1.0
Backdoor.Graybird-1fe3c46136004caa9f4598dbd12db50b539bc0e44de422870a0150ccdf6c4297,0.0710628,-0.030118076,0.11034692,0.057552155,-0.06060495,-0.002891829,-0.040819827,0.002074874,-0.033441436,0.051765423,-0.13640654,-0.09771151,-0.028705735,-0.05637785,-0.035818998,-0.00062530447,0.04337114,0.067081235,0.052468024,-0.08226742,0.1367269,0.0036473626,0.0950127,0.064047016,-0.1638198,-0.00053647906,-0.14663878,-0.08285313,0.010952765,-0.050960246,0.11709429,0.04862909,0.21480668,-0.16786942,-0.120657094,0.10170395,0.15857135,0.016308771,0.029309642,-0.061697066,-0.04031217,0.25156894,0.041186213,-0.077422805,-0.08411812,-0.17693868,-0.064704135,0.053743273,0.016319295,-0.0320194,-0.024959011,-0.09502266,0.07299135,-0.055064544,0.06350326,-0.080630474,0.044113223,0.056715723,0.030483235,0.055723015,0.004971225,0.06348765,-0.016861113,0.018654283,0.061020516,-0.013010087,-0.03360689,0.04142081,0.015377131,-0.036434934,-0.05731597,0.014554214,1.0
Backdoor.Graybird-201267f2b8c394b866ce09e16997ce04701a0bdaa1f5651e81d1675af4a567a6,0.1305314,-0.0018023379,0.10938166,-0.013271311,-0.07400071,-0.0005536473,-0.026723458,0.0017452227,-0.11047069,0.044770483,-0.15731564,-0.12970446,-0.047137752,-0.018403659,-0.0011016036,0.03447649,0.033781473,-0.00053359463,0.04790711,-0.0719795,0.11675268,0.058131687,0.11421423,0.059988312,-0.16131794,-0.026701052,-0.1288737,-0.07018145,0.00525178,-0.021459619,0.06748651,0.022391846,0.12334703,-0.10678269,-0.06989269,0.0772334,0.2350821,0.026239779,0.062484346,-0.10567375,-0.06377542,0.27510956,0.04677607,-0.06626238,-0.17432557,-0.19789112,-0.10403411,0.07863092,0.016935533,0.014107852,0.045233354,0.01236382,-0.00082889583,-0.008972875,0.006257462,0.015777256,0.052665405,0.021005746,-0.029162602,-0.033972904,0.02932324,0.020151246,-0.010259424,0.021581467,0.05011214,0.07594576,-0.047600653,0.10497925,-0.000118419164,0.0077818874,-0.0062558986,-0.030750945,1.0
Backdoor.Graybird-20459a8ebc99703a2171b85dc321c41ccb8fdd67b606ac75c890156db25d67e2,0.08002624,-0.035587944,0.12502666,0.065996155,-0.07077525,-0.0044534635,-0.03578214,0.011423917,-0.06468004,0.056966998,-0.15645452,-0.12052316,-0.040030885,-0.065114625,-0.02898092,0.0071303644,0.039189994,0.06736925,0.07209169,-0.07790993,0.13368592,0.02175756,0.10441769,0.07288438,-0.16269985,-0.011212192,-0.1369488,-0.07409032,-4.8892987e-05,-0.045052353,0.11308112,0.041540563,0.17973702,-0.13689482,-0.09766543,0.08949303,0.14756145,0.01946101,0.033041246,-0.061538205,-0.037002876,0.21926087,0.027405495,-0.06897211,-0.08350153,-0.17009982,-0.06264737,0.04816349,0.011266508,-0.01743091,-0.008464882,-0.06402703,0.05555013,-0.029352473,0.046736237,-0.06987054,0.05098004,0.04941683,0.009698441,0.02244233,0.008276261,0.055698004,-0.028519887,0.03204748,0.046877176,0.010389887,-0.04436967,0.06806941,0.010595793,-0.019929597,-0.06427721,0.013956442,1.0
Backdoor.Graybird-21f994f2239ccaaddf25e98859f58e609dbc589127160c943dd884506d0f1e95,0.08022322,-0.039303664,0.13621446,0.047682628,-0.066375524,-0.0004803849,-0.053994007,0.005965367,-0.057975538,0.036375627,-0.11920361,-0.09290583,-0.030359913,-0.050403606,-0.015689887,0.0007976975,0.04372234,0.050603706,0.06535125,-0.08542746,0.13531898,0.02606241,0.10318766,0.07252016,-0.1578918,-0.006964692,-0.14437285,-0.078835145,0.0062593343,-0.039239213,0.09990382,0.05254833,0.17981967,-0.14721838,-0.09619936,0.08343865,0.15726474,0.018940713,0.03764228,-0.06398181,-0.041672107,0.23386693,0.04136661,-0.07703904,-0.099158294,-0.17316787,-0.07327223,0.060251337,0.019168505,-0.0161888,-0.0021284607,-0.0597362,0.062146116,-0.03304474,0.05083238,-0.06290715,0.055673964,0.049828913,0.020837903,0.025197122,-0.0014581924,0.059879757,-0.014507701,0.033104,0.07032233,0.017905088,-0.06279086,0.07293197,0.024033325,-0.015309316,-0.060020767,0.022217207,1.0
Backdoor.Graybird-22772293d3a3b20b3610ae1c06ab72da41745c57356905855180b45c5d43ae96,0.11186544,-0.0069911764,0.08678091,-0.030233705,-0.122311994,-0.0023712155,-0.06872483,0.0017938259,-0.12716408,0.044815704,-0.21005909,-0.1571423,-0.06724588,-0.0329059,0.0009943938,0.014187034,0.035518315,0.03519641,0.059941534,-0.05691814,0.12384861,0.044008497,0.09763553,0.041829288,-0.1497211,-0.0076196883,-0.13500592,-0.065100506,0.022262111,-0.027361555,0.04256338,0.033881743,0.11994236,-0.10379225,-0.070898116,0.07402313,0.25786483,0.035155375,0.07767262,-0.11394217,-0.06606432,0.283018,0.05337283,-0.06549542,-0.1929064,-0.19666553,-0.1181058,0.07771531,0.02723708,0.037762556,0.04472042,0.017940754,0.0071586347,0.001601873,-0.0014187312,0.0072584758,0.044278905,0.037606973,-0.021835687,-0.03579254,0.05274621,0.008134123,-0.009792132,0.011894753,0.056612507,0.09212713,-0.033111636,0.098555125,0.0011629926,0.0034940923,0.017726908,-0.060927268,1.0
Backdoor.Graybird-22c98fc9dac84f509083a90a332517ead8eb265fc53ddb1d16e5cfd0dab0ebe1,0.07736096,-0.024647517,0.10325535,0.027250417,-0.08279143,0.005675757,-0.027378311,-0.0015290608,-0.07843112,0.058633596,-0.17220284,-0.1266497,-0.054762945,-0.06515936,-0.013465377,-0.0028048581,0.03678265,0.087214164,0.0836523,-0.077853434,0.11586171,0.0054588635,0.097368225,0.0643178,-0.13541032,-0.0063332506,-0.12767416,-0.06635157,0.0233033,-0.03978133,0.056569695,0.049981385,0.13601214,-0.112112895,-0.077085905,0.07380545,0.18448763,0.03241144,0.053168163,-0.08315011,-0.04771281,0.27336115,0.045852363,-0.07447671,-0.15311205,-0.20571329,-0.09386415,0.075184666,0.0199046,0.015927425,0.009091889,-0.012913217,0.038862593,-0.0075115967,0.028888173,-0.027770013,0.0408843,0.042610444,0.0033278172,-0.0062111435,0.03667675,0.016951907,-0.010533199,0.012661716,0.050092448,0.062993646,-0.03009961,0.05320156,-0.0065264823,0.0049703787,0.003737134,-0.0093292305,1.0
Backdoor.Graybird-23259ea20d4f481cdc1bf58894f6280ddbe3fc56d7bfbaaf11bafdf4840f8c2c,0.12181671,0.0058486443,0.12460735,-0.032757804,-0.09641911,-0.010884301,-0.034944855,-0.00030348313,-0.11261912,0.032281835,-0.15310203,-0.13009784,-0.0492392,-0.028621165,-0.01938714,0.030407518,0.021312527,-0.011690067,0.028079284,-0.037937474,0.09180472,0.04228282,0.0653217,0.027108464,-0.15641952,-0.02094031,-0.13083751,-0.06622841,0.007333884,-0.029475536,0.0728937,0.041655038,0.14821635,-0.13789256,-0.088504575,0.09475533,0.24762525,0.040251378,0.060295157,-0.10382884,-0.05996739,0.2713488,0.0614516,-0.059713572,-0.18317254,-0.17274374,-0.10866989,0.061838564,0.029772276,-0.009943522,0.060776304,-0.01439859,0.010294962,-0.039364617,0.009836852,0.0072431862,0.055212274,0.030086229,-0.014546362,0.00027527116,0.010835142,0.043727517,-0.018820059,0.011527323,0.04708656,0.073116854,-0.022829687,0.116266295,-0.00018453304,-0.0102813495,0.0061243046,-0.06933385,1.0
Backdoor.Graybird-2486e00f3531d89506d2a87525b723d2508b4b8c0040824956aeca41b97d17d7,0.11954972,-0.039687634,0.1274397,0.021113163,-0.06092558,-0.006804548,-0.022900172,0.0046265256,-0.097670205,0.036005683,-0.14760907,-0.1153957,-0.04631406,-0.025103418,0.002742832,0.012910316,0.043813825,0.010334766,0.059977148,-0.07676381,0.122663364,0.043361917,0.102594174,0.06673053,-0.14949505,-0.015609534,-0.12074125,-0.074118726,0.01781925,-0.022154504,0.048871815,0.021235038,0.12596515,-0.1180349,-0.072575115,0.07202624,0.23440683,0.02680068,0.06661804,-0.11386644,-0.06621969,0.30274105,0.04764779,-0.072768904,-0.19660734,-0.22510754,-0.11246897,0.07915683,0.028778093,0.017207684,0.04149565,0.010831189,0.007266798,-0.0071581965,-0.0011306969,0.009404862,0.04277403,0.030289408,-0.02736757,-0.034585733,0.02904004,0.025436511,-0.015635176,0.024176614,0.04150848,0.08495512,-0.034543384,0.088730395,-0.008219154,0.005644235,0.009986722,-0.024087265,1.0
Backdoor.Graybird-2565563f99f161ad465a603000f5a2440b83b12413930bac01d20c6d3924f79e,0.09180953,-0.053331424,0.10769934,0.04428577,-0.077989906,-0.00087741,-0.05512445,3.547529e-05,-0.049091768,0.049060836,-0.15667194,-0.10799121,-0.04201599,-0.0770718,-0.02181929,-0.0017968527,0.03857739,0.08056026,0.08913594,-0.091513336,0.14916478,0.015314668,0.12155854,0.07901604,-0.15207313,-0.0040909173,-0.14234267,-0.077557184,0.008426648,-0.043179102,0.094429985,0.05066169,0.16649014,-0.12705462,-0.08112171,0.08617093,0.159164,0.027112065,0.051953062,-0.07655524,-0.04453086,0.23856615,0.027436405,-0.074374676,-0.1082033,-0.19549844,-0.062828,0.06149076,0.011877516,-0.0053494098,-0.012071439,-0.052615333,0.04682512,-0.023662494,0.04995308,-0.05934231,0.044693142,0.047177523,0.009804223,0.010568524,0.011530083,0.0363236,-0.014248423,0.036871508,0.04473497,0.025993736,-0.0442866,0.05223668,0.012625029,-0.0063642696,-0.03847356,0.025141438,1.0
Backdoor.Graybird-272ea0be5ed16c1b6a1d0149a85107e382cf7dab94eb40fb49ec17acd3c00b0b,0.094931655,-0.03782886,0.113831654,0.071681455,-0.056143183,0.0007525678,-0.0018985198,0.0011813636,-0.095805354,0.039559085,-0.15463057,-0.12351923,-0.058351163,-0.040034335,0.018301286,0.009703749,0.051626857,0.042613037,0.079286695,-0.08926871,0.12246204,0.041767277,0.11012358,0.08151763,-0.13630857,-0.016362121,-0.12291185,-0.07000597,0.004299499,-0.02077395,0.06504804,0.031733945,0.1359013,-0.11223232,-0.07663396,0.075252794,0.1787771,0.02314903,0.047610793,-0.07830789,-0.043056317,0.2575873,0.033762656,-0.08774123,-0.14802074,-0.20410137,-0.0996935,0.08127689,0.02660037,0.031964865,0.006903413,-0.0064958464,0.043552298,-0.003520026,0.029446397,-0.030479036,0.0357196,0.056446575,-0.012377137,-0.018475266,0.055809382,0.034156144,-0.016818173,0.029214801,0.050686825,0.056435898,-0.05222361,0.060784016,0.011649689,0.00064607745,-0.019594144,0.01559767,1.0
Backdoor.Graybird-27c0a52403d572f0ee5abc626a7f5cd834ed6a5b7eeebeadc848a5cc091eb5d1,0.12987845,-0.024571965,0.10038484,-0.026173918,-0.09708965,0.0018991965,-0.061145302,0.0018508667,-0.10055955,0.05388386,-0.17989287,-0.14195071,-0.055588543,-0.037649054,-0.0063462607,0.020639421,0.03293351,0.014849301,0.042652234,-0.05782781,0.115859225,0.040884126,0.090908624,0.043932132,-0.15299876,-0.012637377,-0.12740788,-0.07208589,0.022348968,-0.02503364,0.04944913,0.02491561,0.10730409,-0.12046191,-0.07337424,0.06823731,0.2227914,0.03160829,0.06835835,-0.11036466,-0.058862146,0.26524517,0.04901349,-0.058861356,-0.17711575,-0.17668241,-0.11581112,0.072457366,0.024820756,0.019728431,0.04247239,0.021945773,0.0062946603,0.0030321428,0.007222489,0.016798602,0.04012702,0.02518647,-0.025659868,-0.035676286,0.025511889,0.014687942,-0.013299964,0.019372933,0.057206996,0.085186616,-0.03187543,0.10527525,-3.5128345e-05,0.0020096845,0.015662901,-0.03638681,1.0
Backdoor.Graybird-27d4f0a222bbb2285e395dcbed061a6eeb91a69d6c8cab8c98fd1ffb244c699a,0.09963785,-0.06531212,0.0855977,0.047209777,-0.040986367,-0.007224455,-0.02342571,0.0016790143,-0.064209305,0.050403092,-0.14614487,-0.10017141,-0.037238177,-0.040691923,0.005169922,0.011040239,0.0396626,0.046740025,0.07122367,-0.08071575,0.1451808,0.0330292,0.122819066,0.07815595,-0.15185006,-0.016123744,-0.13997573,-0.07693152,0.015773255,-0.038770188,0.07211512,0.045651257,0.13669246,-0.120383464,-0.07981533,0.073561415,0.18087374,0.026966944,0.047954783,-0.08474761,-0.04884765,0.2590174,0.033100378,-0.07830928,-0.13262518,-0.21598284,-0.08364885,0.07766987,0.020020984,0.013131653,0.0058430424,-0.017888559,0.02541806,-0.008138106,0.020615984,-0.031926967,0.028562773,0.044306736,-0.011179851,-0.016548814,0.036494233,0.03159407,-0.017359938,0.030056303,0.041635223,0.047159757,-0.045247905,0.056163665,0.0036819486,0.0030060124,-0.021969406,0.009798101,1.0
Backdoor.Graybird-2821c9781c0351109c2a8b9633972e2c71f46371b648d2103c2741f560b60a1b,0.11548567,-0.012427143,0.11857862,0.037097037,-0.050758984,-0.0060844338,0.0055879895,0.0028271852,-0.09876084,0.046561643,-0.15639552,-0.1396712,-0.050165962,-0.043118734,0.007912134,0.01004396,0.049628753,0.04376535,0.071193814,-0.074680485,0.111935854,0.0449302,0.10084788,0.07263757,-0.1609255,-0.0146395685,-0.13326046,-0.08055681,0.00025646316,-0.04086622,0.0978543,0.03466906,0.15494747,-0.09817449,-0.0750453,0.10081045,0.21225286,0.024350919,0.056461934,-0.09490343,-0.03671753,0.25798836,0.027182817,-0.073958494,-0.14553058,-0.20351069,-0.09097964,0.06241667,0.018236622,-0.0069733905,0.015564214,-0.024731101,0.018675627,-0.022245485,0.02318881,-0.01148056,0.051391173,0.03925564,-0.012063326,-0.0220069,0.029092204,0.03413887,-0.02759476,0.03107033,0.02962021,0.058956053,-0.030123461,0.08652724,-0.0030898638,0.003913489,-0.009201002,-0.021931708,1.0
Backdoor.Graybird-2860ba35f778ed52b8487fe93a77c05a2d49222ba8f6cb81877c1779d13c1f4a,0.07202233,0.005706439,0.14551246,0.01150234,-0.12156806,-0.009064492,-0.012199145,-0.010987767,-0.12017611,0.04458367,-0.17748486,-0.15068553,-0.04855959,-0.04623318,-0.005767267,0.0062052356,0.04600209,0.023038372,0.056907136,-0.07026098,0.09992856,0.050122328,0.08566994,0.06829888,-0.14091633,-0.016875448,-0.12146567,-0.064941496,0.0045063435,-0.024739312,0.06114736,0.035314616,0.134252,-0.11083805,-0.07293251,0.083552375,0.22510403,0.023701286,0.057743374,-0.095832184,-0.057826754,0.26951507,0.052046984,-0.06067046,-0.16953509,-0.17562857,-0.10404538,0.07214936,0.021001818,0.016638786,0.028250083,-0.0070534213,0.014138397,-0.017905952,0.008182465,-0.0032167968,0.053846072,0.039775655,-0.0031372511,-0.0038515648,0.01610462,0.023986544,-0.013191807,0.018392427,0.057935487,0.067691386,-0.036047187,0.090539396,0.0031906692,0.002984521,-0.004117909,-0.026340112,1.0
Backdoor.Graybird-2a1858cfa17d4f07292362a2719d61c97a487d29a5adf45d8e8b32f3252331a2,0.054903585,-0.05684588,0.123398684,0.077547446,-0.08641685,-0.0006511147,-0.027022539,0.0022489955,-0.028154135,0.060053963,-0.12005037,-0.095302895,-0.027606597,-0.07732137,-0.04520633,-0.015570154,0.05100044,0.08058199,0.073000796,-0.10009219,0.14001615,0.022107186,0.11726312,0.08022741,-0.16536812,-0.009631164,-0.15803736,-0.0893232,-0.003094354,-0.05164074,0.1387772,0.049312934,0.21649902,-0.13212888,-0.097593196,0.11793003,0.14881678,0.016221426,0.041210562,-0.06383295,-0.036205597,0.24688363,0.020831056,-0.07698651,-0.07202318,-0.18768291,-0.03823376,0.04048931,-0.0079776645,-0.044478223,-0.024148965,-0.11722349,0.06144521,-0.052437328,0.06801016,-0.0783602,0.057722144,0.03724438,0.026385844,0.052453455,-0.0340061,0.065860204,-0.024705565,0.04036438,0.045013294,-0.033210583,-0.039991964,0.040824577,0.020586476,-0.021257354,-0.07918004,0.03230932,1.0
Backdoor.Graybird-2a7c74a91f4b6f4ed632d97fc3ee8835a7a615cb15dbf6ecbb96526d06f64db6,0.06686089,-0.03184593,0.105514124,0.028537944,-0.05632116,-0.003449596,-0.0077877548,-0.00053733314,-0.031257413,0.05378615,-0.1152335,-0.104009524,-0.032310724,-0.079602435,-0.042258173,-0.005404825,0.044831533,0.049149595,0.056650702,-0.080129005,0.10643033,0.019236896,0.08415541,0.06700587,-0.15154871,-0.0038479222,-0.14032948,-0.06894331,0.0025346316,-0.039243117,0.088601284,0.05552193,0.20793352,-0.15300015,-0.10527954,0.097520664,0.1769561,0.018842349,0.035080295,-0.07274663,-0.06220963,0.27833858,0.055069543,-0.068540476,-0.11713515,-0.17263365,-0.07892242,0.054829385,0.023758452,-0.03458383,0.0071206694,-0.08894278,0.053345997,-0.057119478,0.048808675,-0.049353592,0.03292397,0.038620748,0.021297768,0.047021445,-0.011746597,0.04565066,-0.007191086,-0.0016542586,0.0658094,0.0068319077,-0.03687446,0.052271366,0.006011274,-0.025974236,-0.033344787,0.0032867184,1.0
Backdoor.Graybird-2b470ddd183ec9f15d7cef2e1f2daf7243e1deef16fb6e74cb75b67c5d25df18,0.058241643,-0.00960054,0.11551648,0.052886598,-0.06699324,0.0021902497,0.0020225544,-0.009066591,-0.07757233,0.053707775,-0.13270737,-0.12583695,-0.01744193,-0.043532163,-0.024666384,0.006339253,0.054115202,0.008736367,0.045970313,-0.06687943,0.10928588,0.0397013,0.088651665,0.05794288,-0.15188767,-0.017751694,-0.13554955,-0.07165755,0.0021666915,-0.036537427,0.11421054,0.048562992,0.20168832,-0.14053641,-0.10737429,0.106848225,0.18105155,0.01769081,0.03635751,-0.069380164,-0.04356084,0.2625344,0.038889904,-0.08766354,-0.11161219,-0.192556,-0.076505326,0.059754197,0.011945689,-0.046080288,0.013016346,-0.085109204,0.04705073,-0.06400117,0.046672516,-0.043993384,0.056649424,0.044103846,0.00869736,0.041773457,-0.0055337,0.06923586,-0.02810425,0.026447857,0.036526415,-0.00351032,-0.029980667,0.07338592,0.013058682,-0.023861427,-0.051296942,-0.020927744,1.0
Backdoor.Graybird-2ca870cb512099a0df67fefee9eb2bf8fd53cc078919852144d6cbff26456347,0.09016748,-0.044652075,0.13061924,0.045067538,-0.06372501,0.002135323,-0.013997324,-0.0006490309,-0.046570912,0.05161603,-0.12923734,-0.092023216,-0.051533982,-0.08302169,-0.03320713,-0.0074060946,0.04603455,0.091274045,0.084833585,-0.089105785,0.11451328,0.013885295,0.09037792,0.060886525,-0.15866472,-0.0037948724,-0.14437778,-0.08173867,0.007928796,-0.039379656,0.101368256,0.056929182,0.18607499,-0.11833953,-0.08818735,0.10727751,0.17745665,0.024917502,0.041108362,-0.08582405,-0.04176163,0.24034739,0.03140949,-0.074682094,-0.115170226,-0.19238827,-0.0588276,0.053019084,0.008355362,-0.017983254,-0.012897629,-0.069924556,0.05492897,-0.038177524,0.049465522,-0.059321113,0.036434818,0.044075504,0.012430776,0.030961633,0.0051243934,0.04326274,-0.020542858,0.03030904,0.042743336,0.01815546,-0.04162445,0.04959571,0.011296195,-0.017206,-0.03980345,0.017744241,1.0
Backdoor.Graybird-2ec9be730d82cf10af338e7f25781006744b9dda9c9ff484acfd2de501b05e24,0.092830226,-0.047374524,0.14026597,0.07149792,-0.078406416,-0.0016571516,-0.03438741,0.0026994206,-0.062371083,0.041096404,-0.12115825,-0.102405116,-0.029112095,-0.053478267,-0.019712744,-0.006944595,0.04849196,0.048917208,0.063720256,-0.08913195,0.145409,0.04032633,0.12864463,0.0740981,-0.1677458,-0.016372358,-0.14128447,-0.075215146,-0.010994664,-0.037458066,0.12142297,0.04318578,0.1881139,-0.13368192,-0.10598594,0.09849751,0.15395726,0.022170896,0.043273095,-0.06828892,-0.04072286,0.23557286,0.024890546,-0.06889727,-0.08627265,-0.17813018,-0.056787036,0.054871954,0.0101220915,-0.025647864,-0.020050611,-0.07043532,0.06130652,-0.032543767,0.05518352,-0.06364559,0.06305904,0.043295383,0.022392768,0.037656315,-0.013374262,0.05541594,-0.023035018,0.034826465,0.06530845,-0.009063709,-0.062893055,0.05665843,0.014981987,-0.017367853,-0.077986754,0.028831098,1.0
Backdoor.Graybird-31e4807b0f375d8f919a3037f2764686a46d2e41bd957f8edd8f771621a3e53f,0.12694111,-0.0013166075,0.12743345,-0.015311164,-0.08652089,-0.004213619,-0.013186413,-0.0021241144,-0.10692611,0.042947847,-0.1310186,-0.13480712,-0.033073388,-0.0010865352,-0.009638175,0.032643992,0.049095105,-0.045847982,0.023974,-0.059044763,0.09694827,0.07658135,0.09894822,0.06543476,-0.15867431,-0.02474904,-0.12328805,-0.06974694,-0.002589643,-0.021289494,0.08816829,0.021199092,0.15781108,-0.11351447,-0.08171049,0.09874676,0.2667765,0.03056991,0.070273444,-0.12128873,-0.07021787,0.29922396,0.058591574,-0.070674375,-0.18945035,-0.19559231,-0.11393941,0.067889325,0.015285215,-0.00095638837,0.05721554,0.009326752,0.0020341,-0.031477816,0.005601213,0.026669452,0.057720717,0.012574962,-0.019254496,-0.023255331,0.0050169774,0.02995009,-0.01514999,0.020847617,0.04771691,0.06372494,-0.04302551,0.11319597,0.007246314,-0.009317672,-0.0058833794,-0.04714349,1.0
Backdoor.Graybird-32cbc565918830a83537aef008c3587ea24d2172c7ed3563ac2f4a7506a7a00d,0.082410075,-0.047826447,0.10737536,0.04113888,-0.097067416,-0.0034761906,-0.07416202,0.0054413425,-0.094433494,0.044565216,-0.17239083,-0.13612233,-0.056704335,-0.056604564,-0.007584888,0.005971812,0.043958493,0.06024689,0.076949276,-0.08823927,0.14798379,0.019278638,0.11100044,0.05744888,-0.14340481,-0.009935767,-0.12345619,-0.075356275,0.0219886,-0.02606999,0.053700402,0.043797582,0.12931657,-0.11375069,-0.07932473,0.061258454,0.1717013,0.028970854,0.051376313,-0.09139338,-0.06029304,0.2646368,0.042334877,-0.07819063,-0.13794892,-0.19901994,-0.09555371,0.08369905,0.025939217,0.024774,0.0065758657,-0.010806567,0.039581474,-0.0013629223,0.038160354,-0.039714742,0.045062255,0.051876634,0.0053961966,-0.0066606696,0.036382228,0.02531124,-0.017131994,0.035005942,0.0680988,0.052500702,-0.04592504,0.062092163,0.013102551,0.00039619798,-0.032328814,0.016665542,1.0
Backdoor.Graybird-33e8337aad51e26cebf92f17cdc0c3ffa5ed55c74de4e7cd5b92db2d75e15339,0.123655416,-0.029487409,0.16598019,0.006059008,-0.10617164,-0.007851054,-0.050424926,0.005289184,-0.04212739,0.03909488,-0.09751045,-0.089982346,-0.03231688,-0.0570387,-0.027104944,0.0076250746,0.043448266,0.04688238,0.073122896,-0.07871824,0.119823374,0.04895354,0.1088318,0.068658955,-0.16340344,-0.02469822,-0.13389686,-0.082896486,-0.002942368,-0.029827153,0.11757381,0.032209445,0.19373451,-0.12318091,-0.10151256,0.11508481,0.20078814,0.021936877,0.0642034,-0.09554272,-0.062993415,0.23662697,0.045424223,-0.058820292,-0.11416587,-0.15569642,-0.06980191,0.05404952,0.019991398,-0.013644049,0.011541144,-0.042525228,0.0350146,-0.026335137,0.02826915,-0.03826109,0.04681329,0.0164767,0.0017201996,0.014666121,-0.010893218,0.028648581,-0.018369786,0.036101677,0.08385644,0.029929059,-0.070630595,0.07195801,0.021161363,-0.030227335,-0.0618364,0.03747002,1.0
Backdoor.Graybird-340c5cae28749592b0ea9453bd4f7d109b2fe2c8a03041e5da9961a7339eaa34,0.07029113,0.012583274,0.09334667,-0.024983222,-0.13075097,0.0040946472,-0.060965326,-0.0032088454,-0.10060461,0.052082956,-0.16672814,-0.1457312,-0.027687313,-0.016547987,-0.011243567,0.011574105,0.030116897,-0.0034101321,0.040681627,-0.054839835,0.097369306,0.040778577,0.082539365,0.050761245,-0.14189638,-0.015287909,-0.107790366,-0.060805276,0.0069445507,-0.020568404,0.056980036,0.026178362,0.15912467,-0.13549621,-0.092193075,0.078604594,0.21464194,0.030459963,0.059205208,-0.102006264,-0.06013707,0.26591736,0.057164725,-0.06445989,-0.14770871,-0.15766473,-0.10102479,0.06650613,0.03114302,0.008859142,0.03215572,-0.012567535,0.030624475,-0.02279993,0.01823362,-0.013019037,0.04932664,0.035780627,0.00859709,0.006529324,0.0138234245,0.029300427,-0.002241242,0.0013699126,0.07836918,0.034727503,-0.036565993,0.076583676,0.0069109234,-0.018345697,-0.01600996,-0.029904602,1.0
Backdoor.Graybird-3472255f40fa8003a08d8c641d9d2c5d0f749bf4c0420fc9a22040103a97c35b,0.068181425,-0.031156167,0.1406518,0.055492576,-0.09130533,-0.0035195306,-0.050260264,0.0049255826,-0.035387803,0.051193826,-0.11642749,-0.09300495,-0.023420837,-0.066172495,-0.05163346,0.009500967,0.0430664,0.04923448,0.056598824,-0.08138436,0.13656813,0.017746342,0.11352903,0.06546244,-0.16417938,-0.008128872,-0.151546,-0.07780803,-0.0018755865,-0.051816843,0.12841067,0.055213768,0.22870216,-0.15496004,-0.11237588,0.10601756,0.14271359,0.018687323,0.031195574,-0.051158506,-0.03843058,0.22756422,0.026813118,-0.076664545,-0.06609268,-0.1621325,-0.039209303,0.03362125,0.0013125493,-0.047607545,-0.02675598,-0.108444594,0.07145323,-0.058213077,0.06721129,-0.07990989,0.05924764,0.053469297,0.03224714,0.06452617,-0.035688452,0.06628984,-0.019812819,0.0380446,0.06871988,-0.01896033,-0.06483302,0.06050537,0.022178892,-0.033038605,-0.09027119,0.032032613,1.0
Backdoor.Graybird-3473cb362c74478f5f8d200d068fbf1806d2dca138264e942574fb7abd324b42,0.08149401,-0.058087133,0.10782559,0.06001831,-0.06330058,0.0072539523,-0.03779466,-0.0012212496,-0.06250504,0.04693021,-0.15153506,-0.11633482,-0.04239394,-0.053145427,-0.0030012997,-0.002948124,0.04271156,0.046980556,0.06753061,-0.07952694,0.12695712,0.030769123,0.111798525,0.069826394,-0.1379657,-0.0054524154,-0.129654,-0.06613964,0.014708126,-0.026471665,0.08192223,0.028099203,0.1414876,-0.1076533,-0.07597682,0.08194888,0.1641242,0.024766162,0.04635883,-0.077719085,-0.049821705,0.24101253,0.034676958,-0.06965115,-0.11693244,-0.20476373,-0.0784271,0.071214356,0.017975472,-0.00091056846,0.0033966214,-0.027158385,0.028018044,-0.015492198,0.024701005,-0.035755645,0.048699237,0.038452104,-0.0008170527,-0.0023274382,0.018415183,0.036208782,-0.02012494,0.033731356,0.03132468,0.03821031,-0.04425667,0.062005267,0.008855285,-0.0011914637,-0.026737073,0.001999806,1.0
Backdoor.Graybird-349a9ef306724d4e0a569074528204ac93186fc10679de7c0fd4117b7e674adf,0.08716655,-0.03098658,0.107076064,0.055566095,-0.07582381,-0.00475713,0.003347791,-0.004215344,-0.07456754,0.05663817,-0.15055901,-0.12671421,-0.030172559,-0.028829992,0.00063979515,0.007945135,0.05082022,0.016327208,0.065372825,-0.08754212,0.12582208,0.05291445,0.11842868,0.09029108,-0.15336074,-0.021394797,-0.12817122,-0.078044064,0.006798281,-0.03442171,0.08352612,0.033801865,0.13724181,-0.118657574,-0.07953428,0.08704361,0.19736165,0.027125817,0.06561332,-0.09134193,-0.05083688,0.28384587,0.04644653,-0.08845434,-0.14321493,-0.21989061,-0.10265961,0.07346671,0.015032156,0.008038267,0.014296714,-0.012584239,0.013839475,-0.0066235615,0.020634329,-0.01151608,0.0353774,0.03802794,-0.01093369,-0.01975312,0.023124682,0.018100735,-0.006294437,0.024736501,0.057396714,0.05063265,-0.04247739,0.07277429,0.011889907,0.005711544,-0.02363612,-0.000103479,1.0
Backdoor.Graybird-34cb2e3660a417e83f902c990f20b3d0efa6e84ad20a7c769f2944cc333bc47b,0.059053395,-0.03960879,0.13094164,0.07932435,-0.080395415,0.005817106,-0.016198497,0.0051414883,-0.063855544,0.04739393,-0.14104778,-0.118216544,-0.041203216,-0.05807627,-0.018469973,-0.016558452,0.05585128,0.07498958,0.09207775,-0.105173774,0.12785101,0.031535167,0.1168402,0.08796395,-0.1560873,-0.008876499,-0.13613592,-0.07043041,-0.00031112216,-0.033435773,0.097494714,0.042330004,0.17814559,-0.1189583,-0.08915444,0.09944957,0.16021949,0.015167493,0.042844307,-0.06988853,-0.047403034,0.23708405,0.03648318,-0.08371619,-0.094454356,-0.18455467,-0.07172543,0.069315016,0.015660549,-0.003415083,-0.02326721,-0.061235014,0.05530116,-0.02805329,0.04471572,-0.071613096,0.05081031,0.05420823,0.023195455,0.023122493,0.0148531115,0.046007298,-0.015813539,0.025179472,0.06948162,0.006193189,-0.061582267,0.0424978,0.013443458,-0.012241077,-0.061665945,0.038053304,1.0
Backdoor.Graybird-3512ae0eba2c3f6e4e6195c0e1bd70b9a9e3b3d7708f403ed4b5e281e4a1a120,0.053246032,-0.072407246,0.1292875,0.10386452,-0.07564188,-0.0036445868,-0.037437357,0.006881412,-0.031365268,0.055341464,-0.13551441,-0.11113337,-0.03333791,-0.085668355,-0.027418893,-0.014498154,0.05404726,0.1029693,0.097286485,-0.108967304,0.16412975,0.01465275,0.1340169,0.09646886,-0.15056574,-0.0025075919,-0.14204654,-0.07894686,0.008515267,-0.04463464,0.10968331,0.045813117,0.16166045,-0.11381375,-0.09052504,0.07808469,0.12134285,0.012489114,0.041499518,-0.051132526,-0.04236224,0.23734419,0.02081673,-0.074658595,-0.07960604,-0.20828494,-0.051598452,0.050926425,0.0075661433,-0.020936351,-0.035001226,-0.07011183,0.06326521,-0.026683023,0.052660294,-0.07510194,0.04695275,0.050255336,0.023851061,0.02680497,0.0012916009,0.057803877,-0.015419773,0.0519218,0.041772608,-0.0011020984,-0.06385351,0.047354173,0.020301115,-0.008780898,-0.07279188,0.05977594,1.0
Backdoor.Graybird-35808e06d5ab73341611da612e9a37252f07f2bc7801725569ebb49895f59a05,0.06456291,-0.06397377,0.14026465,0.090846196,-0.069005705,-0.004316703,-0.03526455,0.005477427,-0.005094689,0.06060802,-0.097550064,-0.07735571,-0.025302362,-0.08656803,-0.056352865,-0.011638671,0.052301303,0.084419124,0.08278171,-0.10985057,0.15160002,0.012402234,0.123498924,0.093367666,-0.16162008,-0.013098198,-0.15635553,-0.08651124,0.0020660385,-0.043516967,0.12168726,0.047606643,0.22414811,-0.15043879,-0.11374386,0.10362463,0.11671979,0.015638625,0.028644515,-0.045858156,-0.041053716,0.22685514,0.029848315,-0.071720995,-0.055739176,-0.16874029,-0.044102233,0.048050635,-0.0021237698,-0.026627935,-0.044060394,-0.10870962,0.07361815,-0.040497888,0.07028166,-0.10407668,0.035952542,0.048583545,0.044774033,0.061004635,-0.019019522,0.0629882,-0.0101430295,0.038126428,0.083630495,-0.038853824,-0.07188397,0.036078673,0.026718138,-0.034973305,-0.11114363,0.07519888,1.0
Backdoor.Graybird-365bea068bcb7c92f0dbf6868e8e6ac2d49feaae2d6464a4fbf9d4dc28ea4189,0.11963272,0.017250367,0.104722254,-0.069820374,-0.14188185,-0.004597301,-0.052922677,-0.008698008,-0.11637726,0.06775594,-0.19556148,-0.17433426,-0.043659825,-0.037207533,-0.016818084,0.015196795,0.026186476,-0.01972765,0.03974807,-0.034603115,0.06693633,0.061708704,0.073426135,0.03523438,-0.15107389,-0.01737447,-0.10896839,-0.06836547,0.0074028824,-0.021986406,0.048839588,0.022141697,0.12905362,-0.10825569,-0.075996056,0.08997923,0.29300684,0.034829278,0.08269594,-0.13151148,-0.079897135,0.3035022,0.07478248,-0.061958387,-0.21888587,-0.18064265,-0.13019608,0.07035397,0.034453113,0.012919923,0.076836094,0.022655826,-0.0050967983,-0.017328696,-0.0086029405,0.04821823,0.04526355,0.0068686493,-0.032911092,-0.03573166,0.01738174,0.0062266714,-0.004598266,0.00136864,0.059356216,0.09180665,-0.018457407,0.10906064,-0.01455795,-0.007201786,0.035082042,-0.081869766,1.0
Backdoor.Graybird-3796ba03a70668fe9a40cd399da7963d6dded9136682059f1443d5b493d37a83,0.07271171,-0.03378838,0.09570357,0.020874888,-0.10447732,0.00044417143,-0.053220104,-0.00045663607,-0.08811761,0.05226256,-0.18570971,-0.14398564,-0.049468283,-0.05535094,-0.019751772,-0.004693053,0.0443248,0.048305966,0.06774615,-0.077233896,0.12721081,0.031566806,0.103580065,0.06655212,-0.13606559,-0.0076823784,-0.12498489,-0.061957844,0.013303535,-0.034880083,0.05041084,0.04143487,0.1284463,-0.10882577,-0.07066326,0.07099235,0.20121543,0.022170039,0.06329033,-0.099487066,-0.06807211,0.2735023,0.044633344,-0.07119332,-0.14831945,-0.20332839,-0.10141372,0.075002365,0.025468769,0.014994094,0.013158499,-0.01417353,0.024095422,-0.012056536,0.019705238,-0.025796812,0.050676238,0.04279576,-0.008083376,-0.0070674233,0.015266245,0.026227323,-0.0016613149,0.01610624,0.052034277,0.049456798,-0.033444848,0.075880386,-0.0007036977,-0.0048201955,-0.010574389,-0.011210168,1.0
Backdoor.Graybird-3799f857d04896d9155038342c96e32490cab5ce67ddf33dab263184d95ea41b,0.063754536,-0.023020748,0.12584916,0.06850618,-0.07725194,0.00094133854,-0.0050437474,-0.00290379,-0.072119266,0.050668858,-0.13653952,-0.10387049,-0.03497288,-0.044390704,-0.009630287,-0.008909622,0.049446598,0.052379075,0.06505648,-0.07998136,0.12151004,0.04143338,0.10589966,0.071724616,-0.15588309,-0.012727633,-0.14139467,-0.08211341,0.0028580837,-0.04241701,0.10849894,0.037024703,0.18041438,-0.11623415,-0.08651676,0.10437286,0.18091401,0.016462227,0.045831613,-0.08448972,-0.039777573,0.26131037,0.028191958,-0.082154065,-0.123648115,-0.20069937,-0.07362891,0.06702648,0.015207617,-0.01853169,-0.000937994,-0.05710747,0.05053867,-0.03349803,0.046557125,-0.054795418,0.05233609,0.05085145,0.012314456,0.023650886,0.014413678,0.044292185,-0.019083697,0.030623237,0.050396334,0.008449667,-0.039198894,0.053984784,0.016084282,-0.007315914,-0.044409476,0.006493627,1.0
Backdoor.Graybird-3920bdcebc14233421ec142268749c0cc1358bba2af6e2e561ce3ac346db2d8e,0.08786082,-0.051757395,0.108100094,0.06781471,-0.059631627,0.0038650157,-0.04626785,0.005055736,-0.037091393,0.05795666,-0.113682486,-0.09497631,-0.01941089,-0.044569675,-0.027400507,-0.0023436395,0.047549393,0.057218086,0.06896182,-0.09547508,0.15331283,0.028171249,0.12136954,0.07994427,-0.17332001,-0.010267016,-0.15548407,-0.08388823,-0.0046762587,-0.045191623,0.12573867,0.047156945,0.22887062,-0.1650471,-0.12724917,0.11052254,0.13192089,0.014646162,0.03316362,-0.05615559,-0.036699623,0.23436314,0.031486373,-0.079541594,-0.0687131,-0.16365618,-0.05924944,0.04615348,0.009479277,-0.032844145,-0.032962687,-0.107603945,0.08124534,-0.05276858,0.06614618,-0.095081724,0.052519325,0.05459366,0.025640445,0.048175946,-0.007878182,0.062498037,-0.018321041,0.030463895,0.08288874,-0.029213926,-0.07165321,0.039334916,0.019547127,-0.032277662,-0.09562498,0.043189816,1.0
Backdoor.Graybird-3a81fabef97e62aaefc48fa799a00c00d531afda4d49a58e90161dfef215d056,0.08692081,-0.026697816,0.12420205,0.03718393,-0.087271646,0.0026120883,-0.012178791,-0.0023612708,-0.0802979,0.05377938,-0.17041352,-0.1297063,-0.05680452,-0.08557455,-0.017419456,-0.011324689,0.053399615,0.076559804,0.09252055,-0.09041811,0.121461354,0.026026541,0.11137212,0.07947807,-0.14831127,-0.0134167485,-0.13556103,-0.076268725,0.016284073,-0.04082668,0.08327675,0.042573333,0.14955498,-0.1096583,-0.08157429,0.08113574,0.19501978,0.025775883,0.059075546,-0.09501447,-0.056127314,0.2519624,0.04275257,-0.06706374,-0.13620594,-0.19156739,-0.0880302,0.06243095,0.020523995,0.0022902691,0.0013162879,-0.040180583,0.04244873,-0.018429317,0.03044599,-0.040692464,0.04134784,0.04108692,0.009638212,0.0034539062,0.026339607,0.03224063,-0.013829752,0.023016676,0.05878349,0.04271309,-0.044984538,0.05917083,0.003224409,-0.010564325,-0.021488236,0.001038045,1.0
Backdoor.Graybird-3ac9b0f65d3a26c5fe28cad9856d7119d2088f7cab78c37aa12348ea3b3bc000,0.058276888,-0.022121662,0.079443455,0.045670707,-0.076450974,0.0014538994,-0.012010217,0.00081788696,-0.091505736,0.05483834,-0.16383201,-0.13985582,-0.04194742,-0.018299842,0.0028976363,0.007520417,0.048442736,0.022046948,0.052527923,-0.07929743,0.12115999,0.044965256,0.10831214,0.07516229,-0.14013992,-0.016126728,-0.12307403,-0.06999086,0.0052901856,-0.03455629,0.062459666,0.04255508,0.16448295,-0.14558503,-0.09220006,0.077902846,0.1924695,0.02125913,0.04948828,-0.07406296,-0.055713695,0.26619002,0.04858989,-0.08379409,-0.14500168,-0.18592317,-0.1097858,0.0738416,0.030026527,0.0072176196,0.014321668,-0.03657647,0.052317623,-0.03384956,0.035956476,-0.044504054,0.04347765,0.06818996,0.016117757,0.019910349,0.038862184,0.03270739,-0.007940937,-0.002740317,0.07176151,0.027115384,-0.025403257,0.06281573,-0.0041370387,-0.021985698,-0.02073944,-0.016091105,1.0
Backdoor.Graybird-3b6230033969a93587fc1d795bd800de9478b437d400bfaa3a1fd7ab0b082102,0.09118138,0.0026679244,0.09817484,0.0100053735,-0.09983992,0.006018069,-0.004905162,0.0020973368,-0.113432944,0.049796138,-0.19602858,-0.1509483,-0.06310668,-0.038708337,0.012989145,0.013449428,0.04284343,0.040991478,0.06917835,-0.0647002,0.08879808,0.04168503,0.07694566,0.062234186,-0.11759664,-0.0074149277,-0.115605384,-0.06250211,0.020482989,-0.029679485,0.034683444,0.03474937,0.10032985,-0.09640262,-0.06696976,0.06296704,0.25065097,0.036691453,0.070221834,-0.11699535,-0.07167274,0.30713168,0.056200903,-0.080508575,-0.21067333,-0.2159034,-0.1272376,0.09075514,0.025180703,0.038027365,0.035734907,0.02400076,0.00040283776,0.0027119275,0.0029778613,0.015719077,0.041729793,0.038863987,-0.015667593,-0.0324392,0.051285785,-0.0009441789,0.004899328,0.0047027804,0.05078599,0.09674043,-0.01616947,0.086788274,-0.008100714,0.0053070737,0.037449747,-0.053161252,1.0
Backdoor.Graybird-3bd529df6d6af1c83eca9ff3fd494825f98908773b73ab6023b2d08e30fc9141,0.13868934,-0.05331727,0.07502202,-0.007686784,-0.06423011,0.0051108664,-0.04172237,0.0015273128,-0.07760401,0.049983684,-0.144314,-0.12531918,-0.032296266,-0.015384817,-0.012477329,0.032088514,0.035803005,-0.013127581,0.038168225,-0.07394156,0.14474013,0.05322683,0.12400127,0.059967447,-0.15844062,-0.013152342,-0.1307463,-0.0775361,0.006896322,-0.024349976,0.070525035,0.025077125,0.14396022,-0.1394298,-0.08360896,0.0686522,0.22778387,0.03522097,0.071277454,-0.10790505,-0.06380496,0.2985603,0.052549068,-0.07912854,-0.17820524,-0.21339534,-0.106605954,0.076212004,0.022682007,0.0115618,0.035792787,0.0005391507,0.008531647,-0.02511031,0.014981303,0.0060126246,0.047210574,0.022742542,-0.0210312,-0.029358977,0.021447254,0.016203858,-0.0056406986,0.010070329,0.04751,0.06864401,-0.04493553,0.084895514,0.0042635435,0.0015893794,-0.003539047,-0.027414031,1.0
Backdoor.Graybird-3d4c37580fcfcd3162538e57ebfd65f89caf379c9158dba626690d2ac7a24154,0.108390324,-0.03125472,0.10908468,0.009586496,-0.1032645,0.0072458577,-0.068746254,-0.002231563,-0.08716713,0.061740298,-0.16601464,-0.13517588,-0.041404705,-0.038785834,-0.011029817,0.0106407795,0.038201094,0.013918001,0.048883993,-0.061870426,0.12558085,0.042810444,0.091259256,0.049116857,-0.14447828,-0.015285489,-0.1321481,-0.06472766,0.013419368,-0.022969157,0.060004525,0.039126262,0.14317219,-0.12741958,-0.08640849,0.07215084,0.22126138,0.026654989,0.058748335,-0.09435996,-0.06324365,0.28932858,0.047816977,-0.075518146,-0.15747043,-0.19649297,-0.10760444,0.07249843,0.021212349,0.020337505,0.021955013,-0.0048508374,0.022787102,-0.010568904,0.01537974,-0.021179212,0.04456718,0.038887616,-0.015196045,-0.01893207,0.03434733,0.02857766,-0.014102475,0.024340905,0.052442756,0.05836955,-0.03142873,0.08013688,0.007687413,-0.00077231915,-0.01355852,-0.025233964,1.0
Backdoor.Graybird-3f40d1874219ac8f6ba08b587a9547da773b0356b58e4d40f584b595740fa7a4,0.083710134,0.00528226,0.13245986,-0.0036044077,-0.11443565,0.0007796011,-0.02639962,-0.012339157,-0.10213292,0.03244432,-0.13855281,-0.1283348,-0.026167357,-0.018667726,-0.01115873,0.01193487,0.040630348,-0.014157855,0.034530956,-0.060496103,0.09084176,0.06369322,0.0850728,0.058648173,-0.14695634,-0.024743672,-0.116665974,-0.059337053,0.000105104176,-0.028855095,0.07928624,0.02399656,0.1699932,-0.12363962,-0.089169346,0.10301662,0.22864036,0.03267002,0.06444371,-0.10505147,-0.06664206,0.2864962,0.05634255,-0.07757845,-0.16266342,-0.17934382,-0.10043552,0.06446661,0.023842152,-0.013783213,0.04326658,-0.021213097,0.014008152,-0.025003418,0.0096075265,-0.0070460667,0.054248422,0.027962884,-0.005785546,0.007167117,0.0026800195,0.039246216,-0.017855752,0.00972597,0.07220174,0.040132858,-0.04255603,0.087910585,0.0020619042,-0.017369302,-0.021244192,-0.033795614,1.0
Backdoor.Graybird-3f4164fb248bf610709ce9546b2e1a2463d08270db94dbd7b8e42d16023a71b0,0.06320825,-0.030506028,0.1222508,0.074355446,-0.06388508,7.956812e-05,-0.0073574237,-0.006529459,-0.065200664,0.044259813,-0.13888818,-0.11363583,-0.024672605,-0.046425156,-0.021383032,0.00035126286,0.0482756,0.037537456,0.06451729,-0.101769544,0.14506385,0.046921592,0.12828828,0.089705974,-0.16238612,-0.009633499,-0.14927027,-0.0807688,-0.0048744604,-0.040491767,0.10614507,0.048881702,0.18517777,-0.14155734,-0.105843276,0.09467212,0.1662501,0.01439036,0.04679173,-0.07239567,-0.043464683,0.26437673,0.035304,-0.086441316,-0.11527251,-0.20249452,-0.0800246,0.062263276,0.015745172,-0.023163293,-0.005405344,-0.064786695,0.04805778,-0.039074395,0.049536053,-0.055013113,0.044423886,0.05750935,0.0177961,0.040069025,-0.00047381624,0.05117602,-0.009941726,0.028257797,0.05174946,0.0018457917,-0.053067613,0.06317332,0.0153032,-0.015132129,-0.053323243,0.020512827,1.0
Backdoor.Graybird-3fb1f955c5fedc93b423be002cde34a6436194ec36974c890a015566749cbfc9,0.06276957,-0.05082288,0.12758707,0.10063071,-0.015487521,-0.0070337793,0.035517033,-0.002441764,-0.02297313,0.04868522,-0.083154604,-0.07669609,-0.035013434,-0.06942956,-0.030846534,-0.010360106,0.05266025,0.070461266,0.0716642,-0.09294342,0.11569849,0.013904671,0.10217123,0.07677159,-0.1459438,-0.0073303534,-0.14174019,-0.07166821,0.0061791767,-0.04824305,0.107183695,0.0507313,0.21032645,-0.15390576,-0.10691795,0.10542292,0.15230495,0.0142249325,0.03978682,-0.06610294,-0.042128056,0.27484497,0.04443708,-0.07889648,-0.11693277,-0.20628886,-0.069597796,0.061929587,0.010902777,-0.03665814,-0.016188648,-0.10293004,0.069951236,-0.060676627,0.061075963,-0.07083071,0.031151725,0.053271536,0.032094587,0.042709764,-0.0023218247,0.060836535,-0.01045212,0.01374534,0.04698356,0.009606646,-0.03519685,0.035329174,0.012183545,-0.02348727,-0.046808656,0.03650833,1.0
Backdoor.Graybird-4038529ffe618fbca7b702da5a4588bf4f827bfe34e22bedebc16bea8ac5cd5b,0.08071588,-0.0272001,0.14300525,0.06756716,-0.083676316,0.0015758453,0.026451467,0.0024101706,-0.088775285,0.043128613,-0.14602071,-0.12288751,-0.037893336,-0.04432774,-0.014082657,0.0009491969,0.06379218,0.023413578,0.06668641,-0.091505274,0.11533082,0.06802662,0.11860515,0.09556412,-0.15299729,-0.023252472,-0.11962405,-0.06817054,-0.00046812752,-0.032606006,0.086019956,0.024422208,0.15807247,-0.12088439,-0.08972842,0.09177417,0.18008606,0.022982169,0.055467673,-0.08857818,-0.06220062,0.26598853,0.04028812,-0.08207679,-0.14354075,-0.19592822,-0.08795458,0.07049015,0.009194974,0.0043097273,0.002153602,-0.039717603,0.02724243,-0.024826555,0.02626712,-0.032832853,0.049369965,0.037258584,0.009077049,0.0061881244,0.016970653,0.034886077,-0.01383988,0.02377748,0.06488433,0.032669853,-0.054828864,0.07422623,0.012068649,-0.00899784,-0.049318034,0.022944331,1.0
Backdoor.Graybird-43915d2a212d5620489fc5dbbbf17d934ab474e34a1058aa28ea2ae0160d6a7e,0.06611411,-0.029646827,0.072624184,-0.0037804844,-0.08900219,0.0012838927,-0.037452832,-0.00532663,-0.08915078,0.056591246,-0.16834012,-0.14710091,-0.051525626,-0.055833466,-0.008266619,0.0034199152,0.039572205,0.030684136,0.04886918,-0.05874119,0.09374777,0.027433041,0.072191864,0.04265997,-0.120016865,-0.008581827,-0.11446315,-0.06291473,0.017572151,-0.028628223,0.042716492,0.037909377,0.117492534,-0.11782448,-0.07309575,0.056883488,0.21630241,0.030590786,0.057872634,-0.09324081,-0.07226495,0.29367727,0.06474941,-0.067296,-0.17989849,-0.20166826,-0.10818421,0.07860897,0.026373858,0.0073954766,0.036023207,-0.01973821,0.024261573,-0.028113829,0.021395477,-0.0049752025,0.039395623,0.040216967,0.00045009571,-0.005065139,0.025919639,0.0135412,0.005343386,0.0032776443,0.05378538,0.0626123,-0.014871405,0.07375614,-0.008660759,0.0022998638,0.013418512,-0.057560466,1.0
Backdoor.Graybird-442eb6cd344fcc9a88b1ef5a28e662ea6a9415ff012b27b75ca3b8c07af9ae61,0.049236845,-0.049227793,0.12286542,0.11658071,-0.09470268,0.0044908463,0.008658692,-0.012888187,-0.038074423,0.06175243,-0.1380479,-0.117512956,-0.023142913,-0.08228549,-0.04165136,-0.022436634,0.057462934,0.08604652,0.084035374,-0.09841844,0.14012487,0.03067244,0.12217808,0.091129564,-0.17247222,-0.02210946,-0.15143843,-0.09055148,-0.018629763,-0.0561302,0.1714356,0.059724074,0.22982597,-0.12714702,-0.10446693,0.12460726,0.11917585,0.0036681541,0.034497228,-0.04818947,-0.02016458,0.21429755,0.012619574,-0.080424726,-0.025934791,-0.170483,-0.029466687,0.040541947,-0.004261507,-0.056906816,-0.05388348,-0.1271952,0.08644294,-0.06314033,0.08304623,-0.11389246,0.05296512,0.05246894,0.040912088,0.07852392,-0.032218926,0.08039208,-0.02188833,0.05436513,0.052094653,-0.07184221,-0.042735998,0.028405027,0.030723508,-0.037596878,-0.11369158,0.052606404,1.0
Backdoor.Graybird-45133c62869e94f748e8f947328388b6cf1190cc750f712e25695ff4e87a8ec0,0.011286142,-0.030089669,0.15017396,0.11272486,-0.07543664,0.00210332,0.026146859,-0.014025465,-0.043729886,0.050658774,-0.122114345,-0.10808765,-0.018426932,-0.083425686,-0.03465621,-0.0171414,0.0529132,0.07799231,0.08074137,-0.08841227,0.101703115,0.020759286,0.095495395,0.07236458,-0.14636369,-0.010517109,-0.14200547,-0.073868096,0.0070626386,-0.049989015,0.11767169,0.05780235,0.200524,-0.13052866,-0.09626315,0.1103366,0.14850481,0.014081709,0.036122028,-0.05623197,-0.04292006,0.26169166,0.022231994,-0.0814427,-0.10038328,-0.20981264,-0.057698686,0.058603473,0.004148444,-0.043848343,-0.030271647,-0.11247786,0.07281875,-0.054543857,0.06000097,-0.08046358,0.0535993,0.06395405,0.040031414,0.062472314,-0.014040277,0.07342861,-0.013377364,0.022811059,0.038365517,-0.024949187,-0.028929831,0.04897741,0.007884669,-0.0256199,-0.05945482,0.0035954907,1.0
Backdoor.Graybird-4611ce9f971ce2a63d17317779aaa34aebb478c1a91c3031abf37b39a0e8a754,0.031263072,-0.020596234,0.09197857,0.07389404,-0.056741852,0.0036770985,0.02766684,-0.018002998,-0.041766696,0.06454655,-0.1410762,-0.11279266,-0.02695558,-0.07235072,-0.03708913,-0.018692471,0.050696127,0.06349764,0.07529721,-0.08812349,0.107368894,0.02181265,0.094910994,0.07880533,-0.1438261,-0.015520091,-0.1361711,-0.080017075,0.0033124324,-0.04916315,0.1116674,0.05028974,0.20795071,-0.14061163,-0.099631764,0.10752343,0.1594461,0.015479386,0.037043743,-0.07221351,-0.040753495,0.2694886,0.047870994,-0.0759629,-0.10068412,-0.1910645,-0.06767118,0.049307965,0.0124966,-0.042538047,-0.019847475,-0.10531252,0.0553507,-0.06047972,0.06071248,-0.06689578,0.03584961,0.045842707,0.026120279,0.057810944,-0.007139817,0.053059284,-0.005601748,0.017423093,0.044930603,-0.016279347,-0.033756323,0.035987023,0.011037213,-0.020549584,-0.05487961,0.008313055,1.0
Backdoor.Graybird-4768fb2a55ff7a38d1c9f26c22517c25e81050233f75a43909f56cf2bab55549,0.067764446,-0.055126593,0.10749181,0.077775195,-0.08829125,1.7923532e-05,-0.034592725,-0.0020693436,-0.016775873,0.059437077,-0.122461736,-0.09588819,-0.02275793,-0.06569899,-0.0452393,-0.007047099,0.05044763,0.07513629,0.078167796,-0.08629706,0.13848755,0.015670348,0.11880415,0.081504464,-0.16806094,-0.019720072,-0.15044022,-0.08671179,-0.0028115122,-0.04674368,0.12432332,0.044698484,0.20211567,-0.13206784,-0.09989255,0.1100092,0.14837578,0.01708222,0.03759617,-0.06376846,-0.04572993,0.23949115,0.028284509,-0.0816718,-0.07181745,-0.18079676,-0.050573103,0.054918982,0.0004744169,-0.023212947,-0.033392407,-0.090301886,0.054155216,-0.037530527,0.05538929,-0.08100179,0.03719059,0.03636079,0.023853267,0.036961917,-0.007934313,0.047711838,-0.024890665,0.03457276,0.058220543,-0.031602647,-0.048012502,0.02782069,0.015277724,-0.020585611,-0.07418398,0.04303546,1.0
Backdoor.Graybird-48641176d1e0ac527a5bb4a797afe8ebddb93625bfb2e7878a0cd40164988326,0.13378341,-0.03579571,0.12114298,0.033188052,-0.0906564,-0.00865809,-0.025632977,0.006815243,-0.096200526,0.038384687,-0.15681878,-0.12178523,-0.046710182,-0.032062266,0.0035810142,0.023375358,0.047972225,0.027508184,0.06337939,-0.08220426,0.15288986,0.05827863,0.13262235,0.08759726,-0.16140379,-0.019766936,-0.14612347,-0.08377205,0.008110469,-0.030595116,0.083992556,0.025589485,0.12932916,-0.11475985,-0.069891654,0.07656013,0.20058016,0.020356683,0.06635375,-0.10539203,-0.0574665,0.25962815,0.039882593,-0.079025015,-0.1555677,-0.20845062,-0.091965586,0.076510526,0.019212384,0.016322656,0.021589212,0.008892606,0.017789314,0.0031731552,0.012787396,-0.013479353,0.046924084,0.015824702,-0.019870868,-0.032238033,0.031502783,0.024214167,-0.019806193,0.037465997,0.044163685,0.061555207,-0.063682325,0.09441814,0.010433301,-0.00015794607,-0.021893842,0.014221896,1.0
Backdoor.Graybird-4873836e446dfd4e56e491364059f5f6642b9e62c3af541249d2a58f060d810a,0.069488585,-0.0082855085,0.15970458,0.0872289,-0.07601482,0.0021517396,0.01607226,-0.007255603,-0.052474983,0.045805395,-0.12274919,-0.10650952,-0.04493387,-0.07800942,-0.023465753,-0.015770085,0.053201314,0.10581644,0.093645394,-0.08913455,0.1275522,0.025925279,0.11521673,0.09386034,-0.16998228,-0.016250042,-0.15162538,-0.09003532,-0.007144815,-0.04966784,0.13885958,0.04761818,0.20740162,-0.09986443,-0.08837474,0.12133678,0.15586103,0.007418758,0.044697102,-0.07193336,-0.022767164,0.21353966,0.020748712,-0.07434402,-0.074350335,-0.17117766,-0.04023554,0.036614656,0.0013212401,-0.022012662,-0.026778562,-0.09320541,0.062162776,-0.033457283,0.060775876,-0.07223102,0.04408845,0.048056286,0.013958305,0.032874998,-0.0018975108,0.058016546,-0.028555207,0.051919453,0.047958963,-0.015938759,-0.0469795,0.048337106,0.020791754,-0.027136285,-0.083095014,0.04456728,1.0
Backdoor.Graybird-49584192e192cd599da8b7891636d00d60f6e3a1714cec9384e53f0c3ff64dad,0.035696052,-0.020013312,0.123792596,0.060192857,-0.063318275,-0.0031625046,0.02057206,-0.007380081,-0.046631705,0.05151539,-0.12947206,-0.118393615,-0.039201885,-0.0905739,-0.03150562,-0.011091525,0.055672884,0.07482023,0.072939895,-0.08333701,0.088633694,0.011018225,0.083851755,0.07062377,-0.14269768,-0.009727279,-0.13552712,-0.06890647,0.008174229,-0.046477146,0.09704024,0.053641763,0.19422773,-0.13996308,-0.111193806,0.09760564,0.17225803,0.015244813,0.03263609,-0.06102019,-0.045471992,0.27431488,0.052306924,-0.08102034,-0.12253518,-0.18730254,-0.07328016,0.059939012,0.010469415,-0.035632074,-0.006958374,-0.097066075,0.05959215,-0.05320593,0.057291094,-0.058799535,0.029408285,0.060976982,0.029749272,0.054796856,-0.0018010369,0.048040267,-0.0053607007,0.012390637,0.0612594,0.0030725182,-0.026620496,0.05058998,0.0021873119,-0.022166112,-0.04977066,-0.00412887,1.0
Backdoor.Graybird-4a7c1f06c02316a383b3509b0530d50eea0fc52e3292f80ef6d99337ed1976cf,0.074408256,0.007473853,0.07944752,0.040367547,-0.036564447,-0.0076593,0.048557337,-0.008138219,-0.08599391,0.052651316,-0.15039177,-0.13668978,-0.05103851,-0.045900106,0.0005075158,0.016585378,0.039555114,0.016231297,0.04291158,-0.068743266,0.07709863,0.035275903,0.08035703,0.06927161,-0.13971424,-0.01582233,-0.12899795,-0.07222887,-0.00033625046,-0.026894974,0.08282079,0.035166793,0.17104807,-0.124276154,-0.09448823,0.094174884,0.20473841,0.024194203,0.04669594,-0.08890629,-0.052797873,0.27530348,0.05441944,-0.077067405,-0.15986718,-0.1851805,-0.099254414,0.07068218,0.026329087,-0.008093535,0.024759816,-0.049392935,0.03590108,-0.04946718,0.03404427,-0.01999711,0.035356205,0.041085742,0.0016410102,0.013677492,0.027524006,0.036082163,-0.010897629,0.0050760047,0.0581422,0.046256542,-0.016199322,0.061980627,-0.0023990062,-0.009813241,-0.0076398277,-0.030289516,1.0
Backdoor.Graybird-4b3805331f864f1002915b1b89e8f70643baaf6b43b688a32c2cb3810ffb3b4a,0.1263662,0.024659295,0.14402103,-0.041976824,-0.1484556,-0.0042399694,-0.05224296,-0.005095597,-0.15625647,0.052892514,-0.21873116,-0.17378491,-0.06781235,-0.024933305,0.017594188,0.02029013,0.024367929,0.011000376,0.05281634,-0.052423246,0.09341904,0.05861983,0.082225904,0.033907484,-0.13761806,-0.021925075,-0.11325065,-0.06952321,0.0171559,-0.018976696,0.039858755,0.027606888,0.09208395,-0.08526348,-0.05040048,0.07010176,0.27599576,0.04185699,0.085204944,-0.13797991,-0.07299041,0.2779142,0.056019183,-0.060618564,-0.22807032,-0.18867859,-0.13356617,0.08916243,0.023115328,0.0381336,0.06729688,0.06213854,-0.0150683,0.024730943,-0.028141333,0.051631194,0.051309768,0.017864648,-0.04302552,-0.0678568,0.06055257,-0.0014675938,-0.019143997,0.020926882,0.03936845,0.1251806,-0.028491046,0.13168949,-0.011518863,0.014902166,0.040307786,-0.07974058,1.0
Backdoor.Graybird-4ee3bccc014a06cfedefb088d22c918bad78cbcb74568815a14ebfbbcf119d37,0.101406306,0.006056193,0.13217531,0.03953951,-0.06921604,-0.010546271,0.01571864,-0.0075202384,-0.08553564,0.04440731,-0.14009307,-0.12225299,-0.035942823,-0.03776979,-0.008463697,0.022423532,0.04266348,0.016610928,0.05582549,-0.07428518,0.115079984,0.053663045,0.11568947,0.07799901,-0.15614606,-0.017771622,-0.1413392,-0.07137509,-0.00083772436,-0.028576862,0.0985348,0.040580522,0.17113735,-0.13184613,-0.10312025,0.094871275,0.19393098,0.023964843,0.046207663,-0.08881024,-0.05178858,0.25934488,0.049582776,-0.077993035,-0.13670102,-0.1742087,-0.090249225,0.06584835,0.015747054,-0.0024783346,0.01502967,-0.027223127,0.03130714,-0.02170663,0.034004916,-0.032368783,0.033387437,0.04120428,0.00431797,0.0098738065,0.02825954,0.042627312,-0.009865308,0.019441623,0.07554023,0.041009527,-0.062021893,0.087030634,0.008078015,-0.018569715,-0.047787193,0.01341861,1.0
Backdoor.Graybird-4fa0fe574b88526a330dea8e92ead1925846131a452b09c7a42eeee07e2be5c5,0.10387337,-0.021676803,0.13806628,0.04505086,-0.0661209,-0.0032885438,-0.036861617,0.0076988386,-0.04574265,0.049038697,-0.12275485,-0.098680615,-0.048763677,-0.072878085,-0.025670208,-0.009330383,0.049005896,0.08175348,0.07529365,-0.08308413,0.13259022,0.02231637,0.10389616,0.07835208,-0.16778843,-0.00828629,-0.14784527,-0.08669842,0.007601993,-0.04923535,0.12113769,0.051216085,0.17473458,-0.11601557,-0.08899927,0.10145196,0.17109644,0.016270095,0.04383177,-0.08329584,-0.03313319,0.22701503,0.023329783,-0.07297706,-0.09262735,-0.18264495,-0.05901016,0.04800731,0.003071123,-0.012711072,-0.016944341,-0.058585417,0.04161719,-0.029318752,0.03619165,-0.056712057,0.053012367,0.03615097,0.001949442,0.008747845,0.012140364,0.05281066,-0.02672725,0.037743445,0.042871803,0.013384014,-0.044682752,0.05314181,0.008901452,-0.011827006,-0.050835162,0.023924476,1.0
Backdoor.Graybird-4fb50e21fca67a80c0600b322ca12170a8283b4b04073cc330aefa42e3f01cb1,0.1224532,0.014566761,0.15373401,-0.02996741,-0.13654652,-0.00589076,-0.07692339,-0.0024292648,-0.12235348,0.03309863,-0.1835611,-0.14583611,-0.06548268,-0.054749556,-0.012475551,0.012680453,0.036911357,0.051059682,0.06833627,-0.06265049,0.10892669,0.040970597,0.08066095,0.037521902,-0.14550282,-0.014970209,-0.122146204,-0.06795673,0.014904727,-0.038909994,0.0727847,0.040291622,0.11727809,-0.08651609,-0.06412209,0.083938554,0.24026695,0.036586415,0.0668077,-0.112624794,-0.055633783,0.24476229,0.029581035,-0.06231029,-0.17153181,-0.17356439,-0.0953952,0.060355783,0.02134765,0.017609302,0.043668732,0.008698748,0.0064113876,0.0012345692,-0.003821669,0.014362826,0.06566497,0.025716238,-0.02415347,-0.03291044,0.03220608,0.022360139,-0.027667249,0.042579275,0.03822023,0.07523454,-0.028719738,0.10799347,0.004140146,0.003644325,0.0055095353,-0.055967044,1.0
Backdoor.Graybird-50d21079164fd8e7d563e365422688728379b15b4239beb025e4109a16f4f758,0.12643729,-0.07862382,0.102833726,0.016018676,-0.075278945,0.0012360842,-0.04064296,0.003479695,-0.080691144,0.053282637,-0.14634642,-0.12486686,-0.04556074,-0.019095737,0.0036972335,0.027375378,0.039604746,0.005820059,0.05888312,-0.074764386,0.14459462,0.04801065,0.11748649,0.06869446,-0.1561326,-0.019713854,-0.13206762,-0.07348317,0.007113461,-0.02233761,0.058329906,0.031136144,0.11274507,-0.12376322,-0.07651045,0.068495266,0.20640203,0.036092583,0.065003395,-0.09719278,-0.06961344,0.29339835,0.054222446,-0.0711931,-0.17483434,-0.22048973,-0.10437618,0.078703165,0.01770281,0.025505632,0.03015206,0.014320198,0.015489111,-0.012421199,0.009629106,-0.0025437463,0.052325398,0.02182517,-0.02791022,-0.025708988,0.02371239,0.02215983,-0.015595896,0.017942,0.04439526,0.07341875,-0.04214912,0.08761723,0.0032076798,0.007355465,-0.0007008878,-0.013126985,1.0
Backdoor.Graybird-51500e8ba9a95263700256b5b7b75c162508a80b3de7f0eb946ecacf98d78ff7,0.07182811,-0.022644624,0.13218808,0.075709514,-0.054714583,-0.0022293108,0.0067572678,-0.007037721,-0.036416717,0.047515035,-0.10837223,-0.101793624,-0.014088476,-0.04470956,-0.028912392,0.0053145606,0.051730692,0.042728253,0.06603821,-0.08298843,0.13252078,0.04216891,0.112297736,0.093646,-0.17840274,-0.028674364,-0.15231565,-0.08937657,-0.013546959,-0.049017683,0.13675061,0.04182257,0.23483701,-0.14507507,-0.10943012,0.11950564,0.16303661,0.01597889,0.03489206,-0.06331234,-0.03333156,0.23953138,0.03660498,-0.07513739,-0.07576998,-0.17278777,-0.052986335,0.041639306,0.005658167,-0.03744104,-0.019674135,-0.090494655,0.056238294,-0.05041012,0.05370471,-0.06889557,0.04905753,0.043752246,0.023678679,0.043722805,-0.015647821,0.07097283,-0.018626325,0.02638772,0.055406008,-0.02295885,-0.060512554,0.048675638,0.017640777,-0.029176027,-0.08392839,0.03262187,1.0
Backdoor.Graybird-51faade6c8030b7f7b359977e1d699538610f96747fa89f8a1b0ea49926cdd36,0.052183475,-0.009740844,0.11828846,0.043190137,-0.07415055,-0.0044668596,-0.02165097,-0.004047018,-0.047395643,0.055817626,-0.11539844,-0.11374187,-0.023500292,-0.06301582,-0.039503254,-0.010516634,0.044868205,0.046871014,0.0465422,-0.073022254,0.10121558,0.029404357,0.08717926,0.06330613,-0.1473598,-0.017766526,-0.13353583,-0.06848765,0.00605266,-0.049853787,0.11365205,0.05527326,0.22239466,-0.15644701,-0.11537059,0.111964636,0.17290911,0.018322544,0.036971085,-0.07616107,-0.055120442,0.27850488,0.047017872,-0.075094186,-0.10650006,-0.17868343,-0.06890912,0.054734807,0.012600791,-0.047503382,-0.007993962,-0.09114064,0.051818166,-0.06451573,0.059726875,-0.061305095,0.042272825,0.051329304,0.028874537,0.05167075,-0.015266806,0.06826252,-0.014686851,0.018338857,0.06538406,-0.016526928,-0.035886392,0.05044475,0.0037697612,-0.037496712,-0.058786478,-0.013122186,1.0
Backdoor.Graybird-523152dee0737aae6b8210fb53d9ae9b2bf6be10a89e399cf1b0a193972f282f,0.11198179,-0.054806508,0.11012281,0.027422726,-0.044440623,0.006700156,-0.058008347,0.00043136117,-0.037723694,0.055762757,-0.14520116,-0.10860921,-0.04809554,-0.07583858,-0.018079277,0.0059245084,0.03698932,0.07573031,0.07008749,-0.07609275,0.13249704,0.002442505,0.09472736,0.06341305,-0.14412454,-0.009653255,-0.13719642,-0.07262719,0.014413458,-0.034497358,0.070340015,0.0383919,0.14487523,-0.124943525,-0.07772768,0.0719757,0.19244564,0.023598677,0.053674113,-0.092749596,-0.04826446,0.27344376,0.032763768,-0.07137072,-0.15170074,-0.22291906,-0.08336214,0.073308475,0.013356448,0.0044833943,0.0033276596,-0.026057497,0.025315113,-0.019243978,0.028292755,-0.03345131,0.041712508,0.035729844,-0.018472316,-0.017515132,0.024911024,0.024128856,-0.006963908,0.026688673,0.040862545,0.0632282,-0.039266292,0.07385576,-0.0030105903,0.0024117965,-0.00858578,0.0005635317,1.0
Backdoor.Graybird-5266d90616b279757b5839b40696798dbe68c783582ecadb11cac439583b6212,0.13301435,-0.009622332,0.12339956,0.013996205,-0.08317455,-0.0007057148,-0.030035432,0.009597688,-0.10911061,0.038633257,-0.17740226,-0.13428313,-0.057667248,-0.025849257,0.0075400453,0.02906469,0.044869196,0.026036149,0.05805077,-0.07691981,0.13010871,0.04434029,0.10844631,0.06723167,-0.15623024,-0.01845212,-0.13356642,-0.07498284,0.0040748357,-0.037034307,0.08229543,0.029157938,0.1293435,-0.12040421,-0.08291151,0.073430225,0.21087919,0.027367812,0.059936747,-0.10200593,-0.055241518,0.2507336,0.045375776,-0.07015748,-0.15392113,-0.18830298,-0.10891871,0.07744239,0.019979004,0.02388817,0.03375764,0.0076246667,0.015616761,-0.010601307,0.014174248,-0.010212484,0.053752456,0.032697864,-0.027586462,-0.025173804,0.04230074,0.023291988,-0.026203275,0.027639484,0.058851335,0.07261899,-0.051072545,0.107180625,0.007542463,-0.0004846727,-0.013280973,-0.016507387,1.0
Backdoor.Graybird-53078f85f6b3651de46b7551e7f032e1734e80f6c89faf69560b2b92a5a94747,0.07791733,-0.03955219,0.1418295,0.055571068,-0.08120849,-0.0024159667,-0.028073944,-0.0015106028,-0.0632269,0.047151633,-0.118692495,-0.108319424,-0.025750581,-0.04022264,-0.025742758,0.0032146238,0.039751828,0.03416409,0.05353452,-0.07843609,0.11827716,0.031314075,0.10198249,0.06684425,-0.15452097,-0.0179059,-0.12636985,-0.06469693,0.009109998,-0.030516747,0.09835092,0.045554943,0.1805077,-0.14417951,-0.103004396,0.0981462,0.18220189,0.030151177,0.049172428,-0.08254902,-0.053075112,0.27022502,0.035504457,-0.07621456,-0.1344642,-0.18877347,-0.079982884,0.06644626,0.011748845,-0.018103937,-0.0006265679,-0.06613734,0.045153987,-0.03746193,0.039353553,-0.041311324,0.051057745,0.043360747,0.012765742,0.026468482,0.007622344,0.042753786,-0.017871693,0.031764224,0.049539596,0.011113141,-0.03873309,0.060850702,0.014815984,-0.013772269,-0.037848115,-0.0014742194,1.0
Backdoor.Graybird-53ee4a2152057901cd94a7f4d548f02a3937cdf4186d27a33f991382b93cb631,0.08146854,-0.042251784,0.078775465,0.017918881,-0.050232533,-0.0027787902,-0.051097542,-0.0012427341,-0.04247921,0.06462945,-0.13684626,-0.10955905,-0.024704615,-0.038240075,-0.024993667,0.010381951,0.0335873,0.021652158,0.048798654,-0.062271483,0.1100404,0.02875868,0.09455464,0.049119458,-0.14731145,-0.013733305,-0.12453713,-0.0710148,0.01290067,-0.03242069,0.071622826,0.03353124,0.14676046,-0.11954465,-0.08425446,0.078945786,0.19709884,0.028980466,0.054574694,-0.08165863,-0.06266304,0.2865043,0.056165464,-0.072178476,-0.14619125,-0.19855486,-0.08761664,0.06870613,0.012695265,-0.013413993,0.022825522,-0.031297646,0.02233548,-0.03916228,0.029500365,-0.016768316,0.04571262,0.03041814,-0.0034687787,-0.0040424126,0.0044891285,0.03484955,-0.01207979,0.012680649,0.04412408,0.037263215,-0.025858633,0.07545135,-0.0028942765,-0.010192774,-0.013601682,-0.030382471,1.0
Backdoor.Graybird-540e9c189e9d37ffb217e7a0dc732fffef53c3efd3d0317f44bc3bc05b69fe28,0.11298429,-0.03126871,0.14017211,0.060340516,-0.065183,-0.00867325,0.0016366756,0.002138128,-0.086116664,0.047011763,-0.15637298,-0.12352512,-0.05198988,-0.058847886,0.0064979997,0.0038191876,0.04241231,0.06301056,0.0819879,-0.07940327,0.12629093,0.044033546,0.11467991,0.0872881,-0.15912704,-0.020490883,-0.13686506,-0.07568964,0.008850455,-0.029378094,0.10420615,0.03279452,0.14686203,-0.09922155,-0.07879848,0.08823685,0.19033575,0.01651537,0.055060543,-0.0887009,-0.04591692,0.24437706,0.025493078,-0.07558336,-0.12760988,-0.19774877,-0.07891609,0.059894394,0.006824133,0.0019192158,0.0068615684,-0.025817873,0.035708338,-0.016933136,0.024050074,-0.027917895,0.055849507,0.037048265,-0.014059636,-0.020452492,0.03022043,0.03932613,-0.021574844,0.034653943,0.04717038,0.049290355,-0.055860657,0.07976768,0.0058521573,-0.005881207,-0.02683857,0.01497123,1.0
Backdoor.Graybird-54aa30e8c4b561710cadfa1b08bec3380375ff52f9b9485c946e177499b90e93,0.051046934,-0.02927554,0.12336449,0.053011406,-0.09920584,-0.0058095846,-0.0041769505,-0.00883949,-0.08093193,0.055703554,-0.17003597,-0.12958609,-0.036852695,-0.068027355,-0.0111433845,-0.0065003433,0.04754531,0.05530021,0.07662631,-0.09666614,0.12336832,0.04144318,0.11115178,0.07109589,-0.1360863,-0.00231392,-0.12056935,-0.07289615,0.012679812,-0.034771133,0.06759529,0.043599464,0.13665159,-0.11723361,-0.07941588,0.06719693,0.16627279,0.030047474,0.04365447,-0.07590816,-0.058572337,0.26833758,0.045690324,-0.07929449,-0.12824424,-0.18426973,-0.087741815,0.0678924,0.010833599,0.011999434,-0.004612297,-0.03348105,0.03908517,-0.009840407,0.030193059,-0.03476306,0.042897277,0.050243124,0.010331526,0.011976661,0.020119935,0.032767437,0.003949005,0.020848624,0.06168764,0.029204704,-0.040783763,0.053912256,0.008683794,-0.010157396,-0.024823366,0.0030511753,1.0
Backdoor.Graybird-54c2b04305bbaf46d7fa1fc9901bfc4cc51b632f8ff0004fca5c9d0d34a43e88,0.09837357,-0.006354136,0.11346394,0.020098928,-0.077964745,0.003622059,-0.0515475,0.0057378905,-0.07655844,0.04875498,-0.15574044,-0.12664965,-0.039832342,-0.049894232,-0.015822716,0.011351088,0.0448413,0.04316327,0.06568779,-0.0727901,0.11523877,0.03219359,0.09993083,0.06947066,-0.14827368,-0.020847721,-0.12741207,-0.07119187,0.0060058204,-0.027277889,0.08114217,0.035907865,0.15268362,-0.12429829,-0.08998659,0.0822515,0.19374937,0.021692041,0.050373208,-0.08338694,-0.04287557,0.24261323,0.046822775,-0.07155981,-0.12136463,-0.16619714,-0.08527766,0.062731795,0.020460974,-0.0038254946,0.007813772,-0.031679202,0.03187551,-0.024956178,0.0364526,-0.028317409,0.04558016,0.04252332,-0.0072500044,0.006993377,0.00926693,0.043531727,-0.020918319,0.031310286,0.06399209,0.03348058,-0.04694871,0.07785415,0.014742919,-0.013190464,-0.03575572,-0.010062156,1.0
