,0,1,2,3,4,5,6,7,8,9,10,11,12,13,14,15,16,17,18,19,20,21,22,23,LABEL
Backdoor.Graybird-009a62c6f6543ec65460d9a3984fac8dd65aba2feacfa00e8e253bb474a417e7,-0.14214441,0.9974288,1.0068183,-0.031206233,-0.4676656,0.47708496,0.3328352,0.88980865,0.110989034,0.12623014,-0.92260844,-1.868208,-0.35135156,-0.054156363,-0.8411496,-1.2186214,0.48585463,0.638052,0.93166965,-0.34124565,-0.3251122,-0.21304132,0.0094785,0.26136413,1.0
Backdoor.Graybird-02842b14fc265c045f10e2c5ab47c0b0a757c41d13a53194deb66aceb2e3993d,0.05087607,1.7041875,1.0260123,0.35401958,-0.553586,0.2006194,0.5245855,0.675457,-0.2386958,0.8378207,-0.7206354,-0.03842731,-0.46479553,0.3305981,-0.26802275,-0.9254093,0.3413578,0.46285966,0.1466906,-0.5391497,-1.2020941,0.13922045,1.3271397,-0.8175331,1.0
Backdoor.Graybird-03b5962ef8b9c83fe0ed10fc4333a68462865f3a4442346c5f7d004a46555448,-1.0335814,0.37281454,0.49879295,-0.12708995,0.8799388,0.3612977,-0.78178483,-0.37868473,-0.3171091,0.71904767,-0.38460422,-0.20215479,0.59496313,0.39343992,0.5113666,-0.45032313,0.28158855,0.27821058,1.0634439,-0.9943156,-0.58863616,0.5203556,-0.12574558,-0.28377056,1.0
Backdoor.Graybird-049f53a05707c2cccd67540609368ef20f395327adb9a026267369d568f78c0a,-0.09396697,1.2030886,1.0754634,-0.13325725,-0.27664432,-0.1367211,0.07750472,1.6668671,1.2339691,-0.32766622,-1.0420734,-0.123308495,-0.08568227,0.05196829,-0.6709787,-0.5132595,0.6720886,-0.42133772,0.19820738,-0.94258475,0.10967143,0.5701608,1.3433225,-0.16393003,1.0
Backdoor.Graybird-05339051a960d18fafb2e5d656e36b2fa007462d9a7b2fbfcb4532b3235ac5ed,0.73404306,0.72012174,-0.15655607,0.39018178,-0.44890684,0.28038052,0.5749697,1.2791791,0.7386914,-1.0505681,-0.6196542,-1.2836816,-0.8622075,0.25945172,-0.120058835,-0.427168,0.0706637,-0.37090573,0.5063481,-0.9263457,0.12645073,1.0091667,0.361473,-1.1688449,1.0
Backdoor.Graybird-05bb2dcf38927dc99961deedaaff6ff120bdfd383745bac5aeb0c28340ea1010,0.72975016,1.2339922,0.93574107,-0.2056023,0.42128953,-0.47966763,0.63181496,0.11690688,0.63431895,-0.7382387,-0.40703556,-0.64972353,0.3989492,0.08564387,-0.08964348,-0.93883383,1.1560856,0.035567824,-0.7953672,-1.4071119,-0.9330665,0.5899478,-0.84894747,-0.7605523,1.0
Backdoor.Graybird-06ba9a22cbf334f6beeb0bc5302d3f0d6b7ad734c9ed071d6f279936a37f4687,0.2412257,0.67974085,1.1273369,-0.34003612,0.008863765,0.9965273,0.58283013,0.7937802,0.2525484,0.113533475,0.627518,-0.3698015,-0.83453596,0.21639693,0.17225279,-0.5628711,0.16755667,-0.091154255,0.14189054,-0.9292634,-1.588989,-0.009101734,0.30616486,-0.82322985,1.0
Backdoor.Graybird-07adf0e72d58706d13117578493d64cc085811d7454fd598a805aa818a445f09,1.0168071,0.7883339,1.4464291,-0.29525912,0.54063624,0.5049928,1.0183439,1.1099576,0.73619634,-0.4718868,0.31842762,-0.06489483,0.11672296,0.06448778,0.3753288,-0.6212743,0.90961385,-0.33472976,-0.07959944,-0.7591165,-0.08234253,0.008947067,-0.679187,-0.29445297,1.0
Backdoor.Graybird-0814e28a9bbff170fb9257df3ad5cf8a27287f7c9001f15ea6a683c05e72095c,0.31827742,1.187425,1.500893,0.51323426,1.1192132,0.56379795,1.1640882,1.1043955,0.09391683,0.17287293,-0.52438176,-0.19830798,-0.8693999,-0.23651257,1.2427834,-0.8464129,0.060009617,0.27155086,0.9499592,-1.8039147,-0.10043844,0.4965329,-0.5085195,0.031800576,1.0
Backdoor.Graybird-08c34b0421ec2fd129554058eb0e19111b167fdeee45c3c51252c4ace128e70e,0.36192805,1.2406621,0.998049,0.4346591,-0.71092135,-0.23240243,0.17431311,0.831948,-0.27425,-1.1317714,-0.37097967,-0.5825579,-0.58740705,-0.067181386,-0.30554125,-0.59784275,0.41204226,-0.18205687,1.1505983,-0.254008,0.0057670274,-0.73457617,-0.45400023,-0.4942282,1.0
Backdoor.Graybird-08c383b4ffb8ed9df7a17296ae0c1798d7f4b769f188d5eef55c77bb79dcd432,0.40620854,0.5496368,1.2583042,-1.1695768,-0.047767404,1.1617062,0.78049564,1.0008006,-0.30615845,0.069834284,0.47482064,-0.90823233,-0.38478976,0.46876362,0.26560956,-0.99162483,0.7094041,-0.89782727,0.18448487,-0.4127179,-1.4575417,-0.06228061,-0.48935917,0.14439736,1.0
Backdoor.Graybird-08cadbda2bd111540dc25897982bc801f681dc16e0eba323973e193712332ef3,-0.62612444,-0.293002,1.8308535,-0.27374268,0.073292606,0.56021965,0.46648413,0.49356413,0.5750863,-1.3729581,-0.101342835,-0.50865394,-0.4930772,0.3485141,0.7488879,0.15157881,0.58989006,-1.103816,0.9559023,-0.029088836,0.2530848,-0.20904043,-0.9254872,0.66796196,1.0
Backdoor.Graybird-0904d313bde15d4656a630055d025d6a289de46fc2369597deb20d51da0ccd57,-1.0297695,0.10788561,1.1421806,-0.40575323,0.78911096,0.64392585,1.140673,-0.08838027,0.3078804,-0.050044253,0.9445182,-1.2076916,0.6061567,0.46061406,1.0451965,-0.42954177,0.4241244,0.15139969,1.0268326,0.034116272,-0.17738795,0.46122387,-0.13022427,-0.68663925,1.0
Backdoor.Graybird-095879f4cafe44bf45530fa8b6999d7361bdac2f041fc3c4e7afc1d80cbe914b,0.36641744,0.6454218,1.3658929,0.04448456,-0.0022770588,-0.068700135,0.86430436,1.0096829,0.24966276,-0.26739174,-0.75193274,-1.1289128,-0.7385602,-0.0032764801,-0.48775327,-0.94356817,0.5525648,0.31379157,0.47126558,-0.12784556,-0.43731087,0.28532997,0.9605965,0.36509392,1.0
Backdoor.Graybird-09a45409e39fb3077d1e7fea751027d152dfa6d9bd30829749ff4ec5caecdfb2,0.8919905,0.58319896,1.7544732,-0.2551695,-0.60099804,0.6419999,0.8641221,0.9535752,-0.115539,0.35629717,0.24338728,-0.38997123,-0.2779183,0.37255108,-0.21657221,-0.28086168,1.4885489,0.3647302,0.37796712,-0.47698292,-0.5068329,0.33750287,0.5603371,0.39089507,1.0
Backdoor.Graybird-0a1311fceceea990bf446f7afa4fedcc6b7f8780afd4a6c87a31949818f87cea,-0.82050186,0.27938578,0.3697082,-1.2389028,0.029120686,0.5563478,0.5686517,0.23776527,-0.31685513,0.5635353,-0.6342833,-0.11603326,0.1597045,0.689774,0.26348874,0.30798176,0.072043784,0.21834907,1.0244942,-0.32255608,-0.7768403,0.0429179,0.20273766,0.60944015,1.0
Backdoor.Graybird-0ded1dc774b46d985a4e90a46f5d56a0047630d7a6e8df439870f7bb40b57a14,-0.70547026,1.3711067,0.8467904,-0.57170904,0.18814844,0.28448248,0.29716757,1.6319968,-0.7446162,0.14183159,-0.2221854,-0.21468595,-0.9904608,0.22047932,0.44260776,-0.6894844,-0.029919863,-0.71006703,1.1004305,-0.6628709,-0.77525777,0.4793497,0.27878866,0.22548254,1.0
Backdoor.Graybird-0e4b24dfaad406b918efb40923889150f139511f43c56e34deac187d950ce03f,-0.08990807,1.3204494,1.1593335,-0.26683357,0.53935504,0.12010836,0.09669786,0.84330964,-0.11820731,0.66492885,-0.72348267,-0.31472638,-0.42374805,-0.62721384,0.7127836,-1.1132178,0.57633287,0.13181975,1.4185616,-0.8765849,-0.17554323,0.44472736,-0.491516,0.15923695,1.0
Backdoor.Graybird-0e9e218c49e56ec187e145db72a72726d50ae295f08b4bf344f19e13de603ba2,0.28691024,1.2769499,0.73631865,0.33336917,-0.17752975,0.1919094,0.4173334,0.8639243,0.2924676,0.41755444,-0.364235,-0.5632346,0.1996801,0.08037144,0.17875278,-1.3709846,0.9136793,0.5176254,-0.16053525,-0.60874313,-1.0490122,0.19642556,-0.17109814,-0.41538948,1.0
Backdoor.Graybird-0eec1cf54f4696068a4411a96e8deb728f734fac856440cb5175b1204d1dd137,0.53105193,0.99044436,0.8788622,-1.2490942,0.029676056,-0.29017386,-0.08687747,1.4888031,1.1704519,0.45977953,-0.33972356,-0.14898382,-0.0071503185,0.35366783,-0.00037743273,-1.0079135,0.81048393,-0.3565876,0.4865994,-0.7372991,-0.6621035,-0.07797124,-0.6994374,0.10245661,1.0
Backdoor.Graybird-10672ba06f9cceb9fb651a6338f13de953b8a97d9d5164acd08456fb7a974b69,0.23988804,0.30894002,0.9752612,-0.117261976,-1.0617651,-0.1845642,0.66902614,1.0286144,1.1161336,0.3976031,-0.35945645,-0.9338961,-0.42283785,-0.37535724,-0.8098641,-1.0061158,0.75729626,0.20281097,0.5810822,-0.27844036,-0.5670002,-0.16394617,0.616911,0.12962207,1.0
Backdoor.Graybird-1078ebc75c7612450f362dc2e480699e1e6f21473898effad033a32e4e47d5ed,0.5110675,1.0184683,1.5453318,-0.7917876,-0.82818663,0.37474746,0.7528828,0.5735972,-0.059093002,0.22518833,-0.13764828,-0.13278572,-0.8186593,0.6311162,-0.01939858,-0.69198257,1.2400014,-0.2810739,-0.008421418,-0.21352696,-0.8872492,-0.08239596,-0.11597841,0.1860434,1.0
Backdoor.Graybird-1203e135f7e763fee8490a3e11c091a2a7617dc3e486d2bbe6ac81a32bc931be,0.69636106,0.64507896,1.3286045,-0.61596835,-1.0393159,-0.8129676,0.1437766,-0.011405042,-0.13439485,-0.29832897,0.07505741,0.6520661,-0.32708144,-0.107996084,0.4925266,-0.6332503,1.0150604,0.55512005,0.7193165,-1.3131655,-0.30226162,-0.25347644,0.07750231,0.30550653,1.0
Backdoor.Graybird-12efad6f7e8313a41ffc7a49cdd612243712922f8d7947141e366574279077b3,0.59567803,0.55056137,1.2440289,-1.0466244,0.085382015,0.4201363,0.7359005,1.3104237,-0.3728269,0.37910965,0.18588121,-0.61544436,-0.5881306,0.8048784,-0.12761147,-1.0007629,0.96363306,-0.8792603,0.22335957,-0.57263124,-1.1748459,-0.12521373,-0.37650374,0.4194041,1.0
Backdoor.Graybird-12f4f6331583edc2599a31940233f76e950dee226f92573abf7ad0bad10cb2c7,0.45471805,0.7339916,0.860111,-1.0647882,-0.53966933,-0.11831288,0.44235754,0.8075185,-0.7470459,-0.5602422,-0.07529774,0.09241591,-0.16170584,0.5111623,0.49236083,-1.1588203,1.4100045,1.593103,0.40824065,-0.71880007,-0.82593155,-0.6584534,-0.25765836,0.5693042,1.0
Backdoor.Graybird-143c25c7cc08038a40638df3cd01232232baed4a9469f356efc615b5041c794a,1.4656898,1.0605448,0.7442085,0.030114157,-0.16472161,-0.91803557,0.013829056,0.7215914,0.40040264,0.11056975,-0.7323511,-0.42470634,0.11296263,0.6932212,0.36307433,-1.1124943,0.66497904,0.49039105,0.24276182,-0.08269014,-1.2734354,0.24193016,-0.719613,0.074470334,1.0
Backdoor.Graybird-14818f4633cc87ac1b11b53895daa6cbc595065596c7ea86f807fb1a1ad79b72,0.49702716,0.08089628,1.6544999,0.26337942,-0.3997021,-0.5354469,-0.17328985,0.8671676,1.2448591,0.16872205,0.81660926,-0.06417803,-1.222001,0.38321495,-0.58113205,-0.33673298,0.8580567,-0.3161276,0.33281738,-0.7238625,-1.349934,0.3948237,0.21700007,-0.4556038,1.0
Backdoor.Graybird-152a87566246d7b100a299d29e34ce080c52e714e0c2883b904d85c1144de18d,0.3277408,-0.30555663,0.9492261,-0.59624547,-0.549012,-0.086138025,0.11123853,0.3283244,0.69583523,0.108800784,0.80445343,-0.725401,-1.0063336,0.75206375,-0.15628925,-0.4213548,1.401368,0.13605264,-0.1381036,-0.32244235,-1.1471806,0.55236584,-0.008573074,0.2048457,1.0
Backdoor.Graybird-16274674297d97fdb7c53027a4e6facd681428961e31bc85dfff497056b071a4,0.98164445,0.98034847,0.7809545,-0.9219402,0.307929,-0.7683786,-0.44003734,0.60645986,0.015266733,0.21959317,-0.8687502,-0.78206116,0.3779312,0.67369753,-0.2564082,-0.97613925,0.98022,0.09549153,-0.26298994,-1.3528094,-0.900493,0.529863,-0.12156808,0.09344451,1.0
Backdoor.Graybird-16648fd7040db9b96d76e5f70711e8c62721035832f7b87594d62b0dd9b865ea,0.31452808,0.7286876,1.1702925,-0.4417892,0.29746738,-0.62254405,0.40470552,1.3580917,0.5438904,-0.17475007,0.21210001,-0.79509044,-0.7523087,0.7028067,-1.175534,-0.3984509,1.7548779,-0.3783962,0.37600002,0.40227795,-0.5737129,0.57409877,-0.30713472,-0.047781777,1.0
Backdoor.Graybird-16ce6a8444870c762676cc776860c1ff7daa2a2dc76abd29136a36d6538bba8a,0.70169336,0.7230841,0.99996966,-0.1270552,-0.8063889,0.12290371,-0.0407508,-0.78360224,-0.6127337,-0.48311365,-0.08785253,-0.94920236,-0.7899695,0.07141063,-0.3074014,-0.5989536,0.900935,0.6447668,0.55083984,-0.9683241,-0.38954747,0.25287798,-0.20424846,0.37708917,1.0
Backdoor.Graybird-16dc33ad95a90a03f9489182cf6061392a79cbaf96cceb87bd3c6c664daff4a3,-0.4422053,0.3672119,1.5099937,0.4026374,-0.5650141,0.015106059,-0.37583527,0.2756116,-0.1641982,-0.13987081,-0.29400742,-1.3497518,-0.122205585,0.6089703,-0.37631333,-1.2617223,0.75851655,0.49026862,-0.01088192,0.11933591,-0.62169445,-0.116773784,0.5869645,0.13972907,1.0
Backdoor.Graybird-16dc7da8aef050616f3d99fd34b3f0410ce6a38f5a61c9ebc8e86e87195c4be3,0.09003063,0.78951824,1.4189723,-0.89584893,-0.33086267,0.34411007,0.18467236,0.17007928,-0.27391508,-0.1771272,0.60101575,-0.68024504,-0.4834298,0.36953247,-0.62274826,-1.054742,1.429256,-0.5982007,0.3295378,0.39386362,-0.5685756,-0.24622278,0.53955305,0.28950498,1.0
Backdoor.Graybird-1966b6b19ef74c24f458b6477ccb7e8c8427df6d65ea4dc5e0bffb811fbba2d7,-0.16795878,0.8432942,0.76456606,0.13960578,-0.6784592,0.09982177,0.42150036,1.2323179,0.3811495,-0.05731073,-0.8527489,-1.6833274,-0.701207,0.3695063,-0.7473339,-1.2435688,0.84874475,0.023391513,0.31022814,0.27151802,0.09914429,1.1755598,-0.04377463,-0.012995929,1.0
Backdoor.Graybird-1c7dfb9affef8bef118a41d36e3e8c413f3076918a8821efeb3721af52ee5c52,0.02541487,0.5822187,1.6101584,0.08007469,0.41680357,-0.115048446,0.3383796,0.7145424,-0.113372706,-0.46035215,-0.3295362,-0.6429021,-0.62642294,0.48595497,-0.6358331,-0.12333606,0.20031412,0.09926811,-0.23510242,-0.08693994,-1.4341336,0.40521148,-0.5702235,-0.7387424,1.0
Backdoor.Graybird-1cb523870e23e55d0d36af5a2e10472ac25390d3838c52c35b1106034132aad5,-0.24516863,1.2374363,1.2817761,-0.499831,-0.8778187,0.24850099,-0.021837162,0.6988297,-0.520588,-0.06406673,0.01997745,-0.095617115,-0.5671446,0.9332544,-1.0454711,-0.14266793,1.7816626,-0.10183944,0.24662983,0.22072555,-0.7088538,0.017024526,0.6867876,-0.266914,1.0
Backdoor.Graybird-1d17564930dc9cfdb8bf4483ba9763d17dd3f549facfdbe21ad18447663adedd,0.06022073,0.92044497,0.94192636,-1.2806407,-0.3891633,0.43766195,1.0857197,0.7161193,-0.58663136,-0.20023933,-0.020772051,-1.0425557,-0.11759974,0.8406861,-0.35509384,-1.0901304,1.1292981,-0.97399145,-0.38431028,-0.3679181,-1.4037962,-0.14696507,-0.18931505,0.14207369,1.0
Backdoor.Graybird-1d2b95795f54a30db2241b441843c8baa1319704e0bd48f022ac919e71899787,-0.59136534,0.56883085,1.4981651,-0.28300753,-0.46714783,-1.0143429,-0.19011904,0.51926136,-0.85656166,-0.49835896,-0.93548894,-0.924779,-0.34242433,0.65733665,-0.86946934,-0.23537374,0.12303408,-0.23595412,-0.15229248,-0.9709348,-1.0584697,-0.035100807,0.60649556,-0.8062269,1.0
Backdoor.Graybird-1f987748aa836fcff784691f0f5195eaed0187c12906f016b7bbad1f9b10d20a,0.7261312,-0.06862159,1.2697673,-0.35113826,-0.24804986,-0.86494535,0.039756134,0.67720556,0.5729614,-0.31731623,0.051454887,-0.056129597,-0.69657725,1.0887803,-0.7657752,-0.36703438,1.0135733,0.19156109,-0.5022507,-0.37312812,-1.3480492,0.40797377,1.0579545,-0.21753336,1.0
Backdoor.Graybird-1fe3c46136004caa9f4598dbd12db50b539bc0e44de422870a0150ccdf6c4297,0.26232246,0.4796092,0.8039808,-1.1935235,0.017472606,0.8579334,0.6051313,1.517216,-0.4402985,0.40962252,0.2672204,-0.7996771,-0.42706484,0.702014,-0.2909504,-1.2629454,0.8499653,-1.0194508,0.07706324,-0.5494483,-1.2511796,0.08915384,-0.3767081,0.329868,1.0
Backdoor.Graybird-201267f2b8c394b866ce09e16997ce04701a0bdaa1f5651e81d1675af4a567a6,0.2878991,1.2092582,1.2338101,-0.3681234,-0.8396167,-0.17338783,-0.19755264,0.31166658,-0.325742,-0.8478212,-0.06886118,-0.07446628,-0.233329,0.7394628,-0.11061248,-1.416705,1.5202167,1.4619653,-0.09018744,-0.6404215,-0.52859896,-0.33930776,-0.11731352,0.5212379,1.0
Backdoor.Graybird-20459a8ebc99703a2171b85dc321c41ccb8fdd67b606ac75c890156db25d67e2,0.17079407,0.68577534,1.4073708,-0.001618213,-0.489036,0.08545739,0.38941854,0.86731124,-0.1167194,-0.17562643,-0.57046163,-1.3281991,-0.933792,0.33098128,-0.5672576,-1.1491883,0.5541177,-0.046447672,0.7462073,0.24398136,-0.7200695,-0.08211195,0.94880366,0.04982243,1.0
Backdoor.Graybird-21f994f2239ccaaddf25e98859f58e609dbc589127160c943dd884506d0f1e95,0.6231213,1.0500803,1.1959113,-0.118963666,0.23502168,-0.39357874,0.12459321,0.87220895,0.41026577,-0.31923026,-0.6776816,-0.6338042,-0.5018005,0.9328657,-0.68805075,-0.8146702,0.07596936,0.5635065,-0.44436133,-0.2798033,-0.63949454,0.22503963,-0.29739144,0.18197393,1.0
Backdoor.Graybird-22772293d3a3b20b3610ae1c06ab72da41745c57356905855180b45c5d43ae96,0.53798914,0.64147663,1.706808,-0.30153248,-0.36048606,0.76428556,0.16084462,0.45771903,-0.7756389,0.77653503,-0.24261859,-0.66199356,-0.6781628,0.53136736,-0.8317288,-0.42111924,1.1542624,0.13827316,0.22314447,-0.057616945,-1.4619337,0.3371117,0.13389048,-0.31677836,1.0
Backdoor.Graybird-22c98fc9dac84f509083a90a332517ead8eb265fc53ddb1d16e5cfd0dab0ebe1,-0.43427506,1.1524749,1.0925127,-0.08917101,-0.7606984,-0.22526778,-0.106014684,0.59220403,0.055427182,-0.6669233,-0.49504352,-0.25360426,-0.9205247,0.2766505,-0.5982365,-0.8141541,0.822174,-0.09978122,0.25491655,-0.29513985,0.056098387,-0.17029737,-0.20589958,-0.09542611,1.0
Backdoor.Graybird-23259ea20d4f481cdc1bf58894f6280ddbe3fc56d7bfbaaf11bafdf4840f8c2c,-0.47459987,0.65923166,0.27706608,0.019827358,-0.49094132,0.31866732,0.5563267,-0.1685836,0.3771345,-0.116380066,-0.74896973,0.47534397,0.10320997,0.23562391,-1.0860337,-0.07717731,-0.505062,0.37559378,-0.109471194,-0.49225762,0.37299448,0.6693197,-0.058860287,0.7583972,1.0
Backdoor.Graybird-2486e00f3531d89506d2a87525b723d2508b4b8c0040824956aeca41b97d17d7,0.25418615,0.99349403,0.71277994,-0.3468793,-0.42097917,-0.19378954,-0.40193933,0.54411906,-0.51828635,-1.2577664,-0.2057384,-0.3371243,-1.2611305,0.53048724,-0.30135915,-0.39335537,-0.033759404,-0.13468745,0.4998497,-0.27704766,-0.6520326,0.25566995,0.3549462,-0.8620593,1.0
Backdoor.Graybird-2565563f99f161ad465a603000f5a2440b83b12413930bac01d20c6d3924f79e,-0.4741637,0.69827336,0.9895312,-0.33009633,-0.14151959,0.28076535,0.48286507,1.372266,0.031820595,-0.2050091,-1.0333116,-0.7499109,-0.5052872,0.06499812,-0.38182807,-0.63375825,0.532509,0.5314904,0.18886451,-0.17999545,-1.0237787,0.57155466,1.0299824,0.41022974,1.0
Backdoor.Graybird-272ea0be5ed16c1b6a1d0149a85107e382cf7dab94eb40fb49ec17acd3c00b0b,-0.11520303,0.7609365,1.5899197,0.19882697,-0.089010775,-0.43233562,0.5555901,1.3220385,-0.039036363,-0.7569588,0.09171362,-0.37709287,-0.7510218,0.4891276,0.07166817,0.63495404,-0.070152104,-0.23419054,0.6811871,-0.9219861,-1.1179676,0.14298356,-0.4841684,-0.5308044,1.0
Backdoor.Graybird-27c0a52403d572f0ee5abc626a7f5cd834ed6a5b7eeebeadc848a5cc091eb5d1,-0.28356785,0.6931495,0.87357813,-0.08228441,0.22982858,0.28479424,0.38551688,1.3680373,-0.11750996,-0.8466677,-1.2295146,-0.5252661,-0.2907992,-0.18926553,-0.45980322,-0.27471372,-0.097207196,0.3228641,0.114995666,-1.3648831,0.031193998,0.2822286,0.6635148,0.11926685,1.0
Backdoor.Graybird-27d4f0a222bbb2285e395dcbed061a6eeb91a69d6c8cab8c98fd1ffb244c699a,-0.1805925,1.6676811,1.4301242,-0.44997603,0.453137,0.51638603,-0.23332639,0.3267443,-0.8727459,-0.5495126,-0.44845527,-0.49827823,-0.56712216,-0.040371474,-0.31012702,-0.4551588,-0.29237854,-0.33361167,0.5348115,-0.92435896,-1.0601846,0.38956168,0.36004654,-0.18110508,1.0
Backdoor.Graybird-2821c9781c0351109c2a8b9633972e2c71f46371b648d2103c2741f560b60a1b,0.5433607,1.0909194,1.1721132,-0.5139312,-0.9045271,0.39586815,0.32341143,-0.36484334,-0.9128079,-0.2507638,-0.07037773,-0.5531646,-0.6970237,-0.019856991,-0.07261957,-0.6834709,1.2230076,0.3418336,-0.11124916,-1.4549122,-0.69617987,0.6071784,-0.5506879,0.3002888,1.0
Backdoor.Graybird-2860ba35f778ed52b8487fe93a77c05a2d49222ba8f6cb81877c1779d13c1f4a,-0.076558955,1.3213961,0.7851686,-0.44846404,-0.40282318,-0.10782342,0.027020656,0.97791874,-0.42702118,-0.12852338,-0.722919,-0.48508027,-0.42137808,-0.23868166,0.06445947,-0.5576699,0.120598406,-0.34652126,1.4183075,-0.449311,-0.91416043,0.09820087,0.27043775,0.88744026,1.0
Backdoor.Graybird-2a1858cfa17d4f07292362a2719d61c97a487d29a5adf45d8e8b32f3252331a2,-0.2561934,1.5214189,0.51339734,-1.5380927,-0.79918504,0.21911623,0.38435307,-0.049488973,0.4740791,-0.91114604,-0.39134258,-0.17033643,-0.45343205,0.37446314,0.061991096,-0.31676084,0.70057374,-0.12561582,0.0035186305,-0.32063153,-1.3348641,0.33597714,0.31553656,0.23776197,1.0
Backdoor.Graybird-2a7c74a91f4b6f4ed632d97fc3ee8835a7a615cb15dbf6ecbb96526d06f64db6,-1.8672947,0.5850468,0.43225664,-0.6204863,0.42349145,0.018640984,-0.22015424,-0.20553756,0.061689787,0.5496345,-0.3506509,-0.1894379,1.0951017,0.29143214,0.28226945,-0.23466067,0.21360919,-0.7728505,0.7473019,-1.0544227,-0.7065502,0.5150516,0.043953177,-0.4900332,1.0
Backdoor.Graybird-2b470ddd183ec9f15d7cef2e1f2daf7243e1deef16fb6e74cb75b67c5d25df18,-0.419991,1.5511295,0.8656771,-1.096749,0.10995798,-0.1270876,0.022935955,0.7085883,-0.058428224,0.04364996,-0.88605773,-0.30905035,0.06650235,-0.17936254,0.7165269,-0.075523354,0.9815601,0.004101322,0.9100272,-1.3718374,-0.17464706,0.56840444,-0.76633376,-0.16349518,1.0
Backdoor.Graybird-2ca870cb512099a0df67fefee9eb2bf8fd53cc078919852144d6cbff26456347,-0.64305305,1.288502,2.1808546,-0.35917342,-0.14809522,-0.24954359,0.20186444,0.7561118,0.1118389,-0.1118586,-0.5033193,-0.5895996,-0.32932925,0.6653565,-0.89053285,0.20215045,0.09333083,-1.1314877,0.1303771,-0.937571,-0.9054073,0.32728687,-0.63159895,-0.6873188,1.0
Backdoor.Graybird-2ec9be730d82cf10af338e7f25781006744b9dda9c9ff484acfd2de501b05e24,0.6617885,0.94768375,1.227889,-0.8860793,0.26201788,0.094089724,0.45815325,0.98939025,0.15155585,0.26654437,-0.28258732,0.012649012,-0.2830674,1.0290279,0.7323752,-0.26752928,0.8313589,0.059042893,0.042288035,-0.65721256,-0.30714098,0.29857728,-0.515018,0.25363708,1.0
Backdoor.Graybird-31e4807b0f375d8f919a3037f2764686a46d2e41bd957f8edd8f771621a3e53f,0.85839474,1.1649362,0.83229107,-0.75071526,0.21056035,-0.46697015,0.24058832,0.8016706,0.07331447,-0.19735944,-0.21664542,-0.030261695,-0.25793636,0.9749212,0.4089149,-0.38776827,0.5788333,-0.23857631,-0.31853232,-0.8084419,-0.3545621,0.76802146,-0.92517775,-0.8859388,1.0
Backdoor.Graybird-32cbc565918830a83537aef008c3587ea24d2172c7ed3563ac2f4a7506a7a00d,0.8220638,0.25253668,1.5705904,-0.5241406,-0.11360977,-0.47449413,0.10248424,0.96918815,-0.06027485,-0.82853514,-0.18718256,-0.87906015,-0.16486625,0.75068825,-0.14514333,-0.20905419,0.15912186,-0.033195406,-0.42043716,-0.7771349,-0.87674916,0.79443866,-0.25364342,-0.82124263,1.0
Backdoor.Graybird-33e8337aad51e26cebf92f17cdc0c3ffa5ed55c74de4e7cd5b92db2d75e15339,-0.698656,0.47056735,0.3204616,-1.5253615,0.728399,0.17187028,0.11543924,0.14273341,-0.97830766,-0.48377648,0.008009278,0.9222958,-0.32314974,0.8815912,0.50163066,-0.10725465,0.20013584,0.20719737,0.92831194,-0.14487736,-0.2749448,-0.4531041,0.31116968,-0.24697784,1.0
Backdoor.Graybird-340c5cae28749592b0ea9453bd4f7d109b2fe2c8a03041e5da9961a7339eaa34,1.2978815,1.2782016,1.4682645,-0.43716714,1.0320218,-0.042753123,0.27068233,0.82010263,-0.10293969,-0.09290719,0.15572093,-0.41143194,-0.23039237,0.7988519,-0.120317146,-0.63283503,0.55998963,0.5682068,0.18528144,-0.5406736,-0.8635816,0.348288,-0.3646198,-0.24085099,1.0
Backdoor.Graybird-3472255f40fa8003a08d8c641d9d2c5d0f749bf4c0420fc9a22040103a97c35b,-0.19156268,0.7018828,1.3757608,-0.9047694,0.0762769,-0.22017439,-0.5966834,0.2843613,-0.45894143,0.18358213,0.2912358,-0.09555292,-0.7339324,0.85087717,-0.35187802,-1.1245217,0.5309686,0.44794944,0.53856677,-0.09403438,-0.07220968,-0.27854437,0.7715344,0.17382556,1.0
Backdoor.Graybird-3473cb362c74478f5f8d200d068fbf1806d2dca138264e942574fb7abd324b42,0.41416836,0.93685853,1.2529927,-0.8004429,-0.8001674,-0.58746547,-0.8525569,0.17438978,-0.899252,-1.1500555,-0.32845142,-0.3835481,-0.4597704,0.7043367,-0.19091563,-0.2227118,0.35616204,-0.22820717,0.22988045,-0.5046618,-0.86930764,0.3916738,0.03922658,-1.10367,1.0
Backdoor.Graybird-349a9ef306724d4e0a569074528204ac93186fc10679de7c0fd4117b7e674adf,0.82035685,1.160202,1.1912669,-0.40159345,-0.15462597,-0.68752074,-0.65007174,0.732547,0.05279845,-0.29323265,-0.20851697,0.5021741,0.5952572,-0.6179059,-0.21844111,-1.2591915,1.2800641,-0.36766884,0.19732144,-0.35601315,-1.0827237,1.0354754,-0.21926081,-0.106493615,1.0
Backdoor.Graybird-34cb2e3660a417e83f902c990f20b3d0efa6e84ad20a7c769f2944cc333bc47b,0.6649063,0.1503512,1.5224235,0.35762256,0.14002009,-0.6780917,-0.62267935,0.97114426,0.067284286,-1.4069841,-0.057986952,-0.5145955,0.076224685,1.0507452,-0.5756611,-0.6962677,0.28656366,-0.030216606,-0.82025844,-0.40571705,-0.9498409,0.8383226,-0.08301885,-0.38712153,1.0
Backdoor.Graybird-3512ae0eba2c3f6e4e6195c0e1bd70b9a9e3b3d7708f403ed4b5e281e4a1a120,-0.22130309,0.45705456,1.9333436,-1.1484087,0.5621233,0.9525526,-0.74936295,0.49367258,0.12776636,-0.2857406,0.8937977,-0.05820654,-0.72269815,0.466546,0.07035433,-0.6299668,0.34464523,0.7901354,0.0130295865,-1.0307972,-0.6453113,0.51227075,0.039306805,0.1335761,1.0
Backdoor.Graybird-35808e06d5ab73341611da612e9a37252f07f2bc7801725569ebb49895f59a05,-0.18923077,0.40305793,1.1739782,-1.1632158,0.84932804,1.1573337,-0.84483993,-0.23433302,-0.75560987,0.07324876,-0.2729897,0.26178384,0.085940585,0.8384696,0.2298733,-0.3249386,0.20332918,-0.837542,0.9293751,-1.1470004,0.3816453,-0.33255005,-0.0025566898,0.32950723,1.0
Backdoor.Graybird-365bea068bcb7c92f0dbf6868e8e6ac2d49feaae2d6464a4fbf9d4dc28ea4189,0.49620274,1.2413112,0.710654,-0.28348854,-0.36253554,0.6189992,-0.6797074,0.69666106,-0.5562411,-0.4761991,0.39960244,-0.36150226,-0.9774165,0.20930538,-0.8350359,-0.89969766,1.2981254,-0.5181151,0.6194266,-0.41858578,-0.33267593,0.5239682,-0.23198326,-0.24931565,1.0
Backdoor.Graybird-3796ba03a70668fe9a40cd399da7963d6dded9136682059f1443d5b493d37a83,0.29529563,0.89491385,1.6192266,-1.2093588,0.17297854,0.40718585,0.742608,1.1030923,-0.3906414,-0.17664345,-0.042509362,-0.14244269,-0.46320456,0.096967615,0.2907598,-1.1398917,1.4600581,-0.87224483,0.3546377,0.23785432,-0.30428022,0.59267354,-0.17286615,0.8529659,1.0
Backdoor.Graybird-3799f857d04896d9155038342c96e32490cab5ce67ddf33dab263184d95ea41b,1.2903053,0.89724016,1.6663939,-1.0491986,0.37967137,-0.55159104,-0.12839396,0.5536915,0.63579726,0.41400778,-0.3211823,-0.11020544,-0.06245388,0.48661476,-0.15700349,-0.7097917,0.9339468,0.5355103,0.15271053,-0.6906688,-0.6011657,0.8774622,-0.5894852,-0.32210633,1.0
Backdoor.Graybird-3920bdcebc14233421ec142268749c0cc1358bba2af6e2e561ce3ac346db2d8e,0.9358749,1.5501636,0.68342143,-1.1409763,0.12305451,0.18277864,0.8215605,0.8523498,0.37291762,0.30967104,-0.4941932,0.31615466,-0.57868546,0.94693774,0.37316313,-0.2689302,0.5902982,0.39744064,0.06377179,-0.64258605,-0.6985397,0.5733891,-0.3447516,-0.4491312,1.0
Backdoor.Graybird-3a81fabef97e62aaefc48fa799a00c00d531afda4d49a58e90161dfef215d056,0.33070472,1.1669173,0.40386233,-0.76308626,-0.6239441,-0.25089175,0.62297404,1.4050584,0.24392295,0.12469107,-0.64356226,0.106909744,-0.5047087,1.5933821,-0.736346,-1.0428075,-0.1837578,0.38920787,-0.0924533,0.26221493,0.4264303,0.86703956,0.9003387,0.30517375,1.0
Backdoor.Graybird-3ac9b0f65d3a26c5fe28cad9856d7119d2088f7cab78c37aa12348ea3b3bc000,-0.27878082,0.7938512,1.5315763,0.04588533,0.06247298,0.68053883,0.7376983,0.7856132,-0.16642648,-0.3843773,0.22985825,-0.40100813,-1.0777261,0.044651385,0.14447205,-0.78044295,0.14470445,-0.60344356,-0.09514256,-1.0320036,-1.4059753,-0.51601917,0.2712101,-0.062602594,1.0
Backdoor.Graybird-3b6230033969a93587fc1d795bd800de9478b437d400bfaa3a1fd7ab0b082102,0.60413784,1.3237447,1.3646336,-0.728164,0.4477829,-0.16834408,0.5824086,1.1247483,0.20587975,0.04599446,-0.1986027,0.14180094,-0.5745028,-0.033676382,0.33732066,-0.59336406,0.3272211,0.24555421,0.6005314,-0.86328936,-0.07306306,0.7347126,0.13425879,0.13776928,1.0
Backdoor.Graybird-3bd529df6d6af1c83eca9ff3fd494825f98908773b73ab6023b2d08e30fc9141,0.9917914,0.3877592,1.7738186,0.11796155,0.0056737,-0.35849723,-0.2811369,1.0338709,0.38097873,-0.84277,-0.20497476,-0.4355475,0.27702507,0.9948079,0.1245174,-0.54703945,1.0335974,-0.090226404,-0.7226224,-0.8995951,-0.54349464,0.32984817,-0.00046302436,-0.18935022,1.0
Backdoor.Graybird-3d4c37580fcfcd3162538e57ebfd65f89caf379c9158dba626690d2ac7a24154,0.050335035,0.34028032,1.1583627,-0.90085614,-0.07830233,0.23685259,0.68876904,1.3478388,-0.3569485,0.18603829,0.19562265,-0.616916,-0.14831111,0.42310894,0.32180318,-0.9500006,0.8291721,-0.40652975,0.042034447,-0.9161993,-1.2602621,-0.20346336,-0.41158116,0.34531227,1.0
Backdoor.Graybird-3f40d1874219ac8f6ba08b587a9547da773b0356b58e4d40f584b595740fa7a4,1.2404301,0.4749664,1.6241556,-0.3041351,1.0446525,-0.63803536,0.21194455,1.0866717,0.6227446,-0.35590675,-0.6656334,-0.64990586,-0.09343496,0.892908,0.2969952,-0.4889338,0.5698104,1.0325288,0.39181128,-0.31848693,-0.87602574,0.16488732,-1.0879482,0.21480572,1.0
Backdoor.Graybird-3f4164fb248bf610709ce9546b2e1a2463d08270db94dbd7b8e42d16023a71b0,0.8266097,1.5279461,1.2832551,-0.6106937,0.3584601,-0.3387128,0.6915372,1.1513126,0.19244382,-0.25513333,0.16109328,-0.18343934,0.26682445,0.3162465,0.003933992,-0.7571378,0.92690533,0.6823095,0.15651041,-0.7680652,-0.655008,0.7446161,0.22371483,0.05563925,1.0
Backdoor.Graybird-3fb1f955c5fedc93b423be002cde34a6436194ec36974c890a015566749cbfc9,-0.6034391,1.107811,2.2097173,-0.27993035,-0.43404317,-0.35140905,0.58034444,0.77220273,0.15067354,-0.11445493,-0.44875798,-0.81897354,-0.5605007,0.42195162,-0.55693316,0.20959419,0.09166793,-0.7940441,0.22221345,-1.1677345,-0.386545,0.5563768,-0.45942712,-0.7746017,1.0
Backdoor.Graybird-4038529ffe618fbca7b702da5a4588bf4f827bfe34e22bedebc16bea8ac5cd5b,0.36293253,-0.0007854409,0.99534875,-0.6961048,-0.14421947,-0.275113,0.30528915,0.679537,-0.4982008,0.20405658,0.07441115,0.73437804,-0.5057095,0.88912654,0.077594295,-0.035827056,0.59264565,0.5530742,0.112620875,-0.45508716,-0.9541865,0.04633225,-0.5166887,0.4107864,1.0
Backdoor.Graybird-43915d2a212d5620489fc5dbbbf17d934ab474e34a1058aa28ea2ae0160d6a7e,0.46343613,1.0287341,1.7812055,-0.6474686,-0.82590294,0.2354374,0.7883014,0.92631954,-0.15633684,0.21669841,0.04870889,0.02336128,-0.85184944,0.85551333,-0.18694289,-0.5417233,1.6508458,-0.02190413,0.20945206,-0.040445324,-0.627331,0.24275856,0.067584485,0.31965858,1.0
Backdoor.Graybird-442eb6cd344fcc9a88b1ef5a28e662ea6a9415ff012b27b75ca3b8c07af9ae61,0.31543618,0.94655704,0.66014063,-1.1090373,-0.16903971,-0.29902402,0.651115,0.5234077,0.5085993,-0.9842992,-0.60655755,-0.0332781,-0.41838503,0.70930403,0.6461946,-0.10381394,0.6137748,1.0138764,0.16004914,-0.13537739,-0.8279689,0.6191438,-0.046615392,0.15053092,1.0
Backdoor.Graybird-45133c62869e94f748e8f947328388b6cf1190cc750f712e25695ff4e87a8ec0,0.104161516,0.80616564,0.9402592,-0.59875077,0.16008112,-0.7790621,0.6232367,1.21826,0.054138415,-0.03521741,-0.8564567,0.09365705,-0.12730412,-0.1362923,0.70559084,-1.0465008,0.94836605,1.1552156,0.15411195,-1.0699452,0.60483146,0.6073397,-0.79713696,0.025576435,1.0
Backdoor.Graybird-4611ce9f971ce2a63d17317779aaa34aebb478c1a91c3031abf37b39a0e8a754,0.50851274,0.8051195,0.24938849,0.21337368,-0.61606175,0.39138812,0.7475011,0.5290855,0.19430174,-0.23728776,-1.0490324,-0.48768464,-0.65992814,-0.12569314,0.85245687,-0.22744633,0.276491,0.5502947,1.0171491,-1.1366878,0.1449006,0.27818763,0.21524417,0.0179197,1.0
Backdoor.Graybird-4768fb2a55ff7a38d1c9f26c22517c25e81050233f75a43909f56cf2bab55549,0.633915,0.32729593,0.92191964,-0.9582203,0.12157484,0.7840022,0.26366043,0.75753856,0.331998,-0.46867797,-0.26265588,-0.08795788,-0.7135543,0.6868347,0.031052688,0.3571197,0.94948727,1.433792,0.19030727,-0.9222798,0.04210268,0.73957884,0.12356671,-0.05205923,1.0
Backdoor.Graybird-48641176d1e0ac527a5bb4a797afe8ebddb93625bfb2e7878a0cd40164988326,0.40980223,-1.375749,0.41082877,-0.43381697,0.17988849,0.5650271,0.6347278,0.5186728,-0.6936698,-0.36860678,0.019618876,-0.38454598,-0.26022762,1.0687426,0.009445617,-0.20260224,0.94127,0.6801595,0.028380781,-0.4858716,-0.4125083,0.0074859285,-0.5206251,0.8475798,1.0
Backdoor.Graybird-4873836e446dfd4e56e491364059f5f6642b9e62c3af541249d2a58f060d810a,-0.16377409,1.111707,1.295264,-0.63444364,-0.8889287,0.030539148,-0.25947264,0.11199168,-0.8300359,-0.7285692,0.2761417,-0.37293687,-0.47150558,0.91416925,0.33801493,-0.9959883,0.94100434,1.0656942,0.09968131,-0.71025217,-0.16115545,-0.1498595,-0.37771547,0.37733328,1.0
Backdoor.Graybird-49584192e192cd599da8b7891636d00d60f6e3a1714cec9384e53f0c3ff64dad,-0.5731529,1.2013024,1.158862,0.07296881,0.61586434,0.43272758,0.07431422,0.9647327,-0.3447387,-1.1791606,-0.82919633,-0.3003323,-0.05243141,0.3900137,-0.15864605,-0.4295107,-0.31254378,0.2317383,-0.15757875,-1.0834042,0.4400184,-0.03953656,0.059000306,0.23164506,1.0
Backdoor.Graybird-4a7c1f06c02316a383b3509b0530d50eea0fc52e3292f80ef6d99337ed1976cf,-0.5065706,1.4830432,1.2147397,0.09491397,0.42744943,0.0023678732,0.63383216,1.1710085,-0.19796072,-0.15205653,-0.47963867,0.09076866,-0.37635055,-0.557874,0.8541462,-1.2325045,0.2095713,0.7159594,0.51721376,-1.6638309,-0.11374798,0.6684907,-0.23779245,0.20796867,1.0
Backdoor.Graybird-4b3805331f864f1002915b1b89e8f70643baaf6b43b688a32c2cb3810ffb3b4a,0.6372766,0.46073797,0.30280513,-0.04754787,-0.8559199,-0.18284026,-0.051744524,-0.27076456,-0.7627515,-2.1749263,-0.66693765,0.18119949,-0.55858123,0.4941245,0.12894629,-0.9164199,0.15349586,0.6327107,0.23545243,-0.78798217,0.83128554,-0.11026055,0.19990388,0.2633047,1.0
Backdoor.Graybird-4ee3bccc014a06cfedefb088d22c918bad78cbcb74568815a14ebfbbcf119d37,0.46568635,1.409907,0.69034046,-0.27947512,-0.27494666,-0.17493236,-0.16177486,0.059232797,-0.11048845,-1.5195143,-0.80184,0.6243925,-0.71778387,0.9135017,0.43683684,-1.2965889,0.708681,0.78280723,-0.1611523,-0.8168943,0.31429598,-0.16156301,-1.1045152,0.7947287,1.0
Backdoor.Graybird-4fa0fe574b88526a330dea8e92ead1925846131a452b09c7a42eeee07e2be5c5,0.8646395,1.502647,0.74062705,-0.51237124,-0.7169981,0.7463618,-0.13975665,-0.74779195,-0.4759334,-1.3536144,-0.2470885,-0.52187437,-0.20568834,0.35642895,0.048460796,-0.71920186,0.7299131,0.7851238,0.9015054,-0.5758965,0.715294,-0.17932358,-0.028457263,0.13640437,1.0
Backdoor.Graybird-4fb50e21fca67a80c0600b322ca12170a8283b4b04073cc330aefa42e3f01cb1,-0.14857464,1.2686534,1.4402277,0.10241749,-0.08187065,0.51737684,0.2045408,1.0061289,-0.019662581,0.0062112804,-0.9691703,-1.6364664,-0.3311027,0.1759495,-0.45351163,-1.4524242,0.27479023,0.5488788,0.7220859,-0.29995012,-0.10920279,-0.12952858,0.39616588,-0.2089724,1.0
Backdoor.Graybird-50d21079164fd8e7d563e365422688728379b15b4239beb025e4109a16f4f758,0.13188931,1.3502337,1.0281861,-0.43729386,-0.29417625,-0.27345657,0.13067202,1.1017905,-0.4073708,-1.6996313,-0.86658055,0.113020144,-0.065312065,0.4719896,-0.23338835,-0.43350738,0.3746977,-0.22617,-0.18406731,-0.34164697,-0.8157763,-0.23665671,-0.22676608,-0.36169627,1.0
Backdoor.Graybird-51500e8ba9a95263700256b5b7b75c162508a80b3de7f0eb946ecacf98d78ff7,0.8746094,1.4449176,0.6317006,-0.34692547,1.314891,0.008648295,0.29824707,-0.17745923,-0.38993695,-0.25088984,-0.35892317,-0.020372998,-0.12986258,0.24930683,-0.0030343337,-1.5264603,0.18352205,-0.39729995,-0.1881327,-0.4591359,-0.37146634,0.37376428,-0.13201562,-0.09995369,1.0
Backdoor.Graybird-51faade6c8030b7f7b359977e1d699538610f96747fa89f8a1b0ea49926cdd36,0.88653904,1.5394984,1.034394,0.11975194,0.5833642,-0.05994973,0.4403037,0.10676033,0.30766237,-0.38178465,-0.58041084,-0.0033133556,0.6223876,0.30101782,0.011322727,-1.4601951,0.920325,0.019267567,-0.9700612,-1.1921843,-0.35282803,0.42556426,0.11391141,-0.033116937,1.0
Backdoor.Graybird-523152dee0737aae6b8210fb53d9ae9b2bf6be10a89e399cf1b0a193972f282f,0.6370283,1.0433708,0.9121575,0.14208321,-0.29542825,-0.20203337,-0.034198333,-0.014325828,0.15616176,-1.6480923,-1.0279344,0.46996042,-0.032814067,0.6174647,0.4298237,-1.1464189,0.31986567,0.3971627,-0.2399323,-0.8181724,1.2313907,0.2485591,-0.5869162,0.09375397,1.0
Backdoor.Graybird-5266d90616b279757b5839b40696798dbe68c783582ecadb11cac439583b6212,1.5121516,1.2319077,1.4019747,0.023585357,0.845761,-0.1763807,0.6417113,0.36719033,0.38514915,-0.50156707,-0.6768121,-0.5844236,0.25799432,0.57263786,-0.21804787,-1.2391624,0.48583972,0.56375164,-0.50027823,-0.68148685,-0.30340612,0.4244404,-0.5878597,-0.18426201,1.0
Backdoor.Graybird-53078f85f6b3651de46b7551e7f032e1734e80f6c89faf69560b2b92a5a94747,0.8640511,1.5766026,1.1215137,-0.24570026,0.31942168,-0.47001392,0.47388035,0.75101894,0.6720883,-0.5601553,-0.22448981,-0.17579933,0.5274712,-0.19470078,-0.6966914,-0.9061584,1.1173235,0.423066,-0.16953489,-1.2166877,0.019445889,0.9974033,0.6820864,-0.6903363,1.0
Backdoor.Graybird-53ee4a2152057901cd94a7f4d548f02a3937cdf4186d27a33f991382b93cb631,0.9573242,0.86684775,1.2850486,0.07265575,0.49301857,-0.7124033,0.1630164,0.76864433,0.72971296,-0.51296103,-0.0125030335,-0.51867557,0.019452855,0.55314666,-0.65205914,-0.6471714,0.86339,0.65248483,-0.1571077,-0.28159407,-0.4115599,0.6519602,-0.16211954,0.13174349,1.0
Backdoor.Graybird-540e9c189e9d37ffb217e7a0dc732fffef53c3efd3d0317f44bc3bc05b69fe28,1.1765077,1.2584187,0.9626821,-0.14825721,-0.5592431,-0.041094683,-0.063031636,-0.4850507,-0.79575354,-0.4693877,0.12114397,-0.8541733,-0.6515529,0.025157886,-0.49794105,-1.3460414,0.80838364,0.87300473,0.32852754,-1.114493,-0.3935489,0.42409584,-0.046881296,0.27211452,1.0
Backdoor.Graybird-54aa30e8c4b561710cadfa1b08bec3380375ff52f9b9485c946e177499b90e93,0.767011,1.3786098,2.006839,-0.49546748,-0.531523,0.9602206,0.70681405,0.76941997,-0.44339716,0.12704243,-0.31660655,0.40084952,-0.01659639,0.48437876,-0.33796784,-0.7792545,1.1786342,0.33006623,0.01965709,-0.03079726,0.05131485,-0.2705224,0.4550891,-0.23184907,1.0
Backdoor.Graybird-54c2b04305bbaf46d7fa1fc9901bfc4cc51b632f8ff0004fca5c9d0d34a43e88,1.1443006,0.9852713,0.8077198,-0.68665165,-0.12950563,-0.56722033,-0.22656375,0.53477174,0.19113354,-0.006340316,-0.95835733,-0.38836482,0.10507704,0.61398864,0.23325433,-1.504446,1.0618731,-0.0021018982,-0.4313032,-1.1953229,-0.78110826,0.432389,-0.43957204,0.081873514,1.0
Backdoor.Graybird-5508b64b67d9039955e8e78c7303205e0bf31f2fff2a412cc009217a3b843c42,1.1066902,0.95023084,0.74151045,-0.17159088,-0.9574506,-0.42322335,0.10197256,0.16918272,-0.35368967,-0.9827902,-0.52082336,-0.32076496,-0.09773081,0.5458977,-0.36316293,-1.5194452,0.5581618,0.13220379,-0.011130212,-0.2768337,1.124206,0.18799514,-0.34314185,-0.36609194,1.0
Backdoor.Graybird-553ea1898739926e3c60643be9671a798abf142557d4b169cf15e8e5bdb907c4,0.9606342,0.75325376,0.90156573,0.1478416,-1.0858918,-0.20806944,0.4436236,0.021006761,0.22316395,-0.9701813,-0.5408372,0.21789782,-0.56165975,-0.04425908,-0.7684581,-1.0571642,0.73722434,0.1176117,0.17967542,0.12293663,0.45378453,-0.09956141,-0.10457298,-0.4006896,1.0
Backdoor.Graybird-56d68b4fdc5c32b9c7b6eb0c20c22903b6db6bbdc85deeb1672b96b1053b7702,0.43837437,1.08024,0.84384006,-0.8407481,-0.6243189,-0.084140785,0.7125497,0.034352876,1.178701,0.09267512,-0.29908088,0.2747116,-0.569985,-0.4900891,-0.79902637,-0.15968391,0.033449117,0.095426984,0.8193713,-0.068898074,-0.34809288,0.68395615,0.19616869,-0.35350266,1.0
Backdoor.Graybird-57ff8c60d243dfa0c50b38830b71d9935436c7681da9891396a9a5dd5cbc2596,-0.29434463,1.3358784,1.9193952,-0.14673382,-0.47359264,-0.80745536,0.24987063,0.2325544,-0.04997067,0.49982902,-0.59637743,0.29762936,-0.3761498,0.41494328,-0.8209538,0.014322313,0.53732073,-0.13258877,-0.006720349,-1.0350673,-0.7300676,0.08047832,-0.64610827,-0.7818764,1.0
Backdoor.Graybird-598964da286937c1fb024677585b5d6fb4a214187a0bc61264871b41016b7f75,0.44639868,1.2633582,1.3890423,-0.997194,-0.57281005,-0.83746475,0.48556635,-0.059096865,-0.440332,-0.09251181,0.008016654,1.1485474,-0.79325324,0.3442787,0.25998545,-0.80664706,0.96915203,1.6624179,0.47067875,-0.95865077,-0.51112455,-0.06483425,-0.26392823,0.015698982,1.0
Backdoor.Graybird-5a80a9d8a1cd9ff7dd8ded5152045cf323620251db85d71f355794d2e4c26c82,0.36941442,0.5888709,1.3155307,-0.15124647,-0.8626115,0.15365306,0.68833375,-0.014743029,0.43189242,0.6220384,0.29652795,0.14452292,-1.0466235,-0.17053813,-1.1314385,-0.78743273,1.026019,0.09741342,-0.22302212,-0.18547806,-0.77649516,0.5015802,0.10744356,-0.46514535,1.0
Backdoor.Graybird-5c75303926f53f292fe5acf87d08293b2b626af5cc8c69501dec28f11fb03bce,0.18254775,1.4101603,0.44917315,-0.727507,0.072710454,0.019490672,0.6262918,0.60438514,0.08911335,0.7527126,-0.6344434,0.50773525,-0.70660275,-0.25572947,-0.5998303,-1.5978205,0.46231404,0.036192324,-0.03269114,-0.11605883,-0.8199249,0.723446,0.4151122,-0.66893953,1.0
Backdoor.Graybird-5cbab5b1edf3be8aba7f313ea0e50221e824a6cba2e40df2dae24cb8a7a8fafa,0.7666686,0.8989573,0.84710866,-0.79592484,-0.25436527,-0.37341318,-0.091678254,0.097895406,0.58969975,-0.100357674,0.44709426,0.1484887,0.04344539,-0.4198394,-0.26144585,-1.9160148,1.0124123,-0.15885963,-0.5402269,-0.9519751,-1.0922873,0.75851417,-0.27934933,-0.22794431,1.0
Backdoor.Graybird-5e73532a8544c28bf2076391c5b7c0c39fa3ad1ba60441f722a4649aca25d20b,0.0477172,1.208301,0.8664575,-0.7319926,-0.9917589,-0.31032008,0.7990701,1.3141782,1.4271495,0.60826886,0.021584509,0.6792822,-0.2775128,-0.5389865,-0.60474956,-1.0746683,0.6897473,-0.3613229,0.36004382,-0.23119542,-0.34921676,0.6150279,0.14530931,0.15375379,1.0
Backdoor.Graybird-5e906a24c568f2c1132a8a0154207773b8c0ff6986ab56ceab00a8cfc9c2d5b6,0.6183612,0.80107427,1.1809381,-0.8029219,-1.0976677,-0.5905696,0.80149376,0.04340857,0.066362634,-0.36827236,0.26024935,1.0058793,-0.14562201,0.08308395,0.36500964,-0.74978304,1.0488565,1.0233129,0.014894412,-1.0160922,-0.33242783,0.21267655,-0.32255408,-0.097028494,1.0
Backdoor.Graybird-5fcb64cfd38ba0a62f85708679fde53986d09f5038c72f149819ecab6dc8507e,-0.062454037,0.51624745,1.0311408,-1.0243909,-0.6221678,-0.62226653,0.18693347,1.5346602,1.1239514,0.24791072,-0.47998092,0.5923836,0.20302992,-0.12458919,0.2912762,-0.9967015,0.79334193,0.70705605,-0.07950268,-0.55777144,-0.49239743,0.7372821,0.039598342,-0.29113558,1.0
Backdoor.Graybird-60b1b1bee471d35c2e07afcaf3c8005576c2cb29eccec1ee68bf23cc76af078b,0.45675388,0.28267944,1.0779827,-0.3190983,-0.2973672,-0.59416825,-0.37393022,1.2789484,1.719067,-0.1851903,1.0210527,0.32621583,-0.31425518,0.29995897,-0.5530418,-1.4611291,0.8647342,-0.2633412,-0.05002812,-0.2824649,-0.5839596,0.45031554,0.47186604,-0.31748688,1.0
Backdoor.Graybird-60d764cb2a5e9e67977f7d978aa66df908db656bba989d480f3b6ff68202e4e2,-0.48154727,0.9352678,0.5986222,-0.15764046,-0.27993497,0.23271596,0.71674985,1.6405739,1.403517,-0.04217105,-0.48397523,0.6927586,-0.28579783,0.01754306,-0.99366647,-0.97774744,0.37107462,-0.6152628,-0.57023054,-0.9388068,0.06329886,0.24799065,0.8025802,-0.11408975,1.0
Backdoor.Graybird-61add8504bacaafb7dc19c8a24bde60b28dfcf574d101e5533c12d95895958e8,0.17264105,1.4904202,1.4351094,-0.74585253,-0.13323842,0.13604294,0.112373166,1.3011417,0.4205416,-0.052098937,-0.055264357,0.029691458,-0.5717258,0.30493084,-0.4651868,-0.7621484,0.45548627,-0.6652404,0.054422196,-0.44955924,-0.6504881,0.64012355,-0.12649997,0.41894925,1.0
Backdoor.Graybird-61f39838e948a57120a57619fe6b93fb9c9b2a150636f0a3a1cb870b52b288e8,0.557861,0.7223841,1.0491617,-0.1569381,0.25831237,0.120842084,-0.0031435974,1.649231,1.3778281,-1.0852442,0.48305723,0.47260708,-0.58461535,0.17109048,-0.62602335,-1.7100879,0.7580571,-0.2573793,-0.6369184,0.00830628,-0.6296307,0.53970885,0.3178081,-0.1692702,1.0
Backdoor.Graybird-61fb0d0c3ed4f269fb8497a0abfef6dc543c509650b2af81aabeb605fb11e7ac,-1.4759874,0.7719192,0.7830749,-0.8395786,-0.3634145,1.4445617,0.12614489,1.1314654,0.11480989,-1.6871283,-0.98361593,-0.026611254,-0.3764709,0.031151403,-0.46578884,-0.5728641,-0.0664416,0.57596374,0.051438615,-0.4514961,0.31905174,0.06665162,0.5997488,-0.20657945,1.0
Backdoor.Graybird-62a7401d04f88017eaf9a90cbe104e71cf86c982e930cdaa41f630cb40eeef87,-0.9789243,0.8994081,1.3865774,-0.56852776,-0.1477029,0.41605607,0.13623182,1.1850208,0.27811655,-1.5451198,-1.0522422,0.23600964,-0.2720545,-0.25840595,-0.53346205,-0.36635235,-0.20351923,0.440274,0.011283615,-0.56538504,0.47114456,0.5910114,0.8533618,-0.6505402,1.0
Backdoor.Graybird-63e2eb4bc7fc4ce5504efdadfe434d52ad8b3699d5670c575b0d6749eb9da2a1,-0.2979183,1.2310427,0.6127124,0.24946557,0.051939033,-0.0017361429,0.5615032,1.6723872,0.5104019,0.2142487,-0.37775263,-0.34678152,-0.7872852,-0.13401137,0.19066803,-0.9220332,0.055411905,-0.21456791,0.5458422,-0.63927877,-0.9198835,0.82576567,-0.20849083,0.093864895,1.0
Backdoor.Graybird-65991ce74d589f9fe4d0cefbe5eda390986221c041faed595ca5b635a48460cb,0.01421097,1.6104065,0.41817003,0.40864348,-0.036351945,0.40093112,0.6083183,1.3375238,0.034441296,0.63661975,-1.0570275,-0.23992461,-0.13651238,0.37340865,0.28039792,-1.5020835,0.36518997,0.7110717,0.34212342,-0.28050128,-1.1078868,0.04651691,0.29099426,-0.51635635,1.0
Backdoor.Graybird-65d264ba371d426165a67d137b3a7da59ee4c7d2f919832a3ab028825e0177be,-0.45392463,0.90007174,1.2604307,-0.38600078,-0.28930253,0.158447,-0.29827043,1.4955144,0.49409607,-0.29078558,-0.33672947,-0.97084653,-0.16035162,0.06413918,-0.89520305,-1.012014,0.98187053,0.027510861,0.1483511,-0.106374145,-0.920116,0.46632406,0.49813303,0.25428602,1.0
Backdoor.Graybird-66786bb835a1674bc9295a67c584c9da1aff48441df00a21451727cf3b1e6a9e,-0.041972034,0.91101205,0.84899753,-0.08338409,-0.66945386,-0.056028962,0.50036466,1.1147995,0.2751321,-0.039317682,-0.9555382,-1.859348,-0.61681795,0.29195848,-0.65855354,-1.1453228,0.691931,-0.08363606,0.11701888,-0.34759262,-0.23106916,1.1061033,-0.07999388,0.084476784,1.0
Backdoor.Graybird-66c23272f29f90036382aa571ce861ef2d542d96de626fda2ee58ae67bf5b9d6,-0.7374215,1.3263543,1.4496855,0.057493042,-0.13835187,0.045296155,1.0990258,1.3136566,0.20379972,-0.4876125,-0.94627726,-1.1918191,0.25058052,0.14182512,-0.45719492,-0.020540932,-0.17832828,-1.2718608,0.30468827,-0.7542771,-0.7061225,0.9916288,-0.71501803,-0.9130155,1.0
Backdoor.Graybird-66ef45fab44825af0fcd0f58e3ccab4792697337741dae14ea4faa1d4664e20d,0.13519035,0.64933246,1.0106187,-1.1978363,-0.44954345,0.13660517,0.5503875,1.4023817,-0.4570991,0.005384368,0.2760174,-0.7087896,-0.6157177,0.40903252,-0.040224496,-1.0078919,0.9601289,-1.398113,0.29674202,-0.6942357,-1.4510417,0.4097459,-0.3290383,0.31552383,1.0
Backdoor.Graybird-67425cd076901418623f3637faf1494475f22b93e177b42592d3330628cb1290,-0.33162123,0.06702835,1.4265897,-0.39081764,-0.52781814,-0.28643662,-0.14181085,1.3467574,0.39717388,-0.21072115,-1.2171597,-1.206339,-0.31971794,-0.07869851,-0.18388596,-0.14847685,-0.009813378,0.118952915,0.46631595,-0.41688,-0.9562028,0.69067746,-0.6857031,0.08543664,1.0
Backdoor.Graybird-69c8069ecc84dde235d404175eb4bb9f290b5d1a4ea6e38ec5546db7e8297763,0.70288086,0.6071236,0.6208799,0.19256856,-0.5293327,0.059387613,0.0034597476,0.7524779,-0.12724498,-1.8023672,-0.49741885,0.26490033,-0.23299676,0.62487215,0.7428653,-1.2980684,0.545134,0.6178201,0.040994655,-0.67485523,1.0318513,0.105727024,-0.87794,0.23166874,1.0
Backdoor.Graybird-6a098aa51cf1f256b4f7ba9a00f9dd694ce861af7631c2017787b649a3c9303e,1.2346509,0.9222635,1.5521172,0.056844458,0.51590157,-0.29598337,0.12381801,0.84324116,0.7449483,0.14969634,-0.11059722,-0.7041687,0.19835523,0.19470577,-0.05476721,-0.9138637,0.79691523,0.48718953,0.39734685,-0.33442175,-0.596467,0.50087,-1.2862407,-0.53971475,1.0
Backdoor.Graybird-6a7abfcf01608d31fd5666e4b92bd5e4a461b40fb54721d26ba40107a3707012,0.5367477,0.8117184,0.7710777,0.16009238,-0.37796608,0.2863833,0.92527735,0.5252824,0.8775403,0.34767327,-0.92625576,-0.8792095,-0.47455457,-0.5033804,0.20303382,-1.3982742,0.65294635,-0.11038422,-0.14761426,-0.78031105,-0.7969672,0.43923566,-0.6740893,0.038590293,1.0
Backdoor.Graybird-6acf73ce429b03da848243858022756272a351e5d0a2f668c20fa8454b22ace8,1.080032,0.38635236,1.4054048,0.20918433,0.42609644,0.009246417,0.54177874,0.5919235,0.38876396,-0.17894882,-0.39176157,-1.2303802,0.14406842,0.2955267,0.3583657,-0.779387,-0.024144784,0.20757264,0.1563192,-0.10969359,-0.7645971,0.41661727,-1.1015166,-1.012379,1.0
Backdoor.Graybird-6b70eac6c80bae3841169ad629bbb4f713f1f459d39f758be7868a807a6e9d7f,0.8160928,0.81778616,0.97535855,0.09898385,-0.6330782,-0.5604515,0.2378029,0.9205575,0.32548803,0.19583933,-0.37587383,0.053255264,-0.60994494,0.49023536,-0.28373587,-0.97552174,0.35721132,0.4798802,-0.41720667,-0.10099857,-0.50663304,0.78497875,-0.66674393,-0.13960987,1.0
Backdoor.Graybird-6c59c054dc3d17fd97cb3525e71853d608222e848f3e57dbd3adad8585231eec,0.77690804,1.4760239,0.5301426,0.24157056,-0.6270889,-0.21154921,0.43027607,0.5243227,-0.5608949,-1.1656263,-0.7245572,-0.4057625,-0.52895397,0.116679505,0.11153356,-1.2134992,0.5491567,0.16674638,0.54298013,-0.52244735,0.24583997,0.06492994,-1.0705739,-0.2919305,1.0
Backdoor.Graybird-6cfb5586d80cc93044a1795e99640f6a849914656deec59bbe8118ff968eca77,0.2982033,0.49356696,0.72857624,0.20412675,-0.43077126,0.26248565,0.59644604,1.4858173,-0.49368426,-0.26709974,-0.77957946,-0.18046102,-0.8868427,0.67077076,-0.36161652,-0.5814659,0.5007061,0.22950953,-0.40973768,-0.5597714,-0.40648857,0.118620306,-0.4793953,0.09087861,1.0
Backdoor.Graybird-6d242d408bf0e3c49e088eb4cd4a939511c4ea60db11d94d96a7a7a39be70f9c,0.45664513,0.67572004,0.6830825,0.20501377,-0.12559542,-0.43353453,0.43519086,1.7698624,0.27350214,0.057347976,-1.027481,-0.78297174,-0.32897434,-0.022859856,-0.24416938,-1.1259211,0.39592952,-0.05283203,0.24596529,-0.72139484,0.052271046,0.7872549,-0.7273881,0.4952955,1.0
Backdoor.Graybird-6d321e528269b7a7e1f6436e1380c65a20f1d714ebc0026e0a99839dc1a501e4,-0.1401976,-0.720605,1.4742873,0.34676784,0.113901556,0.36353916,0.51120746,0.5821236,0.37430885,-1.4364287,-0.1873651,-0.78010064,-0.05285408,-0.12138466,0.47801238,-0.3081308,0.707822,-0.24807322,0.26235378,-0.028699331,0.15910813,-0.30898368,-1.07616,-0.40161067,1.0
Backdoor.Graybird-6d34635438401f6c4f7794bc4f2c8c446f82edeb567f31a83cf3ae034ea773d1,0.04954213,0.51858157,1.063663,0.31896517,-0.9680365,-0.56819016,0.681092,0.7258917,-0.58232975,-1.4903853,-0.08523682,-1.0899675,-0.47239307,-0.16235071,0.63742584,-0.43397126,-0.11755616,0.08563338,0.5810166,-0.6923381,-0.4711488,0.41259912,-0.62701005,-0.9794489,1.0
Backdoor.Graybird-6ee285070d1eef800260ba31817c3e7cec3985f0a6a2849a5dc74e445f878a15,-0.6759903,0.20253171,1.0092669,0.7754053,-0.099721976,-0.33341822,-0.29080614,-0.004842593,0.54796517,-0.0037700017,0.38760138,-0.663024,-0.656971,0.31721008,-0.03581397,-0.8530121,0.38482055,0.45428085,0.19178252,-0.59117913,-0.71579736,0.027848804,-1.3749343,-1.1518692,1.0
Backdoor.Graybird-6f9dc6c32999551acea67812a90d930ad72a1eb37dd2694c27e9a8adff7a3a9f,1.2927879,-0.10616281,1.391463,0.52258486,0.62236464,-0.30545178,0.0967183,0.53690445,0.4784353,-0.4307807,-0.2315729,-1.371697,0.81627953,0.111889474,0.3471907,-0.74999696,0.60369706,0.7374377,0.01802532,-1.0043957,-0.83003455,0.5271338,-0.61596596,-0.6510243,1.0
Backdoor.Graybird-71c886f2fd76eb9bd2bc630b058bd694391456685963926b6189fd07dca25a9e,0.31923667,0.7307471,2.0104156,-0.7595907,0.078430265,0.12731317,0.5185987,0.8374187,-0.1830851,-0.22228095,0.24184465,-1.344448,-0.0014529281,0.6024296,-0.014633196,-0.23074447,-0.0805153,-0.4549811,-0.16284513,-1.1600795,-0.75679946,-0.03605367,-0.15034787,-0.19975166,1.0
Backdoor.Graybird-725f4e4c108170d54ef93e14503fab7add7cc13b10df35ba8fe020f0dab88d2d,0.3629867,0.81721115,1.3014581,-0.011216836,-0.595437,0.08053378,0.19906646,0.7753648,-0.15624133,0.23034836,-0.44393122,-1.7571976,-0.55795413,0.7749123,-0.53756094,-1.0581796,0.32550412,-0.32241154,0.33968237,0.04247362,-0.40670657,0.7588965,-0.6799395,0.25981307,1.0
Backdoor.Graybird-730ed728d5c30bbf322823b8d041c6e3c86249b31946b64b6568a1948cc8e6ed,0.021224288,0.23572995,0.68055016,-0.13021044,-0.84380674,0.04591672,0.38897347,1.2609613,0.87527126,0.07038561,-0.36436832,-0.6703916,-0.635695,-0.04943619,0.15542929,-0.31163087,0.3840042,-0.029035147,0.31245857,-1.2955726,-0.2088145,0.15283257,0.10231751,-0.5839716,1.0
Backdoor.Graybird-739a860eb0dbc39fe915e0761f973180262e418e737f75ebbc4007fe1eaea473,-0.6307792,0.53926915,1.9326348,0.021500787,-0.24786961,0.12590161,-0.85088533,0.9540301,0.32280138,-0.948938,-0.3942076,-0.51403326,-0.06907194,0.23070036,-0.33296865,0.0027505371,0.28151262,-0.89006966,0.23903573,-1.2576329,-0.4658017,-0.4694369,-0.81657094,-0.933906,1.0
Backdoor.Graybird-757d5da46a1617a1b5a07c2d4c17ec72f6c946ab3ca540e8da0131504084de93,0.1287708,0.24636416,1.5787019,-0.0765542,-0.64814323,0.054859888,-0.83720684,1.1126144,0.92206895,-0.67251766,0.82782656,-0.0130986925,-1.3675463,0.5130107,-0.14670052,-0.41901392,-0.0034454016,0.15152296,0.45348334,-0.7480627,-1.5927838,0.05453242,0.35009348,-0.62056506,1.0
Backdoor.Graybird-759d25eb1e779c0cf9a1791494780efd719aef5f5a316dee827da31758678a77,-0.12378065,0.6388819,1.7135608,0.08153627,-0.39431682,-0.6925348,0.3304038,0.5103319,-0.26320466,-0.82952255,0.11468896,-0.32010922,-0.8740929,0.007486349,-0.3106026,0.3892672,-0.0045930645,0.00927363,0.5347146,-0.6679238,-0.97506815,0.5741299,-0.22033791,-0.53863335,1.0
Backdoor.Graybird-764e8d67b8a22cd013f7d302251a249fe7c6c3c4a2d2acb9d1e5f88d557715a3,-0.77132696,1.2271519,1.7268301,0.037015088,0.039152205,-0.051815104,0.9928716,0.8633932,0.5272931,-0.01790335,-0.8826739,-0.87313944,-0.09341126,-0.17219776,-0.61567926,0.19510758,-0.06648123,-1.1534388,0.36583364,-1.5112367,-0.81986475,0.51467615,-0.770676,-0.8991483,1.0
Backdoor.Graybird-76c6fe9ca5a7a1b18fae029ae849431daf6bb211afe955222d5c778bf3472509,0.91580474,0.2425811,1.7684112,0.60763156,0.31761268,-0.057027984,0.12722345,0.69752127,0.112130046,-0.26615116,-0.2337463,-0.71336436,0.14073211,-0.04961504,0.24877772,-0.82065684,-0.3607403,0.4379803,-0.48679876,-1.4190154,-0.61127216,0.4972831,-0.9528462,-1.0042593,1.0
Backdoor.Graybird-79ebf2c2afd7a143d1833a4702c1dd0aa83e71d78c456649eb59051335c309de,-0.8167762,0.83621144,1.3128681,-0.0076769865,-0.45305246,0.81274176,0.6701356,0.8139937,0.49357724,-0.56063783,-0.05587687,-0.4852849,-0.19894035,0.13149753,0.6087887,0.20801552,-0.69583964,0.14679421,0.37173325,-1.7484512,-0.006735961,-0.23895851,-0.28196248,-0.530185,1.0
Backdoor.Graybird-7a94befd3a93c00b1ca28bd169792504aae64411f804665e0641305e801b215e,-0.6811735,1.182725,1.9708703,-0.03946221,-0.51700014,-0.02729066,-0.013671699,0.90174204,-0.09904233,-0.08876056,-0.16361727,-0.347181,-0.49794078,0.57765037,-0.48040602,-0.07959364,0.42648578,-0.8675206,0.20590988,-1.2043397,-0.24220288,-0.19195445,-0.62996864,-0.6239471,1.0
Backdoor.Graybird-7c1334bb1b9e6b4730760f754ab9010783b7f29f821b02bf1478448ad59cf6df,0.22019778,-0.21356,1.7025566,-0.1366899,-0.34989163,0.8856524,1.3685633,0.6254224,0.14938116,-0.5537138,1.1472143,-0.5449965,-1.0407858,-0.037894093,0.32342115,-0.29155147,-0.45373887,0.2669802,-0.02927541,-1.072214,-1.3214446,0.024468698,-0.39295897,-0.09638943,1.0
Backdoor.Graybird-7cdae407c0cbf514980c892b1c4495e999866aa3be4f6ebc6e482feecd8cfdea,0.31364968,1.3021158,1.3246586,0.019846478,-0.057201046,0.64831275,0.8889887,0.37601277,0.45094034,0.346743,-0.7318414,-0.70979285,0.060328837,0.11761199,0.668938,-1.005115,0.35783798,0.49275294,-0.31815147,-1.2799631,-0.9117025,0.3299543,-0.04595428,-0.023174535,1.0
Backdoor.Graybird-7d85ae8d40e1df6c39d67e97e16bbaa2a1aa6f8bcbec78dfc492de86ef57dc87,-0.2560076,0.58499277,1.5801076,-0.16012059,-0.3488611,0.5912631,0.64506274,0.7225492,0.17376031,-0.6206122,0.2861008,-0.4894455,-1.0134476,-0.09235842,0.5301336,-0.35314584,0.20668377,-0.42687386,0.111190505,-1.093891,-1.6626047,-0.38056567,0.2913253,-0.15477245,1.0
Backdoor.Graybird-7d9aec70614646558761e1e9d7aaea88933ee32493d21395b322b04a438140bc,-0.071445905,0.79977083,1.6189858,0.89178336,0.73298126,0.9722894,1.2734481,1.0643389,-0.23507282,-0.38318986,-0.12961109,0.25047484,-0.62880546,-0.74838203,1.4462178,-0.6342132,0.24914193,0.46090183,0.63704133,-1.3550513,-0.42224246,0.70182097,-0.3474538,0.00909519,1.0
Backdoor.Graybird-813477cf47cbe8c132ebbd8bc358f8c03417de303cf35c71f5ab051cdae4724e,-0.008985647,1.2155361,1.7177114,0.79471713,0.6042037,0.23382546,0.96588826,0.88816607,-0.35566443,0.020918967,-0.100833625,0.5559257,-0.82131326,-0.08863154,1.0951014,-0.7965476,0.34557405,0.12522236,0.53807443,-1.5709392,-0.14674334,0.739409,-0.08885934,0.5777782,1.0
Backdoor.Graybird-81819096e605e81210d610faa6bf8fb85c29c7418b86a6314d154d531cfd0c1e,0.4464338,-0.10630133,0.7765236,0.020271946,0.3076866,1.1666789,0.75450796,0.4412372,-0.29882112,0.023762245,-0.13823532,0.59050864,-0.20430931,0.85778916,0.38534948,0.5197355,1.3206553,0.57457906,0.29783893,-0.69948405,-0.9432997,-0.080029495,-0.46662414,0.25719836,1.0
Backdoor.Graybird-82198faa9497d0ea97adae75c36085d9a604203cc0b853faa079881ea9f79ca8,0.48056805,0.8066012,1.1207304,-0.70351535,-0.6237981,-0.48658,0.99700546,0.18284598,-0.576094,0.059416875,0.12600873,1.157402,-0.6676491,0.21979389,0.24068975,-0.6522983,1.0906937,1.7794591,0.6152658,-0.61765236,-0.706296,-0.28245887,-0.20370653,-0.22085373,1.0
Backdoor.Graybird-829996786890ae93f6bf998085dd695982bcf299bf215faed795aa37dbc490be,0.2623247,1.3059497,0.45523822,0.25687656,-1.0213257,0.27232605,0.060661256,-0.1600017,0.044668548,-0.41746706,0.5892627,-0.41206056,0.053713482,0.5563393,-0.07078446,-1.2057725,1.536445,0.9230553,0.22511375,-0.8380142,-0.27124357,-0.417927,-0.39206448,0.6133024,1.0
Backdoor.Graybird-83423cd8ce4f3caa1de47af0f9f15b5582728ea77bf70cfdf4ef7190035b612b,0.044656295,0.32703587,1.549007,0.6342999,-0.6331111,0.3795504,0.88729525,0.386818,-0.3246027,-0.7602328,0.5081958,0.3338454,-0.5894859,0.03378843,0.12134108,0.21816137,0.95899665,0.31708786,0.38769892,-0.025695419,-1.2647061,-0.41749114,-0.4930001,-0.57624835,1.0
Backdoor.Graybird-8367e7bcdb92a165868cea32162a752a53fe5d15ceaa3674f817bab68caf2e48,0.4368668,1.0213056,1.3172032,-0.61758345,-0.8030484,0.7565911,1.532531,0.80444515,-0.21133505,0.43841144,0.5233129,0.25926134,-1.0291648,0.47551855,-0.11699184,-0.486473,1.0993049,-0.04967168,0.69062656,0.094542034,-0.5972829,-0.028526122,0.015490016,0.12745741,1.0
Backdoor.Graybird-8422d4ab5d5079a5a7d9896892e0c3271aee157a1f54d7bc0dba7937c1e98f74,-0.19193897,1.539081,1.4968903,0.33083197,-0.3978817,-0.08240811,0.42766368,0.55366963,-0.21855664,0.42215353,0.39324033,0.27859202,0.040267657,0.34835848,-0.354025,-0.25034568,0.73670846,-0.08604153,-0.12158639,-0.99245673,-1.2205273,0.057529397,-0.14150155,-0.5038068,1.0
Backdoor.Graybird-85ec05a6c1aa040abed43cef7e85100a0da06525f674231cde7ed92af582c824,0.26034003,1.2645787,1.5278866,-0.4002533,0.64666724,0.5043563,0.5087271,0.2345523,-0.17801856,-0.20429742,0.84400994,-0.07674208,-0.3883513,0.62881976,0.41121852,-0.022604708,0.77997977,0.9934928,0.80728257,-0.091995016,-1.1463369,0.09423488,0.2714286,0.04221958,1.0
Backdoor.Graybird-861fb76c171296ca9ff2fc6e65fb4ef70adca3e8be932551485a48097ec54c0a,1.0470935,0.86248195,1.5219995,-0.5999709,0.68926036,-0.076110505,0.3770238,0.5360861,0.033560675,0.31837386,-0.05656128,-0.810742,0.069297284,0.603058,-0.67350113,-0.5144786,1.2519283,0.7856786,0.22694346,-0.28377402,-0.8285875,0.53007364,-0.75415516,-0.09883494,1.0
Backdoor.Graybird-8670f570c5bc895583b54b34f673e9b6d727cc2a8c2a196f1fe5d7a542f71908,0.7375901,1.514801,1.7353042,-0.31954846,-0.9381604,0.3827613,0.19282433,-0.8014261,-0.7744759,-0.47817615,0.048197232,-0.5863857,-0.49558532,0.26153955,-0.333234,-0.39139995,1.0433526,0.50759125,0.21018583,-1.1500691,-0.32327554,0.6281073,-0.4961746,0.18341438,1.0
Backdoor.Graybird-8918ce36caf2732f3bfec79d19f8a096bce314c983cf02357466949b290681e2,0.8091478,-0.0897591,0.5733782,-0.44636118,-0.74778175,0.2615329,0.4145914,0.52013975,-0.5681484,0.48672208,-0.25377995,0.19845612,-0.10173575,0.6939492,-0.188511,0.07805858,1.2231013,0.24598905,0.41884097,-0.28871688,-1.0836457,0.004471364,-0.7981932,-0.062359005,1.0
Backdoor.Graybird-8923ffa1222f65f71c7c385d1cec6fde5720dbe5add154d279f4f359b631134a,0.08242514,1.0201335,1.5128062,-0.42706114,-0.27879968,0.40609667,0.19490558,0.09434305,-0.44343257,0.62510234,0.24645197,-0.4048751,-0.7700859,0.8994054,-0.5817236,-0.018653717,1.9182006,-0.5473894,0.3339129,-0.44429666,-1.0139682,0.21576595,0.27145177,0.114658736,1.0
Backdoor.Graybird-89481ef77be1b32a0454fa76de2d79cec871effda0b9fd6c21861f3c572c3798,0.20103508,0.6317952,0.27949804,-0.78380394,1.0463077,0.65733594,0.2021866,-0.35228208,0.16980368,0.71597433,0.23957695,-0.46653026,0.46168005,0.86753005,-0.015963944,0.16998532,1.0961813,0.0691378,0.44730747,-0.79934305,-1.3984122,0.59393585,-0.1991817,0.16675034,1.0
Backdoor.Graybird-89b141aa860cddf3c6b0bec91bfca679ff5d8614135a0677e4c1caa7d37a9c89,0.592551,1.6311783,0.9125812,-0.40210116,0.29073623,0.3651742,0.5304871,0.5399949,-0.031619117,0.7500546,-1.0270749,0.24366698,-0.119508095,0.6613216,0.451366,-0.84368867,0.28523964,0.18473849,-0.15327758,-0.8557303,-0.97973275,0.28650075,-0.46581668,0.41715267,1.0
Backdoor.Graybird-89fe5e86386ee8e977bf7bd47a2658eee37e28236ba8a8f9aefaba734141ff21,0.66965705,1.5361534,1.2172543,-0.7505233,-0.8107196,0.4002448,0.30308586,-0.72438866,-0.8287837,-0.18116805,-0.044399876,-0.56546175,-0.14042678,0.14505795,-0.026466642,-0.6469098,0.9248157,0.76899904,0.7693565,-0.61298764,-0.41679972,0.13992299,-0.25965863,0.31574708,1.0
Backdoor.Graybird-8a46c3e1144d6c02853f92b643be99b44dee1f443eff59801c96216bbc5405d6,0.8439302,1.0329641,0.5083816,-0.450528,-0.10663863,0.28035012,0.31139818,0.49120387,0.064322576,0.8916893,-0.61272925,-0.048670135,0.031500574,0.5526539,0.2917076,-1.4735342,1.2366449,0.1890451,-0.45308498,-1.2025768,-1.1887105,0.2692365,0.029429967,0.16124532,1.0
Backdoor.Graybird-8a970cb90dd3321d111d8fd2dd517e86bbf9c79b6a162cd6bb7cb5699edc4b5f,-0.010190189,0.79010403,0.74026096,-1.3439641,-0.17057134,0.31228358,0.72643983,1.0971384,-0.329941,-0.11288251,-0.1960794,-0.7408067,-0.19731914,0.35820922,-0.50322145,-1.1014745,1.1686798,-1.2325597,-0.28744856,-0.83407706,-1.6944962,-0.12259025,-0.05566841,0.3010694,1.0
Backdoor.Graybird-8c4d358653ddf842f102fa6a1f87c59a3cc65557df4aaf113816f3a2680df216,-0.33294228,0.29800642,0.50570273,-1.278363,0.27436107,1.1067232,-0.24794534,-0.23468153,-0.6409478,0.43761036,-0.86533237,0.05714058,0.47468802,0.73004436,0.52774936,0.04135123,0.56936574,-0.125628,1.4316318,-0.23870412,-1.3502656,-0.6096814,-0.45324424,0.44166148,1.0
Backdoor.Graybird-8c8a2ad65a9f2eb8690f5ec41bac47876a617432c8fa85fb0d81078fef9d4bf8,1.3488255,0.95644057,0.8818552,-1.298628,0.1649345,-0.24413581,0.3922873,0.6302043,-0.0298581,0.73130095,-0.64586437,-0.05934803,-0.033442076,0.6062578,-0.33618394,-0.6947324,1.3071936,-0.47979787,0.17329554,-1.1288698,-0.39092958,-0.0027210747,-1.0151227,0.09723865,1.0
Backdoor.Graybird-8c95f3c3819ad63d453d8792095390904dc501b5a8f5a70e5b5691d200110ef3,0.6538838,1.5397617,1.4734216,-1.1030489,-0.3431713,0.12365962,0.06864152,0.741988,-0.008425969,0.09365617,0.20996378,-0.6127747,-0.07033909,0.42849877,-0.14412256,-1.1170194,0.50236857,-0.6430141,0.21459259,-0.067524694,-1.1931807,0.90039533,-0.68154055,0.14858201,1.0
Backdoor.Graybird-8d4a784362ac2b3ddd42e1616c08f6805a5672ed39ea15714100a70b9e1fc842,0.9307713,0.9251805,0.7823843,-1.4522063,-0.5138312,-0.1966423,0.3802448,1.2223283,-0.07368941,0.05682156,-0.635695,-0.014118233,0.6403595,-0.054119658,0.89315826,-1.0723821,0.5407319,-0.59193474,0.63051957,-0.70189345,-0.1697316,0.36295357,-0.5215915,-0.102298774,1.0
Backdoor.Graybird-8de2ca2818c65b69c510a8fe5bfa47608d63fbe23538ad51a6f5661c6daf222f,0.37552488,0.73870546,0.99169654,-1.2842581,-0.047271002,0.5269274,0.5310238,1.1290491,-0.5120361,0.4968284,-0.026768206,-0.8761364,-0.29112625,0.8664651,-0.30822858,-1.1769152,1.0324527,-1.0689901,0.0013479891,-0.75271654,-1.4362377,-0.08502148,-0.3303854,0.22864814,1.0
Backdoor.Graybird-8ee8ed6292025a4830b430fbc42984c2b3fa30a7fd3aad6ef3f0abc1363bdea3,0.4407043,0.54158795,1.0216421,-0.6701359,-0.6074395,-0.26253927,0.68948185,1.8144947,-0.08172153,-0.1242379,-0.4544175,0.2183502,-0.53361326,0.59436363,0.22886501,-0.7216641,0.38540152,-0.23636384,-0.19942077,-0.41193235,-0.9859602,-0.037315287,-0.11089313,-0.07300428,1.0
Backdoor.Graybird-8f1081cf86782cc1b1577cb67497d6fb854f20cb6515dd8a14b564d43c6752a0,0.6573431,1.5690777,0.659248,-0.7277792,-0.5252021,-0.54234225,0.0022474914,0.4626705,0.13027903,-1.3675876,-0.6837496,0.9526994,-0.024523325,0.65732116,0.525346,-1.1159757,0.716875,0.9323072,0.09675508,-0.6054768,-0.42093572,-0.23922837,-1.0935055,0.3340886,1.0
Backdoor.Graybird-8f119cfb976e3b606d5a14c8223f6ff7efcb22ec1491da008b081e11f5ff9dac,1.65126,1.11703,1.1692271,-0.16939536,0.8734756,-0.46336707,0.30351314,0.80641055,0.13414668,-0.25647026,-0.32058686,-0.32456768,0.42960432,0.97302306,-0.08862683,-1.1301583,0.43491897,0.5017358,-0.094215885,-0.19797651,-1.4950668,0.08939706,-0.15854415,-0.053297803,1.0
Backdoor.Graybird-92310a91c8e822e825dee87224b6f400b7a40024d44aaee44575c08311d922a5,0.38165498,-0.008888503,1.150055,-0.016176835,0.6824114,0.5637951,0.84703255,0.6255953,-0.27483582,0.25724065,-0.008915586,0.19404233,0.89616275,0.6975537,0.22636062,0.58476496,1.0351269,-0.113607444,0.2500916,-0.7065464,-1.3082677,-0.42628708,-0.25850484,-0.03532122,1.0
Backdoor.Graybird-9289f437e7f7c37d9dcee484de2c1850637fd0feb549e31a2aaac1400dec6b1c,0.06545587,0.6590562,0.7624094,-0.084651746,-1.0973998,-0.24610357,0.32998142,0.83998287,-0.31075552,-1.8984753,-0.6784235,0.7667549,-0.34854943,0.6145906,0.5669725,0.16571486,0.38889262,-0.5829459,0.37833747,-0.02398193,-0.89668924,-0.30900985,-0.23229258,-0.9048624,1.0
Backdoor.Graybird-935ef5a37611172206877fbd8823614c947a21b71e8a8ca746a1299e1d3357ed,0.194891,1.3892013,1.5842617,-0.0787528,-0.40635186,-0.16717927,0.33971247,0.73562557,0.09316872,0.41268113,-0.17099127,-0.052039474,0.087349646,0.6698968,-0.6220796,0.24608132,0.6323473,-0.20910619,0.16840333,-1.128676,-0.79672974,0.15586555,-0.20554641,-1.0994791,1.0
Backdoor.Graybird-93a713200100c3ae76e3985038dd5466151583924da3469fa71387d3af298ac2,0.14078988,0.21112344,1.4815979,0.57038426,-0.5053002,0.30807117,0.67482716,0.50387067,-0.43480644,-0.6806265,0.33536035,0.53164965,-0.2623792,-0.13989319,0.027099105,0.05483071,1.2090697,0.25632745,0.3226456,-0.102720596,-1.1230003,-0.29213327,-0.2241052,-0.7019713,1.0
Backdoor.Graybird-945eb21ef074656d9a1a86747c9d7b5d15f29a567fa27fef01fb2737e576ad03,0.66986424,0.5234979,0.8171919,-0.3989721,-0.3676858,-0.04344906,0.06554557,1.203423,0.71526295,-0.3022883,0.68497425,0.3367696,-0.42038116,0.6051786,-0.49612507,-0.231545,1.0573149,0.04971362,0.10652796,-0.087178335,-1.177475,0.5011964,0.012852558,-1.4766586,1.0
Backdoor.Graybird-94623d56ca044b70fe15d88621894fcd59eafe180da385d9d9305186f7f4b86b,1.0948588,0.9672376,1.1447794,-0.4658465,-0.9336359,0.41283563,0.5256014,0.6656695,0.5499524,-0.54117495,0.19380479,0.24853896,-0.5405516,0.5486716,-0.16063601,-0.45226306,1.5036631,-0.63367957,-0.087591514,-0.47136834,-0.8082138,0.3358368,0.10183859,0.2518816,1.0
Backdoor.Graybird-946b3de2c3b514a6c2efe10f2b71f28ee63a9b6730a24a7eba83aa0cf5c5341d,0.5111233,0.7221122,1.3095746,-0.2095031,-0.8537386,1.0959193,0.9390673,1.112513,0.031475108,0.18898368,0.13698557,0.28193456,-0.9058732,0.5869955,-0.24002352,-0.11360161,1.3530205,-0.1426068,0.28887773,-0.204144,-0.4440067,0.17150244,0.3859651,0.21020614,1.0
Backdoor.Graybird-95d4ffb8d58ae1108f465097fc357a901f9e00da85ec8d3adecb017be08edc7a,0.21659502,0.785819,0.6580291,-0.3552117,-0.8609433,-0.40143362,0.8708785,1.4804436,1.1308277,-0.19510403,-0.29252368,-0.30885813,0.016158594,-0.033450957,-0.6656948,-0.44351697,1.1533543,-0.22096014,-0.030730216,-0.17575042,-0.62473106,1.0278307,0.44791973,-0.3084878,1.0
Backdoor.Graybird-963cd338182a57b18f2a85b8a36f5617a8c91fda7f68627cab80fad0a8e08c45,-0.60921335,0.05617282,0.617537,-0.088157274,-0.83507377,-0.2866021,0.28372446,0.37483236,0.6055354,-1.9391007,-1.2631819,-0.11980783,0.7394238,0.36243698,0.0054591717,0.51969856,1.2052513,0.061608013,-0.15243514,0.17702956,-0.6205641,0.38423523,0.17587446,-0.10162891,1.0
Backdoor.Graybird-967456f14643ad8f8bab3ed0b5468ff69704502ae64b5c37f66d43eb71ee5909,1.0591018,0.36064216,1.536298,0.2032473,-0.46104017,-0.5762753,-0.22564924,1.2676723,0.08113874,-0.923574,-0.24234292,-0.3482771,0.13904466,0.8851878,-0.0013936452,-0.7092974,0.7116323,-0.21555783,-0.89462185,-0.9479816,-0.6627512,0.94104683,-0.07653891,-0.3023145,1.0
Backdoor.Graybird-97d6d5d2bfd16a21b6b02bc9bb883dbcd437d0a71f34eebe95d8419a8b80eb89,1.0712183,1.1001763,0.66858757,-0.37378424,-0.5446476,-0.7707412,0.28862846,-0.072484665,0.25757065,-0.6035332,-0.5961569,-0.60923713,0.45882168,-0.058866795,-0.011350297,-1.009439,1.2726841,0.46203426,-0.5833628,-0.9589471,-0.7514614,1.3862305,-0.39134747,-0.9338145,1.0
Backdoor.Graybird-98970c86f23de51867088ebeda57ac2ea32d14ce4aea3b1ce33d30f7482a6448,1.0739226,1.1956522,1.0414999,-0.18648127,0.46579283,-0.25677374,0.7043629,0.8105957,0.57474446,-1.3371465,0.22607417,-0.4503727,1.171991,0.23239449,-0.50874025,-0.16569568,1.1143535,0.2832961,-0.17639983,-0.66239434,-0.40270308,1.0884352,0.24060349,-0.3676124,1.0
Backdoor.Graybird-9a3a9d7c1d351acf199e6bd2b341f60fee80d72b2775e0cb823397a501994860,1.4992712,0.051991094,1.4870031,0.123515286,-0.30459374,-0.2995625,-0.24377328,1.2318326,0.3427764,-0.46574813,-0.7732075,-0.8235719,0.7155784,0.98531336,-0.20382445,-0.07086272,1.0491843,0.021662347,-0.326622,-0.8141254,-0.50008404,0.41830048,-0.55278677,-0.040690105,1.0
Backdoor.Graybird-9aa73f468e17862621a2fad53b9d4d7b2e739f4529ca0271244b5306e4eab8d6,0.03159852,0.5651976,0.93540955,-0.5723278,-1.1286224,-0.1499789,0.9548179,0.10648071,0.7339549,-1.3057047,-1.0262932,-1.002987,-0.12933815,-0.6136485,-0.022381945,0.07033629,1.1593771,0.7345313,0.43800443,-0.41571566,-0.7382544,1.1756464,-0.04428564,-0.33857924,1.0
Backdoor.Graybird-9b214aadee23c6591c9ff73d0f579e35b8b2dee1b7ab8e5cfbd75a5a21bb885a,0.024874613,-0.228607,1.3904153,-0.14044742,-1.0347447,0.5282398,0.2928669,0.43626708,0.4178843,-0.6336543,-0.5072035,-1.0362839,0.25838128,-0.16891824,-0.27788034,-1.3204839,0.88692653,0.057831984,-0.82547843,0.22593553,-0.6686863,0.2277366,-0.43678585,-0.03941763,1.0
Backdoor.Graybird-9c1495b62ed7d9ed9e1c812aed748f99a5fb67d1a2ec3fdc92d72e2cee7a387d,-0.19349481,0.83761704,1.1156026,-1.420576,-0.04748425,0.7382732,1.0102677,0.9102853,-0.05309009,-0.009979092,0.024654519,-0.98493105,-0.6232593,0.03235057,-0.35928327,-0.7606236,0.65675175,-0.76574665,0.30618283,-0.9158761,-0.99149007,-0.11687479,-0.40746954,0.07779483,1.0
Backdoor.Graybird-9e2df649e165d2c1d71aecc2e127fc76d8d47d0d81a89c163eae69820d37bf20,-0.86844635,1.0970945,0.8746463,-0.31823325,-1.1396385,0.039583866,0.008662516,-0.30953208,-0.96262145,-1.6597809,-0.07218125,-0.99670357,-0.05135315,0.2741496,-0.1534357,-1.2164453,1.067604,0.9743586,0.299739,-0.6933711,-0.07570922,-0.18288396,-0.3333276,0.8796817,1.0
Backdoor.Graybird-9fb2b93a16534f2ee2ca6ae8290af116472da4351149a234accca893dba2a0f2,0.8104637,1.2828081,0.5491935,-0.13309327,-0.4419149,0.55341,0.33436397,-0.059653576,0.11038208,-0.64010257,-0.802099,-0.5521426,0.018459804,-0.31813088,0.08126264,-1.6295553,1.0722699,0.78028715,-0.6602306,-0.91612,-0.6882206,0.56630623,-0.57704765,-0.29885298,1.0
Backdoor.Graybird-a035a8b8a7aacc5376be19dc3391fd2a77015718b8cf24d78052ac937b1728a7,0.18501814,0.052281145,1.0940199,-1.2686495,-0.8338387,0.43471935,-0.10752422,1.1522458,0.41272593,-0.8991134,-0.46188098,-0.25656796,-0.12131102,0.2865846,-0.30957887,-0.022614682,0.8865769,1.068146,0.38205174,-0.60216373,0.28464,0.17613567,0.42676532,0.17492637,1.0
Backdoor.Graybird-a0498a02cb192000d067d4f36547b86cb08637ee7a481600e910092c19a9ce9f,-0.99209124,0.31825075,1.0648966,-0.78159213,-0.6498943,0.9324198,0.014197676,0.84852743,-0.15536448,-1.6350424,-1.3348348,-0.24537164,0.19116479,-0.4661739,-0.46265623,-0.47365466,0.00045410762,0.54370546,-0.044114266,-0.8681578,0.43404406,0.34553587,0.52419925,-0.33123696,1.0
Backdoor.Graybird-a0a04c1fabf634b2f915f759027d71530989359d81650c39616c53fd5ebed357,-0.5873376,1.1135489,0.47462383,-0.7824526,-1.2389593,0.44125614,-0.020644782,-0.33292812,-0.6901715,-0.76509017,-0.3234211,-0.6866686,-0.047937963,-0.1993558,0.3454147,-1.1604303,0.6156297,-0.11918659,0.5317317,-1.2510519,0.7702868,-0.18551181,-0.74861926,0.2266096,1.0
Backdoor.Graybird-a1fd6d8666fb7b058edc88955c022b3e35e36da23edbd184264ef39fa45805eb,-1.6997391,0.8719788,1.1305981,-0.9349662,-0.73563033,1.466365,0.1018787,0.59233844,-0.18626721,-1.9604772,-0.85356736,-0.11805695,-0.72007126,-0.085515745,-0.41695064,-0.6043813,-0.059815522,0.41903657,0.037770346,-0.49610746,0.43997365,0.07297424,0.33151293,0.032129705,1.0
Backdoor.Graybird-a221b13a700b9045f22cd0d311320249d702dc9c524a63c481ef897d8c942ff6,-0.96536446,0.45728403,1.2411704,-0.615412,-0.32754323,1.2469256,0.37655565,0.14021587,-0.71448594,-1.022409,-0.58982164,0.10555897,0.29316872,0.4933225,0.5580073,0.5101096,0.17018317,-1.1164472,1.1292076,-0.63691384,0.47243157,-0.6612643,-0.1416819,0.30018976,1.0
Backdoor.Graybird-a227a623250f4c7c092fe77a5c045c32ad70c823e62f7bb33aa5ac1f008f1495,-0.07918871,1.4090123,1.8245696,-0.11539083,-0.8288738,1.0185157,0.610074,1.0557663,-0.048429642,-0.24751101,-0.04183206,0.20786354,-1.0900118,0.60394484,-0.023104152,-0.56360924,0.66441745,-0.4423724,0.6391324,-0.20990057,0.012292169,-0.43831334,0.07467636,0.45302948,1.0
Backdoor.Graybird-a4492c845667ef93abaf271159c99086b3859c054a659175e868d70abdfff9b5,0.21940887,1.1158926,0.83986837,0.100581035,-0.8047866,0.23283005,0.3220953,1.1681545,-0.20055604,-1.9417242,-1.3674093,0.39292124,-0.6319532,0.48410586,-0.059022672,-0.07201154,0.24052541,-0.3108726,0.3201183,0.37744576,-0.32006896,0.025130592,-0.72286624,-0.66021115,1.0
Backdoor.Graybird-a76cec89ebfc66826a15c42805bf44594a8a6b253ddd6604640b3266f35cae11,-0.13179499,0.10647562,1.740861,0.43560612,-1.0699475,0.72374445,0.44174674,0.38456947,-0.23132886,-0.60270935,0.543114,0.3854852,-0.3206046,-0.038660616,0.20009884,0.24098365,1.1362602,0.211013,0.37727615,-0.0323438,-1.1506636,-0.25056824,-0.43618196,-0.28197265,1.0
Backdoor.Graybird-a7a720a29e06215ed50f840a8d18f38825bfbbd4a42e07559b96d2f697bb9790,-1.0780643,0.7269325,1.1670287,0.29834396,-1.1356124,0.18372506,0.8754596,-1.0432436,-0.624813,-1.5330641,0.013231074,-0.013764785,-0.1318733,0.43229508,-0.07872068,0.23972097,0.48664743,0.14319678,0.6456957,0.45583436,-0.29752964,-0.47648662,0.28123033,0.2607288,1.0
Backdoor.Graybird-a7f764ea4a46e90e7099c57efc98ae694eaa367fdcac8d476fe4909a28f6f93e,-0.5279404,1.023757,0.84269315,-0.5348056,-2.0016012,-0.087855056,1.0711972,-0.020782266,-0.09207051,-1.2069707,0.66889787,0.5038911,-0.6071915,-0.15438695,0.41883716,0.13238259,0.7644777,0.10007506,1.2879131,-0.7270465,-0.06278989,-0.29064044,-0.4413569,-0.72063744,1.0
Backdoor.Graybird-a9b74966b43fc58513bdebe3503b486e27223be89656081715866bd929bcb6c1,0.3088285,1.5027097,1.7839831,-0.1592817,-1.0966908,0.9443042,0.8894325,0.8594768,-0.0062390273,-0.37004742,0.18980742,0.31251016,-0.9121229,0.26916096,-0.26425904,-0.77116096,1.3189775,-0.23457746,0.41886112,0.20983154,-0.41025138,-0.30537978,-0.08986021,0.07906117,1.0
Backdoor.Graybird-aa7c621dd35e31ae61d7a2b36dc4e515485c4e56c4ce9a133dea31594a5ab6e8,-0.06729252,1.2052869,1.0009758,-1.029366,-1.0696177,0.28232414,0.7863387,0.2529129,1.1495287,-1.4728243,-0.5140166,-0.40317157,0.06534033,-0.49488539,0.07470823,-0.34773195,1.0327396,0.12823367,0.32796067,-0.55080867,-0.6355657,0.5323001,-0.13874169,0.61637104,1.0
Backdoor.Graybird-abfe016fe929fdfce4bfc9426a4bf7e6b99e4faeba2a4d3603912c414cff4b01,-0.16839269,1.2410142,0.9915708,0.6919468,-1.4924755,0.8753395,0.25810897,-0.83651286,0.09014671,-1.1718634,-0.21724646,-0.37815925,0.19212158,-0.27616206,-0.5096934,-0.3850074,1.4957572,0.60589737,0.8300664,-0.3661972,-0.30893505,-0.7916873,0.064266205,0.3134454,1.0
Backdoor.Graybird-ac449976a1b7cb50b8e71f28be4ef44bd6f6642e3b0c5ccdfb26822e79b98537,-0.1283461,1.1561413,1.4107903,-0.06859159,-1.075116,0.44898522,0.5591229,1.0013046,0.076722935,-0.19562246,-0.6003336,-1.249485,0.006669326,-0.28452754,-0.66243863,-0.34723866,0.9827172,-0.119343765,1.0697671,-0.07127515,-0.6287742,-0.13004601,0.61281884,0.27347368,1.0
Backdoor.Graybird-ac4add28458e73105e8f654da05566e4015098744e8aebb3204aee72caa57e9e,-0.022358887,1.8823335,0.6965271,-0.18287033,-1.2043018,0.274994,1.0132569,-0.3578267,0.12735018,-1.3944579,-0.564534,-0.39094445,0.29320124,0.5123454,0.47309595,-0.43385437,0.39111596,-0.013026184,0.21994282,-1.2175978,1.0372672,0.19087106,-0.48004445,0.20016365,1.0
Backdoor.Graybird-ad74a71d3a7f3b6b6210cc7dd1d30b3663949dd5ef418dbd619adf39ca5c48ba,0.33863637,0.6425726,0.1212876,0.33948675,-1.5837506,-0.15008537,1.4674845,-0.4977951,0.63291264,-1.0237306,-0.44901377,-1.1575485,0.04628299,0.86437404,-0.061135694,-0.903712,0.3157094,-0.76369035,0.3309714,-0.11958835,1.025552,0.06774781,-0.28869766,0.38957858,1.0
Backdoor.Graybird-ad90f50d4ca71148c1a52506f79f120410d3181462295f8524580688548a0396,-0.0378569,2.113134,0.63879865,0.13586725,-0.82436574,-0.3153841,0.6318169,0.5235067,0.39099923,-1.05311,0.3365651,0.26197028,-0.47310492,0.19694868,-0.8004753,-0.68075436,0.9244362,-0.5160578,1.1665413,0.22523656,0.9655416,0.101402216,-0.46677396,0.07699997,1.0
Backdoor.Graybird-ad96e019652bae1367bbbde130c9e6e7098048b89b82f89353ea0aa688f49b10,0.375067,1.568138,0.72323835,0.21341202,-1.1753309,0.23944178,0.77961904,0.9698347,1.0666353,0.049902726,-0.5426759,0.17842633,-0.5685877,0.08503818,-0.47621077,-0.37882563,0.283969,-0.86761457,0.70331657,-0.15452047,0.16449416,0.6357068,-0.16490929,0.3346235,1.0
Backdoor.Graybird-ad9900cf8bf77c5291d6583fa7d2bf68ad622e2404b85bd87fc99b4a76cf9ee1,-0.7912326,1.5275489,1.5236917,-0.18116698,-0.44613785,-0.05269484,0.9455957,1.1109047,0.33131534,-0.5031248,-0.7284547,-0.86662185,0.36716923,-0.06885372,-0.22240348,-0.017917149,0.062535346,-1.2262237,0.44244352,-0.86862427,-0.6994076,0.8393834,-0.7781551,-0.87659645,1.0
Backdoor.Graybird-ada0d13de57259ca50f6c6137799d46819ad67d2730c83da6e11cf07eec1f93f,-0.30806097,1.0664375,0.30851057,0.27725273,-0.9316145,-0.5809647,0.87632537,0.51260376,-0.48043206,-1.3710779,-0.26247174,-0.06793247,-0.17466834,-0.4977972,0.37283984,-0.51052177,0.41689262,-1.1932541,0.77824116,-0.5255675,0.5624915,1.0195336,0.220798,-0.06525475,1.0
Backdoor.Graybird-ae51172509ee5dc56c8f1c971c67fcf819300950ca16836957b08483d575ed52,-0.8531135,1.8216333,1.0090557,0.539778,0.39298388,-0.35754642,1.1299992,0.487653,-0.5973709,-0.22499226,-0.15113434,0.09989525,-0.6519517,-0.5235753,1.1370765,-1.0733892,0.5629363,0.003938295,1.0032657,-1.508332,0.27339578,0.906473,-0.010227937,-0.07597015,1.0
Backdoor.Graybird-afee8e31fe9fb0951bdb8389508c98a1de93dbf3beb5eab5725263e529f36abb,0.18951085,0.72593063,0.56076586,0.2441396,0.25041378,-0.39736083,0.8107374,0.041440375,-0.34500384,-0.13340338,0.225128,0.10152882,-0.8238705,-0.09104293,1.0791892,-0.79342103,-0.040198494,-0.979594,1.3604842,-0.46418232,-0.4309491,0.5835622,-0.17195207,-0.22194281,1.0
Backdoor.Graybird-b0e89e830426555734cc9364af793e2d18c2da4c2637ba0a4958fdefaf4c4f3b,0.046106726,1.2561952,-0.38779765,0.12121722,-0.090843454,-0.8207532,1.3873938,0.38941956,-0.6215063,-0.34545606,0.19823404,-0.12388052,-0.8057021,0.041036293,0.7040685,-0.8869594,-0.032888982,-0.32375425,0.6609398,-0.1913421,-1.0855832,1.0393789,-0.73845804,-0.66943234,1.0
Backdoor.Graybird-b4b202425d9d0632578ac630d5d3399c1e978c392bccc49015d296804c2d050e,0.37105766,1.2855983,0.10931761,-1.1116043,-0.7538474,-0.24674967,1.2798784,0.2169204,0.280096,-1.7029622,-0.32110724,-0.6489891,-0.1918856,0.15862413,0.32752427,-0.46553946,0.6975757,0.3718212,0.3547145,-0.21768528,-1.5947468,0.88052845,-0.2639529,0.056436606,1.0
Backdoor.Graybird-b50c771b0643fcc2080eafe121cb24dc5f21cbdb5ee1d6a80833e7c892d0c42d,0.74322903,1.73239,0.7102057,-0.6755506,-0.5701186,-0.9443109,0.21367209,0.6382829,0.22367373,-0.6147444,-0.16823715,-0.019502336,-0.30607247,0.043366954,0.00903885,-1.072477,0.81104654,-0.63129604,0.041689258,-0.31073192,-0.786938,1.2366143,-0.4188388,-0.2684486,1.0
Backdoor.Graybird-b62439942588e8e2953b38988d69c96093a848cbd09b6c56ff8a90a46acdeee1,0.7184466,0.87502736,-0.8342367,-0.2074116,-0.6493405,-0.1823205,0.8548294,1.1798984,0.8051328,-0.56673163,-0.06837707,-1.1690581,-0.3975334,0.24350363,-0.021164598,-0.7358315,0.39703253,-0.15614504,0.7146047,-0.4184053,-0.6936915,1.431405,0.35477978,-0.46252683,1.0
Backdoor.Graybird-b66dc00d759d7e7bd24d8a7ffea8a7629b7d498777351a92b218c94084490813,1.4610325,1.3647736,0.97989506,-0.27826998,-0.0029170627,-0.33495578,0.33492637,0.3649895,0.0387738,-0.311367,0.09516451,-0.5982539,-0.09329642,0.58566886,0.14439563,-1.1942325,0.7773997,0.17747848,-0.20325398,-0.37728322,-0.8514449,0.89130926,-0.882165,-0.9534433,1.0
Backdoor.Graybird-b76eaa093ad34277a7a5edbc5fb0baa5a29e0225f975fff671c4640b229a4b7b,-0.5211665,1.5334605,1.5148792,-0.075377524,-0.2397521,-0.11349843,0.90138215,1.1015277,0.11998621,-0.4544293,-0.88228893,-1.0938113,0.41338682,-0.044986833,-0.18294218,-0.3233057,0.03064217,-1.083185,0.13051476,-0.98105145,-0.7019189,0.91587377,-0.66818273,-0.81213737,1.0
Backdoor.Graybird-b7736881b6aa7a0bf18c5e27ba9055755ffde26b3664c0cc2170381946bfa384,0.4688923,1.0975361,1.0488361,-0.18003045,-0.8070634,-0.59193146,0.34750113,0.026430784,-1.0197136,-1.6059403,0.04394317,-0.85263604,-0.41856784,0.11599331,0.60493684,-0.4647093,0.27777314,-0.37993604,0.5208535,-1.0176351,-0.34385213,0.38798285,-0.36531413,-0.9529801,1.0
Backdoor.Graybird-b8c6f42091540caf959c5f816c3b30a2c84f93031292bcd29cc41b3bb4f9bda8,-0.21755674,1.254593,0.4018183,-0.80046815,-0.42173898,-0.209562,0.5095751,0.87953687,-0.123748146,0.15887475,1.0587325,-0.7196027,-0.9012321,0.30803093,0.22702385,-1.2693601,-0.2091361,-0.23292822,0.8371074,-0.36253774,-1.4880592,0.8331229,0.022717299,-0.5976678,1.0
Backdoor.Graybird-b8ff0d86c56138a367840fcfdd9fb22a6e81662f2587374bc7da963bd7932695,0.13481246,0.66081405,0.76161116,-1.6029363,-0.2812061,0.24080478,0.81659836,1.1984055,-0.15545647,-0.0050263247,0.112040564,-1.1343695,-0.7367146,0.5185954,-0.32620704,-1.0973308,1.0547041,-1.1113154,0.17048728,-0.9330868,-1.1825569,0.39302883,-0.0023688902,-0.13594718,1.0
Backdoor.Graybird-ba96f8453e48690995c933fb5c2c66ddda190efb57210194df1d4a39567cb717,0.6020719,0.6896494,0.88995737,-0.8353514,-1.2453158,-0.40264258,0.33280182,0.567424,-0.3043414,-0.6096573,0.500896,-0.41873714,-0.6838038,-0.20358042,0.736313,-0.942971,0.8709724,0.347944,0.5384867,-1.5606662,-0.66056615,0.20715909,-0.62882286,0.04871799,1.0
Backdoor.Graybird-baab9ad8886c8e2217215c04cafec5d183d1e867148ff7dab39ac3b405b0d32e,0.8529901,0.5687292,0.85965264,-0.65742457,-1.4971112,-0.18514825,0.19356778,0.6498689,0.25313008,-1.8964036,-0.1303403,0.06123315,-0.15136693,0.6697306,0.74476707,-1.0133662,0.9793509,-0.025656525,-0.20647982,-0.87380284,0.22590303,-0.12848298,-0.5367742,-0.08789081,1.0
Backdoor.Graybird-bb3bcd7121f8fc69917389f87203921a174bdc227a86543480d0eb1e00424e03,0.33052853,-0.2158281,-0.20089655,-1.0712347,-0.5016885,-0.863955,0.11524586,-0.64055115,0.95749956,-0.8044304,-0.2952717,-0.037475944,0.19145319,0.4783464,1.2287748,-1.4174709,-0.65694755,0.92507505,0.85147625,-0.29272556,-0.11240625,0.73351693,-0.3281794,0.33405545,1.0
Backdoor.Graybird-bb50e9e002128a3c9f93d264af4e428ddb1b17d052fdd7d3382eebd968752ba4,0.87638825,0.88715434,0.78911895,-0.5669887,-0.51940715,-0.8682867,0.04016758,0.53016025,0.9822805,-0.48229918,0.4785687,0.35092762,0.07392649,-0.26513374,0.5427671,-2.0374315,0.65920043,0.151404,-0.3348611,-0.9207173,-1.3449608,0.70388275,-0.36431178,-0.18936568,1.0
Backdoor.Graybird-bbc2b33dd5221c657bc85954d7765dbaeea17c76cd081f0245b310266d729a9e,0.48104718,0.80185986,0.48502845,0.065231405,-1.1918068,-0.17576194,-0.1245576,0.09347712,0.011181366,-1.27691,0.12992057,-0.26008344,-0.5769295,0.8403549,0.6913254,-1.2710342,0.64370006,0.23417902,0.44953433,-0.8671303,0.22345471,-0.5409403,-0.66729677,0.17179923,1.0
Backdoor.Graybird-bc0d7b7b3bd4174a6a541b3a330761d73e33784bb20ec3af183d87af0b0d22a2,0.20645547,1.0708276,0.3598128,-0.87872,-1.0477077,0.120940685,0.8298567,0.49298897,0.87926495,-1.7534772,-0.08431227,-0.7073932,-0.19729756,0.1808159,0.4475229,-0.5672926,0.6187285,0.85030216,0.33357894,-0.38064727,-1.36792,0.6517267,0.12373477,-0.079147615,1.0
Backdoor.Graybird-bd5688c51d6dfccc1039fb219ab892c35ba24d9822d86ab40c97923c9c570d17,0.2500908,1.0740315,0.77463496,-0.45329592,-1.0032234,0.20522715,0.3786754,-0.18432616,0.18746571,-1.4018025,0.5726545,-0.29572988,-0.11342149,0.16408575,0.8303739,-0.7793006,0.4286745,0.9241763,0.46339622,-0.8562884,0.14550383,0.6239467,-0.12957303,-0.30753037,1.0
Infostealer.Limitail-00ef4eae8d3744a94cdad3d143180163d2805eb3efa4b471dc70fba7fe1ce917,-0.2204759,0.38048568,0.5023864,-0.7889798,-0.14757045,0.30706686,0.5609469,-1.1235561,0.5632385,0.5913112,0.47890285,0.19299783,-0.7133267,1.2721218,0.60675555,-1.2480783,-0.08430601,0.31439725,0.49265862,-0.466499,-0.1914784,0.31224003,-0.12531528,-0.8255917,1.0
Infostealer.Limitail-0123ab6dd5cc869f8915767ce440642b8305beabbb8b326f65a74952fc23417c,0.35921434,-0.44229338,0.20578495,-1.0617002,-0.1325907,-0.9311702,-0.442415,-0.6010647,2.167865,0.04146006,0.16552165,0.0926688,0.12496808,0.55073416,0.11649705,-1.139942,0.089189105,1.2360284,1.1611912,-0.31668875,-1.0036265,0.023099154,-0.020600243,0.3854463,1.0
Infostealer.Limitail-0475d54d5b6d3d7ae744cc7bede1496bde02dc30da9c1d3d6735e8a9b06b5603,0.086377695,-0.042349435,0.27604896,-0.23950012,-1.1817685,-0.68673617,0.9188382,-0.28588277,1.3496956,-0.26661783,-0.1666401,-1.2488745,-0.6020215,0.75140023,-0.040413868,-0.7665736,0.5623227,0.24613883,0.9139716,-0.67002267,0.21077523,-0.102619804,-0.13657574,1.6601316,1.0
Infostealer.Limitail-06782b2472460f2d91238d0c524dfda4d52bfc43f2c48c2bed652e595fed3985,-0.6583211,0.42485178,-0.4129811,-0.9011484,-0.220695,-0.59426874,1.2389565,-0.3324381,1.6495508,-0.43868294,0.5096805,-1.0042055,-0.2728603,0.5247886,-0.30717558,-0.31600827,-0.40148395,-0.04711745,0.38555542,-0.8960084,-0.8510298,0.31906202,-0.9666667,0.07860367,1.0
Infostealer.Limitail-09ff450c5df368071b2e3016656d3ba91f9db8760d61706711ec453f8409f933,-1.4427452,-0.19465442,0.14207213,-0.59463924,0.029963166,-0.3089984,0.24196847,-0.001193223,0.61523473,0.89949065,-0.724566,-0.75398034,-0.116023995,1.1970754,-0.057120387,-0.79753053,0.6926535,0.5877285,0.97741705,-0.5804832,0.06861866,-0.21414545,0.027731823,0.5929247,1.0
Infostealer.Limitail-0a1de690d2206a17d79c5b5d732d1e22ed66be863603f7158a4dd3d1c05e64af,-0.41234186,0.3422946,-0.0074054548,-0.894111,-0.036927763,-0.7869274,0.68923247,-0.0032752382,1.5939786,-0.2517578,0.13494143,0.3284836,-0.25395426,1.4227792,0.2800657,-0.9318561,-0.22819084,-0.5859639,0.008481795,0.16646957,-0.9699699,-0.26215833,-0.30477402,0.05787537,1.0
Infostealer.Limitail-0aabdd5ede5205920b2005f74fff2e166128f7bb03bc05187a0f9869db90b956,-1.0541663,-0.6316174,0.06446184,-0.73912096,0.60501516,-0.8716802,0.56581867,-0.44792813,0.8064186,-0.82384145,-0.84428567,-0.06977899,0.8004306,0.48984405,0.5750326,-1.3145278,-0.058096442,1.4819236,0.8464168,0.20324297,-0.7367192,0.49395615,0.47768372,0.6442607,1.0
Infostealer.Limitail-0b6c32474d27befbde890587ef0c17758a294919cb94ce9877b4f47fe5c8c7cc,-0.26431507,0.2722409,0.4395628,0.47234938,-0.4476536,-0.014740314,0.95871997,-0.9211396,0.41152537,0.5667426,-0.355077,-0.029271346,-0.18976136,1.1265593,1.5490321,-0.9452602,-0.34619948,0.023662103,1.0974333,-0.19114977,-0.62035793,0.17432013,-0.3863564,-0.8247199,1.0
Infostealer.Limitail-0c099054f7dfc82eec2cb236792bdda71cbfa1b0bff29faa1c29a085942642ee,0.83053076,-0.061826415,-0.75977993,-0.72641206,-0.80321705,-0.3242748,1.4764423,-0.07305521,0.4187294,0.10671896,-0.17657079,-1.0795027,0.04673098,1.3836272,0.20722418,-0.66375554,0.64159054,-0.15495574,1.0532484,0.17403801,-0.23931885,-0.24009025,-0.2852183,0.12508532,1.0
Infostealer.Limitail-0d32a0301c155ae34f05082bda13659a657abd14c99611e4cc773ee38fe4f6ed,-0.6728073,-0.4929925,0.073076025,-0.3066209,-0.0124473395,-0.23525617,0.29278383,-0.38175088,1.5260766,0.2732312,-1.1061249,-0.6449566,-0.28220564,1.9735931,-0.42139333,-0.95444876,-0.27885324,-0.19754645,0.4604434,0.46688423,-0.5287874,-0.33014926,-0.3945517,-0.9430667,1.0
Infostealer.Limitail-0d485c1fc0333c23dad74c9823486e5730d1ad15ebb95f7ad556254c00d66bce,0.08154936,0.24409063,-0.2352341,0.74314976,-1.2840456,-0.52384305,0.93397117,-0.1144952,0.39461103,-0.60838175,-0.19302349,-0.8444452,0.026629359,1.6276819,0.1967861,-1.1569078,0.16731545,-1.0167614,0.28836375,-0.31916672,0.9112038,-0.018679716,-0.037116263,0.4557132,1.0
Infostealer.Limitail-0e505630743126bbfe7849d0a4c644d021a9b03a00673a4a4080d66a5b463de4,-0.057246517,-0.22792214,-0.31795132,0.22312489,-0.1548621,-0.013209642,0.4205801,0.14407435,0.24289355,-1.6582031,-0.07617745,-0.65552205,-0.32044846,1.8182852,0.8383522,-0.25565088,-0.54222715,-0.118444145,0.4705076,-0.16986428,-0.85575914,-0.39933363,0.39741522,0.41410452,1.0
Infostealer.Limitail-0f69f12074e1eb0676e76876df23160e0a478d6a5aa99a05920f3738ec61bbbc,-0.75988066,0.41766143,-0.18018095,-0.2693689,-0.49410826,-0.5076488,0.4162281,-0.4401627,-0.20247696,-0.8734723,-0.4875624,-0.044298563,-0.006893052,0.71211314,0.13915356,-0.7557262,-0.23472828,-0.030095274,0.30954388,0.19668622,-0.89534646,-0.8272847,0.2851947,0.3565865,1.0
Infostealer.Limitail-0f980c7daa8aed3f5ec136e578fbb78a1ceb392fb2f5116e17726485b18e1fbd,-0.19369641,0.14484559,-0.44194424,-0.56094825,-0.41479865,0.6682117,0.4834494,-0.319603,0.65622526,0.49635747,-0.17830268,0.17526324,0.31876725,1.1562178,0.7354102,-0.96376085,-0.05644956,-0.15245396,1.5656415,0.09150488,-0.05053151,-1.1378773,-1.4630854,0.40491658,1.0
Infostealer.Limitail-10f5d0f417623ea40f0c90ad193d6a11b2c08cb367fa06d2e6afc898c296cc9f,-0.9923144,-0.18465245,0.02328494,0.094031364,-0.03432761,0.4595415,0.86333215,-1.0323347,0.4194683,-0.4201975,0.57182705,-1.2104474,0.33402637,1.0064228,0.81536204,-0.67523754,0.18999381,0.33090058,0.5037762,0.038809884,-1.1199061,0.105697095,0.19172245,0.10310471,1.0
Infostealer.Limitail-118b08bf351375c6d3aea39afb26196640ea6b6d9b065352425ce11d691ef1e3,-0.12859288,-0.45276812,0.5102532,0.23268104,-0.5464412,0.45679572,0.3496941,-1.2899504,0.08506947,0.7261667,-1.1608337,0.22676727,0.5191851,0.74509645,0.7587871,-0.9391636,0.37954196,-0.86342365,0.5747616,-0.36369723,-0.39965943,0.18180318,0.18734632,-0.46564746,1.0
Infostealer.Limitail-1210fa15170398851d251cd557e382016a5e5cda335e0bd1156626028a66e024,-0.08334881,-0.7829764,0.26818544,0.19792499,-0.2712219,-1.1217352,-0.028104741,-0.3599932,-0.00300827,0.88262254,-0.6988098,-0.34792936,0.37862927,0.8993468,0.018744722,-1.3785971,0.22471413,0.07154106,-0.16692615,0.12968677,-1.1034138,0.43921104,-0.47868726,-0.32122576,1.0
Infostealer.Limitail-135866733dc9b1bd01754f70f069fc3b15c26a930b450745cd73ad3084b61291,-0.5529459,-0.1125073,0.56127954,0.5164647,-0.9776491,0.17721422,0.6123614,-1.2023858,0.018773345,0.16646229,-0.53730494,0.09066528,0.718578,1.0981178,0.36543673,-0.27319002,-0.1543758,0.78350574,-0.3853975,0.41608685,-1.3977522,0.5310142,-0.563531,-0.07578922,1.0
Infostealer.Limitail-135f565f6b7ab8ff429f048b0f42b25310db9cfa300547df3a14fe3a6e6aa9af,-0.7984086,0.34619123,0.18135303,-0.09053035,-0.98039174,0.080131516,-0.15896007,-1.0318813,-0.10914665,0.15373978,-0.31842896,-0.089260235,0.4135045,0.94398975,0.06468576,-0.30858737,0.7118622,-0.28284493,1.0208515,0.69329375,-0.624108,-0.28292733,0.4443387,-0.057509616,1.0
Infostealer.Limitail-136bbbe694ed496d41388c5ace11649782ecb8a4e46e278cb2b23349404f904c,0.0071215457,-0.08564583,-0.27137294,0.22753036,-0.700393,-1.2381506,-1.3698765,-0.67671907,1.5408521,-0.04700441,-0.7007155,0.1951083,0.58896554,0.7591778,0.17154367,-0.643272,0.5576304,-0.16162798,0.6796059,-0.7487605,-1.3770933,0.28307992,0.018192487,0.11264603,1.0
Infostealer.Limitail-13ef19db6da118df6fcb8f7775f3b0a6092f68012c8526c7badc5e65991a4d06,-0.842327,0.42903206,1.0451651,-0.25637537,-0.66774535,-0.7969688,-0.5079651,-1.1316843,0.49125177,-0.4746131,-0.20877099,-0.4124204,-0.081159085,1.5000974,0.05023298,-0.7513041,-0.25292483,-0.6672726,0.30019015,0.40922558,0.47230008,0.25997612,-0.1434169,-0.7552767,1.0
Infostealer.Limitail-14205ce7af4fbc01aa3215de9a7f5f752e193ab3c632d4c1617408dd7c6c0f04,-0.65316415,0.108436584,0.26485467,-0.15000364,-0.08763551,0.18572485,-0.044119123,-1.9746859,0.20163849,-0.08008243,-0.050343867,0.0884319,0.57565475,1.0146358,0.45935348,-0.83586705,0.52115893,-1.2665058,0.2512665,0.16246085,-0.3449964,0.7789686,0.0347806,-0.32881126,1.0
Infostealer.Limitail-16631e735f7335a9b82f9a27ef48fbaa514d67b5f9f4ac21709e59f8f4036ac4,-0.28645703,-0.9607187,0.022505343,-0.8173841,-0.51750493,-0.43193206,0.82047415,-0.6585957,0.41223463,0.013457732,-0.121610455,0.13795744,0.18553647,1.1181026,0.27817154,-0.031612385,0.014957539,-0.21781652,1.6674266,0.03302824,0.46636128,1.312168,1.1793367,-0.79931337,1.0
Infostealer.Limitail-17f4c22278ea2d9352a1ffbe29ac02439b4c4bf04e815723775a9f217979f5b9,-1.0464879,-1.0216278,0.48852575,-0.31757545,-0.26842117,-0.55837077,0.16993184,-0.22427897,1.1765882,0.5346387,-1.0754222,-0.0029390587,0.06824041,1.5515155,-0.28263935,-1.0119232,-0.005355353,-0.021222793,0.6360922,-0.06514091,-0.100648694,-0.7497709,-0.04908874,-0.4450207,1.0
Infostealer.Limitail-183e71ad07ec140f089741d41c465c6bcd1c0999c60eeb7a1358bc67bfea29a7,-1.1441454,-0.09869527,-0.01886189,-0.9622126,-0.033459917,-0.45138314,-0.0047117136,-0.21255058,0.31472602,0.07761671,-0.29295558,0.64734346,0.21956357,1.5626585,-0.08984971,-1.6821731,0.37698102,0.23964265,-0.08410046,0.3978478,0.12477176,0.01307491,-0.25456333,-1.0270903,1.0
Infostealer.Limitail-185dc17283169b8b5e81b9e447328d058ced407d7da1aa0f6a15938b9ee0794c,-0.23889877,0.45576164,1.4029367,0.43086314,-0.3108243,-0.23571773,0.21686956,-0.542493,0.33295268,0.04963885,0.1997534,0.54542387,0.21338654,1.3292406,0.91351616,-1.3697464,0.5107692,-0.60344523,-0.27851644,0.34686217,-0.1710454,-0.33229214,-0.1965764,-0.6472906,1.0
Infostealer.Limitail-18916d5bd986736cd42f59cac3c089066b67b47f7ea971766fb178289ef1123a,-0.6105528,0.22067997,0.33252457,-0.870537,0.92439985,-0.34100652,-0.22273722,0.18078183,0.20826209,0.49355122,-0.21068637,0.4010645,1.2648731,0.29100835,1.0885358,-0.5757291,0.5657872,-1.1489917,0.97341996,-0.9055836,-1.020808,0.6381784,0.115559965,-0.17374597,1.0
Infostealer.Limitail-196f9d41e0fa5fd254a5fd3aa41bc6c9fd0c86d1ee06cc049a34115e1a270bfa,-0.09562003,-1.0318158,1.4850373,-0.22159341,-0.6276754,-0.042799164,-0.15444145,0.600905,0.58233654,-0.204814,-0.6263027,0.025568122,0.39730632,1.0978788,0.9372536,-0.08041311,0.7625033,-0.5995058,0.4348945,-0.21224818,-0.3428726,-0.25362632,0.6139618,-0.4521009,1.0
Infostealer.Limitail-1aec488c2f3976d4475c776b2f26c02af5c2cc7f45c296590cd6c5038574a92c,-0.2106068,-0.21686137,0.5748766,-0.4443667,0.0054406016,-0.29155353,-0.06022769,-0.009334288,0.108008824,0.31069836,-0.3971861,1.0677971,1.064616,1.4864712,0.41620454,-0.6662267,-0.0643105,-0.22467119,-0.046890184,0.013141118,-0.39867753,-0.698559,-0.07204856,0.29776114,1.0
Infostealer.Limitail-1b6e85db35b48ddfd20291b4c3779ddc1c9561ddf059078c3f939d7d7056bc6e,0.23790215,-0.96642524,1.3022153,-0.004490043,-0.480123,0.11609407,0.62886107,-0.7464459,0.43694034,0.12537223,0.02828578,1.1317202,0.22560784,1.061354,1.0603865,-1.3225726,-0.06220848,-0.47291353,-0.2557814,0.24075626,-0.3731229,-0.0412368,0.8348612,-0.52717423,1.0
Infostealer.Limitail-1d078f7168bd934908c48a33d8262b148640b67d0ab541ba117289233ee3a529,-0.24960253,0.16000172,0.9291807,0.67002773,-0.029044572,-0.37060383,0.08787402,-0.41234624,0.43756002,0.11606539,-0.37622884,1.0897254,0.26623014,0.22223161,0.5022339,-0.5146172,0.89327455,-0.76371235,0.52759975,-0.51201016,0.053976122,-0.023317287,0.45925793,0.5304489,1.0
Infostealer.Limitail-1e9ed45964eb13969340c97a213d5863ca4d946a2ccd2e5edafd69f01de133f0,-0.45337725,-0.99328196,0.7889809,-0.56282485,-0.48121428,-0.09525971,0.0072387564,0.2783368,0.42358348,0.92264974,-0.56691504,0.3924421,-0.48220268,1.1786404,0.03328279,-1.037165,1.2876918,-0.7594657,0.4494025,-0.28599074,0.17735122,0.41623566,0.42014354,0.17371106,1.0
Infostealer.Limitail-21cd67693f44fa376e69a14c648650f851c65ba0a50c316712f5a17db01a9994,0.37223777,-0.2832067,0.67595154,0.6158897,-0.6437555,-0.45971408,0.005681265,0.16706978,-0.4543139,-0.51045924,-0.17433898,0.13133757,-0.06512303,0.39343676,0.51037115,-1.0305969,1.1229998,-0.9973793,0.5192353,-1.03347,1.0455271,-0.1756146,-0.42772967,-0.094760634,1.0
Infostealer.Limitail-220649e7dc6ca90a1512f189c5af105b5aeff8dba7eea9353c149e4317539e74,0.50846773,-0.10214474,-0.058478672,0.6832687,-0.5066145,-0.39321572,0.5642186,0.24502158,-0.039944794,-0.72647405,0.14012118,-0.16857968,-0.7431007,1.2379392,0.08517566,-1.0625994,1.1082871,-1.5703958,0.6491295,-0.50855744,0.88439405,-0.76754224,-0.138732,0.87172854,1.0
Infostealer.Limitail-227eb01ab3857e0714f61a353095f8917abcc460c08fab7d09a9cfabd4369d9f,-0.3383303,-0.7196851,0.3331632,0.3730987,-0.42972258,0.32896194,0.69163275,-0.9783813,-0.22796167,0.2391451,-0.8368408,0.18538243,0.6623602,0.5788151,0.70869213,-1.1789297,0.11103165,-1.1627458,0.6731803,-0.21894763,-0.6906993,-0.34893954,0.24602507,-0.8489732,1.0
Infostealer.Limitail-2375a171b77127674c743222c3bc4b296f96f5d3f021bced6ff7121c02a0cb3a,0.5535303,-0.8791825,-0.06436759,0.7001998,-0.8227973,-0.44115648,1.3139672,-0.32796508,-0.11013951,-1.6234179,0.4480945,0.4750361,-0.8003308,0.9681355,0.037869845,-0.17653762,1.4290395,-1.0570196,0.20089418,-0.8654071,0.43119788,-0.039963014,0.48553756,-0.5409594,1.0
Infostealer.Limitail-237746f2268f808cb79eddc9863637eb96517e8c61863e716f9536096480a1e2,0.5321544,-0.36260226,0.59667563,0.13271143,-0.30066076,0.25132704,0.4729319,-0.42514244,0.12126159,-1.0858771,0.30855066,-0.030326482,-0.3325619,0.95341986,0.9422269,-0.3371589,1.1191732,-1.4613396,-0.036456026,-0.71079856,-0.10933638,0.09603581,-0.15632856,0.25875553,1.0
Infostealer.Limitail-241c5405d6d07768628732edf079d8eac93ff3b510d2582258c6bfd823de45fb,0.33081397,-0.3551515,0.8026458,-0.06426835,-0.18476246,0.49155337,0.5698183,-0.6752127,0.74823767,-1.0734578,1.0494549,-0.32673052,-0.724682,0.44655412,0.75073564,-0.17482248,1.1054529,-0.5843486,0.23021887,-1.1267041,-0.15651262,0.38921583,-0.26228094,0.3941178,1.0
Infostealer.Limitail-2518cbdda8b91112239a3a59faee20fa5f52e6bf34e93d133638cfcd83ee3b03,0.51115483,-0.83353496,0.69789124,-0.6482445,0.11371783,-0.00087835436,0.30558693,-0.9805157,-0.6042588,-0.01441368,-0.3649783,0.714282,0.24263515,0.7993944,1.1167711,-0.7536411,0.37419608,-1.648488,0.79092735,-0.35605353,-0.9716287,0.18850084,0.36719653,-0.72652817,1.0
Infostealer.Limitail-261e287373e8644ef30b579b34dc5a9def0965645fd0177a3fcba87749c46747,-0.8576088,-0.6913022,0.22907066,0.39884618,0.23640288,0.47080702,0.68227637,-1.1575338,1.3001719,-0.028812936,0.10478402,-0.013124404,-0.6451859,0.8664133,-0.16359755,-0.62077695,0.61967504,-0.059160467,0.55010444,0.16721934,-0.34410194,-0.08392708,0.5080682,-0.3749031,1.0
Infostealer.Limitail-2a1e55236634cdde2548ab817429fcb734d75feead122784f413114cd3a3dcd3,-0.4046806,-1.0279331,0.21128252,0.3826413,0.3262743,0.8182465,0.850582,0.34353736,0.47962993,-0.30914018,0.2930363,-0.4024132,-0.17080867,0.5285517,0.68885213,-1.1300101,0.757118,0.52003217,0.8176852,0.030667681,0.2370213,0.056193907,0.99684393,-0.024566986,1.0
Infostealer.Limitail-2a68b2e3158eade9b9819de0dbd4b13d1abd16da38476327abb3692d5bc1968f,-0.03389446,0.08573288,0.8278775,-0.1809397,0.12736957,0.9473487,0.38392538,-1.6571449,0.25182176,0.18783115,0.09161099,0.06404807,-0.6077433,1.2318945,-0.13494307,-0.1734596,1.1285092,-0.8976889,0.20670763,-0.107838914,0.08351215,0.7645357,0.28066885,-0.4368109,1.0
Infostealer.Limitail-2b45f467b7358db4b30026ddbe8c4bb947c199f7a9a52a8aec18622b22a4b544,0.31733006,0.045999102,-0.31560123,0.47804096,-0.6539638,-0.13924287,1.1218337,-0.50478536,0.7588448,-0.6488315,0.05810076,-0.69308794,-0.3664561,1.2280763,0.5426949,-0.73855096,1.2719358,-1.1175303,0.47225165,-0.53010094,0.12219351,-0.121002875,-0.124877766,1.4133794,1.0
Infostealer.Limitail-2cd3bb434bf5b37d4bc2421606c8e9011efbbf9ae77885a609d2416a5b9c08a2,-0.5494956,-0.19966096,1.2699611,0.32192752,0.24524045,0.70688576,0.24310662,-1.2476677,0.6707453,-0.58869606,0.06163442,0.10511739,-0.5883829,0.6943534,0.727952,-1.1353958,0.90059733,-0.6568446,0.10906548,0.116467156,-0.53839636,0.81155777,0.27242616,-0.9830551,1.0
Infostealer.Limitail-34477322c51b74bb6036ef0b32cd0bc40521ad9de078f44414bbbbe8595bc8ee,-0.55218107,-0.3007489,0.5374395,0.091591686,0.25387174,0.19518036,0.84630454,0.37931433,0.6625953,-0.9202713,1.036747,-0.05951585,0.009735111,1.1420951,0.64602387,-0.962004,0.65477943,-0.45396098,-0.31934822,-0.6026916,0.090575434,0.04156343,0.9549845,0.52994525,1.0
Infostealer.Limitail-34509889656af4d6e305b69619b898f423c4780f916c619ab8003b41ddc6e77d,0.20539682,-1.0832382,0.9357692,-0.11934155,-0.2363476,-0.0518759,1.5278183,-0.881669,-0.15635347,-1.1340339,0.34603772,-0.36001706,-0.83912945,0.97784346,0.0008331507,-0.48783997,1.7171925,0.19163707,-0.013422841,0.22186768,0.55180514,0.579186,0.3228102,0.67345273,1.0
Infostealer.Limitail-3474a23a951c690af7e5a1926efa6b24ac123bd1c33c9e3c19b277f95a771f11,-0.3584863,-0.11799787,-0.14770468,0.17115672,0.6799211,0.3495171,0.8688162,-0.541879,-0.11142484,-1.5867702,-0.18328235,-0.56869423,-0.19616668,1.1542163,0.55483764,-0.04830452,1.6197708,0.64869964,0.8249042,0.32174563,-0.21572256,0.52896386,0.67212564,-0.043587048,1.0
