,0,1,2,3,4,5,6,7,8,9,10,11,12,13,14,15,16,17,LABEL
Backdoor.Graybird-009a62c6f6543ec65460d9a3984fac8dd65aba2feacfa00e8e253bb474a417e7,0.90938705,0.41323957,0.50179136,-0.36131948,-0.49392536,-0.33532026,1.9618008,-0.1390256,0.231352,-0.07097093,0.6461226,-0.025432922,-0.66087794,-0.7978311,0.124528326,-0.39970905,-0.5352935,-0.39906725,1.0
Backdoor.Graybird-02842b14fc265c045f10e2c5ab47c0b0a757c41d13a53194deb66aceb2e3993d,0.09934973,0.8593861,-0.16210392,0.17021555,-0.08334987,0.3475579,1.650205,0.1666046,0.12171276,0.52594125,0.18317728,-0.29937002,-1.2433096,-0.4826647,-0.641634,0.13842043,-0.23592113,0.15081169,1.0
Backdoor.Graybird-03b5962ef8b9c83fe0ed10fc4333a68462865f3a4442346c5f7d004a46555448,0.2234619,0.44295117,-0.6222474,0.9091146,0.32336646,0.89354724,0.7389234,0.29053763,-0.36634535,0.31324363,-0.24327117,0.31285584,-0.32684237,-0.8787192,-0.2667379,-1.5658824,1.2271519,0.11974834,1.0
Backdoor.Graybird-049f53a05707c2cccd67540609368ef20f395327adb9a026267369d568f78c0a,-0.029345443,1.0830387,0.38308382,-0.20271319,-0.6130077,-0.115726136,1.2793981,-0.3587092,-0.0946203,-0.12307785,0.15985838,-0.3705325,-0.4315027,-0.23694451,-0.5620714,-0.23531215,-0.4755596,-0.06703893,1.0
Backdoor.Graybird-05339051a960d18fafb2e5d656e36b2fa007462d9a7b2fbfcb4532b3235ac5ed,0.29876933,0.89630127,-0.34537274,-0.20642737,-0.8570801,-0.7515882,1.3143559,0.2078391,0.11505872,0.7803757,0.14779711,0.4559003,-0.34388238,-0.37074956,-0.5989842,-0.33918527,-0.48746917,-0.502315,1.0
Backdoor.Graybird-05bb2dcf38927dc99961deedaaff6ff120bdfd383745bac5aeb0c28340ea1010,0.22664335,1.5185431,-0.014724396,0.73238844,-1.1308156,0.12072183,1.684017,0.0898654,0.34334248,0.756627,0.43037745,-0.10597533,-0.9693066,0.26381242,-0.81106514,-0.35023248,0.27723253,0.13591295,1.0
Backdoor.Graybird-06ba9a22cbf334f6beeb0bc5302d3f0d6b7ad734c9ed071d6f279936a37f4687,-0.20221943,0.7820453,-0.0913938,-0.3628515,-1.2875051,-0.57038766,0.91484797,0.9884583,-0.14085554,0.5838403,0.54929703,-1.4861338,-0.62939245,-0.49600643,-0.5169689,-1.303404,0.28639314,-0.25205255,1.0
Backdoor.Graybird-07adf0e72d58706d13117578493d64cc085811d7454fd598a805aa818a445f09,0.23325914,0.84285057,-0.3570576,0.7917045,-0.9516089,-0.22083347,0.48171294,0.32835358,0.090542205,0.948981,0.4313438,0.27463347,-0.6601461,0.6483989,-0.54693884,-1.2625037,0.5161181,-0.47097823,1.0
Backdoor.Graybird-0814e28a9bbff170fb9257df3ad5cf8a27287f7c9001f15ea6a683c05e72095c,0.31310222,0.42980033,-0.6699074,0.13149239,-1.5075834,-0.1647357,1.3193297,-0.1539304,-0.05208905,1.2620988,0.2412332,-0.48739055,-0.17645498,-0.078614235,-0.17018522,-1.6005818,1.0455699,-0.10714868,1.0
Backdoor.Graybird-08c34b0421ec2fd129554058eb0e19111b167fdeee45c3c51252c4ace128e70e,1.1033669,0.076655015,0.09810879,-0.05611028,-2.054842,0.3660742,0.93289244,0.6738614,0.59839344,0.23327962,0.56244063,0.42893443,-1.1588448,0.3920336,0.36370012,-0.6375106,-0.067528374,0.11972754,1.0
Backdoor.Graybird-08c383b4ffb8ed9df7a17296ae0c1798d7f4b769f188d5eef55c77bb79dcd432,-0.010670344,0.93497795,-0.14054856,0.45732242,-1.7052789,-0.8399235,1.375912,0.5501378,-0.7474973,0.066512294,0.37008747,-0.8218311,-0.5297578,0.34045923,0.2544071,-1.631247,0.33524725,-0.04253231,1.0
Backdoor.Graybird-08cadbda2bd111540dc25897982bc801f681dc16e0eba323973e193712332ef3,0.67896706,-0.51176155,-0.094163455,-0.122573994,-0.59208506,0.60174936,1.0762058,0.2346914,-0.2612095,0.12838261,0.77103484,-0.7445999,-0.4802942,0.023703497,0.17585959,-1.3357551,0.60526586,0.42196465,1.0
Backdoor.Graybird-0904d313bde15d4656a630055d025d6a289de46fc2369597deb20d51da0ccd57,1.0181074,0.028319241,-0.46050456,-0.12934692,0.046720948,0.10809294,0.8898483,1.0723085,-0.5495036,-0.6891472,0.4501821,0.4211127,0.09338725,-1.0634155,-0.35179552,-1.7526274,0.68993074,0.41289392,1.0
Backdoor.Graybird-095879f4cafe44bf45530fa8b6999d7361bdac2f041fc3c4e7afc1d80cbe914b,0.9195772,0.43901506,0.30350092,-0.5407248,-0.67442226,-0.59932166,2.0478876,0.3068505,0.41332936,-0.043352474,0.5931832,-0.04347127,-0.11012802,-1.1490623,0.2615485,-0.7484376,0.051732745,-0.23537351,1.0
Backdoor.Graybird-09a45409e39fb3077d1e7fea751027d152dfa6d9bd30829749ff4ec5caecdfb2,0.12004396,1.0134646,0.2394856,-0.07415239,-1.4392604,-0.35805485,1.1337186,0.60619503,-0.45891824,-0.12889518,1.0446028,-0.6470801,0.09336525,0.07755512,0.47862956,-1.268293,1.0724158,0.8864592,1.0
Backdoor.Graybird-0a1311fceceea990bf446f7afa4fedcc6b7f8780afd4a6c87a31949818f87cea,1.0489881,0.26647842,-0.5709239,0.5471323,-0.06960972,-0.10199067,0.95366436,0.49057335,-0.78869164,-0.05749385,0.4349193,0.22342558,0.27234083,0.19689025,0.77112716,-1.4147956,1.2826887,0.7515835,1.0
Backdoor.Graybird-0ded1dc774b46d985a4e90a46f5d56a0047630d7a6e8df439870f7bb40b57a14,0.7660018,0.97862387,-0.003816695,0.70634943,0.027066426,-0.5117781,1.8589128,0.6319162,-0.26534647,0.07846706,0.4096785,-1.331985,-0.052899927,-0.4537233,-0.104432166,-1.0044092,-0.3236279,-0.6374503,1.0
Backdoor.Graybird-0e4b24dfaad406b918efb40923889150f139511f43c56e34deac187d950ce03f,0.46950257,0.81956583,-0.6746478,0.24921533,-1.2857839,-0.00056049216,1.0084833,0.15892974,-0.16679755,0.09533404,0.06646067,-0.275793,0.41068238,0.57955945,-0.05249229,-1.0765749,0.81020063,-0.55666184,1.0
Backdoor.Graybird-0e9e218c49e56ec187e145db72a72726d50ae295f08b4bf344f19e13de603ba2,0.4837951,1.0125878,-0.11824204,0.6237791,-0.37434307,-0.15668498,1.6020478,0.14932938,-0.24220116,0.41524225,0.77665085,-0.2616174,-0.56819916,-0.20943592,-0.5834703,-0.3541162,0.097365804,0.30474833,1.0
Backdoor.Graybird-0eec1cf54f4696068a4411a96e8deb728f734fac856440cb5175b1204d1dd137,0.08789099,1.473295,0.2661355,0.15404864,-0.24697508,-0.44875824,1.1992402,-0.28043208,-0.77577174,0.13698913,0.9770699,-0.7970863,-0.20442998,0.37261075,-0.38819602,-0.85312223,0.48175284,-0.54923826,1.0
Backdoor.Graybird-10672ba06f9cceb9fb651a6338f13de953b8a97d9d5164acd08456fb7a974b69,0.18854383,1.1516004,0.5135596,-0.46994737,0.12523384,-0.1004496,1.6184921,0.28911343,-0.14693831,-0.5324591,0.94968957,-0.34184435,-0.21261983,-0.0011221957,-0.603771,-0.48101905,-0.40819225,-0.56877285,1.0
Backdoor.Graybird-1078ebc75c7612450f362dc2e480699e1e6f21473898effad033a32e4e47d5ed,-0.34080702,1.5457658,0.6825335,-0.23605146,-0.91584516,-0.4896821,0.7937194,0.37235653,-0.55534357,-0.0067170896,1.0290698,-0.38061896,-0.38186505,-0.15049475,0.3828285,-0.9828024,1.0230972,-0.09744099,1.0
Backdoor.Graybird-1203e135f7e763fee8490a3e11c091a2a7617dc3e486d2bbe6ac81a32bc931be,0.43502155,1.1010215,0.47475952,-0.13750231,-0.9964869,0.40511665,1.0845308,0.014327022,-0.3346386,0.6221654,0.9010893,0.34763497,0.6553421,0.5407785,0.20963392,-0.842573,0.14000064,0.44197085,1.0
Backdoor.Graybird-12efad6f7e8313a41ffc7a49cdd612243712922f8d7947141e366574279077b3,-0.056371093,1.8921695,0.6171027,0.4613698,-1.4733386,-0.7539368,0.53030926,0.5878866,-0.718581,-0.31494755,0.78601265,-0.76776946,-0.2957611,0.25156268,0.7443651,-1.2213142,0.2989687,-0.022783685,1.0
Backdoor.Graybird-12f4f6331583edc2599a31940233f76e950dee226f92573abf7ad0bad10cb2c7,0.6002737,0.6050622,0.69258666,-0.5713416,-1.0860063,0.19522004,1.5476779,0.48074135,-0.22706354,0.61591476,0.7948948,0.7710149,1.0400311,0.39171052,0.8304757,-1.1891497,0.074392855,0.75835234,1.0
Backdoor.Graybird-143c25c7cc08038a40638df3cd01232232baed4a9469f356efc615b5041c794a,0.73511606,1.9516009,0.43488023,0.8231106,-0.94346523,-0.46051472,0.59706956,0.76081324,-0.73354113,0.3836723,0.58078927,0.73881435,-0.5536649,1.0166279,-0.2108121,-0.45698115,0.015884586,-0.4351382,1.0
Backdoor.Graybird-14818f4633cc87ac1b11b53895daa6cbc595065596c7ea86f807fb1a1ad79b72,0.537987,1.1413677,0.9769078,-0.06352861,-0.94023126,-0.1627774,0.6764275,0.7115453,-0.64294153,-0.38186884,0.9335232,-0.626495,-0.45119655,-0.48056012,-0.45661095,-0.50856155,-0.45460868,0.3148467,1.0
Backdoor.Graybird-152a87566246d7b100a299d29e34ce080c52e714e0c2883b904d85c1144de18d,0.11699176,1.2706791,0.35101917,0.6482451,-0.5228929,0.18513279,0.5431922,0.55551213,-0.60222244,-0.36779106,0.51329786,0.4067959,0.4730095,0.5280477,-0.10397059,-1.0031959,-0.42938122,0.17476878,1.0
Backdoor.Graybird-16274674297d97fdb7c53027a4e6facd681428961e31bc85dfff497056b071a4,0.08866704,1.5148464,1.0202395,0.57428706,-0.8191556,0.79671127,0.3817467,0.8867592,-0.5870728,0.54005116,0.8421165,-0.2247385,-0.93126994,1.1780226,-0.014864581,-0.4494688,-0.058051553,0.009979219,1.0
Backdoor.Graybird-16648fd7040db9b96d76e5f70711e8c62721035832f7b87594d62b0dd9b865ea,0.39797494,0.42952332,0.95215094,-0.4519012,-0.6217762,0.31853524,0.24610312,1.391508,-0.36591247,-0.22213751,0.7306181,-0.28169137,-0.59544885,0.561282,0.1301505,-0.90954584,0.087896414,0.16324201,1.0
Backdoor.Graybird-16ce6a8444870c762676cc776860c1ff7daa2a2dc76abd29136a36d6538bba8a,0.30964035,0.5814429,0.40284228,-0.5014522,-0.98310894,0.56492996,0.54988575,0.9373366,-0.06434516,0.7312974,0.6760026,0.41385838,0.4154026,0.991672,0.34092593,-1.2506438,0.34025878,0.5156745,1.0
Backdoor.Graybird-16dc33ad95a90a03f9489182cf6061392a79cbaf96cceb87bd3c6c664daff4a3,0.4813575,0.52694774,0.20067002,0.0666821,-0.153542,0.2784467,0.458496,0.53595495,-0.22256848,0.38313973,-0.07082691,-0.3323239,-0.21906975,-0.012125722,0.6056397,-0.3727043,-0.091498755,-0.37693715,1.0
Backdoor.Graybird-16dc7da8aef050616f3d99fd34b3f0410ce6a38f5a61c9ebc8e86e87195c4be3,0.32362095,0.71992296,0.3376841,-0.86730176,-0.4521551,0.44145778,0.08345404,0.77141184,-0.42239752,0.1454957,1.2928076,-0.4204368,-0.07285915,0.28854606,0.31895992,-0.41067564,0.10631077,0.47091952,1.0
Backdoor.Graybird-1966b6b19ef74c24f458b6477ccb7e8c8427df6d65ea4dc5e0bffb811fbba2d7,0.99399245,1.0268538,0.614256,-0.3154692,-0.7606825,-0.37942454,1.704788,0.923522,0.02291412,0.07825976,0.66444474,0.24829315,-0.54418474,-0.8034415,0.32692775,-0.31162238,-0.2631496,-0.9010124,1.0
Backdoor.Graybird-1c7dfb9affef8bef118a41d36e3e8c413f3076918a8821efeb3721af52ee5c52,0.63738513,1.1571192,1.0486696,-0.18572675,0.032469578,0.1529991,1.21047,1.283124,-0.004811854,0.14269315,1.0277315,-0.3421888,-0.36097705,-0.4285028,-0.11486565,-0.42097855,0.2649701,0.06463375,1.0
Backdoor.Graybird-1cb523870e23e55d0d36af5a2e10472ac25390d3838c52c35b1106034132aad5,0.16821179,0.984656,0.7312813,-0.39693466,-0.5428962,-0.19051921,0.5755635,0.64526844,-0.37625897,-0.13262318,0.83734345,-0.6303732,-0.50102746,-0.31365275,0.1572329,-0.46491185,0.15477659,0.13536118,1.0
Backdoor.Graybird-1d17564930dc9cfdb8bf4483ba9763d17dd3f549facfdbe21ad18447663adedd,0.40049955,1.3855944,0.55673814,0.07888529,-1.3981352,-0.9599118,0.48313278,1.2867953,-0.72575533,-0.59542394,0.43149656,-0.78212404,-0.7160889,0.07003482,0.513408,-1.1897761,0.21560217,-0.27004135,1.0
Backdoor.Graybird-1d2b95795f54a30db2241b441843c8baa1319704e0bd48f022ac919e71899787,0.8246042,1.1155107,0.7075597,-0.3817472,-0.2923329,0.081582345,0.37845945,1.4674621,1.0674995,0.11417827,0.46415138,-0.030656513,-0.49224448,0.3140195,0.24846531,-0.5511855,0.603282,-0.3775497,1.0
Backdoor.Graybird-1f987748aa836fcff784691f0f5195eaed0187c12906f016b7bbad1f9b10d20a,-0.006068242,1.1530707,1.0788376,-0.035475176,-0.6321604,-0.10305128,1.019697,0.864342,0.18481076,0.14751956,0.6782349,-0.25764623,-0.260863,-0.22028089,-0.73340774,-0.66928226,-0.45044783,0.40523627,1.0
Backdoor.Graybird-1fe3c46136004caa9f4598dbd12db50b539bc0e44de422870a0150ccdf6c4297,0.2587877,1.7523098,0.57092744,0.43582693,-1.5615331,-1.1433507,0.8402411,1.0726327,-0.43002427,-0.08117518,0.088417955,-0.44182494,-0.3429797,0.08320048,0.37628192,-1.2627972,0.24916558,-0.18746671,1.0
Backdoor.Graybird-201267f2b8c394b866ce09e16997ce04701a0bdaa1f5651e81d1675af4a567a6,0.6874529,0.715235,0.530749,-0.68605304,-1.4018297,0.17306577,0.8356398,0.86359894,0.31131756,0.3978168,0.754022,0.7308572,0.782229,0.5645666,0.92998904,-1.1991606,-0.054386217,0.2258884,1.0
Backdoor.Graybird-20459a8ebc99703a2171b85dc321c41ccb8fdd67b606ac75c890156db25d67e2,0.68062705,0.5974049,0.5104923,-0.66241765,-0.34710857,-0.41882402,1.7589037,0.5147932,0.38694522,-0.1583831,0.46685874,0.2384574,-0.7829478,-0.9142984,0.25808543,-0.25678113,-0.36292747,-0.20623831,1.0
Backdoor.Graybird-21f994f2239ccaaddf25e98859f58e609dbc589127160c943dd884506d0f1e95,0.32741696,1.3900591,0.66532326,0.19807246,-0.5669496,0.17371039,1.2476789,1.3196819,0.32242027,0.7031962,0.9558781,-0.0151278395,-0.6912485,0.8800193,-0.25389576,-0.80450237,-0.23844999,-0.7610369,1.0
Backdoor.Graybird-22772293d3a3b20b3610ae1c06ab72da41745c57356905855180b45c5d43ae96,0.2280385,0.9008609,0.82761824,-0.31499106,-0.6857236,-0.084460355,0.62862,1.0540868,-0.27933508,0.19327977,0.77306235,-0.3819933,-0.7479551,-0.07045474,0.25923517,-0.9256556,1.226601,0.0098465765,1.0
Backdoor.Graybird-22c98fc9dac84f509083a90a332517ead8eb265fc53ddb1d16e5cfd0dab0ebe1,0.84136486,0.18050012,0.16757664,-0.0013957206,-1.4942021,0.36736906,0.8033051,0.74127924,0.63736427,0.82312673,0.29192707,0.5185601,-0.36479443,-0.13282861,0.46903142,-0.87516147,-0.21987551,-0.3735701,1.0
Backdoor.Graybird-23259ea20d4f481cdc1bf58894f6280ddbe3fc56d7bfbaaf11bafdf4840f8c2c,0.36461145,0.17194699,-0.4171022,-0.4526364,0.21694995,-0.2849025,-0.06711612,0.5868284,1.1781025,0.06491847,-0.055119187,-0.4113251,-0.44701654,0.1047941,0.16116565,-1.1283519,-0.13355975,0.43684784,1.0
Backdoor.Graybird-2486e00f3531d89506d2a87525b723d2508b4b8c0040824956aeca41b97d17d7,0.4949971,1.495677,1.1091131,0.6254055,-0.15081578,0.30749577,0.40814945,1.5195364,0.88123256,0.6594247,0.5634216,0.22992624,-0.33544403,0.5101866,0.25279933,-0.84885085,0.27939874,-0.05932856,1.0
Backdoor.Graybird-2565563f99f161ad465a603000f5a2440b83b12413930bac01d20c6d3924f79e,0.51639235,0.47219488,0.6039863,-0.60311264,-0.64432514,0.14475891,1.6612252,0.7012173,1.0000576,-0.15548511,0.3309384,-0.7312499,-0.40220627,-0.09565788,0.057203695,-0.74884784,0.103999004,-0.33483106,1.0
Backdoor.Graybird-272ea0be5ed16c1b6a1d0149a85107e382cf7dab94eb40fb49ec17acd3c00b0b,1.2633357,1.1162328,0.52172893,-0.5232269,-0.7965636,0.25962937,1.2436894,1.501105,0.61927474,0.48020822,-0.34976315,-0.3794787,-0.37950626,0.26220337,-0.075994976,-0.28030866,0.52580607,-0.61007655,1.0
Backdoor.Graybird-27c0a52403d572f0ee5abc626a7f5cd834ed6a5b7eeebeadc848a5cc091eb5d1,-0.09177909,0.5999745,-0.025632158,-0.12381229,-0.71260345,-0.20107736,1.2638971,-0.21499461,0.31512883,0.9218161,0.16171758,-0.35003206,-0.572556,-0.17089608,-0.6742177,-0.8489874,-0.32273865,-0.65024626,1.0
Backdoor.Graybird-27d4f0a222bbb2285e395dcbed061a6eeb91a69d6c8cab8c98fd1ffb244c699a,1.3898194,1.1421338,0.26581642,-0.058132585,-0.94313174,-0.12913927,1.0065225,1.1124337,0.021541238,0.8467787,0.45235008,-0.9433966,-0.06438091,0.34052402,-0.1947117,-0.49043465,0.048434146,-0.5230264,1.0
Backdoor.Graybird-2821c9781c0351109c2a8b9633972e2c71f46371b648d2103c2741f560b60a1b,0.5891625,0.88649225,0.2769337,-0.44909588,-1.2448665,0.5061432,0.80806136,0.7308069,-0.119515926,1.0153513,1.1285126,0.18051158,0.49509948,1.3010119,0.088946596,-1.2500299,0.14543979,0.27857438,1.0
Backdoor.Graybird-2860ba35f778ed52b8487fe93a77c05a2d49222ba8f6cb81877c1779d13c1f4a,0.7532994,1.3290825,0.6884357,0.46301508,-0.3293892,-0.015102182,0.75388926,0.71460503,0.15831119,0.28972927,1.0078359,-0.6159388,-0.4839229,0.4719911,0.094116524,-0.5893638,-0.065255016,-0.47568712,1.0
Backdoor.Graybird-2a1858cfa17d4f07292362a2719d61c97a487d29a5adf45d8e8b32f3252331a2,0.73730654,1.2718608,-0.047393337,-0.32081595,-1.2962075,0.31208554,-0.18876404,0.78087914,0.41983393,0.8115992,0.6963138,-0.5212284,0.5095577,0.18466318,-0.057665005,-0.86739206,-0.14124958,-0.31821698,1.0
Backdoor.Graybird-2a7c74a91f4b6f4ed632d97fc3ee8835a7a615cb15dbf6ecbb96526d06f64db6,0.56117374,0.5545993,-0.83674663,0.39297226,0.35159498,1.117687,0.45400843,0.5053304,-0.8006239,0.27469382,0.09856786,-0.22146954,-0.077345796,-0.7535853,-1.0313594,-1.5622085,1.5129151,-0.2424435,1.0
Backdoor.Graybird-2b470ddd183ec9f15d7cef2e1f2daf7243e1deef16fb6e74cb75b67c5d25df18,0.43914795,1.412203,0.14316964,0.32185867,-0.20072219,0.25704858,0.36961222,0.16532287,-0.4407831,0.43241754,1.0858779,-0.40719214,-0.026892256,0.36700004,0.17433223,-0.6820753,0.4489269,-0.7636899,1.0
Backdoor.Graybird-2ca870cb512099a0df67fefee9eb2bf8fd53cc078919852144d6cbff26456347,1.2751663,1.2200631,0.32414794,-0.5177382,-0.79151124,0.5999482,0.96942765,0.6950144,0.07100063,0.56971914,0.64539856,-1.2481185,-0.1616828,0.24807088,-0.11517341,-0.6593274,0.43341094,-1.8937004,1.0
Backdoor.Graybird-2ec9be730d82cf10af338e7f25781006744b9dda9c9ff484acfd2de501b05e24,0.49350464,1.5928483,0.14960216,1.1680613,-0.7570187,-0.5052571,-0.047099352,0.40814644,-0.55113536,0.7724694,0.4341072,-0.42230508,-0.36662728,0.75741875,-0.060299642,-1.3700547,0.3674213,-0.72566843,1.0
Backdoor.Graybird-31e4807b0f375d8f919a3037f2764686a46d2e41bd957f8edd8f771621a3e53f,0.9982124,1.2206811,-0.22073612,0.9691821,-0.7588482,0.14499727,0.16824141,0.52476597,-0.6567414,0.8861548,0.875903,-0.6503921,-1.0232329,1.1240125,-0.4683696,-0.775198,-0.07463597,-0.28722516,1.0
Backdoor.Graybird-32cbc565918830a83537aef008c3587ea24d2172c7ed3563ac2f4a7506a7a00d,-0.25766945,1.5514793,0.58835924,-0.098331496,-0.71049404,0.1754074,0.473018,0.83352715,0.24417318,0.8385292,0.6557981,-1.0098093,-0.44887766,0.54925525,-0.5868415,-0.6334823,0.23513493,-0.31049076,1.0
Backdoor.Graybird-33e8337aad51e26cebf92f17cdc0c3ffa5ed55c74de4e7cd5b92db2d75e15339,0.28980863,0.28358138,-0.12023648,0.24825051,0.12198475,0.83306485,0.31945446,0.65851396,-0.57061774,0.18103373,-0.06655377,-0.29082468,-0.44451278,-0.04244473,0.28685665,-0.9662407,0.9459555,0.21934263,1.0
Backdoor.Graybird-340c5cae28749592b0ea9453bd4f7d109b2fe2c8a03041e5da9961a7339eaa34,0.30247116,1.1914425,-0.082160585,0.7305938,-0.73391414,0.038421925,0.7192674,0.52901685,-0.25877613,1.0827378,0.27536646,-0.529643,-0.8786033,1.3141872,-0.31199616,-0.91528237,0.45421413,-0.59999806,1.0
Backdoor.Graybird-3472255f40fa8003a08d8c641d9d2c5d0f749bf4c0420fc9a22040103a97c35b,0.17207043,0.4805797,0.5312401,0.011686533,-0.3227968,0.08215278,0.20753197,0.21540457,-0.17677903,0.65023667,-0.22492266,-0.80018294,-0.85411024,-0.30359173,0.5269136,-0.43407378,-0.25883895,-0.21046974,1.0
Backdoor.Graybird-3473cb362c74478f5f8d200d068fbf1806d2dca138264e942574fb7abd324b42,0.36111122,1.3556136,1.0118778,0.37022442,-0.7410811,0.6411017,0.3148391,0.7550597,0.61279696,0.5214856,0.09922996,-0.30210036,-0.59617776,0.6815611,0.34013006,-0.46571344,0.35629827,-0.27043822,1.0
Backdoor.Graybird-349a9ef306724d4e0a569074528204ac93186fc10679de7c0fd4117b7e674adf,0.7167967,1.4388901,0.9713802,0.57350993,-1.1933215,0.36008573,0.28883708,-0.16597314,-0.32642564,1.2283607,0.66257536,-0.65336263,-0.8033133,0.52133095,-0.096165486,-0.8506808,-0.109821424,-0.5160799,1.0
Backdoor.Graybird-34cb2e3660a417e83f902c990f20b3d0efa6e84ad20a7c769f2944cc333bc47b,-0.030576283,1.5681423,0.8311121,-0.011330184,-0.42316234,0.26630044,0.87258744,0.66872436,0.08504514,0.49492922,0.52390236,-0.78556526,-0.27623072,1.016493,-0.34319186,-0.31058228,-0.030623447,0.34934178,1.0
Backdoor.Graybird-3512ae0eba2c3f6e4e6195c0e1bd70b9a9e3b3d7708f403ed4b5e281e4a1a120,0.2464515,1.1671993,0.79894894,-0.40956208,-0.9110563,0.29177555,-0.13321391,-0.42379835,-0.52003485,0.6681223,0.37086672,-0.94728154,-0.44517508,0.3661455,-0.6590178,-0.30143586,0.06771557,-0.17827772,1.0
Backdoor.Graybird-35808e06d5ab73341611da612e9a37252f07f2bc7801725569ebb49895f59a05,0.2680516,0.72920245,0.8811327,0.09143653,-0.9449323,-0.1230931,-0.5446086,-0.31344268,0.48250034,0.05824699,0.05086242,-0.6782676,-0.14795998,0.17574182,0.79542077,-1.7137394,0.7138905,0.012175444,1.0
Backdoor.Graybird-365bea068bcb7c92f0dbf6868e8e6ac2d49feaae2d6464a4fbf9d4dc28ea4189,-0.033304304,1.273593,0.4764091,-0.1329537,-0.74257267,-0.11097848,0.4702393,0.52893984,-0.35080177,0.41189653,0.9919948,-0.7523208,-0.24937935,0.13149588,0.3326953,-0.6036176,-0.116128236,-0.11868038,1.0
Backdoor.Graybird-3796ba03a70668fe9a40cd399da7963d6dded9136682059f1443d5b493d37a83,0.07262154,0.8192771,0.56034935,-0.17851898,-0.519973,-0.1998987,0.4896167,0.3925384,-0.5510956,0.25909293,1.0818089,-0.3179915,-0.35587838,-0.7641024,0.30731344,-0.8801053,0.019002315,-0.14661488,1.0
Backdoor.Graybird-3799f857d04896d9155038342c96e32490cab5ce67ddf33dab263184d95ea41b,0.39837345,1.6441579,-0.00034156127,0.5677993,-0.57361346,-0.48711017,0.064639516,0.38373494,-0.35087678,0.8675396,0.7085136,-0.7227442,-0.5616254,0.6699208,-0.6587019,-0.9878482,0.2488475,-0.91437465,1.0
Backdoor.Graybird-3920bdcebc14233421ec142268749c0cc1358bba2af6e2e561ce3ac346db2d8e,0.42472777,1.5718527,0.4315028,0.6705562,-0.35385668,-0.9708987,0.41660187,0.33349642,-0.52635306,0.8315618,0.8712629,-0.26470083,-0.9851795,0.32572016,-0.078800805,-0.91027474,0.025127474,-0.74685764,1.0
Backdoor.Graybird-3a81fabef97e62aaefc48fa799a00c00d531afda4d49a58e90161dfef215d056,-0.34779432,0.89891,0.6874266,-0.6124601,-0.95226365,-0.44919017,0.74942875,0.028962824,-0.21834297,0.060418263,0.41133147,-0.45019656,-0.34732756,-0.4984629,-0.49132437,-0.98145443,-0.83528554,-0.5230288,1.0
Backdoor.Graybird-3ac9b0f65d3a26c5fe28cad9856d7119d2088f7cab78c37aa12348ea3b3bc000,-0.39854357,1.1319946,-0.22038686,-0.73040724,-1.105478,-0.7526131,0.7713432,0.79087955,0.0034141473,0.45175454,0.60910946,-1.1142857,-0.21664214,-0.27540523,-0.56157094,-0.9292525,0.50332284,-0.111796126,1.0
Backdoor.Graybird-3b6230033969a93587fc1d795bd800de9478b437d400bfaa3a1fd7ab0b082102,0.33306918,0.97328335,0.37983325,-0.16750345,-0.8068033,-0.7882564,0.35279503,-0.2744245,-0.55767316,0.98897594,0.2159881,-0.34098494,-0.23920137,0.2969348,-0.15803659,-0.98585796,0.074144036,-0.7642763,1.0
Backdoor.Graybird-3bd529df6d6af1c83eca9ff3fd494825f98908773b73ab6023b2d08e30fc9141,-0.9391818,1.1635923,0.8994903,-0.15212835,-0.66378796,0.28367138,1.0459113,0.50091326,-0.20799911,0.7116248,1.0169764,-0.8356624,-0.2527994,0.72894895,-0.78166896,-1.4996927,-0.009832976,-0.0663334,1.0
Backdoor.Graybird-3d4c37580fcfcd3162538e57ebfd65f89caf379c9158dba626690d2ac7a24154,0.07613169,1.3851784,0.24861148,0.042036172,-1.6480596,-1.0420419,0.95250493,0.3581629,-0.83026296,-0.21619083,0.45782933,-1.085773,-0.41421828,0.42496786,0.5572931,-1.2815897,0.38059485,0.18358804,1.0
Backdoor.Graybird-3f40d1874219ac8f6ba08b587a9547da773b0356b58e4d40f584b595740fa7a4,0.37323618,1.3572892,0.328267,0.080665,-0.76853824,0.378214,1.3328137,0.15038013,0.16349208,1.2525659,0.8015579,0.033575382,-0.40491617,1.1949983,-0.300318,-0.9090069,0.2967342,-1.3390495,1.0
Backdoor.Graybird-3f4164fb248bf610709ce9546b2e1a2463d08270db94dbd7b8e42d16023a71b0,0.3261732,1.3743393,0.4095505,0.49792206,-0.81121576,-0.4389497,1.216549,-0.008441141,-0.21487866,0.70621,0.47113997,-0.07706323,-0.33441684,0.5239974,-0.3562045,-0.710324,0.27173775,-0.13472006,1.0
Backdoor.Graybird-3fb1f955c5fedc93b423be002cde34a6436194ec36974c890a015566749cbfc9,1.0723611,1.2698516,0.58240265,-0.76836574,-0.51915705,0.31917143,1.1679956,0.5878641,-0.14648697,0.6586173,0.375238,-1.332437,-0.058246486,0.22833589,-0.2995036,-0.51579934,0.29546568,-1.7010938,1.0
Backdoor.Graybird-4038529ffe618fbca7b702da5a4588bf4f827bfe34e22bedebc16bea8ac5cd5b,-0.00042853877,0.63989127,0.0461828,-1.3422855,-0.6678579,-0.124423064,1.0007013,0.39594483,0.026418803,0.5977619,0.8843542,0.66542315,0.6116105,0.08896245,-0.07878167,-0.9709227,0.6443785,-0.71801454,1.0
Backdoor.Graybird-43915d2a212d5620489fc5dbbbf17d934ab474e34a1058aa28ea2ae0160d6a7e,-0.38487253,1.4596627,0.5786878,-0.18376304,-1.152345,-0.6083908,0.6305192,0.27485108,-0.63707995,0.4031175,0.92786896,-0.18792516,-0.38816807,-0.23195153,0.650758,-1.090583,0.7672673,-0.17672129,1.0
Backdoor.Graybird-442eb6cd344fcc9a88b1ef5a28e662ea6a9415ff012b27b75ca3b8c07af9ae61,0.70042497,0.7298476,-0.0682519,-0.60007584,-1.3399291,0.38297254,-0.06879394,0.62442434,-0.08431115,0.94157124,0.43189374,-0.20676875,0.34529245,-0.30449802,0.05579435,-0.5841973,0.018935688,-0.022069396,1.0
Backdoor.Graybird-45133c62869e94f748e8f947328388b6cf1190cc750f712e25695ff4e87a8ec0,0.05407293,0.79912853,-0.17055778,0.2360095,-0.8010385,-0.4110014,0.9470087,-0.35359225,-0.093203634,0.65595365,0.59389204,-0.2379298,-0.13074616,-0.30910066,0.30784827,-1.0261551,0.1940083,-0.581282,1.0
Backdoor.Graybird-4611ce9f971ce2a63d17317779aaa34aebb478c1a91c3031abf37b39a0e8a754,0.58569056,0.6235864,0.14414531,-0.43877944,-0.7030239,-0.29549697,1.0151451,0.18597047,0.12924013,0.7708454,0.7571312,-0.6504248,-0.1719245,-0.55271477,-0.04259033,-0.5640097,0.35686687,-0.15803558,1.0
Backdoor.Graybird-4768fb2a55ff7a38d1c9f26c22517c25e81050233f75a43909f56cf2bab55549,-0.14049059,1.069326,1.3247569,-0.7874413,-0.74234194,-0.09891116,0.3234906,-0.11718541,-0.1209619,0.3551591,0.29343918,-0.33226594,0.012334216,-0.07798883,-0.22297598,-0.49288014,0.0040847394,0.34041235,1.0
Backdoor.Graybird-48641176d1e0ac527a5bb4a797afe8ebddb93625bfb2e7878a0cd40164988326,-0.38046345,1.0940945,0.10272982,-0.8752676,-0.89372814,-0.35230657,0.5737439,-0.084813446,-0.12670456,0.654273,0.84379005,0.41395646,0.26839623,-0.32248572,0.34004405,-0.51072323,0.1736282,-0.10945017,1.0
Backdoor.Graybird-4873836e446dfd4e56e491364059f5f6642b9e62c3af541249d2a58f060d810a,0.41876522,0.865514,0.63526833,-0.6977913,-1.5848571,0.14669015,1.0728402,-0.122179344,0.11163674,1.2394366,0.79962116,0.58497745,0.63253963,0.70052254,0.8899106,-1.1394857,-0.095676884,0.2156306,1.0
Backdoor.Graybird-49584192e192cd599da8b7891636d00d60f6e3a1714cec9384e53f0c3ff64dad,-0.1484453,0.81767964,0.5694864,-0.45198292,-0.84912187,-0.10120262,1.1092318,-0.2695899,0.37383828,0.6958828,-0.14024673,-0.24293345,-0.49697846,0.10677619,-0.1938757,-0.60203344,-0.34834883,-0.693589,1.0
Backdoor.Graybird-4a7c1f06c02316a383b3509b0530d50eea0fc52e3292f80ef6d99337ed1976cf,0.26266766,0.11082789,0.1384135,-0.24263665,-1.2246848,0.032075908,0.66409934,-0.14981951,-0.19234142,1.1236565,-0.015858896,0.0096255755,-0.30537173,-0.0017937095,-0.09708585,-1.2066027,0.46438625,-0.10304886,1.0
Backdoor.Graybird-4b3805331f864f1002915b1b89e8f70643baaf6b43b688a32c2cb3810ffb3b4a,1.096772,0.18682314,0.3339917,-0.3066434,-1.4610274,0.15620339,0.7103941,0.32664597,0.38296187,1.0017108,0.20394395,1.4546835,-0.22772497,0.063582115,0.05672955,-0.7864139,-0.65411144,0.1642048,1.0
Backdoor.Graybird-4ee3bccc014a06cfedefb088d22c918bad78cbcb74568815a14ebfbbcf119d37,1.1945326,0.3565759,0.18680663,-0.24629053,-1.8430493,0.54919475,0.91426086,0.6840962,0.47442904,1.1934454,-0.09188279,1.2028682,0.078492,0.33633366,0.066608034,-1.0649074,-0.7507232,-0.086024135,1.0
Backdoor.Graybird-4fa0fe574b88526a330dea8e92ead1925846131a452b09c7a42eeee07e2be5c5,0.5751167,0.5415739,0.539344,-0.053898815,-1.1069816,0.98135763,0.40377888,0.3139514,0.021429682,1.1412871,0.56567013,0.74657553,-0.055907007,0.5056026,0.19725949,-0.8990491,0.12975888,0.025132151,1.0
Backdoor.Graybird-4fb50e21fca67a80c0600b322ca12170a8283b4b04073cc330aefa42e3f01cb1,1.1332238,0.3684603,0.65940094,-0.52290756,-0.07620163,-0.34909683,1.6899668,0.009422452,0.07669753,0.2008252,0.3642569,-0.09506724,-0.5470331,-0.7521342,0.11882602,-0.41943997,-0.28254104,-0.4394895,1.0
Backdoor.Graybird-50d21079164fd8e7d563e365422688728379b15b4239beb025e4109a16f4f758,0.75925136,1.49281,0.9989811,-0.7376318,-0.43131548,0.19452995,0.37536746,1.2206063,0.5944244,1.000231,0.4137323,0.08016703,-0.37947062,0.2755287,-0.3335153,-0.2386334,0.75196636,-0.29530925,1.0
Backdoor.Graybird-51500e8ba9a95263700256b5b7b75c162508a80b3de7f0eb946ecacf98d78ff7,0.5317817,1.1828249,0.2550059,0.49676955,-0.42681602,-0.109904855,0.41518942,0.28191912,0.16680548,0.57150203,-0.20442255,0.24268687,-0.43686736,0.21221095,-0.28269094,-0.31186724,0.11715301,-0.5526545,1.0
Backdoor.Graybird-51faade6c8030b7f7b359977e1d699538610f96747fa89f8a1b0ea49926cdd36,0.5998421,1.1128737,0.31179303,0.4494603,-0.49973416,0.30951667,1.2459168,-0.24025355,0.2209172,1.1605868,0.8790883,0.027208446,-0.6129196,0.10409592,-0.8548671,-0.35595596,0.023695316,0.21306992,1.0
Backdoor.Graybird-523152dee0737aae6b8210fb53d9ae9b2bf6be10a89e399cf1b0a193972f282f,1.221782,0.41945934,0.1767646,0.02051265,-1.8840683,1.0909317,0.63918275,0.62457347,0.61441636,1.2129914,0.11371067,1.1286293,-0.080307536,0.25892758,-0.1269479,-0.83203775,-0.8310209,-0.3846475,1.0
Backdoor.Graybird-5266d90616b279757b5839b40696798dbe68c783582ecadb11cac439583b6212,0.7094753,1.3665282,0.36880037,0.6998067,-0.6947141,0.8006595,1.0783099,1.1099734,0.4088715,0.78736633,0.8079325,0.17479359,-1.1294742,0.9643379,-0.8692945,-0.53475857,0.47052264,-0.36064315,1.0
Backdoor.Graybird-53078f85f6b3651de46b7551e7f032e1734e80f6c89faf69560b2b92a5a94747,0.3926591,1.495547,0.62813836,0.20811154,-0.7251889,0.20873104,1.4547218,0.06297789,-0.07942248,1.1082857,0.37399387,-0.16064444,-1.0995847,-0.115138836,-0.8223995,-0.07481279,0.3840584,0.23181565,1.0
Backdoor.Graybird-53ee4a2152057901cd94a7f4d548f02a3937cdf4186d27a33f991382b93cb631,-0.15979785,1.6185346,0.7029398,0.2754939,-0.65090823,0.2522851,1.3050699,0.46370837,-0.18464868,0.8436969,1.0650984,0.21414077,-0.6184515,1.1658918,-0.43497354,-1.1713495,-0.07775516,-0.7408622,1.0
Backdoor.Graybird-540e9c189e9d37ffb217e7a0dc732fffef53c3efd3d0317f44bc3bc05b69fe28,0.45428434,0.6900705,0.585593,-0.53135955,-0.84766465,1.1894855,0.5514616,0.54106915,-0.4057732,0.9968409,0.97123325,0.22138932,0.13951015,0.70113295,-0.095024124,-0.79195505,-0.04197052,0.25467333,1.0
Backdoor.Graybird-54aa30e8c4b561710cadfa1b08bec3380375ff52f9b9485c946e177499b90e93,0.07304738,1.0542144,0.80211586,-0.58994573,-0.81179863,0.4765615,0.91883546,0.41520455,-0.4618719,0.552225,1.6026471,-0.3456275,-0.40601337,0.36482778,0.49772975,-0.88891643,0.8824756,0.5346659,1.0
Backdoor.Graybird-54c2b04305bbaf46d7fa1fc9901bfc4cc51b632f8ff0004fca5c9d0d34a43e88,0.17239107,1.2125331,1.0013814,-0.18133049,-1.0191625,0.4906241,0.6959573,0.82683253,-0.66402984,0.8868336,0.8846925,-0.15721995,-0.94352496,0.9813489,-0.2899105,-0.67672855,0.15676934,-0.22667696,1.0
Backdoor.Graybird-5508b64b67d9039955e8e78c7303205e0bf31f2fff2a412cc009217a3b843c42,0.76641464,-0.06628849,0.7013887,-0.6106024,-1.8842785,0.80952114,1.2599381,0.47987926,0.48507625,0.6939435,0.19702978,0.45026436,-0.7934537,-0.2728694,-0.05057066,-0.8042222,0.0072844797,0.019972503,1.0
Backdoor.Graybird-553ea1898739926e3c60643be9671a798abf142557d4b169cf15e8e5bdb907c4,0.5757925,0.012266151,0.28452277,-0.13057373,-0.98365444,0.54502463,0.8900407,0.30323407,0.23375316,0.3055382,0.84262806,-0.027391998,-0.10550415,-0.33869913,0.5184061,-0.82619476,-0.072096154,0.161496,1.0
Backdoor.Graybird-56d68b4fdc5c32b9c7b6eb0c20c22903b6db6bbdc85deeb1672b96b1053b7702,-0.018371744,0.49312475,-0.20056438,0.07320939,-0.069468826,0.11737348,0.52855617,-0.23405486,0.07825038,0.42170143,0.35841495,0.065320246,-0.42564642,0.20961496,-0.13590851,-0.2794385,-0.17980245,-0.033136807,1.0
Backdoor.Graybird-57ff8c60d243dfa0c50b38830b71d9935436c7681da9891396a9a5dd5cbc2596,1.5100995,0.6551707,0.86514324,-0.709843,-0.49416548,-0.10932893,1.5447487,1.2363276,-0.5562154,0.41911817,0.8491577,-0.63287884,-0.44590572,-0.3294756,-0.1134276,-0.6045592,0.082333215,-0.2616993,1.0
Backdoor.Graybird-598964da286937c1fb024677585b5d6fb4a214187a0bc61264871b41016b7f75,0.75488615,0.71443987,0.7881196,-0.3558153,-1.060821,0.40873313,1.0768253,0.019695133,-0.48558354,1.0423542,1.2278469,0.73331016,0.55317235,0.3401108,0.4290901,-1.1352041,-0.04539483,0.7422366,1.0
Backdoor.Graybird-5a80a9d8a1cd9ff7dd8ded5152045cf323620251db85d71f355794d2e4c26c82,0.4152879,0.58931476,0.91742724,-0.80536276,-0.35337913,0.07592912,0.50348914,0.7737656,-1.0577565,-0.14761241,1.8230597,-0.8122335,-0.9012806,0.0059620356,0.1288435,-0.5641561,-0.14780776,0.50081116,1.0
Backdoor.Graybird-5c75303926f53f292fe5acf87d08293b2b626af5cc8c69501dec28f11fb03bce,0.28277743,0.70695424,0.6536121,-0.21160586,-0.38052392,0.19579048,0.8318638,0.4179768,-0.36475688,1.0493019,0.5534696,-0.54340464,-0.9767945,-0.2266027,-0.18554313,-0.3362998,0.014782952,0.1526678,1.0
Backdoor.Graybird-5cbab5b1edf3be8aba7f313ea0e50221e824a6cba2e40df2dae24cb8a7a8fafa,1.0044942,1.2590455,0.58369625,0.4392566,-0.7305066,0.39602408,0.7549638,0.20105374,-0.4305539,1.2243978,0.70985246,-0.8226544,-0.6061091,-0.1076836,-0.6609053,-0.31605816,-0.3216872,-0.21747802,1.0
Backdoor.Graybird-5e73532a8544c28bf2076391c5b7c0c39fa3ad1ba60441f722a4649aca25d20b,0.33515856,0.7367439,1.0208577,-0.40606403,-0.4502329,-0.3944738,1.344107,0.17627071,-0.9808137,-0.01655681,0.83377975,-0.7587486,-0.28708965,-0.31301048,0.09394864,-0.90130556,-0.6834918,0.26931491,1.0
Backdoor.Graybird-5e906a24c568f2c1132a8a0154207773b8c0ff6986ab56ceab00a8cfc9c2d5b6,0.6172603,0.61345184,0.5604293,-0.28342056,-1.115458,0.47523013,1.2113637,0.03283319,-0.15419964,1.2171559,1.0651898,0.24712326,0.41626084,0.33951512,0.50502175,-1.0461774,-0.18129985,0.33579797,1.0
Backdoor.Graybird-5fcb64cfd38ba0a62f85708679fde53986d09f5038c72f149819ecab6dc8507e,0.2983077,0.48101228,0.5192187,0.494163,-1.0162901,0.407292,1.1083446,-0.26478735,-0.81076777,0.52537745,0.7537632,-1.1632835,-0.3474031,0.15782921,-0.32246673,-1.0964603,-0.42366707,-0.2848943,1.0
Backdoor.Graybird-60b1b1bee471d35c2e07afcaf3c8005576c2cb29eccec1ee68bf23cc76af078b,0.7835872,0.81435454,0.8070863,0.100229405,-1.069638,0.31299087,0.91329074,0.5913143,-0.9151002,-0.4158693,0.7041325,-1.156469,-0.32155767,-0.43728057,-0.7561102,-0.6461398,-0.6149784,0.6758302,1.0
Backdoor.Graybird-60d764cb2a5e9e67977f7d978aa66df908db656bba989d480f3b6ff68202e4e2,0.021582268,0.81611925,0.6694016,-0.5480647,-0.63240135,-0.24101755,0.5710399,-0.029098606,-0.6297475,0.033240948,0.39135817,-0.24969585,-0.35117242,-0.08824439,-0.34384364,-0.74649125,-1.0799266,-0.30584037,1.0
Backdoor.Graybird-61add8504bacaafb7dc19c8a24bde60b28dfcf574d101e5533c12d95895958e8,0.5400537,0.7208879,0.47035566,-0.27928203,-0.3801894,-0.12586795,1.5439899,1.002695,-0.6257998,0.45909473,1.0035197,-1.4858452,-0.024865836,-0.06014015,-0.12617159,-1.5379797,-0.14640957,-0.8454004,1.0
Backdoor.Graybird-61f39838e948a57120a57619fe6b93fb9c9b2a150636f0a3a1cb870b52b288e8,0.7389278,0.5297317,1.0225575,0.2256973,-0.91304076,0.36222214,0.8923437,0.20197591,-0.9667071,0.30728212,0.45571834,-1.2596447,-0.16573249,-0.10511128,-0.033934627,-1.126456,-0.33291766,-0.12516646,1.0
Backdoor.Graybird-61fb0d0c3ed4f269fb8497a0abfef6dc543c509650b2af81aabeb605fb11e7ac,-0.1859105,0.6409713,0.83124614,-0.7258469,-0.85435116,0.13093588,0.46941626,0.041494694,0.44555452,0.5460014,-0.060119033,-0.3099783,0.105478376,-0.13379851,-0.16631731,-1.1748091,-0.4248052,-0.49212128,1.0
Backdoor.Graybird-62a7401d04f88017eaf9a90cbe104e71cf86c982e930cdaa41f630cb40eeef87,-0.2829652,0.5845269,0.43014118,-0.67902285,-0.9096835,0.29628366,0.71144766,0.333575,0.34991774,0.4677018,-0.04594787,-0.30107236,0.24297553,-0.08504334,0.033096183,-1.1711515,-0.23466046,-0.77002215,1.0
Backdoor.Graybird-63e2eb4bc7fc4ce5504efdadfe434d52ad8b3699d5670c575b0d6749eb9da2a1,0.20862181,0.43475154,0.75032085,-0.08828158,-0.42587176,-0.19725098,1.361085,0.5002691,-0.13359104,0.14854077,0.033337723,-0.8685958,-0.2591634,-0.41426995,0.01582831,-1.2029506,-0.69032854,-0.6934583,1.0
Backdoor.Graybird-65991ce74d589f9fe4d0cefbe5eda390986221c041faed595ca5b635a48460cb,-0.03761869,0.8081187,0.8136489,-0.007472181,-0.21879321,-0.5242098,1.1772038,0.3481555,-0.33318505,0.34803498,-0.5079707,-0.31646806,-0.28608462,-0.10065187,-0.16893624,-0.9543657,-0.47961956,-0.3102767,1.0
Backdoor.Graybird-65d264ba371d426165a67d137b3a7da59ee4c7d2f919832a3ab028825e0177be,0.47309354,0.55133295,0.56290156,-0.844998,-0.61205137,-0.13131656,0.94482464,0.22146109,-0.0058926283,0.124420725,0.86077577,-0.39839873,-0.02031762,-0.516482,0.16298997,-0.71607524,-0.6467434,-1.0269696,1.0
Backdoor.Graybird-66786bb835a1674bc9295a67c584c9da1aff48441df00a21451727cf3b1e6a9e,0.94427776,1.1690633,0.5807604,-0.3851554,-0.7633239,-0.4593317,1.7462707,0.69929695,-0.1246045,-0.16697836,0.73645794,-0.041994534,-0.43801007,-1.0476329,0.43221566,-0.14076026,-0.6336747,-0.9805423,1.0
Backdoor.Graybird-66c23272f29f90036382aa571ce861ef2d542d96de626fda2ee58ae67bf5b9d6,1.1539288,1.1744694,0.52728826,-0.32333952,-0.77662766,-0.09991105,1.1863328,1.1949748,0.41621852,0.59353447,-0.5957428,-1.4051229,-0.529473,-0.41841033,-0.5880794,-0.6627201,-0.39284372,-1.3029857,1.0
Backdoor.Graybird-66ef45fab44825af0fcd0f58e3ccab4792697337741dae14ea4faa1d4664e20d,0.13379414,1.7368798,0.4065501,0.2859562,-1.7287941,-0.89315575,0.8221987,0.5645768,-1.1488687,-0.13251124,0.26459748,-0.9827635,-0.3263846,0.18144222,0.44732037,-1.1548522,0.16139334,-0.26935518,1.0
Backdoor.Graybird-67425cd076901418623f3637faf1494475f22b93e177b42592d3330628cb1290,-0.040171742,1.1171873,0.46617436,-0.099075206,-1.0625976,-0.40487522,1.2954824,0.49919006,0.253093,-0.27694473,0.008113138,-0.36542445,-0.064269796,-0.23981006,-0.30313286,-0.34658584,-0.71949106,-0.57111305,1.0
Backdoor.Graybird-69c8069ecc84dde235d404175eb4bb9f290b5d1a4ea6e38ec5546db7e8297763,1.135606,0.48692572,0.54480803,-0.07356007,-1.7332143,0.9288262,0.7876575,0.5071259,0.77044487,0.94852847,-0.2790956,1.1060469,-0.043803867,0.35465735,-0.3104118,-1.0293545,-0.78981674,-0.46709818,1.0
Backdoor.Graybird-6a098aa51cf1f256b4f7ba9a00f9dd694ce861af7631c2017787b649a3c9303e,0.38563815,1.5768714,0.06228455,0.46109065,-1.0570048,0.5126273,1.0347259,0.47853073,-0.029408561,0.42521116,0.29467267,0.058167603,-0.19831844,1.116425,-1.2292268,-0.7185329,0.14086927,-1.215792,1.0
Backdoor.Graybird-6a7abfcf01608d31fd5666e4b92bd5e4a461b40fb54721d26ba40107a3707012,0.32694703,1.139732,-0.37069032,0.0296374,-0.57093066,0.30757126,1.4630586,0.7473704,0.31967863,0.71580833,0.3368883,-0.47713104,-0.66047513,0.56553,-1.2297485,-0.25683343,0.36393476,-0.06866092,1.0
Backdoor.Graybird-6acf73ce429b03da848243858022756272a351e5d0a2f668c20fa8454b22ace8,0.62821066,1.3786446,0.24406342,0.17149897,-0.7458504,0.8100371,1.1832485,0.801456,-0.43476564,0.5117518,0.58759403,0.36792514,-0.4729663,1.1647441,-1.1919482,-0.4196569,0.23057434,-0.7610049,1.0
Backdoor.Graybird-6b70eac6c80bae3841169ad629bbb4f713f1f459d39f758be7868a807a6e9d7f,0.5682257,0.6208225,0.0022928836,0.109796815,-1.1114128,0.20899595,0.3051796,0.66972387,-1.1069913,0.65400577,0.5631861,-0.20808807,-1.1213186,0.6788433,-0.42585117,-0.46559232,-0.1400147,-0.5174076,1.0
Backdoor.Graybird-6c59c054dc3d17fd97cb3525e71853d608222e848f3e57dbd3adad8585231eec,1.0596578,0.1472412,0.38926518,-0.48442346,-1.5358771,0.67572886,0.92238075,0.5384749,-0.1236638,0.8279553,0.3374014,0.7563313,-0.058679026,0.74703515,-0.2516966,-0.7067701,-0.6707512,0.16877969,1.0
Backdoor.Graybird-6cfb5586d80cc93044a1795e99640f6a849914656deec59bbe8118ff968eca77,0.30175528,1.1946735,0.45219356,-0.34490734,-0.9455559,-0.007013768,0.97871125,0.5687747,-0.8050193,-0.12825744,0.21135546,0.08297404,0.3171823,1.1527045,-0.33785444,-0.6486525,-0.35179424,-0.49940416,1.0
Backdoor.Graybird-6d242d408bf0e3c49e088eb4cd4a939511c4ea60db11d94d96a7a7a39be70f9c,0.14318526,1.2727194,0.2259445,0.18656047,-0.5593311,0.16111185,0.99064785,0.17836836,-0.26420915,0.4871176,1.0175004,-0.4145137,-0.037184224,1.0891757,-0.46786112,-1.2012576,-0.035603803,-1.2227864,1.0
Backdoor.Graybird-6d321e528269b7a7e1f6436e1380c65a20f1d714ebc0026e0a99839dc1a501e4,0.718632,0.046447076,0.005376533,-0.3251489,-0.47564366,0.56627494,0.7010098,0.5954623,-0.36346632,-0.008523043,1.0819255,-0.25817978,-0.2451097,0.28704223,-0.3241991,-0.9509096,-0.13406274,-0.16202044,1.0
Backdoor.Graybird-6d34635438401f6c4f7794bc4f2c8c446f82edeb567f31a83cf3ae034ea773d1,0.90700704,1.180878,0.5773668,-0.49248934,-1.1349568,0.2861149,0.20249307,1.2913086,0.045190394,1.0029473,0.44408858,-0.45545754,-0.732461,0.4867104,-0.20734382,-0.17591818,0.33996373,-0.1674196,1.0
Backdoor.Graybird-6ee285070d1eef800260ba31817c3e7cec3985f0a6a2849a5dc74e445f878a15,0.21963064,0.37495205,0.43726718,-0.6610311,-0.32941273,0.47855398,0.41251236,0.33331367,-0.4768761,-0.34363815,-0.0057799052,-0.05105848,-0.063782774,0.54134685,0.25111526,-0.29949504,0.08036298,0.07976833,1.0
Backdoor.Graybird-6f9dc6c32999551acea67812a90d930ad72a1eb37dd2694c27e9a8adff7a3a9f,0.38762084,1.622599,0.3588783,-0.17998537,-0.8490195,0.76248556,1.330509,0.796118,0.21388145,0.80887985,0.5501532,0.28375235,-0.62809515,1.04476,-1.7286935,0.01262513,0.4356147,-0.016112253,1.0
Backdoor.Graybird-71c886f2fd76eb9bd2bc630b058bd694391456685963926b6189fd07dca25a9e,0.72968787,0.7861382,0.6603958,-0.080877535,-0.33583978,-0.03512422,1.6056627,0.8818858,-0.3432389,0.2016487,0.9480832,-1.2140824,-0.16472626,0.4720611,0.15084565,-1.2198739,-0.361121,-0.48422474,1.0
Backdoor.Graybird-725f4e4c108170d54ef93e14503fab7add7cc13b10df35ba8fe020f0dab88d2d,0.7632215,0.41560775,0.653004,-0.3583452,-0.6518981,0.4749623,1.652206,0.08995593,-0.04656757,-0.034781553,0.6588851,-0.44531736,-0.4875897,-0.24654305,0.12486869,-0.39379466,-0.21062207,-0.7352917,1.0
Backdoor.Graybird-730ed728d5c30bbf322823b8d041c6e3c86249b31946b64b6568a1948cc8e6ed,0.34519565,0.9646397,0.562328,-0.95988864,-0.6498899,-0.5116196,1.5380923,0.48909765,-0.77700585,-0.08387139,0.80474335,-0.52280414,-0.28054202,-0.18150531,-0.40564805,-0.49621192,-0.3647575,-0.39290458,1.0
Backdoor.Graybird-739a860eb0dbc39fe915e0761f973180262e418e737f75ebbc4007fe1eaea473,0.5858669,1.2043465,0.63736415,-0.47094584,0.10473874,0.52113265,1.1391957,0.7459921,-0.15622796,0.15518619,0.2337233,-0.83342254,0.03853813,0.14573336,-0.0076294933,-0.4733321,0.41055208,-1.3953061,1.0
Backdoor.Graybird-757d5da46a1617a1b5a07c2d4c17ec72f6c946ab3ca540e8da0131504084de93,0.37192735,1.437441,0.9056945,-0.084762335,-0.8752153,-0.12680148,0.612714,0.6104111,-0.5439037,0.16625734,0.75803095,-1.1913962,-0.2048482,-0.24497762,-0.6700314,-0.47595805,-0.19884598,-0.14944191,1.0
Backdoor.Graybird-759d25eb1e779c0cf9a1791494780efd719aef5f5a316dee827da31758678a77,0.8294622,1.0255266,0.53875697,-0.84898585,-0.4093346,0.34505516,1.122342,1.1676251,0.30836535,0.6614621,0.30347985,-0.74029064,-0.1085352,0.3414313,-0.43186095,-0.5727746,0.26129395,-1.1732365,1.0
Backdoor.Graybird-764e8d67b8a22cd013f7d302251a249fe7c6c3c4a2d2acb9d1e5f88d557715a3,0.95771813,1.3368406,0.40507117,-0.6705033,-1.0458648,-0.13476913,1.2568101,1.2713215,0.27979776,0.34270203,-0.098861404,-1.2534553,-0.6198953,-0.22170141,-0.15880142,-0.43629053,0.24449362,-1.2986133,1.0
Backdoor.Graybird-76c6fe9ca5a7a1b18fae029ae849431daf6bb211afe955222d5c778bf3472509,0.20351666,1.0897783,0.1836728,0.17903242,-0.35893494,0.5540836,0.93082994,0.8231342,0.17973639,1.1065729,0.2971895,-0.59443474,-0.23700081,1.1991765,-1.4487011,-1.0410194,0.5121089,-0.051066685,1.0
Backdoor.Graybird-79ebf2c2afd7a143d1833a4702c1dd0aa83e71d78c456649eb59051335c309de,0.2884815,0.48208284,-0.13613243,-0.31894985,-0.61298466,0.3581686,0.6375715,0.3283396,0.18346758,0.5124362,0.38752377,-0.2866433,0.20341937,-0.3035439,-0.12607746,-0.42919716,0.40508077,0.041879553,1.0
Backdoor.Graybird-7a94befd3a93c00b1ca28bd169792504aae64411f804665e0641305e801b215e,0.8310972,1.2029899,0.59233296,-0.7271448,-0.1850849,0.3566512,1.1509006,0.673395,0.3226812,0.63057554,0.36802918,-1.1419077,0.07941776,0.14093041,-0.2979581,-0.5275854,0.64956546,-1.3166907,1.0
Backdoor.Graybird-7c1334bb1b9e6b4730760f754ab9010783b7f29f821b02bf1478448ad59cf6df,0.090565,1.137687,-0.08595912,-0.27286464,-1.3020952,-0.18139112,0.98003244,0.44212693,0.04502514,0.1094046,0.45020422,-1.4095149,0.26728746,-0.06355449,-0.20483859,-0.77223545,0.8428701,0.7061355,1.0
Backdoor.Graybird-7cdae407c0cbf514980c892b1c4495e999866aa3be4f6ebc6e482feecd8cfdea,0.519437,1.2382663,-0.13459264,0.01016446,-0.30901536,0.80480045,1.1739379,0.79902506,0.07387448,0.83310044,0.49200326,-0.60479814,-0.64260644,-0.036529113,-1.2455217,-0.06451682,0.7698057,0.00430301,1.0
Backdoor.Graybird-7d85ae8d40e1df6c39d67e97e16bbaa2a1aa6f8bcbec78dfc492de86ef57dc87,-0.041911483,0.86491185,-0.38404596,-0.58813494,-1.1352651,-0.61210334,0.9205417,1.1197037,0.2484396,0.5460162,0.6101632,-1.4648927,-0.6733106,-0.37410888,-0.6118222,-1.0544626,0.5293249,-0.18079266,1.0
Backdoor.Graybird-7d9aec70614646558761e1e9d7aaea88933ee32493d21395b322b04a438140bc,0.45423838,0.50204915,-0.9460068,0.046856996,-1.1997037,-0.13228644,0.9331201,-0.023603743,0.4381973,1.2737057,0.35250914,-0.38127443,0.16072075,-0.101888895,-0.13836312,-1.3639761,1.1210124,-0.3428755,1.0
Backdoor.Graybird-813477cf47cbe8c132ebbd8bc358f8c03417de303cf35c71f5ab051cdae4724e,0.38252017,0.39431614,-0.8235309,-0.13518667,-1.4808757,-0.07715245,0.7639132,-0.048746683,0.040216107,1.2511765,0.09742101,-0.94707406,-0.08766096,-0.13777661,-0.21794815,-1.3437502,1.0532748,-0.1374422,1.0
Backdoor.Graybird-81819096e605e81210d610faa6bf8fb85c29c7418b86a6314d154d531cfd0c1e,-0.0140548935,0.48044908,-0.22452043,-0.74043983,-0.6352537,-0.5964707,0.6522957,-0.02445387,0.044751097,0.6301986,0.4658211,-0.33593777,0.2919363,0.22093756,-0.15533839,-1.2641664,0.79635316,-0.17340124,1.0
Backdoor.Graybird-82198faa9497d0ea97adae75c36085d9a604203cc0b853faa079881ea9f79ca8,0.70877945,0.69962156,0.576504,-0.5663128,-1.1697783,0.36291298,1.0628258,-0.1332419,-0.50939864,1.2076578,1.0797914,0.781516,0.81375873,0.742605,0.60548943,-1.2354236,0.049078263,0.70127463,1.0
Backdoor.Graybird-829996786890ae93f6bf998085dd695982bcf299bf215faed795aa37dbc490be,0.2438002,0.5986526,0.19710499,-0.3528528,-0.89432853,0.7616486,0.621579,0.3609642,-0.10913746,0.8149255,0.61187017,0.22920631,0.00067087886,0.6172644,0.075397305,-0.5646084,0.3346922,0.39783096,1.0
Backdoor.Graybird-83423cd8ce4f3caa1de47af0f9f15b5582728ea77bf70cfdf4ef7190035b612b,0.16005781,1.0891134,0.6067055,-0.49027058,-0.78889775,0.13614216,0.8316737,0.688202,0.19507034,0.07005194,1.0574633,-0.5813026,0.24031213,0.29019696,0.07737053,-0.89121,1.1308113,0.6405385,1.0
Backdoor.Graybird-8367e7bcdb92a165868cea32162a752a53fe5d15ceaa3674f817bab68caf2e48,-0.4422892,1.1687106,1.1201409,-0.8265361,-1.0656097,-0.059363674,0.7419972,0.4605421,-0.8558985,0.13026005,1.4461023,-0.31777722,-0.47352046,-0.41353232,0.7312626,-1.2673284,1.0396131,0.3507326,1.0
Backdoor.Graybird-8422d4ab5d5079a5a7d9896892e0c3271aee157a1f54d7bc0dba7937c1e98f74,1.0139549,0.7913748,0.69591314,-0.7124007,-0.8782531,-0.38777563,1.5367126,1.2735279,-0.20810731,0.28790787,0.30354503,-0.30422372,-0.5720243,-0.29683167,-0.31420112,-0.4204731,-0.014696205,-0.5624634,1.0
Backdoor.Graybird-85ec05a6c1aa040abed43cef7e85100a0da06525f674231cde7ed92af582c824,0.2944433,0.8405446,0.5299117,-0.41231775,-0.90965474,-0.24794121,-0.021764299,0.04418773,-0.6382398,0.68400997,0.39397565,-0.15485118,0.1652271,0.05789062,0.088307835,-0.51584864,0.5333054,0.27095664,1.0
Backdoor.Graybird-861fb76c171296ca9ff2fc6e65fb4ef70adca3e8be932551485a48097ec54c0a,0.10298903,1.4303459,0.156229,0.136133,-1.1396645,0.059749834,0.99900854,0.2008868,-0.46962616,0.7854458,0.65934384,-0.1915619,-0.38585362,0.9293804,-0.55103415,-0.8272962,0.18014458,-1.4688623,1.0
Backdoor.Graybird-8670f570c5bc895583b54b34f673e9b6d727cc2a8c2a196f1fe5d7a542f71908,0.23651838,0.97533745,0.5093883,-0.182492,-1.2138971,0.8369289,0.99725455,0.6757954,-0.09733311,1.0166174,0.6429287,0.5111366,0.18658039,1.1392835,-0.27252305,-0.97088397,0.30250406,0.50616395,1.0
Backdoor.Graybird-8918ce36caf2732f3bfec79d19f8a096bce314c983cf02357466949b290681e2,0.40774775,0.8047835,-0.10823105,-1.5528264,-0.4766813,-0.6788025,1.3006394,0.72739893,-0.03091132,0.41922888,0.55865574,0.5054056,0.021619497,0.20993753,-0.40870988,-0.44046697,0.5781746,-0.63735384,1.0
Backdoor.Graybird-8923ffa1222f65f71c7c385d1cec6fde5720dbe5add154d279f4f359b631134a,0.3423653,0.97036576,0.7170272,-0.68062764,-0.74106497,0.064386375,-0.017545963,1.2524155,-0.6426484,0.3845095,0.81098944,-0.27311528,-0.56601036,0.24564601,-0.17902015,-0.5976611,0.49935335,-0.009227357,1.0
Backdoor.Graybird-89481ef77be1b32a0454fa76de2d79cec871effda0b9fd6c21861f3c572c3798,-0.008171004,0.2795297,-0.31519884,-0.05536879,0.0250297,0.41498962,0.99487025,0.8308337,-0.9046125,0.16015854,0.013593764,0.8074851,-0.123941526,-0.60546654,0.14924161,-1.4519637,1.7029219,0.71285635,1.0
Backdoor.Graybird-89b141aa860cddf3c6b0bec91bfca679ff5d8614135a0677e4c1caa7d37a9c89,0.7166863,0.7922772,0.3754906,0.6246787,-0.5758523,-0.19581561,1.1837916,0.7236218,-0.44711646,1.1727878,0.06424376,-0.01147107,-0.9179279,0.11348186,-0.25043768,-0.5168753,0.6457881,0.2357677,1.0
Backdoor.Graybird-89fe5e86386ee8e977bf7bd47a2658eee37e28236ba8a8f9aefaba734141ff21,0.83284,0.8100297,0.6533162,0.02103299,-1.3066773,0.618175,0.53830814,0.39753625,-0.018968137,0.9359153,0.24746996,0.65518504,0.37265515,1.0423088,0.16207883,-1.0184804,0.15537938,1.0011272,1.0
Backdoor.Graybird-8a46c3e1144d6c02853f92b643be99b44dee1f443eff59801c96216bbc5405d6,0.45670894,1.2446948,0.2630538,0.66952205,-0.5098252,0.7105724,0.92303616,0.7764546,-0.39478943,1.2996519,0.88129777,-0.33321014,-0.44943714,0.19220619,-0.5345517,-0.6608581,0.31612435,0.5177822,1.0
Backdoor.Graybird-8a970cb90dd3321d111d8fd2dd517e86bbf9c79b6a162cd6bb7cb5699edc4b5f,0.016751412,1.7091043,0.41726178,0.17579275,-1.8166769,-0.9533797,0.7548858,0.5510354,-1.0865985,-0.06547432,0.19583786,-0.8499574,-0.2752797,0.14249697,0.44101483,-1.3605962,0.2946196,-0.37993225,1.0
Backdoor.Graybird-8c4d358653ddf842f102fa6a1f87c59a3cc65557df4aaf113816f3a2680df216,0.969794,0.66840494,0.012373304,0.8006218,-0.005315015,0.1202813,-0.12319187,0.61789757,-0.12236465,-0.055409074,0.358938,-0.48639214,0.32418635,0.51344067,0.96859246,-1.935298,1.2566882,0.39940864,1.0
Backdoor.Graybird-8c8a2ad65a9f2eb8690f5ec41bac47876a617432c8fa85fb0d81078fef9d4bf8,0.42374125,1.7287518,0.35103193,1.2352039,-0.39342996,-0.26280937,0.16051541,0.6598197,-0.8631418,0.31950992,0.6110049,-0.7795347,-0.6101041,1.0453357,-0.05358558,-1.1158682,0.27659184,-0.35213205,1.0
Backdoor.Graybird-8c95f3c3819ad63d453d8792095390904dc501b5a8f5a70e5b5691d200110ef3,1.2503712,0.978901,0.30711555,0.5283781,-0.2967129,-0.45089006,0.9493671,0.92110527,-0.7837218,0.5810049,1.0776229,-0.6158199,0.3460744,0.59440017,0.2735273,-1.3679774,-0.3921968,-0.584926,1.0
Backdoor.Graybird-8d4a784362ac2b3ddd42e1616c08f6805a5672ed39ea15714100a70b9e1fc842,0.15159,1.7256367,0.25412613,0.40642354,-0.29581454,-0.104148254,1.0091252,-0.38650042,-0.6124964,0.23567533,1.107074,-0.26772225,0.38696328,0.5853295,-0.47207078,-0.89700407,0.17403616,-0.93285656,1.0
Backdoor.Graybird-8de2ca2818c65b69c510a8fe5bfa47608d63fbe23538ad51a6f5661c6daf222f,-0.2440176,2.0398133,0.38269168,0.4171857,-1.5336608,-1.1132566,0.7860869,0.91172093,-0.6370644,-0.30635807,0.44496432,-0.81331724,-0.33912036,0.32722247,0.28760627,-1.4649224,-0.01998537,-0.4045562,1.0
Backdoor.Graybird-8ee8ed6292025a4830b430fbc42984c2b3fa30a7fd3aad6ef3f0abc1363bdea3,0.27761874,1.4037458,0.6299278,-0.1330727,-0.39309072,0.055471066,0.48654056,0.56624824,-1.0805957,-0.42673284,0.19704314,-0.093744576,0.4715766,0.91207373,-0.13788937,-0.78908825,-0.7431183,-0.37358215,1.0
Backdoor.Graybird-8f1081cf86782cc1b1577cb67497d6fb854f20cb6515dd8a14b564d43c6752a0,0.4767651,0.96551985,0.5320076,-0.36464044,-1.5563048,-0.020380862,0.96198213,-0.07830612,-0.12498225,0.86479205,0.12397951,0.32387456,0.5616093,1.4441087,0.15969783,-1.1371928,-0.24100567,0.4517571,1.0
Backdoor.Graybird-8f119cfb976e3b606d5a14c8223f6ff7efcb22ec1491da008b081e11f5ff9dac,0.5405805,1.8002276,-0.027865449,0.8125984,-1.0981312,0.19293706,0.8562091,0.51993066,-0.6904539,0.6656758,0.6134724,-0.11802815,-0.49836382,1.1124177,-0.61698234,-0.6610323,-0.40661952,-1.0904361,1.0
Backdoor.Graybird-92310a91c8e822e825dee87224b6f400b7a40024d44aaee44575c08311d922a5,0.11364671,1.001145,-0.23305751,-0.026782624,-0.30595025,-0.14092612,0.59176326,0.06680729,-0.055412527,0.34619686,0.34403238,0.19420026,0.91538364,0.11728136,0.36356127,-1.0202152,0.97739375,0.19115444,1.0
Backdoor.Graybird-9289f437e7f7c37d9dcee484de2c1850637fd0feb549e31a2aaac1400dec6b1c,0.4935266,1.46948,0.76245695,-0.25179142,-0.26521477,0.35284248,-0.080403045,0.6309673,0.19214976,0.71876705,0.84077954,0.07319011,-0.19003904,0.28190488,0.015613821,-0.20814134,-0.30729243,-0.4005573,1.0
Backdoor.Graybird-935ef5a37611172206877fbd8823614c947a21b71e8a8ca746a1299e1d3357ed,1.1849127,1.0370691,0.7947571,-0.3395845,-0.6849363,0.074120544,1.622961,1.3105357,0.2119365,0.4334411,0.11959153,-0.68849164,-0.5418353,-0.17896505,-0.6167596,-0.4192552,-0.06177719,-0.4141229,1.0
Backdoor.Graybird-93a713200100c3ae76e3985038dd5466151583924da3469fa71387d3af298ac2,0.4795983,1.0923055,0.38308597,-0.23615433,-0.6240937,0.4284415,0.95508933,0.72273463,0.06809487,0.064918265,0.9912093,-0.5971325,0.18995515,0.5385986,0.12064806,-0.68977946,0.98451066,0.47862574,1.0
Backdoor.Graybird-945eb21ef074656d9a1a86747c9d7b5d15f29a567fa27fef01fb2737e576ad03,0.1727207,1.015311,1.1388482,-0.030648528,-0.8412597,0.2173054,0.96028155,0.28911522,-0.19557634,0.04943019,0.43964797,-0.7143937,-0.013564196,0.035432298,-0.62828904,-0.5545069,-0.6042243,0.99559784,1.0
Backdoor.Graybird-94623d56ca044b70fe15d88621894fcd59eafe180da385d9d9305186f7f4b86b,0.1951495,1.2739745,0.58429456,0.1773266,-1.0348417,-0.41617623,0.7037101,-0.06713421,-0.4797875,0.20065868,0.99742573,-0.82806695,0.274711,0.005278952,0.077910416,-1.2113558,0.8280907,0.59299004,1.0
Backdoor.Graybird-946b3de2c3b514a6c2efe10f2b71f28ee63a9b6730a24a7eba83aa0cf5c5341d,0.11638077,1.3334123,0.8535368,-0.36279944,-1.0410725,-0.52576333,1.0696504,0.7212196,-0.22216885,-0.13036047,1.447524,-0.70980483,-0.43176466,0.54770476,0.43245116,-1.2077442,0.5082458,0.29151383,1.0
Backdoor.Graybird-95d4ffb8d58ae1108f465097fc357a901f9e00da85ec8d3adecb017be08edc7a,-0.0894409,1.1966598,1.0277154,-0.9976419,-0.6494391,-0.5732591,1.3179964,0.08457891,-0.14002876,0.23746055,0.51965576,-0.61710536,0.21024154,-0.497985,-0.22979154,-0.6491798,-0.59857213,0.1591683,1.0
Backdoor.Graybird-963cd338182a57b18f2a85b8a36f5617a8c91fda7f68627cab80fad0a8e08c45,0.00822152,0.026106857,0.025771912,-0.023390403,-0.0037258912,-0.015633434,0.026584838,0.0075986288,0.015498757,0.008544882,-0.023450559,-0.01797264,-0.019984057,-0.006692196,0.024229325,-0.021305809,0.0024315151,0.025417302,1.0
Backdoor.Graybird-967456f14643ad8f8bab3ed0b5468ff69704502ae64b5c37f66d43eb71ee5909,0.27900612,1.5983714,1.1389534,-0.51361793,-0.45320648,0.2466656,1.0185643,0.9816313,0.44549504,0.5898952,0.7363033,-1.0808269,-0.34853342,0.7310652,-0.522445,-0.42431596,0.124206066,0.4409411,1.0
Backdoor.Graybird-97d6d5d2bfd16a21b6b02bc9bb883dbcd437d0a71f34eebe95d8419a8b80eb89,0.25022697,1.7685314,0.59250826,0.18638265,-0.75628734,-0.06330131,0.77727765,0.11299569,-0.0820753,1.1584113,0.650018,-0.2291297,-0.71185416,-0.57635623,-1.2664008,-0.16478796,0.27650905,0.5624799,1.0
Backdoor.Graybird-98970c86f23de51867088ebeda57ac2ea32d14ce4aea3b1ce33d30f7482a6448,0.44557095,1.2132472,0.459786,0.08559525,-0.35715958,0.080902055,1.5756922,-0.12884703,-0.10846763,1.1677396,0.4376914,-0.10317659,-0.5354477,-0.3457784,-0.54402596,-0.09820236,0.0774146,0.39462203,1.0
Backdoor.Graybird-9a3a9d7c1d351acf199e6bd2b341f60fee80d72b2775e0cb823397a501994860,-0.5196824,2.135137,1.0900773,-0.14902434,-0.39084172,0.33738077,0.7922018,0.0893832,-0.13790908,0.5917957,0.81687397,-0.6664723,-0.03539471,0.99225456,-0.7472158,-0.55060214,-0.051050298,-0.10886066,1.0
Backdoor.Graybird-9aa73f468e17862621a2fad53b9d4d7b2e739f4529ca0271244b5306e4eab8d6,0.6292968,1.3265785,0.43197826,-0.48900914,-1.4353963,0.52686995,-0.19865057,0.9987738,0.34306854,0.34963405,0.9676054,-0.067640014,0.37174028,-0.3107668,-0.10143317,-0.6936478,0.41113144,0.15530145,1.0
Backdoor.Graybird-9b214aadee23c6591c9ff73d0f579e35b8b2dee1b7ab8e5cfbd75a5a21bb885a,0.49549553,0.7349498,0.3266884,-0.2749668,-0.79038125,-0.11946498,0.38240486,0.90072626,-0.044910733,0.22404963,0.40707767,-0.9037288,-0.22218026,-0.46914893,-0.17676899,-0.6123996,0.36276102,0.25004324,1.0
Backdoor.Graybird-9c1495b62ed7d9ed9e1c812aed748f99a5fb67d1a2ec3fdc92d72e2cee7a387d,0.31952187,1.3450571,0.4424891,0.09322396,-1.8637127,-0.61798465,0.81404155,0.62349814,-1.1259837,0.14259522,0.40341175,-1.1514679,-0.45977038,0.18411091,0.2833406,-1.3622569,0.13942283,-0.10725797,1.0
Backdoor.Graybird-9e2df649e165d2c1d71aecc2e127fc76d8d47d0d81a89c163eae69820d37bf20,0.20874448,0.8631837,0.29547352,-0.34896338,-1.4852318,0.039511073,0.72684073,0.6217,0.4867673,0.27999175,0.28954425,-0.11135176,0.67870957,0.56059086,-0.048773564,-1.1353863,0.24174726,0.9164036,1.0
Backdoor.Graybird-9fb2b93a16534f2ee2ca6ae8290af116472da4351149a234accca893dba2a0f2,-0.18235925,1.3756461,0.29382348,-0.3500978,-1.0640689,0.29911363,1.4469897,0.298679,0.38749018,1.1251575,0.43366364,-0.19494551,-0.6732127,0.37465274,-0.78401315,-0.30242106,0.7227007,0.35687006,1.0
Backdoor.Graybird-a035a8b8a7aacc5376be19dc3391fd2a77015718b8cf24d78052ac937b1728a7,-0.25606194,1.1272085,0.8128907,-0.5617341,-0.6402841,-0.02946181,0.45644194,0.039603673,-0.2830244,0.20114301,0.4005886,-0.10541075,-0.18216488,-0.20295179,-0.23578411,-0.21708575,0.1921014,0.49516043,1.0
Backdoor.Graybird-a0498a02cb192000d067d4f36547b86cb08637ee7a481600e910092c19a9ce9f,-0.28720936,0.62499255,0.43529162,-0.42039305,-0.83218,0.07854147,0.6896838,-0.123223215,0.40991056,0.58482987,0.063350044,-0.28220257,-0.03965397,-0.16792257,-0.014139135,-1.0248835,-0.4458517,-0.43696493,1.0
Backdoor.Graybird-a0a04c1fabf634b2f915f759027d71530989359d81650c39616c53fd5ebed357,0.22854607,1.1491919,0.5990141,0.08441866,-1.6727667,0.6083699,0.5555841,0.51444316,0.050320663,0.5464628,0.48670036,0.46539477,-0.04590723,0.7123244,0.63237214,-0.9125248,0.7290533,0.6242197,1.0
Backdoor.Graybird-a1fd6d8666fb7b058edc88955c022b3e35e36da23edbd184264ef39fa45805eb,-0.30770874,0.6819989,0.48705825,-0.64075315,-0.9601603,-0.06452969,0.5895683,-0.035159077,0.6353688,0.5609683,0.120468974,-0.17403693,-0.12157178,-0.17632772,-0.29061824,-1.1404853,-0.2543682,-0.37381563,1.0
Backdoor.Graybird-a221b13a700b9045f22cd0d311320249d702dc9c524a63c481ef897d8c942ff6,0.5479162,0.55433095,0.74511904,0.04379583,-0.8179142,0.5615445,-0.21585162,0.51929927,0.66475916,0.27828872,0.2831725,-0.21882668,-0.14244863,0.33807087,0.9995504,-1.252239,0.54554135,-0.06915456,1.0
Backdoor.Graybird-a227a623250f4c7c092fe77a5c045c32ad70c823e62f7bb33aa5ac1f008f1495,-0.18391961,1.338607,0.4791974,-0.23740028,-1.0851731,-0.10075284,0.9628151,0.3279937,-0.6127107,0.037483916,1.7305247,-0.124081716,-0.7712136,0.10374,0.8549168,-0.8068078,0.6560748,0.29468894,1.0
Backdoor.Graybird-a4492c845667ef93abaf271159c99086b3859c054a659175e868d70abdfff9b5,0.6008205,1.5267191,0.87206906,-0.60143083,-0.84116584,0.18768641,-0.021451352,1.1459446,0.18725315,0.56611663,0.38248223,-0.1534336,-0.34212804,0.4817448,-0.17354792,-0.153706,0.2750197,-0.38023025,1.0
Backdoor.Graybird-a76cec89ebfc66826a15c42805bf44594a8a6b253ddd6604640b3266f35cae11,-0.042792466,1.1008667,0.61345875,-0.44874334,-0.93418455,0.14686577,1.1353983,0.6365932,0.09638455,0.10508745,1.173572,-0.7101023,-0.20412236,0.24228433,0.22202764,-0.8484172,0.87680334,0.38422334,1.0
Backdoor.Graybird-a7a720a29e06215ed50f840a8d18f38825bfbbd4a42e07559b96d2f697bb9790,0.07454751,0.5995134,-0.32510298,-0.07373597,-0.4317347,-0.047515556,-0.3455643,0.08499626,0.16136284,0.13227896,0.13208017,0.45718628,-0.072938465,-0.6461086,0.35590747,-0.54861814,-0.26487464,0.041586727,1.0
Backdoor.Graybird-a7f764ea4a46e90e7099c57efc98ae694eaa367fdcac8d476fe4909a28f6f93e,0.7653934,0.52971274,0.2758616,-0.30048847,-1.3568662,0.2746028,0.1849649,0.7367383,0.5037265,0.27985075,0.7647485,-0.0012175085,-0.307989,-0.12606473,0.645596,-0.6070047,-0.08850335,-0.14900707,1.0
Backdoor.Graybird-a9b74966b43fc58513bdebe3503b486e27223be89656081715866bd929bcb6c1,-0.38488096,1.263273,0.58357364,-0.7318063,-1.2931591,-0.4116148,0.9919118,0.46102035,-0.4817624,0.16272987,1.5801224,-0.15197258,-0.62200373,0.23402849,0.5908344,-1.021717,0.61588305,-0.04390761,1.0
Backdoor.Graybird-aa7c621dd35e31ae61d7a2b36dc4e515485c4e56c4ce9a133dea31594a5ab6e8,0.30475232,1.2062086,0.5305583,-0.8781986,-1.688491,0.6665667,-0.1563668,1.009632,0.35799414,0.40415493,0.68369514,-0.24022946,0.08106724,-0.02908874,-0.029032877,-0.6459367,0.25440305,-0.0067846943,1.0
Backdoor.Graybird-abfe016fe929fdfce4bfc9426a4bf7e6b99e4faeba2a4d3603912c414cff4b01,0.39771146,0.58294004,0.22363642,-0.18124594,-1.3819525,0.3190177,0.9770812,0.308508,0.022171006,0.43089008,0.49464786,0.23603977,0.018698866,0.6233673,0.42128754,-0.91094345,0.5512535,0.42041507,1.0
Backdoor.Graybird-ac449976a1b7cb50b8e71f28be4ef44bd6f6642e3b0c5ccdfb26822e79b98537,0.12509933,1.3342052,0.9312212,0.05005695,-0.84532225,0.0379558,1.1065862,0.61830163,0.2622719,-0.119209334,0.7841906,-0.08955944,-0.7618778,-0.23642142,0.30588683,-0.08241679,-0.44714284,-0.4859566,1.0
Backdoor.Graybird-ac4add28458e73105e8f654da05566e4015098744e8aebb3204aee72caa57e9e,1.103318,0.2670198,0.4864892,-0.23799804,-1.8385516,1.1820459,0.34397364,0.24534692,0.41141683,0.47020036,0.02988089,0.71198887,-0.59464705,0.2004473,0.47491086,-0.48443648,-0.6696959,-0.6797054,1.0
Backdoor.Graybird-ad74a71d3a7f3b6b6210cc7dd1d30b3663949dd5ef418dbd619adf39ca5c48ba,1.2079523,0.7677543,0.40331498,0.31004134,-1.5654367,0.8650698,-0.66057855,0.15872745,0.5150517,-0.029461106,0.07991521,0.10183679,0.032016877,-0.8641271,0.6255041,-0.5542856,-0.12982874,-0.17940958,1.0
Backdoor.Graybird-ad90f50d4ca71148c1a52506f79f120410d3181462295f8524580688548a0396,0.8837057,0.30199295,0.4751182,0.106065065,-1.3954228,0.048285834,0.9604066,0.40277728,0.5853255,0.038060997,0.37640554,0.39092675,-0.5975756,-0.349501,1.0168757,-0.6045349,-0.26159912,-0.19177622,1.0
Backdoor.Graybird-ad96e019652bae1367bbbde130c9e6e7098048b89b82f89353ea0aa688f49b10,0.5065806,0.8742991,1.0153182,-0.7223091,-0.8128831,-0.28979883,1.0901432,0.055991963,-0.60755265,0.446552,0.32996717,-0.304469,-0.07956001,-0.43069664,0.03799933,-0.4045502,-0.5598824,0.023651605,1.0
Backdoor.Graybird-ad9900cf8bf77c5291d6583fa7d2bf68ad622e2404b85bd87fc99b4a76cf9ee1,1.2495193,1.1284368,0.49602312,-0.40135902,-1.0210922,0.12410264,1.3883847,1.1416292,0.4472888,0.38852248,-0.06395583,-0.972323,-0.39136356,-0.6046771,-0.20166315,-0.49508932,-0.33989647,-1.4868312,1.0
Backdoor.Graybird-ada0d13de57259ca50f6c6137799d46819ad67d2730c83da6e11cf07eec1f93f,0.3831861,0.6166528,0.49913278,-0.26596415,-1.2096794,0.84053123,0.48978633,0.13982703,-0.06842837,0.67647237,-0.045177396,0.44746697,-0.49987707,0.36011082,0.12026465,-0.3664497,0.52992034,-0.045641325,1.0
Backdoor.Graybird-ae51172509ee5dc56c8f1c971c67fcf819300950ca16836957b08483d575ed52,0.53320247,0.5876587,-0.54799706,-0.14094464,-1.651515,0.038352825,0.71603304,0.09082555,-0.06044548,1.333279,0.010728083,-0.096811526,-0.21924604,-0.0722737,-0.20084085,-1.2038132,1.3166158,-0.32040438,1.0
Backdoor.Graybird-afee8e31fe9fb0951bdb8389508c98a1de93dbf3beb5eab5725263e529f36abb,0.5964824,0.28439483,-0.23884529,-0.31906334,-0.7600468,0.0062075905,-0.4789873,-0.053072907,-0.15701622,0.13927224,-0.27071005,-0.50918514,-0.23431708,0.016395133,-0.1145101,-0.8498575,0.20184188,-0.06882547,1.0
Backdoor.Graybird-b0e89e830426555734cc9364af793e2d18c2da4c2637ba0a4958fdefaf4c4f3b,0.2268753,0.4461572,-0.05568442,-0.29627183,-0.5708888,-0.0778518,0.16290449,0.06800244,-0.32124886,0.14227885,-0.32874402,0.061474238,-0.044993196,-0.013351124,0.06689417,-0.69207966,0.5514377,0.2823829,1.0
Backdoor.Graybird-b4b202425d9d0632578ac630d5d3399c1e978c392bccc49015d296804c2d050e,0.95237714,1.2630267,0.21318999,-0.41641223,-1.7388848,0.53157353,0.2516501,0.5947489,0.032633018,1.1217009,0.5335267,-0.33919144,0.36204943,0.041755036,-0.08932672,-0.6729077,0.6130219,-0.03801971,1.0
Backdoor.Graybird-b50c771b0643fcc2080eafe121cb24dc5f21cbdb5ee1d6a80833e7c892d0c42d,0.74294984,1.5957999,0.5829409,0.422767,-1.3597031,0.017514145,0.96740526,-0.4812761,-0.62013984,1.145168,0.27885675,-0.49596986,-0.49943003,-0.18983814,0.16942278,-0.13630812,0.6412718,-0.0030779373,1.0
Backdoor.Graybird-b62439942588e8e2953b38988d69c96093a848cbd09b6c56ff8a90a46acdeee1,-0.022073036,1.2485247,-0.18579823,-0.50222415,-1.2480875,-0.53496194,1.0121074,0.275947,-0.35379136,0.71025676,0.3203228,-0.11928669,-0.48060414,-0.6194405,0.04006273,-0.042937327,-0.16894597,-0.58698916,1.0
Backdoor.Graybird-b66dc00d759d7e7bd24d8a7ffea8a7629b7d498777351a92b218c94084490813,1.0505446,1.4927791,-0.108452484,0.44830272,-1.1535342,-0.1022369,0.6633603,0.76263964,-0.93991184,1.2055651,0.5196786,-0.12684225,-0.7489282,0.54104006,-0.36348185,-0.3007795,0.81878746,0.37690276,1.0
Backdoor.Graybird-b76eaa093ad34277a7a5edbc5fb0baa5a29e0225f975fff671c4640b229a4b7b,1.0139997,1.3543934,0.54445773,0.063654765,-1.2037194,0.08342238,1.0609865,1.4699893,0.49113464,0.41671476,-0.1913133,-0.8695009,-0.5903517,-0.47258097,-0.09339734,-0.470475,-0.18323825,-1.3138376,1.0
Backdoor.Graybird-b7736881b6aa7a0bf18c5e27ba9055755ffde26b3664c0cc2170381946bfa384,1.0969039,1.1740808,0.15101112,-0.5472346,-0.9458604,0.043317784,0.27795213,1.1039671,-0.12663624,0.69321615,0.4789046,-0.030950155,-0.43534198,0.67622495,-0.18068892,-0.21753202,0.41381764,-0.14506663,1.0
Backdoor.Graybird-b8c6f42091540caf959c5f816c3b30a2c84f93031292bcd29cc41b3bb4f9bda8,0.98830557,1.4288323,-0.037874963,0.32166657,-1.1758273,-0.8340061,0.60295767,1.0705038,-0.8463988,0.47600988,0.4280342,-0.83770454,0.1732362,-0.1299983,-0.22967812,-0.5867526,-0.41620362,0.27832198,1.0
Backdoor.Graybird-b8ff0d86c56138a367840fcfdd9fb22a6e81662f2587374bc7da963bd7932695,0.3713705,1.7658473,0.34580576,0.2905537,-1.6549599,-0.6984136,0.7362786,0.7898045,-1.4608124,0.12120791,0.5011759,-1.1019968,-0.0049867183,0.24074273,0.17946611,-1.0137845,0.00672057,0.16770032,1.0
Backdoor.Graybird-ba96f8453e48690995c933fb5c2c66ddda190efb57210194df1d4a39567cb717,0.72777545,0.9344134,0.4475871,-0.089490674,-1.3205736,0.3728088,0.6594433,0.16624936,-0.114703685,0.5653493,0.8012298,0.04592163,0.51771474,0.6370141,0.43125227,-1.0031759,0.21352237,0.3720284,1.0
Backdoor.Graybird-baab9ad8886c8e2217215c04cafec5d183d1e867148ff7dab39ac3b405b0d32e,0.98866963,0.64455044,0.5802492,-0.30232832,-1.8058835,0.57112825,0.37753576,-0.08912535,0.16665943,0.41702056,0.34972468,0.51827514,0.26060778,0.6704757,-0.04501243,-0.81189877,-1.1038194,-0.044381537,1.0
Backdoor.Graybird-bb3bcd7121f8fc69917389f87203921a174bdc227a86543480d0eb1e00424e03,1.0103163,0.5301411,0.83880764,-0.4165987,-0.671411,0.067225784,-0.1953578,0.16106087,-0.04869689,0.62408054,-0.3352663,0.18671088,0.102399185,-0.6563888,-0.34575805,-0.94258606,-0.23296198,0.38656375,1.0
Backdoor.Graybird-bb50e9e002128a3c9f93d264af4e428ddb1b17d052fdd7d3382eebd968752ba4,1.4857932,1.3777827,0.35608384,0.595371,-1.0261259,0.19957484,0.753563,0.1790492,-0.5718323,0.87772596,0.49198225,-0.45322886,-0.29462647,0.06858064,-0.78379875,-0.1314661,-0.1463729,-0.364094,1.0
Backdoor.Graybird-bbc2b33dd5221c657bc85954d7765dbaeea17c76cd081f0245b310266d729a9e,1.3316822,0.6356791,0.21705228,-0.27064064,-1.8781303,0.58314717,0.8193467,0.1259811,0.32586822,0.91024613,0.46959162,0.40180066,0.519785,0.48516256,-0.47883555,-0.905667,-0.7539643,0.24793458,1.0
Backdoor.Graybird-bc0d7b7b3bd4174a6a541b3a330761d73e33784bb20ec3af183d87af0b0d22a2,0.7719493,1.1239452,-0.18647955,-0.3675484,-1.7336016,0.89251316,0.025464533,0.69841623,0.40119052,1.0899309,0.76254123,-0.47549874,0.565518,-0.1801287,-0.06842244,-0.6542284,-0.03812975,0.18558772,1.0
Backdoor.Graybird-bd5688c51d6dfccc1039fb219ab892c35ba24d9822d86ab40c97923c9c570d17,0.5034074,0.6156082,0.269133,-0.73705554,-1.496211,0.2207698,0.77731913,0.28750765,0.35809386,0.866149,0.62822366,0.06190713,0.29161492,-0.13087866,-0.040540595,-0.68920106,0.18712407,0.64007425,1.0
Infostealer.Limitail-00ef4eae8d3744a94cdad3d143180163d2805eb3efa4b471dc70fba7fe1ce917,1.2946668,0.32821617,-0.2494839,-0.18860573,-1.1422321,1.3181334,-1.0458999,-0.1915489,-0.4542598,-0.33549097,0.6646904,-0.060164966,0.39806536,-0.8293115,-0.6732222,-1.1304009,0.4309229,0.62710994,4.0
Infostealer.Limitail-0123ab6dd5cc869f8915767ce440642b8305beabbb8b326f65a74952fc23417c,0.5955128,0.40168244,0.17680356,-0.42829323,-0.7529896,0.7705838,-0.33138636,-0.45104223,-0.13971663,-0.043290034,-0.48290604,0.0016736215,0.431214,-0.38822994,-0.6941359,-0.8770433,-0.004802523,0.18687753,4.0
Infostealer.Limitail-0475d54d5b6d3d7ae744cc7bede1496bde02dc30da9c1d3d6735e8a9b06b5603,1.5536233,0.43440235,-0.0020680681,0.04393685,-0.71887356,0.6366095,-0.48745498,-0.19678,0.13290021,0.4189971,0.46375534,0.28530443,0.10724879,-0.41678149,0.25573424,-0.69257474,-0.21451971,-0.2655283,4.0
Infostealer.Limitail-06782b2472460f2d91238d0c524dfda4d52bfc43f2c48c2bed652e595fed3985,0.17244884,0.44981438,0.10843495,-0.16468349,-0.33080584,0.5487286,0.08958909,0.02012959,-0.38962862,0.33011115,0.16379735,-0.109728895,-0.025250046,-0.23157212,0.035637874,-0.3863482,-0.10923466,0.2963663,4.0
Infostealer.Limitail-09ff450c5df368071b2e3016656d3ba91f9db8760d61706711ec453f8409f933,1.3757575,0.73751175,-0.28361973,-0.31770205,-1.0869255,0.33472508,-1.0824713,-0.16304535,-0.40891728,-0.815115,0.01738865,0.25903845,0.34835282,-1.5465858,-0.42845696,-1.1622183,0.20565248,-0.21410114,4.0
Infostealer.Limitail-0a1de690d2206a17d79c5b5d732d1e22ed66be863603f7158a4dd3d1c05e64af,0.1822848,0.51496476,-0.17793258,-0.09856696,-0.0474334,0.20877346,0.12647682,0.04527489,0.002620405,0.11535051,-0.19926247,-0.047768135,-0.067291945,-0.13862793,-0.05209245,-0.20364703,-0.17746432,0.13938554,4.0
Infostealer.Limitail-0aabdd5ede5205920b2005f74fff2e166128f7bb03bc05187a0f9869db90b956,1.7862712,0.7235277,1.0869666,-0.057573367,-0.6448732,0.11630911,-0.0026905772,-0.30803746,-0.5358699,0.44311747,-1.0979733,0.84006536,0.12756854,-1.2582822,-0.61416686,-0.59380835,-0.414651,0.5948044,4.0
Infostealer.Limitail-0b6c32474d27befbde890587ef0c17758a294919cb94ce9877b4f47fe5c8c7cc,1.2464403,0.3682025,-0.57275486,0.2846019,-0.4488588,1.1680781,-1.130026,-0.1298314,-0.56212145,-0.5497647,-0.45621073,0.04933079,0.33268255,-0.9232413,-0.7528098,-1.2857091,0.15494554,0.3695343,4.0
Infostealer.Limitail-0c099054f7dfc82eec2cb236792bdda71cbfa1b0bff29faa1c29a085942642ee,0.9851652,0.71260786,0.4124279,0.48867187,-0.37631208,-0.0020909985,-0.10942975,-0.5385504,-0.1392041,0.15688904,0.42359766,0.1401035,-0.03825332,-0.5317765,0.5057831,-0.75857824,-0.038150124,-0.16663724,4.0
Infostealer.Limitail-0d32a0301c155ae34f05082bda13659a657abd14c99611e4cc773ee38fe4f6ed,0.39885086,0.31954527,-0.26532033,-0.5120119,-0.47723493,0.6509067,-0.4444135,-0.30222404,-0.28344545,-0.32580903,-0.3055682,0.40750387,0.3755416,-1.2221073,-1.3848567,-1.0039415,-0.31713873,0.5925759,4.0
Infostealer.Limitail-0d485c1fc0333c23dad74c9823486e5730d1ad15ebb95f7ad556254c00d66bce,1.159639,0.61026245,0.29850832,0.44845128,-1.3964955,0.5848925,-0.51905954,-0.024777016,0.66361445,0.2256484,0.34039253,-0.032925107,0.38871497,-0.91914123,0.21781094,-0.8894081,-0.29935175,0.14061409,4.0
Infostealer.Limitail-0e505630743126bbfe7849d0a4c644d021a9b03a00673a4a4080d66a5b463de4,0.8190663,0.10862065,-0.11403324,-0.2533727,-0.290438,0.10265498,0.42468843,0.89759356,-0.33410454,0.176582,0.14569221,0.6257993,0.3124158,-0.37919828,-0.014139534,-0.5916463,-0.27334642,0.340304,4.0
Infostealer.Limitail-0f69f12074e1eb0676e76876df23160e0a478d6a5aa99a05920f3738ec61bbbc,0.45360878,0.1305809,0.08486837,-0.33607504,-0.16254406,0.082279146,0.12235898,0.15761924,0.2038594,-0.107389204,0.102611974,-0.18937407,-0.30779865,-0.25959328,0.13507903,-0.63998586,-0.22704183,0.05582117,4.0
Infostealer.Limitail-0f980c7daa8aed3f5ec136e578fbb78a1ceb392fb2f5116e17726485b18e1fbd,0.32454792,0.7750869,0.20185384,0.29392344,-0.041756563,0.35644963,0.27059564,-0.28155354,-0.29419178,0.025645072,-0.21457952,0.28132886,-0.0050909743,-0.38814437,0.21938346,-0.35848823,-0.043854706,0.0069094533,4.0
Infostealer.Limitail-10f5d0f417623ea40f0c90ad193d6a11b2c08cb367fa06d2e6afc898c296cc9f,1.3156863,0.20121202,0.20277534,0.10092759,0.04387973,0.27037108,0.9490203,0.9816992,-0.71041185,-0.3863386,0.21401185,0.25613233,0.0932039,-1.216954,-0.28140342,-1.0632403,-0.34435236,0.4178802,4.0
Infostealer.Limitail-118b08bf351375c6d3aea39afb26196640ea6b6d9b065352425ce11d691ef1e3,1.9047612,0.27993712,-0.30259043,0.014169794,-0.5257312,0.75871795,-1.1355007,0.37004706,-0.6046028,-0.64882934,-0.46415144,0.34043843,0.5477526,-0.83386004,-0.74389166,-1.1460543,0.21348135,0.97397316,4.0
Infostealer.Limitail-1210fa15170398851d251cd557e382016a5e5cda335e0bd1156626028a66e024,0.32619506,0.32351494,0.061940037,-0.6107528,0.17277735,0.12993163,0.03359004,0.36866853,-0.40620518,-0.2413819,0.10754315,0.11439618,0.31906095,-0.34259516,-0.38656354,-0.5890085,-0.13926508,0.04069745,4.0
Infostealer.Limitail-135866733dc9b1bd01754f70f069fc3b15c26a930b450745cd73ad3084b61291,1.0005243,0.33670986,-0.25464907,-0.5348726,0.09676709,0.021104515,-0.04387487,0.5554049,0.59529096,0.0323034,0.6610576,0.32140693,-0.2923148,-0.5922083,-0.1399069,-0.29637054,-0.73078537,-0.048802633,4.0
Infostealer.Limitail-135f565f6b7ab8ff429f048b0f42b25310db9cfa300547df3a14fe3a6e6aa9af,0.63561356,0.5315479,0.15568012,0.008844519,-0.34784976,-0.123238795,0.23410462,-0.16158985,0.12700655,-0.41082764,-0.022649249,0.23360041,0.4667342,-0.3796124,-0.2871332,-0.9814574,-0.29412633,0.33159852,4.0
Infostealer.Limitail-136bbbe694ed496d41388c5ace11649782ecb8a4e46e278cb2b23349404f904c,1.0621251,0.48533827,-0.06232921,-0.10226486,-0.6604929,0.91676736,-0.30772948,-0.2555056,-0.27826145,-0.13199717,-0.30553454,0.5254204,0.7984601,-0.40502498,-1.2409178,-1.0999507,-0.3560671,-0.2290087,4.0
Infostealer.Limitail-13ef19db6da118df6fcb8f7775f3b0a6092f68012c8526c7badc5e65991a4d06,0.43242645,0.25506124,-0.18366382,-0.13265747,-0.048429202,0.19741638,-0.18058625,-0.17807657,-0.06367347,-0.30082121,-0.07252563,0.3000109,-0.004181831,-0.20618035,-0.24885102,-0.47788966,-0.012891411,0.078444995,4.0
Infostealer.Limitail-14205ce7af4fbc01aa3215de9a7f5f752e193ab3c632d4c1617408dd7c6c0f04,0.87586164,0.0750063,-0.8945957,0.11191447,-0.2222892,0.9203902,-1.1322411,0.23061264,-0.01952144,0.050104015,-0.30881104,0.06184004,0.16553488,-0.8420888,-0.68184614,-1.144075,0.3708719,0.28471813,4.0
Infostealer.Limitail-16631e735f7335a9b82f9a27ef48fbaa514d67b5f9f4ac21709e59f8f4036ac4,0.8168368,1.2846265,-0.4083727,-0.18243904,-0.44638836,-0.030537799,-0.94609106,0.43228355,-0.7495712,-0.38883933,0.7422724,0.48642758,-0.15367183,-2.4293337,-0.93548983,-0.8678966,-0.6295282,0.27407342,4.0
Infostealer.Limitail-17f4c22278ea2d9352a1ffbe29ac02439b4c4bf04e815723775a9f217979f5b9,0.71016747,0.77976066,0.13884947,-0.40775317,-0.4311864,0.5154104,-0.8815738,0.4507282,-0.35172656,-0.65030247,-0.35702416,0.24038419,0.2807636,-0.40643293,-0.6348237,-0.65562725,0.07594082,0.032443624,4.0
Infostealer.Limitail-183e71ad07ec140f089741d41c465c6bcd1c0999c60eeb7a1358bc67bfea29a7,0.7519162,0.33841816,-0.43868348,-0.27019396,-0.7737908,0.9142671,-0.6193911,0.16606754,-0.29877508,-0.30403548,0.72522885,0.18256477,0.27674538,-1.0329682,-0.9883828,-0.8699247,0.0667355,0.7791056,4.0
Infostealer.Limitail-185dc17283169b8b5e81b9e447328d058ced407d7da1aa0f6a15938b9ee0794c,0.3070193,0.8034933,-0.018223852,0.0077258297,-0.26168248,0.34952983,-0.818102,0.56085885,0.18807419,-0.5757537,0.5142412,0.18349163,-0.06866596,-1.4714235,-0.29913715,-1.0159898,0.07779738,0.22222583,4.0
Infostealer.Limitail-18916d5bd986736cd42f59cac3c089066b67b47f7ea971766fb178289ef1123a,0.3117443,0.5965754,-0.6270271,0.4073036,0.35472888,0.7362546,0.46856362,0.97343224,-0.3762687,0.080096625,0.2443931,-0.113095485,0.16001962,-1.143124,-0.75117207,-1.7418938,0.78834754,-0.34691375,4.0
Infostealer.Limitail-196f9d41e0fa5fd254a5fd3aa41bc6c9fd0c86d1ee06cc049a34115e1a270bfa,-0.0076004164,0.2667918,0.17778772,-0.36238787,0.11440951,0.06918709,-0.18555836,-0.10317967,-0.08240088,-0.3442608,-0.25331277,0.3310215,-0.2683893,-0.41228303,-0.0036435616,-1.0989593,-0.043399643,-0.28541338,4.0
Infostealer.Limitail-1aec488c2f3976d4475c776b2f26c02af5c2cc7f45c296590cd6c5038574a92c,0.44695437,-0.08027397,-0.3023076,-0.032659966,-0.41597673,0.42849472,-0.06989879,-0.08216259,-0.1614487,-0.018134458,0.20447159,-0.47354048,-0.24492684,-0.37149096,0.018384239,-0.69967794,-0.23596957,-0.05561577,4.0
Infostealer.Limitail-1b6e85db35b48ddfd20291b4c3779ddc1c9561ddf059078c3f939d7d7056bc6e,0.4073948,0.50561,-0.5267236,0.2367793,-0.33247632,0.12586856,-0.7503971,0.53533304,-0.21656415,-0.2663244,-0.11986245,0.73856825,0.19446632,-0.56775737,-0.14457157,-1.0830269,-0.3630513,-0.13671996,4.0
Infostealer.Limitail-1d078f7168bd934908c48a33d8262b148640b67d0ab541ba117289233ee3a529,0.13123085,0.31422037,-0.10740031,-0.09532275,-0.23845538,0.14370167,-0.10157634,-0.05540889,0.07653403,0.29958758,0.13396393,0.19941641,-0.40256387,-0.17723638,0.08648451,-0.3615065,-0.17596808,-0.22224939,4.0
Infostealer.Limitail-1e9ed45964eb13969340c97a213d5863ca4d946a2ccd2e5edafd69f01de133f0,1.0727212,0.7058622,-0.3621958,0.113291495,-0.40343225,0.46458116,-1.0839223,-0.12429707,-0.69442046,-0.9734195,-0.25803337,0.83278555,0.05556127,-1.1626348,-0.039886877,-1.4845879,-0.015256223,-0.18256348,4.0
Infostealer.Limitail-21cd67693f44fa376e69a14c648650f851c65ba0a50c316712f5a17db01a9994,0.8253736,0.37436634,-0.9665846,0.6720927,0.3890126,0.09682891,0.09130183,0.09727089,0.11634114,-0.6733127,-0.08239498,0.36017218,0.22822879,-0.012230691,0.2720586,-1.5594898,0.01875154,-0.2280909,4.0
Infostealer.Limitail-220649e7dc6ca90a1512f189c5af105b5aeff8dba7eea9353c149e4317539e74,1.247869,0.6205769,-0.118715696,0.415055,-1.287323,0.48839918,-0.6036026,-0.09217689,0.51164174,0.18951784,0.6164771,-0.28173062,0.3146574,-0.25571626,0.14091724,-0.8961383,-0.3930747,-0.018944634,4.0
Infostealer.Limitail-227eb01ab3857e0714f61a353095f8917abcc460c08fab7d09a9cfabd4369d9f,1.0544456,0.6558347,-0.21097513,0.6988202,-0.28472823,1.5338167,-1.408586,0.55555475,-0.53854203,-0.86101913,-0.21850328,-0.15557164,0.13880844,-0.8552267,-0.8186788,-1.4596666,-0.16282989,0.7092504,4.0
Infostealer.Limitail-2375a171b77127674c743222c3bc4b296f96f5d3f021bced6ff7121c02a0cb3a,0.3337023,0.8361533,0.4973592,-0.09558109,-0.4970362,0.38673577,-0.5490459,-0.44159922,0.40208268,-0.25688553,0.97819877,0.19147429,-0.24704646,-0.5814287,-0.11555059,-0.73892117,-0.518401,-0.033393852,4.0
Infostealer.Limitail-237746f2268f808cb79eddc9863637eb96517e8c61863e716f9536096480a1e2,0.16415362,0.15831688,-0.5751734,-0.44059664,-0.7306378,0.5450905,-0.011438705,0.72680944,-0.22182906,0.71647626,1.0127449,0.13280343,0.28082934,-0.67348975,0.0013311023,-1.2360703,-0.20100172,-0.75013363,4.0
Infostealer.Limitail-241c5405d6d07768628732edf079d8eac93ff3b510d2582258c6bfd823de45fb,-0.32775775,0.4581495,0.08400154,-0.7207279,-0.17261785,-0.1221646,-0.70655686,0.33928102,-0.0048719277,0.08702374,0.5657464,0.20777234,-0.47272372,-0.6765956,-0.052291784,-1.2005565,-0.14532554,0.32734954,4.0
Infostealer.Limitail-2518cbdda8b91112239a3a59faee20fa5f52e6bf34e93d133638cfcd83ee3b03,0.6834095,0.31424126,-0.13171797,0.29009387,-0.07385341,1.503254,-1.0406543,0.2831981,-0.06557831,-0.49452078,-0.036001995,0.04190193,0.30137494,-0.9571493,-0.73609877,-1.5392089,-0.035076484,0.38450158,4.0
Infostealer.Limitail-261e287373e8644ef30b579b34dc5a9def0965645fd0177a3fcba87749c46747,-0.14750938,0.359914,-0.05951557,-0.45346755,0.063917354,0.99711674,-0.41431832,0.1625182,-0.46065456,0.2584501,-0.4912833,0.028128764,0.20552188,-1.1661469,-1.0183114,-0.9714311,0.12470327,0.53035057,4.0
Infostealer.Limitail-2a1e55236634cdde2548ab817429fcb734d75feead122784f413114cd3a3dcd3,0.39151418,0.6927698,0.28805807,0.2652442,-0.3348729,0.6977336,-0.6373579,0.71679395,-0.023159944,-0.6295618,-0.03526768,1.0060709,-0.25068954,-0.4282194,0.01598878,-1.2001806,-0.1274008,-0.432716,4.0
Infostealer.Limitail-2a68b2e3158eade9b9819de0dbd4b13d1abd16da38476327abb3692d5bc1968f,0.4288507,0.040679295,-0.8430213,0.3013619,-0.19580142,0.9954583,-0.86572796,-0.32695267,0.2177969,-0.32010785,0.02236032,0.34540138,0.05998884,-0.87231624,-0.78243196,-1.6821039,-0.34064123,-0.1032794,4.0
Infostealer.Limitail-2b45f467b7358db4b30026ddbe8c4bb947c199f7a9a52a8aec18622b22a4b544,1.0708846,0.6188578,-0.22334148,0.049104635,-1.0234997,0.09911276,-0.57681364,0.17016494,-0.080093935,0.06271006,0.7774798,-0.097946994,0.4283971,-1.276419,0.2563937,-1.1060618,-0.08804796,-0.3967969,4.0
Infostealer.Limitail-2cd3bb434bf5b37d4bc2421606c8e9011efbbf9ae77885a609d2416a5b9c08a2,-0.12357146,0.26148522,-0.47153893,0.2346535,-0.5539445,1.1332799,-1.0301986,-0.25652575,-0.51451194,-0.3645012,-0.16272059,0.76822335,-0.7090676,-1.2534498,-1.1328111,-1.9536811,-0.5143955,-0.2153928,4.0
Infostealer.Limitail-34477322c51b74bb6036ef0b32cd0bc40521ad9de078f44414bbbbe8595bc8ee,-0.10977802,0.3252707,-0.5711878,0.44644922,-0.5852233,0.87095577,-0.27115983,0.31388417,-0.12233136,0.36914352,-0.47307533,-0.24883127,0.040235277,-0.011069403,-0.43263966,-1.443026,0.22669563,-0.41977033,4.0
Infostealer.Limitail-34509889656af4d6e305b69619b898f423c4780f916c619ab8003b41ddc6e77d,-0.3021527,0.062385842,-0.3304971,0.23971225,-0.5798033,0.18855956,-0.16323854,0.013159803,-0.116997994,0.046949107,0.022218283,0.66788995,0.055912867,-0.6936145,-0.05410253,-1.564786,-0.024282277,-0.25391313,4.0
Infostealer.Limitail-3474a23a951c690af7e5a1926efa6b24ac123bd1c33c9e3c19b277f95a771f11,0.20832418,0.06520294,0.38254398,-0.0010538587,-0.48691747,0.97994477,0.04085472,-0.4810918,-0.8764605,0.14255486,-0.041541442,0.53229755,-0.7727168,-0.45626923,0.14238766,-1.040278,0.17014001,-0.5185263,4.0
Infostealer.Limitail-34fbfa1bd4294fd00fcdc12b5dcaf04551c098617d874aae99e639d6d0fc7311,1.0390602,-0.17745139,-0.6449624,0.09666969,-0.8235692,0.8812008,-0.93202865,-0.59993154,-0.98989415,-0.48956394,0.074816726,0.7049277,-0.3820414,-1.1705564,-0.10745743,-1.5359116,0.017539922,0.2667438,4.0
Infostealer.Limitail-35c239d5a0dce33f103fa5ca316b2dc72d01d13c7faafe5b36871a47a05c5b4d,0.5248001,0.4308129,-0.4222406,0.41804424,-0.25980076,0.82374924,-1.1621579,-0.06086466,-0.1871082,-0.19092397,-0.6629003,0.5093496,0.0025977134,-0.8195724,-0.7001631,-1.3202013,-0.20945922,0.11300667,4.0
Infostealer.Limitail-360afa487a76edcf1aad4d6d7068740e3f8c6c1a8f04bf2cf5351db7de344570,0.39067492,0.18218127,0.06063007,-0.27261904,-0.16974875,0.037052583,0.20541053,-0.2768468,-0.33575165,-0.40063652,-0.0072329724,0.36490795,0.07649233,-0.39228383,-0.20391643,-0.9328435,0.08205743,0.065695666,4.0
Infostealer.Limitail-36beafd562644a8f0faf0ee2db360d1af9f08071aa24e51ef1158d505500b124,0.7620529,1.1385839,-0.44697723,-0.0803279,-0.53062934,0.113681674,-0.6772277,0.2613916,-0.83790386,-0.13166168,0.65564954,0.36586502,-0.17102541,-2.3411386,-0.9934112,-1.0253127,-0.6268533,0.02745281,4.0
Infostealer.Limitail-36d0d50f6867f6b9a35f1714f1ef277f3ff86c24461704f3b6651428b45a7b78,1.2360232,0.17159766,-0.15897092,0.10984044,0.0032814236,-0.030036282,0.63091654,1.2537775,-0.6536607,-0.48600534,0.27224538,0.8307222,0.06772473,-1.1278454,0.31157407,-1.6864191,0.13642786,0.15737385,4.0
Infostealer.Limitail-36d2062b8afcb1959240541cd252c376cdebc13a90e4f3bb0500d20173909502,-0.03756705,0.103121564,-0.42337537,-0.0050095497,-0.2971017,0.3332808,0.02530304,0.6736562,0.014826408,-0.31230265,-0.23962474,0.27986726,0.49610385,-0.7530625,0.51583695,-1.5048215,0.49091637,0.24379078,4.0
Infostealer.Limitail-37de60a316c9b8cb93a43d766ac1138d697717ffbd462d47c9649d7bc1e95001,0.9587544,0.4867784,-0.27316725,-0.027845489,-0.5162498,0.27076557,-0.74334466,-0.51037955,-0.6069549,-1.1638371,-0.22558403,0.57726324,0.09140315,-1.2978374,-0.20124593,-1.5447543,0.35023025,-0.108288325,4.0
Infostealer.Limitail-3874c958ec3074346a5945c90f0b9ffaab54ede43c8390f0e87dc789914ccba1,0.66512513,0.8685835,-0.53915626,-0.023686226,-0.9264129,-0.1642569,-0.619852,0.21158724,-0.9800694,-0.13127376,0.381516,0.36744314,-0.13126394,-2.602793,-0.5900608,-1.23958,-0.15841493,0.07661484,4.0
Infostealer.Limitail-399547a622fe3ca3ecb8961eeb330934bf877890186ce5d18888ccdeab06cd77,1.0413635,0.7033788,-0.22389144,0.42233202,-0.63716793,0.2195435,-1.0015453,0.418611,-0.5598592,-0.87390625,-0.43611255,0.63165677,-0.12500727,-0.98969734,0.16029738,-1.4335123,0.3686021,-0.109664634,4.0
Infostealer.Limitail-3af03edadc9036709a0f9df76f741c697cca72272422455d2b71921fb0ebe65f,0.3931748,0.93037486,0.5803921,0.7936173,-0.21888319,0.15125354,-0.32248518,-0.22698586,0.21685724,-0.016272591,0.17660528,-0.1273882,-0.42500827,-0.6213387,0.5681723,-0.92464125,0.19488443,-0.008697525,4.0
Infostealer.Limitail-3cc0ae17a15ef0c1cb9472644cc1326f0398943b86145492768705e2e95b34d1,0.1781292,0.25677374,0.10415598,-0.07996422,0.3732579,0.29991928,-0.08722167,-0.010296058,-0.1346505,-0.36211547,-0.25235593,0.17840505,-0.43614742,-0.32267502,-0.0009906243,-0.49490285,-0.10158586,0.07027839,4.0
Infostealer.Limitail-3d667a8e56a5a75c2a3163d00c5f1045cc675c994b24ec96ba8058b8617245a8,0.28733775,0.1772699,-0.15278639,0.31780094,-0.20474099,0.4102521,0.1285057,0.3251915,-0.011814225,0.13234755,0.14652738,-0.29004145,0.015218634,-1.0664726,0.9469533,-1.8320335,0.9085173,-0.3110377,4.0
Infostealer.Limitail-3ede671bc8e9026211cf1cb018b7bc624aef1b1f4095f3877783d262692bca07,-0.08483455,0.5514814,0.42873508,0.2677721,-0.11058362,0.5787272,0.116910815,-0.33534515,-0.2432344,-0.25347957,-0.20568599,-0.058216505,-0.36183167,-0.57217413,0.38122183,-0.79606897,0.36773643,-0.32779914,4.0
Infostealer.Limitail-3f2fd3af41741f9fd696adb4caedaf2a540cc86e0ce29285298f97e2c3738445,1.6377558,0.4645414,1.3420792,-0.29117152,-0.35097194,0.319923,-0.109125726,0.12277051,-0.6455704,0.27743205,-1.0414432,0.5894441,0.1308669,-1.0212165,0.035963517,-0.8289146,-0.3393245,0.6013447,4.0
Infostealer.Limitail-40bcad848fcb06078833131ac9f93fc9b3da5198428486843c79856ec5554946,-0.38295937,0.65153074,1.1159123,0.0885798,-0.19489764,0.23333085,0.2861614,-0.023613587,-0.3465094,-6.930942e-05,-0.016637797,0.1446569,-0.22561719,-0.52264756,0.5523615,-1.0238901,0.05643874,0.25701743,4.0
Infostealer.Limitail-40ca86d64542a8278f431e5ddf7b719e968d0a4dd131133516d14fe810d64348,-0.024656978,0.012853712,0.016746623,-0.019635297,0.017911127,0.0009848542,-0.0015289286,-0.0005449222,-0.027080907,0.009424362,0.014290959,-0.026063988,-0.0072493637,-0.015593452,-0.026630461,0.0048638317,-0.025591861,-0.003464101,4.0
Infostealer.Limitail-40d4456b652335baaa8bc995a9d3bb205bcecbc30171b2c18eaa4fc687cf55f2,0.5131596,0.8130027,0.4431826,0.8323656,0.027627034,0.734501,-0.2427744,0.35614276,-0.35549012,0.22364934,0.019411702,-0.047358017,0.4994573,-0.6395257,0.6959497,-2.0000346,0.9124688,0.16344893,4.0
Infostealer.Limitail-413e79bbf60a0aba6536ef4eb3e5cdc0ec4f527d741d1f561606d5a86e3eb6f7,0.9618268,0.33369857,-0.15284799,0.44966725,-0.4173322,0.5989795,-0.72145474,-0.010341389,-0.7604378,-0.82907057,-0.6355593,0.049664374,0.16284403,-0.74652165,-0.50774807,-1.1914018,0.23640205,1.3411194,4.0
Infostealer.Limitail-419e23d785f8dc467f236d46e1e5579edc84db14d275084136f1ebab503f1473,0.7755278,0.124283396,1.5560046,-0.6817148,0.6056254,0.59217197,0.4081236,-0.3156121,-0.6202825,0.39561653,-0.8060495,1.0443085,-0.52142596,-0.9520543,-0.023300614,-1.2071283,-0.21772605,0.5006636,4.0
Infostealer.Limitail-42382eec81db8e0e44a6cbc3f30d997d6a8052dc2bbb748d51a49c572b4995e8,0.15865918,0.36112434,0.20015024,-0.5458036,-0.18591969,0.21460716,-0.05611034,0.12444832,-0.17163682,0.057046488,-0.23585242,-0.09332391,-0.045718912,-0.042318687,0.10971275,-0.5904794,-0.07911932,-0.010865721,4.0
Infostealer.Limitail-42ab4fd75eee3f8509a9e3b141865e6d076dc8310e4bffc4637bf8da8f21f774,1.0813389,0.23680378,0.16455196,0.43345445,-0.027549118,1.141748,-1.3433865,0.11881109,-0.7621663,-0.48249412,-0.54949856,-0.37109673,0.4428021,-0.8710507,-0.3871398,-1.8479326,-0.15629017,0.9291718,4.0
Infostealer.Limitail-430f4b8bbef2bad734d091661c9dd14502c2f10c99ecbc9eaabee96ee2d2d06a,0.11050784,0.1417499,0.020857496,0.004374541,-0.22679596,0.43278062,-0.18490438,-0.12462318,0.13094872,0.14996652,-0.23909071,-0.21539338,-0.18370414,-0.31663463,0.7111441,-0.96219844,-0.06637807,-0.39753783,4.0
Infostealer.Limitail-433d3488a45014a9a78cfafd1d07eccea667be66b96962acd41ae6cb4b388515,0.18823929,0.31368932,0.25859082,-0.4195342,-0.15492159,0.15985383,-0.056623455,0.02370162,0.13836719,-0.0997172,-0.07939958,-0.07606916,-0.3805468,-0.17215817,0.17871626,-0.60929704,-0.19992594,0.25848514,4.0
Infostealer.Limitail-4509e38fc74b90f4a0f09279e2c9810dd6c500ae5e67f02f5304392312dcc723,0.53094226,0.27761132,-0.28859764,0.2263211,-0.5643416,0.3279681,-0.26064175,0.17964786,-0.46198967,-0.2994827,-0.4999101,-0.084003076,-0.06969072,-0.40705127,-0.18473247,-0.48227835,0.069253065,0.18778625,4.0
Infostealer.Limitail-46b29c9b87e820b4c44eab52ee215a281279590dac386791ccaa66695fee7d0e,1.0837275,0.38518825,0.091629915,-0.31962213,-0.28266853,0.9658929,-0.42881674,-0.3347206,-0.41065848,-0.38099986,-0.87529325,0.28380978,0.70651245,-0.43200484,-0.9556553,-1.1813592,-0.11570871,-0.004777543,4.0
Infostealer.Limitail-4ebd31e7efc833cd94d413ec63dbff4002741eba981ed18ae3180022dfb983d9,0.8365563,0.31991127,0.1541407,0.5280179,-0.09537195,0.62494576,0.25722528,0.04266356,-0.70504135,0.20834163,-0.80007225,0.318507,0.3337799,-1.0149405,0.06407881,-1.860267,1.2558389,0.5899594,4.0
Infostealer.Limitail-4f74d7303c01aea8908f77183596887cf33513214a76d4a9c8ca58c9cf3fab84,0.6037142,0.5517535,1.2065148,-0.56545436,0.32000718,0.5875176,0.20446973,-0.20673822,-0.40979683,-0.19006877,-0.62631387,0.38003612,0.11398302,-0.4561648,0.019723492,-0.6059191,0.29643637,0.7559625,4.0
Infostealer.Limitail-4faba173b3c9b0c56e853942b896318192dc530ac905a664dd347a8bf4fa60ae,1.241233,0.65183634,1.121274,-0.0775212,-0.119326755,0.5620448,-0.48258972,0.4551666,-0.3001068,0.22559743,-1.1849437,0.5546746,0.16351466,-0.524362,0.00082068343,-0.63681275,0.19572842,0.8881844,4.0
Infostealer.Limitail-506f3543803220793c244d950a6c0907440ff7831ef8da0adb03a5d2767b712e,0.31733018,0.25533554,-0.06798209,0.42395127,-0.016860079,1.213783,0.031926293,0.38387915,-0.6733794,0.3307271,0.37266982,-0.03305371,0.24821511,-1.1505657,-0.57661414,-1.9011394,0.9000512,0.40350005,4.0
Infostealer.Limitail-50abe498b3f932f2656d596f3ae83098c2b991f9e2a91ffe3af38b4be3c065ab,0.4669892,0.3489079,-0.26948822,0.29674813,0.15782876,1.6156352,-1.2837119,0.007217781,0.06051774,-0.34395567,0.084629804,-0.16840655,-0.012991537,-0.8613167,-0.95812345,-1.1937997,0.13979141,0.746651,4.0
Infostealer.Limitail-50ef9ced701ce0dae3ca8407314d53c573c8d99267544c3411d42c2461fdb488,1.5392021,0.08223763,-0.39382255,-0.30778727,-0.36127955,0.80785304,-1.1080847,-0.31655917,-0.8434014,-0.41083887,-0.7848454,0.30656034,0.5275962,-0.66698027,-0.6378644,-1.2530487,0.41727754,0.43396384,4.0
Infostealer.Limitail-5115be5893c3b182bb809d90fd38d60e529444445a608087ad4935b000591c87,0.5864721,0.01841361,-0.3064691,-0.5341591,0.09287104,0.6162267,-0.45434967,-0.07547712,-0.1749689,0.14075412,-0.10588183,0.8400493,0.16878532,-0.67393905,-0.20967625,-0.55428123,0.23859543,0.09470368,4.0
Infostealer.Limitail-520300603cf001c2128ac8ac03eb795c27bf29f0967a7afe5bc5231219db6113,0.3698372,0.3116135,-0.31298158,-0.20595235,-0.36266983,0.07688184,0.086708136,0.091367595,-0.29376152,0.056375444,-0.11454634,-0.18889722,-0.049501456,-0.1887569,0.3057652,-0.4201622,0.35916117,0.18589415,4.0
Infostealer.Limitail-52d05769b990806a6ecfeb122ca513f3c11eeabcd2ea9eac52e5c32b0fea335d,1.1817044,0.33731878,0.048292354,0.24244939,-0.64549977,0.47443438,-0.19828007,0.13079783,0.18338446,-0.30437547,0.40752834,0.32271993,0.15497194,-0.7968993,0.5633721,-0.7834822,-0.5799311,-0.25887194,4.0
Infostealer.Limitail-5367edfbac1903e6e41464198eb96dc5db9e90b372182e00787f976d572b92fc,1.0246603,0.23653166,0.19659688,0.43016583,0.21584716,0.9442401,-0.019119639,-0.0048455438,-0.6652082,0.22640744,-0.6414505,0.296103,0.0959725,-0.58951056,0.4393399,-1.8747239,1.4624268,0.1833609,4.0
Infostealer.Limitail-5547c3024337fb24ddeeb57500e9b5a3811e36e32d51a41e1c3cb524b2898f5f,1.0614047,0.446195,1.1009322,-0.6140049,-0.25742072,0.2770296,-0.25971377,0.10553457,-0.351555,-0.11980583,-0.6477371,0.36091992,0.14410934,-0.86988986,0.15512335,-0.9058134,0.27734035,0.1872862,4.0
Infostealer.Limitail-5563d9b6e8fd274d47e6298e2e95184ff3c72aa173af9f52700ebd424a8ef588,1.1388735,0.7258053,0.6124122,-0.065905064,-0.066337205,0.3452159,-0.036560375,0.26917422,-0.38414678,0.03564505,-0.73315406,0.75780374,0.27736306,-0.12138842,-0.28463688,-0.3955175,0.15700993,0.8111562,4.0
Infostealer.Limitail-56c92b15ace7ecbfdf461de4047c31114870288125aa559c8a85c73559dbcf91,1.0589998,0.26585066,0.6515623,-0.35291988,-0.012999209,0.5014871,0.3070158,-0.37148786,-0.82161826,-0.018012336,-0.8062283,0.82656467,0.009020704,-0.5048309,0.090878576,-0.32423648,-0.13554557,0.5729374,4.0
Infostealer.Limitail-591530a734f15a0400ec31e2f0038d21a0f7ca538fe7653388e7d37a96db6717,0.676438,0.6851967,0.20749013,-0.061154388,-0.23101024,0.3595364,-0.8634206,0.23906706,-0.5858591,-0.29394147,-0.32718343,0.16285262,0.063816495,-0.41900235,-0.48559958,-0.7101886,-0.18506345,0.33972085,4.0
Infostealer.Limitail-5a960dcde4ae9f8e6474b143c7853ceb3f9e5a0011967dd59eaefaf0e21a7fa8,0.37315178,0.6508866,-0.14990725,-0.54326504,-0.09551036,0.24207257,-0.30267775,-0.21181484,-0.4939451,-0.30289662,-0.12389352,0.19851682,0.14133929,0.15046214,-0.14233263,-0.03757191,-0.17252798,0.27700773,4.0
Infostealer.Limitail-5b8f29cbed116a4401f9d29772b060d9df1f73820472efb670971d8eaf38fcb2,0.73969597,0.3299543,-0.60145795,0.10271387,-0.75363475,0.6839984,-1.0320301,-0.69050556,-0.8412429,-0.70002925,-0.7217491,0.72317445,0.078232884,-1.1587822,-0.54400474,-1.4201057,0.09800293,0.18870403,4.0
Infostealer.Limitail-5c20557c1017b08146efea1a2109602a4c615e40a3c6626efa1b60307797a7c7,0.7361263,0.47813734,0.6273401,-0.7524534,-0.21784446,0.6455083,-0.47774285,-0.078321576,-0.7393924,-0.10956315,-0.93406665,0.4520834,0.35458356,0.16866183,-0.1309222,-0.4831713,0.14931184,1.2343057,4.0
Infostealer.Limitail-5c3299ca72f42975b153857df877a25cc4ea7a6050539217a9be5dfe5f05c9ee,0.94395244,0.6432774,-0.23622182,-0.07519708,0.06472174,0.48390806,-0.1638469,0.5433783,-0.5011338,-0.28675425,0.5376393,0.45393395,0.39842388,0.40233105,-0.17183316,-0.45711187,-0.29552293,0.2753746,4.0
Infostealer.Limitail-5c886d401da29e4deb3c6980c41db5fff10fba668e9472d3ca40f5185e0163e4,0.39299348,0.3101732,-0.39758688,-0.28985432,0.048065115,0.09687098,-0.31376967,-0.37713096,0.025663564,0.2558508,0.27562216,0.8973294,0.2987895,-0.38714507,0.10572281,-0.74778706,-0.04866626,-0.057174448,4.0
Infostealer.Limitail-5dea49a436b2685239f5c0d83f229edd0717201fbe579b2afbf3d169febcf520,0.8612598,0.0043217894,-0.5435891,0.1442384,-0.8394295,0.9348395,-1.1355722,-0.5770901,-1.1994885,-0.5728612,0.07011667,0.6152363,-0.09373275,-0.93386465,-0.40274298,-1.4967837,0.13997681,0.5137918,4.0
Infostealer.Limitail-5e5b40af7ed4033c03acbce2d6cf0986ea688f869059a1dd4b57184caa22ba77,0.20761141,0.28051186,-0.38126397,0.13585126,-0.097067,0.015704064,-0.17414568,-0.12916219,-0.0050053843,-0.34416297,0.022750454,0.4625822,-0.22524118,-0.23760282,-0.15328667,-0.6202717,-0.3068857,0.17886539,4.0
Infostealer.Limitail-5e8e4caf266a4cd2282e0e4dad2fdb655f363c09fd6bd284327be24c57054257,0.4026592,0.3141763,-0.19736329,-0.17498133,-0.12825207,0.08682619,-0.24933285,-0.14006618,-0.12540928,-0.19494589,-0.22315502,0.1883586,0.014144878,-0.253837,-0.1377768,-0.4023061,-0.05885973,0.17594111,4.0
Infostealer.Limitail-5efde5502939dfa58e230ee6b2bda1e783182e7f7164fa131cd5936d0e11fbc2,0.62374157,0.1841498,0.06817045,-0.4014014,-0.15759468,0.20156546,-0.01393226,-0.31969157,-0.023051795,0.3239842,0.23570624,0.034197494,0.039653663,0.2801531,-0.08138725,-0.5416436,-0.3965731,0.31943098,4.0
Infostealer.Limitail-62ed3715212b3b4153c70c9e7fcbf784045edc88d54794e520699a9a910a585b,0.15455152,-0.020676006,-0.80407965,-0.10204705,-0.4386716,0.6875935,-0.9060681,-0.39793926,-0.1581654,-0.32651988,-0.38793236,0.022010472,-0.06950722,-0.48525554,-0.92025036,-1.6412556,-0.42036834,-0.086517006,4.0
Infostealer.Limitail-64ae1e8ae71a4b909031e801c270cb765adabbfa4157a7b490d2923a73f2c3ef,0.27465242,0.264366,-0.8133205,-0.037725866,-0.36795816,-0.16124064,-0.49810058,-0.40573195,0.18164834,-0.0696545,0.07974585,0.063075796,-0.3864594,0.06910116,-0.68992734,-0.7778913,-0.28072655,0.33720872,4.0
Infostealer.Limitail-64b71f394d661f552e81c3d1041252867c98b8e23fa79cb3e2b22a13eb170387,1.5410264,0.042028613,-0.8001807,-0.015239249,-0.45060766,0.8732942,-1.3757087,-0.007010573,-0.54506636,-0.44153163,-0.7384639,-0.1781354,0.025561487,-0.72665423,-0.8973002,-1.0455679,-0.18732123,0.66278565,4.0
Infostealer.Limitail-65740d6d8792e775d70fe96591b0fc9e94b35be448411cd0e0efa4f8095e5913,0.9853972,0.80343676,-1.015117,1.2501835,0.8231084,0.8068562,0.16212028,-1.035632,-0.4045114,-0.6223507,0.6172547,-0.25001362,0.14262055,-0.18625093,0.080728024,-1.7118855,-0.03232918,-0.3406302,4.0
Infostealer.Limitail-65c77621f2bb4007f8eb4d15f25e1a9d2b2fb24abf4dbbb566a488684de47eee,0.4959469,0.8604121,0.99768025,-0.074871816,-0.28472865,0.86226654,-0.8977598,-1.2868766,-0.26018447,0.12772265,1.192603,-0.5855799,-0.061462335,-0.46696597,0.36537448,-1.0714883,-0.5313401,0.068234116,4.0
Infostealer.Limitail-66c2070fc0591dc7467d503f24868d5e92b879aaf32cdc2542b36b02e87aeb94,0.6853059,0.04244215,0.22639343,0.34302774,0.40929067,1.2030623,-0.19168365,0.36491415,-0.79455745,0.27099657,0.3024225,-0.31703612,-0.49302852,-0.7913295,-0.37945545,-1.6020554,0.7285875,0.20363481,4.0
Infostealer.Limitail-6709ce43e851a3a6eac46cdb59877f32a38355617f464d25056e4ccf7882997d,0.013970813,0.33770064,-0.15963644,-0.41016728,0.18726069,0.1405931,0.23169135,-0.3098034,-0.05700564,0.06982904,0.15780108,-0.5246111,0.17030823,-0.32075474,-0.08343442,-0.76649046,0.107196376,-0.100304924,4.0
Infostealer.Limitail-6722f4cf5507fef9394a2f600107a47f8dd1a1550b7bdef6e4324638557229aa,0.6943463,1.4906718,-0.31036797,0.009946583,-0.5816495,-0.012494315,-0.86496043,0.25620252,-0.9076594,-0.011638836,0.67734176,0.5515691,-0.410205,-2.4778626,-1.0707052,-0.7108629,-0.58918774,0.058180373,4.0
Infostealer.Limitail-67ae8a711a2567debd682f454ffb4f070e8285eef94cf74e4d83c35d60589356,0.23851612,0.3157914,-0.4106902,0.40572515,0.4152733,1.6346221,-0.83739847,-0.28453058,-0.52554923,-0.10371512,0.23021618,-0.18734427,-0.36302358,-1.1548778,-1.3082533,-1.4078634,-0.12966208,0.31125033,4.0
Infostealer.Limitail-67d1a8ba1ef2b9c0587be869cb25f66a800a64be803b7ef9efdb33e850449ac1,0.5670084,0.29993504,0.068895854,0.50417304,-0.12290734,1.2798601,-1.2383429,0.0624559,-0.5646532,-0.4402871,-0.19281308,-0.427217,-0.023643436,-1.0699037,-0.587408,-1.632507,-0.11268727,0.5182325,4.0
Infostealer.Limitail-697df8b7ed6aca08024926201a5455fcca918a25416fd7248d5b6a27671a373f,-0.05080039,1.2020801,1.216469,-0.28396282,-0.2924505,0.35922456,-0.70549273,-0.35462815,-0.3944146,-0.6644429,0.35094553,0.22217181,-0.064030126,-0.75796133,0.05728213,-1.1252108,0.29136196,0.3023793,4.0
Infostealer.Limitail-69b2fc729740225b8a380ed4242436e793fa41571df552c423951981128b0458,0.17732736,0.41526827,0.27889043,-0.06888061,-0.1960432,1.204505,-0.63298637,-0.32682893,-0.076030485,0.66525054,0.73610073,-0.10651124,-0.2193302,-0.57044613,-0.10915857,-0.7031116,-0.29573792,0.15537032,4.0
Infostealer.Limitail-69c6d9e52a292f7df360090a4099dfc516711fcb6e01b3eac060a8269e0bbd85,0.01687482,0.17023186,0.2788598,-0.5921577,0.53583664,0.5673347,-0.09712722,0.086951435,-0.115615524,-0.6702053,-0.4013503,0.19638014,-0.46939114,-0.55878365,-0.35287023,-0.8586208,-0.23998427,0.33764496,4.0
Infostealer.Limitail-6a03598d02728a6073e7bd131f24483ee4afd825a3d0a85978cc384da0857531,0.53214186,0.23089272,0.21500732,-0.16450013,0.102827266,0.51062894,-0.015456604,0.31155467,-0.4001498,-0.037288643,0.29164857,-0.55395335,-0.003849018,-0.7218423,-0.060459837,-0.7222889,-0.11949725,0.2940171,4.0
Infostealer.Limitail-6a6b2a011482a7a4a31edc3b609dfa3e1812f209712c95facb492d0c4291eb68,0.04485023,0.63005155,0.32166564,-0.62098897,0.06360548,-0.18067783,-0.17249006,0.45311266,0.19878207,-0.5434839,0.39122626,0.1734094,-0.31395176,-0.82698697,-0.115403034,-0.8859709,0.0122555895,0.22046304,4.0
Infostealer.Limitail-6b4c86b9db908217dbf5fed620edb61b26c5bb4dcd38d310c623e0382f767b2c,0.32312676,-0.029787168,0.17509645,-1.2185043,0.21259111,0.5409789,-0.08541449,0.12894556,-0.66730917,0.3551681,-0.06339645,-0.3019184,-0.2191806,-0.53300685,-0.38082072,-0.60684764,0.13010977,-0.034822874,4.0
Infostealer.Limitail-6c3ff8fc9799e04a236d02cc237904157bbb6e832b3b8037cc508c03abfbc03a,0.61320686,0.3223391,0.44259208,-0.94526136,0.49555278,0.22063677,-0.31296274,0.29079035,-0.19790624,-0.097025275,0.011954007,0.15136985,-0.017927146,0.011085514,-0.14256561,-0.7621427,-0.08267774,-0.07934701,4.0
