,0,1,2,3,4,5,6,7,8,9,10,11,12,13,14,15,16,17,18,19,20,21,22,23,LABEL
Backdoor.Graybird-009a62c6f6543ec65460d9a3984fac8dd65aba2feacfa00e8e253bb474a417e7,-0.32679102,0.68301,-0.23448823,0.084454335,-1.0057176,-0.08902458,-0.968412,1.232914,1.0990907,-1.0004958,0.7167042,0.5391805,-0.6535884,0.7775393,0.57362896,-0.3436815,-0.3146524,0.3165051,-0.36533064,-0.28977218,-1.5838592,0.27515692,-0.49206343,0.5669913,1.0
Backdoor.Graybird-02842b14fc265c045f10e2c5ab47c0b0a757c41d13a53194deb66aceb2e3993d,-0.11472147,-0.12411465,1.4670417,0.6522801,-1.5555973,0.33798036,-1.0324304,0.640612,1.0381699,0.6204655,-0.142263,0.7503261,-0.8062369,0.8257862,-0.13276163,0.17888033,0.44573107,0.20694686,-0.29673144,-0.055213597,-0.8744378,-0.42594162,-0.33976477,-0.5692195,1.0
Backdoor.Graybird-03b5962ef8b9c83fe0ed10fc4333a68462865f3a4442346c5f7d004a46555448,0.6163067,0.08725657,0.4566808,0.15684775,-0.42519632,-1.0354527,0.27018422,0.9477103,-0.9684299,-0.6322526,-0.12354104,0.3732162,-1.2450044,1.309827,-1.1115872,-0.7286534,0.76595795,0.5546772,0.26323134,0.19956413,0.07006841,0.002963482,0.28055176,-0.24661747,1.0
Backdoor.Graybird-049f53a05707c2cccd67540609368ef20f395327adb9a026267369d568f78c0a,-0.69255906,0.0069946065,0.6301348,0.33572656,-1.386928,0.43113065,-0.22004837,1.5874239,0.31926268,-0.348368,0.0037191135,0.47786167,-0.6793192,0.58890826,0.06985312,-0.07069785,0.90557545,-0.030514007,-1.2717667,0.015444697,-0.83053476,-0.065503746,-0.3066209,0.24637556,1.0
Backdoor.Graybird-05339051a960d18fafb2e5d656e36b2fa007462d9a7b2fbfcb4532b3235ac5ed,-0.5295712,0.46412992,-0.11175233,-0.5242,-0.93659085,1.1471448,-1.5198668,1.1997216,0.8920279,-0.22398387,0.1493017,0.3202327,-0.3454681,0.6982266,0.3402255,-0.1270809,0.58047193,-0.9035397,-0.3503918,-0.21742845,0.041738473,0.36859155,-0.16802408,0.107153915,1.0
Backdoor.Graybird-05bb2dcf38927dc99961deedaaff6ff120bdfd383745bac5aeb0c28340ea1010,-0.6845899,-0.32803878,0.32552767,-0.13348068,-0.5564628,0.538007,-1.771814,0.3164557,1.1323867,-0.22344239,-0.8255838,-0.17355752,0.18359925,0.48048535,0.19341645,-1.3717322,0.25242916,0.59449166,0.691663,1.1728512,-1.1825528,-0.19351737,-0.9335999,-0.23851676,1.0
Backdoor.Graybird-06ba9a22cbf334f6beeb0bc5302d3f0d6b7ad734c9ed071d6f279936a37f4687,-0.5461711,0.47483265,1.0248619,-0.42098567,-2.1361737,0.8103987,-1.4372838,0.54163885,0.09413216,0.2659922,-0.54076886,0.31285858,-0.46129474,0.6943168,-0.27513108,-0.27496544,0.68264943,-0.04980105,0.7183446,0.17916557,-0.027003571,-0.44660017,0.700819,-0.2549909,1.0
Backdoor.Graybird-07adf0e72d58706d13117578493d64cc085811d7454fd598a805aa818a445f09,-1.1123749,0.4347925,0.1836319,-0.08435859,-1.2567296,1.1811597,-1.127217,0.20534997,0.4717208,0.20543882,-0.5992396,-0.1155096,0.13344039,0.4065277,-0.067366,-1.2192115,0.2204765,0.18989496,0.64506257,0.29862988,-0.13105497,-0.6068777,-1.685169,0.41080162,1.0
Backdoor.Graybird-0814e28a9bbff170fb9257df3ad5cf8a27287f7c9001f15ea6a683c05e72095c,-0.78169614,0.5883447,-0.15664583,0.51859206,-1.41705,-0.049434442,-1.0168577,0.49534836,0.23660362,-0.24489589,-1.3819102,-0.2541298,-1.0814776,1.2109178,0.4397476,-1.3301657,0.95044786,-0.7065189,-0.16477254,-0.48611206,-0.23344357,0.28636566,-0.4592995,-0.43453005,1.0
Backdoor.Graybird-08c34b0421ec2fd129554058eb0e19111b167fdeee45c3c51252c4ace128e70e,-0.74523336,0.39515442,0.20599529,0.36444378,-0.8071407,0.2784454,-1.4884014,0.39384693,0.3337014,0.15728307,0.27453944,0.4713603,-1.3147136,0.35205123,0.7231078,-0.600926,-0.41768232,0.4613792,0.0809009,-0.22613099,-1.7048296,1.0609541,-0.6131188,0.09837155,1.0
Backdoor.Graybird-08c383b4ffb8ed9df7a17296ae0c1798d7f4b769f188d5eef55c77bb79dcd432,-0.68129283,0.4008454,0.9400275,-0.31688124,-1.6971749,0.49846742,-1.6388379,-0.071488485,-0.20549019,-0.47289157,-0.44400278,0.83314043,0.70480126,0.60740745,0.57166564,-0.41606653,-0.61935055,-0.13952173,0.11111786,-0.00043433037,-0.87514985,-0.68714905,-0.39232773,0.049619112,1.0
Backdoor.Graybird-08cadbda2bd111540dc25897982bc801f681dc16e0eba323973e193712332ef3,-0.46475434,0.69169456,0.21596533,0.34581456,-0.87458026,0.7800916,-1.3183416,0.38058627,-0.46290872,-0.5025578,-0.63338125,0.4527155,0.6665741,-0.57065123,-0.53460306,-1.3205354,-0.2218249,-0.02360673,0.12775865,0.29818648,-0.06930525,0.28043595,-0.021490106,0.67852813,1.0
Backdoor.Graybird-0904d313bde15d4656a630055d025d6a289de46fc2369597deb20d51da0ccd57,0.17792343,1.1768619,-0.54161566,0.11067293,-1.0268571,-0.5253316,-0.5923012,0.39554977,-0.06771109,-0.68678796,-0.23373677,0.39174753,0.1164585,-0.21728253,-1.2002773,-1.1107522,1.0442711,-0.77098495,-0.04299747,-0.48500586,-0.07294704,0.12159955,-0.42486304,0.31195265,1.0
Backdoor.Graybird-095879f4cafe44bf45530fa8b6999d7361bdac2f041fc3c4e7afc1d80cbe914b,-0.71429133,0.93470836,0.120937474,0.19956,-1.8960525,0.39950135,-0.74982834,0.09120008,0.52326876,-0.5109439,0.4530102,0.89305305,0.107523195,0.22491919,0.09577301,-0.74435943,0.55880165,0.08375987,-1.0661128,0.36808634,-1.4995807,0.24357498,-0.10902141,0.032121055,1.0
Backdoor.Graybird-09a45409e39fb3077d1e7fea751027d152dfa6d9bd30829749ff4ec5caecdfb2,-0.63967377,0.7616292,1.095092,-0.38017216,-1.6550244,0.12818344,-0.732943,0.21684247,-0.19091335,0.40602866,-0.16065261,0.5410604,0.33467445,-0.2958561,-0.0422593,-0.90683514,-0.91224796,0.00772293,0.501362,0.47584113,-0.68263,-0.052416716,-0.47256377,0.064684436,1.0
Backdoor.Graybird-0a1311fceceea990bf446f7afa4fedcc6b7f8780afd4a6c87a31949818f87cea,0.60056627,0.92617124,0.42481598,0.5063692,-0.62487286,-0.051791504,-0.43750483,0.0040130313,-1.0581534,-0.11814891,-0.6950411,0.88106024,-0.533548,0.61922,-1.1586958,-0.71355236,0.38023922,0.31231466,0.43152317,0.067393824,-0.28029922,-0.49648464,-0.6498917,0.2381672,1.0
Backdoor.Graybird-0ded1dc774b46d985a4e90a46f5d56a0047630d7a6e8df439870f7bb40b57a14,0.03116193,0.099284634,-0.06373446,0.469925,-1.7918428,0.47343615,-1.2869064,0.8103887,0.1926259,-0.019646632,-0.055687737,1.2303534,-0.2191014,1.181323,0.064078234,-0.4749739,0.08835145,0.08178756,0.43277672,-0.08576467,0.090409115,-0.8702171,-0.3588111,0.09618445,1.0
Backdoor.Graybird-0e4b24dfaad406b918efb40923889150f139511f43c56e34deac187d950ce03f,0.17856228,0.25709257,0.2834362,1.1401151,-1.3342204,-0.022289405,-1.1038244,0.18608682,0.53692675,-0.030708982,-0.702735,0.3318507,-1.0487492,0.63444525,-0.24649052,-0.8077815,0.7922173,-0.16191734,0.010387052,0.4893451,-0.50611645,0.480078,-1.1402005,-0.14599416,1.0
Backdoor.Graybird-0e9e218c49e56ec187e145db72a72726d50ae295f08b4bf344f19e13de603ba2,0.3692077,-0.08888583,0.7171033,0.0972688,-1.3799887,0.2997286,-1.6243136,0.5643646,1.4964788,-0.12426817,-0.046983458,0.5885922,-0.10319573,0.37525722,0.18061146,-0.41255513,0.2784851,0.4682288,0.43102217,0.27117595,-0.25639555,-0.12565713,-1.7269803,-0.054377574,1.0
Backdoor.Graybird-0eec1cf54f4696068a4411a96e8deb728f734fac856440cb5175b1204d1dd137,0.0529353,0.3331343,0.8949445,-0.52456,-1.098086,1.001442,-1.0201185,0.5216109,0.91001654,0.21686849,-0.6189114,0.6714349,0.17598222,1.3806121,0.29896703,-0.4525471,-0.00048423954,0.15367801,-0.20420803,0.43090263,-0.3073483,-0.6988427,-1.5723349,0.6336087,1.0
Backdoor.Graybird-10672ba06f9cceb9fb651a6338f13de953b8a97d9d5164acd08456fb7a974b69,-0.48969853,0.7658135,0.7937656,-0.100511424,-1.226168,0.80150026,-0.18961713,0.5970612,1.737643,0.40490153,0.58751535,0.59604746,-0.42629096,0.5496383,-0.07476297,-0.08738602,-0.0108529115,-0.27967548,-0.27688786,0.04415772,-0.8499488,0.13895418,-0.029034637,0.5925922,1.0
Backdoor.Graybird-1078ebc75c7612450f362dc2e480699e1e6f21473898effad033a32e4e47d5ed,-0.03071069,0.19864762,0.44596565,-0.78191984,-1.9779515,0.7213383,-0.6439753,0.35792682,0.18021119,0.28954765,-0.6944916,0.78667843,-0.23267542,0.080928765,0.35275355,-0.579003,-0.85386103,0.4078575,0.28167802,0.4720992,-0.8094288,0.12448908,-0.8901314,-0.08351382,1.0
Backdoor.Graybird-1203e135f7e763fee8490a3e11c091a2a7617dc3e486d2bbe6ac81a32bc931be,-0.1928918,0.50922143,1.3341031,-0.5343086,-0.88607174,0.49189252,-1.1380523,-0.20388806,0.03126822,0.25344422,-0.32406282,0.57557493,-0.3677418,0.12859802,0.27648315,-0.4317651,0.19946246,0.014578264,0.6416983,0.8941337,-0.583117,0.7290128,-0.83801085,-0.6822202,1.0
Backdoor.Graybird-12efad6f7e8313a41ffc7a49cdd612243712922f8d7947141e366574279077b3,-0.14017232,0.60790396,1.3234427,-0.40002033,-1.5459703,0.68921685,-1.3751665,0.028913883,0.062864095,-0.5065668,-0.28283054,0.56959045,0.46403682,0.88673675,0.9034045,-0.49111807,-0.64454025,0.065409265,-0.074133806,-0.21135208,-0.56310874,-0.4709407,-0.844182,0.3107971,1.0
Backdoor.Graybird-12f4f6331583edc2599a31940233f76e950dee226f92573abf7ad0bad10cb2c7,0.48434785,0.7081825,0.85202086,-0.079942144,-1.3199533,0.6174261,-0.97467184,-0.4604397,0.030014731,-0.6369671,0.03969774,0.3886671,-0.2366119,0.11703239,0.7031959,-0.53103566,0.046145547,-0.22299007,0.72792345,0.76148003,-1.4190475,0.39217964,-1.5644553,0.18028113,1.0
Backdoor.Graybird-143c25c7cc08038a40638df3cd01232232baed4a9469f356efc615b5041c794a,-0.092679605,0.47398975,0.61127996,-0.6433793,-0.5811372,0.264631,-0.9921473,0.116716646,1.0079893,-0.47594586,0.542292,0.75473905,0.23836616,1.3222408,0.5613906,-0.50351495,-0.25212818,0.48516786,0.44396767,1.1758038,-0.198537,0.08321128,-1.5741614,0.6049698,1.0
Backdoor.Graybird-14818f4633cc87ac1b11b53895daa6cbc595065596c7ea86f807fb1a1ad79b72,-0.011616801,0.25068548,2.1126735,-0.4878111,-2.003024,0.25463724,-0.8336083,0.82422584,0.7959135,-0.20320293,0.62444705,0.6827279,0.3865001,0.48281065,0.52007186,-0.53862745,0.3453207,-0.07216978,0.6449305,0.8852554,0.66000307,0.2849206,0.4239282,0.35435295,1.0
Backdoor.Graybird-152a87566246d7b100a299d29e34ce080c52e714e0c2883b904d85c1144de18d,0.8026023,0.3617879,1.3910342,-0.8920971,-1.5610435,0.09651193,-0.17115894,0.81357616,0.49591595,-0.7118585,0.8023104,0.89027214,0.27138123,-0.08010349,0.7643216,-0.556307,-0.5515886,-0.098170176,1.0132109,0.90637064,0.09280332,-0.10428314,-0.10366569,0.26783982,1.0
Backdoor.Graybird-16274674297d97fdb7c53027a4e6facd681428961e31bc85dfff497056b071a4,-0.101847775,-0.65539986,0.43027318,-0.23909014,-0.6680704,-0.15105097,-0.9111891,0.98012596,1.1305922,-0.27494895,0.34608328,0.4686542,0.016250549,1.1425141,0.81974167,-1.1304826,-0.16629796,0.50522846,0.7282012,0.93865746,-0.6375837,-0.7616861,-1.1743034,0.5830804,1.0
Backdoor.Graybird-16648fd7040db9b96d76e5f70711e8c62721035832f7b87594d62b0dd9b865ea,-0.25916266,-0.8066124,0.4851567,-0.6742454,-1.8612233,0.16187117,-0.45907316,0.99017286,0.35842153,-0.3178996,0.1373101,0.11126379,0.6975667,0.32167608,0.57539773,-0.771237,-1.2253516,-0.28459647,0.22946891,0.6878555,-0.91930354,-0.6677727,-0.29471856,0.00026477396,1.0
Backdoor.Graybird-16ce6a8444870c762676cc776860c1ff7daa2a2dc76abd29136a36d6538bba8a,-0.18595123,-0.61081403,0.8146871,-0.2935069,-0.8271898,-0.16461281,-0.93732023,0.9072572,0.027784558,-0.16949956,-0.3136555,0.37419957,-0.29019073,0.030228043,1.1423641,-0.43879014,-0.60618097,-0.09359225,0.78491783,0.7134455,-1.0439478,0.7483251,-0.42033166,-0.6807719,1.0
Backdoor.Graybird-16dc33ad95a90a03f9489182cf6061392a79cbaf96cceb87bd3c6c664daff4a3,0.56830645,-0.2829894,1.072198,0.39160264,-1.3146827,-0.44069153,-1.0784371,0.9422523,0.68987995,-0.5276254,-0.070265226,0.45707136,0.18232518,0.16911905,0.21519578,-0.64635944,-0.7140062,0.4622278,0.41882008,1.0637288,-0.835897,0.24271688,0.19509642,-0.054737147,1.0
Backdoor.Graybird-16dc7da8aef050616f3d99fd34b3f0410ce6a38f5a61c9ebc8e86e87195c4be3,-0.22290018,-0.35228902,1.161368,-0.47358435,-1.2052656,-0.47761917,-0.7598508,0.53019696,0.001667541,-0.13716775,0.3549051,0.80383974,0.8267549,0.3945088,0.3618753,-0.14361157,-0.9335796,0.15837008,0.070745386,0.41716036,-0.6709473,-0.38104534,-0.31471908,-0.44576666,1.0
Backdoor.Graybird-1966b6b19ef74c24f458b6477ccb7e8c8427df6d65ea4dc5e0bffb811fbba2d7,-0.34350815,0.24726135,-0.10279448,-0.047550198,-1.762815,0.34947667,-1.3496816,1.0816746,0.85146993,-0.5359507,0.8310901,0.7343651,0.4528486,0.38981906,0.15868293,-0.20225061,-0.14628698,-0.013957518,-0.2926258,-0.587895,-1.3156921,-0.32827342,-0.14073627,0.90382487,1.0
Backdoor.Graybird-1c7dfb9affef8bef118a41d36e3e8c413f3076918a8821efeb3721af52ee5c52,-0.62693274,0.08799869,-0.08198077,0.057113927,-1.7012653,0.48460072,-0.92326796,-0.011766533,0.63226664,-0.14939918,0.56164753,0.7368677,0.24277367,0.9022925,0.71331036,-1.5186505,0.2791091,-0.08205899,0.1819391,0.8938288,0.11403008,0.46201134,0.73774093,-0.18843783,1.0
Backdoor.Graybird-1cb523870e23e55d0d36af5a2e10472ac25390d3838c52c35b1106034132aad5,-0.38491458,-0.8074518,1.3378602,-0.007513962,-1.8330259,0.16715726,-0.90829545,1.0451702,-0.07265636,0.7144965,-0.20194623,1.0357939,0.46982938,-0.16066274,0.49799705,-0.04711482,0.0023757843,0.1286548,-0.022739023,0.29158393,-1.312673,-0.10110105,-0.37571132,-0.5052506,1.0
Backdoor.Graybird-1d17564930dc9cfdb8bf4483ba9763d17dd3f549facfdbe21ad18447663adedd,-0.47964343,0.104243554,0.7905046,-0.7160718,-1.2399932,0.86911726,-1.3290737,0.3638823,-0.15464136,-0.13878459,-0.7092381,0.78460395,0.47376803,0.56076413,0.72619134,-0.2976059,-0.19119303,-0.051221974,-0.1712145,-0.109946795,-1.5584481,-0.8429906,-0.74273473,-0.24483466,1.0
Backdoor.Graybird-1d2b95795f54a30db2241b441843c8baa1319704e0bd48f022ac919e71899787,-0.6202479,-0.3431894,-0.018001873,0.23394483,-1.1518631,0.22203287,-0.701589,0.5027476,1.0745736,-0.6130593,-0.10770667,1.0592886,-0.4391769,0.09602923,1.000599,-0.7733132,1.1656063,0.8327976,-0.5237232,0.19959354,-0.91432434,0.560975,0.43333593,0.29116172,1.0
Backdoor.Graybird-1f987748aa836fcff784691f0f5195eaed0187c12906f016b7bbad1f9b10d20a,0.06713402,0.21328832,1.2501966,-0.45104456,-1.4003483,0.98297364,-0.27230373,0.37638214,0.38397267,-0.28315458,0.20022559,0.9021943,0.4923598,0.4061909,0.82047284,-0.68622965,0.5071842,-0.02016768,0.15486068,1.0889837,0.0012782275,-0.042829096,-0.01817297,0.85011756,1.0
Backdoor.Graybird-1fe3c46136004caa9f4598dbd12db50b539bc0e44de422870a0150ccdf6c4297,-0.32953873,0.17914796,1.2195712,-0.27638736,-1.4760761,0.9490139,-0.98357946,0.24632706,-0.12591128,-0.38683048,-0.52368546,0.41230756,0.6318763,0.89101315,0.68000436,-0.10945781,-0.44529784,0.08866845,0.029578036,-0.37947503,-0.93140155,-0.8996786,-0.5897279,0.045509104,1.0
Backdoor.Graybird-201267f2b8c394b866ce09e16997ce04701a0bdaa1f5651e81d1675af4a567a6,0.2784887,0.2022579,1.0071527,-0.024954304,-1.5620573,0.029757703,-0.6651079,-0.009853648,-0.053359415,-0.8114777,0.24450588,0.015981868,-0.14746644,0.18268627,1.0103697,-0.46690938,0.2612383,-0.052338816,1.0163524,1.0660533,-1.5263643,0.8356257,-1.13115,0.0039012122,1.0
Backdoor.Graybird-20459a8ebc99703a2171b85dc321c41ccb8fdd67b606ac75c890156db25d67e2,-0.30640638,0.90588313,0.39344135,-0.018507378,-1.8426781,0.25139073,-0.7885937,0.4317,0.72630113,-0.32773682,0.8045208,1.2801634,0.12267289,0.20059858,0.1778116,-0.6326209,0.2756901,0.45366558,-0.8005948,0.14882368,-1.4687773,0.26278195,0.32882908,0.26110244,1.0
Backdoor.Graybird-21f994f2239ccaaddf25e98859f58e609dbc589127160c943dd884506d0f1e95,-0.75133514,-0.3119685,0.05789002,-0.35883322,-1.6339446,0.3979143,-1.6713006,-0.2568425,0.8869859,0.07014657,0.09170081,0.8189478,0.6111062,0.5372038,0.43089467,-0.79297566,0.036181677,0.111385755,0.39661467,1.0134524,-1.2013897,0.06734285,0.018655589,0.92797107,1.0
Backdoor.Graybird-22772293d3a3b20b3610ae1c06ab72da41745c57356905855180b45c5d43ae96,0.085327834,-0.17947918,1.3394027,0.20328555,-1.8607271,-0.19297196,-0.829602,0.6253931,-0.28542814,0.33282277,-0.15794781,0.8138197,0.14862703,0.7022993,0.51755124,-0.31994548,-0.4646588,0.58707213,-0.3085762,0.32508308,-0.62252957,0.35470375,-0.35225636,-0.5441693,1.0
Backdoor.Graybird-22c98fc9dac84f509083a90a332517ead8eb265fc53ddb1d16e5cfd0dab0ebe1,-0.24003395,-0.19008225,0.31869876,0.49417135,-1.1278038,0.109426774,-1.1924845,0.6866655,0.3230882,0.41600835,-0.82140046,0.31614652,-0.51618063,0.059640005,0.39835334,-0.53349996,-0.10698904,0.6015727,-0.017003108,-0.07822724,-1.7109164,1.0584782,-0.32976025,-0.07131985,1.0
Backdoor.Graybird-23259ea20d4f481cdc1bf58894f6280ddbe3fc56d7bfbaaf11bafdf4840f8c2c,-1.2407494,-0.91403,-0.39797243,-0.9729826,-0.4611515,0.28415847,-0.24462408,0.19842365,-0.44686446,-0.12113526,-0.15643951,-0.4685625,0.61518073,0.9252451,-0.5507166,0.22832572,0.52785414,0.44664043,-0.20121934,-0.231554,-0.7374461,0.6557208,0.17244151,0.2510058,1.0
Backdoor.Graybird-2486e00f3531d89506d2a87525b723d2508b4b8c0040824956aeca41b97d17d7,-0.46075457,0.04045033,0.07900528,-0.036429524,-1.2490556,0.75011337,-0.5426219,0.42068785,0.9733265,0.14215702,0.41593868,1.161223,0.50082064,0.43059435,0.91548413,-0.58715147,0.7203281,0.052033357,-0.074743204,0.61357796,-0.39964783,0.6993256,0.30966532,-0.017309105,1.0
Backdoor.Graybird-2565563f99f161ad465a603000f5a2440b83b12413930bac01d20c6d3924f79e,-0.6337644,0.6112627,-0.2375474,0.10887999,-1.4840536,1.125527,-0.0038075342,1.0477048,0.37218523,-0.49648678,0.2866924,0.8759006,0.2020854,-0.16465366,0.8787958,-0.9732783,0.42577475,0.54687375,-0.61304384,-0.39860284,-1.4043099,-0.22874223,0.6238722,0.11229203,1.0
Backdoor.Graybird-272ea0be5ed16c1b6a1d0149a85107e382cf7dab94eb40fb49ec17acd3c00b0b,-0.82067907,0.42101225,0.1733501,0.04044462,-0.9171609,0.7389649,-0.912517,0.37105563,0.767851,-0.21675621,0.13597366,1.4796897,-0.3695903,0.6432666,1.1228647,-0.72930616,0.5167887,0.014693315,0.19407305,-0.03853429,0.023616008,0.76597315,0.9641855,-0.02207141,1.0
Backdoor.Graybird-27c0a52403d572f0ee5abc626a7f5cd834ed6a5b7eeebeadc848a5cc091eb5d1,-0.20941003,0.08095128,0.13657282,0.11798997,-1.0336992,0.48566312,-0.08782536,0.9030316,0.8990161,-0.52277786,-0.4969962,0.062495667,-0.8477602,0.09315134,0.99670875,-0.36075598,1.0171037,0.6270495,-0.3248598,-1.0593586,-0.7264163,0.36672667,-0.62054765,-0.54528314,1.0
Backdoor.Graybird-27d4f0a222bbb2285e395dcbed061a6eeb91a69d6c8cab8c98fd1ffb244c699a,-1.0745068,0.012764374,-0.018894382,0.19195457,-1.3537445,0.1337977,-0.49355367,0.51912516,0.4046758,-0.07490405,-0.6372447,0.84987116,-0.5007727,0.4617364,0.51520133,-0.7354152,1.1934843,0.79833484,0.34629595,0.37681192,-0.41220525,-0.081541985,-0.058114823,-0.30576766,1.0
Backdoor.Graybird-2821c9781c0351109c2a8b9633972e2c71f46371b648d2103c2741f560b60a1b,0.19774775,0.050710402,0.42370713,-0.10912871,-1.027701,-0.2418108,-1.1432732,0.7716865,-0.24611491,-0.35662684,-0.55833507,-0.07575881,-0.30507123,0.76916087,1.0821816,-0.47898263,-0.11337738,0.13389005,0.93600434,0.49532425,-1.233895,0.25744015,-0.76053435,-0.941214,1.0
Backdoor.Graybird-2860ba35f778ed52b8487fe93a77c05a2d49222ba8f6cb81877c1779d13c1f4a,-0.23523788,0.17617103,-0.31508523,0.17139153,-0.8194531,0.5770073,-0.67130536,0.51167536,0.83782333,-0.54211235,0.012718842,1.2430923,-0.37290075,0.62932765,0.38027737,-0.41678995,0.03377013,0.11595765,0.37949154,0.68089634,-0.2258194,-0.17679802,-0.63448095,-0.1307924,1.0
Backdoor.Graybird-2a1858cfa17d4f07292362a2719d61c97a487d29a5adf45d8e8b32f3252331a2,-0.10485589,1.1587341,-0.8655641,-0.162771,-0.34085402,0.7839585,-0.67856365,0.67084086,0.36149663,-0.40240213,0.117208816,1.0005387,0.6102209,0.5249362,0.7763932,-1.157674,0.15913098,0.09726427,0.4114349,0.3801509,-1.0204452,-0.32611907,-0.7656837,-0.7341393,1.0
Backdoor.Graybird-2a7c74a91f4b6f4ed632d97fc3ee8835a7a615cb15dbf6ecbb96526d06f64db6,0.23097073,-0.2238681,-0.46180138,0.2249483,0.3581335,-0.05832987,-0.005809149,1.290661,-0.19519515,-0.13917147,-0.34737962,0.53042555,-0.6419578,1.1187878,-1.2168072,-0.9844015,0.940382,0.594772,-0.2210182,-0.31720313,-0.22466363,-0.6972005,-0.06490257,-0.0033430492,1.0
Backdoor.Graybird-2b470ddd183ec9f15d7cef2e1f2daf7243e1deef16fb6e74cb75b67c5d25df18,-0.46178463,0.41105545,0.5522208,0.7681667,-0.6100846,0.41177583,-1.2124505,1.1084358,0.064696446,1.2150635,-0.33061448,0.59888685,-0.9050042,0.63096714,-0.09744111,-0.73072016,0.44395378,0.49075398,0.22753383,-0.038411368,-1.4055467,-0.29051456,-1.1227121,0.44816202,1.0
Backdoor.Graybird-2ca870cb512099a0df67fefee9eb2bf8fd53cc078919852144d6cbff26456347,-1.2352791,0.25874677,-0.032747895,-0.21553253,-1.2001474,0.30823007,-0.7104161,0.50302446,1.0733364,0.04610034,-0.5598033,0.98462,-0.2201502,1.0110964,0.8068633,-0.46853772,0.6314395,0.46622548,0.060556944,-0.13206507,-1.0002238,0.17779924,0.76372504,0.28542337,1.0
Backdoor.Graybird-2ec9be730d82cf10af338e7f25781006744b9dda9c9ff484acfd2de501b05e24,-0.6227651,-0.16847794,0.7544216,0.50770026,-0.6787976,0.35486174,-0.8904629,0.43076134,1.0107739,0.5287919,-0.81838226,0.27652404,-0.36537448,0.53228116,0.50204474,-1.2379336,0.13186044,0.04777216,0.814447,-0.105871685,-0.29211238,-0.6849686,-1.5617589,0.6978573,1.0
Backdoor.Graybird-31e4807b0f375d8f919a3037f2764686a46d2e41bd957f8edd8f771621a3e53f,-0.16470566,-0.07900029,-0.08912972,0.06886859,-0.712371,0.78188705,-1.5673474,0.25749597,1.4032918,0.3777243,-0.22533838,0.0007994919,-0.08371928,0.78353727,0.36903906,-1.4149002,0.5641962,0.066213086,1.1154006,0.06330925,0.17746434,-0.32511497,-1.5375086,0.5068285,1.0
Backdoor.Graybird-32cbc565918830a83537aef008c3587ea24d2172c7ed3563ac2f4a7506a7a00d,-0.4863958,-0.23655272,0.3971223,0.4295772,-0.83828986,0.9069571,-1.1783462,0.52293503,1.4819528,-0.37314996,-0.90295935,0.39963326,0.14573115,0.41195038,0.3997448,-0.93019015,0.39665946,0.2395352,0.87318206,0.93921715,-0.0786017,0.009949104,-0.1786186,0.86230844,1.0
Backdoor.Graybird-33e8337aad51e26cebf92f17cdc0c3ffa5ed55c74de4e7cd5b92db2d75e15339,0.49465263,-0.25896287,0.21972385,0.1943016,-0.5104751,-0.3127382,-0.19487894,-0.015783144,-0.74016255,0.4636398,-0.8767555,0.32033408,-0.30543986,0.03340622,-0.5741355,-1.2433012,0.14492482,0.3833234,1.0201474,0.2195045,-0.39379567,-0.46810353,-0.9386859,0.4666403,1.0
Backdoor.Graybird-340c5cae28749592b0ea9453bd4f7d109b2fe2c8a03041e5da9961a7339eaa34,-0.5602404,-0.04621695,0.66992277,0.31186655,-1.1788352,0.102340914,-1.246025,0.1568916,0.64397115,0.1563853,-0.4041919,0.53513116,0.4410594,0.94285876,0.6037004,-0.9135226,-0.09688722,-0.075786926,1.0774719,0.5020886,-0.3282665,-0.66044855,-1.2404835,0.5870415,1.0
Backdoor.Graybird-3472255f40fa8003a08d8c641d9d2c5d0f749bf4c0420fc9a22040103a97c35b,0.45451245,0.18288948,1.263687,0.6843008,-0.9921778,-0.48555332,-0.80141383,0.17437312,0.09255059,0.44628492,-0.49238908,0.5332641,0.28722996,0.1883996,-0.06110156,-0.9886431,-0.95360315,0.20672396,0.67649376,0.9794972,-0.9753275,0.25489178,-0.600578,0.46579272,1.0
Backdoor.Graybird-3473cb362c74478f5f8d200d068fbf1806d2dca138264e942574fb7abd324b42,-0.41524315,0.27731928,-0.04520409,0.049515676,-0.90018135,0.63872814,-0.6000228,0.18224637,1.1280146,0.4279516,0.62886107,1.3351821,0.015338815,0.8278933,1.3065352,-1.0188204,0.7833604,0.19819927,0.7078571,0.43067172,-0.807161,0.37192488,0.32633647,0.62021637,1.0
Backdoor.Graybird-349a9ef306724d4e0a569074528204ac93186fc10679de7c0fd4117b7e674adf,-0.55988514,0.13220212,1.0986196,1.104087,-0.74680704,0.34572446,-0.7718927,0.97981435,0.7326594,0.051172435,-0.3549696,0.6494858,0.17902273,0.97482073,1.0389203,-0.83917826,0.21236539,0.14164332,0.85313165,1.0162644,-0.24555354,0.116250835,-1.4290051,-0.46442723,1.0
Backdoor.Graybird-34cb2e3660a417e83f902c990f20b3d0efa6e84ad20a7c769f2944cc333bc47b,-0.58409065,-0.015630694,0.09151759,0.38480353,-0.63648695,0.8573409,-0.8793914,1.0542418,1.285313,-0.60553217,-0.57670283,0.23457219,0.9102788,0.3150305,0.5881415,-1.5227809,-0.15878591,0.9170675,0.8389759,0.77086264,0.16468658,0.27774844,-0.07748956,0.54658645,1.0
Backdoor.Graybird-3512ae0eba2c3f6e4e6195c0e1bd70b9a9e3b3d7708f403ed4b5e281e4a1a120,0.40360937,0.962367,0.98948187,0.2681812,-1.0204854,-0.24533029,-0.061825033,0.9441797,-0.48469263,0.3865999,-0.4747381,0.8134433,0.15066144,0.8388811,0.4445005,-0.55950284,0.36141053,0.56659883,1.0466392,0.696357,-0.22400135,0.019359529,-0.237025,0.51169014,1.0
Backdoor.Graybird-35808e06d5ab73341611da612e9a37252f07f2bc7801725569ebb49895f59a05,-0.14740044,-0.2990972,1.403476,0.22500245,-0.2749138,-0.4258117,-0.15501913,-0.38337412,-1.6892911,-0.077723496,-0.7807167,0.78293777,-0.7238202,0.66772974,0.43108577,-0.9615321,0.13210484,0.2260463,0.5047146,-0.32452324,-0.32863906,-0.3515861,-0.37248772,0.41624457,1.0
Backdoor.Graybird-365bea068bcb7c92f0dbf6868e8e6ac2d49feaae2d6464a4fbf9d4dc28ea4189,-0.57181114,-0.40517184,1.4244359,-0.39304972,-1.4527112,-0.04504252,-0.82675207,0.92887574,0.24653363,0.5112718,-0.29980734,0.47267464,0.09928139,0.5084422,0.5533638,0.042549144,-0.2721115,0.44573677,0.83899134,0.14436814,-0.0963783,0.26913178,-0.71415615,0.16014734,1.0
Backdoor.Graybird-3796ba03a70668fe9a40cd399da7963d6dded9136682059f1443d5b493d37a83,-0.1398525,-0.3402186,0.89904666,-0.3395725,-1.870376,-0.059400916,-0.4910775,0.73684734,-0.08981334,-0.17259097,-0.8062357,0.14506339,0.63959455,0.5985055,0.9319663,-0.5642287,-0.8167711,-0.07545086,0.08922926,-0.43906215,-0.54451877,-0.60476476,-1.227683,0.19590913,1.0
Backdoor.Graybird-3799f857d04896d9155038342c96e32490cab5ce67ddf33dab263184d95ea41b,0.29009032,-0.33850527,0.799076,0.028451858,-1.2943256,-0.28370324,-0.9196704,0.15483299,1.235422,0.20742562,-0.59571546,0.766837,0.6222584,0.92671597,0.35288557,-0.8597999,-0.4948487,0.24105214,1.1588185,0.7985931,-0.51662576,-0.27392116,-1.5649235,0.96087396,1.0
Backdoor.Graybird-3920bdcebc14233421ec142268749c0cc1358bba2af6e2e561ce3ac346db2d8e,0.0764573,-0.24426682,0.5361528,0.33416703,-1.0547588,0.5338456,-0.76858115,0.75516677,0.8399401,0.62175727,-1.0810778,0.028589416,-0.19103251,0.50093794,0.7139227,-1.026532,0.18544717,-0.18229133,0.9456431,0.02941106,-0.5291066,-0.37718165,-1.6505563,-0.033407647,1.0
Backdoor.Graybird-3a81fabef97e62aaefc48fa799a00c00d531afda4d49a58e90161dfef215d056,-0.024790945,0.28451663,0.6843194,-0.18288705,-1.3433722,0.029884417,0.72017956,1.4918282,0.82223743,0.28544042,-0.7436179,0.5550646,0.33510664,1.0986152,0.0029115696,0.7371829,0.3356406,-0.06342543,-0.50104487,-0.01705113,-1.2241038,0.062699646,-0.24093823,0.2719216,1.0
Backdoor.Graybird-3ac9b0f65d3a26c5fe28cad9856d7119d2088f7cab78c37aa12348ea3b3bc000,-0.47610718,0.2734245,0.99578696,-0.2698403,-1.8562882,0.77425313,-1.6192867,0.44008696,0.28151208,0.24686968,-0.9264818,0.6042604,-0.3118128,-0.052825145,0.019385979,-0.65304345,0.2275131,0.3373218,0.48489296,0.31625137,-0.07439214,0.028624175,0.54862756,-0.5309962,1.0
Backdoor.Graybird-3b6230033969a93587fc1d795bd800de9478b437d400bfaa3a1fd7ab0b082102,-0.90837467,0.4143677,0.24709354,0.13125147,-1.3752788,0.2677778,-0.7023202,0.3012662,0.30123037,0.6589536,-0.9127367,0.73484755,-0.23144227,0.44017386,0.29655036,-0.95940137,-0.03134457,-0.39800954,0.14216262,0.42929405,-0.8602423,-0.29534823,-1.1689898,0.39973924,1.0
Backdoor.Graybird-3bd529df6d6af1c83eca9ff3fd494825f98908773b73ab6023b2d08e30fc9141,-0.3156773,-0.024171421,0.82843125,-0.30772078,-0.922012,0.60349613,-1.2219545,0.9699902,0.5607358,-0.68679816,-0.2238947,-0.082910635,0.34282497,0.37561187,0.8201196,-1.4139364,0.33271638,1.1148136,0.8224417,0.7446188,0.1346158,-0.26665574,-0.45404488,0.73342234,1.0
Backdoor.Graybird-3d4c37580fcfcd3162538e57ebfd65f89caf379c9158dba626690d2ac7a24154,-0.21819022,0.7126458,0.68945664,-0.2597974,-1.5665556,0.59093755,-1.4267533,0.27401978,-0.49751124,-0.7075889,-0.0035002828,0.26883504,0.25172758,0.9152658,0.3139376,-0.39455295,-0.22727816,0.37150446,-0.15523444,-0.29188997,-0.77033365,-0.5130272,-0.521479,-0.08011242,1.0
Backdoor.Graybird-3f40d1874219ac8f6ba08b587a9547da773b0356b58e4d40f584b595740fa7a4,-0.18506406,-0.13157846,0.2615281,0.64400566,-0.8831956,0.17361426,-1.3621645,0.10114139,0.5216953,-0.820887,-0.09936141,0.9329248,0.05507203,0.6150592,1.1690824,-1.3125749,-0.106343865,0.5684632,0.42152286,0.6904509,-0.477535,0.2049902,-0.98028225,0.81067836,1.0
Backdoor.Graybird-3f4164fb248bf610709ce9546b2e1a2463d08270db94dbd7b8e42d16023a71b0,-0.52872384,0.29073948,0.444757,0.28796548,-1.4378273,0.53177494,-0.99340427,0.09056935,0.99250734,-0.4790045,-0.76271313,0.626458,0.14094475,0.05473896,0.44666317,-0.92290926,-0.3052167,-0.39854077,0.70044994,0.6847467,-0.77240133,-0.18901522,-1.8242174,0.44302526,1.0
Backdoor.Graybird-3fb1f955c5fedc93b423be002cde34a6436194ec36974c890a015566749cbfc9,-1.3056105,0.34735668,-0.0559896,-0.18802908,-1.2135483,0.22816409,-0.49457532,0.59198713,1.1955061,-0.12911415,-0.6361146,1.0691658,-0.33876103,0.698173,0.8283312,-0.49907103,0.71947825,0.23799136,0.08277793,-0.06763226,-1.0752063,0.09158617,0.77925366,0.30249482,1.0
Backdoor.Graybird-4038529ffe618fbca7b702da5a4588bf4f827bfe34e22bedebc16bea8ac5cd5b,-0.62600315,0.879282,0.11214003,0.99207443,-0.71202844,0.035375465,0.12744243,-0.21266557,-0.112230405,-0.048297167,-0.20571543,0.7685488,0.05621749,0.9365955,0.26369682,-0.63599914,0.6837795,0.35297897,-0.2568901,0.028630398,-0.41221353,1.0892402,-0.36957052,-0.07843245,1.0
Backdoor.Graybird-43915d2a212d5620489fc5dbbbf17d934ab474e34a1058aa28ea2ae0160d6a7e,-0.09322505,0.34757957,0.4269249,-0.42377454,-2.3027203,0.36363184,0.06461827,0.32895127,0.021025335,0.12555528,-0.18707986,0.46014526,0.2387791,0.6402067,0.5328376,-0.7349189,-0.9884161,0.2641886,-0.029996797,0.49114743,-0.9613784,0.17186794,-0.94681877,0.14520352,1.0
Backdoor.Graybird-442eb6cd344fcc9a88b1ef5a28e662ea6a9415ff012b27b75ca3b8c07af9ae61,0.31475514,0.8423691,-0.8567514,-0.49979562,-0.41014576,0.81130385,0.29351974,0.5176431,0.13611177,-0.87752753,-0.2571682,0.6040682,0.11861278,0.46768385,1.2148814,-0.7596422,0.7300236,0.17194936,-0.0056655654,0.22736475,-1.2366201,0.39012623,-1.3341956,0.52670825,1.0
Backdoor.Graybird-45133c62869e94f748e8f947328388b6cf1190cc750f712e25695ff4e87a8ec0,-0.4187136,0.74737155,-0.0057679336,-0.14546615,-0.60581625,0.5290101,-0.5509812,1.1487293,0.49085772,0.17395915,-0.48302153,-0.097451605,-1.0016307,1.2022558,0.043170452,-0.78636914,1.030869,1.2138482,-0.707676,0.08588958,-1.3886591,-0.13345642,-1.2932242,0.63791716,1.0
Backdoor.Graybird-4611ce9f971ce2a63d17317779aaa34aebb478c1a91c3031abf37b39a0e8a754,-0.30944142,1.5461767,-0.01625019,0.3553249,-0.57061577,0.5176193,-0.43945268,0.6181217,0.51667756,-0.15905173,0.52075994,0.6803052,-1.1180968,0.33892882,0.5021016,-0.9583702,0.8501001,0.64027035,-0.19352101,-0.37684712,-0.58903533,0.5213073,-0.24119626,0.24104068,1.0
Backdoor.Graybird-4768fb2a55ff7a38d1c9f26c22517c25e81050233f75a43909f56cf2bab55549,-0.03354053,0.8444963,0.46505257,0.114051476,-0.61933684,0.74461305,0.20300771,0.4634568,-0.43546623,0.13615343,-0.14646024,0.45519218,-0.03529462,0.32324588,0.50603485,-0.61022294,1.0162416,0.21120758,0.38001874,0.24479395,-0.45570868,0.3478499,-0.84307635,1.452051,1.0
Backdoor.Graybird-48641176d1e0ac527a5bb4a797afe8ebddb93625bfb2e7878a0cd40164988326,-0.24755225,1.0045284,0.4467933,1.1955211,-0.30120674,0.43468216,0.2590658,-0.30226547,-0.099333346,-0.9928882,0.13078962,0.45197296,0.0065259063,-0.07439703,0.12189222,-1.3100775,0.16288093,0.32454962,0.06960517,0.19991477,-0.21472329,0.7706803,-0.18913284,-0.12235453,1.0
Backdoor.Graybird-4873836e446dfd4e56e491364059f5f6642b9e62c3af541249d2a58f060d810a,0.033205085,0.5441364,0.82413006,0.41402432,-0.938442,0.04947519,-0.71498096,0.7358082,0.11730329,-0.35022607,-0.09121399,0.495812,-0.59011066,0.3601661,1.1641057,-0.050963912,0.59439373,-0.05025267,1.1498003,0.44243315,-1.0282981,0.60655093,-0.730697,0.34787282,1.0
Backdoor.Graybird-49584192e192cd599da8b7891636d00d60f6e3a1714cec9384e53f0c3ff64dad,0.28735346,0.10717592,0.4308562,0.121190816,-1.0217049,-0.347583,-0.06519717,0.89029664,0.4268611,-0.86151147,-0.44522002,-0.14343148,-0.4898354,0.47940367,1.288648,0.011671721,1.0593512,0.51614785,0.0124391895,-0.9450274,-0.42359772,0.8807388,-0.7798359,-0.46073934,1.0
Backdoor.Graybird-4a7c1f06c02316a383b3509b0530d50eea0fc52e3292f80ef6d99337ed1976cf,-0.6414804,0.5483814,0.24837779,0.5207343,-1.5681099,-0.5232415,-0.7876889,0.82310355,0.5599003,-0.24029803,-0.9087374,-0.2607656,-0.8748025,0.9761595,0.68067753,-0.69774306,0.9449495,-0.25882632,0.21385866,-0.28867206,-0.55584437,0.56984764,-0.535723,-0.27828684,1.0
Backdoor.Graybird-4b3805331f864f1002915b1b89e8f70643baaf6b43b688a32c2cb3810ffb3b4a,0.026872426,-0.3788702,-0.21446505,-0.57018256,-0.5051329,-0.0085583255,-0.5345668,-0.08733718,-0.34960788,-0.80004984,-0.37417713,0.2951674,-0.63938624,0.26691246,0.81293607,-0.7619129,-0.087071545,0.1711099,0.51415485,0.53850275,-0.4580501,1.3230715,-1.2385883,0.67407006,1.0
Backdoor.Graybird-4ee3bccc014a06cfedefb088d22c918bad78cbcb74568815a14ebfbbcf119d37,0.24720424,-0.14634703,-0.059222866,-0.12555934,-1.0005434,-0.39054596,-0.7400653,0.36003524,-0.50024706,-0.4313335,-0.335127,-0.28391138,-0.23162585,1.1316458,0.8366214,-1.0230536,0.19937462,0.6836656,0.56996036,0.5180993,-1.015117,0.7629984,-1.6126361,0.16194454,1.0
Backdoor.Graybird-4fa0fe574b88526a330dea8e92ead1925846131a452b09c7a42eeee07e2be5c5,-0.19160953,-0.5131455,0.33436158,-0.53516006,-0.51410675,-0.6119157,-0.7955827,1.0147706,-0.47497085,-0.40699193,-0.3494868,0.37917742,-0.47976252,0.18393363,1.449112,-0.48108062,-0.21054193,-0.08203853,0.729097,0.28482985,-1.0508657,0.94502723,-1.7757411,-0.06633731,1.0
Backdoor.Graybird-4fb50e21fca67a80c0600b322ca12170a8283b4b04073cc330aefa42e3f01cb1,-0.05388801,0.5804294,0.00238409,-0.26276818,-1.6370788,-0.3549731,-0.8619097,1.0740554,1.0346061,-0.97486544,0.48652864,0.7587254,-0.7567851,0.90447384,0.83179903,-0.46074528,-0.27107564,0.5579211,-0.7155662,-0.34756634,-1.1581247,0.2574387,-0.44325313,0.13757905,1.0
Backdoor.Graybird-50d21079164fd8e7d563e365422688728379b15b4239beb025e4109a16f4f758,-0.9685046,0.024562933,-0.29784906,-0.26345387,-1.0710186,0.61528724,-0.5566304,0.7785411,0.24736835,-0.45320216,0.35314405,0.6576401,-0.02463006,0.33019996,1.5658773,-1.0611795,1.3799995,0.74494445,-0.26977375,-0.16834433,-0.41506073,0.8288033,-0.42600667,-0.16023573,1.0
Backdoor.Graybird-51500e8ba9a95263700256b5b7b75c162508a80b3de7f0eb946ecacf98d78ff7,-0.8786308,-0.08661578,-0.6433043,-0.06570814,-0.49921125,-0.5176561,-0.8406573,-0.5081915,0.55815583,-0.28732246,-0.48669973,0.11710949,-0.1048057,1.0335176,0.5103618,-1.6823045,0.1628969,0.023821602,-0.16931923,0.48618546,-0.60744166,0.21840148,-1.2483236,0.1700584,1.0
Backdoor.Graybird-51faade6c8030b7f7b359977e1d699538610f96747fa89f8a1b0ea49926cdd36,-0.5362638,-0.32439482,0.20103031,-0.23419562,-0.5937666,-0.00891376,-1.1207083,0.23745754,1.2427803,-0.1986216,-0.48761845,-0.27902544,0.82078034,0.2471531,0.6436395,-1.4878858,0.38513708,0.7463842,0.43078226,-0.039591085,-1.2340564,-0.5298872,-1.7150275,-0.06605414,1.0
Backdoor.Graybird-523152dee0737aae6b8210fb53d9ae9b2bf6be10a89e399cf1b0a193972f282f,-0.1678638,-0.29486072,-0.35171217,-0.7554598,-0.5488025,-0.9512269,-0.4235151,0.18657556,0.5070033,-0.8676298,-0.7428048,-0.18289721,-0.70119184,0.7936203,0.920805,-0.9369674,0.44722188,0.9177133,0.81365883,-0.054511365,-1.0327616,0.58154106,-1.5568049,0.7168909,1.0
Backdoor.Graybird-5266d90616b279757b5839b40696798dbe68c783582ecadb11cac439583b6212,-0.7910426,-0.16492891,0.31951308,-0.62139755,-1.1316516,0.02881227,-1.4013232,-0.74356216,1.4073516,-0.39062226,-0.25506616,0.14244497,0.5890574,0.7256015,0.86345446,-1.4837049,0.17893511,0.72339636,0.50372195,0.51243174,-0.8604993,0.1075048,-0.79910064,0.7409066,1.0
Backdoor.Graybird-53078f85f6b3651de46b7551e7f032e1734e80f6c89faf69560b2b92a5a94747,-0.80269796,0.02913928,0.37252238,-0.3274782,-1.104333,0.28839594,-0.6174249,0.7002256,1.4389956,0.13763572,-0.25324014,0.0129409395,-0.013644443,-0.38793686,0.6936852,-1.2545868,-0.20339341,-0.18630049,0.94575226,0.69667757,-0.96488684,0.05276594,-0.989157,0.11431346,1.0
Backdoor.Graybird-53ee4a2152057901cd94a7f4d548f02a3937cdf4186d27a33f991382b93cb631,-1.0832492,0.045900997,0.23579127,-0.58679205,-1.3573232,-0.061143573,-1.1142037,0.46989122,1.0268574,-0.2549815,0.39366892,0.21891052,0.53585833,0.6076087,0.16172023,-1.1055565,-0.060261104,0.5153518,0.40726772,1.1242383,-0.4586215,-0.041221432,-0.6160848,0.82744515,1.0
Backdoor.Graybird-540e9c189e9d37ffb217e7a0dc732fffef53c3efd3d0317f44bc3bc05b69fe28,-0.65571105,0.010462115,0.9452906,-0.84369063,-0.73273623,-0.2518005,-0.5639064,1.1624985,0.2548829,-0.11617037,-0.63257855,0.020833107,-0.25903663,0.41140118,1.0498506,-0.47043493,-0.22706315,0.36990932,0.5990156,0.9151157,-1.2128046,0.6425397,-0.944678,-0.9475969,1.0
Backdoor.Graybird-54aa30e8c4b561710cadfa1b08bec3380375ff52f9b9485c946e177499b90e93,-0.61342067,0.15820605,0.63153124,-1.018261,-1.9285532,0.12427688,-0.7008903,-0.5526947,0.13350922,1.0073937,0.05070927,0.447471,0.15753622,0.2730943,0.27504486,-1.2104955,-0.6082801,0.44260013,-0.017018689,0.16391818,-1.3120618,-0.051694755,-0.66357434,0.19784957,1.0
Backdoor.Graybird-54c2b04305bbaf46d7fa1fc9901bfc4cc51b632f8ff0004fca5c9d0d34a43e88,0.052467883,-0.45375636,0.65807116,-0.68392426,-0.54993486,0.5528165,-1.2572517,0.67501485,0.69785047,0.040983345,-0.22726408,-0.07675958,0.12918206,1.2191708,0.802597,-1.3921888,0.13387279,0.3269862,0.49980482,0.82856995,-0.5597588,-0.5608308,-1.4428347,0.57651216,1.0
Backdoor.Graybird-5508b64b67d9039955e8e78c7303205e0bf31f2fff2a412cc009217a3b843c42,-0.6984203,0.5362432,0.09178148,-0.5729284,-0.5386211,-0.6307022,-0.6600104,-0.043415423,0.42514595,-0.007313414,-0.09029552,-0.3709763,-0.82659304,0.822761,0.6378867,-0.8626796,-0.19750698,0.4647951,0.52566797,0.051612236,-1.8641398,0.79869336,-0.9087964,0.34501243,1.0
Backdoor.Graybird-553ea1898739926e3c60643be9671a798abf142557d4b169cf15e8e5bdb907c4,-1.064632,0.070429966,0.52067906,-0.30538255,-0.7287391,0.39655253,-0.41187423,0.44085604,0.65064853,0.87005866,0.6558354,-0.08080619,0.02546064,-0.121145345,0.70517296,-1.003247,-0.058743272,0.32905567,0.04060523,-0.15041405,-1.5919982,1.1139989,-0.87853324,0.14896755,1.0
Backdoor.Graybird-56d68b4fdc5c32b9c7b6eb0c20c22903b6db6bbdc85deeb1672b96b1053b7702,-0.7595223,0.39291942,0.07237387,-0.40910718,-0.6142033,0.41095483,-0.22252358,0.6707657,0.4861177,1.3695825,-0.6576426,0.03019428,-0.13154078,0.71198547,-0.48567906,-0.67672116,0.3908305,-0.12783565,0.43983603,0.4610725,-0.78167874,0.18084964,-0.30392283,-0.04096065,1.0
Backdoor.Graybird-57ff8c60d243dfa0c50b38830b71d9935436c7681da9891396a9a5dd5cbc2596,-1.0861746,0.5258508,0.30486527,-0.81563115,-1.3044579,-0.107134014,-0.36680022,0.33217898,1.0490385,0.83193356,0.0779596,0.7785136,-0.18827565,1.0211916,0.40741205,-0.81558865,0.77787954,0.7755446,0.2195968,0.4765161,-0.36929947,0.32686836,0.2065236,-0.111856334,1.0
Backdoor.Graybird-598964da286937c1fb024677585b5d6fb4a214187a0bc61264871b41016b7f75,-0.059992027,0.3782568,0.7782337,-0.55931115,-1.6912608,0.00010432718,-0.7434078,-0.23409736,-0.10190261,0.559764,-0.52085286,0.26867425,-0.5049783,0.559884,0.157422,-0.6591594,0.19936307,-0.352309,0.49707982,1.2225498,-0.95503545,0.7702788,-1.4045707,-0.41110083,1.0
Backdoor.Graybird-5a80a9d8a1cd9ff7dd8ded5152045cf323620251db85d71f355794d2e4c26c82,-0.5590763,0.43187702,0.8494572,-0.630538,-1.7883887,-0.26076162,-0.14599687,0.6589784,0.8672865,1.1427011,-0.23281752,0.28441384,0.30265,0.73654634,-0.28895104,-0.43491486,-0.44448337,-0.27023736,0.28451183,0.75884175,-0.30217925,0.59457004,-0.22552818,-0.3001766,1.0
Backdoor.Graybird-5c75303926f53f292fe5acf87d08293b2b626af5cc8c69501dec28f11fb03bce,-0.19532627,0.29043886,0.25779563,0.31454825,-1.3662492,0.19769412,-0.46931535,0.24432279,0.9255964,0.7420553,-0.008447438,0.19333184,-0.06258412,1.1505864,0.011746832,-0.74364895,0.3538897,0.33820295,-0.5488504,0.010471451,-1.0989233,-0.28992268,-0.9376648,0.031247523,1.0
Backdoor.Graybird-5cbab5b1edf3be8aba7f313ea0e50221e824a6cba2e40df2dae24cb8a7a8fafa,-0.36771467,0.20003548,0.83999294,0.4869411,-0.8101676,0.7404218,-0.6411646,0.7414203,1.0723623,0.47057575,-0.9476919,-0.16020834,0.3897033,1.030286,0.5186035,-1.0302354,-0.46981445,-0.22405759,1.1310341,0.9246292,-0.90353054,0.006101337,-1.2988226,0.08503979,1.0
Backdoor.Graybird-5e73532a8544c28bf2076391c5b7c0c39fa3ad1ba60441f722a4649aca25d20b,-0.9445783,0.6749165,0.4440571,-0.02441098,-1.7156693,0.31847933,0.31407282,0.7880984,1.0472957,1.1526682,0.14590953,0.42319688,-0.05697157,1.1920094,-0.28726965,-0.12079764,-0.15912639,-0.847267,0.11231445,0.14152473,-1.3189673,-0.21857725,0.04331536,0.79898787,1.0
Backdoor.Graybird-5e906a24c568f2c1132a8a0154207773b8c0ff6986ab56ceab00a8cfc9c2d5b6,-0.25734675,0.60687345,0.46756616,-0.09528234,-1.2982333,0.48774675,-0.8471961,-0.13352375,-0.30693176,0.07361609,-0.074267656,0.15597412,0.1668412,0.34223843,0.100515306,-0.49471542,0.53943866,-0.25169674,0.52141243,0.7218218,-1.0557741,0.68984807,-1.2525458,-0.35346904,1.0
Backdoor.Graybird-5fcb64cfd38ba0a62f85708679fde53986d09f5038c72f149819ecab6dc8507e,0.55411685,1.3072199,0.5563605,0.6246351,-1.1847211,0.96099967,-0.20262735,1.0253674,1.0775957,0.15772346,-0.22947742,0.44524541,0.3436133,1.2173247,0.41982093,-0.22059181,1.2304751,0.21391,0.12360172,0.33033574,-1.0314462,0.045884576,-0.6227653,0.26344308,1.0
Backdoor.Graybird-60b1b1bee471d35c2e07afcaf3c8005576c2cb29eccec1ee68bf23cc76af078b,0.18720612,0.5824456,1.7576652,-0.78690755,-1.2461221,0.53349864,-0.26120216,0.77136284,0.9437225,-0.66232324,0.7051955,0.3693384,0.88954854,0.8021484,0.7467849,-0.34669617,0.54561317,-0.48245,0.327928,0.8006515,0.45249254,-0.03854557,-0.059603777,0.22449765,1.0
Backdoor.Graybird-60d764cb2a5e9e67977f7d978aa66df908db656bba989d480f3b6ff68202e4e2,-0.61117643,-0.2525505,0.870212,0.036406897,-1.4987794,0.53460026,-0.25452933,1.51292,0.37714973,0.2215493,-0.12955892,-0.42057446,-0.16558643,1.3538134,-0.29619431,0.28532088,0.76267594,-0.20244877,-0.9688284,-0.23849468,-0.85861564,-0.25260836,0.3567155,-0.03125977,1.0
Backdoor.Graybird-61add8504bacaafb7dc19c8a24bde60b28dfcf574d101e5533c12d95895958e8,-0.84321,-0.04617181,0.46909317,-0.1637208,-1.5333391,0.31703034,-1.42519,0.78692955,0.1360737,0.13392453,0.16602126,0.3469035,0.7145272,1.4872731,0.003863005,-0.38781118,0.37859675,0.44319823,0.11016601,0.5722695,-0.2633079,-0.344631,-0.34524614,0.1033139,1.0
Backdoor.Graybird-61f39838e948a57120a57619fe6b93fb9c9b2a150636f0a3a1cb870b52b288e8,-0.42924076,0.08044724,1.3130426,-0.24379386,-1.7414814,1.1654531,-0.44379324,0.8989516,0.9475349,-0.5594751,-0.33046907,-0.37757125,1.3927032,0.58703965,0.85269046,-0.54565406,0.52989364,-0.3738819,-0.042660344,0.5534195,-0.032084197,0.028950348,-0.790539,0.17909813,1.0
Backdoor.Graybird-61fb0d0c3ed4f269fb8497a0abfef6dc543c509650b2af81aabeb605fb11e7ac,0.798078,-0.59717864,0.53906053,-0.30879006,-1.5932701,1.0278847,-0.10478319,0.8338001,-0.22949071,-0.7646032,-0.82922333,0.08857358,-0.14069203,-0.30576888,0.83541703,0.3642825,1.3378062,0.2760829,0.20585863,-1.1729349,-1.3852355,0.34104884,0.0772066,0.14172043,1.0
Backdoor.Graybird-62a7401d04f88017eaf9a90cbe104e71cf86c982e930cdaa41f630cb40eeef87,0.27847022,-0.50975865,0.2127962,-0.58619785,-2.0151222,0.60322297,0.18087448,0.9015748,-0.22827244,-0.77401316,-0.5286676,0.44933844,-0.12366094,-0.27591464,0.6935268,0.16657008,1.1577482,0.82753384,-0.15419102,-0.8421166,-0.9159619,0.33283946,-0.14146517,0.4729246,1.0
Backdoor.Graybird-63e2eb4bc7fc4ce5504efdadfe434d52ad8b3699d5670c575b0d6749eb9da2a1,-0.1839551,0.09644409,-0.08882034,-0.18377466,-2.024083,0.3365336,-1.248632,1.3335669,0.5382209,-0.5500476,0.23960625,0.30680534,0.110391356,1.2336503,-0.037410434,0.10999053,0.3116474,-0.2256545,0.2547652,-0.23195727,-0.06552455,-0.44291124,-0.48033455,0.3693935,1.0
Backdoor.Graybird-65991ce74d589f9fe4d0cefbe5eda390986221c041faed595ca5b635a48460cb,0.9897796,-0.09569988,0.47429377,0.23927969,-1.4282496,0.025945535,-1.3138851,0.7727076,0.757863,-0.14852774,0.1630583,0.3712569,-0.65587807,0.97982603,-0.26880926,-0.3455389,0.23203988,0.5046229,0.16903734,0.11259401,-0.6773409,-0.3956628,-1.2888716,0.02282479,1.0
Backdoor.Graybird-65d264ba371d426165a67d137b3a7da59ee4c7d2f919832a3ab028825e0177be,-0.26925793,0.2918218,0.26376957,0.06312382,-1.5637871,0.46476644,-0.6898012,1.7751615,0.65271115,-1.4851689,-0.16941243,0.5096119,-0.27904013,0.72492605,0.7162021,0.089912504,-0.5033914,0.2311735,-0.54136384,-0.16582522,-0.75531733,-0.06955096,-0.34505793,0.48246184,1.0
Backdoor.Graybird-66786bb835a1674bc9295a67c584c9da1aff48441df00a21451727cf3b1e6a9e,-0.6094411,0.61530274,0.0056330333,-0.22072974,-1.5899382,0.068787955,-1.5059013,1.0566027,0.812988,-0.7615809,0.6870911,0.76445764,0.003538619,0.8071466,0.07863378,-0.12419501,-0.22901425,0.14845663,-0.35220918,-0.46449083,-1.4936223,-0.5022421,-0.05287823,0.86309075,1.0
Backdoor.Graybird-66c23272f29f90036382aa571ce861ef2d542d96de626fda2ee58ae67bf5b9d6,-1.3342742,-0.06688118,-0.47922572,-0.23801579,-0.9180801,0.8183487,-0.8382651,1.3465209,1.2409664,-0.5466361,-0.018059168,1.1138486,-0.55691546,0.8388512,0.6367141,-0.32501188,0.6840346,0.04063651,-0.15324682,-0.63231343,-0.39396903,-0.21018785,0.55586714,0.28392324,1.0
Backdoor.Graybird-66ef45fab44825af0fcd0f58e3ccab4792697337741dae14ea4faa1d4664e20d,0.082428455,0.31832576,0.84769696,-0.24318206,-1.310927,0.75722027,-1.6639763,0.57452595,0.033808373,-0.4385279,-0.64936024,0.69955474,0.44772333,0.9239147,0.9868646,-0.12480262,-0.38631892,-0.15749393,0.19356225,-0.49452657,-0.8010915,-0.50533324,-0.6930129,0.21896647,1.0
Backdoor.Graybird-67425cd076901418623f3637faf1494475f22b93e177b42592d3330628cb1290,0.3628921,-0.048223272,-0.47710443,0.47160777,-1.2243438,0.9740753,-1.1474571,0.6926504,0.939159,-1.2974273,0.28264746,0.8825015,-0.82045746,0.76354825,0.319976,-0.32961574,-0.1888032,0.3634346,0.1254721,0.528021,-0.61911476,0.2995701,0.29097155,0.58963865,1.0
Backdoor.Graybird-69c8069ecc84dde235d404175eb4bb9f290b5d1a4ea6e38ec5546db7e8297763,0.082791366,0.017688049,-0.1496074,-0.26595977,-0.78433585,-0.14183387,-0.8241372,-0.16082793,-0.21685061,-1.2169427,-0.6192786,-0.075442255,-0.41069624,0.59470665,0.7647766,-0.7481775,-0.03839085,0.83217543,0.42603496,-0.111909404,-0.7763512,0.8904921,-1.5996857,0.48329204,1.0
Backdoor.Graybird-6a098aa51cf1f256b4f7ba9a00f9dd694ce861af7631c2017787b649a3c9303e,-0.3026581,0.25741836,0.91851926,-0.15324579,-0.8542185,-0.0709838,-1.3684012,0.14332663,1.5419195,-0.3798077,-0.07929187,0.11825578,-0.11119855,0.86871433,0.7214648,-1.1552757,-0.6335664,0.74712527,0.8956297,0.7004688,-0.08125631,0.62580144,-1.1088765,0.90294904,1.0
Backdoor.Graybird-6a7abfcf01608d31fd5666e4b92bd5e4a461b40fb54721d26ba40107a3707012,-0.12789625,0.013466372,0.4581519,0.3570091,-1.1129707,0.6210619,-1.1189555,0.7422735,2.0237424,0.0011035337,-0.5533045,-0.10446981,-0.29568446,0.8742836,0.4562316,-0.9584688,-0.36094236,0.78294975,0.27991992,-0.104487054,-0.31402275,0.2114697,-1.0153967,-0.16834514,1.0
Backdoor.Graybird-6acf73ce429b03da848243858022756272a351e5d0a2f668c20fa8454b22ace8,-0.2179153,-0.027652407,0.36862716,-0.11027232,-0.7751532,0.14177586,-1.2698563,-0.14252676,1.8291131,-0.5519861,-0.3743655,0.64755505,0.052463293,0.54017836,0.5855793,-1.057715,0.18936317,0.6203859,0.76251954,0.31714442,0.3285215,0.26074466,-0.74960583,0.9880662,1.0
Backdoor.Graybird-6b70eac6c80bae3841169ad629bbb4f713f1f459d39f758be7868a807a6e9d7f,-0.23070657,0.3798438,0.67808574,-0.10338117,-1.2978067,0.08946334,-0.13854583,0.5973576,1.7798802,0.19311918,-0.3067808,0.2212841,0.80247474,0.95318186,0.59953135,-0.374577,0.09441357,0.52636987,0.7901948,0.48250416,-0.3483778,0.09152284,-0.8969207,0.9135155,1.0
Backdoor.Graybird-6c59c054dc3d17fd97cb3525e71853d608222e848f3e57dbd3adad8585231eec,-0.21832801,-0.017198635,-0.083104536,-0.3665581,-0.54001755,0.4817041,-1.5235003,0.38957122,0.60455257,-0.35803705,-0.16809303,0.31209847,-0.80055016,0.9554785,1.1595473,-0.38052958,0.039476603,0.5062976,0.3086445,-0.123270325,-1.1582242,0.796102,-1.0560879,-0.12109716,1.0
Backdoor.Graybird-6cfb5586d80cc93044a1795e99640f6a849914656deec59bbe8118ff968eca77,-0.546063,0.88383037,0.7776865,-0.3891493,-0.9297397,0.43914643,0.10004703,0.6290033,1.3502574,0.024827499,0.43887642,0.22696221,-0.07338876,1.1911757,0.15454873,-0.24837025,0.8047988,1.2459743,0.15148996,-0.028438859,-0.13746011,-0.13419305,-0.016344381,0.4273624,1.0
Backdoor.Graybird-6d242d408bf0e3c49e088eb4cd4a939511c4ea60db11d94d96a7a7a39be70f9c,-0.5733918,0.3935795,0.67821765,-0.2231449,-0.92458063,0.53752947,-0.8442518,1.0066715,1.0160872,-0.032082487,-0.58790374,0.46655524,0.07056536,0.5155298,-0.016642293,-0.19231614,-0.089587145,0.8213456,0.08693095,0.20192526,-0.10247291,-0.09794801,-0.7073482,0.8056546,1.0
Backdoor.Graybird-6d321e528269b7a7e1f6436e1380c65a20f1d714ebc0026e0a99839dc1a501e4,0.067076325,1.1034603,0.55591947,-0.12857772,-0.8423526,0.85319954,-0.9556773,0.26249003,0.8242481,-0.3523924,-0.20257859,0.14389358,0.38166055,-0.1216548,-0.60294884,-0.4628288,0.39620155,0.1535842,0.080296144,0.38462204,0.017912908,0.4554796,0.23377277,0.3430407,1.0
Backdoor.Graybird-6d34635438401f6c4f7794bc4f2c8c446f82edeb567f31a83cf3ae034ea773d1,-0.60884136,0.7841104,0.049948484,-0.996851,-0.563966,1.1981442,-0.45563644,0.7147268,1.222869,-0.29591843,0.57646996,1.2914486,-0.0499263,0.449049,0.9840087,-0.10243129,1.2885183,0.29665068,0.4476337,-0.2186969,-0.009371201,0.84704953,0.28565714,0.37643513,1.0
Backdoor.Graybird-6ee285070d1eef800260ba31817c3e7cec3985f0a6a2849a5dc74e445f878a15,0.11380288,0.5706632,0.70448124,-1.513587,-0.72702885,-0.37436783,-1.0896163,0.25159565,1.1689138,-0.32355717,0.5494902,-0.111943856,0.1544406,0.54727757,-0.12440971,-0.27162582,0.40525743,-0.30203268,0.7308902,-0.07913973,-0.08113342,0.41401795,0.6825561,0.2064454,1.0
Backdoor.Graybird-6f9dc6c32999551acea67812a90d930ad72a1eb37dd2694c27e9a8adff7a3a9f,-0.49334344,0.61117476,0.46980977,-0.16484721,-0.6491361,0.15394887,-0.67909163,0.36325938,1.3622278,-0.86225146,0.083227,0.042620726,-0.56027704,0.5441203,0.04625128,-1.214819,-0.3777893,0.42681322,1.0827332,1.0135317,-0.006635948,-0.28472048,-0.7532415,0.5902918,1.0
Backdoor.Graybird-71c886f2fd76eb9bd2bc630b058bd694391456685963926b6189fd07dca25a9e,-0.9315331,0.68568647,0.3739175,-0.463466,-0.69552284,0.35749525,-1.2810118,0.66693777,0.65684426,-0.28590733,-0.5884029,0.6710458,-0.60662514,0.9411485,0.26790124,-0.50917184,0.26027116,0.57976323,0.8288164,0.6653247,-0.47817796,-0.7243761,0.6474421,0.12823884,1.0
Backdoor.Graybird-725f4e4c108170d54ef93e14503fab7add7cc13b10df35ba8fe020f0dab88d2d,-0.52970356,0.29645726,-0.1467596,-0.3222145,-0.81740767,-0.114816,-1.8184916,0.8564045,1.2999429,-0.7715682,-0.24409734,0.7599277,0.25286955,0.88280195,0.45094907,-0.17589502,-0.31401592,0.24413975,0.13679579,-0.49654037,-0.858878,0.0042605363,0.14983736,0.63938534,1.0
Backdoor.Graybird-730ed728d5c30bbf322823b8d041c6e3c86249b31946b64b6568a1948cc8e6ed,-0.1589453,0.8763846,0.6779586,0.022559825,-0.7773357,1.2327904,-0.8106992,0.9547111,1.6306541,-0.20229182,0.13565204,0.5510553,-0.6393431,0.71952385,0.26899782,-0.26155272,0.3288747,-0.138546,-0.15915179,-0.114205346,-0.28918695,0.16482894,0.69210255,0.25299227,1.0
Backdoor.Graybird-739a860eb0dbc39fe915e0761f973180262e418e737f75ebbc4007fe1eaea473,-1.044439,0.42740127,1.1463039,0.13351609,-0.6655394,0.51487166,-0.9251108,0.47087848,1.4087765,-0.006690543,-0.32203844,0.79700696,-0.61806345,0.7314526,0.62192744,-0.7610612,0.33368614,0.65856683,0.40846547,0.3178314,-0.56339765,0.0089996075,1.4598712,0.18522134,1.0
Backdoor.Graybird-757d5da46a1617a1b5a07c2d4c17ec72f6c946ab3ca540e8da0131504084de93,0.34108636,0.8785187,1.7162702,0.012542506,-1.6799152,0.9997521,-1.0451311,0.659629,0.59344715,-0.18499807,-0.35130176,0.7974461,0.30576986,0.48290786,0.51703596,-0.31371117,0.33479837,-0.066347755,0.8782914,0.7910954,0.3221759,0.58016723,0.5749039,0.508187,1.0
Backdoor.Graybird-759d25eb1e779c0cf9a1791494780efd719aef5f5a316dee827da31758678a77,-0.9400071,0.758529,-0.33013824,-0.17275527,-0.87648135,0.3556215,-0.51175725,0.03571876,0.94959325,0.03874583,-0.00046457557,1.4675286,-0.27344003,0.49077246,0.74827635,-1.0055548,0.63310564,0.39824155,0.68590206,0.16547589,0.19140652,1.0186045,0.54084057,0.26051712,1.0
Backdoor.Graybird-764e8d67b8a22cd013f7d302251a249fe7c6c3c4a2d2acb9d1e5f88d557715a3,-1.1916603,-0.27975196,-0.19979955,-0.41532123,-0.7527511,0.821095,-0.6974319,1.2048401,1.3219337,-0.39832637,0.055604324,0.64145267,-0.74467206,1.1467805,0.5802029,-0.36157066,0.6026142,0.05858204,-0.18870933,-0.17873724,-0.46231997,-0.14248036,0.6919935,0.14428377,1.0
Backdoor.Graybird-76c6fe9ca5a7a1b18fae029ae849431daf6bb211afe955222d5c778bf3472509,-0.56891525,-0.18188784,0.616093,-0.25839382,-0.7440141,0.093419604,-1.0127897,-0.10258234,1.7205716,-0.37336951,-0.6029388,0.13192418,-0.701742,0.7801925,0.60971224,-1.0564663,0.39723074,0.8383156,1.2734355,0.52147394,0.3268414,0.3501689,-0.08697923,0.58978164,1.0
Backdoor.Graybird-79ebf2c2afd7a143d1833a4702c1dd0aa83e71d78c456649eb59051335c309de,-0.61888677,0.9259185,0.808976,-0.6373499,-0.9558366,-0.038449477,-0.68480235,0.29359594,-0.26601622,-0.552979,-0.25956777,0.18438818,-1.2252688,0.58203083,0.6193851,-0.1569383,1.0394859,0.5356626,0.54539216,-1.1875917,-0.065332465,0.47507504,0.6843524,0.5151806,1.0
Backdoor.Graybird-7a94befd3a93c00b1ca28bd169792504aae64411f804665e0641305e801b215e,-0.9133978,0.5166942,0.551156,-0.13329116,-1.3230195,0.13089432,-0.47265887,0.61202306,0.9015404,0.014398207,-0.031752247,0.7107097,-0.45782155,0.6262868,0.5955834,-0.40122795,0.34969127,0.6045333,0.2107086,-0.30481172,-0.7942836,0.0009113964,0.7330875,0.32232365,1.0
Backdoor.Graybird-7c1334bb1b9e6b4730760f754ab9010783b7f29f821b02bf1478448ad59cf6df,-0.08779981,1.0379668,0.59454864,-0.42181078,-1.4410552,0.35841155,-0.92260194,0.18071541,-0.058516745,-0.44261703,-0.9699305,0.19105576,-0.19914877,-0.01745912,0.86336607,-0.9752372,-0.15799217,-0.26808318,1.3602502,-0.20064619,0.5472557,0.6752861,0.4625636,-0.6106074,1.0
Backdoor.Graybird-7cdae407c0cbf514980c892b1c4495e999866aa3be4f6ebc6e482feecd8cfdea,-0.099046394,0.036403608,0.8587676,0.09590994,-1.6720154,-0.27905887,-1.1318594,0.46854034,1.2119082,-0.15656783,-1.337743,0.03635825,-0.59320366,0.4040448,0.61352295,-1.0114493,0.038331766,0.63471603,1.0054177,-0.027633423,-0.9368887,-0.32892036,-1.3663663,-0.30729493,1.0
Backdoor.Graybird-7d85ae8d40e1df6c39d67e97e16bbaa2a1aa6f8bcbec78dfc492de86ef57dc87,-0.51147586,0.4181466,0.78000635,-0.60387033,-1.8379723,0.988898,-1.666356,0.8755647,-0.04192496,0.06488686,-0.8492018,0.6176915,-0.80132586,0.0581152,0.11522683,-0.6824265,0.32810935,0.34358263,0.5038192,0.36933905,0.097744815,-0.008530025,0.691492,-0.5210658,1.0
Backdoor.Graybird-7d9aec70614646558761e1e9d7aaea88933ee32493d21395b322b04a438140bc,-1.2054687,0.62414885,0.24607168,0.59816486,-1.8239201,0.26535454,-1.0588037,0.5526681,0.0689378,-0.36509973,-1.1411581,-0.017782774,-0.8358934,0.5928019,0.39484674,-1.0307009,1.317802,-0.6971726,0.21140881,-0.16977005,0.010080054,0.3117725,0.08016997,-0.96596205,1.0
Backdoor.Graybird-813477cf47cbe8c132ebbd8bc358f8c03417de303cf35c71f5ab051cdae4724e,-1.1922823,0.7312095,-0.038614098,0.20110111,-1.8828676,-0.075867645,-0.95895606,0.66804165,0.14811201,-0.44468313,-1.2293662,0.19190624,-0.6788656,1.0018709,0.33130214,-0.85006946,1.2046416,-0.4408499,-0.039384183,-0.40860033,0.18069194,0.2351539,-0.20354858,-0.924552,1.0
Backdoor.Graybird-81819096e605e81210d610faa6bf8fb85c29c7418b86a6314d154d531cfd0c1e,-0.08765101,0.55652803,0.7932391,0.22675548,-1.1456722,0.19950432,-0.383235,-0.25828606,-1.2431903,-0.12366206,-0.10825371,0.038780846,-0.7898041,0.4733425,0.0040818965,-1.1640481,0.44793034,0.18059427,0.51724535,-0.3190844,0.2070869,-0.049663898,-0.42468998,-0.59916216,1.0
Backdoor.Graybird-82198faa9497d0ea97adae75c36085d9a604203cc0b853faa079881ea9f79ca8,0.14728117,0.52098745,1.0402567,-0.49863935,-1.750351,0.22451244,-0.732755,-0.49262714,0.055895645,0.86424786,-0.54886377,0.4328,-0.43963045,0.2907389,-0.16580309,-0.39190528,0.05084747,-0.63533455,0.6605193,0.6555245,-0.9843199,0.6513413,-1.2235504,-0.9542681,1.0
Backdoor.Graybird-829996786890ae93f6bf998085dd695982bcf299bf215faed795aa37dbc490be,-0.82351995,0.030685974,1.309265,-0.18187101,-0.5726334,-0.5651481,-0.87328976,1.0861079,0.3874492,-0.21076986,0.39923412,-0.22107787,-0.49051616,0.017028425,0.8565929,-0.11814814,0.103039026,-0.71864647,1.4470516,0.25769192,-0.9311445,0.43529892,-1.1285295,0.052870896,1.0
Backdoor.Graybird-83423cd8ce4f3caa1de47af0f9f15b5582728ea77bf70cfdf4ef7190035b612b,-0.5493563,0.16187978,0.8244031,-0.6676423,-1.7670349,0.5008214,-0.62649107,-0.12000128,0.1937793,0.27451995,0.87890065,0.5219472,-0.37477615,-0.4654022,0.15538928,-0.8672523,0.07685161,0.17776835,1.0541356,-0.15978152,0.8810269,0.53062284,-0.59737355,-0.25787678,1.0
Backdoor.Graybird-8367e7bcdb92a165868cea32162a752a53fe5d15ceaa3674f817bab68caf2e48,-0.48874858,0.4871079,0.67163503,-0.74416506,-2.2030013,-0.18200192,-0.60951227,0.2016752,0.11375784,0.98317134,0.42550588,0.56833386,0.2574678,0.34608176,0.15862186,-0.86507416,-1.2385552,-0.36011848,0.719341,-0.40837255,-0.28078923,0.31696105,-1.2231159,0.0005022224,1.0
Backdoor.Graybird-8422d4ab5d5079a5a7d9896892e0c3271aee157a1f54d7bc0dba7937c1e98f74,-1.2799714,0.7246788,0.1461445,-0.7810445,-1.2531165,-0.13302858,-0.68203187,0.62191945,0.5749772,0.5952374,0.40659943,0.7302877,-0.029565424,0.9749606,-0.015300357,-0.8462499,-0.007963673,0.42294344,0.7260623,0.50332296,-0.09846802,-0.29984346,0.096194565,-0.5461284,1.0
Backdoor.Graybird-85ec05a6c1aa040abed43cef7e85100a0da06525f674231cde7ed92af582c824,0.059589237,1.375198,1.1284552,-0.104455635,-0.76977086,-0.10509923,-0.4109475,1.4063768,-0.6076529,0.6030103,0.17154576,1.0718554,-0.48437443,0.48384076,0.42290837,-0.26756984,-0.32896888,0.13460176,0.34904674,0.2292182,-0.069860674,0.53227437,-0.75481015,-0.35059294,1.0
Backdoor.Graybird-861fb76c171296ca9ff2fc6e65fb4ef70adca3e8be932551485a48097ec54c0a,-0.37284368,-0.014031008,0.71574116,0.2369934,-1.0005983,-0.011182868,-1.1625692,0.4211848,0.49506724,-0.1961599,0.14616205,0.7784936,0.099536456,0.74323523,0.44544768,-0.82294744,-0.074342005,0.34726632,0.7666317,0.5739588,-0.66040546,-0.9819792,-0.8021605,0.037376225,1.0
Backdoor.Graybird-8670f570c5bc895583b54b34f673e9b6d727cc2a8c2a196f1fe5d7a542f71908,-0.23031437,-0.19798297,0.40382454,-0.11089198,-1.4161162,-0.61016124,-1.0492942,0.9888496,-0.63624835,-0.14250298,-0.7431041,0.38343745,-0.57544917,0.91790205,1.281201,-0.5373931,-0.33647662,0.2606106,0.9008802,0.5377503,-1.2165616,0.61600506,-0.8453761,-0.94252706,1.0
Backdoor.Graybird-8918ce36caf2732f3bfec79d19f8a096bce314c983cf02357466949b290681e2,-0.3852344,0.65402335,0.6743689,1.2637362,-0.43426752,0.36537603,-0.08707197,0.071183145,0.032942187,-0.092351586,0.6780028,0.5850875,-0.24920662,0.76209915,0.30848855,-0.8164201,0.781889,0.3060462,0.6037763,-0.12737498,0.01278162,0.44290635,-0.2886458,-0.3971319,1.0
Backdoor.Graybird-8923ffa1222f65f71c7c385d1cec6fde5720dbe5add154d279f4f359b631134a,-0.0806351,-0.1070369,1.7601185,0.4287719,-1.0674154,-0.6312534,-0.917021,0.95073855,0.46913144,0.37288988,-0.35081428,1.0765833,0.76905453,0.066659704,0.34295586,-0.271548,-0.09345932,0.2733895,0.40291226,0.33807755,-0.581622,-0.12777862,-0.55736256,-0.91881126,1.0
Backdoor.Graybird-89481ef77be1b32a0454fa76de2d79cec871effda0b9fd6c21861f3c572c3798,0.15987614,0.4331679,1.1101439,0.5841127,-0.5908693,-0.48014975,0.038485344,0.7869741,-1.0704035,-0.26852366,-0.24824299,0.10006642,0.066266224,0.82930255,-0.37257117,-0.8315339,1.5139219,0.07758721,0.80630666,0.54265136,-0.019654747,-0.69641083,-0.9714249,-1.3057986,1.0
Backdoor.Graybird-89b141aa860cddf3c6b0bec91bfca679ff5d8614135a0677e4c1caa7d37a9c89,0.08417347,-0.20329438,0.3161318,0.8940659,-0.86040574,0.2563274,-1.0895406,-0.008825281,0.45971772,0.19349666,-1.0055289,0.53725916,0.1053266,0.99390924,0.16939035,-1.2747943,-0.29478484,0.32999307,0.5399801,0.1866048,-0.8923748,-0.7199283,-1.7444547,-0.7200384,1.0
Backdoor.Graybird-89fe5e86386ee8e977bf7bd47a2658eee37e28236ba8a8f9aefaba734141ff21,-0.070695855,-0.06604025,0.5413462,-0.3490022,-0.97613645,-0.26657933,-0.93556386,0.64340204,-0.78560776,0.5217575,-0.5594838,0.83541304,-0.3356334,0.6093127,0.40891373,-0.3344527,-0.18607529,0.28731754,0.5915328,0.9535517,-1.7137265,0.2776577,-1.4006721,-0.9746236,1.0
Backdoor.Graybird-8a46c3e1144d6c02853f92b643be99b44dee1f443eff59801c96216bbc5405d6,0.38764772,-0.08939259,1.1466801,0.42596602,-1.0594292,0.0983458,-0.9402625,0.51641625,0.9696152,0.3381517,-0.9070709,0.5362053,0.13828523,1.4027832,0.5251229,-0.8472424,-0.055036206,0.07824363,0.61380905,0.4453673,-0.5862652,-0.72018695,-1.8840855,-0.44031996,1.0
Backdoor.Graybird-8a970cb90dd3321d111d8fd2dd517e86bbf9c79b6a162cd6bb7cb5699edc4b5f,0.11593291,-0.07565372,0.69800895,-0.57683635,-1.3114147,0.96075726,-1.3872086,0.39014003,0.01791163,-0.48809162,-0.8315259,0.5803155,0.64128065,1.0189528,0.9734581,-0.20104848,-0.092588566,-0.06622008,-0.24103571,-0.3290771,-1.0793988,-0.92116314,-0.7348732,-0.061947472,1.0
Backdoor.Graybird-8c4d358653ddf842f102fa6a1f87c59a3cc65557df4aaf113816f3a2680df216,1.1789423,0.35215098,0.82170755,0.26225543,-0.4094517,0.16994059,-0.86264056,-0.39951482,-1.538208,-0.010039868,-0.30718172,0.8395157,-0.37117162,1.0995587,-0.46365073,-0.9143329,0.46106118,0.43718618,0.60626686,-0.21619636,-0.06331997,-0.6258794,-0.7212174,-0.11691469,1.0
Backdoor.Graybird-8c8a2ad65a9f2eb8690f5ec41bac47876a617432c8fa85fb0d81078fef9d4bf8,-0.19894886,-0.8133314,0.78073555,-0.061912563,-0.48923177,0.3469564,-1.0064446,-0.0099501815,0.77876663,0.48039803,-0.61463135,0.6957852,0.04183445,1.1119574,0.8657407,-0.98767483,-0.18852639,0.1726411,0.8367171,0.25511023,-0.65050983,-1.0377262,-1.9687362,0.22689487,1.0
Backdoor.Graybird-8c95f3c3819ad63d453d8792095390904dc501b5a8f5a70e5b5691d200110ef3,-0.9295723,0.0632275,0.06892778,-0.82165575,-1.2627611,0.29755637,-1.4021622,0.78443044,0.13772522,-0.10540059,0.0518882,0.8997313,0.30912337,1.856325,0.2261415,-0.20201373,0.044770814,-0.008702583,0.68573314,0.7704474,-0.37332806,-0.78698117,-0.09371899,0.1316418,1.0
Backdoor.Graybird-8d4a784362ac2b3ddd42e1616c08f6805a5672ed39ea15714100a70b9e1fc842,-0.591261,0.4371819,0.9086871,-0.70897704,-0.3689232,0.8230623,-0.808258,0.08769761,0.4338669,0.53541565,-0.45841575,0.79650795,-0.2945325,1.5299819,0.7906634,-0.43203664,0.11273777,0.47609147,0.13492376,-0.19775777,-0.9623261,-1.0311959,-1.3307035,0.66625047,1.0
Backdoor.Graybird-8de2ca2818c65b69c510a8fe5bfa47608d63fbe23538ad51a6f5661c6daf222f,-0.32882676,0.30396223,1.2731851,-0.435445,-1.2593715,0.58950347,-1.119726,0.4085328,0.11233995,-0.32927752,-0.37274623,0.65422285,0.5221448,0.97381496,0.87617016,-0.3363257,-0.46797428,0.19887798,0.045423325,-0.23893423,-1.0050583,-1.0346683,-0.7845942,0.032328676,1.0
Backdoor.Graybird-8ee8ed6292025a4830b430fbc42984c2b3fa30a7fd3aad6ef3f0abc1363bdea3,-0.5055143,1.1338458,0.9723627,-0.63978386,-1.1870792,1.573835,-0.31086043,0.63112116,0.3247315,0.2367587,-0.10032824,0.8805015,-0.2667036,1.5571319,0.4809976,-0.009913039,0.44180816,1.0614167,-0.5992602,-0.3547357,-0.44911236,-0.6149132,-0.14736998,0.2768754,1.0
Backdoor.Graybird-8f1081cf86782cc1b1577cb67497d6fb854f20cb6515dd8a14b564d43c6752a0,0.13493158,0.45940125,0.46543807,-0.60515237,-0.9866391,0.87575495,-0.78325737,-0.013314005,-0.3744351,-0.21623713,-0.3755828,-0.11743269,-0.116077475,1.1014353,0.5809608,-0.45022002,0.65244013,0.6706794,0.06454019,0.65713483,-0.996303,1.1063365,-1.658599,0.02734861,1.0
Backdoor.Graybird-8f119cfb976e3b606d5a14c8223f6ff7efcb22ec1491da008b081e11f5ff9dac,-0.82031626,0.7207347,0.37232095,-0.6253474,-0.98006475,0.2788056,-0.9658787,-0.418156,0.60563517,-0.34513247,-0.09513747,0.6781505,0.43423116,1.0879046,0.4689343,-1.2805405,-0.14332463,0.36299732,0.30256987,0.91931003,-0.24779771,-0.48562807,-1.6641111,0.61577636,1.0
Backdoor.Graybird-92310a91c8e822e825dee87224b6f400b7a40024d44aaee44575c08311d922a5,-0.5112557,0.37139395,0.6746492,-0.49255666,-0.9154272,0.5752824,-0.2646885,-0.5800051,-1.4045424,-0.3471145,-0.692042,0.4952168,-1.1302184,0.34108162,-0.14185758,-1.3317963,0.62587863,0.6237131,0.20631471,0.41948548,0.26464558,-0.092383415,-0.6998004,-0.65089095,1.0
Backdoor.Graybird-9289f437e7f7c37d9dcee484de2c1850637fd0feb549e31a2aaac1400dec6b1c,-0.053840134,0.79311734,0.04684755,-0.45903906,-0.77346045,1.3878264,-0.19976217,0.11947972,0.4622679,-0.32216594,0.77873516,1.6477952,0.2672644,0.21749976,1.3479087,-1.0376087,0.98927176,0.6105191,0.12927535,-0.39540142,0.14769852,1.141487,-0.21453215,0.48104036,1.0
Backdoor.Graybird-935ef5a37611172206877fbd8823614c947a21b71e8a8ca746a1299e1d3357ed,-1.5401251,0.49572417,0.4719696,-0.8828589,-1.1563418,0.19987652,-0.45145175,0.44062394,0.6085078,0.13335837,0.313421,0.7950486,-0.55245584,1.0779374,0.62672937,-0.73822534,0.6032435,0.31863433,0.11081896,0.58033794,-0.27659225,-0.12238213,0.2117758,-0.21673729,1.0
Backdoor.Graybird-93a713200100c3ae76e3985038dd5466151583924da3469fa71387d3af298ac2,-0.5497584,0.090010785,0.9007727,-0.5664003,-1.7535975,0.8087564,-0.34646893,-0.109317824,0.0745104,0.20431097,0.8906137,0.45360065,-0.5193226,-0.25497755,0.19211021,-0.8152903,0.016596572,0.006605978,0.8284447,-0.08580843,0.8154597,0.54367864,-0.7343468,-0.15886247,1.0
Backdoor.Graybird-945eb21ef074656d9a1a86747c9d7b5d15f29a567fa27fef01fb2737e576ad03,-0.2839793,0.4719412,0.7887093,-0.8865976,-1.6031336,1.05828,-1.1588634,0.60726094,0.51811284,0.11566239,0.46190733,0.7692149,0.72471076,0.7653028,0.32684174,-0.70143825,0.5456707,-0.22067405,0.4793019,0.63520616,0.53595483,-0.18708777,-0.35570455,0.8099833,1.0
Backdoor.Graybird-94623d56ca044b70fe15d88621894fcd59eafe180da385d9d9305186f7f4b86b,-0.48874092,0.3834166,0.59472924,-0.5996319,-1.7717658,0.5034154,-0.5364892,0.42972767,-0.48596835,0.34523776,0.32233414,0.15178642,0.32740316,0.20864102,0.71474135,-1.2284155,-0.5399685,-0.19343665,0.7289648,0.39659005,-0.60382205,0.049145117,-0.41138744,0.17249003,1.0
Backdoor.Graybird-946b3de2c3b514a6c2efe10f2b71f28ee63a9b6730a24a7eba83aa0cf5c5341d,-0.1641574,0.2908598,0.9718437,-0.98232996,-2.23194,0.1896916,-0.52707654,0.433504,-0.020970719,0.61585873,0.4067727,0.5251451,0.38902527,0.2562535,0.13577974,-0.5704353,-0.41380912,-0.019791447,0.75609875,-0.14683957,-0.24363372,-0.5171084,-0.5260294,-0.23695803,1.0
Backdoor.Graybird-95d4ffb8d58ae1108f465097fc357a901f9e00da85ec8d3adecb017be08edc7a,-0.4436437,0.5322581,0.055230707,-0.3646195,-1.586001,0.98622817,0.29772937,1.1794266,1.445841,0.38250548,0.6291676,0.4465001,-0.30062166,0.8519917,0.12116392,-0.31932947,-0.23948321,-0.5549433,0.25545794,0.023698892,-1.0822843,-0.6471848,0.32339653,0.40270922,1.0
Backdoor.Graybird-963cd338182a57b18f2a85b8a36f5617a8c91fda7f68627cab80fad0a8e08c45,0.73241836,-0.6198163,0.29151648,-0.6739653,-0.6206805,2.0449882,0.31515113,1.0829855,0.1524243,-0.26557046,0.44177136,0.56646514,0.27023008,-0.6200846,0.17456691,-0.64106804,-0.11448534,0.35290718,0.71889645,0.7734877,-0.69196516,-0.30742192,0.28105694,0.31550407,1.0
Backdoor.Graybird-967456f14643ad8f8bab3ed0b5468ff69704502ae64b5c37f66d43eb71ee5909,-0.46622398,0.119321585,0.10425475,-0.03248018,-1.1677924,0.960224,-1.1208215,1.0032423,0.92511076,-0.57846206,-0.30641812,0.10745507,0.4585642,0.60080075,0.5005015,-1.1676866,-0.10726895,0.6481859,1.1364031,0.75328505,0.16034369,-0.08094667,-0.07108236,0.75351894,1.0
Backdoor.Graybird-97d6d5d2bfd16a21b6b02bc9bb883dbcd437d0a71f34eebe95d8419a8b80eb89,-0.11096464,-0.21510847,-0.030237,-0.058186285,-0.21497549,0.81932616,-1.5758924,0.8979205,0.93314064,0.07656404,-0.48019478,0.1428965,-0.29256573,0.34944302,0.692073,-1.2139351,0.06268303,0.13416687,1.1445389,0.75636846,-0.92067206,-0.14970641,-1.284867,0.054538555,1.0
Backdoor.Graybird-98970c86f23de51867088ebeda57ac2ea32d14ce4aea3b1ce33d30f7482a6448,-0.8885968,0.09503654,0.3522042,-0.06591099,-0.9255542,0.9610975,-0.8331723,0.5656308,0.62576616,-0.29484284,-0.2911101,0.5018176,0.49100515,-0.37275353,0.25506276,-0.9131104,-0.19847655,-0.15190482,0.9768659,0.7529032,-0.7353781,-0.7137185,-0.876749,0.11814324,1.0
Backdoor.Graybird-9a3a9d7c1d351acf199e6bd2b341f60fee80d72b2775e0cb823397a501994860,-0.3000166,-0.7587394,0.8315158,-0.10421058,-1.1741673,0.88640904,-1.0629005,0.4749636,0.8512207,-0.73508376,-0.43772084,0.38455683,0.06482048,0.490077,0.7279067,-0.974233,-0.49780467,0.6239299,0.76100385,0.9731886,0.07932269,-0.3371401,-0.51955104,0.8166658,1.0
Backdoor.Graybird-9aa73f468e17862621a2fad53b9d4d7b2e739f4529ca0271244b5306e4eab8d6,-0.08153871,0.16951162,-0.7574297,-0.3748285,-1.1844774,1.3970736,-0.5775667,0.9291514,0.8470273,-0.1979149,0.006448084,0.5625766,-0.9851215,-0.48762384,0.27865916,-0.8839753,0.3152482,-0.39952987,0.9727859,0.7561296,-1.1388917,-0.021960363,-0.52618116,0.0010040365,1.0
Backdoor.Graybird-9b214aadee23c6591c9ff73d0f579e35b8b2dee1b7ab8e5cfbd75a5a21bb885a,0.12881163,0.062718175,0.17113842,-0.51511407,-0.9351655,1.2646708,-0.5336816,0.86480457,0.78040165,-0.15495987,0.16756976,-0.43075943,-0.21203394,-0.40326044,0.45344257,-1.1226399,-0.70786625,0.44579488,0.9314792,0.14431939,-0.69372,-0.022074629,0.12916404,0.26770705,1.0
Backdoor.Graybird-9c1495b62ed7d9ed9e1c812aed748f99a5fb67d1a2ec3fdc92d72e2cee7a387d,-0.33134404,-0.29019547,0.5125352,-0.8737848,-1.2760111,1.2696134,-1.5950375,0.68241507,-0.03754015,-0.4556768,-1.0767124,-0.4232236,0.080110304,0.2970956,0.474333,-0.3044986,-0.09152008,-0.34077862,0.41630098,0.13131031,-1.5131311,-0.4582537,0.05931706,0.22109428,1.0
Backdoor.Graybird-9e2df649e165d2c1d71aecc2e127fc76d8d47d0d81a89c163eae69820d37bf20,-0.46173492,-0.27966318,0.64109784,-0.515721,-0.529565,0.052499596,-0.67041874,0.72306424,0.16595317,-0.708124,0.20494425,0.18508455,-0.55100465,-0.60425276,1.0728422,-0.12560171,0.24602233,0.10865701,1.0494099,0.51816875,-1.9196861,1.052756,-0.54783434,0.09657634,1.0
Backdoor.Graybird-9fb2b93a16534f2ee2ca6ae8290af116472da4351149a234accca893dba2a0f2,-0.33314282,0.2017219,0.7240842,-0.022147842,-0.7780548,0.7249429,-1.4942962,0.36466905,0.9501938,0.17279941,-0.36534494,-0.53383636,-0.12312628,0.4124763,0.6453061,-1.1126624,0.24011247,0.700202,0.80322504,0.52308834,-1.1891472,0.44946626,-1.1908469,0.20079435,1.0
Backdoor.Graybird-a035a8b8a7aacc5376be19dc3391fd2a77015718b8cf24d78052ac937b1728a7,0.35933274,0.09320511,0.79647565,0.048973635,-1.0413451,1.1172755,0.17990547,0.22376885,-0.019553972,-0.04164029,-0.15353602,0.3853609,0.020031761,-0.09906389,0.85328364,-0.33488902,0.4747971,0.039279103,0.6929897,0.41885605,-1.0513158,0.42154315,-0.4101096,1.5019848,1.0
Backdoor.Graybird-a0498a02cb192000d067d4f36547b86cb08637ee7a481600e910092c19a9ce9f,0.4921578,-0.5726359,0.56034267,-0.39424986,-1.5355527,1.0146614,-0.101094365,0.5369514,-0.759099,-0.8322634,-0.012732407,0.1547938,-0.60211974,-0.22508802,0.80180764,0.077784665,1.1361879,0.93223447,0.080084145,-0.7637823,-1.2498238,0.7177992,0.25387228,0.3750716,1.0
Backdoor.Graybird-a0a04c1fabf634b2f915f759027d71530989359d81650c39616c53fd5ebed357,0.34625432,-0.35428447,0.12011671,-0.5053746,-0.6632714,0.12229394,-1.3035685,0.9017937,-0.31804505,-0.26312354,-0.0356842,0.21486655,-0.36980855,0.1645604,0.94183415,0.27082297,0.29186225,0.31676653,0.9435302,-0.20424378,-1.6794602,0.8148697,-0.19788289,0.19296484,1.0
Backdoor.Graybird-a1fd6d8666fb7b058edc88955c022b3e35e36da23edbd184264ef39fa45805eb,0.9007194,-0.6341024,-0.039209124,-0.50819576,-1.500856,0.6393081,-0.1897882,0.7096167,-0.6012466,-0.74104327,-0.48102167,0.40216973,-0.2544791,-0.37094396,1.0399103,0.20367137,1.527904,0.5326941,0.5737793,-1.3021256,-1.5778626,0.6546993,0.26620436,-0.030886661,1.0
Backdoor.Graybird-a221b13a700b9045f22cd0d311320249d702dc9c524a63c481ef897d8c942ff6,0.28185588,-0.0023959363,0.6647839,-0.38288018,-0.7863837,0.6943433,-0.68523085,-0.52774507,-1.8571615,-0.18294375,-0.6078683,1.0753657,-0.86210626,-0.41724348,0.043438368,-0.70512897,-0.08696895,0.5945847,0.34543067,-0.820725,-0.65333176,0.15068984,0.023020588,0.11475396,1.0
Backdoor.Graybird-a227a623250f4c7c092fe77a5c045c32ad70c823e62f7bb33aa5ac1f008f1495,-0.5225311,-0.098503016,0.84397817,-1.0878546,-2.4301548,0.20802893,-0.7863757,0.13356219,-0.597171,0.5206076,0.1011538,0.8320005,-0.12914379,0.31123272,0.51678234,-0.3635771,-0.51955104,0.29956627,0.1398989,-0.57154727,-0.58910733,0.24137484,-0.4790468,0.4679242,1.0
Backdoor.Graybird-a4492c845667ef93abaf271159c99086b3859c054a659175e868d70abdfff9b5,-0.45188072,0.39338472,-0.21276484,-0.08361668,-1.471193,1.1967931,-0.5268372,0.055574365,0.35277283,-0.032006424,0.8588277,1.2379888,0.24678573,0.28558686,1.2751263,-0.8500016,1.1162326,0.75409245,-0.10394519,-0.8361348,-0.41585442,1.2901222,-0.2777225,0.52591926,1.0
Backdoor.Graybird-a76cec89ebfc66826a15c42805bf44594a8a6b253ddd6604640b3266f35cae11,-0.4212452,0.1524234,1.2238965,-0.35139015,-1.700602,0.6360779,-0.47580045,-0.26356697,-0.29571396,0.40117946,0.695738,0.61662966,-0.39890888,-0.55770975,0.15485601,-0.57924795,0.0750546,0.35175827,1.3103055,-0.20407224,0.49305376,0.4336668,-0.34043363,0.24834898,1.0
Backdoor.Graybird-a7a720a29e06215ed50f840a8d18f38825bfbbd4a42e07559b96d2f697bb9790,0.357625,-0.34262413,-0.6008549,-0.27823222,-1.1699804,-0.38737506,-0.46796325,0.034996055,-0.2909557,-0.029772652,0.6429652,1.0673305,-0.27669913,-1.1525218,0.23002207,-0.8383346,0.05842796,-0.06403229,1.5136012,-0.1449381,-0.9941377,1.1128724,-0.40614364,-0.043513495,1.0
Backdoor.Graybird-a7f764ea4a46e90e7099c57efc98ae694eaa367fdcac8d476fe4909a28f6f93e,-0.1085812,0.4897259,-0.8147939,-0.24541177,-1.3197448,0.5342205,-1.7021942,0.34953442,-0.58724195,0.47747776,0.53394276,1.2246289,-0.7523283,-0.15392935,0.2344405,-0.46709722,0.18017139,-0.34150097,1.556543,-0.49727964,-0.90514994,1.1930597,-0.7190166,-0.14718653,1.0
Backdoor.Graybird-a9b74966b43fc58513bdebe3503b486e27223be89656081715866bd929bcb6c1,-0.81568456,0.11695623,0.482817,-0.86825097,-2.357074,0.09503015,-0.7336864,0.75875974,-0.35967597,0.97593576,0.48132768,0.53004915,-0.0059278123,0.44162172,0.32377914,-0.5998442,-1.0015422,0.20073245,0.47951752,-0.3570349,-0.5487406,0.2645413,-0.69758993,-0.09299595,1.0
Backdoor.Graybird-aa7c621dd35e31ae61d7a2b36dc4e515485c4e56c4ce9a133dea31594a5ab6e8,-0.9914178,0.98615295,-0.86705405,-0.42541176,-1.2850412,0.9762079,-0.72615516,0.9997454,-0.39919677,0.12281695,0.3646369,0.77550924,-0.43616718,0.37332612,0.44064456,-0.9442855,-0.0036005222,-0.5311895,0.87805146,0.43900007,-1.6284438,-0.08667947,-0.462412,0.31064877,1.0
Backdoor.Graybird-abfe016fe929fdfce4bfc9426a4bf7e6b99e4faeba2a4d3603912c414cff4b01,-0.34566894,0.04314269,0.6466174,0.15214215,-1.1307946,-0.501671,-1.0221778,1.0596957,0.075758144,-0.016886456,1.0611224,0.21964791,-1.3805594,-0.4511202,0.57145286,-0.7246324,-0.027234739,-0.25006938,1.0040574,0.16257724,-1.0259849,0.9552301,-0.5753176,-0.44554478,1.0
Backdoor.Graybird-ac449976a1b7cb50b8e71f28be4ef44bd6f6642e3b0c5ccdfb26822e79b98537,-0.6484116,0.21154152,0.1481559,-0.3000332,-1.241736,-0.030655589,-1.1127084,1.4986343,1.1392696,-0.37371537,0.45134908,1.2520753,-0.88880795,0.26691905,0.49102038,-0.25593376,-0.7128017,0.23888159,0.34476215,-0.3909655,-0.7202611,-0.4559294,-0.48133853,0.31689012,1.0
Backdoor.Graybird-ac4add28458e73105e8f654da05566e4015098744e8aebb3204aee72caa57e9e,-0.77831495,-0.06918174,-0.6168871,-0.70256644,-0.665071,-0.73991954,-0.8979462,0.26116762,-0.36999467,-0.054039765,0.27196577,0.28044763,-0.9175997,-0.07499335,0.96019495,-0.81966466,0.1658488,0.052961122,1.1971492,-0.7592302,-1.7971773,0.7325786,-1.0149599,-0.11077319,1.0
Backdoor.Graybird-ad74a71d3a7f3b6b6210cc7dd1d30b3663949dd5ef418dbd619adf39ca5c48ba,-1.3515719,-0.010518385,0.34153944,-0.05901913,1.1571211,0.18057224,-1.0583043,1.5796667,0.27353805,0.16707869,0.3693187,0.48124403,-0.25239533,-0.13780837,0.73503166,-1.0614632,-0.023004197,-0.21251489,0.13702516,-0.40409055,-1.2409114,0.6569327,0.07726425,0.08102063,1.0
Backdoor.Graybird-ad90f50d4ca71148c1a52506f79f120410d3181462295f8524580688548a0396,-1.143588,-0.2993217,0.0019873115,-0.019107537,-0.92350465,-0.44425365,-1.3242401,0.65043175,0.2161083,0.6735089,0.85346955,0.3275061,-0.13324668,0.41533622,0.48222014,-0.14119597,-0.032619275,-0.86754614,0.03675829,-0.59117025,-1.4465559,1.1297516,-0.3730791,-0.33227852,1.0
Backdoor.Graybird-ad96e019652bae1367bbbde130c9e6e7098048b89b82f89353ea0aa688f49b10,-0.94523346,0.2152535,0.048000373,-0.04972694,-1.4471686,0.08706556,-0.43501818,0.96549255,0.5841797,0.7244607,0.5582026,0.6479928,-0.12975869,1.1711347,0.44238827,0.014927072,-0.11830456,-0.9866617,0.12067924,-0.9102517,-0.87687033,0.22087657,0.17101686,0.6614092,1.0
Backdoor.Graybird-ad9900cf8bf77c5291d6583fa7d2bf68ad622e2404b85bd87fc99b4a76cf9ee1,-1.2429214,-0.03650237,-0.47974357,-0.18308082,-0.8908051,1.0349765,-0.660536,1.4873787,1.1921846,-0.3038115,0.37533703,1.054713,-0.8745402,0.85659903,0.7025686,-0.3281216,0.77504903,-0.023327237,0.26713908,-0.37781066,-0.39937228,-0.25485823,0.20859912,0.2779517,1.0
Backdoor.Graybird-ada0d13de57259ca50f6c6137799d46819ad67d2730c83da6e11cf07eec1f93f,-1.4244068,-0.14342362,-0.65122104,-0.038163394,-0.25388846,0.38823497,-0.73832256,1.0907497,0.93818706,-0.5210651,0.35123247,0.29689947,-0.82330984,-0.19955458,0.8959026,-0.5271104,0.89859086,-0.38355088,0.2073659,-0.6961835,-0.63158154,0.6055943,-0.53834486,-0.44419214,1.0
Backdoor.Graybird-ae51172509ee5dc56c8f1c971c67fcf819300950ca16836957b08483d575ed52,-0.6468804,0.73703146,-0.13197406,0.25350344,-1.430723,-0.6887844,-0.8722643,0.9336528,0.79438204,-0.19233973,-0.84211916,0.14136912,-1.4131894,0.9100222,0.2636518,-0.6987294,1.5126411,-0.55719054,-0.029458925,-0.3322798,-0.39886692,0.5374369,-0.6524775,-0.96822876,1.0
Backdoor.Graybird-afee8e31fe9fb0951bdb8389508c98a1de93dbf3beb5eab5725263e529f36abb,-0.5497922,-0.11114317,-0.15714517,-0.15009117,-0.18582974,0.038296327,-0.699793,0.4195145,0.017420512,0.091149785,-0.13559975,0.42551255,-1.0119001,1.1889476,0.5131311,-0.94120353,0.3388693,-1.4075375,0.016634634,-0.30534843,0.4240949,0.32491574,-0.7813105,-0.3165391,1.0
Backdoor.Graybird-b0e89e830426555734cc9364af793e2d18c2da4c2637ba0a4958fdefaf4c4f3b,0.17915846,0.092918195,-0.399443,-1.0662374,-0.52186614,0.46275556,-1.1530389,0.7053349,0.39645582,0.18400897,-0.4772841,0.1941903,-0.30665666,1.3879217,0.33446142,-0.011253955,1.2530562,-1.0070083,0.14387102,-0.040514328,0.24951765,0.48014417,-1.024331,-1.2704638,1.0
Backdoor.Graybird-b4b202425d9d0632578ac630d5d3399c1e978c392bccc49015d296804c2d050e,-0.24043538,1.2962255,-1.1194904,-0.5933285,-0.51011866,1.2720273,-0.6336696,0.668715,0.26970768,-0.61677915,0.26315448,0.5283657,-0.071070805,1.0100142,0.8342737,-0.65969753,0.36072326,-0.5636183,0.51121694,0.22467752,-1.215733,0.38099006,-1.0194376,-0.6160218,1.0
Backdoor.Graybird-b50c771b0643fcc2080eafe121cb24dc5f21cbdb5ee1d6a80833e7c892d0c42d,-0.14051859,0.032884642,0.022670075,0.21679704,-0.6059421,0.5770017,-1.4062725,1.1799655,1.206684,0.23316835,-0.47376224,0.82239914,0.29772797,0.7864799,1.2648041,-0.87203974,-1.0744494e-05,-0.26602373,0.77560914,0.36333564,-0.23103482,0.18204401,-1.2241096,-0.33644828,1.0
Backdoor.Graybird-b62439942588e8e2953b38988d69c96093a848cbd09b6c56ff8a90a46acdeee1,-0.22739284,0.7230434,-0.4767792,-0.17926025,-0.5584789,1.3845974,-1.0371509,1.2035111,1.3020822,-0.10073967,0.49730828,0.3371599,0.07246559,0.69178957,-0.23983891,0.16751423,0.38216177,-1.238656,0.08992773,0.045927852,-0.8926678,0.17006175,-0.30960447,-0.29186347,1.0
Backdoor.Graybird-b66dc00d759d7e7bd24d8a7ffea8a7629b7d498777351a92b218c94084490813,-0.45848176,0.20683832,0.36562392,-0.23523076,-0.8004294,0.60123205,-1.6676884,0.49471176,1.4094719,0.17130832,-0.34628114,0.31639966,0.2751349,0.9757155,0.44754678,-0.6691758,0.11706763,-0.16423498,0.89605886,0.6180574,-0.20810951,0.12344228,-1.4763054,0.2268833,1.0
Backdoor.Graybird-b76eaa093ad34277a7a5edbc5fb0baa5a29e0225f975fff671c4640b229a4b7b,-1.3366673,0.07757741,-0.44491896,-0.23958969,-0.7581781,1.0346906,-0.81267434,1.2252172,1.2630459,-0.42523226,0.18627955,0.7721178,-0.59929895,1.0183966,0.58201414,-0.39764735,0.87380743,0.21805234,0.06026445,-0.031687148,-0.62289125,-0.24167687,0.2763664,0.050149117,1.0
Backdoor.Graybird-b7736881b6aa7a0bf18c5e27ba9055755ffde26b3664c0cc2170381946bfa384,-0.12714832,0.5120552,0.28623164,-1.0319935,-0.23771107,1.325141,-0.8770953,0.93383807,1.1348448,0.022948291,0.30504072,1.1101788,-0.20990355,0.41469866,1.3295214,-0.16097781,1.048815,0.05664498,0.8113385,0.09326799,-0.1936775,0.8761743,-0.045145854,-0.038884304,1.0
Backdoor.Graybird-b8c6f42091540caf959c5f816c3b30a2c84f93031292bcd29cc41b3bb4f9bda8,-0.067944415,0.7854517,0.28753683,-0.6713129,-1.409256,0.658331,-1.2344687,1.050827,0.56219786,0.3043098,-0.1935989,1.1427127,-0.136405,1.4869255,-0.35702237,0.6855767,0.53230053,-0.7767593,0.95259035,0.13531442,-0.21876948,-0.4750292,0.23311181,-0.16164075,1.0
Backdoor.Graybird-b8ff0d86c56138a367840fcfdd9fb22a6e81662f2587374bc7da963bd7932695,-0.10944649,0.0884443,0.61562914,-0.5503303,-1.1831931,1.0277754,-1.431154,0.91168696,0.06198724,-0.47446093,-0.72192806,0.6073683,0.28487232,0.4576589,0.6903089,-0.67973983,-0.655488,-0.6606316,0.1420882,0.27627248,-1.2347589,-0.81179667,-0.4714763,-0.07529948,1.0
Backdoor.Graybird-ba96f8453e48690995c933fb5c2c66ddda190efb57210194df1d4a39567cb717,-0.010877997,0.8094756,0.33435512,-0.5223589,-0.616251,0.57731044,-1.7644265,0.23352927,0.029631184,-0.64209026,-0.21712427,0.30334648,-0.27764243,0.641932,0.9889487,-0.4968355,-0.018947547,-0.3614983,0.9428666,0.4609846,-0.51257753,0.56068265,-0.7675018,-0.17066759,1.0
Backdoor.Graybird-baab9ad8886c8e2217215c04cafec5d183d1e867148ff7dab39ac3b405b0d32e,0.1008789,0.4946058,-0.01949005,-0.36419976,-0.83964896,0.4491286,-1.1806904,0.27995545,0.007770086,-0.8777596,0.14361267,0.09989971,-0.25552613,-0.04547718,1.4867662,-0.8208236,-0.061344482,0.09305021,1.2689271,-0.2722529,-1.2640251,1.07406,-1.4192337,0.19638088,1.0
Backdoor.Graybird-bb3bcd7121f8fc69917389f87203921a174bdc227a86543480d0eb1e00424e03,1.0704373,1.02123,0.0878683,-0.90949404,1.0099756,0.6328022,-0.53096664,0.42639884,-0.72324264,-0.39153254,-0.37867203,0.26334065,0.06535949,0.2631567,-0.004855443,-0.6823303,0.24808657,-0.9711048,0.85112345,0.4189913,-1.4662043,0.5868863,-0.567789,0.28211865,1.0
Backdoor.Graybird-bb50e9e002128a3c9f93d264af4e428ddb1b17d052fdd7d3382eebd968752ba4,0.06367794,1.1884593,0.89644486,-0.37400362,-0.26459593,0.8255308,-1.1539713,0.7960448,0.73798865,-0.012650703,-0.783818,-0.08138661,0.6550914,0.7668658,0.9229083,-1.0061545,-0.14847712,-0.23986232,1.2219139,0.71539897,-0.66168725,0.23471841,-1.218846,-0.2367407,1.0
Backdoor.Graybird-bbc2b33dd5221c657bc85954d7765dbaeea17c76cd081f0245b310266d729a9e,0.02297995,0.17935674,0.6703094,-0.0565727,-0.43320605,0.07396676,-1.4260923,0.5701657,-0.8795952,-0.3911627,-0.053257473,0.10227264,-0.7190574,0.5397846,0.70290875,-0.50098836,-0.88153476,0.19409293,0.48453078,-0.13137677,-1.5327846,0.8291544,-0.6313565,0.23129557,1.0
Backdoor.Graybird-bc0d7b7b3bd4174a6a541b3a330761d73e33784bb20ec3af183d87af0b0d22a2,-0.50848174,1.5629252,-0.8896837,-0.6313569,-0.9471872,0.99821013,-0.6064109,1.1887847,-0.08456223,-0.5433018,0.21564919,0.53626615,-0.21906099,0.66969895,0.76760995,-0.7775649,0.084668174,-0.6906911,0.7276126,0.2611398,-1.3709484,0.44040778,-0.5448041,-0.36140412,1.0
Backdoor.Graybird-bd5688c51d6dfccc1039fb219ab892c35ba24d9822d86ab40c97923c9c570d17,-0.34736213,0.79994565,-0.5499331,-0.007235216,-0.8165954,-0.22419365,-1.2959365,0.6089463,-0.2611408,-0.3416418,-0.483542,0.13061197,-0.68750036,0.18887876,-0.017946927,-0.55692995,0.23869283,-0.58143854,1.2239704,0.53965473,-1.246956,1.2372453,-0.6946616,0.42893746,1.0
Infostealer.Limitail-00ef4eae8d3744a94cdad3d143180163d2805eb3efa4b471dc70fba7fe1ce917,0.37147582,0.72743607,-0.088120215,-0.5414495,-0.03780442,-1.0146047,-0.42365658,0.5548446,-0.690795,-0.50084466,-0.86377853,0.4148698,-0.012679781,0.9332298,-0.53089535,-1.1547029,0.2938807,-0.8532816,-0.3551782,-0.3569364,-0.7983778,0.49795353,0.14714123,-0.25974166,4.0
Infostealer.Limitail-0123ab6dd5cc869f8915767ce440642b8305beabbb8b326f65a74952fc23417c,-0.017830204,0.9743611,0.88679266,-0.7834081,1.0230019,0.19230746,0.77262247,1.0405248,0.05320403,-0.03137435,0.4566806,0.5788779,-0.1578718,0.095538616,0.2199127,-0.93312603,0.77118057,-0.57981473,0.60326433,0.7425046,-0.79712695,1.0191584,-0.26933306,1.4670537,4.0
Infostealer.Limitail-0475d54d5b6d3d7ae744cc7bede1496bde02dc30da9c1d3d6735e8a9b06b5603,-0.8400706,0.9131069,0.3649376,-0.5141622,0.44206274,-0.067151345,-0.6736258,1.8668433,-0.70807683,-0.44236097,0.07791366,0.6583735,-0.012982595,-0.7313844,-0.4564488,-0.8167716,0.053937834,0.29450932,0.037732333,0.36799964,-1.0903038,0.9450899,-0.5506675,0.777407,4.0
Infostealer.Limitail-06782b2472460f2d91238d0c524dfda4d52bfc43f2c48c2bed652e595fed3985,-0.5883438,0.6514324,-0.030487532,-0.7120182,0.49757794,0.14985856,-0.4804618,2.0836296,-1.0167105,-0.35651407,-0.4042259,-0.20970681,-0.09562646,0.254243,-0.38142022,-0.19248413,0.7608019,0.18489715,0.69796944,-0.55877626,-0.72741765,0.5247686,0.61241955,0.66795325,4.0
Infostealer.Limitail-09ff450c5df368071b2e3016656d3ba91f9db8760d61706711ec453f8409f933,0.3921827,-0.0041208607,0.9093151,0.5087401,0.379036,-0.5254914,-0.3129637,1.3623849,-0.68946123,-0.8914943,-0.059897896,0.19309548,-0.3731244,0.26098233,-0.44830585,-0.9361148,0.0005853501,-0.76512945,-0.20507334,0.0044828835,-1.4885696,-0.22752647,0.05484168,0.6900049,4.0
Infostealer.Limitail-0a1de690d2206a17d79c5b5d732d1e22ed66be863603f7158a4dd3d1c05e64af,0.039695706,0.0818569,0.011630306,-0.50820047,0.7136837,-0.08609058,-0.59753233,1.323499,0.010094539,-0.22526304,-0.26362646,0.8181722,0.7755939,0.50118,0.86103886,-1.175247,0.21453246,-0.081028335,-0.4230462,-0.8965258,-0.56542695,0.2606585,0.070881575,0.78823674,4.0
Infostealer.Limitail-0aabdd5ede5205920b2005f74fff2e166128f7bb03bc05187a0f9869db90b956,1.0245625,0.34446225,0.154975,-0.23782931,1.0979128,0.47892737,0.42040044,0.83661026,-0.4937561,-0.22950853,0.013662268,1.1210474,-0.8687806,-0.095387876,-0.63870436,-0.77205753,1.0478925,-0.2999235,-0.026296677,0.5194273,-2.121077,0.27105471,-0.3204074,0.04884683,4.0
Infostealer.Limitail-0b6c32474d27befbde890587ef0c17758a294919cb94ce9877b4f47fe5c8c7cc,-0.04672809,-0.27347407,-0.5287111,-1.2383242,0.28243262,-0.1749567,-0.7493899,0.6503818,-0.04737142,-0.53068364,0.35767713,1.1615593,-0.60922915,0.6873418,-0.10033272,-1.323886,0.9183156,-0.48094663,-0.6283322,-0.20032367,-0.11010852,0.8106548,0.4235992,0.39618388,4.0
Infostealer.Limitail-0c099054f7dfc82eec2cb236792bdda71cbfa1b0bff29faa1c29a085942642ee,-0.71266186,-0.032768328,0.4299402,-1.2358305,0.85946405,1.4027891,-0.59769136,1.2224827,-0.062266614,0.2469666,1.0287142,0.3608505,-0.2323647,0.5422938,0.080655985,-0.6564184,-0.13388708,-0.49869233,-0.6815667,-0.91598344,-0.7245666,-0.2893728,-0.6474308,0.19984455,4.0
Infostealer.Limitail-0d32a0301c155ae34f05082bda13659a657abd14c99611e4cc773ee38fe4f6ed,1.486458,-0.5051,0.13828827,-0.27029756,0.5127152,0.5099505,-0.16805997,1.5595775,0.47759333,0.2532967,0.056066867,0.44591832,0.47570816,0.4224426,-0.43064034,-1.1502547,0.04233995,-0.31097865,-0.5970483,-0.5034915,-1.2563381,0.8601279,0.78101957,0.691075,4.0
Infostealer.Limitail-0d485c1fc0333c23dad74c9823486e5730d1ad15ebb95f7ad556254c00d66bce,-1.321392,-0.028407406,0.5654115,-0.0011416234,1.7390693,0.21360418,-1.0617238,1.482149,-0.22483762,-0.49921983,0.4354042,0.6001284,0.18363868,0.1495604,0.21717174,-0.7798145,0.06830888,0.5164667,-0.57095057,-0.8607552,-1.4107879,0.4688876,0.5340647,-0.067365535,4.0
Infostealer.Limitail-0e505630743126bbfe7849d0a4c644d021a9b03a00673a4a4080d66a5b463de4,-0.71433,0.4562533,1.4366297,-0.30363375,0.64868426,0.64564294,-0.58695966,0.74303865,-0.36308196,-0.103678145,-0.2306503,1.115867,0.74878615,-0.24180618,-0.24693523,-0.4439661,1.4991918,0.62269694,-0.53521055,-0.14254811,-0.36204746,0.5781594,0.86082506,0.036100805,4.0
Infostealer.Limitail-0f69f12074e1eb0676e76876df23160e0a478d6a5aa99a05920f3738ec61bbbc,0.29708177,0.12679592,0.25586474,-0.15205961,0.87534964,0.23672545,-0.5168194,1.0163761,-0.41849816,-0.098762766,0.47798938,0.60085404,0.6556407,0.3538574,-0.24890304,-0.4604481,0.8490021,1.312055,-0.40366006,-0.22670723,-1.0817541,0.24122328,-0.09195772,-0.19114386,4.0
Infostealer.Limitail-0f980c7daa8aed3f5ec136e578fbb78a1ceb392fb2f5116e17726485b18e1fbd,0.35320884,0.20847225,0.4820294,0.043738093,0.7266255,0.10174042,-0.85100543,0.25287145,-0.6518484,0.597752,0.23757817,0.17779374,1.2128012,0.4447806,-1.1807729,-0.84456426,0.1013331,0.72192085,0.0274562,-1.6736676,-0.65917116,0.59712094,-0.8478706,0.98394734,4.0
Infostealer.Limitail-10f5d0f417623ea40f0c90ad193d6a11b2c08cb367fa06d2e6afc898c296cc9f,0.39704078,0.9440666,0.05295361,-0.12456171,0.046045512,0.13647726,-0.5496371,0.9648376,-0.2848112,-0.47882712,0.29190293,0.8681394,1.0051043,-0.43222418,-1.3603804,-0.35366592,1.2171035,0.20053405,-0.34479123,-0.09767815,-0.77536833,0.35444435,0.2530611,-0.056003217,4.0
Infostealer.Limitail-118b08bf351375c6d3aea39afb26196640ea6b6d9b065352425ce11d691ef1e3,0.43950012,-0.5279252,0.10418979,-0.8402105,0.6212678,-0.17056903,-0.5452401,0.36089715,-0.3231053,-0.73201877,0.61054295,0.9521328,-0.30684006,0.5453165,-0.37848464,-1.6406475,0.5247497,-0.014465103,-0.14939779,-0.06607098,-0.23567358,-0.179575,0.84313285,0.09720062,4.0
Infostealer.Limitail-1210fa15170398851d251cd557e382016a5e5cda335e0bd1156626028a66e024,0.40538603,0.07011036,0.62087774,-0.17971496,0.58039564,-0.44330993,0.21690407,-0.111161746,0.91161793,-0.17591603,1.8759719,0.651116,0.82153547,0.47628045,-0.4531602,-0.92524683,0.41933852,0.77691656,-0.28479367,-0.97466636,-1.0047103,0.24790019,0.7570996,0.25704992,4.0
Infostealer.Limitail-135866733dc9b1bd01754f70f069fc3b15c26a930b450745cd73ad3084b61291,0.2701188,0.530406,0.11734358,-0.22719683,0.42704564,-0.13235074,0.052412763,0.17045927,0.50923485,0.20660186,0.9485762,1.0927904,0.5074838,0.028440854,-0.18394446,-0.6034448,0.6188696,0.68655795,1.035782,-0.46998647,-1.0665308,0.13521184,1.349452,-0.14301373,4.0
Infostealer.Limitail-135f565f6b7ab8ff429f048b0f42b25310db9cfa300547df3a14fe3a6e6aa9af,0.25876886,-0.05299314,0.47567824,-0.100630045,0.011653201,-0.3571424,-0.2726088,0.08591743,0.27200577,0.19180894,1.4012673,1.9501786,0.49072257,-0.40395364,-0.5931675,-0.48716837,0.5348224,0.5914627,0.04103702,-0.60534734,-0.30780354,0.42689756,-0.03413924,-0.2742206,4.0
Infostealer.Limitail-136bbbe694ed496d41388c5ace11649782ecb8a4e46e278cb2b23349404f904c,0.45859608,-0.27434093,0.9988802,-0.3263265,1.11143,0.044936515,0.10935101,1.4734097,0.9011228,0.17625262,1.6237891,0.69990367,-0.2868814,0.089369886,-0.23054942,-1.0480713,1.2291174,0.36539102,1.2574352,0.27265477,-0.23253168,0.5562999,0.68966734,0.6468975,4.0
Infostealer.Limitail-13ef19db6da118df6fcb8f7775f3b0a6092f68012c8526c7badc5e65991a4d06,0.5049926,0.66826916,1.0420686,-0.83695817,0.39998794,-0.6964512,-0.40941295,0.65898556,0.04139055,0.3851657,-0.47995254,1.5785143,0.09193196,-0.6101349,-0.73390955,-0.55957776,1.0229882,0.6759339,0.35458356,-0.107382,0.0376057,1.1677234,0.26611513,0.31418487,4.0
Infostealer.Limitail-14205ce7af4fbc01aa3215de9a7f5f752e193ab3c632d4c1617408dd7c6c0f04,0.4605572,-0.18089229,-0.057881594,-0.13019677,0.29845777,-0.918583,-0.01591878,0.49926877,-0.4341888,0.12657207,0.26557496,1.3937526,0.71644694,0.22142075,-0.58425045,-1.5249635,1.2068082,-0.043257874,0.80127966,0.18583488,0.117716454,-0.07344776,0.338152,-0.40252644,4.0
Infostealer.Limitail-16631e735f7335a9b82f9a27ef48fbaa514d67b5f9f4ac21709e59f8f4036ac4,0.6423857,0.23327497,0.6032076,-0.42492008,0.5503806,-0.28141245,0.89140064,0.09642797,0.3841126,0.2724962,-0.8295394,2.1279492,0.4592498,-0.30421913,-0.9751267,-0.8149845,1.2267864,-0.46084338,0.40285993,-1.3091632,0.10768116,0.124833405,0.025475105,0.47313002,4.0
Infostealer.Limitail-17f4c22278ea2d9352a1ffbe29ac02439b4c4bf04e815723775a9f217979f5b9,1.4608576,-0.035199136,1.0170021,-0.53123,-0.27917042,-0.15189067,-0.019426512,0.070592806,0.54446596,0.23350805,0.17983003,0.8968658,0.15045303,0.32461017,-1.2404652,-0.7295444,-0.5427845,-0.06507386,-0.49815404,-0.71266884,-1.2366283,0.8620758,0.46479294,1.1002128,4.0
Infostealer.Limitail-183e71ad07ec140f089741d41c465c6bcd1c0999c60eeb7a1358bc67bfea29a7,0.838065,0.053546105,0.4330235,-0.32393834,0.3132538,-0.61880493,0.5430144,0.7956172,0.008406348,-0.122298054,-0.37327564,0.13979055,0.25600776,0.6624697,-0.4195502,-1.0683601,0.3076989,0.077460475,-0.75252235,-1.1547807,-1.5056192,-0.031137343,0.5838513,-0.121024415,4.0
Infostealer.Limitail-185dc17283169b8b5e81b9e447328d058ced407d7da1aa0f6a15938b9ee0794c,0.5080243,1.1129144,0.571998,-0.7073542,0.14261779,-1.2263604,-0.838501,-0.10987828,0.66439813,-0.20844287,-0.551026,0.68259156,0.6148004,0.5548758,-0.022706682,-1.1568583,0.09162902,0.20055592,0.52100575,-0.6753634,-0.3987754,0.18726501,0.72251654,-0.047383454,4.0
Infostealer.Limitail-18916d5bd986736cd42f59cac3c089066b67b47f7ea971766fb178289ef1123a,-0.2194236,0.752315,-0.020312354,0.099763386,0.0013139378,-0.15493946,0.34255424,1.1029321,-0.58833796,-0.44826224,-0.036158394,0.08721929,-1.1297125,1.6007208,-0.91703194,-1.7423444,0.91970444,0.13445331,-0.39357746,0.03717055,0.5818663,-0.33669928,-0.03246688,-0.043924198,4.0
Infostealer.Limitail-196f9d41e0fa5fd254a5fd3aa41bc6c9fd0c86d1ee06cc049a34115e1a270bfa,0.7522118,1.2151474,1.9084901,0.17275958,-0.25431037,0.1493407,-0.20734249,0.8150696,0.36246222,-0.5818922,-0.43276453,0.7862253,0.034514032,0.2898416,0.12604365,-1.3516109,-0.012890685,0.24854347,-0.00697546,-0.9201607,0.40039405,-0.4412197,0.58389765,-0.26326165,4.0
Infostealer.Limitail-1aec488c2f3976d4475c776b2f26c02af5c2cc7f45c296590cd6c5038574a92c,0.19347374,0.32476434,1.1540786,0.025047816,0.82350814,-0.17109162,0.23461129,0.083220765,0.12213231,-0.5417254,-0.2391478,0.40208146,0.20539883,0.9141543,0.5293309,-1.3907357,-0.053165622,1.1041131,-0.4004128,-1.076176,-0.50929105,-0.3177059,0.4617031,0.24220714,4.0
Infostealer.Limitail-1b6e85db35b48ddfd20291b4c3779ddc1c9561ddf059078c3f939d7d7056bc6e,0.07712826,1.4178053,0.9119891,-0.94469756,0.37797147,0.10444997,1.1818286,0.8605959,0.1550168,-0.4652393,-0.007022382,0.74153215,0.28703627,0.5893789,0.38070104,-2.1069238,0.5987174,-0.20365189,-0.020364836,-0.46377578,0.59142333,-0.32814977,0.54159856,0.30505475,4.0
Infostealer.Limitail-1d078f7168bd934908c48a33d8262b148640b67d0ab541ba117289233ee3a529,-0.6464655,0.30656385,1.0698755,-0.36468115,-0.15284424,-0.6357526,0.3117598,0.48079294,-0.5084413,-0.6272424,0.54562217,0.019852357,-0.17436926,-0.02187283,0.5864614,-1.5292041,0.6871454,-0.096958876,0.11366591,-0.6149528,0.28645855,0.02347267,0.19608776,-0.3169961,4.0
Infostealer.Limitail-1e9ed45964eb13969340c97a213d5863ca4d946a2ccd2e5edafd69f01de133f0,0.38112187,0.2543775,1.135596,0.7703346,0.09667579,-0.34641308,0.28680423,1.2339151,0.44874156,-0.2172095,-0.0913003,0.32437962,0.3656176,0.44262403,-0.3737744,-1.7325248,-0.45349297,-0.7699216,0.12682226,-0.10494845,-0.46862724,-0.5884774,0.36769924,-0.067836024,4.0
Infostealer.Limitail-21cd67693f44fa376e69a14c648650f851c65ba0a50c316712f5a17db01a9994,-0.32471022,0.11655527,1.1815351,-0.49661946,0.18743332,0.42807132,-0.86049455,1.1390086,-0.52279526,-0.8864454,-0.7163792,-0.6064966,-1.0725173,0.6984631,0.7883119,-0.996929,-0.08978221,0.40197375,-0.0641191,-1.2665992,-0.057795018,-0.034693554,-0.19985044,-0.40954533,4.0
Infostealer.Limitail-220649e7dc6ca90a1512f189c5af105b5aeff8dba7eea9353c149e4317539e74,-1.0953065,-0.081821255,1.0956303,-0.52541864,0.5120223,0.63018715,-0.93155134,1.3419386,-0.4635616,-0.7436893,0.80559003,0.13056117,0.29315045,-0.2553385,0.6115595,-1.0525254,-0.59155977,0.061913688,-0.70491713,-0.75079983,-0.06269168,0.4230745,0.19832519,-0.9247779,4.0
Infostealer.Limitail-227eb01ab3857e0714f61a353095f8917abcc460c08fab7d09a9cfabd4369d9f,0.49251434,-0.12666976,0.25005332,-1.2740014,0.93675774,0.15488678,-0.4678518,0.33599055,-0.014032042,-0.79956996,0.46679196,0.9668562,-0.34116536,0.66128945,-0.44671196,-1.3561975,0.20205328,-0.07147238,-0.14520471,-0.31243813,-0.124127105,-0.26232,0.66174,-0.3736664,4.0
Infostealer.Limitail-2375a171b77127674c743222c3bc4b296f96f5d3f021bced6ff7121c02a0cb3a,-1.1991994,-0.3063893,0.62952137,-1.6240398,0.2462046,1.351235,-1.0527875,0.43210512,-0.042724032,-0.40627778,0.08883245,0.8822416,0.4853153,-1.223541,0.04830107,-1.7669411,-0.059223272,-0.21666953,-0.19942455,-0.61330503,0.6277746,0.13961278,-0.59405184,-0.7514995,4.0
Infostealer.Limitail-237746f2268f808cb79eddc9863637eb96517e8c61863e716f9536096480a1e2,-0.6194424,0.430556,0.037615016,-1.2043965,-0.49574563,1.0850838,-1.0974598,0.5799082,-0.7204532,-0.8013686,0.032981515,0.42902067,0.5150193,-0.4641887,-0.1767234,-1.4364706,-0.22008009,0.030163124,-0.19385166,0.14837363,0.56870544,0.42749816,0.10985543,-0.13646702,4.0
Infostealer.Limitail-241c5405d6d07768628732edf079d8eac93ff3b510d2582258c6bfd823de45fb,-0.5319072,0.54880965,0.84961784,-1.0095856,-0.7135942,1.309698,-0.6226773,0.92759514,-0.09714414,-0.11208289,0.28442788,0.42469716,0.6689171,-0.54984784,-0.4328433,-0.9884376,-0.16647474,-0.60004336,0.44447947,0.69613844,0.4384688,0.03160222,-0.35814694,0.15981422,4.0
Infostealer.Limitail-2518cbdda8b91112239a3a59faee20fa5f52e6bf34e93d133638cfcd83ee3b03,0.26060048,-0.008728133,0.35804188,-1.1954829,0.4523597,0.35120925,-0.33338076,0.040158078,-0.23233387,-0.60072285,0.22246104,1.574879,-0.025913142,0.7493514,-0.097228214,-1.7997689,0.049015008,-0.52571833,0.016192857,0.3982623,0.7399313,-0.48536244,0.05033588,0.17816097,4.0
Infostealer.Limitail-261e287373e8644ef30b579b34dc5a9def0965645fd0177a3fcba87749c46747,0.9694362,-0.19708449,1.0691468,-1.1235288,-0.5356551,0.07672103,0.15362948,0.6721819,-0.43117678,-0.35434407,-0.23481092,0.06488284,0.7272953,-0.65948665,-0.87148756,-0.9802046,0.05907979,-0.7354781,0.047534835,-0.01659598,-0.50107396,-0.020364324,0.8878754,-0.23123741,4.0
Infostealer.Limitail-2a1e55236634cdde2548ab817429fcb734d75feead122784f413114cd3a3dcd3,0.21329784,1.1483624,1.0142845,0.054183654,-0.43165517,0.5448532,0.16488808,0.24973929,-0.25974783,-1.1163652,-0.30398738,0.24409992,0.023611506,-0.9111814,-1.125828,-1.0941541,-0.024882104,-0.89176184,-0.28240335,0.051077552,-0.67563856,-0.022911577,0.34090558,-0.063601494,4.0
Infostealer.Limitail-2a68b2e3158eade9b9819de0dbd4b13d1abd16da38476327abb3692d5bc1968f,0.0035794433,-0.5037296,0.3495071,-0.15579368,-0.5589231,-0.8616975,0.108943045,0.493997,-0.23408206,0.2691088,0.20677616,0.8338267,0.72246075,-0.25139782,-0.04901054,-2.3465414,0.20301747,-0.44856685,1.1293643,0.59516156,-0.10523249,-0.40858993,0.70285314,-0.3109031,4.0
Infostealer.Limitail-2b45f467b7358db4b30026ddbe8c4bb947c199f7a9a52a8aec18622b22a4b544,-0.78105175,0.5565728,1.0573937,-0.5031574,0.36649898,0.028972082,-0.58779114,1.0378431,-0.98832285,-0.29493952,1.0839161,0.3317444,0.7522027,-0.6064535,-0.08916629,-1.3197731,-0.31206986,-0.2967707,0.07847377,0.32168224,-0.79228693,0.15995458,0.057013195,-0.04992279,4.0
Infostealer.Limitail-2cd3bb434bf5b37d4bc2421606c8e9011efbbf9ae77885a609d2416a5b9c08a2,0.50454384,-0.14916734,0.6323294,-0.86039346,-0.87916136,0.23720697,-0.23657368,0.42404738,-0.2454997,-0.25499353,-0.5649921,0.94198567,0.3517129,-0.4726282,-0.1803609,-1.9201602,0.6732846,-0.7719857,0.25492278,0.62721366,-0.18183492,0.017783748,0.90636355,-0.6573609,4.0
Infostealer.Limitail-34477322c51b74bb6036ef0b32cd0bc40521ad9de078f44414bbbbe8595bc8ee,-0.97449,1.0000083,1.0521086,-0.4424225,-0.7250643,-0.1933625,0.43371198,0.43640107,-0.82299834,-0.91714215,-0.04526852,0.076708056,0.2175853,-0.7304269,-0.3213955,-0.40180922,0.5200281,-0.6503923,0.19232866,-0.07071974,-0.8716062,0.27840456,0.49113795,0.29654104,4.0
Infostealer.Limitail-34509889656af4d6e305b69619b898f423c4780f916c619ab8003b41ddc6e77d,-1.062,0.24398956,0.6675849,-0.4336044,-0.5329564,-0.0017791789,0.7822549,0.53874296,-0.7110233,-0.47311404,0.20416127,0.69788647,0.62060684,-1.6358198,0.31205487,-1.4243251,0.37234923,-0.9687173,0.34781706,-0.19405526,-0.8953145,-0.05042436,-0.083557606,-0.6776676,4.0
Infostealer.Limitail-3474a23a951c690af7e5a1926efa6b24ac123bd1c33c9e3c19b277f95a771f11,0.22711927,-0.2841224,0.97682506,-0.14919214,-0.28237304,0.27227786,0.7002839,1.1224488,-0.78455275,-1.7324213,0.15153104,0.58367133,0.11227468,-1.0723572,0.27517545,-0.6763214,1.6264566,-0.63081455,-0.39728504,-0.53651166,-0.41874212,0.47022918,-0.28362072,-1.0496172,4.0
