,0,1,2,3,4,5,6,7,8,9,10,11,12,13,14,15,16,17,18,19,20,21,22,23,24,25,26,27,28,29,30,31,32,33,34,35,36,37,38,39,40,41,42,43,44,45,46,47,48,49,50,51,52,53,54,55,56,57,58,59,60,61,62,63,64,65,66,67,68,69,70,71,LABEL
Backdoor.Graybird-009a62c6f6543ec65460d9a3984fac8dd65aba2feacfa00e8e253bb474a417e7,0.0823461,-0.020476988,-0.02259445,0.016455177,0.004940743,-0.015443432,0.043234374,0.054675005,-0.0070215687,0.010625502,-0.008699663,0.03266058,-0.0045314785,0.11113846,-0.064393505,0.033964608,0.042307246,-0.034800075,0.0367866,0.0052635344,0.034351308,0.019044744,0.03826427,0.014488838,-0.3837899,0.09019634,-0.12105752,-0.012502004,-0.19505651,0.050804943,-0.008776996,-0.08590355,-0.0320322,-0.008832838,0.027455008,0.100653596,0.10539931,0.04409755,0.17153417,-0.025288494,0.10967216,-0.13499612,0.0015335283,0.18693155,0.024027018,-0.049770933,-0.022806672,-0.07017363,0.039347686,0.083709486,-0.028952321,0.03240036,-0.015905648,0.093997315,-0.07241509,-0.058292456,0.08461313,-0.12893395,-0.05603894,-0.14558788,0.06483789,-0.07400617,0.03108376,-0.14163902,0.036986053,-0.030376464,0.018635433,0.03865728,-0.010357262,0.0416307,0.007910622,-0.019424466,1.0
Backdoor.Graybird-02842b14fc265c045f10e2c5ab47c0b0a757c41d13a53194deb66aceb2e3993d,-0.022401588,0.01568945,0.046685692,-0.025983421,0.012967543,0.020843515,0.059630692,-0.0376638,0.029235687,0.0109648025,0.005671586,0.01867821,0.014939478,0.097739235,-0.016472977,0.018622005,0.010488191,-0.008583582,0.018578822,0.0021311643,0.013056789,0.013441344,0.008231787,0.025781421,-0.3396607,0.07651322,-0.08720548,0.00015602207,-0.1760119,0.036920667,-0.0008259244,-0.06866888,-0.03455251,0.0028251049,0.04387938,0.040546376,0.04541393,0.0033715155,0.077349015,0.004567551,0.12591895,-0.13007978,-0.07021097,0.1660571,0.009970378,-0.086571775,0.006122328,-0.08514226,0.054636598,0.10050332,-0.040126313,0.036849707,-0.034041595,0.11789882,-0.09348922,-0.061596498,0.09822553,-0.16848132,-0.07627803,-0.1840479,0.109245636,-0.12439075,-0.017375898,-0.1623424,0.039364886,-0.06367576,0.07439823,0.09275553,-0.023559513,0.10889256,0.01030576,-0.010114301,1.0
Backdoor.Graybird-03b5962ef8b9c83fe0ed10fc4333a68462865f3a4442346c5f7d004a46555448,0.055470094,-0.023299985,-0.006767663,0.018094804,0.025862323,0.021811737,0.063233845,-0.0031463564,0.03103448,-0.013131549,-0.013046289,0.061645947,-0.044541154,0.14237955,-0.048827115,0.025768673,0.036842525,-0.020274643,0.017302126,-0.018119717,-0.0041989447,0.04663715,0.067820325,-0.017734826,-0.37605527,0.08803991,-0.079970226,0.012181834,-0.19047238,0.044154406,0.006459171,-0.045753896,-0.05673182,0.011568745,0.041697297,0.10823488,0.10440853,0.03534904,0.17948368,-0.019347072,0.09742683,-0.13929114,-0.020906279,0.17278203,0.019210689,-0.060982257,-0.012133172,-0.05814548,0.055814628,0.08491767,-0.047956806,0.03346871,-0.009998251,0.08766575,-0.087222144,-0.04800043,0.06458013,-0.11175361,-0.0716458,-0.15825027,0.08857904,-0.08285647,-0.013358303,-0.120607845,0.003022392,-0.008886151,0.06477454,0.10843974,0.0032806091,0.09262888,0.019575333,-0.008275713,1.0
Backdoor.Graybird-049f53a05707c2cccd67540609368ef20f395327adb9a026267369d568f78c0a,0.07662134,-0.04090077,-0.012251604,0.027792541,0.0015034436,-0.0013696391,0.05018148,-0.020827597,0.034342363,0.008807833,-0.00023051194,0.04272414,0.0022515904,0.13531387,-0.028332284,0.019078193,0.0053537586,0.013664665,0.03933465,0.004949972,0.023020042,0.03485185,0.0074653705,0.048674375,-0.37632492,0.07475666,-0.09290206,-0.0064167753,-0.20047447,0.049804356,0.0010291181,-0.07526277,-0.03597518,-0.00052223064,0.03653849,0.06765049,0.056440108,0.022286117,0.11899432,-0.017209897,0.10567774,-0.124846,-0.0112052765,0.15877526,0.016824178,-0.054808803,-0.0060291607,-0.06148712,0.040165767,0.08358016,-0.039074153,0.027257454,-0.025509762,0.094885536,-0.06826431,-0.05339953,0.071272895,-0.13206051,-0.06972408,-0.16715792,0.10043487,-0.09834923,-0.005118437,-0.14531085,0.015758842,-0.05221442,0.073296815,0.07663451,-0.0071253967,0.10746457,0.01665959,-0.010048521,1.0
Backdoor.Graybird-05339051a960d18fafb2e5d656e36b2fa007462d9a7b2fbfcb4532b3235ac5ed,0.057765607,-0.0151792,0.012127723,0.011607496,0.0033550204,0.023179624,0.061253857,-0.035627805,0.035167176,0.0025441258,0.005485317,0.0488121,0.0051101074,0.13501349,-0.028492158,0.014660786,0.029411756,-0.006238244,0.0399495,0.009010664,0.038508583,0.023653775,0.017227035,0.043365594,-0.34607157,0.07109079,-0.094124645,-0.006301402,-0.18579713,0.045573175,-0.0012679164,-0.072944745,-0.032248322,0.008412826,0.03453239,0.06305795,0.053834338,0.014751693,0.10137393,-0.0027444053,0.11578928,-0.1420983,-0.03835103,0.17150535,0.01029363,-0.06844508,-0.0057945866,-0.07938539,0.046877716,0.09223339,-0.04753752,0.035043932,-0.025582096,0.098313764,-0.08438721,-0.04914489,0.08925373,-0.15906082,-0.07822968,-0.18072459,0.10492374,-0.116102435,-0.0006696746,-0.16503969,0.030711379,-0.05174773,0.067991026,0.09693826,0.00208062,0.101938955,0.0005979081,0.0009770362,1.0
Backdoor.Graybird-05bb2dcf38927dc99961deedaaff6ff120bdfd383745bac5aeb0c28340ea1010,0.038258247,-0.012548081,0.013994247,0.0040851734,-0.008281776,-0.0056081694,0.025110766,-0.03081646,0.027263153,0.0337062,0.003749659,0.009463117,0.033126034,0.10192189,-0.005832149,0.015239031,0.015120416,0.010089412,0.023694862,0.012169614,0.015051021,0.033946265,0.01342169,0.033902418,-0.38593677,0.07634306,-0.08370782,0.012596745,-0.21666102,0.05615827,-0.0017850458,-0.078270294,-0.042081874,0.021918083,0.043428637,0.03488586,0.028645711,0.002464918,0.046665803,0.0025188806,0.1012085,-0.1197548,-0.017790178,0.1533595,0.020020783,-0.053144332,-0.009630489,-0.06942996,0.054947767,0.09232528,-0.041826062,0.03829715,-0.017144749,0.113259085,-0.09404725,-0.0671828,0.089394316,-0.17404754,-0.08769163,-0.2019984,0.116823986,-0.11827727,-0.0017667481,-0.16860321,0.014976627,-0.06965389,0.08175835,0.09454694,-0.013698913,0.12006135,0.022832543,-0.013129338,1.0
Backdoor.Graybird-06ba9a22cbf334f6beeb0bc5302d3f0d6b7ad734c9ed071d6f279936a37f4687,0.0625318,-0.024681345,-0.014792392,0.023290344,-0.038281467,0.003311884,0.013208489,0.0107636815,-0.0051650326,0.029478673,0.008130326,0.009517961,0.040051434,0.07994556,-0.011623712,0.020727118,0.029243704,-0.010700847,0.019967902,-0.00950564,0.008683568,0.042659853,0.032841478,0.017548878,-0.4401065,0.094665155,-0.06806048,0.021704031,-0.21964736,0.04724645,0.0038619314,-0.05100968,-0.061619055,0.027315482,0.043847762,0.055643465,0.045380216,0.014794497,0.06774049,0.0006911835,0.08216392,-0.10677745,0.0058103018,0.13449663,0.024567058,-0.032016054,-0.012968003,-0.048241153,0.031552486,0.08004044,-0.02927379,0.02632522,-0.00920727,0.08773761,-0.057277218,-0.058454085,0.08039024,-0.1473681,-0.06353789,-0.16250728,0.09018291,-0.09208726,0.014354244,-0.15331662,0.030489527,-0.08190605,0.07714545,0.08991242,-0.023688998,0.12035232,0.013948044,-0.03860534,1.0
Backdoor.Graybird-07adf0e72d58706d13117578493d64cc085811d7454fd598a805aa818a445f09,0.0387633,-0.02037729,0.0037226505,0.00814797,-0.009894864,0.036324665,0.030838586,-0.0015845498,0.033374898,-0.007980881,-0.014651495,0.04077119,-0.018312111,0.101110965,-0.021638157,0.016459988,0.0387589,-0.0103945425,0.0073241103,-0.01642457,-0.0057219444,0.04974593,0.06119019,0.0011292498,-0.41231892,0.10103855,-0.07902905,0.007948212,-0.19816504,0.048465215,-0.0040360703,-0.040725928,-0.06611597,0.018197138,0.05741879,0.098636754,0.07852289,0.031411517,0.15453158,-0.013418058,0.08862812,-0.12890008,-0.02467306,0.17297754,0.015476912,-0.073691666,-0.009208914,-0.064445056,0.055698685,0.073294245,-0.05261336,0.039354943,-0.0039268527,0.068270005,-0.07192245,-0.041799586,0.06492156,-0.1230593,-0.072174564,-0.1563117,0.08300953,-0.09015478,-0.0120063415,-0.12518078,0.026893636,-0.033068962,0.040490773,0.0898341,-0.005591433,0.07001462,0.015722323,-0.024611767,1.0
Backdoor.Graybird-0814e28a9bbff170fb9257df3ad5cf8a27287f7c9001f15ea6a683c05e72095c,0.040851668,-0.018539272,0.011910341,-0.0044587,0.019201687,0.002705663,0.063257754,-0.00368553,0.027184686,0.00818048,-0.018268721,0.024589907,-0.007948418,0.10569506,-0.05023122,0.021744778,0.033467025,-0.022008508,0.02407433,0.0014766476,0.010747312,0.02542582,0.038745686,0.013204773,-0.34555507,0.06821236,-0.09789419,0.0010660423,-0.17038232,0.04104017,0.0015872505,-0.07065624,-0.03870182,-0.0006307937,0.052464962,0.06923483,0.077434205,0.01335093,0.13074125,-0.009699121,0.11778511,-0.1504082,-0.03408615,0.17952873,0.019731395,-0.0663141,-0.008007211,-0.07285476,0.052960362,0.0926037,-0.04163049,0.04408373,-0.020925762,0.10098311,-0.10042061,-0.05599356,0.08084651,-0.14879115,-0.0869986,-0.18708216,0.10100287,-0.10632898,0.0037167312,-0.15361725,0.030590348,-0.041769866,0.063069284,0.08395037,-0.0043896036,0.08468778,0.008066357,-0.0009368944,1.0
Backdoor.Graybird-08c34b0421ec2fd129554058eb0e19111b167fdeee45c3c51252c4ace128e70e,0.085765645,-0.03403318,-0.015245673,0.026845036,0.007744203,-0.0028452033,0.031674508,0.011607584,0.0134475,0.011850905,-0.004885664,0.040802248,-0.0027226405,0.11421327,-0.05092322,0.021691123,0.036863547,-0.012132078,0.04597206,0.008418861,0.044389777,0.025126949,0.027171854,0.03706607,-0.38693655,0.07100542,-0.10898295,-0.00019835372,-0.20285875,0.050932057,0.0050835568,-0.075351596,-0.03132084,0.0016327671,0.02514142,0.09902331,0.08815516,0.04391732,0.14514557,-0.02260384,0.09954468,-0.1218635,0.007719912,0.16474694,0.025686957,-0.047616612,-0.02210433,-0.059994105,0.048597474,0.091861814,-0.047253802,0.04120877,-0.020107284,0.098911375,-0.08006467,-0.06090727,0.083072826,-0.13373122,-0.078036346,-0.17509413,0.08546941,-0.09308658,0.008902144,-0.14718263,0.00513234,-0.035123575,0.053192902,0.061282642,0.00034903872,0.07679014,0.01041807,-0.004847947,1.0
Backdoor.Graybird-08c383b4ffb8ed9df7a17296ae0c1798d7f4b769f188d5eef55c77bb79dcd432,0.07915735,-0.029782774,-0.03463841,0.026262065,-0.014038833,-0.0042607104,0.008507546,0.027838431,0.0001787515,0.013817011,0.0017410092,0.023157973,0.0013032614,0.10192708,-0.029584505,0.031202173,0.027596107,-0.011589316,0.03279614,-0.007377689,0.017769955,0.028559707,0.03801032,0.020572508,-0.44253793,0.09353026,-0.0845024,0.007421491,-0.23077843,0.056386594,-0.001799341,-0.058066715,-0.049077246,0.012730718,0.026457151,0.08315937,0.07982246,0.032581013,0.114419214,-0.019145427,0.08376245,-0.11695265,0.017350253,0.15473622,0.030511644,-0.037625026,-0.02341779,-0.04568376,0.041699003,0.08814701,-0.033169113,0.035578184,-0.0066887317,0.09575,-0.05505203,-0.05841442,0.08357218,-0.1306928,-0.04849194,-0.14825,0.07752422,-0.0825459,0.02509915,-0.14386913,0.014359672,-0.05099738,0.05458164,0.07386839,-0.0208725,0.0738853,0.025137609,-0.035910267,1.0
Backdoor.Graybird-08cadbda2bd111540dc25897982bc801f681dc16e0eba323973e193712332ef3,0.0084271645,-0.004092609,0.004649623,0.005058827,0.009769368,0.024032693,0.036730055,-0.019566637,0.02179978,0.004159793,-0.0133624105,0.029287735,-0.0166148,0.077643596,-0.02538238,0.01650038,0.028665345,-0.012458715,0.0063451873,-0.0151580395,0.0050039752,0.043866076,0.05002055,-0.00507633,-0.3941063,0.09260245,-0.0699873,0.014277006,-0.19317925,0.0469091,0.0035395664,-0.046606403,-0.06539027,0.019710047,0.054770183,0.066565305,0.06378241,0.012044627,0.1197282,-0.0073451935,0.102968834,-0.12728886,-0.02146001,0.1723775,0.017538058,-0.06593907,-0.008999027,-0.070904024,0.05310328,0.090136796,-0.057631098,0.04525799,-0.01029335,0.09592043,-0.08730949,-0.051703688,0.080808625,-0.14197801,-0.08684516,-0.18607241,0.10269097,-0.10205784,-0.003089174,-0.158189,0.01504632,-0.03314932,0.055859752,0.09813153,-0.01989962,0.087097354,0.020060256,-0.01765007,1.0
Backdoor.Graybird-0904d313bde15d4656a630055d025d6a289de46fc2369597deb20d51da0ccd57,0.071313396,-0.028396618,-0.02133908,0.024995858,-0.018112283,0.015591295,0.02799399,0.0075873816,0.017052911,0.013362321,-0.0039378344,0.030225623,0.0006592551,0.095342696,-0.024729613,0.019249313,0.026405085,-0.005908127,0.020456921,-0.0046320437,0.020277478,0.038419083,0.048290092,0.016172126,-0.42888194,0.09183843,-0.07131643,0.012162598,-0.21458893,0.055396706,0.00018455333,-0.048090078,-0.06579418,0.013573724,0.041596908,0.08220489,0.062397663,0.031145982,0.10577994,-0.01144077,0.074956216,-0.11097106,0.0015565587,0.14129804,0.023620345,-0.036135685,-0.011034562,-0.044388186,0.040285878,0.09540516,-0.047164515,0.037964474,-0.017744511,0.093710035,-0.07196076,-0.055764537,0.0831988,-0.13982064,-0.07020955,-0.17276765,0.08733762,-0.09772707,0.012037769,-0.1514503,0.0012557416,-0.045934927,0.07032203,0.09720076,-0.0095046805,0.10752467,0.021054806,-0.014868122,1.0
Backdoor.Graybird-095879f4cafe44bf45530fa8b6999d7361bdac2f041fc3c4e7afc1d80cbe914b,-0.009398348,-0.007186642,0.018987391,-0.0123965815,0.008265977,0.027269337,0.0633414,-0.03285291,0.024968436,-0.014711471,-0.00826407,0.050159324,-0.019927261,0.12067459,-0.01842727,0.021371527,0.03336743,-0.02403069,-0.010134432,-0.03500002,-0.023955768,0.04388118,0.070474766,-0.030710198,-0.3809622,0.09333662,-0.034170516,0.031476896,-0.18160366,0.038410276,0.002278023,-0.000181035,-0.07951211,0.02053645,0.06544464,0.06873661,0.06913093,0.0048900302,0.12132387,-0.0045628822,0.09991398,-0.12519634,-0.033341385,0.15223219,0.013229501,-0.069796786,-0.0006794726,-0.068469666,0.050126158,0.09175394,-0.05279449,0.038397577,-0.025659796,0.10723721,-0.092146136,-0.053187396,0.074908294,-0.1363519,-0.085031785,-0.17228727,0.10630886,-0.091659695,-0.022138067,-0.13722864,-0.008906531,-0.05826995,0.102364816,0.1507732,-0.020067286,0.13539407,0.036698543,-0.019474665,1.0
Backdoor.Graybird-09a45409e39fb3077d1e7fea751027d152dfa6d9bd30829749ff4ec5caecdfb2,0.12291455,-0.038361512,-0.024912257,0.03352948,-0.023123743,-0.035682935,0.018647281,0.02207252,0.025240067,0.03355693,0.013713136,0.026188267,0.029535526,0.15269431,-0.039815933,0.035216182,0.025835935,0.005800666,0.06094043,0.024030702,0.05928961,0.019547116,-0.0011524997,0.06571976,-0.3917286,0.0684469,-0.13735855,-0.014447206,-0.23367311,0.060328532,-0.00015481273,-0.12013974,-0.024069728,0.0021167018,0.011918424,0.05786693,0.06770123,0.026855428,0.086874716,-0.011802159,0.08736083,-0.13022454,0.018173702,0.16223072,0.026033653,-0.026300002,-0.025432307,-0.051642545,0.028943319,0.07973936,-0.025742333,0.026028689,-0.023080437,0.098420836,-0.0624069,-0.062165808,0.09846588,-0.15753698,-0.051382974,-0.16796727,0.07274372,-0.08694299,0.042579394,-0.16974132,0.023713715,-0.07143478,0.04781063,0.046738088,-0.0025708864,0.072304025,0.014752399,-0.0142156435,1.0
Backdoor.Graybird-0a1311fceceea990bf446f7afa4fedcc6b7f8780afd4a6c87a31949818f87cea,0.10225701,-0.032199144,-0.024681853,0.029670767,0.017398562,0.010907148,0.061204143,0.029600598,0.025744159,-0.008800448,-0.025262447,0.050798062,-0.03290588,0.119425215,-0.0742176,0.02610626,0.046308752,-0.027489852,0.026732547,-0.0113280555,0.0292783,0.02897802,0.048910324,0.008732298,-0.35761243,0.078292035,-0.10472788,-0.0009402258,-0.18502052,0.036437806,0.00078744715,-0.072454564,-0.046585277,-0.0038776589,0.032720655,0.12357124,0.11435448,0.044309676,0.20041654,-0.030174928,0.09491238,-0.13715112,0.010527189,0.18191245,0.032171376,-0.054043412,-0.011227961,-0.061335273,0.050788064,0.08182962,-0.05199535,0.035634194,-0.016570896,0.0833932,-0.081691466,-0.051760845,0.06044681,-0.12221858,-0.07465368,-0.15086488,0.078639336,-0.069504,0.017384885,-0.12969077,-0.0064524575,0.0087080235,0.044846877,0.07425034,-0.0023553972,0.057811994,0.013089542,0.0038732172,1.0
Backdoor.Graybird-0ded1dc774b46d985a4e90a46f5d56a0047630d7a6e8df439870f7bb40b57a14,0.030798087,-0.020776559,0.026729163,0.0024862706,0.004839199,0.03885956,0.067146316,-0.0680959,0.07289536,0.009443116,-0.011942642,0.042626034,-0.0012950952,0.1292381,-0.002080276,0.008458712,0.009026052,0.015617627,0.027930386,0.0051236204,0.015599647,0.04179331,0.019421762,0.029467408,-0.35389054,0.0658296,-0.06248703,0.009348058,-0.18414122,0.052858233,0.011800472,-0.059928812,-0.04951947,0.015361782,0.048662823,0.042573605,0.04374053,0.0027350634,0.07916959,-0.0017090676,0.106253274,-0.12923403,-0.04086593,0.16472812,0.009429093,-0.07755287,-0.0055088107,-0.06960779,0.047208264,0.07983159,-0.04823787,0.038192898,-0.017610444,0.08737082,-0.08385807,-0.048565727,0.087638505,-0.15004954,-0.079920165,-0.17403638,0.11717372,-0.1172456,-0.023004504,-0.1514002,0.041758306,-0.07177955,0.10156751,0.11315037,0.0075815157,0.14571379,0.011336147,-0.013423913,1.0
Backdoor.Graybird-0e4b24dfaad406b918efb40923889150f139511f43c56e34deac187d950ce03f,-0.013627767,-0.0023803038,0.050487056,-0.01304237,0.024500756,0.028537048,0.07252984,-0.07261649,0.041567765,-0.01152019,-0.013891911,0.04067395,-0.016000278,0.115441106,-0.0114152115,0.011556365,0.006332803,0.0011935559,0.013646244,-0.0021207968,0.00077610154,0.036034696,0.02969203,0.007126705,-0.3198745,0.066678345,-0.053398065,0.0137698995,-0.17522639,0.044027075,-0.00021394646,-0.044068627,-0.03973237,0.007496214,0.044113517,0.03621059,0.035234034,-0.00087686646,0.063375205,-0.0028029287,0.13066259,-0.14656621,-0.05172846,0.17812558,0.0049792957,-0.080094166,-0.0006726944,-0.0784747,0.07001617,0.11229686,-0.047382075,0.038965892,-0.032555982,0.123722166,-0.10385443,-0.06905364,0.08089378,-0.15617928,-0.094109796,-0.20397633,0.12553787,-0.12734884,-0.023053955,-0.1628188,-0.006694485,-0.07013878,0.11400168,0.14095572,-0.014793414,0.16114375,0.027284624,-0.0065358724,1.0
Backdoor.Graybird-0e9e218c49e56ec187e145db72a72726d50ae295f08b4bf344f19e13de603ba2,0.09061632,-0.033848036,-0.022227366,0.026490543,-0.0022620014,-0.0005402847,0.022438413,0.026423385,8.842677e-05,0.005042305,-0.0053722314,0.015547645,-0.001446188,0.05961564,-0.045400683,0.016213166,0.039395265,-0.02602825,0.05116134,0.018872121,0.056416094,0.009876612,0.019398168,0.03475247,-0.42399234,0.09055449,-0.102475606,-0.0015437353,-0.22429043,0.05552613,0.0007079523,-0.07895587,-0.039713424,0.00047309004,0.012152652,0.09275469,0.09220767,0.04214485,0.13554728,-0.016257776,0.08941618,-0.1180568,0.0078075468,0.16074441,0.028172383,-0.04540559,-0.011303037,-0.061887786,0.040427353,0.08410781,-0.033048,0.030322332,-0.013102876,0.10410991,-0.06403369,-0.055599857,0.08445461,-0.14589837,-0.066351034,-0.16654122,0.08557961,-0.091243155,0.02686414,-0.16375393,0.030967193,-0.045913607,0.060108073,0.07182696,-0.009603286,0.08972421,-0.002340467,0.0025480974,1.0
Backdoor.Graybird-0eec1cf54f4696068a4411a96e8deb728f734fac856440cb5175b1204d1dd137,0.012459812,-0.014791766,0.02038635,-0.0032431087,0.01590887,0.04112026,0.074841745,-0.042691484,0.056995723,-0.007275022,-0.02143565,0.046841588,-0.018259116,0.10221369,-0.021873727,0.01704266,0.024409771,-0.004737386,0.004324988,-0.024251504,-0.0145807965,0.048517935,0.06065774,-0.007972983,-0.384842,0.093335144,-0.061756928,0.021888986,-0.18684267,0.033765588,-0.0020792661,-0.030082002,-0.069359824,0.021795584,0.06787676,0.074142516,0.07088773,0.009452922,0.14012295,-0.01599189,0.09681024,-0.13632727,-0.044173673,0.18005998,0.02008868,-0.08096774,-0.0009602115,-0.06967428,0.063294895,0.09359672,-0.059030183,0.04363751,-0.0106214825,0.086021505,-0.09773102,-0.04374163,0.06702366,-0.13450757,-0.09359396,-0.17761038,0.10601654,-0.10960907,-0.03252328,-0.1382494,0.0004941963,-0.023353102,0.07998935,0.119706295,-0.0025237934,0.10538852,0.012128962,-0.001662861,1.0
Backdoor.Graybird-10672ba06f9cceb9fb651a6338f13de953b8a97d9d5164acd08456fb7a974b69,0.019536128,0.00019454202,0.035305977,-0.006457452,0.003202705,-0.0010563231,0.06593246,-0.025496772,0.029036218,0.01630418,0.0049525006,0.05463007,0.019964257,0.175923,-0.0321361,0.030272506,0.023063833,-0.0016588045,0.012569293,0.0042222277,0.01319274,0.036971636,0.02425865,0.020837624,-0.34933898,0.072095074,-0.09414657,0.0106255,-0.18405989,0.04862791,-0.0027484263,-0.08121177,-0.034116987,0.0022953635,0.041378688,0.040722646,0.052184455,0.011230256,0.08143612,-0.0027627537,0.11733158,-0.15158755,-0.046352774,0.17731613,0.017136827,-0.076433815,0.0007471238,-0.08368953,0.05429548,0.09154095,-0.033193607,0.033127505,-0.0359957,0.11385094,-0.080007605,-0.059486665,0.0878287,-0.15605217,-0.06868115,-0.1735685,0.1050279,-0.114410356,-0.011633147,-0.16053914,0.033034466,-0.07426433,0.07558883,0.09830732,-0.012338984,0.109960936,0.025873773,-0.027317813,1.0
Backdoor.Graybird-1078ebc75c7612450f362dc2e480699e1e6f21473898effad033a32e4e47d5ed,-0.008886725,-0.001650439,0.023763487,-0.0180429,0.0112581765,0.020432523,0.056921933,-0.02329538,0.009782185,0.0037247387,-0.003268821,0.01969927,-0.004269927,0.08656151,-0.026360441,0.020494645,0.027336888,-0.013584985,0.017526323,-0.0028449502,0.011733981,0.023238473,0.021864338,0.010879507,-0.35882735,0.07376436,-0.07084361,0.0093721645,-0.1815189,0.04349732,0.005196028,-0.047917847,-0.03470958,0.014929517,0.044873364,0.049667675,0.05721724,0.012952048,0.090561986,-0.0014169109,0.12331699,-0.13462737,-0.043661114,0.1568054,0.005204049,-0.06739476,0.001511601,-0.08111212,0.063531674,0.09306468,-0.035198458,0.036735624,-0.029214414,0.12608333,-0.09747435,-0.065795355,0.089697056,-0.16462266,-0.084040195,-0.18756343,0.108685955,-0.11683835,-0.008386373,-0.15672672,0.03302713,-0.067539066,0.071036756,0.11582615,-0.018300746,0.11132617,0.008447884,-0.018815625,1.0
Backdoor.Graybird-1203e135f7e763fee8490a3e11c091a2a7617dc3e486d2bbe6ac81a32bc931be,0.050457455,-0.015331759,0.0073057404,0.0018176415,0.0047742995,-0.017255813,0.049343765,-0.02037644,0.029582964,0.026987176,0.004276073,0.026083512,0.020154797,0.124911554,-0.02314329,0.03475839,0.002820421,0.0002920386,0.01906145,0.0047875796,0.013978035,0.024566736,0.013464712,0.020775001,-0.36112672,0.07106998,-0.0886221,0.0027643114,-0.19160981,0.050237834,0.00094625255,-0.073220536,-0.03674837,0.014367169,0.046377994,0.037039284,0.04146543,0.0013520664,0.08661567,-0.0047482653,0.10667634,-0.1341344,-0.025933571,0.16053815,0.019807365,-0.048337243,-0.013828893,-0.0707782,0.052445494,0.08721285,-0.03702865,0.03659939,-0.026933331,0.104786254,-0.090170845,-0.0609509,0.07974771,-0.15746252,-0.08156874,-0.18897742,0.10181185,-0.10909146,-0.0026687034,-0.15049684,0.0011099189,-0.06255222,0.0769231,0.083307736,-0.014846308,0.111608975,0.020337569,-0.017836483,1.0
Backdoor.Graybird-12efad6f7e8313a41ffc7a49cdd612243712922f8d7947141e366574279077b3,0.0707948,-0.031525586,-0.0026465717,0.032534182,-0.02073508,0.0098125655,0.022390403,-0.0050486065,0.019386599,0.0073640947,0.0060433084,0.029355714,0.007523521,0.100632735,-0.023333691,0.018671965,0.02385479,-0.00475821,0.044712327,0.015596917,0.038412344,0.024346855,0.004145096,0.04665115,-0.3931722,0.07572475,-0.07870229,-0.0053637447,-0.21939999,0.05264755,0.006034167,-0.07081284,-0.035247326,0.003830597,0.022818042,0.061245415,0.057563465,0.020870015,0.082257695,-0.0008704824,0.10741529,-0.1196156,-0.01617958,0.14539002,0.02225277,-0.049196217,-0.011960536,-0.060108725,0.03598443,0.08320393,-0.025727233,0.029232236,-0.024048502,0.098354004,-0.07030311,-0.05835024,0.087556124,-0.15506047,-0.0649882,-0.16620906,0.08440876,-0.094473094,0.0054589035,-0.15110569,0.035190407,-0.05904458,0.06940713,0.08405164,-0.007695926,0.10875894,0.0114893485,-0.008052371,1.0
Backdoor.Graybird-12f4f6331583edc2599a31940233f76e950dee226f92573abf7ad0bad10cb2c7,-0.019427992,0.008963569,0.06621493,-0.020683194,0.03493167,0.059843097,0.09993686,-0.10883892,0.07926681,-0.026929474,-0.014644242,0.08227855,-0.040767808,0.15122338,-0.0047823316,0.004461979,-0.007949653,0.016888788,-0.0065507893,-0.009526758,-0.023890372,0.046027474,0.03357218,0.0049309465,-0.34128928,0.067948475,-0.05101729,0.012056774,-0.18449682,0.04593874,0.010167324,-0.042569425,-0.04353145,0.021242458,0.057176836,0.0606891,0.054430533,0.00891692,0.115058206,-0.0119304955,0.1282629,-0.16836236,-0.066697545,0.18197659,0.016583392,-0.10168637,0.0040025283,-0.0858661,0.06818112,0.10536172,-0.06181222,0.04767491,-0.020795595,0.10328627,-0.1039016,-0.054998614,0.06839801,-0.14296442,-0.10422727,-0.18799973,0.12434168,-0.12412719,-0.063423924,-0.14232597,0.0031489155,-0.055983853,0.120552,0.15948693,-0.0016751337,0.16643743,0.02467896,-0.0039440016,1.0
Backdoor.Graybird-143c25c7cc08038a40638df3cd01232232baed4a9469f356efc615b5041c794a,-0.043360453,-0.0018026162,0.077841505,-0.023978638,0.03376965,0.06357622,0.1012613,-0.15405113,0.1105841,-0.016574446,-0.007317459,0.06652378,-0.028442897,0.14103535,0.016734703,-0.0032757611,0.01125192,0.025537556,-0.011395404,-0.022323744,-0.054136243,0.07382984,0.06489787,-0.0038312797,-0.34917814,0.08311978,-0.026367439,0.03477806,-0.1786452,0.04323942,0.011229877,-0.0016403082,-0.10093048,0.050547507,0.08956889,0.021139413,0.02870041,-0.017100517,0.048904274,0.008904861,0.09196036,-0.14901178,-0.053018752,0.17031367,0.010267819,-0.09644045,0.0043111504,-0.066670604,0.09143001,0.11392972,-0.087182835,0.05885709,-0.00834025,0.10456419,-0.12191674,-0.05981853,0.078320384,-0.15603684,-0.14206603,-0.22672525,0.15838782,-0.14919102,-0.07584107,-0.15681627,-0.067175455,-0.032622844,0.15913823,0.1975575,0.0067339875,0.19724011,0.029292265,0.017073492,1.0
Backdoor.Graybird-14818f4633cc87ac1b11b53895daa6cbc595065596c7ea86f807fb1a1ad79b72,0.12331775,-0.037346758,-0.059785385,0.04301896,-0.016294148,-0.027130768,0.006481415,0.09742117,-0.038996156,0.02312177,-0.0034645072,0.016538823,0.0027537283,0.074962355,-0.07146204,0.030770918,0.04523592,-0.038475063,0.048582476,0.011641937,0.07597393,-0.0022482418,0.023242226,0.024305364,-0.4248137,0.0882657,-0.13638145,-0.025599504,-0.21932426,0.053893615,-0.0019593146,-0.09793109,-0.023963366,-0.016546918,-0.008419522,0.120634265,0.11810156,0.06919038,0.17515352,-0.028773446,0.097399965,-0.12616399,0.031729627,0.17229992,0.02462339,-0.026754968,-0.02674864,-0.05445076,0.025486963,0.06717671,0.00020245463,0.013215365,-0.02276678,0.09141097,-0.03120114,-0.05876267,0.083755575,-0.122567736,-0.014681948,-0.124958225,0.037100554,-0.056232575,0.07292751,-0.13565205,0.0710735,-0.043480113,0.0052122115,0.0017456345,-0.009400638,0.02251414,0.00013689947,-0.02517537,1.0
Backdoor.Graybird-152a87566246d7b100a299d29e34ce080c52e714e0c2883b904d85c1144de18d,0.077207185,-0.033088285,-0.009662771,0.03131492,-0.0007173531,0.02123909,0.032099176,-0.023660896,0.027339207,-0.0021461989,-0.00042073225,0.03898223,-0.0020078828,0.091498904,-0.02253555,0.007066325,0.023286533,-0.007546278,0.052691188,0.017858764,0.052464657,0.03694585,0.023386527,0.04740224,-0.3930198,0.08346064,-0.09047762,0.00039713774,-0.19965921,0.04493161,0.0075544086,-0.07550307,-0.041458126,-0.00064614194,0.018103696,0.06926776,0.061852526,0.030405633,0.11049401,-0.014557396,0.103888914,-0.12111355,-0.017907722,0.15878049,0.021368198,-0.062462173,-0.017463712,-0.060529795,0.04212141,0.08959174,-0.040179808,0.040105887,-0.011234704,0.0867106,-0.068907246,-0.050139084,0.08607389,-0.14569594,-0.07696546,-0.16940697,0.09092566,-0.10616471,-0.0015509735,-0.15744767,0.026339276,-0.03908511,0.065776005,0.08988172,0.0013872087,0.10299977,0.0030226961,-0.0032790015,1.0
Backdoor.Graybird-16274674297d97fdb7c53027a4e6facd681428961e31bc85dfff497056b071a4,0.05246379,-0.013781028,-0.00012347306,0.012304363,-0.010090964,-0.00057470915,0.038282562,0.005991516,0.026704121,0.02383522,-0.0018729268,0.016035179,0.030710546,0.08656708,-0.010855889,0.012496282,0.014483611,-0.007066281,0.030166687,-0.0028109245,0.013112712,0.034588072,0.026530556,0.027394857,-0.4100051,0.0821631,-0.098624825,0.015024691,-0.21264057,0.05443181,-0.004251768,-0.07525309,-0.053153772,0.01282677,0.052306317,0.06417114,0.0543953,0.01754059,0.08303855,-0.0013658598,0.08282506,-0.12267866,-0.010318719,0.15962732,0.029939603,-0.04887453,-0.005299533,-0.058402043,0.03747629,0.08100662,-0.043010723,0.034581043,-0.012191036,0.08340923,-0.07265774,-0.052098013,0.08894682,-0.14550783,-0.06452313,-0.17255738,0.09519808,-0.09614409,0.009015821,-0.1566133,0.00024829595,-0.06136041,0.05832242,0.07531349,-0.01663356,0.10020673,0.018555183,-0.013786239,1.0
Backdoor.Graybird-16648fd7040db9b96d76e5f70711e8c62721035832f7b87594d62b0dd9b865ea,-0.009233813,0.007543057,0.06358521,-0.023230216,0.0075332276,0.018016282,0.07727481,-0.0726435,0.061970714,0.024218004,0.014586703,0.05088875,0.02277846,0.16075777,0.0015912186,0.014174296,-0.004830088,0.01535693,0.004168464,0.00440518,0.0034699973,0.03758748,0.011955396,0.03947008,-0.32964048,0.05684235,-0.08892164,0.011015345,-0.1815408,0.051738273,0.0022099882,-0.07727149,-0.035236407,0.013228486,0.04603919,0.010090265,0.012924319,-0.020170372,0.03212178,0.0029662782,0.120210946,-0.15620542,-0.06730754,0.1728004,0.007485928,-0.086567,0.006705078,-0.090655886,0.058358543,0.098417155,-0.04646272,0.03181692,-0.02773271,0.10916438,-0.09560306,-0.058873706,0.10048501,-0.17854013,-0.09120477,-0.19868807,0.13194475,-0.1396426,-0.025530573,-0.17867346,0.02765723,-0.09438218,0.10532532,0.1208206,-0.0134876715,0.14124602,0.014585878,-0.026395747,1.0
Backdoor.Graybird-16ce6a8444870c762676cc776860c1ff7daa2a2dc76abd29136a36d6538bba8a,-0.0022556996,-0.0043189046,0.025996273,-0.013881533,0.02407495,0.046419922,0.07914246,-0.059251174,0.054851938,-0.014789023,-0.025545433,0.068414696,-0.042754576,0.15301736,-0.032521285,0.02535857,0.03734893,-0.0094372,-0.013330432,-0.044611286,-0.0486285,0.06828651,0.090180635,-0.042954072,-0.38197783,0.098268315,-0.04165307,0.028509501,-0.18156907,0.03444728,0.01105338,-0.012861235,-0.08579595,0.03383521,0.0846479,0.07450476,0.079811886,0.011203739,0.14881715,-0.01094886,0.088266805,-0.13288824,-0.024845783,0.1617581,0.019550545,-0.07022727,-0.0054161465,-0.057782345,0.065287486,0.11111933,-0.06703631,0.060381673,-0.008413275,0.09473771,-0.10688528,-0.058512155,0.061076574,-0.1172521,-0.1106489,-0.1745414,0.11276997,-0.09833177,-0.038550165,-0.11476158,-0.046896305,-0.00894721,0.0973326,0.16095744,-0.0006198387,0.11787015,0.024498023,0.0031911104,1.0
Backdoor.Graybird-16dc33ad95a90a03f9489182cf6061392a79cbaf96cceb87bd3c6c664daff4a3,0.049798824,-0.015080137,0.017481104,0.011548444,0.010930585,0.017273957,0.066454686,-0.029712176,0.048301414,0.014616152,-0.0018658391,0.044774853,0.00032042083,0.15291053,-0.028471896,0.015609214,0.022053076,0.004009152,0.020003345,0.002378088,0.013734096,0.043176696,0.029871047,0.027977781,-0.35070127,0.06826198,-0.099277176,-0.0024564846,-0.18666045,0.05047829,0.0003887604,-0.08371275,-0.05529748,0.01205215,0.04703847,0.07475116,0.070388794,0.02324272,0.1094985,-0.017904647,0.1014184,-0.15607835,-0.015389391,0.19608673,0.018431695,-0.07036594,-0.0037509478,-0.072505414,0.05934911,0.0903521,-0.050435852,0.04140023,-0.013115414,0.0895733,-0.081197806,-0.044152837,0.07508589,-0.14958225,-0.07461717,-0.18435068,0.10220474,-0.10653934,-0.009595586,-0.15170823,0.005244103,-0.04675876,0.06726984,0.08724198,0.008315964,0.0928598,0.0119718,-0.01312155,1.0
Backdoor.Graybird-16dc7da8aef050616f3d99fd34b3f0410ce6a38f5a61c9ebc8e86e87195c4be3,0.05199214,-0.018706383,-0.010441769,0.010155744,-0.006711744,-0.035406027,0.027304113,0.025858145,-0.01182205,0.033479016,0.008218798,0.009966805,0.028632488,0.11294499,-0.042500727,0.02988016,0.019856285,-0.004752015,0.035143536,0.024838628,0.053167697,0.003949827,-0.0065646516,0.045283727,-0.36644015,0.06195487,-0.11755474,-0.003269591,-0.20036879,0.049536064,-0.0051151793,-0.102289975,-0.011784478,-0.010870142,0.014819711,0.052598905,0.05385816,0.017967792,0.088925764,-0.016496604,0.13586427,-0.1419461,-0.030290345,0.17164396,0.023591217,-0.053304944,-0.015665628,-0.07795885,0.044959918,0.092822224,-0.019591443,0.02466273,-0.03995679,0.12919207,-0.06826258,-0.06705952,0.09100591,-0.16973042,-0.046583787,-0.16745727,0.07999057,-0.100842856,0.029733844,-0.16514285,0.058953613,-0.08214317,0.04109312,0.045000922,-0.016768744,0.07395985,0.005939596,-0.025268426,1.0
Backdoor.Graybird-1966b6b19ef74c24f458b6477ccb7e8c8427df6d65ea4dc5e0bffb811fbba2d7,0.039877627,-0.009510494,0.011119935,0.0027057587,0.0008683409,0.004954925,0.042897113,-0.009995309,0.022586344,0.011399101,-0.0065153292,0.04700117,0.0010864865,0.14360198,-0.027511029,0.023623819,0.023088057,-0.016095765,0.023049561,-0.010127166,0.010943703,0.03960306,0.03083758,0.011678119,-0.36509117,0.08265484,-0.09938777,9.1639195e-05,-0.19511783,0.045048624,0.0029016875,-0.07021039,-0.04834515,0.007918579,0.03670668,0.056417678,0.055341445,0.022948435,0.091964535,-0.0075904103,0.11881407,-0.1446452,-0.024090845,0.17992863,0.01996403,-0.06704202,-0.002355294,-0.06864416,0.04950116,0.09228845,-0.030357374,0.028108107,-0.0251976,0.09578362,-0.0828092,-0.06537331,0.08690947,-0.14978455,-0.07066127,-0.17097335,0.09089167,-0.10035666,0.011900791,-0.1449605,0.030601053,-0.054669343,0.068499885,0.08514626,-0.015031942,0.087493695,0.015503701,-0.026404882,1.0
Backdoor.Graybird-1c7dfb9affef8bef118a41d36e3e8c413f3076918a8821efeb3721af52ee5c52,0.07142902,-0.023176588,-0.016408037,0.025657177,-0.009023618,-0.00807326,0.018838467,0.027690269,0.0023978844,0.015009565,-0.0015584016,0.006231979,0.018235128,0.07125635,-0.040845983,0.027925013,0.022134835,-0.010497569,0.035500593,0.012700707,0.040455576,0.016521258,0.015058148,0.037560735,-0.40686443,0.08565969,-0.10900898,-0.005985739,-0.21297504,0.053669963,-0.0006692372,-0.08751939,-0.03465354,-0.00634514,0.017002966,0.07132963,0.07059078,0.03280709,0.11079407,-0.019147508,0.11251772,-0.12577677,-0.011048588,0.16813533,0.022699056,-0.05721654,-0.010585151,-0.06450168,0.042166594,0.08940724,-0.024992218,0.031016268,-0.029422242,0.106359586,-0.06762806,-0.052325316,0.09276782,-0.16074082,-0.04897305,-0.16935213,0.08265117,-0.092086904,0.028795354,-0.16210859,0.05862453,-0.06987631,0.036144607,0.06064642,-0.016922172,0.076873615,0.010778893,-0.020063153,1.0
Backdoor.Graybird-1cb523870e23e55d0d36af5a2e10472ac25390d3838c52c35b1106034132aad5,0.054331858,-0.02336005,0.007095947,0.019764453,-0.01197749,-0.0080070095,0.031376433,-0.03211984,0.018814262,0.041087214,0.009872448,0.0015950336,0.03500849,0.08825615,-0.019970648,0.015481079,0.0055435044,0.008297481,0.045482397,0.0216586,0.0422838,0.015521212,-0.017022336,0.070382394,-0.36340377,0.0667627,-0.098368816,-0.00091523054,-0.20305559,0.05679211,0.0042309104,-0.08879353,-0.027626244,0.005670656,0.012515829,0.021841422,0.025226533,0.014460774,0.03730573,0.0011912588,0.10689707,-0.11880361,-0.021604635,0.1520066,0.017302658,-0.059583634,-0.008642427,-0.071191505,0.055898666,0.092018366,-0.03215081,0.028840473,-0.036624335,0.11580852,-0.09095056,-0.060256526,0.11076173,-0.1780174,-0.07326803,-0.20345695,0.10162485,-0.11631411,0.004230793,-0.1928236,0.027425123,-0.071353115,0.07522418,0.0720109,-0.01103531,0.119422905,0.001999167,-0.008776238,1.0
Backdoor.Graybird-1d17564930dc9cfdb8bf4483ba9763d17dd3f549facfdbe21ad18447663adedd,0.08310243,-0.01966737,-0.02425833,0.021490393,-0.024818491,-0.021083197,0.0069462718,0.05028428,-0.021974565,0.030437123,0.010449022,0.0061156857,0.032576103,0.080678985,-0.04380182,0.037522458,0.023029065,-0.016771967,0.034579713,0.013152736,0.049305968,0.016928868,0.001663976,0.03424243,-0.42092597,0.07848547,-0.11439785,-0.0083380025,-0.22673832,0.047420207,-0.0028169171,-0.08406449,-0.022111982,-0.009758471,-0.0009602471,0.06260349,0.05586983,0.036581084,0.082692966,-0.015174573,0.093572274,-0.11136894,-0.0045477385,0.15397301,0.022756979,-0.04167225,-0.012814863,-0.058209527,0.021724068,0.08545159,-0.00037132786,0.011065784,-0.024231141,0.108255796,-0.04307089,-0.06097148,0.09483024,-0.15523829,-0.03108573,-0.15411139,0.065876245,-0.07606146,0.052213367,-0.16367738,0.06891347,-0.09219783,0.04029616,0.04278812,-0.026336376,0.07339361,0.009669684,-0.033682384,1.0
Backdoor.Graybird-1d2b95795f54a30db2241b441843c8baa1319704e0bd48f022ac919e71899787,0.064534076,-0.015582809,-0.02773808,0.013014498,-0.01190465,0.016939053,0.013806982,0.035575848,-0.006069345,0.00088549306,-0.018564144,0.02402584,-0.006417736,0.07358137,-0.046980493,0.027139256,0.037431832,-0.023743132,0.029700818,0.0027038404,0.023167135,0.029155996,0.04397986,0.010775911,-0.4365941,0.101487696,-0.08922735,0.004014139,-0.21192546,0.0395862,-0.0061468286,-0.059011534,-0.045574166,0.0035924136,0.029225815,0.109164245,0.09652935,0.03600586,0.16361669,-0.015708141,0.09639648,-0.12849775,-0.008670714,0.1634488,0.022890756,-0.053952575,-0.011733882,-0.061123736,0.035874408,0.081022225,-0.030796498,0.026028499,-0.017723259,0.086446375,-0.056787375,-0.04527898,0.06822179,-0.13188827,-0.04796412,-0.1508419,0.070052974,-0.08446948,0.024395658,-0.13023224,0.041161828,-0.038822267,0.029391222,0.05668769,-0.01421482,0.06263861,0.00968807,-0.026115356,1.0
Backdoor.Graybird-1f987748aa836fcff784691f0f5195eaed0187c12906f016b7bbad1f9b10d20a,0.0190231,-0.008497943,0.017896835,-0.007366415,0.0021710028,0.014405179,0.034658544,-0.013041466,0.011985395,0.012370451,-0.010135717,0.016764525,0.0031515523,0.08425238,-0.022994777,0.023107383,0.014881087,0.008009592,0.033299733,0.020057565,0.027053293,0.02470096,0.001401109,0.038124364,-0.35032812,0.060898423,-0.105213895,-0.00048717044,-0.19272694,0.042090494,0.00074767007,-0.07887185,-0.018911073,0.002869094,0.009258729,0.039086692,0.038259033,0.012649126,0.073613614,-0.0130330855,0.12627685,-0.14073382,-0.038495313,0.17351764,0.0075712656,-0.07581305,-0.009277467,-0.075816035,0.055206604,0.09714971,-0.03438144,0.0293911,-0.028607117,0.115532316,-0.093094185,-0.06364707,0.09425268,-0.16511732,-0.066513255,-0.17496006,0.09437561,-0.11995562,-0.0036662389,-0.164312,0.051591776,-0.065692306,0.055063494,0.08077692,-0.01638351,0.10167766,0.0063954955,-0.022499109,1.0
Backdoor.Graybird-1fe3c46136004caa9f4598dbd12db50b539bc0e44de422870a0150ccdf6c4297,0.01830667,-0.008750037,0.018432494,0.0061198603,-0.00017119944,0.02772059,0.024167513,-0.062734365,0.037541438,0.009439083,0.0050105546,0.03143549,0.0077450722,0.098112665,0.002359531,0.008695681,0.0124415895,0.009052152,0.02993968,0.0105629135,0.021155396,0.037960757,0.015452442,0.047164746,-0.38769495,0.07625768,-0.0680684,0.004532713,-0.20979796,0.056760523,0.013771822,-0.05473167,-0.034280885,0.014905652,0.02663494,0.03765758,0.027368503,0.011080005,0.050406985,-0.00038349463,0.10756671,-0.11504725,-0.04060627,0.1414721,0.008109121,-0.0667253,-0.0036030419,-0.067281544,0.061111804,0.10914544,-0.04712371,0.041432675,-0.025602235,0.11830686,-0.0932684,-0.0676469,0.08626815,-0.16076611,-0.08661356,-0.20031442,0.11716645,-0.117052,-0.017754555,-0.16761497,0.019522108,-0.072898656,0.09824161,0.12139159,-0.022342995,0.1364269,0.014267501,-0.020800702,1.0
Backdoor.Graybird-201267f2b8c394b866ce09e16997ce04701a0bdaa1f5651e81d1675af4a567a6,0.08950303,-0.034370113,-0.021371253,0.027784035,-0.0035834038,-0.008235691,0.04379053,0.033814985,0.0172407,0.014151638,-0.009414898,0.014634026,1.7406368e-05,0.09402898,-0.05999235,0.0313482,0.03263291,-0.025557242,0.03449214,-0.009844625,0.022426613,0.026250904,0.045100436,0.008001451,-0.37620807,0.078708544,-0.10612186,-0.0014767997,-0.19280626,0.046314463,0.0010842731,-0.07529036,-0.047540892,0.003777052,0.04159856,0.0900848,0.097267434,0.031721316,0.15412696,-0.014939972,0.0885444,-0.13161638,0.0047247363,0.19005983,0.03336188,-0.05337511,-0.015280001,-0.058865994,0.053566467,0.084406935,-0.04144745,0.03990309,-0.011206051,0.09244594,-0.073659934,-0.05328388,0.08235154,-0.13512036,-0.07405022,-0.16596176,0.08011299,-0.08241624,0.012965957,-0.14889526,0.008193713,-0.021539386,0.035426546,0.06016121,-0.0047763535,0.055054467,0.009557002,-0.0031470708,1.0
Backdoor.Graybird-20459a8ebc99703a2171b85dc321c41ccb8fdd67b606ac75c890156db25d67e2,0.014486215,-0.009826877,0.022527909,-0.0064414563,0.0034144614,0.01749788,0.050189562,-0.0207002,0.044931524,0.010864542,-0.00589778,0.039735384,0.0011013041,0.1287501,-0.02455249,0.023862762,0.029701514,-0.0026977235,0.0064037964,-0.008234084,-0.00027597285,0.03834195,0.0484772,0.0036336866,-0.37240794,0.07787034,-0.08616462,0.018218,-0.1832607,0.045054972,-0.0007614449,-0.05996488,-0.061601702,0.02601296,0.06544069,0.051825978,0.05699226,0.0059292824,0.103410445,-0.0040327776,0.09709854,-0.13054164,-0.032650717,0.16137624,0.015083534,-0.059349503,0.0034748449,-0.067749076,0.04966667,0.087402426,-0.057977483,0.04019041,-0.008512554,0.08559538,-0.092676274,-0.0424718,0.07533882,-0.14579333,-0.088450305,-0.17155711,0.09894442,-0.104516946,-0.022961527,-0.14282173,0.018930245,-0.04674063,0.06690923,0.09905206,-0.0058822813,0.10052101,0.008038874,-0.008165133,1.0
Backdoor.Graybird-21f994f2239ccaaddf25e98859f58e609dbc589127160c943dd884506d0f1e95,0.04112227,-0.019783255,-0.0015477695,0.012724441,-0.0042916434,0.0115453955,0.03566572,-0.005343181,0.0071390187,0.016454116,0.000495602,0.021510037,0.014414257,0.085060604,-0.021762686,0.022011114,0.037131485,-0.013255876,0.023860874,-0.002045611,0.028280115,0.040432863,0.042505704,0.015965857,-0.3943934,0.08156759,-0.08420079,0.0029889129,-0.1963561,0.04888376,0.005460441,-0.0553661,-0.061960068,0.018101057,0.046413474,0.070340715,0.063981496,0.018366314,0.099256925,-0.00013524502,0.084402785,-0.12851505,-0.010621272,0.15981199,0.025596937,-0.054743424,-0.014626021,-0.05689617,0.05263862,0.08392129,-0.036925558,0.03473911,-0.008252802,0.08729951,-0.07884672,-0.051325917,0.07952442,-0.14898168,-0.066679046,-0.17522995,0.093221985,-0.100225426,0.012225225,-0.14916822,0.0044365562,-0.049226873,0.07597225,0.0901542,-0.016682658,0.106754355,0.011103005,-0.005968,1.0
Backdoor.Graybird-22772293d3a3b20b3610ae1c06ab72da41745c57356905855180b45c5d43ae96,0.15583445,-0.042634126,-0.064837515,0.0480818,-0.033988208,-0.041906603,-0.001861936,0.08783744,-0.014970738,0.048499916,0.0010618194,-0.004116019,0.04757757,0.10092479,-0.062155504,0.049120635,0.02392968,-0.017192684,0.058342356,0.022893514,0.06442448,0.006863946,-0.008529695,0.06394172,-0.42094773,0.07968002,-0.14911693,-0.024997411,-0.24560328,0.057292227,-0.0037352028,-0.12868488,-0.016566696,-0.017213853,0.002477137,0.078288496,0.06807362,0.038848218,0.09678385,-0.01529436,0.095993906,-0.119114734,0.023620566,0.17482093,0.027767139,-0.030566555,-0.025146326,-0.058336344,0.020100314,0.07356488,-0.0042311116,0.008918699,-0.02513878,0.098891385,-0.04169399,-0.06032093,0.10183052,-0.15780684,-0.032204803,-0.15195665,0.06331145,-0.07881992,0.0632982,-0.16866617,0.075690106,-0.08620451,0.02077157,0.011988358,-0.005781774,0.049311817,-7.1305316e-05,-0.02939779,1.0
Backdoor.Graybird-22c98fc9dac84f509083a90a332517ead8eb265fc53ddb1d16e5cfd0dab0ebe1,0.11308589,-0.034297243,-0.02561934,0.034671314,-0.020725014,-0.025386741,0.016766755,0.042579785,0.0014225281,0.024035547,0.00927302,0.019781187,0.026024692,0.12886204,-0.04335617,0.03990408,0.024852,-0.011059828,0.04750274,0.025849514,0.051105324,0.009335716,-0.003707279,0.050242074,-0.38343513,0.06819846,-0.11322435,-0.006955077,-0.21745096,0.050421387,0.0058430545,-0.09743356,-0.007634264,-0.015582782,0.0040060873,0.061396874,0.05813808,0.036999937,0.087171696,-0.01617473,0.10144001,-0.11350895,0.012480898,0.14585218,0.023416128,-0.028149696,-0.022410274,-0.06374337,0.036291245,0.09077121,-0.012551312,0.015413675,-0.025357591,0.10747327,-0.05919397,-0.068377264,0.08068857,-0.15082557,-0.046336144,-0.15737107,0.071736574,-0.08352694,0.04063675,-0.15065603,0.035853725,-0.06731199,0.060352344,0.055410635,-0.0022767975,0.09060067,0.0075332033,-0.02487938,1.0
Backdoor.Graybird-23259ea20d4f481cdc1bf58894f6280ddbe3fc56d7bfbaaf11bafdf4840f8c2c,0.13039407,-0.040290978,-0.071501166,0.042474605,-0.014715588,-0.008786297,0.0013533847,0.109138705,-0.04529297,0.021564202,-0.014732567,-0.003671644,-0.00853989,0.057095654,-0.0940401,0.035823066,0.06983182,-0.05929808,0.06575246,0.022655977,0.099936254,-0.0038642967,0.012934085,0.038353104,-0.41220123,0.093375616,-0.1451107,-0.023550939,-0.2066437,0.055687655,-0.006830151,-0.10646264,-0.013080261,-0.032074712,-0.0029917725,0.13804735,0.12201511,0.073359266,0.1985514,-0.03173947,0.10384082,-0.12402025,0.015915852,0.17813149,0.022914806,-0.04576582,-0.025122179,-0.05709276,0.024370264,0.07210458,-0.014989082,0.020090494,-0.027993623,0.097349145,-0.045701157,-0.056622986,0.079969525,-0.13368994,-0.02502264,-0.13531035,0.03653656,-0.05404564,0.08192664,-0.14865221,0.079830535,-0.014417266,-0.017260091,-0.0134419035,-0.021677542,0.0018061562,-0.022066789,-0.007218431,1.0
Backdoor.Graybird-2486e00f3531d89506d2a87525b723d2508b4b8c0040824956aeca41b97d17d7,0.06977956,-0.025494548,-0.029253535,0.013602162,0.0033191578,-0.021388136,0.041431528,0.043750487,-0.0069466676,0.017802035,-0.014332885,0.01923192,-0.0076444345,0.0866576,-0.05685404,0.037109878,0.049683336,-0.03546822,0.024975287,-0.014081387,0.024579257,0.028897593,0.05242514,-0.0032289857,-0.40152088,0.09250563,-0.109566875,-0.0004443132,-0.20446126,0.045384124,-0.009112952,-0.072011314,-0.0497428,0.0014531179,0.030180665,0.107956104,0.103152126,0.047735568,0.16723114,-0.024995014,0.100027226,-0.13606608,0.019115148,0.19107355,0.036250964,-0.0416117,-0.018114194,-0.062266007,0.05265634,0.088559985,-0.04156969,0.03721846,-0.019071762,0.0999085,-0.07617592,-0.060670294,0.08018765,-0.14257896,-0.069148496,-0.16384783,0.0777782,-0.072166644,0.028617626,-0.14549586,-0.013551224,-0.020900417,0.032898504,0.05401362,-0.016526002,0.051658183,0.004060719,-0.0011238693,1.0
Backdoor.Graybird-2565563f99f161ad465a603000f5a2440b83b12413930bac01d20c6d3924f79e,0.05182603,-0.017571365,-0.003044806,0.0050530233,-0.0037402187,-0.006427098,0.047688235,-0.005988925,0.02925538,0.027140504,-0.003905359,0.030981744,0.010138297,0.15201738,-0.02872267,0.027518243,0.022769265,-0.008222969,0.017045774,-0.008722399,0.00036402396,0.0382142,0.04069604,0.016863462,-0.38027543,0.073247835,-0.09135839,0.01412962,-0.19934314,0.043025386,0.007280994,-0.060246956,-0.06062881,0.02273029,0.050222363,0.049609825,0.049570892,0.012073973,0.08124338,-0.0017394852,0.101760946,-0.13706654,-0.01312587,0.16963553,0.021419028,-0.059694014,-0.01575061,-0.0594968,0.04885314,0.0942195,-0.042683214,0.0346278,-0.023102405,0.09679576,-0.07104606,-0.056269858,0.08674191,-0.13910048,-0.074768886,-0.17017995,0.09190524,-0.1037503,0.009088144,-0.14626072,0.006828936,-0.06250725,0.07831782,0.094626606,-0.0026635707,0.10357668,0.019961204,-0.017687624,1.0
Backdoor.Graybird-272ea0be5ed16c1b6a1d0149a85107e382cf7dab94eb40fb49ec17acd3c00b0b,0.0386767,-0.011101177,-0.0132391555,9.425675e-05,-0.0032742214,-0.022008115,0.031139925,0.024439672,-0.0028362216,0.02581942,-0.01628006,0.005879836,0.02422587,0.08734447,-0.031293098,0.031323634,0.025184292,-0.00800157,0.005132514,-0.012136334,-0.0006258309,0.029807867,0.037084542,0.007956793,-0.3769893,0.08388747,-0.09923816,0.01708996,-0.19632569,0.049896397,0.002376367,-0.07461319,-0.036223806,0.009270262,0.049066637,0.056675635,0.056753162,0.009334477,0.11653319,-0.01512853,0.10125807,-0.1276833,-0.0067333193,0.16551611,0.020815656,-0.04653753,-0.01963399,-0.071402945,0.04994472,0.0903997,-0.049183752,0.043269727,-0.02073725,0.104758784,-0.0875663,-0.05356472,0.079263486,-0.15139084,-0.0797449,-0.17915544,0.09149541,-0.09873994,0.010575659,-0.14520635,0.013219633,-0.051331032,0.04780455,0.06575506,-0.023131566,0.06880858,0.016931176,-0.027418407,1.0
Backdoor.Graybird-27c0a52403d572f0ee5abc626a7f5cd834ed6a5b7eeebeadc848a5cc091eb5d1,0.1543496,-0.045990206,-0.06279491,0.04536032,-0.016748281,-0.033484124,0.0041530663,0.0991035,-0.010270308,0.03674726,-0.006342366,0.017405588,0.016113998,0.117069915,-0.08246182,0.04236116,0.04743885,-0.031389263,0.054721586,0.013548562,0.07504465,0.0045568994,0.0061160987,0.05246405,-0.39474365,0.06860267,-0.15862492,-0.017409611,-0.21385823,0.058129266,-0.008330029,-0.12834862,-0.008229464,-0.01879133,0.011659327,0.11220692,0.107644245,0.059650384,0.16672945,-0.03304688,0.08580388,-0.12085313,0.031424966,0.17518783,0.028799247,-0.025847321,-0.02164289,-0.061603907,0.020458408,0.06934067,-0.010024268,0.012433661,-0.01078025,0.07027905,-0.04608945,-0.050882183,0.076495625,-0.12508659,-0.028055092,-0.13266607,0.04645514,-0.060578562,0.0648931,-0.14133742,0.060880046,-0.029703202,-0.009858755,-0.010909431,-0.009317712,0.0022938726,-0.012202643,-0.02002418,1.0
Backdoor.Graybird-27d4f0a222bbb2285e395dcbed061a6eeb91a69d6c8cab8c98fd1ffb244c699a,0.11575187,-0.056003656,-0.042339608,0.039863754,-0.009485403,-0.0018596678,0.012696012,0.011959372,0.012150006,0.011712377,-0.0010530357,0.03303472,0.0011544069,0.09947511,-0.04078739,0.027959334,0.04097396,-0.007806565,0.034397814,-0.012341205,0.028468527,0.044738434,0.05455346,0.015254983,-0.41853625,0.08725749,-0.06607948,0.0043012314,-0.21665731,0.05570193,0.009635777,-0.05152202,-0.058091197,0.015279352,0.021464966,0.09005944,0.07997473,0.038153924,0.11423534,-0.0071981573,0.06267075,-0.09486596,0.04925411,0.12057247,0.030419968,-0.014472471,-0.016065968,-0.03326069,0.041836683,0.09188568,-0.031313438,0.02667248,-0.005890873,0.08018456,-0.06247488,-0.06322827,0.064118974,-0.12849206,-0.06784954,-0.16170718,0.082806624,-0.07330627,0.017402608,-0.13604558,-0.04360048,-0.032732606,0.08448108,0.09484858,-0.0013485156,0.10186677,0.021348229,0.004301412,1.0
Backdoor.Graybird-2821c9781c0351109c2a8b9633972e2c71f46371b648d2103c2741f560b60a1b,0.028190734,-0.008390937,0.0029177906,0.0038003519,0.006858279,0.013763635,0.04941773,-0.0015095728,0.017698577,0.022031942,-0.024266621,0.024523558,0.00482797,0.08977681,-0.028113618,0.033664662,0.013558915,-0.0061279046,0.011539671,-0.00727485,-0.0008429807,0.036102023,0.03089535,0.01631982,-0.39248165,0.083720095,-0.095942736,0.010890332,-0.19232798,0.049638912,0.000851448,-0.061259605,-0.043678947,0.010823492,0.06363692,0.06791251,0.070037216,0.012033635,0.122534946,-0.0194973,0.10343091,-0.12701267,-0.04231682,0.16725628,0.016607761,-0.070802346,-0.0059839734,-0.077075936,0.049543727,0.097575255,-0.042326786,0.03770266,-0.019497568,0.09614783,-0.095146194,-0.051735103,0.0827977,-0.15114985,-0.07811913,-0.17921552,0.09745411,-0.104193985,-0.018846285,-0.14883178,0.018965812,-0.041571967,0.052059148,0.07524953,-0.013354135,0.08175513,0.0037338496,-0.008388798,1.0
Backdoor.Graybird-2860ba35f778ed52b8487fe93a77c05a2d49222ba8f6cb81877c1779d13c1f4a,0.07300315,-0.02385963,-0.021607123,0.00797384,0.011468712,-0.00620213,0.06280356,0.057839274,-0.007561272,0.025175171,-0.018719986,0.0148470355,0.0028917007,0.11159364,-0.0771122,0.0402225,0.046678033,-0.038689315,0.0274412,-0.0011884632,0.024101645,0.01894742,0.04047204,0.006803298,-0.36340475,0.0742917,-0.12716514,-0.012645705,-0.18417259,0.038697097,-0.0011625149,-0.090145804,-0.037529916,-0.003499511,0.037350044,0.09763032,0.09459553,0.044195697,0.16593575,-0.029460184,0.099343725,-0.14548971,-0.006246707,0.19330405,0.026035286,-0.054517496,-0.019502789,-0.07150866,0.043110438,0.083986536,-0.039988592,0.038208492,-0.015138428,0.09813097,-0.07034932,-0.054109342,0.088062525,-0.13697398,-0.06348074,-0.15414153,0.07226536,-0.08518149,0.038411997,-0.14947325,0.037206333,-0.011095214,0.021610785,0.050209966,-0.013442437,0.0425437,-0.0050444566,-0.008457703,1.0
Backdoor.Graybird-2a1858cfa17d4f07292362a2719d61c97a487d29a5adf45d8e8b32f3252331a2,-0.0012182398,-0.014947314,0.057432316,-0.007310817,0.017061228,0.06255816,0.075909115,-0.09483174,0.072830394,-0.015212322,0.0017148332,0.060408074,-0.015632462,0.14173666,-0.0077305282,0.008539489,0.017966319,0.0065504513,0.013744492,-0.0045446376,-0.0044833547,0.059145354,0.041035116,0.021874268,-0.3620705,0.074428305,-0.04736693,0.013425503,-0.18436617,0.050066695,0.0024154321,-0.04007503,-0.06607815,0.026943138,0.04789209,0.049027618,0.041447602,-0.0034091305,0.07048115,0.00648363,0.11065721,-0.13676083,-0.04660139,0.16245393,0.0128360465,-0.084746405,0.00060479937,-0.06878314,0.068620205,0.10203434,-0.050249085,0.043317452,-0.0118924985,0.10400605,-0.099202216,-0.06682138,0.080387495,-0.14838398,-0.10053059,-0.199928,0.13006046,-0.1318185,-0.03570063,-0.1547458,-0.0008515495,-0.06096097,0.11520142,0.15598579,0.0011327821,0.16650093,0.019813616,0.0046445965,1.0
Backdoor.Graybird-2a7c74a91f4b6f4ed632d97fc3ee8835a7a615cb15dbf6ecbb96526d06f64db6,0.05384081,-0.020303054,-0.016049493,0.018496718,0.010441945,0.014068336,0.049421985,0.017355781,-0.006907417,-0.018167328,-0.011994887,0.04359995,-0.03599259,0.09909311,-0.04991121,0.019948864,0.05173668,-0.03776803,0.04016353,-0.0028396049,0.04429527,0.019064138,0.043152615,0.014504166,-0.36941522,0.08260505,-0.08917083,-0.006840621,-0.1898029,0.040310573,0.0038237283,-0.064901985,-0.03345671,-0.013834549,0.018874163,0.121526346,0.100082986,0.054412518,0.16725595,-0.027341349,0.119736515,-0.13155544,-0.022200705,0.17599183,0.02070484,-0.06472162,-0.011679981,-0.07794657,0.043931693,0.09173136,-0.030304076,0.035113394,-0.0298282,0.103897646,-0.081933446,-0.06286204,0.07503968,-0.13047826,-0.05610075,-0.15013172,0.084702455,-0.07611172,0.021406878,-0.14177002,0.03792758,-0.024515659,0.052186675,0.07939892,-0.015347526,0.07369077,0.006446422,-0.016764974,1.0
Backdoor.Graybird-2b470ddd183ec9f15d7cef2e1f2daf7243e1deef16fb6e74cb75b67c5d25df18,-0.032486435,-6.254266e-05,0.06531838,-0.022323024,0.03491206,0.060786404,0.09467826,-0.094885625,0.08105894,-0.008577534,-0.021787599,0.04814527,-0.03094684,0.10186406,-0.011522438,0.0052561406,0.012812646,-1.3963373e-05,0.010651035,-0.007980703,-0.013085594,0.040189326,0.0429941,0.0153158875,-0.32479608,0.07040083,-0.06729617,0.014132344,-0.16250315,0.043430008,-0.0020334634,-0.040337767,-0.064206354,0.023908442,0.075890474,0.053632464,0.049478006,-0.0064669466,0.110636875,-0.012950192,0.11778951,-0.15094817,-0.07862525,0.18826352,0.010734459,-0.09659904,0.004777796,-0.08306345,0.075466156,0.10188399,-0.07948762,0.062250905,-0.02209741,0.108470656,-0.13061751,-0.056404307,0.08161073,-0.16027927,-0.11405972,-0.21144444,0.13265422,-0.13139166,-0.060604554,-0.1560532,-0.006309038,-0.025545342,0.09885867,0.13032643,-0.00751605,0.1342326,0.011777494,0.024424434,1.0
Backdoor.Graybird-2ca870cb512099a0df67fefee9eb2bf8fd53cc078919852144d6cbff26456347,0.039562326,-0.008700038,-0.0115086045,0.00057579135,6.449718e-07,0.0039623603,0.045451537,0.022249954,-0.007902682,0.003440324,-0.004779398,0.036613747,-0.014879286,0.11390683,-0.049704935,0.026453603,0.04807267,-0.02921575,0.016994027,-0.008610474,0.015186259,0.027129423,0.049532875,-0.0029907874,-0.4001237,0.09465014,-0.08536864,-0.001867574,-0.19678092,0.041577533,0.0024400032,-0.057807013,-0.043891028,0.006170483,0.033990093,0.090611614,0.07934788,0.038454574,0.12597822,-0.01637643,0.116689935,-0.12910022,-0.013030427,0.1676446,0.02470748,-0.06253595,-0.017504092,-0.062496305,0.03785252,0.09170151,-0.019349089,0.037534043,-0.016555658,0.10902773,-0.072618715,-0.07497698,0.07277948,-0.12849154,-0.06121816,-0.15496321,0.080294274,-0.074017726,0.022200665,-0.12908085,0.012725487,-0.042962793,0.062006444,0.09528646,-0.014994307,0.088881455,0.01537693,-0.02828346,1.0
Backdoor.Graybird-2ec9be730d82cf10af338e7f25781006744b9dda9c9ff484acfd2de501b05e24,0.03571159,-0.012393658,0.0046159257,0.012098581,-0.00046665294,0.022809274,0.042037524,-0.023560163,0.04359275,0.00079863035,-0.009733299,0.041280527,-0.014113918,0.11762058,-0.029356815,0.025024137,0.03734661,-0.01006083,0.013257034,-0.013697583,0.0016212794,0.039938908,0.043718398,0.014792723,-0.37267563,0.0900934,-0.08414103,0.005158475,-0.18893056,0.047111224,-0.005074006,-0.055949003,-0.0629974,0.020398311,0.047209423,0.06964684,0.07255015,0.014910537,0.11608055,-0.015005753,0.10539454,-0.14075376,-0.032488577,0.17805268,0.014126382,-0.064690374,-0.01184158,-0.07473999,0.057941895,0.09378022,-0.054215,0.039874766,-0.009771191,0.09195692,-0.094492786,-0.048159786,0.082512595,-0.14631936,-0.07936392,-0.18119489,0.10463889,-0.09932946,-0.009223987,-0.15444908,0.026236936,-0.03477636,0.052825615,0.09045511,-0.011048878,0.08070446,0.011111024,-0.017146219,1.0
Backdoor.Graybird-31e4807b0f375d8f919a3037f2764686a46d2e41bd957f8edd8f771621a3e53f,0.05138307,-0.012159742,-0.015214838,0.015470333,0.011397849,0.0117235,0.03674718,0.034744404,0.004562429,-0.0037550626,-0.029221566,0.022885052,-0.031795997,0.050731737,-0.052259263,0.021656808,0.043803822,-0.019890212,0.025696069,-0.0013963765,0.035567254,0.019162841,0.03181803,0.010291704,-0.4039369,0.0923353,-0.11731625,-0.004881253,-0.19935074,0.04921352,-0.007259018,-0.080219865,-0.033987254,-0.007738782,0.036267795,0.11393854,0.10190139,0.042310566,0.19397642,-0.022120347,0.10549029,-0.1518811,-0.018604686,0.20064953,0.020576105,-0.06421244,-0.01780505,-0.077106215,0.05631091,0.09005363,-0.057215203,0.04505061,-0.009297204,0.09809935,-0.09368392,-0.051409997,0.0769423,-0.14115381,-0.06389295,-0.15670043,0.07791679,-0.09570257,0.01655775,-0.14400044,0.02930076,0.00032651811,0.021959364,0.053147737,-0.015271847,0.036596365,-0.0038975151,-0.0014543388,1.0
Backdoor.Graybird-32cbc565918830a83537aef008c3587ea24d2172c7ed3563ac2f4a7506a7a00d,0.042812884,-0.02064804,0.016129252,0.002985248,-0.0035525262,-0.025834579,0.044743326,-0.01488786,0.028230568,0.036267865,0.0011160433,0.019441519,0.049719017,0.14038992,-0.016120503,0.037978277,0.021558095,0.007262985,0.012453628,-0.0033948037,0.0035091217,0.039193455,0.030709155,0.015674185,-0.35931423,0.0729559,-0.10536463,0.014234101,-0.19990528,0.05441861,0.0032191086,-0.08020262,-0.05192583,0.0206854,0.059070118,0.016011192,0.036540635,-0.013609876,0.0374072,0.0012373731,0.09694902,-0.13437486,-0.01119532,0.17949207,0.030729692,-0.049835816,-0.0051878453,-0.06670866,0.050976723,0.09766323,-0.045019045,0.033790622,-0.014595048,0.103363894,-0.08734993,-0.064012825,0.09660222,-0.16166519,-0.088108525,-0.19776939,0.097023,-0.10601997,0.0075710006,-0.16787589,-0.01098607,-0.07142767,0.086332045,0.08759326,-0.013022418,0.103490174,0.024285723,-0.021765148,1.0
Backdoor.Graybird-33e8337aad51e26cebf92f17cdc0c3ffa5ed55c74de4e7cd5b92db2d75e15339,0.08625932,-0.016397333,-0.052217085,0.024530211,-0.011391149,-0.0031289137,-0.0026072166,0.080811515,-0.035741206,-0.0009911393,-0.0061551477,0.012995542,-0.0027329917,0.07379228,-0.05248191,0.023625694,0.045683943,-0.02972235,0.040800594,0.011806334,0.052159935,0.0158851,0.032631148,0.024732068,-0.43101856,0.08561607,-0.11599845,-0.017862171,-0.21579278,0.055419344,-0.0011105675,-0.094976135,-0.024716213,-0.013103885,-0.012566467,0.114432015,0.09522694,0.06864863,0.16243118,-0.026466606,0.11304922,-0.13894208,0.011111544,0.17615923,0.027548589,-0.04785959,-0.024112342,-0.06153728,0.026835773,0.078017026,-0.00855474,0.017462047,-0.0144381635,0.10076367,-0.051465984,-0.05852023,0.07210596,-0.12099128,-0.02446409,-0.13030072,0.0525964,-0.061834585,0.05315023,-0.13989377,0.062843665,-0.046161447,0.009701321,0.041355602,-0.019684896,0.039921496,-0.00093896326,-0.044003632,1.0
Backdoor.Graybird-340c5cae28749592b0ea9453bd4f7d109b2fe2c8a03041e5da9961a7339eaa34,0.062461186,-0.020708332,-0.0031440079,0.00944052,-0.009722325,-0.006914534,0.02657354,-0.01088832,0.02546888,0.03564196,-0.0024679382,0.015349429,0.030804474,0.10382011,-0.02885039,0.019400401,0.017103903,0.008548745,0.039087858,0.023802023,0.046269394,0.024668561,-0.0048246044,0.060194418,-0.32151234,0.05135304,-0.11466349,-7.003166e-05,-0.18416542,0.05533131,0.006626877,-0.10121999,-0.026227191,-0.005384912,0.024348103,0.028560517,0.040181305,0.0174663,0.04557162,-0.006903555,0.10848091,-0.1389142,-0.012542124,0.17289364,0.01829923,-0.058033124,-0.019343857,-0.07657966,0.05071079,0.08800578,-0.037461374,0.03545267,-0.029350365,0.10466083,-0.07864361,-0.056344748,0.0906814,-0.17371641,-0.06309697,-0.18314534,0.097916916,-0.114916556,0.01753396,-0.1789733,0.040842216,-0.07151741,0.051601335,0.06715324,-0.016001737,0.08706289,0.0028990523,-0.023145162,1.0
Backdoor.Graybird-3472255f40fa8003a08d8c641d9d2c5d0f749bf4c0420fc9a22040103a97c35b,0.004162362,-0.012269978,0.029834634,-0.005246837,0.018573102,0.03869758,0.06346549,-0.061309963,0.048290063,-0.01487573,-0.008428657,0.06457694,-0.015447544,0.12419833,-0.021443538,0.013592688,0.041731358,-0.014015024,0.018686777,-0.013107945,-0.003840896,0.062201582,0.064442635,0.007375894,-0.36796615,0.08011918,-0.055705354,0.017042039,-0.18192935,0.042754922,0.008502987,-0.023688398,-0.084722094,0.024411542,0.05009392,0.055527564,0.0504414,0.009383556,0.07632444,0.009215375,0.09116583,-0.13592352,-0.0252311,0.16588925,0.0138866175,-0.06739227,-0.003719805,-0.0653207,0.06921627,0.11050947,-0.064296715,0.058524385,-0.0069781826,0.110095665,-0.11399365,-0.060965605,0.07042234,-0.14733833,-0.098149054,-0.19217648,0.11969906,-0.11283866,-0.016264072,-0.15198635,-0.029281627,-0.014517549,0.08982427,0.14359114,0.0026450662,0.119842544,0.01920769,0.008532881,1.0
Backdoor.Graybird-3473cb362c74478f5f8d200d068fbf1806d2dca138264e942574fb7abd324b42,0.016586171,-0.010281201,0.0062623834,0.0004927707,-0.001825072,0.01810294,0.053011183,-0.013899746,0.033019755,0.02026179,-0.011536735,0.017409181,0.0099294195,0.103067294,-0.016751021,0.023485417,0.024285525,-0.0068208002,-0.0034932743,-0.026664851,-0.025946153,0.052823078,0.058585178,-0.0077659483,-0.38277897,0.09080967,-0.06454589,0.02880029,-0.19665301,0.0437128,-0.0024987354,-0.04295968,-0.070876524,0.02687447,0.061229546,0.057695817,0.05273838,-0.0039940802,0.09944462,-0.0100113815,0.069307014,-0.12115586,-0.019146359,0.15301962,0.021855885,-0.051655997,-0.009546499,-0.053087916,0.049008355,0.08637559,-0.05216785,0.044678453,-0.0013285753,0.08284412,-0.07098044,-0.055763282,0.06800655,-0.13552876,-0.07506094,-0.16288409,0.09753384,-0.0936186,-0.0108724935,-0.13483876,-0.010398181,-0.04398444,0.07808665,0.10824966,-0.013419296,0.10090706,0.022390772,-0.010626088,1.0
Backdoor.Graybird-349a9ef306724d4e0a569074528204ac93186fc10679de7c0fd4117b7e674adf,0.03952699,-0.023742875,0.016705105,0.0031175802,0.027794173,0.017452978,0.090388544,-0.055027436,0.05775026,0.0028458145,-0.008437425,0.04994544,-0.016401047,0.13994908,-0.027725417,0.016847191,0.0072722905,0.013776915,0.013990213,-0.010201529,0.0023307907,0.043268096,0.0320042,0.015734425,-0.34138083,0.07102724,-0.08801248,0.011103765,-0.18831292,0.04190454,0.002237883,-0.07206031,-0.04325336,0.00515869,0.04959434,0.07357694,0.07467577,0.01957857,0.12874047,-0.012116522,0.09645703,-0.14285925,-0.015362592,0.17533267,0.022151468,-0.06764517,-0.0034865895,-0.0698189,0.061043717,0.10134818,-0.06194077,0.044193383,-0.009727053,0.10113412,-0.10491538,-0.05606821,0.0787486,-0.14294234,-0.10189957,-0.18956853,0.1192025,-0.117533356,-0.038001493,-0.14091244,-0.03888989,-0.028501661,0.0909658,0.114434086,0.013471242,0.117914975,0.021152396,0.00783308,1.0
Backdoor.Graybird-34cb2e3660a417e83f902c990f20b3d0efa6e84ad20a7c769f2944cc333bc47b,-0.009077882,-0.0029740613,0.037949655,-0.018835815,0.010170704,0.024997909,0.077768706,-0.044285208,0.04574909,0.004802098,-0.009463453,0.027176283,0.010385872,0.12079683,-0.009777608,0.019420687,0.017347028,-0.0063828616,-0.0062670987,-0.023028998,-0.023748368,0.04942699,0.048747923,-0.008153713,-0.36559913,0.08752441,-0.080510095,0.01626059,-0.18196915,0.04790307,-0.0021922,-0.050756034,-0.062092558,0.02446265,0.07826694,0.04777175,0.053929344,-0.0034690888,0.094626464,0.00022335685,0.10442322,-0.1449379,-0.04253212,0.17866638,0.016155126,-0.07858236,-0.00050716184,-0.063410856,0.054929,0.09304484,-0.05839308,0.04594899,-0.010958416,0.09999683,-0.09727204,-0.061454535,0.07783519,-0.15163025,-0.08707014,-0.18803214,0.11200317,-0.11406212,-0.025164487,-0.14833796,-0.00169485,-0.060008746,0.0948494,0.12503974,-0.009471275,0.12031662,0.028237188,-0.0189481,1.0
Backdoor.Graybird-3512ae0eba2c3f6e4e6195c0e1bd70b9a9e3b3d7708f403ed4b5e281e4a1a120,0.0057174964,-0.011853827,0.0472774,-0.009926989,0.02718368,0.033721454,0.09149085,-0.095643334,0.08629801,0.0064471927,-0.0021135625,0.06607854,0.0031074719,0.17358606,0.0019680532,0.013658667,0.014013393,0.014188752,-0.0011088947,-0.024506971,-0.03183472,0.07063825,0.060606852,-0.0041544847,-0.3525748,0.078951806,-0.05038916,0.035386078,-0.1807835,0.037233155,0.009003265,-0.036006488,-0.08976258,0.047088843,0.07717251,0.039506514,0.034337174,-0.015407574,0.052987266,0.002590785,0.08315869,-0.13926311,-0.031797454,0.15676115,0.016648434,-0.06542894,-0.0016687908,-0.052802138,0.07507041,0.11122006,-0.07721094,0.0462938,-0.011484509,0.09325961,-0.10462131,-0.054122183,0.06881795,-0.1482153,-0.119882904,-0.19963282,0.1318219,-0.12167672,-0.049654596,-0.15125065,-0.07030085,-0.03174544,0.12943976,0.15790571,0.010740138,0.15892321,0.040060908,0.012248386,1.0
Backdoor.Graybird-35808e06d5ab73341611da612e9a37252f07f2bc7801725569ebb49895f59a05,0.034293063,-0.019237163,0.006402341,0.00925004,0.005884304,0.02243774,0.040500812,-0.043656103,0.035412006,-0.008421265,0.008722624,0.05898037,-0.02358599,0.13841458,-0.029430302,0.0039608493,0.037970167,-0.019986171,0.022310885,-0.012826276,0.009659305,0.05352994,0.06115544,0.006484022,-0.37898228,0.08711258,-0.070190124,0.013783783,-0.19249633,0.039599173,-0.0015481293,-0.044267703,-0.057289783,0.014552102,0.029981727,0.07027412,0.070365325,0.020447295,0.10365788,0.0019449013,0.09396473,-0.129623,-0.01088625,0.15498224,0.021325553,-0.05854823,-0.007305592,-0.04839792,0.053499598,0.10069245,-0.05552412,0.04579107,-0.017295694,0.10786302,-0.09049065,-0.06555674,0.0760946,-0.12950724,-0.08995412,-0.17482704,0.101050906,-0.10386264,-0.0047110813,-0.13728067,-0.014945739,-0.024784975,0.08610005,0.13860881,-0.0038717529,0.11343534,0.025978124,-0.003849844,1.0
Backdoor.Graybird-365bea068bcb7c92f0dbf6868e8e6ac2d49feaae2d6464a4fbf9d4dc28ea4189,0.1494005,-0.031290323,-0.06437651,0.04261688,-0.035912976,-0.031206995,-0.008842729,0.13224837,-0.040375475,0.040278595,-0.008262982,-0.0052418145,0.020829735,0.08518136,-0.079137124,0.03577915,0.025018742,-0.022597622,0.079305835,0.042009227,0.09252123,-0.013682746,-0.029535232,0.07317543,-0.42085394,0.06948755,-0.17953523,-0.045957714,-0.23257981,0.05466856,-0.0103193745,-0.15446328,0.015232722,-0.04270642,-0.024199786,0.122557364,0.101904094,0.07457982,0.17424515,-0.04067351,0.1239263,-0.13910526,0.005831555,0.18901964,0.02351512,-0.03442817,-0.023500254,-0.080064274,0.011972516,0.069694296,0.012227628,0.005936239,-0.0292855,0.0913595,-0.03517654,-0.0556715,0.098708585,-0.15002792,0.0065564155,-0.12932113,0.038903534,-0.062161315,0.07983439,-0.15896286,0.13185959,-0.060923446,-0.03038401,-0.03527792,-0.022377538,-0.014338542,-0.012964998,-0.04182497,1.0
Backdoor.Graybird-3796ba03a70668fe9a40cd399da7963d6dded9136682059f1443d5b493d37a83,0.06944944,-0.029316518,-0.006676052,0.00844933,0.00087787345,-0.005971913,0.04854106,-0.0024320243,0.032460254,0.032784957,-0.0032177982,0.033248182,0.027196083,0.13704103,-0.045399625,0.024996206,0.022226034,-0.0105001945,0.026883114,-0.0010215556,0.023635862,0.040358506,0.02965671,0.028347941,-0.3640807,0.074010134,-0.11100793,0.001262156,-0.1963355,0.046917547,-0.0016617761,-0.084107235,-0.03904837,0.007049962,0.042695384,0.05863205,0.05960924,0.018960051,0.087798454,-0.011817756,0.094340354,-0.13909248,-0.009020346,0.17481865,0.028846795,-0.05386373,-0.015676383,-0.06434751,0.047979247,0.09065586,-0.037107784,0.02753459,-0.01163667,0.09242826,-0.07013209,-0.05923371,0.08301417,-0.1491916,-0.06373959,-0.17518936,0.08819043,-0.09920989,0.019751806,-0.16306594,0.0010743437,-0.05289072,0.07262048,0.06976678,0.0007368038,0.09658594,0.013534623,-0.008282067,1.0
Backdoor.Graybird-3799f857d04896d9155038342c96e32490cab5ce67ddf33dab263184d95ea41b,7.306981e-05,-0.005890472,0.03025467,-0.0076975846,0.02943415,0.017344926,0.07611435,-0.04228072,0.044151966,-0.0020349345,-0.018390985,0.037816357,-0.016685251,0.10766141,-0.027441237,0.023421736,0.009964485,0.0031854378,-0.0027231895,-0.018278355,-0.013722246,0.03368051,0.03782048,-0.0027906836,-0.36778602,0.07328691,-0.07261835,0.017631399,-0.18629886,0.04800448,0.008118681,-0.059206072,-0.043536186,0.0053022765,0.05665599,0.059559014,0.054335494,0.015260713,0.11548895,-0.018057827,0.10610976,-0.15314104,-0.033267334,0.17511752,0.022992974,-0.07104791,-0.00013017282,-0.07250413,0.055520147,0.10668731,-0.06013804,0.042127326,-0.019675523,0.10799621,-0.09464967,-0.0669328,0.0816167,-0.15125431,-0.09331505,-0.18702066,0.1138029,-0.10518842,-0.02757571,-0.15401438,-0.006735989,-0.04585063,0.088696584,0.11724078,-0.012222966,0.114240386,0.019624364,-0.00837362,1.0
Backdoor.Graybird-3920bdcebc14233421ec142268749c0cc1358bba2af6e2e561ce3ac346db2d8e,0.03253036,-0.01609594,0.026288396,0.012468813,-0.010704521,0.034713347,0.031134604,-0.07109406,0.054571636,-0.0015702703,0.010457085,0.03201915,0.00470908,0.094386905,0.013932469,0.0075956592,0.005452638,0.005427011,0.023675792,-0.001939603,0.01248131,0.052815262,0.029083358,0.044221543,-0.39951116,0.085420504,-0.06309958,0.01423114,-0.21424113,0.054672565,0.0040561343,-0.04032152,-0.06831517,0.03147574,0.034820884,0.04985008,0.032378234,0.0034246747,0.062496483,0.0061822007,0.095654555,-0.124423206,-0.020007154,0.14945203,0.023047907,-0.067046516,-0.008586428,-0.06133959,0.054926887,0.095002785,-0.053824946,0.03384341,-0.020440321,0.09306209,-0.08080055,-0.060218137,0.0825206,-0.1607352,-0.08747948,-0.19055139,0.12006028,-0.116415516,-0.020664003,-0.15549526,0.017734334,-0.071363986,0.09808393,0.12846735,-0.0036335872,0.14843267,0.023247104,-0.020340307,1.0
Backdoor.Graybird-3a81fabef97e62aaefc48fa799a00c00d531afda4d49a58e90161dfef215d056,0.09069098,-0.019622564,-0.013948388,0.020268742,-0.005739859,-0.016513085,0.040898647,0.040440965,0.0023773063,0.026613852,-0.004330949,0.03238772,0.019998355,0.13271755,-0.046241272,0.032741513,0.019167392,-0.012007325,0.042313293,0.018913954,0.03380801,0.021593638,0.009700658,0.041399945,-0.38893846,0.071705155,-0.13785696,-0.0051463186,-0.20925097,0.053557448,0.0010781055,-0.105549894,-0.023874193,-0.009318078,0.022629192,0.07986224,0.086287566,0.03473567,0.13600989,-0.021699484,0.117833786,-0.14419174,-0.019348819,0.17599206,0.01770168,-0.051625818,-0.01091133,-0.077286,0.033233337,0.07594107,-0.00980169,0.02317548,-0.029242149,0.091116816,-0.064847834,-0.057749227,0.0843051,-0.13924918,-0.042830937,-0.14884798,0.07963097,-0.09390501,0.012923296,-0.14643069,0.07039519,-0.07339141,0.035867546,0.047616094,-0.0046617626,0.0666646,0.005191266,-0.029607927,1.0
Backdoor.Graybird-3ac9b0f65d3a26c5fe28cad9856d7119d2088f7cab78c37aa12348ea3b3bc000,0.10532535,-0.04149188,-0.02575637,0.036165625,-0.014729109,-0.013301436,0.024096332,0.029652897,0.005051341,0.028077593,-0.008069214,0.0157254,0.007956987,0.079867855,-0.04971757,0.033031438,0.019468453,-0.0010418834,0.052472852,0.024181673,0.05700277,0.01169542,-0.005526191,0.06089541,-0.38077965,0.064966954,-0.11206361,-0.012061352,-0.20819631,0.048209667,-0.006142651,-0.091757156,-0.020913249,-0.013221776,0.017329168,0.08885125,0.07344801,0.0375194,0.14004225,-0.030045249,0.11562301,-0.12741335,-0.009903573,0.17869335,0.02186971,-0.04769546,-0.023205478,-0.07548455,0.043631203,0.065780744,-0.02354736,0.02778813,-0.020365547,0.08508812,-0.06800095,-0.044890244,0.0920492,-0.15765172,-0.05135032,-0.15901181,0.07600172,-0.09074788,0.029785182,-0.15848112,0.07867405,-0.07150737,0.026414063,0.025474092,-0.009125102,0.054785375,-0.0014120276,-0.03247162,1.0
Backdoor.Graybird-3b6230033969a93587fc1d795bd800de9478b437d400bfaa3a1fd7ab0b082102,0.115298025,-0.04225201,-0.03560229,0.030003788,-0.003965129,-0.0435812,0.029302143,0.03586421,-0.011224611,0.035154715,0.0045593563,0.01879243,0.032930132,0.113065906,-0.05681917,0.04076111,0.011489925,-0.00027655045,0.060172815,0.0290698,0.06497512,0.00807444,-0.024688765,0.064776644,-0.3549438,0.055158745,-0.13915981,-0.019445525,-0.21030602,0.054921366,0.001595912,-0.1311957,0.006077147,-0.021002943,-0.0039751832,0.059821997,0.06376328,0.032698806,0.1086397,-0.01289353,0.11864784,-0.13937329,0.0030255094,0.16653058,0.03494026,-0.039155267,-0.021216663,-0.06619012,0.04189252,0.08851727,-0.019008225,0.024405343,-0.04046484,0.11239771,-0.07131599,-0.06950298,0.09545622,-0.16476475,-0.04663184,-0.17179361,0.08325505,-0.087715186,0.03808832,-0.16654527,0.026238399,-0.056992326,0.03525903,0.036919188,-0.017697114,0.065528646,0.0035288779,-0.0048913364,1.0
Backdoor.Graybird-3bd529df6d6af1c83eca9ff3fd494825f98908773b73ab6023b2d08e30fc9141,0.13170153,-0.048795614,-0.050430655,0.04040215,-0.008496303,-0.0040972866,0.025469493,0.053287167,0.013493089,0.01362746,-0.009851816,0.03136832,-0.017263599,0.09936755,-0.060710836,0.029335195,0.05175113,-0.023866145,0.055067565,0.0014312615,0.04645805,0.02711871,0.04130867,0.023971098,-0.40428314,0.093474865,-0.11220719,-0.0023659475,-0.20692901,0.043772485,-0.003313706,-0.07789051,-0.04237068,-0.0060636583,0.027613664,0.120422326,0.10917535,0.058627676,0.19224742,-0.03360746,0.08775158,-0.13432781,0.023843879,0.18738094,0.030991334,-0.042279486,-0.028084237,-0.0521553,0.04441606,0.07960494,-0.04644063,0.02794657,-0.0037634394,0.07335625,-0.068332635,-0.04865022,0.07174862,-0.13391851,-0.060440607,-0.15767203,0.0768008,-0.07346498,0.041785587,-0.13300501,0.0063807163,-0.02063181,0.037104663,0.04336416,-0.010285657,0.04874016,0.012926584,-0.003627044,1.0
Backdoor.Graybird-3d4c37580fcfcd3162538e57ebfd65f89caf379c9158dba626690d2ac7a24154,0.090033434,-0.035772234,-0.031020276,0.023811787,-0.012505234,-0.014362969,0.018583717,0.037177794,0.005829796,0.030946737,-0.0032076489,0.011489653,0.018896,0.09160512,-0.036943927,0.025539324,0.019651836,0.0027239707,0.0487102,0.014573907,0.046686724,0.025361484,-0.0048234514,0.052919917,-0.41800904,0.075935684,-0.12966937,-0.01449775,-0.22505544,0.05473024,0.0044328365,-0.09960562,-0.023158854,-0.007823356,0.004311778,0.06416562,0.07054973,0.027648518,0.100565106,-0.015273546,0.09533066,-0.12360851,0.007353383,0.16321826,0.027795285,-0.040276863,-0.017339403,-0.06638047,0.035003316,0.084758624,-0.026939387,0.02629483,-0.013959428,0.08706782,-0.06630478,-0.059881885,0.0941225,-0.15869612,-0.043330528,-0.16318521,0.08116924,-0.08866871,0.036764324,-0.15759425,0.04051175,-0.057817668,0.041816883,0.033549074,-0.021356517,0.055343285,0.0036058936,-0.029745746,1.0
Backdoor.Graybird-3f40d1874219ac8f6ba08b587a9547da773b0356b58e4d40f584b595740fa7a4,0.036901955,-0.010941003,-0.0021145937,0.0042576003,0.021460298,0.003682673,0.049933963,0.006724327,0.017394466,-0.0004495579,-0.014620966,0.02816409,-0.018914176,0.07872556,-0.044621427,0.016455347,0.035678335,-0.022778897,0.025641985,0.004328481,0.03134684,0.01577977,0.019287733,0.018002188,-0.3520761,0.07657596,-0.11578496,-0.004183737,-0.18456636,0.049982235,0.0018779623,-0.0925766,-0.022760807,-0.009478079,0.024181966,0.08976391,0.08376371,0.027686827,0.13510975,-0.022585087,0.114467494,-0.15151939,-0.02058248,0.19488288,0.021573393,-0.079755604,-0.0112899,-0.08184477,0.05881042,0.0926027,-0.051705927,0.037733387,-0.019272037,0.10538371,-0.092306845,-0.06035687,0.091151305,-0.1587099,-0.06892099,-0.16966027,0.09307842,-0.09802004,0.013021578,-0.15347101,0.016810529,-0.029173486,0.044482965,0.05750455,-0.016287131,0.07103162,-0.0019915337,-0.012774623,1.0
Backdoor.Graybird-3f4164fb248bf610709ce9546b2e1a2463d08270db94dbd7b8e42d16023a71b0,0.024351634,-0.016998788,0.028130315,0.0051996782,0.026949855,0.024720099,0.086712144,-0.057525937,0.05808654,-0.014076944,-0.016163362,0.05583315,-0.02416824,0.13124096,-0.02475896,0.013606379,0.030846143,-0.010107222,0.009301449,-0.020960847,0.0025325995,0.047735997,0.0556742,-0.0034335724,-0.36252093,0.0830278,-0.063960284,0.009885399,-0.1883797,0.03850479,0.0029562465,-0.03952579,-0.07453946,0.01916221,0.058732063,0.08098933,0.06725871,0.0063178735,0.13281699,-0.0071385372,0.09867482,-0.14891687,-0.022869248,0.18178178,0.016634766,-0.070828415,-0.01219313,-0.06534889,0.06869895,0.1072686,-0.07428228,0.055718053,-0.0077958754,0.10897795,-0.11531045,-0.051635493,0.071612954,-0.14531069,-0.11075248,-0.19782841,0.12132653,-0.11415877,-0.028732063,-0.15636423,-0.03699463,-0.016896933,0.10199706,0.13808313,0.009980117,0.13498698,0.022800319,0.020176735,1.0
Backdoor.Graybird-3fb1f955c5fedc93b423be002cde34a6436194ec36974c890a015566749cbfc9,0.03242219,-0.006069812,-0.009422479,0.0026102625,0.022735339,0.017434748,0.0400899,0.02422304,-0.011415001,-0.034736913,-0.020583041,0.049737453,-0.056332603,0.07964263,-0.056537956,0.019336551,0.06165367,-0.046865374,0.015568425,-0.012206893,0.0068053617,0.025788782,0.06389122,-0.03210898,-0.40150043,0.098139405,-0.06881712,-0.0004926123,-0.18711098,0.03509725,6.644573e-05,-0.021840844,-0.046746224,-0.007939986,0.025710452,0.13538381,0.113196574,0.058803413,0.20249587,-0.031890415,0.11759739,-0.13708095,-0.015218458,0.15934637,0.023163747,-0.061146848,-0.008613573,-0.062335074,0.060311344,0.10207836,-0.04580108,0.042240296,-0.024001159,0.10656777,-0.09621795,-0.0594122,0.06079017,-0.120037474,-0.074401505,-0.14617933,0.08399276,-0.075662784,0.0070777424,-0.12516859,-0.0057473793,-0.012837426,0.058539946,0.11609862,-0.013742283,0.08217582,0.016998626,-0.003778269,1.0
Backdoor.Graybird-4038529ffe618fbca7b702da5a4588bf4f827bfe34e22bedebc16bea8ac5cd5b,0.049152598,-0.02510498,-0.015490474,0.01712705,0.01738062,0.01245858,0.065350644,0.011585323,0.029753787,-0.0005179747,-0.022775138,0.041400056,-0.026858026,0.11645035,-0.0627416,0.028662367,0.06293768,-0.03412483,0.018386457,-0.015344679,0.013866873,0.042672638,0.0662981,-0.017297843,-0.36177287,0.08140629,-0.094344564,0.0013750201,-0.17928843,0.036494892,-0.00990756,-0.05641256,-0.06062698,0.014199959,0.065077126,0.116901785,0.10491292,0.036575288,0.19219811,-0.01954362,0.10369576,-0.13690081,-0.01741255,0.18303221,0.02931512,-0.06252171,-0.011929021,-0.06742731,0.07013429,0.09612487,-0.06849583,0.049780246,-0.01136768,0.087827705,-0.10788905,-0.04487938,0.0771586,-0.13444993,-0.09147939,-0.17957552,0.10281669,-0.09756705,0.0029867236,-0.14498746,-0.011759271,0.020302461,0.04970804,0.09324933,-0.009659669,0.0588169,0.014248122,0.0028574648,1.0
Backdoor.Graybird-43915d2a212d5620489fc5dbbbf17d934ab474e34a1058aa28ea2ae0160d6a7e,0.09362837,-0.021006767,-0.021090481,0.025614664,-0.014584751,-0.011869482,0.034732133,0.039746102,-0.000908554,0.025412537,-0.0020799157,0.013078924,0.023768662,0.087875865,-0.047204524,0.027774027,0.026990619,-0.01083723,0.047003534,0.032483634,0.06268536,0.0020034066,-0.012195096,0.061336085,-0.35615918,0.061239306,-0.120703965,-0.014603927,-0.20333888,0.044629194,-0.00091185194,-0.10917462,-0.005129428,-0.016029434,0.014008456,0.086269714,0.08226569,0.0378512,0.12433796,-0.016090652,0.11551639,-0.1267742,-0.014352485,0.1659797,0.02126377,-0.05033342,-0.022504922,-0.07982829,0.032062955,0.06701524,-0.01259608,0.022113899,-0.03179414,0.0941929,-0.053226586,-0.03955774,0.0835071,-0.15353544,-0.04376852,-0.14753745,0.0756155,-0.080347985,0.029476201,-0.15230311,0.0743536,-0.07367912,0.030661536,0.028421886,-0.017934093,0.056207642,-0.00517308,-0.019436173,1.0
Backdoor.Graybird-442eb6cd344fcc9a88b1ef5a28e662ea6a9415ff012b27b75ca3b8c07af9ae61,-0.0032751816,-0.008623014,0.050226144,-0.0011783596,0.029475113,0.06493698,0.09992129,-0.08799551,0.09749437,-0.006532069,-0.008053924,0.08135647,-0.023246525,0.18000348,-0.018963149,0.0114504285,0.0063207657,0.011720067,0.01658286,0.0004137819,-0.010702446,0.05576575,0.03851247,0.022535369,-0.3317581,0.06252507,-0.07531923,0.015030673,-0.17518385,0.03500965,0.0029802802,-0.04811872,-0.06300445,0.02520796,0.07219066,0.052843615,0.057193622,-0.0022358198,0.11479546,-0.007332133,0.12841739,-0.1567241,-0.07744797,0.18193106,0.012392899,-0.10482358,0.0058388645,-0.08736204,0.06151964,0.096579835,-0.05498443,0.04937125,-0.020755531,0.104032926,-0.10032367,-0.049880136,0.079752035,-0.1397722,-0.094942644,-0.18111432,0.12902394,-0.12453403,-0.052699942,-0.13428621,0.035819843,-0.051679924,0.086058944,0.13259426,0.0075540487,0.123515874,0.0070090243,-0.005805057,1.0
Backdoor.Graybird-45133c62869e94f748e8f947328388b6cf1190cc750f712e25695ff4e87a8ec0,-0.047394518,0.0056607346,0.06363171,-0.02242899,0.043482628,0.057958063,0.10591201,-0.10687819,0.05448349,-0.021688402,-0.004369902,0.05831025,-0.03391973,0.109703004,-0.013583839,0.0025181042,0.029539239,-0.005304113,-0.004932551,-0.022999989,-0.013851487,0.049451407,0.05869783,-0.014808551,-0.35033113,0.08269639,-0.043989625,0.023106465,-0.17564301,0.03860465,0.010071773,-0.016698344,-0.07047404,0.030684128,0.058599144,0.057481878,0.052542035,0.008367743,0.09037692,0.010119664,0.102502145,-0.134141,-0.063231476,0.16203673,0.0067969407,-0.09077272,0.012455678,-0.06959667,0.08235632,0.11343922,-0.071300134,0.048961144,-0.016973393,0.12741166,-0.121704474,-0.06585119,0.08672795,-0.15264924,-0.10758048,-0.21030422,0.13504808,-0.12851563,-0.04513999,-0.15364622,-0.03286138,-0.02128737,0.13292202,0.1790837,-0.0035511542,0.16991502,0.013527048,0.026387181,1.0
Backdoor.Graybird-4611ce9f971ce2a63d17317779aaa34aebb478c1a91c3031abf37b39a0e8a754,-0.022259533,-0.0032158475,0.065657236,-0.012295034,0.040867735,0.055726506,0.104196645,-0.10326757,0.08053905,-0.015840877,-0.0013873861,0.06885255,-0.039360292,0.13529323,-0.0024246399,0.0036916023,0.011144989,0.011719313,0.00592425,-0.0048418907,0.0029634198,0.038280103,0.02995045,0.016647352,-0.3171899,0.07199847,-0.058105174,0.01816796,-0.16755772,0.040216725,0.0046350504,-0.043471772,-0.049365442,0.013555419,0.05386287,0.05776159,0.050730843,-0.0007744738,0.10304563,-0.0034558368,0.12535837,-0.14418893,-0.06874836,0.17185761,0.0066211354,-0.08508494,0.00084202236,-0.078122936,0.066861354,0.10702353,-0.05655796,0.048746284,-0.023700915,0.11692764,-0.11459867,-0.04979389,0.0792706,-0.15287203,-0.10400757,-0.19918989,0.13086604,-0.13147022,-0.062116217,-0.14691992,-0.0070073563,-0.038231626,0.11698336,0.15040085,0.00047998436,0.16650063,0.02124284,0.007555425,1.0
Backdoor.Graybird-4768fb2a55ff7a38d1c9f26c22517c25e81050233f75a43909f56cf2bab55549,0.07540657,-0.04175836,0.00996329,0.030282255,-0.008896637,0.023346994,0.0347789,-0.055726036,0.052408885,-0.008990801,0.003773641,0.06323174,-0.005833634,0.1327848,-0.008094939,0.0032656372,0.015969334,0.015046896,0.03228534,0.000488057,0.017431116,0.042050425,0.030933576,0.040010177,-0.40130723,0.07018672,-0.06600098,0.00709557,-0.22436197,0.046851646,0.012454505,-0.057819255,-0.04947295,0.0073408964,0.0058180513,0.057962198,0.053398453,0.02686259,0.07094833,-0.0038893572,0.08490046,-0.11845553,-0.0028926341,0.1307199,0.021204636,-0.0394225,-0.010595842,-0.049948543,0.043488875,0.103204325,-0.029594772,0.029531473,-0.01913488,0.10237118,-0.069624096,-0.07184689,0.068757385,-0.13355468,-0.07414266,-0.17167367,0.10074355,-0.095174074,-0.010837139,-0.13406463,-0.0027339435,-0.054555874,0.114103325,0.12118025,0.010861532,0.13987508,0.02133476,-0.012804309,1.0
Backdoor.Graybird-48641176d1e0ac527a5bb4a797afe8ebddb93625bfb2e7878a0cd40164988326,0.12841699,-0.05433846,-0.032431174,0.038430557,0.0094371,-0.0045649502,0.047188222,0.013481028,0.026821587,0.009760994,-0.013352787,0.053869203,-0.013262159,0.15253597,-0.07455266,0.028919833,0.054159768,-0.024461625,0.042788345,-0.007484318,0.02937848,0.0419527,0.05706543,0.010237502,-0.3833195,0.07464838,-0.10349223,0.0053704004,-0.19446345,0.048818864,-0.004373203,-0.079326995,-0.05640766,0.013121283,0.038530648,0.112749025,0.11000558,0.047334258,0.16164382,-0.017678553,0.08033799,-0.1398627,0.031776253,0.1801698,0.038298223,-0.039291114,-0.021939341,-0.049594842,0.045660168,0.09351737,-0.053984307,0.04717005,0.0011659525,0.08171005,-0.07366292,-0.055266906,0.07333488,-0.12487289,-0.08581442,-0.16927625,0.08453981,-0.08424824,0.0117887715,-0.13519719,-0.03884469,-0.0013332564,0.06406096,0.07802523,0.006299439,0.07203941,0.014889626,0.013052959,1.0
Backdoor.Graybird-4873836e446dfd4e56e491364059f5f6642b9e62c3af541249d2a58f060d810a,-0.0007592784,0.0016979052,0.041497175,-0.0032234585,0.02110036,0.032867078,0.07449762,-0.055738032,0.04801462,0.00024297765,-0.0040989043,0.04887548,-0.01319165,0.13955489,-0.02484323,0.013696179,0.015310096,0.0111602545,0.003452729,-0.0129699465,-0.006123015,0.041285362,0.037649445,0.006647665,-0.34845576,0.07315951,-0.078243956,0.0050795437,-0.18445769,0.04299107,0.0068571386,-0.048465308,-0.04966291,0.018606318,0.046001155,0.051665526,0.03821981,-0.0029675271,0.07800939,-0.0038836508,0.12694113,-0.1484618,-0.053769734,0.16014154,0.010621679,-0.08449249,-0.004461201,-0.07516391,0.057162408,0.112641715,-0.0523376,0.042978305,-0.028284894,0.12738484,-0.10100497,-0.067714915,0.08314904,-0.15028995,-0.09116094,-0.18250674,0.111597784,-0.11936839,-0.04568292,-0.14342676,0.010687687,-0.046712454,0.094633125,0.13621709,-0.005520841,0.12744229,0.020673545,-0.00066952925,1.0
Backdoor.Graybird-49584192e192cd599da8b7891636d00d60f6e3a1714cec9384e53f0c3ff64dad,0.050788604,-0.008003361,0.009708006,0.009474316,0.0022718324,0.018253013,0.048923735,-0.009123623,0.0070724785,-0.007770118,-0.0014721187,0.03021906,-0.010088657,0.081751525,-0.03522791,0.015669296,0.025048818,-0.01695437,0.04511963,0.015791556,0.04719183,0.007986144,-0.0032103069,0.033780176,-0.37610817,0.08377605,-0.0973571,-0.015232423,-0.19970322,0.049820635,-0.00073035195,-0.06920034,-0.018766496,-0.0014070603,0.012239159,0.083000906,0.0704156,0.041033026,0.119670615,-0.011779568,0.12367998,-0.13277966,-0.03046007,0.15057792,0.006348192,-0.06728311,-0.0044429437,-0.06780468,0.04445297,0.0812608,-0.02254644,0.029168736,-0.03566794,0.108377986,-0.07247137,-0.057402495,0.08663353,-0.15383215,-0.06558778,-0.16294454,0.096235685,-0.10642269,0.0016009315,-0.15386406,0.054337226,-0.06821194,0.06952877,0.096021995,-0.008896273,0.10858159,-0.002759655,-0.008901439,1.0
Backdoor.Graybird-4a7c1f06c02316a383b3509b0530d50eea0fc52e3292f80ef6d99337ed1976cf,0.06010879,-0.017247435,-0.014095317,0.01842462,0.010934681,0.016954364,0.03071775,0.011043733,0.002801784,-0.010917895,-0.021276947,0.03197732,-0.029856052,0.07638205,-0.045472797,0.021896336,0.029967615,-0.016475214,0.038533874,0.02172687,0.05565744,0.01089373,0.010191398,0.032775164,-0.35116243,0.06983153,-0.100267485,-0.0048833736,-0.18208846,0.04804408,-0.007041299,-0.07497556,-0.011303959,-0.00870158,0.02634989,0.10463578,0.09338085,0.032772887,0.1727959,-0.022908403,0.13028887,-0.1254238,-0.04062532,0.16588788,0.009351295,-0.06780302,-0.012118482,-0.0837602,0.04899911,0.088149995,-0.030593742,0.025190542,-0.035910185,0.09907721,-0.08388676,-0.050091695,0.08279167,-0.14355908,-0.07152399,-0.16250627,0.09001493,-0.091819644,0.00022776771,-0.13578188,0.056503654,-0.034126636,0.026777934,0.061808337,-0.013622534,0.06214976,0.00029148883,-0.0068119224,1.0
Backdoor.Graybird-4b3805331f864f1002915b1b89e8f70643baaf6b43b688a32c2cb3810ffb3b4a,0.14672607,-0.040375333,-0.07710201,0.04375729,-0.019652808,-0.05831369,0.0058413493,0.13259333,-0.030859029,0.058179874,-0.0061079892,-0.015505378,0.04577496,0.09114752,-0.08763349,0.05005517,0.039291743,-0.032688193,0.055758618,0.024719782,0.07211697,-0.004826505,-0.008496687,0.04995098,-0.41745117,0.07924699,-0.18407144,-0.03140042,-0.23652305,0.06203327,-0.010801899,-0.15653767,0.005984323,-0.029577365,-0.0074472325,0.10394138,0.09768635,0.05858499,0.14884974,-0.035696875,0.0904052,-0.12675272,0.025536729,0.18723741,0.028800497,-0.021872878,-0.024747696,-0.0554452,0.022702066,0.0723564,-0.006453727,0.02128885,-0.019212557,0.086147465,-0.03303003,-0.05964809,0.09409951,-0.13857931,-0.017043415,-0.13664667,0.035555094,-0.06729136,0.07939322,-0.15955871,0.07212703,-0.037436824,-0.022922343,-0.039709594,-0.01202819,-0.001734308,-0.015781676,-0.019825418,1.0
Backdoor.Graybird-4ee3bccc014a06cfedefb088d22c918bad78cbcb74568815a14ebfbbcf119d37,0.09809693,-0.043448396,-0.026080018,0.04404617,0.014697968,0.0080766,0.032270126,0.005118951,0.020416608,-0.00075017684,-0.014294451,0.037428234,-0.019134663,0.10223569,-0.058534507,0.02236108,0.04467202,-0.019432355,0.04678605,0.009805309,0.0527179,0.017871063,0.02011794,0.038397282,-0.37398365,0.0764761,-0.098875225,-0.015030576,-0.19394536,0.048499532,-0.004620451,-0.08126637,-0.03719735,0.0005670256,0.015325242,0.103842914,0.09280004,0.04446491,0.15745515,-0.02041211,0.10789268,-0.12809418,-0.00011170535,0.15695228,0.02786926,-0.04407334,-0.014832368,-0.058659542,0.057717197,0.093352914,-0.044661984,0.04496008,-0.019044442,0.09523413,-0.09016897,-0.0570081,0.069712594,-0.135931,-0.0854061,-0.18251379,0.09090727,-0.08953997,0.0037409377,-0.14041765,0.0033536388,-0.006392963,0.048843946,0.08292384,-0.0023890801,0.06931825,0.0018246247,0.016917614,1.0
Backdoor.Graybird-4fa0fe574b88526a330dea8e92ead1925846131a452b09c7a42eeee07e2be5c5,0.029343493,-0.015102541,0.013257403,-0.0028482242,0.0059886724,0.007932164,0.061194807,-0.012108006,0.02489729,0.0042703096,-0.005315806,0.04604364,-0.003273482,0.14075439,-0.037941232,0.033211548,0.016508168,0.002217772,0.005142607,-0.000311125,-0.0004756989,0.03638725,0.030208342,0.0072970865,-0.3673077,0.08331874,-0.08913481,0.008091468,-0.19163814,0.048333548,0.008574594,-0.07123424,-0.0434548,0.012227939,0.04274907,0.0583666,0.06505199,0.016605463,0.111015,-0.0074099232,0.11691302,-0.14280581,-0.022668304,0.17145923,0.019969543,-0.06676804,-0.006322008,-0.075008765,0.039874118,0.09054219,-0.033525404,0.028502373,-0.023580141,0.11143327,-0.07372516,-0.06204468,0.067838,-0.1265181,-0.06535954,-0.162297,0.086833864,-0.09495339,-0.00952291,-0.13123807,0.006723078,-0.054013874,0.06640452,0.090271935,-0.00707295,0.09901226,0.019554427,-0.013062812,1.0
Backdoor.Graybird-4fb50e21fca67a80c0600b322ca12170a8283b4b04073cc330aefa42e3f01cb1,0.07300469,-0.017079938,-0.032090925,0.006437993,-0.020080654,-0.03438624,0.025612777,0.0825123,-0.024808975,0.057260405,-0.012182739,-0.010420035,0.044831794,0.097793534,-0.060037173,0.0452193,0.03333009,-0.023617875,0.028482374,0.0018834582,0.037169196,0.018005788,0.01992866,0.023274513,-0.39762303,0.08294715,-0.13929053,-0.00954143,-0.2102449,0.046739947,-0.0002318401,-0.1078908,-0.029107403,-0.010807813,0.016264282,0.061483476,0.07332273,0.026510825,0.08319877,-0.011456177,0.102359526,-0.13905579,-0.0012261178,0.1842287,0.023323495,-0.047682166,-0.021637386,-0.073026486,0.02537789,0.07687426,-0.0019437202,0.016840281,-0.028324151,0.10383649,-0.053305876,-0.06428007,0.08621885,-0.14589943,-0.018750563,-0.1465842,0.06177185,-0.08158832,0.059924655,-0.16711544,0.057635855,-0.06969623,0.024352446,0.019719135,-0.020878911,0.037949745,-0.0014230913,-0.038833287,1.0
Backdoor.Graybird-50d21079164fd8e7d563e365422688728379b15b4239beb025e4109a16f4f758,0.14844874,-0.058931947,-0.066559486,0.059876952,-0.012713687,-0.014418625,0.01276188,0.074720055,-0.0016615285,0.012660536,-0.009108196,0.025012245,-0.00020276573,0.1012723,-0.071024895,0.028661644,0.061729133,-0.041306876,0.04993417,8.245103e-05,0.046858367,0.01988446,0.04279919,0.012153904,-0.42042288,0.09041987,-0.1163036,-0.008763417,-0.21806529,0.05429802,5.5957345e-05,-0.08553315,-0.05435745,0.0023410646,0.025228951,0.13302466,0.12887146,0.058917332,0.19025941,-0.027409352,0.07337903,-0.12559511,0.04364184,0.17667782,0.032707173,-0.02839393,-0.02465095,-0.049919896,0.037472952,0.07017893,-0.028626187,0.02703986,-0.0038618927,0.06756121,-0.060964797,-0.04992042,0.07749985,-0.122658655,-0.051622998,-0.14717142,0.05233183,-0.05902928,0.060581565,-0.14134009,0.0035426605,-0.014312386,0.015351982,0.021370191,-0.011912279,0.017316287,0.010637249,-0.016354626,1.0
Backdoor.Graybird-51500e8ba9a95263700256b5b7b75c162508a80b3de7f0eb946ecacf98d78ff7,-0.001761837,-0.014794867,0.0377615,-0.0011426376,0.02176059,0.063749276,0.060737733,-0.089448586,0.066145234,-0.017429287,-0.011483387,0.059949946,-0.03819419,0.10728842,0.0010338959,0.007619731,0.014707828,0.003920173,0.011138142,-0.005118749,-0.0029629976,0.051971506,0.04591262,0.013448792,-0.38065797,0.083448276,-0.04752327,0.011327697,-0.19620813,0.036866926,0.0068966695,-0.032424577,-0.06666261,0.028315932,0.050243855,0.06823764,0.049850233,0.008592171,0.10292258,-0.0054488336,0.10597667,-0.13672382,-0.048145253,0.15561348,0.019699324,-0.08541344,-0.0031719995,-0.059280697,0.07009381,0.10840746,-0.07239521,0.0450106,-0.0075069647,0.099934205,-0.10773307,-0.061767265,0.08097151,-0.1399922,-0.10701136,-0.19301794,0.12741354,-0.12225297,-0.047324143,-0.13616358,-0.025814205,-0.028725931,0.11059093,0.1520341,-0.007762181,0.146587,0.011514444,0.014651285,1.0
Backdoor.Graybird-51faade6c8030b7f7b359977e1d699538610f96747fa89f8a1b0ea49926cdd36,-0.010279776,-0.003043776,0.03933557,-0.015179202,0.025586776,0.043699607,0.061173905,-0.069393866,0.044872664,-0.01301917,-0.0046086763,0.04749212,-0.0145962,0.077065505,0.0019202147,0.005352081,0.010472115,0.004630519,0.028098332,0.0082292855,0.021241369,0.034517217,0.018771406,0.029311925,-0.3696073,0.07168097,-0.0661209,0.0032739597,-0.19437249,0.046540845,4.1464857e-05,-0.05284527,-0.04373556,0.011300902,0.03374459,0.053950366,0.045454443,0.016255584,0.07238595,-0.005258738,0.11787515,-0.13252087,-0.049333457,0.1545213,0.013860713,-0.08633536,0.0014414086,-0.07678153,0.066952094,0.09744234,-0.045724437,0.036388863,-0.028565368,0.116494775,-0.10257645,-0.06077254,0.09365068,-0.16459426,-0.09166901,-0.19234788,0.11476326,-0.12747271,-0.03609765,-0.16429791,0.009704623,-0.059998102,0.09892466,0.1334746,-0.0038781562,0.15193576,0.016983688,-0.00041920829,1.0
Backdoor.Graybird-523152dee0737aae6b8210fb53d9ae9b2bf6be10a89e399cf1b0a193972f282f,0.07193555,-0.020747827,-0.024385044,0.02446642,0.0002348335,-0.00950348,0.023061063,0.03349079,-0.007120801,0.019915687,0.0069946093,0.026146777,0.0056869183,0.09998396,-0.0330315,0.032575082,0.020370075,-0.009958725,0.027408967,3.1348998e-05,0.020050481,0.020414885,0.02341694,0.024216877,-0.42287955,0.0798788,-0.10115878,0.0046102274,-0.22238116,0.05525838,-0.0040152897,-0.08255806,-0.026753273,-0.002262051,0.014854845,0.09046955,0.080286056,0.04049815,0.11748694,-0.023535406,0.081015304,-0.11545222,0.013666646,0.14700653,0.025034837,-0.03026108,-0.018697299,-0.04549353,0.0349633,0.08509089,-0.01937662,0.023152163,-0.023078997,0.10300448,-0.06091458,-0.06546118,0.07761276,-0.13785438,-0.044977386,-0.15310653,0.07595893,-0.07589286,0.02412408,-0.14527202,-0.0012055779,-0.061962284,0.058784466,0.06543637,-0.008097396,0.0845917,0.014189937,-0.012816024,1.0
Backdoor.Graybird-5266d90616b279757b5839b40696798dbe68c783582ecadb11cac439583b6212,0.07910343,-0.03111402,-0.0012667864,0.014812604,-0.0051145754,-0.0100539625,0.034785848,-2.4803885e-06,0.028549535,0.03098469,-0.004845013,0.018027164,0.02504688,0.10878866,-0.029358797,0.021980166,0.0076240283,0.008983804,0.034590952,0.018049717,0.03095446,0.02692505,-0.009598628,0.04994163,-0.36960799,0.07067478,-0.12290849,-0.0052393875,-0.2027951,0.05812832,0.005431928,-0.100397155,-0.024304511,0.0036522734,0.035714522,0.057631288,0.058327507,0.014375117,0.10769768,-0.008807058,0.1117566,-0.138821,-0.021303404,0.17070341,0.019022532,-0.052896082,-0.010902222,-0.07653243,0.047412984,0.0846562,-0.035077717,0.03592638,-0.015659608,0.0975002,-0.08546261,-0.054021806,0.08087108,-0.16168727,-0.07513319,-0.18414249,0.1033379,-0.10821694,0.0048494786,-0.15381978,0.025979921,-0.04937578,0.041402407,0.05015482,-0.013386068,0.07615737,0.006461172,-0.008914608,1.0
Backdoor.Graybird-53078f85f6b3651de46b7551e7f032e1734e80f6c89faf69560b2b92a5a94747,0.034320503,-0.005268663,-0.007326832,-6.5075e-05,0.022050343,0.013187313,0.04437501,0.010448769,0.011903444,0.006496075,-0.021812195,0.031051574,-0.0216048,0.093010955,-0.04495214,0.027944358,0.040979005,-0.01947334,0.014019167,-0.004572367,0.020492183,0.03166745,0.046953272,0.0055686045,-0.37191266,0.083028436,-0.09624932,0.0070708413,-0.19503625,0.04182614,-0.0055413893,-0.06467396,-0.050049745,0.0014791661,0.025709216,0.08889345,0.08049104,0.02931054,0.14639516,-0.020958656,0.10952042,-0.13910528,-0.0153165525,0.19021884,0.017775755,-0.06997237,-0.008386209,-0.06919573,0.052427787,0.09616568,-0.04308175,0.044949997,-0.023560073,0.10973617,-0.09445089,-0.06022932,0.081040256,-0.14485593,-0.06360609,-0.17164233,0.08409845,-0.08731823,0.015103866,-0.15367801,0.008290517,-0.024010556,0.053711914,0.08684252,-0.014413633,0.07371516,0.012901558,-0.011526522,1.0
Backdoor.Graybird-53ee4a2152057901cd94a7f4d548f02a3937cdf4186d27a33f991382b93cb631,0.04901291,-0.023942081,0.0027017237,0.019247565,-0.008016082,0.017934097,0.03020866,-0.023768485,0.024860218,0.0008194942,0.0100798635,0.02610488,0.011632535,0.06753103,-0.0118503375,0.010390188,0.017408988,0.0025147,0.04033948,0.016148161,0.026683662,0.032091938,0.014336592,0.038091116,-0.39395118,0.07474247,-0.083985984,0.008218082,-0.21644749,0.053717922,0.0094701825,-0.058605887,-0.043546375,0.0028206587,0.014271048,0.06539551,0.061721638,0.028542558,0.09292361,-0.0041259946,0.08431571,-0.10786729,-0.009202889,0.13391417,0.024527684,-0.046320286,-0.0061359815,-0.056007795,0.04686104,0.08082467,-0.037736367,0.023842592,-0.019161055,0.08331026,-0.059939317,-0.053870857,0.08692669,-0.14707695,-0.06752375,-0.16038866,0.09173538,-0.10479414,-0.0067369337,-0.14081594,0.010126784,-0.06040237,0.07391897,0.0822871,-0.016035581,0.1100987,0.0066770855,-0.0024852082,1.0
Backdoor.Graybird-540e9c189e9d37ffb217e7a0dc732fffef53c3efd3d0317f44bc3bc05b69fe28,0.06702999,-0.014099371,-0.0037631784,0.011687703,-0.0031189392,0.0063642673,0.045867544,0.0061968863,0.019728046,0.01876534,-0.005631213,0.034922533,0.012315172,0.115491085,-0.039108522,0.027373629,0.024258243,0.0013466051,0.027001018,0.009502156,0.020892493,0.029256769,0.022088237,0.037806302,-0.36860427,0.07293556,-0.11907382,0.0077456883,-0.20340502,0.04869117,0.0035951925,-0.09227051,-0.037738193,-0.0006466192,0.044199478,0.06980668,0.074066125,0.018845215,0.12674801,-0.010426873,0.11172413,-0.1383235,-0.022915807,0.17253582,0.02066766,-0.062266655,-0.006561846,-0.07814478,0.047367573,0.09033002,-0.04404786,0.03275008,-0.02387049,0.09839351,-0.08289534,-0.05463088,0.08559892,-0.14401102,-0.063513696,-0.16598037,0.0958196,-0.101280384,-0.009965513,-0.150649,0.03475097,-0.042862955,0.049920112,0.05983593,-0.011078007,0.07322112,-0.0026191256,-0.012880807,1.0
Backdoor.Graybird-54aa30e8c4b561710cadfa1b08bec3380375ff52f9b9485c946e177499b90e93,0.09620742,-0.032848127,-0.02276762,0.030790448,0.0071476204,-0.009669234,0.053433202,0.023938527,0.025120726,0.008741496,-0.007979668,0.04995724,-0.003394125,0.13824932,-0.060650405,0.027610376,0.042146597,-0.022362405,0.03144451,0.0030018366,0.03280101,0.026615584,0.032708444,0.015474694,-0.33439177,0.07230295,-0.117580235,-0.0012888572,-0.18057351,0.04854484,-0.008817415,-0.087776326,-0.028796164,-0.0058334065,0.025905615,0.09426672,0.093663216,0.036894903,0.15399945,-0.014878172,0.10089155,-0.14177011,-0.0014636227,0.17471944,0.024801143,-0.05363723,-0.022749605,-0.05611134,0.048765346,0.0888253,-0.037354026,0.029472547,-0.015755313,0.088884115,-0.072378814,-0.05844869,0.07653771,-0.13845734,-0.06662694,-0.16967112,0.08431659,-0.07456843,0.023530984,-0.14807749,0.0054863538,-0.017536325,0.049433593,0.067176506,0.008457288,0.071147904,0.0018644313,0.0043853982,1.0
Backdoor.Graybird-54c2b04305bbaf46d7fa1fc9901bfc4cc51b632f8ff0004fca5c9d0d34a43e88,0.03575477,-0.010488977,0.018320229,0.009294757,-0.0069419714,0.0025277347,0.048543952,-0.041500878,0.043616388,0.025394036,0.0058512916,0.027080448,0.024831526,0.11353099,-0.0026386364,0.014847233,-0.0035833542,0.017029425,0.02986426,0.012042818,0.019686112,0.037277285,0.0075077545,0.054725766,-0.33978143,0.05936822,-0.09687919,3.653852e-05,-0.18852732,0.05302511,0.004100604,-0.074633844,-0.04017016,0.018416049,0.04165071,0.022817941,0.029941097,-0.0024519097,0.05595609,-0.005958966,0.11672603,-0.1404276,-0.039978098,0.16284864,0.01770492,-0.06818467,-0.0048479848,-0.06920376,0.04953639,0.08719754,-0.045770384,0.038351864,-0.023317276,0.10276328,-0.093570255,-0.04744955,0.08908849,-0.16477346,-0.07793366,-0.18444893,0.11125991,-0.12015087,-0.025096903,-0.1628365,0.02465909,-0.066425264,0.07059976,0.08721178,-0.00838623,0.11114546,0.0041198195,-0.004261653,1.0
